<?xml version="1.0"?>
<MethodSetup Method="DNN::DNN">
  <GeneralInfo>
    <Info name="TMVA Release" value="4.2.1 [262657]"/>
    <Info name="ROOT Release" value="6.08/02 [395266]"/>
    <Info name="Creator" value="minerva1993"/>
    <Info name="Date" value="Mon May 22 19:19:41 2017"/>
    <Info name="Host" value="Linux htop.hanyang.ac.kr 2.6.32-696.el6.centos.plus.x86_64 #1 SMP Mon Apr 3 14:56:08 UTC 2017 x86_64 x86_64 x86_64 GNU/Linux"/>
    <Info name="Dir" value="/home/minerva1993/fcnc/tmva"/>
    <Info name="Training events" value="40000"/>
    <Info name="TrainingTime" value="1.45577853e+03"/>
    <Info name="AnalysisType" value="Classification"/>
  </GeneralInfo>
  <Options>
    <Option name="V" modified="Yes">True</Option>
    <Option name="VerbosityLevel" modified="No">Verbose</Option>
    <Option name="VarTransform" modified="Yes">N</Option>
    <Option name="H" modified="Yes">False</Option>
    <Option name="CreateMVAPdfs" modified="No">False</Option>
    <Option name="IgnoreNegWeightsInTraining" modified="No">False</Option>
    <Option name="Layout" modified="Yes">TANH|50,TANH|30,TANH|10,LINEAR</Option>
    <Option name="ErrorStrategy" modified="Yes">CROSSENTROPY</Option>
    <Option name="WeightInitialization" modified="Yes">XAVIERUNIFORM</Option>
    <Option name="Architecture" modified="No">STANDARD</Option>
    <Option name="TrainingStrategy" modified="Yes">LearningRate=0.03,Momentum=0.5,Repetitions=1,ConvergenceSteps=300,BatchSize=1000,DropConfig=0.0+0.3+0.3+0.0,WeightDecay=0.001,Regularization=L2,TestRepetitions=5,Multithreading=True</Option>
  </Options>
  <Variables NVar="5">
    <Variable VarIndex="0" Expression="NJets" Label="NJets" Title="NJets" Unit="" Internal="NJets" Type="I" Min="4.00000000e+00" Max="1.40000000e+01"/>
    <Variable VarIndex="1" Expression="NBJets_M" Label="NBJets_M" Title="NBJets_M" Unit="" Internal="NBJets_M" Type="I" Min="1.00000000e+00" Max="6.00000000e+00"/>
    <Variable VarIndex="2" Expression="NCJets_M" Label="NCJets_M" Title="NCJets_M" Unit="" Internal="NCJets_M" Type="I" Min="1.00000000e+00" Max="8.00000000e+00"/>
    <Variable VarIndex="3" Expression="BJMDPhi" Label="BJMDPhi" Title="BJMDPhi" Unit="" Internal="BJMDPhi" Type="F" Min="-3.14143872e+00" Max="3.14156199e+00"/>
    <Variable VarIndex="4" Expression="BJMDEta" Label="BJMDEta" Title="BJMDEta" Unit="" Internal="BJMDEta" Type="F" Min="-4.67494106e+00" Max="4.74954796e+00"/>
  </Variables>
  <Spectators NSpec="0"/>
  <Classes NClass="2">
    <Class Name="Signal" Index="0"/>
    <Class Name="Background" Index="1"/>
  </Classes>
  <Transformations NTransformations="1">
    <Transform Name="Normalize">
      <Selection>
        <Input NInputs="5">
          <Input Type="Variable" Label="NJets" Expression="NJets"/>
          <Input Type="Variable" Label="NBJets_M" Expression="NBJets_M"/>
          <Input Type="Variable" Label="NCJets_M" Expression="NCJets_M"/>
          <Input Type="Variable" Label="BJMDPhi" Expression="BJMDPhi"/>
          <Input Type="Variable" Label="BJMDEta" Expression="BJMDEta"/>
        </Input>
        <Output NOutputs="5">
          <Output Type="Variable" Label="NJets" Expression="NJets"/>
          <Output Type="Variable" Label="NBJets_M" Expression="NBJets_M"/>
          <Output Type="Variable" Label="NCJets_M" Expression="NCJets_M"/>
          <Output Type="Variable" Label="BJMDPhi" Expression="BJMDPhi"/>
          <Output Type="Variable" Label="BJMDEta" Expression="BJMDEta"/>
        </Output>
      </Selection>
      <Class ClassIndex="0">
        <Ranges>
          <Range Index="0" Min="4.0000000000000000e+00" Max="1.4000000000000000e+01"/>
          <Range Index="1" Min="1.0000000000000000e+00" Max="5.0000000000000000e+00"/>
          <Range Index="2" Min="1.0000000000000000e+00" Max="8.0000000000000000e+00"/>
          <Range Index="3" Min="-3.1413979530334473e+00" Max="3.1412608623504639e+00"/>
          <Range Index="4" Min="-4.6692671775817871e+00" Max="4.7495479583740234e+00"/>
        </Ranges>
      </Class>
      <Class ClassIndex="1">
        <Ranges>
          <Range Index="0" Min="4.0000000000000000e+00" Max="1.3000000000000000e+01"/>
          <Range Index="1" Min="1.0000000000000000e+00" Max="6.0000000000000000e+00"/>
          <Range Index="2" Min="1.0000000000000000e+00" Max="8.0000000000000000e+00"/>
          <Range Index="3" Min="-3.1414387226104736e+00" Max="3.1415619850158691e+00"/>
          <Range Index="4" Min="-4.6749410629272461e+00" Max="4.5950241088867188e+00"/>
        </Ranges>
      </Class>
      <Class ClassIndex="2">
        <Ranges>
          <Range Index="0" Min="4.0000000000000000e+00" Max="1.4000000000000000e+01"/>
          <Range Index="1" Min="1.0000000000000000e+00" Max="6.0000000000000000e+00"/>
          <Range Index="2" Min="1.0000000000000000e+00" Max="8.0000000000000000e+00"/>
          <Range Index="3" Min="-3.1414387226104736e+00" Max="3.1415619850158691e+00"/>
          <Range Index="4" Min="-4.6749410629272461e+00" Max="4.7495479583740234e+00"/>
        </Ranges>
      </Class>
    </Transform>
  </Transformations>
  <MVAPdfs/>
  <Weights InputWidth="5" Depth="4" LossFunction="C" OutputFunction="S">
    <Layer ActivationFunction="3">
      <Weights rows="50" cols="5">
        -3.8362145311723234e-01 -2.5780583787303535e-01 1.9407531808566061e-01 2.4556964727054190e-01 2.7716129804088004e-02 -1.7023399699243461e-01 -5.1715136860924826e-01 4.3219431303071132e-01 1.2990532971533689e-01 1.6485854142272677e-01 -4.3271790402424298e-01 -1.0541484626510925e-01 -2.5927073064831951e-01 5.5466926181575775e-02 -3.6794803195056008e-01 1.0762578897825595e-01 -1.2727624770299759e+00 -6.0507008111065991e-02 4.4209675319527131e-02 -1.7890426885293251e-01 4.3392545042631836e-01 9.7122043650857096e-02 -9.8576096775003660e-02 -4.1259591787246319e-01 -1.8334326760851696e-01 3.0019305560549703e-01 4.6639974674539603e-01 6.2112608297899252e-01 -1.9781382846519840e-01 -1.1555651133323024e-01 -4.7622136522584502e-01 3.2986131804428726e-01 2.5703821874326627e-01 1.3775821402688423e-01 3.2109593930725761e-01 -2.8982924934587317e-01 1.4173594380033855e-01 9.8732458965480566e-02 2.5839606244832591e-01 -5.5058996582841202e-01 -1.8786255620214956e-01 -1.1658202975713829e-01 3.0829541104331559e-01 -2.4359673003542062e-01 -7.3271707598632851e-01 -5.6264097424700488e-01 -2.9252632706627613e-01 -4.5370152139442815e-01 1.6349477583090213e-01 -2.8411562438013721e-01 2.4464172375422921e-01 -1.9220441068182062e-01 4.4277942731177238e-02 3.9166406530362845e-02 4.3130139136559470e-02 2.7857470668183565e-01 -4.4233825143966421e-01 -7.1460540327342004e-01 -8.5996803249067721e-02 -7.2243244550625335e-02 2.6299185664121000e-01 4.7199936387888042e-01 1.0739206032010100e-01 -8.2191456027990981e-02 -1.3969375008379442e-01 2.1347201326502391e-02 -4.2777437854642514e-01 1.4514040127885294e-01 7.5085868825550253e-02 2.4583739292924411e-01 2.6174169992062790e-01 -5.1631975570574307e-02 5.2039892016993794e-01 -8.4797291042474382e-02 1.3831520584380408e-01 -6.2858660283738071e-02 -1.8030425764324626e-01 2.4172293021752703e-01 -1.4162930767599177e-01 -2.8412672384691712e-01 -1.6419290438287903e-01 3.8824095143329845e-01 -2.6731286427813711e-01 -2.3123274764130560e-02 5.8768808249654281e-01 -2.0510892884051166e-01 -1.4973441908937082e-01 5.3034308038274769e-01 -6.1270460622346021e-02 -6.4742599853322502e-01 1.1020879411118775e-01 -5.4010570230273180e-01 -4.0481312044880043e-02 -6.0932927645793300e-01 -4.8442186961774597e-01 -1.0450571109413551e+00 3.2611501931731035e-01 -5.9472765478761763e-02 -4.0090241581881508e-01 -5.0639163617412164e-01 4.3096615611489857e-02 7.2132428913132846e-02 -2.8320115883677738e-01 2.5661770415771729e-01 3.8197654327964908e-01 1.5085683390261448e-01 -5.1865214664412806e-01 2.9178162016398168e-01 2.2940141578525633e-01 3.1379596050854698e-02 -2.7922360518418426e-01 7.7984331426090084e-02 -2.3266242726901254e-01 3.7552435525055217e-01 -7.2208271938088797e-01 4.7360471668891552e-01 1.3271766193820497e-01 -4.3080631324773400e-01 3.8633322239557505e-01 -3.3465007144218079e-01 3.5463458943195837e-02 8.0360704411125014e-02 1.8739671100919508e-01 -5.2740461217031097e-02 1.2867312891364693e-01 1.0525247105207793e-01 6.9426610879101658e-01 -5.3200418064417276e-01 1.2376467301928784e-01 -3.0520462147399713e-01 6.7227300809334133e-03 -1.1194368272208376e-01 4.4580580224377769e-01 8.1497513017776232e-02 7.5261364920126983e-01 -4.8256666782468693e-01 -6.5507933008260771e-02 -1.3222468996766487e-01 -1.8016646089849755e-01 2.5661059306505912e-01 2.2630765631279604e-01 1.1304571389946744e-01 1.2149902800336236e-01 -1.6487319316297508e-01 -2.8193335064482172e-01 -1.2376351626381989e+00 8.1303706308037571e-01 7.9256095109235070e-01 -1.8355909885065758e-01 -3.3658710321182067e-01 -1.0129776095788316e-01 -1.2753239309830369e-01 3.1791872846270341e-01 -4.4227961539293137e-01 5.0145232703957010e-01 -1.1971553060625206e-01 -3.1173548553561931e-01 -4.8972798515306520e-01 2.1791375026235188e-01 1.8814602608491227e-01 -2.9631847122594085e-01 2.5740269360075446e-01 -4.0374226713814729e-02 6.2756838267381732e-01 -1.2798663702931357e-01 -2.8327828100706381e-01 -1.9924813154762708e-01 -2.3413945322398591e-01 1.2905827464250788e+00 4.5390531263700029e-01 -1.2814430801126575e-01 2.8452526687126206e-01 9.2075233718091884e-02 4.5073355024852491e-01 -2.1951160954255211e-01 -1.1085739560026947e-01 4.2186649335800913e-01 4.9840691789872799e-01 -6.9311574840745363e-02 8.9707299864736412e-02 3.7886384294289682e-01 -4.6964421450885729e-01 -2.4732816443868694e-01 -6.2318195992109215e-01 -3.8136552550710373e-01 7.6577113620829196e-02 -1.1195801258479196e-01 -1.9878739546908017e-01 2.1582743266899396e-01 -7.3365816429136629e-02 -3.2861096544435314e-01 9.0227720377432874e-02 7.4709153743814449e-01 -2.5905002097413898e-01 1.3426895741499645e-01 -5.8600191718428979e-02 -7.5139920427407558e-01 -8.3417901412588835e-01 7.8770765094250017e-01 1.8468755382480651e-01 -2.6073708360826098e-01 -1.2818161166150768e-01 -6.3758378874279997e-01 3.0775762273264690e-01 6.7473967450755623e-01 -1.8926337930257967e-01 2.0292134347211552e-01 3.6917983289023054e-01 3.5084323863399797e-01 -5.8168077531106444e-01 -7.5072916214746696e-02 -6.3564809913781439e-01 2.6890609914610863e-01 -5.3716376871882798e-01 1.8806519693763438e-01 3.8319882697635282e-01 6.6341414683220612e-01 2.5180915830333689e-02 -4.8140971779742570e-01 -9.5980504288848661e-02 4.3177328284511063e-01 4.0125264592136223e-01 -3.6758241515059581e-01 2.8546281091796333e-01 6.6221002923848571e-01 -2.5082940112281543e-01 -2.9741971375942478e-01 -5.4298073520064272e-01 3.5646900991360209e-01 1.6154127210447305e-01 -8.1272500784028034e-02 2.8954923083248346e-01 -3.3039337960988707e-01 -5.1792824813768668e-01 1.8505113204822660e-01 7.7209561805262183e-01 2.5613589849852064e-01 -3.6209691601643945e-01 1.1580103809778383e-02 -4.1106199854672137e-01 1.4981823898115162e-01 7.1070222578330677e-02 3.8820148603847450e-02 1.3549257601222209e-02 -2.5391319077426988e-01 -1.1329210204221092e-01 3.0739701019863636e-01 2.9173930715425905e-01 -2.8424025760043559e-01 2.0451795908359049e-01 
      </Weights>
      <Biases rows="50" cols="1">
        -3.4548196030231687e-01 -2.3866665796631900e-01 -5.8870158767455705e-01 -4.9675077186957040e-01 3.1214727626587802e-01 5.8142184721605483e-01 -1.0821127169017846e-02 -1.5281084504833825e-01 -1.7431447489809604e-01 -8.8427234832605150e-01 6.4565878497986132e-02 -2.7725779078990442e-01 4.4099671479159652e-01 -1.6141065799610299e-01 3.9373015016495627e-01 -7.8276824955308012e-03 1.0159093630722139e-01 -5.4956023692245087e-02 -3.3133990943855018e-01 -2.8926814686746194e-01 5.6004616690860008e-02 -7.9767337598542570e-02 -7.0302555301405689e-01 1.6860602431457558e-01 1.7644505704604724e-01 1.9892966005793131e-01 2.4566480740414567e-01 -3.4757399965343855e-01 2.6003589206503674e-01 -9.2232522006177642e-01 1.5871165325467895e-01 -4.4042239208725026e-01 -1.0488993701199267e-01 8.1905264808277187e-02 -3.0953173586224418e-03 3.3113503526039789e-01 -1.5239891617440265e-01 -1.3170699723781659e-01 1.3411879418849615e-01 -5.8351210046427138e-01 -2.7398233804802574e-01 1.5858621981629523e-01 -2.2050282369229862e-01 5.8247771585752894e-01 3.9312403700432152e-01 -4.6125930186337472e-01 1.3429637761299335e-01 4.7624541019759975e-01 1.0605987592223569e-01 2.7107083649258668e-01 
      </Biases>
    </Layer>
    <Layer ActivationFunction="3">
      <Weights rows="30" cols="50">
        -1.6446136076842754e-01 9.9388668326516036e-02 1.4843404900978843e-01 -1.1936014898515226e-01 -1.9130857136105003e-01 -1.0640624475906892e-01 -2.1015084830167829e-01 -1.8209584871752413e-01 -9.6971799106896420e-02 1.1833050975688543e-01 -1.1782260006380975e-01 1.3174290179614197e-02 -1.4558414460471078e-02 1.7847645916173754e-01 -1.7948193662333164e-01 -7.0581685393265106e-02 1.2872219721663711e-01 4.8302892574012053e-02 3.2041201800746474e-02 1.6814464228013973e-01 -2.2475925216922682e-01 2.3244054690442340e-01 1.7825296104144789e-01 -1.1413578038417377e-01 -2.0910938183142252e-01 -1.1256471751887613e-01 5.5293260232615694e-02 -8.5167279156111206e-02 8.1238621389824142e-02 2.8479553147426378e-02 -1.9422114043193880e-01 -2.4459605997014289e-02 -1.9283851698483892e-01 -1.1574964713815333e-01 -1.6080205535246937e-03 9.0798419846635281e-02 -1.4764762402718698e-01 -1.0468482765231675e-01 1.5502699726954422e-01 -8.0485053234327961e-02 -1.7573734580978481e-01 1.1231286943712826e-01 6.9593103340749696e-02 -1.1016933609509533e-01 -3.7347371408945416e-02 1.5823404945008258e-02 -2.7087928191359247e-03 4.8548337272002279e-02 -5.0543842525098005e-02 -8.9243983624043982e-02 1.3087573661741581e-01 8.4479098080548362e-02 3.9990897186963761e-02 -7.1122236314877949e-02 -3.9780847722825481e-02 -1.6174256740316070e-01 1.3123138238072293e-01 1.1056361670861527e-01 -1.9982902128452197e-02 1.8335073729837861e-02 -1.1137657402957836e-01 7.6961435128242883e-02 3.4985278643821061e-02 1.2894771124010387e-01 1.5559561282025350e-03 -6.7796286860744112e-02 -5.1695813929951449e-02 8.6935459535167958e-02 -1.0030536325594724e-01 -3.3184673932657303e-02 -1.8201299861097420e-01 1.4229968327069450e-01 1.1474678233605620e-01 1.3033487924581882e-01 1.0349287345562130e-01 -1.3341752587741165e-02 -3.0444263688269337e-02 1.0408496109710026e-01 3.2983069876294881e-02 1.6820171077169432e-02 -1.8668456906994929e-01 -8.7842365061651842e-02 -2.3342851873834381e-02 2.4708095381625932e-02 -1.1266101945052218e-01 1.4584147823716245e-01 1.9712630959410948e-01 1.6985666539154531e-01 -1.5476229938615332e-01 8.6097580570481613e-02 -1.3603983646196902e-01 -8.0170368669289310e-02 5.5080256211585766e-03 5.5690061216327399e-02 4.8936619917719699e-02 4.6416795049432739e-02 1.5650507668276528e-01 1.4827718220103353e-01 -9.5497536751089671e-02 -2.1014298104342855e-02 7.0664562646663334e-02 -1.7445960663815041e-01 1.5334306310050899e-01 -3.0021686509238660e-01 -1.2272855115075233e-01 1.0534324021455802e-02 2.2495987852382801e-01 4.7152752004681303e-02 1.6338431686387764e-01 2.7169160820073902e-03 -8.0366484619296255e-02 -1.2316733194059699e-01 1.4915042489229691e-01 -2.5388476710949622e-02 -1.8504813078198776e-01 -8.0295277131180384e-02 3.0215205721086880e-01 -5.9688634584892991e-03 -1.4084698076076932e-01 -7.6218347343374362e-02 -1.8955179409341560e-01 -5.4061604357772554e-02 5.1935258600615215e-02 -2.7520725054731542e-02 -1.9973782278200612e-03 4.6185011953544554e-02 -4.2635840653738072e-02 -2.9775561242326377e-02 -3.9996343136532338e-02 2.2989286195422332e-01 -1.4003518908106113e-01 -1.5518837925799808e-01 2.4859396100229858e-02 6.9600589613023650e-02 2.4872068401794958e-01 2.6895388637405926e-01 -8.2784892038150842e-02 6.6174702483482398e-03 2.4510107943128040e-01 -3.0388212907055784e-01 3.0513867887572266e-01 -2.6635904671563604e-01 -3.8453472114294951e-02 -4.6091934424509172e-02 8.3618585607877383e-02 -1.3387109184693199e-01 2.0439276705008561e-01 5.8008627911354395e-02 -1.8488378759177485e-01 4.8429852138976937e-02 1.2015259457012711e-01 3.8727710534131782e-01 -4.2583758007806685e-02 8.6351939561856694e-01 1.3683194977024571e-01 -2.0318349188189352e-01 -4.3020959656636187e-01 -1.7287455019341987e-02 8.9736549900770846e-02 1.6146607906196786e-01 -7.6004188123157661e-03 1.9154622124051840e-01 -4.1871266596985945e-01 4.3844674669825801e-01 2.9531907845723959e-02 4.3765895478560513e-01 -3.2638298361102069e-01 2.5543489588660900e-01 5.6294451566613746e-01 -2.2533725136667354e-01 -6.7404810864499898e-02 4.4745945707615314e-01 -1.2837933903723037e-01 1.2083428392870139e-01 -1.6492944963142986e-01 -4.3882975547842440e-01 -1.8822057921228263e-01 -1.8923547172698171e-01 -2.3943184066723314e-02 -7.4600616040773005e-01 1.8830171141240928e-01 1.7123842308814205e-01 -5.9338783083960706e-02 7.8056341191251544e-02 -2.0464530149062085e-01 -3.0809027005170392e-01 2.6687364527138746e-01 -1.2116492208634308e-01 -7.5678071848019307e-02 2.5705508765327534e-01 -2.2585137906162012e-01 1.8552176213694813e-01 4.2726517466894776e-01 -4.0839737650675362e-01 -2.3825805534485356e-01 -2.8270849402694492e-03 -3.0025819858398783e-01 -8.1880899209786310e-03 1.5583137928315460e-01 -2.3143050411284088e-01 -1.6626575984928024e-01 -1.5819621369929671e-01 4.0692410671989802e-02 3.4293449301470727e-02 7.4330962895746061e-02 5.2454874226175528e-02 -5.2072844572728032e-02 -1.0086162156419863e-01 -2.2438603020177839e-01 -8.9786171317131958e-02 9.7563589689189406e-02 -4.2619953482056661e-02 5.4366105831030300e-03 7.7689711301148004e-02 1.6967621143963318e-01 -1.9794583687652387e-01 -6.5216341501857594e-02 1.9648418222889926e-02 -8.6929511027438469e-02 -1.1554279062573020e-01 1.3121372528458294e-01 -8.3266108506510450e-02 -8.6859982573959396e-02 -1.3951917255939975e-01 -1.6346681718804626e-01 3.5142308606838986e-02 7.9579616648127502e-02 7.0070646582480953e-02 -9.8380062889454445e-02 1.4515973127360920e-03 -4.2521728037605830e-02 3.5036415235390216e-02 1.4662748541670881e-01 3.9411566675481360e-02 -1.6856862461753225e-01 -9.2509498144788149e-02 -1.4092045456803651e-01 -1.4415056459025832e-01 -1.3681512335310604e-02 8.3576525200774007e-02 -5.0673456040942325e-02 -4.9914710927491585e-02 7.2913438944190903e-02 -7.8031287092840282e-02 5.8345333963220246e-02 5.8117203507727450e-02 2.3493719374925193e-01 9.6347983799397047e-02 -3.0059693749500276e-02 2.2188052768469088e-01 9.0353668959216829e-02 -1.1208919679123125e-01 -1.0781830213209161e-01 -1.9665547265802530e-01 -5.8487901358286111e-02 1.7455025998141913e-01 6.4060240158361495e-02 -1.3971259655668253e-01 -1.7949189567421900e-01 1.2020575665804624e-01 -2.0978405690274746e-01 -2.7381275764106809e-02 2.1294441763317181e-02 1.9861073513071181e-01 2.7503540248616089e-02 -1.7780253676402441e-01 1.4481204291731808e-01 3.2627970348421541e-02 1.5786728353049229e-01 -1.2994496396551697e-01 6.7938183145484629e-03 -8.8044395533012465e-02 -1.7562280079806955e-01 -4.0082384604883572e-04 -1.1437923010572663e-01 1.1359201196529434e-01 -1.6682041770031206e-01 -1.8796288284253743e-02 -2.8685233677307714e-02 -1.3937646181112148e-01 -7.2883634262464428e-02 1.6103951530284188e-01 -1.2009358222785549e-01 -1.3325318090557053e-01 -1.1877446249297180e-01 8.6604299312452601e-02 -5.5642942237022111e-02 -1.5888213701776849e-01 -1.8251204734323653e-01 -3.8603914174725626e-02 1.2412288111158930e-01 4.7206292218190338e-02 1.1667936748418123e-01 -1.0587119258678571e-01 1.6945623694968703e-01 -1.2565394977891139e-01 1.4473492687315548e-01 1.1345104061050920e-01 -9.4905694907685328e-02 -1.0750139191857760e-01 -8.0892383207129187e-02 6.5620422517269116e-03 -7.6406040475678824e-02 1.0934686864648822e-01 1.0291660995645406e-01 2.2048037198298611e-03 1.2469404729938824e-01 1.0514086667806917e-01 1.0816752806761017e-01 -1.3623374367306376e-01 1.7188379818884228e-01 1.0193815339882456e-01 9.9443975935596382e-02 -1.5642693858985948e-01 -1.8797804352563379e-02 -6.7204159805983113e-02 -1.0794685274427594e-01 -1.3663554997232349e-01 -6.6498959158974250e-03 -1.4609717063886354e-01 1.0363242026035763e-01 -1.5999379832521898e-01 2.1518065836831799e-03 -1.5018512939390280e-01 2.0474176042969022e-01 -1.5176378707502886e-01 -7.4571493871108563e-02 -5.5199852553086341e-02 1.3974546853605094e-01 -1.6181909667178349e-01 -1.3648893652026838e-02 1.2746515250100512e-01 9.2906554328099647e-02 1.4585070814352175e-01 -7.8935496569901800e-02 1.5675351690573416e-01 -2.6434814656692628e-02 -1.6729901707912173e-01 -6.2862534289003819e-02 5.6510921703182587e-02 -1.7236191295459287e-02 -3.9086205374287898e-02 9.8404127991072718e-02 1.4190080701878294e-01 4.7947663139347852e-04 -1.5425132697355370e-01 1.9022661630056892e-01 4.3813630013757508e-02 -1.0343906147956564e-01 -1.3979430331820353e-01 -3.5492518391610425e-02 -1.7010547987959190e-01 7.3221357420153260e-02 1.8037444301072972e-01 -1.8669940604082527e-01 -1.2794943711875761e-01 8.5829822864715175e-02 6.0455721718049395e-02 2.0763096860768665e-01 2.4227924949056154e-01 8.0760177495812255e-02 -1.0100552645265042e-01 1.1960408519681766e-01 -9.1856452933827867e-02 1.3422675421910374e-01 -8.1553070664562521e-02 -9.9844065537831650e-02 -4.1147723191257375e-02 -9.3626618397353506e-02 1.6808634585337939e-01 -1.0637441967140794e-01 1.6259217273571258e-01 -4.5849097283840075e-02 -5.9821988369698605e-02 9.5688567542381572e-02 -1.3664038134282561e-01 -1.0875603683774107e-01 -8.6834052339090015e-02 -1.3123339320436733e-01 -1.2346715849634309e-01 -1.1826530221897912e-01 1.2150658512390371e-02 -1.7434729624662090e-03 6.9648475561107273e-02 7.5951573348122525e-02 1.0092391724363051e-03 2.0582536639720173e-01 2.7093227847664641e-02 5.6898456277900836e-03 -1.4788433508236595e-01 -5.8756904745148608e-02 -1.5392082712556659e-02 1.2684015092365747e-01 -1.4670126176160786e-01 -3.4833510221366028e-02 5.3117727883013631e-02 -1.6402425341719356e-02 1.4500946315661661e-01 1.2621338662126499e-02 1.3278170791792904e-01 -1.3916705065752999e-01 6.1019891193549239e-02 -1.9552337788312951e-01 -1.8398445232507260e-01 4.5196953653234763e-02 1.9118984450406831e-01 1.4206302059796544e-01 1.0210516959078653e-01 -1.7608338913754509e-01 -1.6410583526021863e-01 -1.4381020506470174e-01 1.0087698981719920e-02 -3.5574619405987544e-02 3.8165001720618943e-02 7.3873927060513919e-02 7.7722964783909373e-02 -8.4884888110575610e-02 1.5220520262578990e-01 -6.3118010314766923e-02 -1.4313717263113199e-01 1.1104358084022618e-01 1.1471221320515998e-01 -4.1560534346886661e-02 -6.3097096162263597e-02 -2.7956104297809134e-02 1.6270103645744136e-01 -1.9150143388837379e-01 8.3322772868784228e-02 4.7363777724106028e-02 -1.3587853104448314e-01 -9.9592588569181614e-02 -2.3580101693675631e-01 -2.4644321420528095e-02 3.0804048326792233e-02 7.0516891599439108e-02 9.7706205695452977e-02 -7.0370850620553968e-02 8.5428070822080981e-04 1.7970602788383586e-01 2.2674398978621887e-02 -1.4605240905864698e-02 3.0240925406037740e-02 -4.4102763121111471e-02 1.2301420690503116e-01 2.1129240917947156e-01 1.0864096771577621e-01 2.4069501921351463e-01 2.4540235259591994e-03 -3.1920779260630465e-02 3.9230121993201424e-02 1.7225523308552215e-01 -2.0474665336439445e-02 8.8352131511275189e-02 -1.5138663842101998e+00 8.8627388592337736e-02 -3.9876085688579183e-01 2.0429056190681819e-02 -1.6992287580045515e-01 5.8627872272474135e-01 1.9296480140213049e-01 -8.1684149354117955e-02 -4.9875685157665210e-02 1.4404488917003663e-01 -4.3700655096281064e-02 -9.5518985806689077e-02 -5.2943090630556688e-02 4.0366213408202130e-02 -2.5975939695618394e-01 4.5195822975211943e-02 1.7300367948967127e-01 -2.5312927750803965e-01 -4.0076474056360979e-02 -4.3427004036681267e-02 -3.6711674520281186e-02 1.6730953999022544e-01 2.0821525995013132e-01 5.8341684066403166e-01 3.1166143514297856e-01 -2.9367646058200060e-02 -4.6469305452726156e-01 1.9159134985108899e-02 -2.0553154467099214e-02 -3.2391946458829729e-02 6.7499126429147427e-01 4.0414582430459006e-01 9.6794691675061967e-02 7.5139269592371549e-02 1.9923573787009727e-01 3.8293902373871830e-01 -7.1084387418762063e-01 7.7669017008299357e-01 -1.8413025485728354e-01 -2.3761392021616506e-01 2.6733258332539828e-01 -5.0345770821218105e-01 1.6839934484512065e-01 -3.2668832231848008e-02 9.8548042710615624e-02 -2.4645948591995745e-01 -4.7576220099660865e-02 1.8829177425121285e-01 1.7749895500190549e-01 1.8634918436770190e-01 6.5741312167700173e-03 1.7471301919379192e-01 -4.4093084872693249e-02 -4.2166860277412337e-02 -2.6009139557017082e-02 1.6723814512805371e-01 1.5773569721830991e-01 -8.8746697029847929e-02 -1.4945152755230023e-01 -4.2104833934981656e-02 1.8239260357246967e-01 -1.4462527050185028e-01 -1.6166249220554887e-01 -1.6569247836477279e-02 2.1341519184261484e-01 -9.2457484257236072e-02 -2.3396246338946738e-02 -2.6864095338983457e-02 1.2038984512752905e-01 -1.5940898026324679e-01 -1.5043558933983875e-01 -3.8731611279873103e-02 -7.7990580287942465e-02 -6.3383451876874289e-02 9.0669793708513982e-02 9.3232163155840417e-02 -1.4674087606919115e-01 1.0083846876468255e-01 -2.4414245990966203e-02 1.4586789114316417e-01 -1.5462894789257431e-01 2.1157662247953848e-01 -2.7336279759819743e-02 -1.0116383030161995e-01 1.8899759766389229e-01 8.0391853544515432e-02 1.4448696699337879e-01 -1.2688781577163516e-01 1.6034533469788109e-01 -3.5216480769294266e-04 -4.3580852829473285e-02 4.4880597192845699e-02 1.3251585843597807e-01 -4.8005405321566934e-02 4.7935129040359729e-02 1.5928987662018286e-02 4.5821542878798062e-02 -1.7270409636845679e-01 -2.2403892588175871e-02 1.5439971454101642e-01 -7.9948946524600106e-02 -1.5567398560493576e-01 -1.5087456091369861e-01 -1.0273067579060859e-01 -1.2882411052946310e-01 -2.9033264873530976e-02 1.5735329346993313e-01 -6.1593761755602211e-03 -1.1888085437597480e-01 2.9493185368241855e-02 -9.0765104043683389e-02 -6.0445115819947083e-02 1.6091899856880867e-01 9.8453774414958478e-02 -2.1797380620116616e-02 -3.7136999881476090e-02 1.1340573591761464e-01 9.1802126445360996e-02 -9.4222458031321000e-03 -1.4060862370875571e-01 1.3027134963611375e-01 -1.8110344684261226e-01 -1.5026761495873914e-01 2.1568119623192800e-01 -1.0020532470225277e-01 -8.0211124463037936e-02 1.0434056569110620e-02 3.1274926825643000e-02 1.1901875131831145e-01 -7.0044956245557165e-03 -1.9334733611232391e-02 -7.9012138841103793e-02 -1.1607798326515360e-01 1.5887493555206120e-01 -7.8240649383482241e-02 -7.3759143926851858e-02 -7.5833830400597636e-03 -1.6055195076275827e-01 -6.8537351611437036e-02 -2.1524066227162081e-01 -2.0791828952323363e-01 -7.8610456205275334e-02 -1.2503464093023642e-01 4.8594788683871730e-02 7.6541538757228939e-02 -5.7198005692212887e-02 -2.3165950967692160e-02 -2.3728506157132920e-01 3.8748046158061704e-02 -2.3427889193699494e-01 -1.1730951859570149e-01 -1.1419172506175261e-01 1.7287850845355218e-01 2.3727842713638793e-02 -1.4595333421361315e-01 -2.6533225080539902e-01 -1.2469930488299164e-01 1.5518566694444841e-01 -2.4468122791879454e-01 1.7240841852492900e-01 -2.7995553698010628e-02 2.3351725183364103e-01 -2.6379279972354175e-01 1.8012781947853873e-01 -5.6420871345560841e-02 -3.4864599120487122e-01 -1.4001333062780719e-01 1.5221498534844288e-01 -1.0613351435484305e-02 5.1882191656528909e-02 1.1063760829212209e-01 1.1808598793033653e-01 2.6214640423404129e-01 9.0038501545298452e-02 -1.7680439831733205e-01 1.8218504730068330e-01 -1.7201195409832643e-01 -2.4837939413640564e-01 5.7759721104551263e-02 -1.0155568850606918e-01 -1.3564875159126616e-01 5.0242888432958613e-02 9.0543311947827568e-02 1.5290490796669451e-02 -9.5360841754285164e-02 -2.4688018945654734e-02 -1.5142467475424279e-01 5.1397390407078138e-03 1.0359526581043509e-01 -3.0000757887093560e-01 2.7348133909939137e-01 4.0730960567278141e-01 -1.4505702485745556e-01 5.7415128829995679e-02 -9.3365449320677696e-02 -1.2712149524723598e-01 1.1227901741957114e-01 4.1547105240234791e-02 3.0792378201693449e-02 2.1050537504900832e-01 1.6314498292173044e-01 -5.4328876527500299e-02 1.2286198158268992e-01 -1.1542723610406604e-01 -9.5723131465197259e-02 -1.2256439752633372e-01 -1.9906938836480412e-02 1.0926240403970281e-02 -6.8168721072636423e-03 5.6238313933762892e-02 -1.5525211290942559e-01 -1.1381720496796699e-01 -1.4846605895973117e-01 1.3877913643116827e-01 6.7013210827045616e-02 -7.9705811219597258e-02 2.2412632193135568e-01 -1.3811175171946011e-01 2.0278286472501678e-01 -8.6934334118816455e-03 1.9286130521550346e-01 -1.3672050032736177e-01 1.4196396202102371e-01 1.7842042457762980e-01 -1.8588070921627237e-01 -1.6524203217126562e-01 -8.5760670480730217e-02 -1.7226978173473556e-01 1.6807545860882261e-01 1.8923559620174707e-01 -9.6924698488186550e-02 -1.6823077534766667e-01 -1.4678408994120734e-01 1.8390560482664106e-01 -8.7817201003680470e-02 -1.4011921936971058e-01 5.6057905932935095e-02 5.2310678026944758e-02 -1.5786582595078952e-01 1.7695904448534358e-01 2.9855598690676281e-02 -2.0399248452714364e-01 -6.6745106754572334e-02 2.9928891907683552e-02 -9.9562665079899887e-03 -1.5857409588048207e-01 -1.4292449357577508e-01 -6.9597111734684095e-02 2.1748387289598783e-03 7.6808052270712537e-02 1.9852114308953026e-01 1.7121135946767568e-01 -6.4470726218919736e-02 -1.5808755857290166e-01 9.1767947185747052e-03 1.1343032070724214e-01 1.7382676019308041e-01 1.5052851893414604e-01 9.8420693285206792e-02 -1.7412160530532628e-01 8.2050411234023152e-02 1.4688974612360423e-01 1.9336472569257673e-01 1.8173778610122371e-01 -1.3258043988160365e-01 1.0970238494781809e-01 1.5199632915445785e-01 -2.8193538068564658e-02 -1.8872482100351293e-01 1.6963584060253506e-01 9.1519735875694772e-02 6.3287868268982347e-02 -1.8122502943003047e-01 1.0449753541496445e-01 -1.4378572600897721e-01 -1.5014373991219335e-01 9.0560965972289700e-02 5.5630409410317792e-02 -3.0674268248166131e-02 1.9544647239953812e-02 9.8054154796900685e-03 4.1685293285777435e-02 1.0626849938249866e-01 -1.9226527365701462e-01 7.1789453608373341e-02 -6.2313191284196635e-02 1.4413666302995268e-01 -3.7383974236902998e-02 -1.8102005919071726e-01 1.0805434501281240e-01 1.7615554737537159e-01 6.6958394732214765e-02 3.9948504386864370e-02 4.0340073920977276e-03 8.7571505894257981e-02 -8.3361693801901879e-02 1.4384792744505087e-01 3.3275341095396344e-02 -2.0340725961110570e-01 3.7502762253255317e-01 4.3205256396040122e-02 -1.9296446192590264e-01 -1.9756844574117208e-01 1.5986010080673976e-01 1.9781360880219709e-01 -1.4609288012296270e-02 2.8279016259195139e-01 9.4131106424394772e-03 1.5622328740990785e-01 -1.3277221851636722e-01 -3.8561468188972138e-02 -2.4692805942628326e-01 -1.2435564344514642e-01 9.9087537832059980e-02 -1.2465970972218024e-01 3.9348691748364528e-02 2.9222905987437647e-01 1.3371641211085661e-01 -2.5534083897589011e-01 -6.2080183101864202e-02 -3.1672793354968870e-01 -1.1272548492082569e-01 6.2694468971198833e-02 5.0049928654189904e-02 1.7805033939967746e-01 4.9563561052075975e-02 1.1065535107612056e-02 -1.0561027438945422e-01 1.8191783832682784e-01 -3.8801986437753018e-02 7.5312025274405434e-03 -1.5410025137879213e-01 -6.0339715014004452e-02 -1.8713728452044096e-02 -1.0343277399532091e-01 -1.8638379702305266e-01 1.5887162601779612e-02 2.2353173045865729e-01 7.0362250739924928e-02 1.2209935913511852e-01 -1.1222399199770255e-01 -2.9719067209150668e-01 2.7974161694755700e-01 2.1641518781008862e-01 -9.1546347361333852e-02 -5.2632973284907930e-02 -7.5829728236080349e-02 -3.5314527423900358e-02 4.1159543409767185e-02 2.1414674138617965e-01 1.8074885721020473e-01 -1.3227969350838256e-01 6.8148926369875545e-02 -1.2728536994521156e-01 -1.0701885967921741e-01 1.7338949556335317e-01 1.6810261946650584e-01 6.6975205551140199e-02 -1.3713545550274231e-01 -1.4013083305421081e-01 5.1456848012627239e-02 8.8574296769663247e-02 -7.8088055119185956e-02 4.7980875305227343e-02 -3.6348291313148063e-03 8.9203813227494877e-02 7.4492699605263654e-02 -1.4050774587682726e-02 1.0435497926812143e-01 1.3964392550814803e-01 3.2041058774298990e-02 -1.8898625340045380e-01 -6.4416486292141278e-02 -1.1128415980378463e-01 5.1795091516060781e-03 -4.7835143756241691e-02 -3.7435227603719638e-02 -1.8084060322596759e-01 8.5136652432376267e-02 -8.7541730407543344e-02 7.6528722015086509e-02 -6.7674990901056678e-02 -2.3372513540015424e-01 -3.2690661399936323e-02 -1.2542109041104249e-01 -5.2585188214451774e-02 -9.7875184050396011e-02 1.0025261975277819e-01 -1.6282003738792813e-01 -1.3698861776440510e-01 1.1142834120494192e-01 -1.8417570602677688e-01 1.6246016926186158e-01 7.1645860321917665e-02 2.6604454422117882e-02 1.6056219634683191e-01 1.2470210327344428e-01 2.1393703746069745e-01 2.9991371706460313e-02 2.4196316383017313e-01 -1.3741098505444269e-01 2.3918589067170046e-03 -1.4145816782155288e-01 1.3669107733780303e-03 7.2909863386550935e-02 7.3633403314896165e-02 1.1936170452805780e-01 6.1667212975163983e-02 -5.8941407634454088e-02 -4.6658143779969748e-02 -1.3769635067190777e-01 4.5463921742918509e-02 -1.3115451738583919e-01 8.2826568527241212e-02 -3.4408995606935271e-02 3.9103228626994883e-02 -3.5107372642165104e-02 -4.8938374227404840e-03 -9.5598564576947112e-02 2.2652797767981372e-01 4.4920540205241395e-02 1.1416917916667536e-01 -9.1407626807416986e-02 -4.3780524197040344e-02 7.1524178624084597e-02 -1.8476077959394258e-01 2.0004896576891537e-01 -1.1903682088675567e-01 4.1013243068204280e-02 1.2374168440061928e-01 1.3780183584885636e-01 -1.1469011490232001e-01 7.1674737565842070e-02 3.6932654832712256e-02 -1.6664586167222378e-01 2.9783333735326375e-02 -3.8415250169575380e-02 -5.5426473898044407e-02 1.0990683146717981e-01 2.0014449151486433e-01 1.5501671546958531e-01 -2.7328818485332498e-02 1.2746847638252023e-01 1.5540550796899926e-02 3.4506097962244971e-02 1.2120757737639921e-01 -1.2950022998529192e-02 1.6418687408798643e-01 8.7060258780316924e-02 -1.0966130842232955e-01 1.8575877748862293e-02 1.3956005875159843e-02 -9.6468350657719804e-02 1.0659591970812542e-01 1.8335373533866739e-01 2.9192357145717435e-01 -3.4318640952415241e-02 -1.5844814480552155e-01 8.2187667711292583e-03 9.4381972699257674e-02 1.7306533955648978e-01 -1.6042357911998366e-02 -1.2345899053840960e-02 -1.8379370680771040e-01 6.8663475420086981e-02 -3.2379584960690190e-02 -1.0404851516017401e-01 5.3519749993725160e-03 1.2531133985937690e-01 -8.8537181981854951e-02 2.9775229426689899e-02 -2.4062048250720683e-03 1.5483377610726440e-01 -1.5450336949178695e-01 1.4405398200243896e-01 -1.8529756571193279e-01 7.7563708529931955e-02 7.4935557922440332e-02 1.5873726714708836e-01 -2.0485084610778570e-01 -1.0938296108235714e-01 8.7185880683444669e-02 -7.3060671412969083e-02 -1.7615838019821134e-01 2.0266424813016226e-01 1.1713029581942863e-01 1.1229704793088659e-01 1.5705692459562362e-01 1.3625495248498265e-01 3.6428990328432123e-02 1.0369878681321487e-01 -2.9938718212549109e-01 -7.8398963850852044e-02 5.1399131832053122e-02 2.2799934406192957e-01 -1.1699932830120639e-01 -1.7959842663279607e-01 -1.3836553639910773e-01 1.7868467613220636e-02 4.9914736632477502e-02 -2.6229811747560078e-01 -5.2001454449515615e-02 -1.7009932187424348e-01 -5.5128870999242033e-02 2.7145827241575418e-03 -1.0554115457817242e-01 -1.6620836951633794e-01 -1.3047266082269229e-01 -1.2336467609603573e-01 -5.0255712649954633e-02 -1.8553438588172369e-01 -1.4847240904302197e-01 1.1384614169204144e-01 -4.8580704103100829e-02 4.6931672877736877e-02 -7.4827091599757645e-02 -1.4242800535998452e-02 -1.0586533478292762e-01 -1.6722983457753754e-01 -6.9355989793362643e-03 -1.5613091927294576e-01 1.1230117473906880e-01 9.3330287050055291e-02 2.7747455244702974e-02 8.0316461758503419e-02 -1.6634830033749695e-01 -8.4788303931887091e-02 -2.0586995327101072e-02 -9.9598654367906048e-02 1.4823428472060554e-01 -1.6472679695323802e-01 1.6340814634072229e-01 1.4168309239979879e-01 -2.2543952497649133e-01 6.4249003771506843e-02 1.5961473508850998e-01 -9.4532579996303698e-02 6.4899444442624743e-02 1.1524201877804283e-01 -1.6486909275627248e-02 1.8277928499033522e-01 2.1447483142714961e-02 -3.8000622124205449e-02 -9.7352125533846909e-02 -5.6657938483089344e-02 1.0548440752688305e-01 1.3921749142219655e-01 6.2641185058235974e-02 7.7163795924360568e-02 -1.2518104519928266e-01 1.7022984106373309e-01 2.2324262110857258e-02 6.8246014025386027e-03 -7.1961654079210062e-04 -1.5069156230872924e-01 1.5755630398615594e-01 -1.1249668812486997e-01 4.0976854622793830e-02 -1.1373987703446513e-01 -1.6862810516541191e-01 -1.3441672264050697e-01 8.9673653780747972e-02 2.1220440257966100e-02 1.4801230728877099e-01 -1.8741333565570062e-01 1.8220988957796452e-01 1.3272003539736532e-01 -1.3581628139366966e-01 7.0288834642460038e-02 1.2374774573657060e-01 -1.7249153415920904e-01 2.7074438250576410e-03 -1.3720012028290796e-01 2.1402356796614277e-01 -1.4423765508797726e-01 7.4998292504509054e-02 1.2306019586113318e-01 -1.5443721424395587e-01 -1.3217680945020768e-01 1.9010075028511843e-02 -1.7579647899726303e-01 1.9772716024136658e-01 -2.2182745207848423e-01 6.0324157606351438e-02 -6.3223641639705119e-02 -3.8390408011402373e-02 1.9192360409596695e-01 1.2675413467012436e-01 1.9952969036426940e-01 -1.7336245227527161e-01 -2.3574660606097730e-01 -1.8849631564806471e-01 -1.4115235416732855e-01 1.2428452051797216e-01 -1.5558200388249274e-01 1.2419327557793887e-01 -1.2158403684285661e-01 1.3540324826960726e-01 3.2154890380710718e-02 -2.5769425014219205e-01 -1.5583897567017002e-01 -9.1170757523118165e-02 7.1782088874672630e-03 -7.2779284298865515e-02 8.1576699915632531e-02 -2.6331977992846406e-01 -2.6840104230042677e-01 -1.6138108426434403e-01 -3.8552080383015025e-02 -4.7803728265527319e-02 1.0548439468609007e-01 -1.2273339408813451e-02 2.2874273495123407e-01 -8.3559550265321539e-02 -4.4920932509204640e-02 -1.3367351289526227e-02 -5.5298818733590840e-02 2.1336182957748095e-01 -1.7310068159710879e-01 -2.3907494568424556e-01 1.3993274713860626e-01 8.9863200811444138e-02 -9.1502251405198257e-02 5.6062621759073832e-02 -1.5048496019993876e-01 1.0434582268869161e-01 2.7748067054810685e-02 1.3929113520993322e-01 -5.9138407153218539e-02 -1.8245820351239332e-02 1.1968100816481192e-01 6.3017939722988303e-02 2.0393736433675833e-01 -1.7260197455089535e-01 1.1515755954716836e-01 -5.3615468509585651e-02 -7.4854216480311986e-02 -1.6557169518717194e-01 3.8486963817400521e-02 -3.4890244307347787e-02 -1.7782248600711651e-02 8.8565326682096698e-02 -7.0182187740359725e-02 -3.2182676236101951e-02 6.8307783582586754e-02 4.9694763780540364e-02 -4.6846789093016143e-02 1.2185275341941723e-01 1.5761200627316241e-01 -2.7091045723782103e-01 -8.0928239142367631e-01 2.1515730507225347e-01 -5.0182427339758895e-01 -1.9819026701989442e-01 -1.5504042544030133e-01 6.7181817952044476e-02 -1.3442787079296015e-01 -3.2640115215450440e-02 -1.5169444807646318e-03 -1.7143635284352837e-01 1.9979135942351861e-01 1.3663349679501635e-01 1.5205411588252221e-01 7.3397667406191205e-02 -2.7542226449280049e-01 -8.3948839089355812e-02 5.5698767267640663e-02 -1.1583542433450598e-01 5.2618107021938240e-02 -5.3678407691523966e-01 1.1027475613249652e-01 9.4705403326534585e-02 -5.4897671002847627e-02 5.3938699706955928e-01 1.3694144000233466e-01 -5.7013054087915814e-02 -3.1796805121925081e-01 2.2231049213773821e-01 1.3705185317147178e-01 -1.7219872925635121e-01 2.8941933082781773e-01 3.1437421163155377e-01 1.3746321469667731e-02 3.8955209707037503e-02 1.6056605091690837e-01 2.1325402702872592e-01 -2.3475847559512067e-01 9.1646323298278720e-01 -1.9764433843616567e-02 -1.5149768928437488e-01 2.2443511559412416e-01 -1.5958008497425311e-01 2.1940016494139855e-01 -7.2639985953827230e-02 -1.0361380897760240e-01 -1.5827525296359943e-01 9.3241826680193624e-03 4.9215939142928454e-02 -2.7413539044741295e-03 2.4260365502532347e-01 -3.3834260205974043e-01 -1.7096709280588235e-02 -1.0143257521730294e-01 3.1384929549200601e-02 -2.0829349414820184e-01 6.3387348051152104e-01 9.0079425647646164e-02 2.0735315958943547e-02 -9.3258040526211729e-04 1.2082397607890273e-01 -1.0286638581482438e-01 -7.6683251824241280e-04 1.5230513432119749e-01 -2.1519189284009619e-02 7.2709215929829804e-02 2.9350849158058245e-01 7.0760503723570484e-02 -1.8731900374897792e-01 9.4182106503673521e-02 2.5134877023978802e-01 -2.8100654133818917e-03 9.0785002164757475e-02 2.7456630275868438e-01 3.7758281372779035e-02 -5.9680242353106726e-02 1.5749404154430635e-01 -1.8086286891526457e-02 -2.6530701760057357e-01 -1.3341801545023441e-01 1.2972538188384383e-02 3.9127791583575829e-02 4.4081653458786785e-01 -1.1711369054683513e-01 6.6279704108816909e-02 -2.6817811889891560e-02 4.4006222397840605e-01 -3.4909014718560039e-01 1.2613218824978095e-01 6.6641772534618254e-02 -1.9319132123865423e-01 2.1682783724372467e-01 -5.1249391130020860e-01 4.2476545110012212e-02 -7.8367618051455076e-02 1.9312549174180049e-01 -2.2626089854502562e-01 -3.1060001358737910e-01 1.7873225448085331e-01 -1.6430769154685584e-01 -8.1210189177941983e-02 7.9145953125504750e-02 1.2984303459831134e-01 2.6409376031484348e-02 2.8866775762847931e-02 5.6420522104384675e-02 6.6422706178728891e-02 -1.1559827164009354e-01 1.6686567656198831e-01 1.8479445224305091e-01 3.2739981065309483e-03 -1.3571036645310172e-01 -1.2555438051279305e-01 -5.5000727024215025e-02 -1.2447664421372624e-01 -1.1913009789484676e-01 -1.7295375837913926e-01 -6.0613558230789927e-02 1.4971134960780805e-01 2.0700472757153399e-01 1.2968998971378309e-01 9.1768169075672160e-02 -4.8548545325403959e-02 3.2526943977377064e-02 -8.8933456387029958e-02 -1.3466397100041116e-01 -1.7814218274196009e-01 1.1202866807355192e-02 -9.9943004029166851e-02 9.5706083367479405e-02 3.6572288007586717e-02 1.2251755715394873e-01 1.6141330066671550e-01 -1.2025698293762170e-01 -1.6104446839100992e-02 1.6535515976950863e-01 3.5061530054188834e-02 -1.7805224838821448e-02 -2.0641192113409260e-01 -1.5878267797081519e-01 -1.5807806171855923e-01 -9.6809443129160136e-02 -2.0047958250661246e-01 -1.8561362774595447e-01 -1.6279166548174076e-01 -1.9135370520802605e-02 3.9824183851055781e-02 -7.0310112860706405e-03 -1.4757018361795954e-01 -1.8274077435242904e-02 6.2425715171762503e-03 8.6828798235559584e-02 -4.1522122664051642e-02 1.2726260811748992e-02 1.0064254764511789e-01 -1.0070224904867695e-01 -5.4307183142338490e-02 3.9386646647131186e-02 -6.2505098257048003e-02 1.5232344917054444e-01 -1.4502298606319131e-01 -3.4679825742237408e-02 -3.2517592607249719e-03 5.1904933012867097e-02 -3.6575295997776543e-02 7.2655977175658831e-02 -1.8769724453796410e-01 3.3991825060315159e-02 1.4066097534917177e-01 6.3998382627003733e-02 -1.8238663322809606e-01 -7.0984181737355932e-03 -9.7920650210510801e-02 1.5608322632081570e-01 1.6465161317883567e-01 1.3292449201143855e-01 -6.6395448441344970e-02 -4.3469318803207424e-02 -1.2155198291304170e-01 9.1416031325970676e-02 -7.5063659897522559e-04 -1.1400999946552534e-01 -2.8834995876692839e-02 1.5187560626388141e-01 7.0719552238083058e-02 3.0642090509993555e-02 -6.6409189600458121e-02 -3.7054571481761160e-02 4.0523870440081558e-02 -1.8323633282003279e-01 1.6221195733791516e-01 2.9183536775432971e-02 -3.5779538739620508e-03 1.1989104018572468e-01 1.4759060606525057e-01 -1.1661271732070583e-01 1.1996542882348199e-01 6.6043970276722860e-02 -5.9440800330130474e-02 -2.0556852744569587e-01 -1.1623426960190877e-01 1.7224986059453817e-01 -1.2349726757057571e-02 1.9273877644723122e-01 1.6655924596953012e-01 8.3161028003965187e-02 -1.0233607650116933e-01 1.4139426657382673e-01 -8.7159356744614655e-02 -9.3025463858344190e-02 -1.2960346286810143e-01 4.0188377993516551e-02 -1.3269204078159083e-01 7.3534699302616482e-02 -4.9280877562167527e-03 -1.5826931894392743e-01 1.7050070426060354e-01 2.1950236805372055e-02 -7.5526345849737567e-02 -1.3794870969938558e-01 1.7048897605570084e-02 -2.7575797515741299e-02 -5.6974176526402208e-02 -4.6158283035784439e-02 6.3369258846913981e-02 1.4593448279879390e-01 -1.2697249813292000e-01 -1.0150283365917438e-01 1.4632675814522841e-01 -1.6952116847345378e-01 -1.7891729597032977e-02 -8.8140011956149317e-02 -1.6656287752473836e-01 -1.4636904514319096e-01 -1.5025844915076558e-01 1.2816445796338677e-01 3.5929298473472510e-02 -1.0194722889188242e-02 -4.5337852719374558e-02 1.1430233294240906e-01 -5.3059046975655499e-02 -1.3196613042934111e-01 4.5144814829605501e-02 2.5503460144056266e-02 -7.9708975373778121e-02 -1.9818343906628556e-02 3.9573675771954475e-02 -3.8678073848675729e-04 -1.5601422672265103e-01 -1.5811311968624323e-01 1.6586683961844353e-01 -4.8701623363142182e-02 6.2835812257051760e-02 -1.7040709595415551e-01 -1.0209568476629917e-01 -1.6026339964820985e-01 8.3096762647940942e-02 -1.7108697814042514e-01 1.4474339620628654e-01 -1.6507801443175735e-01 1.9567093988800549e-02 1.6236889474822222e-01 -2.2928819792247992e-02 4.8607737465152234e-02 1.3686707216919586e-02 2.8973214760063145e-02 -1.4843726356082246e-01 6.4887295506136977e-02 1.3259611373491190e-01 1.0598662993402592e-01 -8.0426503429280441e-02 1.4713357247763509e-02 9.8841190265841858e-02 1.1325756049721056e-01 -1.2193545106153242e-01 5.7132462764023347e-02 1.8972286175277017e-01 1.7508797012441547e-02 -1.4496434256043431e-01 5.3305896630043412e-02 -5.2341119400950639e-02 -1.0556474699075623e-01 -6.5669467219724359e-02 -8.1489278077746918e-02 -1.8940893072349940e-01 -2.1338954888583950e-01 2.2385287618145988e-01 -1.7991712887580863e-01 -3.3566350824660780e-03 -1.6668567472987204e-02 3.9598854085866331e-02 3.0902275298401855e-02 8.4825178977068899e-03 -1.7664565311532976e-01 1.7623014662430747e-01 8.2396354245784204e-02 -3.0223028328650398e-02 5.6056557143531763e-02 -2.0109470683599812e-01 1.9553594442808565e-02 -1.6494326838512804e-02 -3.6383587014963165e-02 1.2848068676549598e-01 6.1631515874907818e-02 6.6251756942751927e-02 8.7312432526707284e-02 -2.0820501929258517e-01 1.5435559515279010e-01 1.9181274159462031e-01 2.3564237586699240e-02 -1.4369298450087420e-01 -1.2041688352069554e-01 -1.1885330028069463e-01 -1.3596522560104526e-01 3.9914847275306309e-02 -1.4466502503686560e-01 1.3258543174332962e-01 6.5688554894574036e-02 -8.8937509958319880e-02 -1.0457171665781148e-01 -1.4947507383308450e-01 1.0060670082511271e-01 -8.5272310881452044e-03 5.9555272370197809e-02 1.2581014547902278e-01 -1.8706416001029727e-01 -1.2184067690970581e-01 9.2796428804761452e-02 1.7434590832925018e-01 1.7462669489962759e-01 3.1424525835643168e-02 3.0246664590877076e-02 1.2448731247893903e-02 -9.7267114702373147e-02 1.8683670947369632e-01 1.4627536871679114e-01 -5.6534447135403863e-02 9.9368393823883461e-02 -1.1716097981601616e-01 -2.1078192275371142e-02 -1.1760001884070535e-01 -7.5654480318804826e-02 -1.5856587886408400e-02 -1.0981634441935734e-01 1.1282582959498379e-01 -1.2125317894388035e-01 -1.0235525037910348e-01 1.1871892675675051e-01 2.3318117601971330e-02 1.1935813101978120e-01 -2.2655248674763387e-01 -1.6478356489383147e-01 2.6347267212481645e-01 1.2575840004905273e-01 -3.5174278460301978e-01 -9.3344400233064700e-02 -3.9641063443199204e-02 -5.5445395052283930e-01 2.5301401848218524e-01 -7.0760574727048164e-02 -5.1500219384382866e-02 -6.3115030212808646e-03 4.0134399809937715e-01 2.0902974990107337e-01 -8.5568176255132453e-02 -2.7228716713818274e-01 9.3875098521327985e-02 -3.3456727483411308e-01 -2.8070860987734172e-02 1.0372931051859070e-01 -2.4225757606642737e-01 3.0850694705512444e-01 -4.0074933582114940e-02 -1.0422448512106372e-01 1.3104415466781608e-01 -4.1493545138617649e-01 1.6422716667830795e-01 -1.0175473827768382e+00 2.3535160440947202e-02 -6.2088546964496644e-02 -3.7855474160811398e-01 2.1732745718959692e-01 4.3807672820738180e-01 -1.5204367214018219e-01 1.0234179042255911e-01 2.1539895902997799e-01 1.4618386852160734e-01 -1.9174822054630089e-01 2.5548535503683158e-03 8.8737695584920825e-02 -1.6891806035353102e-01 4.7748362830054081e-01 -2.0191287561733806e-01 -6.0128115445951195e-02 -2.5354987793007833e-01 4.6912772867468844e-01 -1.7406181051837822e-02 -2.4380980642513905e-01 
      </Weights>
      <Biases rows="30" cols="1">
        0.0000000000000000e+00 0.0000000000000000e+00 0.0000000000000000e+00 0.0000000000000000e+00 0.0000000000000000e+00 0.0000000000000000e+00 0.0000000000000000e+00 0.0000000000000000e+00 0.0000000000000000e+00 0.0000000000000000e+00 0.0000000000000000e+00 0.0000000000000000e+00 0.0000000000000000e+00 0.0000000000000000e+00 0.0000000000000000e+00 0.0000000000000000e+00 0.0000000000000000e+00 0.0000000000000000e+00 0.0000000000000000e+00 0.0000000000000000e+00 0.0000000000000000e+00 0.0000000000000000e+00 0.0000000000000000e+00 0.0000000000000000e+00 0.0000000000000000e+00 0.0000000000000000e+00 0.0000000000000000e+00 0.0000000000000000e+00 0.0000000000000000e+00 0.0000000000000000e+00 
      </Biases>
    </Layer>
    <Layer ActivationFunction="3">
      <Weights rows="10" cols="30">
        4.4775577900374938e-02 1.6792988984038912e-01 -5.4483618239704906e-02 -2.2750101947702384e-01 7.9692004968810085e-02 -2.5373884955154452e-01 -9.6328999206235916e-02 -1.6568639187241396e-01 -2.2279838032524593e-01 -6.3945199513090467e-02 -5.1091568692159015e-02 1.9769650550722820e-01 -2.2977314337266011e-01 -6.6163897955736004e-03 -1.4935081813794021e-01 -1.1085972146900699e-01 -3.6433249142158453e-02 2.4569162321732377e-01 -1.1464341183910967e-01 -2.0116217069566314e-01 5.7825265697548325e-02 -1.7552106856649541e-01 -8.5623764350692286e-02 -1.1152306838926944e-01 2.0634221030419572e-01 7.9779705279115487e-02 2.2491089830456967e-01 -5.5800069013582580e-02 1.5579950653065433e-01 -1.0631609237923753e-01 -8.7746903923225775e-02 1.4416640677909019e-03 -3.9867671821295289e-02 5.5542632775469815e-02 -8.9647268498455959e-02 -1.9174145507365240e-02 1.6500888930679941e-01 5.0063057820677298e-02 1.1617133821247140e-01 1.2486123464721552e-01 5.5508157765624913e-02 1.4609879086055791e-01 1.8369642567574837e-01 2.1032125457301090e-01 2.1368297714492268e-01 6.2159467784106595e-02 2.3286090933712000e-01 -2.8828441800203281e-01 1.7466921784597542e-01 -1.2162492365134919e-01 -1.0171404715702753e-01 -2.3134755664467166e-01 3.7203902370486408e-01 5.1227640539528818e-01 1.0832062179568984e-01 -1.1192046455742995e-01 -4.2818124028319360e-02 -1.6655889027500886e-01 -8.3667564192216298e-02 -2.5853097723010771e-02 -2.0920677433665300e-01 2.2673761940320919e-01 5.1686400863766113e-01 6.7483225519217982e-01 1.6549061750334071e-01 1.7271809879121056e-01 1.9398576723440340e-02 1.2777703041903378e-02 -1.8875540445602548e-02 1.2983833301505818e+00 -7.0556183977237397e-02 -1.0582777208481761e-01 5.5770835716618716e-01 1.3053648696203471e-01 2.5443339424916617e-01 4.0433661004326014e-02 2.1827507849941191e-01 -1.2781270786217880e-01 -2.3367298746812626e-01 2.1438804475891495e-02 -3.0547741790083244e-01 -2.5768711244026499e-01 -5.6415396858006950e-01 2.2725291935015052e-01 -9.0138696003731089e-02 1.9444631307034808e-02 3.7389165234624343e-02 -6.5150441558022007e-02 8.8721297381845976e-02 8.7100019874763446e-01 -8.5833900934684196e-02 3.9488873166475402e-01 -1.9458419272839500e-01 3.8435764149536744e-01 -2.5680006824931090e-01 1.2487000412658633e-01 1.3277221748958548e-01 1.3106988813560796e-01 4.8088316851265703e-02 1.9819182530030263e-01 -2.2703800056186074e-01 1.4838058671759041e-01 -1.0623470688120326e-01 -4.9592953227873181e-02 -1.0177632084316975e-01 4.9737912763687392e-01 9.7392057195326384e-02 4.5334188128264613e-01 8.4100408595896750e-02 9.1858382356518664e-02 -1.1991184651584215e-01 -3.2132314349277347e-01 -4.7842785163746260e-01 -2.4090797629401189e-01 2.1019137470946966e-01 -1.1734285589995949e-01 2.3550772729291880e-01 -3.8880408758223253e-02 4.9832550085193758e-02 1.2655365209640499e-02 1.7478320322085042e-01 -1.2697754064257194e-01 1.0639789342056491e-01 -2.3710411762523864e-02 -1.7725979103049000e-01 1.9099199208866578e-02 1.3888766740795996e-01 -7.6168812463954627e-02 6.4846062556456724e-02 -9.8561594714180328e-02 -1.8166201205016730e-01 2.2442506925165812e-01 1.1369333287051968e-02 -1.3671836684133248e-01 -3.1673707528182354e-02 1.9924466917303089e-02 3.0450262444604126e-01 7.4614452574205029e-02 2.3108289304758695e-01 1.8836999960931963e-01 -1.5250870602040684e-01 1.0414069348436690e-01 -1.4482000004718143e-01 -2.8139869510058746e-01 -4.7522053779270046e-02 1.7081637207284894e-01 -4.2992586658525608e-02 1.5375957902220155e-01 2.4401163917333302e-01 -7.5386640103772024e-02 2.7154003430097710e-02 -6.9750422347640118e-02 1.4665129249699468e-01 2.5231692201547262e-01 1.8454655743330564e-01 1.2595484590104275e-01 -3.0248079688976220e-02 -2.4555382247161708e-02 -7.9727989234985988e-02 1.6657912481383980e-01 1.2706947887832501e-01 -8.2883221591112333e-02 1.3984548345052863e-01 -2.8818543969577698e-01 1.7348449274886188e-01 -2.9023048570383680e-01 -4.0371542828347576e-03 -2.8111688139072688e-01 9.9076063877174644e-02 1.1585195080452922e-01 -1.9015410252857842e-02 2.0262520969193232e-01 -4.9862913680662024e-01 -9.7496967585490354e-02 1.1266709089920192e-01 -3.6938868446641702e-02 -2.0602048487804295e-01 1.1781830515860234e-01 -1.9309231133929100e-02 1.0507988018654668e-01 -1.7274071565144741e-01 1.8795977248631854e-01 1.0802186836488616e-01 -1.0781403640050301e-01 3.5484467326604735e-02 1.3113551379368488e-01 1.9898124545773990e-01 1.4654887537076908e-01 -1.3467591493623202e-01 -3.0590464909706122e-01 -1.5921738664590668e-01 9.6577783698224395e-02 -3.3179072237451174e-01 2.9763991397487345e-02 1.5492305303894202e-01 4.4700246145231515e-01 2.3057262594765013e-01 9.2159085190718689e-03 2.3159220756977933e-01 -1.9074764397649041e-01 -1.6933682158093452e-01 -1.9220780977903804e-01 9.5069873409012440e-01 5.5194560215202459e-01 2.3628932686431120e-01 -3.8715138096460606e-02 -6.5579870660166318e-03 -1.3603799044916159e-01 2.9909542588130339e-01 1.5772977423412038e-01 1.1913806858988199e-01 1.7586945189141751e-01 -2.3542861984253988e-01 -3.1486407727315957e-01 -2.4300273743905986e-02 8.8105300022109312e-02 -1.1981278401432403e-01 1.6211335270069588e-01 -2.6480224878924902e-01 -5.1582245761081258e-01 1.3141053689783361e-01 3.0924269956231373e-02 -1.6781879422271653e-01 -2.0612592252263506e-01 -6.0517919039673247e-02 4.4369663390858788e-01 5.8877787240106214e-02 3.0821716534040777e-01 -6.8153626267244249e-02 2.8748207931728004e-01 -2.8602775233547223e-01 -1.1535808187821342e-01 4.4043619531121603e-01 -6.1081811414527704e-03 -2.2707185038992045e-01 2.0223178843230910e-01 1.3984287449207725e-01 -6.9385714230074808e-02 6.3907120484202412e-02 -6.2956275310685172e-01 1.7203909477920074e-01 4.1371717492811232e-02 -2.8005309905874609e-01 3.0140918551017526e-01 -2.1998347659428102e-01 2.1586113429261847e-01 2.3752904721782780e-01 4.7836799937109625e-02 1.7609117666280982e-02 8.7532320766460670e-02 -2.3542699212788071e-01 -2.2693457506092030e-01 2.4027173315283151e-01 -4.6739556285066569e-02 -6.0187212938843652e-02 -8.8460363828126599e-03 1.3093174391273971e-01 -5.5718405031194518e-02 -1.4084436221307747e-01 -1.4497754820759118e-01 5.1354541971260598e-05 -2.1405150687235242e-01 3.0678451264627055e-01 -1.5643977298739847e-01 -9.9539108405306054e-02 -1.3151418841042631e-01 2.6310481930271721e-02 2.5578601338556223e-01 -1.0959875045271747e-01 2.4567460899872903e-01 3.7001397201656079e-02 -1.0403727820229711e-01 1.2937415277498704e-02 -6.1371879859167804e-02 -3.4570179783167138e-03 2.8615054656561972e-01 1.6311026609112814e-01 5.3816224967402258e-02 -9.9384052880621479e-02 2.6961680630078888e-01 -2.5952702474812389e-01 -3.0692022694264395e-02 2.5769898104226424e-01 -3.7918342996021127e-02 2.7596315397870613e-01 -1.4266129721455856e-01 -8.2764806489183954e-02 -6.1372953787717906e-02 1.4021051410985413e-01 -1.9725058259698813e-01 -2.4546604652294984e-01 -1.8802971922518685e-01 1.6841285541232900e-01 -2.9006208676230821e-01 2.3618903955100926e-01 2.3656591366681209e-01 -1.2458846381022162e-01 -8.9795736852447114e-02 1.8580598111914542e-01 3.6343895570890694e-01 
      </Weights>
      <Biases rows="10" cols="1">
        0.0000000000000000e+00 0.0000000000000000e+00 0.0000000000000000e+00 0.0000000000000000e+00 0.0000000000000000e+00 0.0000000000000000e+00 0.0000000000000000e+00 0.0000000000000000e+00 0.0000000000000000e+00 0.0000000000000000e+00 
      </Biases>
    </Layer>
    <Layer ActivationFunction="0">
      <Weights rows="1" cols="10">
        -8.4308164169317135e-02 5.9050220045545965e-01 -9.7746310288871663e-01 -7.1130041116169829e-01 -2.7677905522838664e-01 -4.0121484972513594e-01 9.5078501089496914e-01 4.4601793184408717e-01 2.2431916464192023e-01 -2.9494652112599284e-01 
      </Weights>
      <Biases rows="1" cols="1">
        0.0000000000000000e+00 
      </Biases>
    </Layer>
  </Weights>
</MethodSetup>
