<?xml version="1.0"?>
<MethodSetup Method="MLP::MLP">
  <GeneralInfo>
    <Info name="TMVA Release" value="4.2.1 [262657]"/>
    <Info name="ROOT Release" value="6.08/02 [395266]"/>
    <Info name="Creator" value="minerva1993"/>
    <Info name="Date" value="Mon May 22 14:15:44 2017"/>
    <Info name="Host" value="Linux htop.hanyang.ac.kr 2.6.32-696.el6.centos.plus.x86_64 #1 SMP Mon Apr 3 14:56:08 UTC 2017 x86_64 x86_64 x86_64 GNU/Linux"/>
    <Info name="Dir" value="/home/minerva1993/fcnc/tmva"/>
    <Info name="Training events" value="100000"/>
    <Info name="TrainingTime" value="3.81636213e+02"/>
    <Info name="AnalysisType" value="Classification"/>
  </GeneralInfo>
  <Options>
    <Option name="NCycles" modified="Yes">1000</Option>
    <Option name="HiddenLayers" modified="Yes">N+5</Option>
    <Option name="NeuronType" modified="Yes">tanh</Option>
    <Option name="RandomSeed" modified="No">1</Option>
    <Option name="EstimatorType" modified="No">CE</Option>
    <Option name="NeuronInputType" modified="No">sum</Option>
    <Option name="V" modified="Yes">False</Option>
    <Option name="VerbosityLevel" modified="No">Default</Option>
    <Option name="VarTransform" modified="Yes">N</Option>
    <Option name="H" modified="Yes">True</Option>
    <Option name="CreateMVAPdfs" modified="No">False</Option>
    <Option name="IgnoreNegWeightsInTraining" modified="No">False</Option>
    <Option name="TrainingMethod" modified="No">BP</Option>
    <Option name="LearningRate" modified="No">2.000000e-02</Option>
    <Option name="DecayRate" modified="No">1.000000e-02</Option>
    <Option name="TestRate" modified="Yes">5</Option>
    <Option name="EpochMonitoring" modified="No">False</Option>
    <Option name="Sampling" modified="No">1.000000e+00</Option>
    <Option name="SamplingEpoch" modified="No">1.000000e+00</Option>
    <Option name="SamplingImportance" modified="No">1.000000e+00</Option>
    <Option name="SamplingTraining" modified="No">True</Option>
    <Option name="SamplingTesting" modified="No">False</Option>
    <Option name="ResetStep" modified="No">50</Option>
    <Option name="Tau" modified="No">3.000000e+00</Option>
    <Option name="BPMode" modified="No">sequential</Option>
    <Option name="BatchSize" modified="No">-1</Option>
    <Option name="ConvergenceImprove" modified="No">1.000000e-30</Option>
    <Option name="ConvergenceTests" modified="No">-1</Option>
    <Option name="UseRegulator" modified="Yes">False</Option>
    <Option name="UpdateLimit" modified="No">10000</Option>
    <Option name="CalculateErrors" modified="No">False</Option>
    <Option name="WeightRange" modified="No">1.000000e+00</Option>
  </Options>
  <Variables NVar="5">
    <Variable VarIndex="0" Expression="NJets" Label="NJets" Title="NJets" Unit="" Internal="NJets" Type="I" Min="4.00000000e+00" Max="1.60000000e+01"/>
    <Variable VarIndex="1" Expression="NBJets_M" Label="NBJets_M" Title="NBJets_M" Unit="" Internal="NBJets_M" Type="I" Min="1.00000000e+00" Max="7.00000000e+00"/>
    <Variable VarIndex="2" Expression="NCJets_M" Label="NCJets_M" Title="NCJets_M" Unit="" Internal="NCJets_M" Type="I" Min="1.00000000e+00" Max="9.00000000e+00"/>
    <Variable VarIndex="3" Expression="BJMDPhi" Label="BJMDPhi" Title="BJMDPhi" Unit="" Internal="BJMDPhi" Type="F" Min="-3.14156818e+00" Max="3.14156199e+00"/>
    <Variable VarIndex="4" Expression="BJMDEta" Label="BJMDEta" Title="BJMDEta" Unit="" Internal="BJMDEta" Type="F" Min="-4.75499535e+00" Max="4.75167274e+00"/>
  </Variables>
  <Spectators NSpec="0"/>
  <Classes NClass="2">
    <Class Name="Signal" Index="0"/>
    <Class Name="Background" Index="1"/>
  </Classes>
  <Transformations NTransformations="1">
    <Transform Name="Normalize">
      <Selection>
        <Input NInputs="5">
          <Input Type="Variable" Label="NJets" Expression="NJets"/>
          <Input Type="Variable" Label="NBJets_M" Expression="NBJets_M"/>
          <Input Type="Variable" Label="NCJets_M" Expression="NCJets_M"/>
          <Input Type="Variable" Label="BJMDPhi" Expression="BJMDPhi"/>
          <Input Type="Variable" Label="BJMDEta" Expression="BJMDEta"/>
        </Input>
        <Output NOutputs="5">
          <Output Type="Variable" Label="NJets" Expression="NJets"/>
          <Output Type="Variable" Label="NBJets_M" Expression="NBJets_M"/>
          <Output Type="Variable" Label="NCJets_M" Expression="NCJets_M"/>
          <Output Type="Variable" Label="BJMDPhi" Expression="BJMDPhi"/>
          <Output Type="Variable" Label="BJMDEta" Expression="BJMDEta"/>
        </Output>
      </Selection>
      <Class ClassIndex="0">
        <Ranges>
          <Range Index="0" Min="4.0000000000000000e+00" Max="1.4000000000000000e+01"/>
          <Range Index="1" Min="1.0000000000000000e+00" Max="7.0000000000000000e+00"/>
          <Range Index="2" Min="1.0000000000000000e+00" Max="8.0000000000000000e+00"/>
          <Range Index="3" Min="-3.1415584087371826e+00" Max="3.1413962841033936e+00"/>
          <Range Index="4" Min="-4.7097020149230957e+00" Max="4.7495479583740234e+00"/>
        </Ranges>
      </Class>
      <Class ClassIndex="1">
        <Ranges>
          <Range Index="0" Min="4.0000000000000000e+00" Max="1.6000000000000000e+01"/>
          <Range Index="1" Min="1.0000000000000000e+00" Max="7.0000000000000000e+00"/>
          <Range Index="2" Min="1.0000000000000000e+00" Max="9.0000000000000000e+00"/>
          <Range Index="3" Min="-3.1415681838989258e+00" Max="3.1415619850158691e+00"/>
          <Range Index="4" Min="-4.7549953460693359e+00" Max="4.7516727447509766e+00"/>
        </Ranges>
      </Class>
      <Class ClassIndex="2">
        <Ranges>
          <Range Index="0" Min="4.0000000000000000e+00" Max="1.6000000000000000e+01"/>
          <Range Index="1" Min="1.0000000000000000e+00" Max="7.0000000000000000e+00"/>
          <Range Index="2" Min="1.0000000000000000e+00" Max="9.0000000000000000e+00"/>
          <Range Index="3" Min="-3.1415681838989258e+00" Max="3.1415619850158691e+00"/>
          <Range Index="4" Min="-4.7549953460693359e+00" Max="4.7516727447509766e+00"/>
        </Ranges>
      </Class>
    </Transform>
  </Transformations>
  <MVAPdfs/>
  <Weights>
    <Layout NLayers="3">
      <Layer Index="0" NNeurons="6">
        <Neuron NSynapses="10">
          6.8303617778829551e-01 5.3966251430126155e-01 7.5032965845642641e-01 3.9436483136286111e+00 -9.2068159871915416e+00 -7.8814918643101339e-01 -3.6699239026211705e-01 1.0455546863687659e+00 -1.0681524404292601e-01 -1.1027740151897218e-01 
        </Neuron>
        <Neuron NSynapses="10">
          -1.4194308169163536e+00 -2.2437381032544081e+00 4.4108256081297457e+00 6.0236554037621193e-01 2.4818977965397768e-01 3.7270046552490566e-01 3.4147126214573237e-01 2.6438894868382672e+00 8.7838283544970397e-01 1.0434548628489420e+01 
        </Neuron>
        <Neuron NSynapses="10">
          -3.1852969146001220e+00 4.3638152429877985e-01 1.0897783535944554e+00 9.2822065752557636e-01 1.2204361764371434e+00 5.7674877191774299e-01 -2.2020270947436307e-01 -3.4547139354436779e-01 -8.1397687642849714e-01 -1.8352107868491449e-01 
        </Neuron>
        <Neuron NSynapses="10">
          1.5163304087760371e-01 5.9632749820809128e-01 -8.5597512402017142e-02 1.2762228293972960e-01 3.1727488008308838e-02 -2.6911163551939399e-02 2.0405846162348895e-01 1.8093142471168705e-01 3.7806163941900145e-01 1.3093499008331644e-02 
        </Neuron>
        <Neuron NSynapses="10">
          1.1500364400884080e+00 8.0441621965818055e-02 1.7766476624585630e+00 8.6566592598518899e-01 -1.3550702530025627e+00 -2.6236232774034476e+00 -5.1090348575354869e-02 1.4486378401176001e+00 1.9466826916639515e-01 2.0816729288739704e+00 
        </Neuron>
        <Neuron NSynapses="10">
          2.1201027468350331e+00 -1.1718729586718261e-01 1.4918364533672281e+00 3.6159341448481315e+00 -8.1923042087549067e+00 -1.5294545299102300e+00 -2.8648685942824770e-01 -1.6378649288403153e+00 -2.3523245950601882e-01 8.4077609958417554e+00 
        </Neuron>
      </Layer>
      <Layer Index="1" NNeurons="11">
        <Neuron NSynapses="1">
          -1.8165367695606902e+00 
        </Neuron>
        <Neuron NSynapses="1">
          -3.7571369109191882e-01 
        </Neuron>
        <Neuron NSynapses="1">
          -8.1488571248091057e-01 
        </Neuron>
        <Neuron NSynapses="1">
          -6.4361446526608035e-01 
        </Neuron>
        <Neuron NSynapses="1">
          6.8076021781487717e-01 
        </Neuron>
        <Neuron NSynapses="1">
          -1.4467188702679170e+00 
        </Neuron>
        <Neuron NSynapses="1">
          2.2749848306345982e-01 
        </Neuron>
        <Neuron NSynapses="1">
          -1.5991564834700709e+00 
        </Neuron>
        <Neuron NSynapses="1">
          3.8534905400183117e-01 
        </Neuron>
        <Neuron NSynapses="1">
          -9.9565535992316267e-01 
        </Neuron>
        <Neuron NSynapses="1">
          -2.7045870256500110e-01 
        </Neuron>
      </Layer>
      <Layer Index="2" NNeurons="1">
        <Neuron NSynapses="0"/>
      </Layer>
    </Layout>
  </Weights>
</MethodSetup>
