<?xml version="1.0"?>
<MethodSetup Method="DNN::DNN">
  <GeneralInfo>
    <Info name="TMVA Release" value="4.2.1 [262657]"/>
    <Info name="ROOT Release" value="6.08/02 [395266]"/>
    <Info name="Creator" value="minerva1993"/>
    <Info name="Date" value="Mon May 22 15:39:28 2017"/>
    <Info name="Host" value="Linux htop.hanyang.ac.kr 2.6.32-696.el6.centos.plus.x86_64 #1 SMP Mon Apr 3 14:56:08 UTC 2017 x86_64 x86_64 x86_64 GNU/Linux"/>
    <Info name="Dir" value="/home/minerva1993/fcnc/tmva"/>
    <Info name="Training events" value="100000"/>
    <Info name="TrainingTime" value="4.94073037e+03"/>
    <Info name="AnalysisType" value="Classification"/>
  </GeneralInfo>
  <Options>
    <Option name="V" modified="Yes">True</Option>
    <Option name="VerbosityLevel" modified="No">Verbose</Option>
    <Option name="VarTransform" modified="Yes">N</Option>
    <Option name="H" modified="Yes">False</Option>
    <Option name="CreateMVAPdfs" modified="No">False</Option>
    <Option name="IgnoreNegWeightsInTraining" modified="No">False</Option>
    <Option name="Layout" modified="Yes">TANH|50,TANH|100,TANH|70,TANH|30,TANH|10,LINEAR</Option>
    <Option name="ErrorStrategy" modified="Yes">CROSSENTROPY</Option>
    <Option name="WeightInitialization" modified="Yes">XAVIERUNIFORM</Option>
    <Option name="Architecture" modified="No">STANDARD</Option>
    <Option name="TrainingStrategy" modified="Yes">LearningRate=0.03,Momentum=0.5,Repetitions=1,ConvergenceSteps=300,BatchSize=1500,DropConfig=0.0+0.3+0.3+0.3+0.3+0.0,WeightDecay=0.001,Regularization=L2,TestRepetitions=5,Multithreading=True</Option>
  </Options>
  <Variables NVar="5">
    <Variable VarIndex="0" Expression="NJets" Label="NJets" Title="NJets" Unit="" Internal="NJets" Type="I" Min="4.00000000e+00" Max="1.60000000e+01"/>
    <Variable VarIndex="1" Expression="NBJets_M" Label="NBJets_M" Title="NBJets_M" Unit="" Internal="NBJets_M" Type="I" Min="1.00000000e+00" Max="7.00000000e+00"/>
    <Variable VarIndex="2" Expression="NCJets_M" Label="NCJets_M" Title="NCJets_M" Unit="" Internal="NCJets_M" Type="I" Min="1.00000000e+00" Max="9.00000000e+00"/>
    <Variable VarIndex="3" Expression="BJMDPhi" Label="BJMDPhi" Title="BJMDPhi" Unit="" Internal="BJMDPhi" Type="F" Min="-3.14156818e+00" Max="3.14156199e+00"/>
    <Variable VarIndex="4" Expression="BJMDEta" Label="BJMDEta" Title="BJMDEta" Unit="" Internal="BJMDEta" Type="F" Min="-4.75499535e+00" Max="4.75167274e+00"/>
  </Variables>
  <Spectators NSpec="0"/>
  <Classes NClass="2">
    <Class Name="Signal" Index="0"/>
    <Class Name="Background" Index="1"/>
  </Classes>
  <Transformations NTransformations="1">
    <Transform Name="Normalize">
      <Selection>
        <Input NInputs="5">
          <Input Type="Variable" Label="NJets" Expression="NJets"/>
          <Input Type="Variable" Label="NBJets_M" Expression="NBJets_M"/>
          <Input Type="Variable" Label="NCJets_M" Expression="NCJets_M"/>
          <Input Type="Variable" Label="BJMDPhi" Expression="BJMDPhi"/>
          <Input Type="Variable" Label="BJMDEta" Expression="BJMDEta"/>
        </Input>
        <Output NOutputs="5">
          <Output Type="Variable" Label="NJets" Expression="NJets"/>
          <Output Type="Variable" Label="NBJets_M" Expression="NBJets_M"/>
          <Output Type="Variable" Label="NCJets_M" Expression="NCJets_M"/>
          <Output Type="Variable" Label="BJMDPhi" Expression="BJMDPhi"/>
          <Output Type="Variable" Label="BJMDEta" Expression="BJMDEta"/>
        </Output>
      </Selection>
      <Class ClassIndex="0">
        <Ranges>
          <Range Index="0" Min="4.0000000000000000e+00" Max="1.4000000000000000e+01"/>
          <Range Index="1" Min="1.0000000000000000e+00" Max="7.0000000000000000e+00"/>
          <Range Index="2" Min="1.0000000000000000e+00" Max="8.0000000000000000e+00"/>
          <Range Index="3" Min="-3.1415584087371826e+00" Max="3.1413962841033936e+00"/>
          <Range Index="4" Min="-4.7097020149230957e+00" Max="4.7495479583740234e+00"/>
        </Ranges>
      </Class>
      <Class ClassIndex="1">
        <Ranges>
          <Range Index="0" Min="4.0000000000000000e+00" Max="1.6000000000000000e+01"/>
          <Range Index="1" Min="1.0000000000000000e+00" Max="7.0000000000000000e+00"/>
          <Range Index="2" Min="1.0000000000000000e+00" Max="9.0000000000000000e+00"/>
          <Range Index="3" Min="-3.1415681838989258e+00" Max="3.1415619850158691e+00"/>
          <Range Index="4" Min="-4.7549953460693359e+00" Max="4.7516727447509766e+00"/>
        </Ranges>
      </Class>
      <Class ClassIndex="2">
        <Ranges>
          <Range Index="0" Min="4.0000000000000000e+00" Max="1.6000000000000000e+01"/>
          <Range Index="1" Min="1.0000000000000000e+00" Max="7.0000000000000000e+00"/>
          <Range Index="2" Min="1.0000000000000000e+00" Max="9.0000000000000000e+00"/>
          <Range Index="3" Min="-3.1415681838989258e+00" Max="3.1415619850158691e+00"/>
          <Range Index="4" Min="-4.7549953460693359e+00" Max="4.7516727447509766e+00"/>
        </Ranges>
      </Class>
    </Transform>
  </Transformations>
  <MVAPdfs/>
  <Weights InputWidth="5" Depth="6" LossFunction="C" OutputFunction="S">
    <Layer ActivationFunction="3">
      <Weights rows="50" cols="5">
        -4.9634351651630571e-01 -4.4230574187613564e-01 1.4912257714205368e-01 1.4906614214965164e-01 6.4989294387397145e-02 -1.5381623929807869e-01 -5.3361965109611109e-01 4.4176369212925731e-01 1.4238222565899331e-01 2.2197277341444277e-01 -4.9340040608590341e-01 -2.2477254012680722e-01 -3.2231296482058425e-01 -4.9411153991724292e-02 -2.7343109367401269e-01 2.6141688953622522e-01 -1.0504825131666500e+00 -1.6673140403954394e-02 -7.8158568703391773e-02 -1.1399915010713016e-01 4.9653030432007977e-01 2.3340748003629608e-01 -7.6615988849056266e-02 -2.9545593038725765e-01 -1.9250258340503465e-01 1.6139275850302467e-01 4.6370013231122897e-01 4.8466844104498619e-01 -5.4003527572152850e-03 -3.2538607562975491e-01 -5.6264929837549682e-01 3.7772906920436361e-01 2.3928420221774443e-01 9.7647086290197901e-02 3.3412765959742796e-01 -5.8786202924445996e-01 -7.7625300989155738e-02 -2.8075798648290729e-02 1.2739545397533461e-01 -4.5535883979173036e-01 -2.6459354899098236e-01 -3.0453078895823565e-01 3.3393320668371690e-01 -2.4144028178299398e-01 -7.5499267353919919e-01 -5.4787182792083533e-01 -5.7978570436255605e-01 -5.0528120750798922e-01 5.3208305773691192e-02 -1.5791109868707284e-01 2.2431263041447164e-01 -2.1322497216279737e-01 4.1040313332104637e-02 5.9532768434571968e-02 -2.1063006699070439e-02 4.8098280978380054e-01 -4.4561293906530464e-01 -5.8133092624240512e-01 -1.5910870485395148e-01 -4.9021939544280661e-03 1.9836260599064812e-01 4.9817618964857846e-01 6.9831407425681113e-02 1.5424559213157488e-04 -2.6989537292742682e-01 2.4220109752557681e-01 1.0017547375580012e-01 2.8126651471852876e-01 5.7354246469577055e-02 7.4841266331401557e-01 3.4538033540315366e-01 1.5344098590346369e-01 5.8192370395182247e-01 2.9741961675599265e-02 1.4544974128517107e-01 -9.1521673873847700e-02 -6.4385805984035843e-02 2.5066997997033652e-01 -1.1811723032709820e-01 -2.3048076713482946e-01 -2.2032044011691307e-01 7.1461255160112280e-01 -1.7945693871156751e-01 -9.5055375023441052e-02 5.3255432620574505e-01 -4.2873300215827193e-01 -4.1850266993317664e-01 4.2465799707941754e-01 -9.5936287050558330e-02 -6.4479156887414579e-01 1.9611957535866642e-01 -6.9342757984879155e-01 -1.1982041633247706e-01 -4.4428819582364787e-01 -4.3092218338339611e-01 -1.1122818718349887e+00 7.9703201708515670e-01 3.1968623343857604e-02 -9.1719558589824390e-01 -2.0694421995989191e-02 1.5456685891214811e-01 4.0028467243617895e-02 -4.4294801918770238e-01 3.4209271282252024e-01 1.3516518125950150e-01 2.8740481933722223e-01 -1.1520721544836889e-01 4.0540235666522390e-01 2.1574524754421739e-01 1.2745491494656669e-01 -7.8147444553646761e-01 -3.1817499536436394e-01 -4.2370716529945684e-01 1.4605265465841311e-01 -1.4594675230231366e+00 4.7850532212983699e-01 2.1254598115042500e-01 -4.1794912074345958e-01 4.5533307689515923e-01 -3.5466075902785926e-01 6.0930499452790825e-02 9.5820913379354930e-02 1.9858214480549716e-01 -3.3522056078117500e-02 1.2428691437752952e-01 2.3955042149517335e-02 5.6996447417121943e-01 -5.5407325858510070e-01 1.8648607701499256e-01 -3.9838000290118680e-01 5.9556180206829554e-02 -2.3318959919567109e-01 4.4121182081067373e-01 8.6924191654463273e-02 6.9644092910712818e-01 -4.7125413569882535e-01 -8.1887070181699412e-02 -1.1720644447380488e-01 -3.0137851409050276e-01 3.3393252904451765e-01 2.7096371234843153e-01 3.0769788919267116e-01 1.6434377605412973e-01 -6.6648859963172102e-02 -3.4868268664697777e-01 -1.4624552683234793e+00 1.9864878978624991e+00 3.9906688895461412e-01 6.1352613013674791e-02 2.4263744285051300e-01 -5.9167542504671433e-02 4.9184187343718828e-02 3.1155140972912188e-01 -3.7442819925952031e-01 5.7750080861663189e-01 -2.3548005358856847e-01 -4.4836137659626896e-01 -5.0185422406324465e-01 2.9264824174733799e-02 2.8185629819692404e-01 -2.7027058013326283e-01 2.5298867166986222e-01 2.0926788716244621e-02 5.8857510972413163e-01 -5.0874842060512196e-02 -1.4479592792304680e-01 -2.2429110726705695e-01 -1.5877220767836905e-01 5.6478258790664948e-01 1.9037062546346253e-01 -2.7358192707106871e-01 3.4388157357118670e-01 6.3755057878905258e-02 5.2817376470532917e-01 -1.6006031498278270e-01 -1.9573139283281998e-01 3.2289653009075658e-01 4.4471760549396216e-01 -1.4908674657949570e-02 6.3241975824550517e-02 4.2894927151099821e-01 -4.5900853788622642e-01 -2.8030873001113193e-01 -5.1918851491235696e-01 -3.7735530462670913e-01 2.1719110075309436e-03 -2.3963107675124035e-01 -2.2208763460128855e-01 1.9933103404473104e-01 -1.0928202083605534e-01 -2.1848080874035319e-01 1.1723938566461046e-03 5.8358579744956396e-01 -1.0500875320180582e-01 1.6528459313600760e-01 9.5287103351456640e-02 -4.6051218748468259e-01 -4.4823408998314307e-01 3.4030744466323098e-01 2.6604869466298808e-01 -1.6252098834688114e-01 -3.1041060373846718e-01 -5.3604354081587569e-01 4.8463833201665349e-02 1.5639690009551273e+00 -2.9457845330048804e-01 1.2931146464491025e-01 3.0524465884358104e-01 2.9413109490581485e-01 -6.4660424136850436e-01 2.7499357949007361e-02 -6.1545841512387300e-01 2.8425400851969540e-01 -5.9421941679101742e-01 2.2993834747767194e-01 2.0497627667485693e-01 9.7473670499718779e-01 -1.9402682694435264e-02 -4.0662245147485687e-01 -1.6027591760820270e-01 4.2547067893484491e-01 5.4948799384816516e-01 -3.4092376893435833e-01 2.5361466978850133e-01 4.9997013652977329e-01 -1.5609973454029369e-01 -1.0829724197953679e-01 -3.9386431590650889e-01 2.3581559878037595e-01 2.5761739605370254e-01 -6.5056982544165198e-02 2.9382329939459140e-01 -3.1487681402899775e-01 -6.0377345610848121e-01 2.1935055930286332e-01 6.6792917434194277e-01 4.4513469476438305e-01 -3.2409350922543134e-01 5.6785459939321860e-02 -5.0711676783289217e-01 9.6379164821971952e-02 1.4774191728412014e-01 2.0443752072430717e-02 4.8811021291118917e-02 -3.9826287603700161e-01 -2.4232399308000863e-01 1.4865995912720520e-01 2.6245162251502741e-01 -3.3743875590643779e-01 1.5270410122156808e-01 
      </Weights>
      <Biases rows="50" cols="1">
        -3.3011732194974064e-01 -1.9660484187890170e-01 -4.8135024355220402e-01 -5.7387865288843365e-01 2.3935308518234388e-01 6.3007764916897602e-01 1.4065638510017059e-01 6.0194521189436273e-02 -2.3841135404294642e-01 -9.9964753674286255e-01 -6.4104697028576768e-02 -4.8495777786255057e-01 5.5883933400548769e-01 -1.2542610280696276e-01 3.7432399997444182e-01 1.7953682009422586e-01 1.1909115321212581e-01 -2.4811211142735443e-01 -4.4214162271146501e-01 -8.1829977597348025e-01 8.4520212609638462e-02 -6.2483353601411277e-03 2.9458421557370107e-01 2.3724508089476545e-01 2.6409321643479167e-01 2.6980035293781107e-01 9.5891184012327296e-02 -2.8018281841213616e-01 3.8677801767660275e-01 -1.2305825133442441e+00 1.6691363614384000e-01 -5.6141192379069649e-01 -5.5151461001441363e-03 -3.3890006024091535e-01 8.4556660746646875e-02 4.5349839191246138e-01 -2.5623010415101699e-01 -1.8825247945368181e-01 -5.0689470676096124e-02 -3.5278623245508095e-01 3.5317346471181843e-01 3.2276770739889288e-01 -3.1663819347395861e-01 8.2310611448649340e-01 3.8691775871101874e-01 -2.3667306039876854e-01 9.4444327739969886e-02 3.0794887725973552e-01 1.5664799316463238e-01 2.1083892330376575e-01 
      </Biases>
    </Layer>
    <Layer ActivationFunction="3">
      <Weights rows="100" cols="50">
        -2.0844071221109026e-01 -5.9415915307053618e-02 -2.2768234985370618e-03 -2.8559400525857487e-01 1.7477082548885498e-01 2.3085112991734355e-01 -1.1726253743444850e-01 -1.4487047680400117e-01 1.2335692488696960e-01 -2.3236820489498927e-01 -2.1210898209830278e-01 -3.2494088789567006e-02 -1.1267898800931002e-01 1.5661094424301348e-02 1.8599232645209329e-01 2.1168314226805495e-02 9.9672688336929910e-03 -4.0638542211771468e-02 -9.4288940690221965e-02 1.4971390749176189e-01 1.5601955608742288e-01 -1.5115913615270682e-01 3.3948348034951788e-02 -1.3135151777929888e-01 1.2929348748940697e-01 8.3393185732656416e-02 -4.8809646198544936e-02 1.8137042953823110e-01 1.8470028715293241e-01 -1.5659185831627032e-01 1.3785475798508565e-01 -1.8615201597960437e-01 9.3870211462598968e-02 9.6366754052895409e-02 1.1201232310061281e-01 2.0804323773593741e-01 -2.7342577335230023e-01 1.5314639607653011e-01 6.3458918608344572e-02 6.5702071798606904e-03 -9.0590961945428178e-02 -7.7914996441245707e-02 -7.5535112841818006e-02 1.4554624803604743e-01 9.4915536259915431e-02 -1.6451934236585147e-01 1.2073397240715650e-02 2.0512088283223209e-01 2.1843869699876300e-01 4.4502765808799839e-02 8.5643357308225185e-02 -1.1134716164839017e-01 -1.2379404498762273e-01 -1.4791831401702432e-01 -7.7181119752526811e-02 -1.2579521328390068e-02 -1.6492164546787080e-01 1.0579558151826547e-01 1.2072417939353655e-01 -2.0995699084760991e-01 -6.3097072765222376e-02 -1.4359181829922238e-01 -1.5004252985508060e-01 -1.1873556965561231e-01 -4.7427867174495007e-02 -7.9058089050400432e-02 4.0749453858961955e-02 -1.1721695498204290e-01 9.4547886950206994e-02 -1.1324738165735876e-01 3.9336282994483903e-03 9.3566113896754968e-02 -2.2128436971081103e-01 -3.4724668390083632e-02 6.4256877490332211e-03 -3.7714232023202503e-02 -2.2101407191116115e-01 -1.7211422406420193e-01 1.6891872578161848e-01 -2.8990476913180973e-02 6.6425089035911114e-02 -1.0734317127223987e-01 1.9397481119685994e-01 -1.3294927753003519e-01 3.1852217724615758e-02 7.6542251629691457e-02 1.8040039811489927e-01 -9.9530724133151588e-02 9.0213306864379728e-02 -6.6442507463301340e-02 3.6651199470214023e-02 2.1413981066473620e-01 -1.2654029332751721e-01 1.8448326250957308e-02 -3.5640183894739962e-02 7.3916980249998182e-02 -7.0026157441981693e-02 -9.9037670978922396e-02 2.0355286001492096e-01 1.2200354285373052e-01 -1.8385326048304857e-02 2.8238964871325829e-02 -1.3834328400586596e-01 4.3115484367973099e-02 3.4070469150736756e-03 1.9796467118134842e-01 -1.3956898077631530e-01 -4.5907699979728149e-02 1.2134756623462520e-01 -2.1721233746771024e-01 -1.2418712040046966e-01 6.6314262211477487e-02 2.1223970590089195e-01 1.7596407597523975e-01 -4.6658760138502696e-02 -1.4575464674859251e-01 1.0257129540112070e-01 -1.3890011878882669e-01 -1.4492633665089308e-01 1.1430317363399906e-01 9.4005440414154692e-02 1.2547676024412996e-01 -8.7697822564601638e-02 -1.0177180540949615e-01 -1.3422866127448686e-02 1.4636187985952134e-01 7.8563003063628609e-02 1.4732897926905908e-01 8.1172541600287917e-02 -1.0374045583516782e-01 1.7698441356734876e-01 9.5578281112454214e-02 4.8372019098009381e-02 -4.0484186840487414e-02 1.3627765453847054e-01 1.9193968173952100e-01 -1.8057742390460974e-01 2.3087475757108310e-02 1.4401316453796259e-01 -4.3665904478096360e-02 1.3382292015567790e-01 2.1106832310457888e-01 1.2217293950097474e-01 2.0714613467671489e-01 1.7433298566686520e-01 1.6010075046055408e-01 -1.2629986181285860e-01 -2.6684729086159337e-02 -1.3047364895581232e-01 7.5491848694705252e-02 -1.0369558764933400e-01 1.3646288573842691e-01 1.4458747408644049e-01 -1.4007196371421721e-01 -1.1988104749517370e-01 1.1201027633541939e-03 -1.1904174286540960e-01 1.6801260454588440e-01 -8.8470828034561744e-02 1.3709400139858680e-01 -8.2811814622277061e-02 -3.6101533806782507e-02 -1.1751541235400252e-01 4.3522549178638759e-03 -2.9776183019887961e-02 1.8144720821277698e-03 -1.6494434669912675e-01 -1.7892115315639973e-02 -1.0107610160021305e-01 -4.7719197276888399e-02 -1.9982607287290047e-01 -9.6939501745774925e-02 -3.5318067719035708e-02 1.0058808866526642e-01 4.5183355924427307e-02 1.2610731270985262e-01 7.2165246774047523e-02 1.8413436728966617e-01 -1.7217097654805191e-01 1.7296106936370931e-01 -8.1864036959918077e-02 8.4420851561270854e-03 1.5200810975068068e-03 -2.2198771404485663e-02 -6.9648936488287710e-02 1.6724676482187162e-01 2.0027045220229781e-01 1.3355220680563892e-01 1.3763948830262465e-01 1.1706855385520877e-01 -1.1370918656543520e-02 -1.5092021006829887e-01 4.9304227525813663e-02 1.6579386200077570e-01 5.7467532532370962e-02 1.0124087100519190e-01 -4.5813106122788425e-02 -1.2335261661557746e-01 1.1778366656816086e-01 -5.2376072434877338e-02 -1.6985572903386909e-01 1.4606817962816132e-01 2.6439575615517233e-03 4.5757613649719288e-02 1.0810702157199367e-01 -5.9940072152955881e-02 1.5156516530292760e-01 6.3851438599767718e-02 -1.4402770705086396e-01 -1.5283748136359926e-01 1.2999005058651026e-02 -7.3496268390230254e-02 -1.9707313298772247e-02 2.1469924753005312e-01 -1.1644730993473343e-01 1.1266999585005001e-01 -1.0291127933876623e-01 -1.8641668644742773e-01 -1.6054214198229386e-01 1.2685858321550914e-01 -1.7551008406074386e-02 -1.0467527346274859e-01 -1.9269065423765105e-01 1.7321196658706697e-01 1.0922537169333435e-01 8.0612467040772476e-02 1.9721492659450071e-01 8.9642817548717686e-03 1.7393521628047406e-01 2.2356997151063984e-02 5.9233948861145229e-04 9.1261836695886819e-02 -1.2358020785311574e-01 -1.8510740898144019e-02 -1.1074998470772644e-02 -1.1367182573461447e-01 -1.4522871762943695e-01 9.8809345328139703e-02 -8.8696571999107882e-02 1.5680003558618169e-01 6.0556333765185329e-02 2.4876713936211853e-02 2.7821910031804929e-02 7.6420194650602999e-02 -1.2785374221749141e-01 -1.1636032024993510e-01 3.5534962203214261e-02 -2.8598224930178374e-02 -2.3701162443716450e-02 -2.8313698867570052e-02 7.2538365813732866e-02 2.8492418296654280e-02 6.9438405747389881e-02 -1.9632435484446831e-01 7.3759052566012756e-02 -9.8133301132266940e-02 -1.0326452011671370e-02 -1.0429299026133716e-01 9.6161340941240014e-02 -1.1526411265911334e-01 -1.8013741328055142e-02 1.1299280847932941e-01 1.3041528361456076e-01 -8.8204769046235174e-03 1.4207982735505617e-01 5.6770997611844919e-02 9.2735339814659756e-02 -3.6987023579058913e-02 -1.3277020462012551e-01 -1.1782541954452468e-01 2.0236966935674183e-01 5.8616144623594546e-02 4.7772341637209864e-03 -1.2064870885866709e-01 -1.9132498073014237e-01 3.9659393279450270e-03 -2.4074654694360345e-01 8.6647085360214371e-02 -8.5979513734586982e-02 -1.2358157773713513e-01 -1.2395287316353984e-01 2.8274444370425762e-02 -1.3726067120442767e-01 -2.9976127555244789e-02 -1.8306871773266939e-01 -6.9824697930126439e-02 5.3540936115154382e-04 1.4714155089046965e-01 1.0703925663482125e-01 6.4210794322300688e-02 -7.2709014129262201e-02 1.0047971241827920e-01 2.1635208240190096e-01 -1.4193668050114916e-01 7.9821469194472125e-02 -6.1120956814302581e-02 -1.5090262788334832e-01 -1.3373232285845688e-01 2.2159906602910329e-02 -1.1171638878307744e-01 -2.4667684801337103e-02 2.4865267422006623e-01 2.3696023263074995e-01 3.3929820658802007e-01 4.6989057566402901e-03 -1.2705490569692149e-01 1.1734590088279120e-01 -1.3893241765281228e-02 1.2023093818925287e-01 1.6576591193686699e-01 1.1711568520554540e-01 -9.4171294628211458e-02 -1.7307003499009055e-01 1.1041920603473424e-01 -1.2353082842869055e-01 -1.3683095681256530e-01 -1.3727690104881546e-01 3.3423887659820130e-03 2.2063756085710140e-01 1.5169793197552731e-01 1.1527719204132300e-01 -9.1775373109144659e-02 2.5019840120519216e-01 5.4533083982795966e-02 -1.5137961656034327e-01 -2.3394498911961223e-01 -7.5858276662542815e-02 1.3128655566607247e-01 1.2869388313268781e-01 2.4882314580984635e-01 1.2787787541595527e-01 1.5191273371636960e-01 4.7998979086231620e-03 1.0880980316114777e-01 -9.1728601143393970e-02 -1.2878247278840776e-01 1.8060019779359809e-01 2.3043087866740494e-01 5.1894484023580337e-02 -7.2324011975103075e-02 2.6693641606744867e-01 3.4808865476830708e-02 5.0652484528432684e-02 -3.9592919160165002e-01 9.1565285640471186e-02 3.7798795953550186e-02 4.0305087728992453e-02 -1.9533065335148844e-01 -1.9299370908961172e-01 -1.8596782459364311e-01 -3.0918451802185245e-02 -1.5506731749054034e-01 -1.6518816777626588e-01 -1.0006726172955607e-02 -1.5375459372627406e-01 1.6482872495487737e-02 -3.4430033235770548e-02 7.6939062277797787e-02 -1.2359269950706411e-01 -1.0158831761340294e-01 1.0671402173805775e-01 -2.4267759463996336e-01 -2.1537536827709286e-02 1.5438049808572962e-01 1.4053172299523203e-01 1.2582861203176579e-01 9.2802486382773816e-02 -1.4792711509477990e-01 1.1684784636528744e-01 -9.7183402294698434e-02 -6.0012351729648805e-02 2.4486137036920517e-02 2.8506049633118914e-02 -1.6540862480000604e-01 2.2704178103123074e-01 -1.1159529267848679e-01 3.1179390612941199e-02 -1.9597043037278652e-01 1.8023285981274093e-01 -9.4849531296475290e-02 1.3316808565474356e-01 -8.7883780553115548e-02 1.8663972652196156e-01 -8.6323126071268103e-02 -7.6024536580689478e-03 9.5320574336791628e-02 1.2451733537567279e-01 1.8121400511636629e-01 3.3568223991466486e-02 -1.3175266809653624e-01 1.2522699318624929e-03 -1.4269699643067374e-01 6.8375752896631531e-02 -5.5585657651733685e-02 -1.8384899780296152e-01 -3.0825506956559238e-03 4.0296497068583188e-02 1.1409795694836009e-01 3.2405573802965340e-02 5.2571408937278345e-02 -1.1481097504681495e-01 6.6227370581297879e-02 6.7006762016327992e-02 -1.5156156326274203e-01 1.6491716528485353e-01 8.9419492861727179e-02 9.5501414844206503e-02 1.9176346527971625e-02 1.1874093976589423e-01 -1.7467795226749927e-01 -2.1635248968530357e-01 1.7969124596748529e-01 8.1946605738117101e-02 1.8792530034925542e-01 1.2445839850663581e-01 1.5241583342252973e-01 -1.7376350282497235e-01 -1.2136761964297667e-02 6.1582322642545095e-02 7.4769933929100987e-02 -1.0983283537362817e-01 7.5408075183909212e-02 -1.7703493129636699e-01 1.4589051917303825e-01 -1.1570531832788450e-01 1.0635774300172444e-01 -1.8163694510170247e-01 1.0774776939673547e-02 5.0216453809447219e-02 -9.0334543942527559e-02 1.1911695524726354e-01 1.1253570404656361e-01 9.2127029712673805e-03 1.2578314718646788e-01 1.6545159823256086e-01 2.1382684637573213e-01 -9.7127945236509930e-02 2.8143006293299730e-02 1.3846943561741157e-01 -9.1908994729403781e-02 -3.6063177282379615e-02 8.5614575100857640e-02 -5.4843338182653863e-02 -2.2512228726171795e-02 3.1731383160092913e-02 1.8582023418832480e-01 1.9087768403132865e-01 -1.1030923129026311e-01 2.8981616405241387e-02 9.3594820775440735e-02 -6.1081433488496560e-02 -2.6413351170408905e-01 -5.2840049792810248e-02 -7.3226064187882162e-02 -1.4756250566888238e-01 1.8352718432064874e-01 3.0475071212158030e-02 -1.1443285452932901e-01 -1.1958038920364063e-01 -2.1192407402149332e-01 -1.9823037994873102e-01 -1.9582399962481079e-01 2.4140920730177113e-02 1.3733636132361399e-01 -9.8693306402831193e-02 4.3989044883230771e-02 -1.5001190150524366e-01 -1.9401958510935430e-01 -2.1128274110902731e-01 4.4776946170109917e-02 -1.9021498339684637e-01 8.1876600170738403e-02 1.2952197510575844e-01 1.2935119710179216e-01 2.9404343948418902e-02 1.6195848302474414e-01 9.2425520191164734e-03 1.7905947412607939e-01 2.1052260586508365e-01 -1.5450914261311879e-01 1.3376929082348879e-01 -2.1992731783014699e-01 1.3851339741250610e-01 1.5894319954100217e-01 2.1616166109496574e-02 9.7893580944878100e-02 -1.3441721064045062e-01 -1.7789438171368899e-01 8.9831931873020535e-02 -1.0845447336705365e-01 -2.5974242092997807e-01 -6.0293376472895240e-02 6.0144809794305601e-02 1.2483367956308707e-01 6.1251467547485908e-02 -9.9521484264404159e-02 4.5078634985397631e-02 7.7417281429032148e-02 4.3193516514777028e-02 1.4384955707336325e-01 1.8365936881881295e-01 1.6219447115902677e-01 -1.7419925590624466e-01 -7.8853200221609979e-02 -1.2721429293836134e-01 5.3008351270726669e-03 -2.7850200347011467e-02 -1.8880513302754362e-01 -6.0777126451335241e-02 1.4541119502604744e-01 -1.9613668049924465e-01 -1.0700245563725144e-01 -1.5202489631306784e-01 -1.6762477789981059e-01 3.3101534501271589e-02 1.7060401128828831e-01 1.3163318116856559e-01 -1.2080592717521602e-01 1.1322653130303674e-01 7.2733137797794375e-02 7.6147130175426084e-02 2.1918730718524534e-01 -1.6520688452657528e-01 5.6667945703044474e-02 -2.1447756032326229e-01 -9.7238061690491331e-02 -7.5012527357444847e-02 -1.5723456959564003e-01 -3.7419671102475523e-02 -1.8937056276447171e-02 -3.7837803678099358e-02 1.2478786778533979e-01 -8.2755200063025780e-02 1.2466975867442778e-01 -1.0985057276972741e-01 7.5692826144640749e-02 -1.1876595710257819e-01 -6.7957342954509184e-02 -1.7776141359976125e-01 8.9756997212899384e-02 1.1521241600102715e-01 1.6385225937771425e-01 -1.3403447550925499e-01 -4.5544497255079454e-02 -1.0358681790313497e-01 -1.7555978897125801e-01 -1.4611989349312360e-01 -1.2474210991671059e-01 -1.1159970498609127e-01 -1.5836399247471242e-01 -1.9763766545893502e-01 -1.7464466727056904e-01 1.4482584055918254e-01 -1.0970996910603889e-02 6.2857538195883772e-02 9.9479131589613495e-02 1.0960804905201590e-01 9.0631737515358246e-02 8.6235177162821766e-02 9.8712909553201722e-02 1.9809200253124920e-01 1.8025845503081858e-01 -1.7521000973254364e-01 -8.3863171487650965e-03 1.8775616758907723e-01 -2.4068317856460974e-02 9.0091919204421042e-02 -2.1187405881959204e-01 -3.0013139359004529e-02 1.4176970261610200e-01 1.1581897555108628e-01 2.0187362921277652e-01 8.8310399656391612e-03 8.8517172107494824e-02 1.6263512191506496e-01 -1.2562522752634378e-01 9.9066377031548927e-02 1.3325055645838069e-01 1.5652553545694606e-01 -1.2067466404051289e-01 -1.1039072323496166e-01 1.2961898826360542e-02 1.9149444497239937e-01 -1.6201710891710050e-01 -5.6162434018420297e-02 -1.8401617100290810e-01 -4.2033159031869730e-02 1.4009454856349959e-01 -3.8224209198826568e-02 1.4051344834541590e-01 -1.6067012103289542e-02 -2.1054156448950416e-02 1.8145295615043239e-01 1.3351493464129838e-01 6.7666925989556342e-02 -1.3252765598684929e-01 6.2521570439996746e-02 -7.1028486229671964e-02 6.1407598609547155e-03 1.4226580317249735e-01 -2.1091642873236524e-01 -7.8641640641464103e-02 3.9421118967628364e-02 1.0014884614146949e-01 2.5170974954271303e-02 1.4636182668396963e-01 2.2799305185453803e-01 2.2569335561584809e-02 -2.0445330276119345e-01 -1.5125976446398870e-01 1.9363056042712747e-02 5.7269408536277594e-03 8.4909211194712286e-02 8.8981249695317899e-02 2.1625496789390647e-01 -9.3584381050114268e-02 -1.4255650609905712e-01 5.1706116277350063e-02 -1.9246536610454565e-01 6.1970716130080337e-02 -1.3894612242840937e-01 -1.8873405973410745e-01 -5.0248438873534106e-02 1.7353841766263478e-01 1.6457742228036534e-01 3.3645046735709658e-02 -2.1797481706432262e-01 1.9216922999993910e-01 7.3242775089663679e-03 -6.2743503407766452e-02 3.4048629760610238e-02 1.2566921997987410e-01 2.1142308763818121e-01 1.1088485816807098e-02 -9.7957691888840449e-03 -8.0374723909276441e-02 1.3458938277946014e-01 -1.0655277208937879e-01 5.2609286355906469e-02 -1.5192440724108422e-02 -4.9695336507080854e-03 1.2876323263411260e-01 -2.0753985700877056e-01 -5.5306261303106598e-02 1.7256107680730062e-01 1.4311777979577017e-01 3.1350654086409475e-02 -7.1362066284150261e-02 1.5525369949009377e-01 1.1022100595085951e-01 3.0117305192560478e-02 5.1710223254394116e-02 -1.8106083346592317e-01 -2.1907840919577069e-02 -7.7147401251254138e-03 -2.0852492951477938e-02 -1.2873223443969284e-01 5.6531417340678694e-02 -1.2493037005540664e-01 -1.4478903510713764e-01 -8.2776977804629698e-02 -1.9168526288931909e-01 4.5592000595381314e-02 1.0938870419657154e-01 1.2905332570454159e-01 1.2188239211002938e-01 9.2279971462046098e-02 -1.4151049019424955e-01 1.7257897099290795e-01 -6.8206666016399687e-04 1.8942805712118154e-03 -1.9152586183051160e-01 1.0207158743151998e-01 8.1722158851933444e-02 1.9243996711103689e-01 -1.4691560209325905e-01 -2.0670858311757679e-02 -1.9741065554675266e-01 -1.6541450838630703e-01 1.1189971087705092e-01 1.6812627038285236e-01 -1.9798210549375495e-01 -1.6692270910057674e-01 2.0875517506056110e-02 5.8531518052338451e-02 1.5816572608908500e-01 -9.5421194248495982e-03 -8.2648755371189486e-02 -4.5237165844543147e-02 1.7128186363310474e-01 -3.9359759843113004e-03 7.3779860963169103e-02 1.2372080256633700e-01 2.1215456457184728e-01 -1.6909919658581021e-01 1.0527363709320472e-01 1.4832923678741336e-01 -1.4468045782647809e-01 3.3145151487785351e-02 -9.8761621658541882e-02 -4.5824636361369742e-02 1.8312553902612436e-01 -2.9060992025115032e-02 2.4424595844795971e-01 -1.9519554984657964e-01 2.1255086851076240e-02 -1.0375461028378351e-01 1.2813336323693869e-01 3.0931470588087796e-02 1.6620017010861146e-01 1.3237097659357672e-01 -1.0573912239013941e-03 -9.8213815603217014e-02 -5.9720081891028481e-02 1.2525132279382731e-01 -8.3946194387015532e-02 1.0445381024644504e-01 1.3045955161419276e-01 1.6302780206956327e-01 4.8716058967712744e-05 3.8195558952140350e-02 4.2471159382218335e-02 1.0857757995385421e-01 -1.7950661435186019e-01 6.9989299695763108e-03 -1.9000945289540322e-01 2.8643699847753249e-03 1.7522611612143396e-01 -7.9134662798232086e-02 1.5557692547326861e-02 -1.1271969307232252e-01 1.4764956003424834e-01 2.4521222181138760e-01 -2.7048148861219604e-02 -1.6727991184417099e-01 6.8039698098477791e-02 3.4039049625615041e-02 3.9584405789792942e-02 -2.8684460336716306e-02 5.9422586585874411e-02 -9.3266553248857409e-02 -9.3752815326606856e-02 1.8613255957853073e-01 -1.1606878781946316e-01 -7.4053787636635601e-02 -1.5647646552602928e-01 -5.2475248773051986e-02 -6.5008539664957884e-02 -1.5972009560221465e-02 1.1852602085444121e-01 1.9152019694259066e-02 8.3347792053554859e-02 -1.3761572884155809e-01 -9.3854810775254385e-03 -2.8979482429006671e-02 8.8087060053657129e-02 1.4456033868045348e-01 -2.3896897997707379e-02 -4.8498889894936226e-02 -1.8867127297885258e-01 -1.1757935224163175e-01 -1.8316014955980670e-01 8.0114872151752961e-02 -1.4089366211497201e-02 1.6042267354020873e-01 -9.3436755949994912e-02 -3.9103587319086900e-03 9.0706868833584420e-02 1.6827163811867513e-01 6.2610608190038969e-02 1.2961339890396575e-01 1.5267154916920647e-01 -1.5175792287614501e-01 7.8224311917552539e-02 -1.5721891853134257e-01 1.0120964128743365e-01 -1.0153908851935971e-01 -1.3942313697872988e-02 -1.5304821905164118e-01 -1.6113089496712418e-01 -1.8052352935060489e-01 -6.6785016998114233e-02 -1.1530478991516484e-01 5.6248311649787247e-02 -1.1402467305537567e-01 1.9961552274017729e-02 -3.1742523461231700e-02 6.1291173585851490e-02 -1.6273641306153010e-03 -9.0585056463288904e-02 -7.7144651396355138e-02 -2.3885437444768259e-02 -9.7142975451823488e-02 -1.3833673555887663e-01 -9.8374019771345939e-02 -4.1999327336900850e-02 -5.0823722839789552e-02 -7.5786491681832532e-02 -1.2990990287700041e-01 -1.3015830928552033e-01 -6.6057695137850300e-02 1.0106924787861091e-01 1.1050395799155241e-01 -8.0765301524326899e-02 7.1573173356733674e-02 -7.6558759239412589e-03 4.8098192879163983e-02 2.6314160352209771e-02 -1.4465561376206582e-01 -2.4391191965773154e-01 -1.2308403335957011e-01 -2.4667038584173734e-01 1.5921855199871668e-01 -9.5136302187778118e-02 9.3012582195847265e-02 9.2211024148454543e-02 -1.1506770070425878e-02 -1.0012593385159321e-01 -1.2089590265045408e-01 -4.9580821983463967e-02 -1.3807610792840316e-01 -1.1127684727164611e-01 -2.4373335403883897e-01 2.1698281731123817e-01 -9.0298644526561764e-02 1.5222754148666831e-01 -2.0393279860719163e-01 3.8848019451270477e-02 1.5050289102256670e-01 7.3251797520204999e-03 1.0932870123698606e-01 -7.1839085263702793e-02 4.8067075782306429e-02 -6.7548677167647439e-02 6.1074343547777077e-02 1.6579156433353912e-01 6.0409363311426753e-02 1.1266184626006516e-01 -1.3379806819621118e-01 4.3130251844956287e-02 -1.2906770433708631e-01 -2.7493672142852678e-02 3.8259076287496800e-02 2.7544333144578909e-01 3.9415509734271929e-02 1.4637836744415886e-01 1.7735560153746305e-02 2.1164369036671121e-01 2.1891234451598896e-02 -5.8490860708569098e-02 2.1644197231169307e-01 7.2573405930612220e-02 6.0401722648612592e-02 2.0558663162476484e-01 1.3683157256785228e-01 -1.5295581466345115e-01 -2.5497310656962296e-02 -5.5605098691776586e-02 5.5413572058757481e-03 -1.5632977412733364e-02 -5.9942722792384877e-02 4.3961361651649732e-02 -1.8450134933731599e-01 -4.1012360628059720e-02 1.2245707764629418e-01 1.3440423049467959e-01 -3.9539927697849274e-02 -1.0910007099902112e-02 2.2847882247786697e-01 -5.6538864780988685e-02 3.5872301231975934e-02 -5.7694292512003226e-02 1.0727727669442727e-01 -1.1607593232923956e-01 -1.2382154936848667e-01 -1.8233055247949001e-01 -2.9858744502172022e-02 -3.4481206446757895e-02 1.8477525631911511e-02 -5.1308471534338609e-02 1.4090392011838329e-01 5.7027132191767166e-02 4.3339653117385940e-02 6.9992018960418942e-02 -3.8524863142123879e-03 1.8005674243336999e-02 5.7647039216545621e-03 1.3255422002440895e-01 -1.1081633098319400e-01 4.9662129610713052e-03 2.5093565953944830e-01 -2.5427508956479533e-01 1.8363304405034744e-01 -3.1824413805016943e-01 -2.2797069903856934e-01 -1.1966669508739612e-01 -2.0907988485289017e-01 1.6639467703871408e-01 -5.8940784114437907e-02 -1.5778191380121606e-01 1.1044958433772624e-01 -7.5458436342715013e-02 1.3896365337548347e-01 -1.4630386037029436e-01 -7.8963981137672418e-02 2.8849272741734017e-01 3.8889320103395193e-02 8.1277148339745350e-02 3.0377080495331416e-01 1.8283281988440445e-01 6.4852898695108074e-02 -6.9831550945028738e-03 2.1048615276611193e-01 -2.9593463565918149e-01 7.5399684048824975e-03 4.4134250409194768e-02 -1.7941004861685250e-01 2.3313936145717192e-02 2.3448111844999492e-01 1.0777808399861420e-01 -3.7238328351136013e-01 -9.4709897926532338e-02 3.6211131529948937e-01 1.9056135136554883e-01 -1.6806011085706124e-01 1.5754737386190393e-02 1.2812323658809066e-01 -2.1787390456887501e-01 -1.2423432637529251e-01 2.2609175219713207e-01 -3.0725186812579380e-01 -2.3973137649412896e-01 -1.5450872686017916e-01 1.7268770846736892e-01 1.9424627136347052e-02 6.2361509970229587e-02 -8.8804025922741767e-02 -1.2184049834248666e-01 -4.3300633756905793e-02 -3.0100206560551673e-01 1.7292889814295070e-01 -4.4752167507308593e-02 1.1669375556591462e-01 -4.0500171867082893e-02 -3.4887384016010886e-01 -2.5193206114161315e-01 -2.7856768693648531e-01 1.7616867110202972e-01 1.6465461005513306e-02 -2.5514290661223216e-01 -1.5841158180583090e-01 6.2755502273335942e-02 1.6050812478597978e-02 -1.4469878625951332e-01 -1.8213027049003874e-01 1.9651769446185827e-01 -9.5285610236001683e-02 -1.7841600858908447e-02 1.3718978819683417e-01 -8.6132721263915885e-02 2.9232281211607238e-02 -1.3566707198763597e-01 8.4671905795991223e-02 2.2641698140832014e-01 1.3395944436939836e-01 -1.1292622154360012e-01 -6.1099604242411586e-02 -1.6192994751157022e-01 1.5988138056782852e-02 1.2279162501563901e-01 -6.4584423050454337e-02 1.6979912953919962e-01 9.9039671385989944e-02 -2.6298935562197329e-02 -7.6199321563933178e-02 2.0636271708173171e-01 1.1744817543952517e-01 9.9864641986057517e-02 -7.8297482037555134e-03 -1.5029928083750049e-01 1.2807526829051824e-01 -1.8255541938814318e-01 2.4873903374435898e-02 -3.3799269442806673e-02 -1.3993526260862577e-01 8.4544073040142373e-02 -1.2046062591994726e-01 -8.6949844880342547e-03 1.9769635410505644e-02 8.0161733834360899e-02 -4.9685933762880323e-02 -2.8064437206080581e-02 1.8702729359607012e-02 2.3615323928478611e-02 -9.3506221999052896e-02 -6.0457536542915760e-02 -7.6663660086516650e-02 7.1944059624021298e-02 -3.6823744169047323e-02 1.5881503548303783e-01 8.5579707002966063e-02 -1.4698137530895836e-01 1.2694107512558827e-03 4.5981619058265165e-02 -1.7376206352892945e-01 1.5675767581538644e-01 -1.1864169274672867e-01 -1.4394097501919989e-01 1.2252360214828927e-01 -9.2392713753022701e-02 -3.4805889902364141e-02 1.6293288423954269e-01 6.4986941528253045e-02 -2.1840343227815525e-02 -3.2008565735992242e-02 -1.9063249343397953e-02 -1.7660682077336234e-01 -1.2794202570847275e-02 -9.1181879179946038e-02 -2.0290962584568600e-01 -1.5719080786369027e-01 1.9743043189779964e-02 1.0330860466218320e-01 1.2979663411747511e-01 -6.7602489361179791e-03 4.0075093888429038e-02 1.6344004436161008e-01 1.6850028112653817e-01 -6.6746675194013505e-02 5.9003039017421884e-02 2.2342698406747448e-03 7.9554023553541752e-03 -2.9882403897413659e-02 1.9315081742177331e-01 -1.4986637758318462e-02 -9.8760344687616811e-03 6.0114410920744116e-03 -1.1485814749808605e-01 7.8400994397160084e-02 1.1564902613427358e-01 1.4058253788013233e-03 -1.8028577174493349e-01 2.0490619557674850e-01 -1.5184240134373886e-01 6.5172672313546523e-02 -3.5934901685234395e-02 1.0698476279488435e-01 -5.9907959053439840e-02 1.3103661490580401e-01 -9.2816864358525056e-02 1.7837375957160345e-01 -1.1407334534791543e-02 -1.1182161906013549e-01 -1.6844504467167154e-01 2.0777338870816058e-02 -3.9376240959800420e-02 1.2746421012105233e-01 1.2157430751783183e-01 -8.5475933171963656e-02 6.8673720226208781e-02 -1.2054257033765811e-01 -1.1941711772572665e-01 -6.7387430131051668e-02 6.7293891271247810e-02 3.3952129199944010e-02 -1.0743923021734800e-01 1.0755928584069752e-01 -1.0393005250523969e-01 -3.5156416240800473e-02 1.7592439730673165e-01 6.7256625577564400e-02 -5.5332366948943064e-02 -1.4272903279604995e-01 -1.6273708748658838e-01 1.5202874679112674e-01 1.9772830018850187e-02 1.7291433505855477e-01 -5.6974652940575368e-02 1.5062684657927411e-01 2.1196271941498271e-02 -5.8866694194020942e-02 -8.0242629896955034e-02 -1.5164436965000208e-01 1.8007752903603527e-01 -1.8825980762467401e-01 -8.1900332726818667e-02 -1.3824062233773782e-01 1.8695393946708294e-01 1.8637782450153118e-02 -8.0092181704717755e-02 2.7317404904910091e-02 -4.6523794710819563e-02 -2.2626946485800100e-02 1.9614008977125658e-01 -1.2073488952748214e-01 8.7066224285012317e-02 -6.1011014732983156e-02 8.7987713283431176e-02 8.1072087388347397e-02 1.5057918779880983e-01 1.3143235058286856e-01 -1.1051505323195665e-01 -9.8236118715039997e-02 -1.7537262229490194e-01 -1.0354361712867576e-01 1.3313171742945654e-01 -1.4481990497479483e-01 -3.1279264748596443e-02 -7.0519879962926829e-02 7.7513952626879448e-02 1.7509665315105016e-01 -1.3493959586060797e-01 1.9940587788123704e-01 7.9817906710360736e-02 -1.8078000033651923e-01 1.9208302842354388e-01 1.3503946121697466e-01 -7.7347393189754657e-02 1.7887569922488891e-01 2.9047867469910543e-02 6.4493024413095082e-02 -1.8814839239923287e-01 -8.7377756629953091e-02 6.6114427091057151e-02 9.9865944242943969e-02 -1.6371293150180957e-01 9.2672863970856889e-02 1.8370099604625564e-01 1.1605307076375644e-01 1.4967649016071105e-01 1.4136496207150162e-01 1.8386135023371378e-01 -1.1153018893011395e-01 1.7605257400607319e-01 1.4080797644556375e-01 1.7092780147404713e-01 1.2330786246583034e-01 4.0594954656451597e-02 -1.0739107497183262e-01 1.4299651721061682e-01 -7.5950872099689731e-02 -4.1635961381363468e-02 4.1245766633904044e-02 -8.4838438236198660e-02 6.7287637195739325e-02 -1.5727349009328337e-01 -9.5093837208484175e-02 -1.0378633381642736e-02 -2.0582411980050069e-01 1.8973866918664048e-01 3.3987472513889007e-03 1.2201076232707747e-01 -1.0451571045877295e-01 -6.3442066857147220e-02 -1.5958191037079550e-01 6.9501198156174643e-02 1.7665719650174966e-01 -7.7843105655070327e-02 -2.1947230221881278e-01 -2.1474213480837381e-01 -9.6076419714803116e-02 -1.2542765666317973e-01 8.1959367617945630e-02 1.1465596800341146e-01 -4.3831885445538427e-02 -1.0287253137836747e-01 3.4861060110534226e-03 -1.3096482736034698e-01 -1.8713411301783769e-01 -1.1233243802622836e-01 -1.0599632261423601e-02 3.5764624442301662e-02 8.6265604374292551e-02 -1.5716435420269562e-01 1.3713622019165292e-01 -9.8436519688250620e-03 -2.6166737514877014e-01 -1.2539999818047423e-01 3.8998859871259152e-02 -1.3512765182761735e-01 -1.7592622664117133e-01 -1.8585217724609238e-01 1.7363514481799264e-01 8.5623488115946139e-02 6.2724569555834787e-03 -4.6624575858144363e-02 -1.8316616109485484e-01 -2.0143846175942401e-01 6.7779044761545310e-02 -2.0702201754694713e-01 -1.5114599109924995e-01 9.2548919675279548e-02 -3.2905295185943546e-02 2.6311607432732916e-02 -6.0533126729884756e-03 -6.9653874897698698e-02 -5.2879044073850506e-03 6.7562998733683030e-02 1.4039630721439156e-01 2.1821031522201007e-01 1.7662924349428785e-01 1.1356999830269068e-01 3.0648776425686612e-03 2.5974120984862509e-01 1.7549244656712862e-01 -2.0833167225048432e-01 1.0796226215685628e-01 -2.1609706467857670e-01 -8.5722831060351307e-02 -7.3046515150026650e-02 -1.1394169706795447e-01 1.2602024123671554e-01 -2.4413486521439781e-01 -9.3337190061934319e-02 4.8460064195886554e-02 1.2532155284371449e-01 3.8153254885441031e-02 4.2678292736102338e-02 -4.7642000800651459e-02 1.3118925964192216e-01 1.3227479964224226e-01 5.3669495419511180e-02 2.7688697863476658e-01 -1.5958462862218031e-01 -8.2461935242884952e-03 -3.6184024834284511e-03 -6.0881761474371673e-02 3.7941441865595026e-02 -4.0057440827137969e-02 1.0914482189614623e-01 -3.4075616269221586e-02 1.6016862325893971e-01 1.6360894828688511e-02 1.5912450770080380e-01 1.3738511472840528e-01 4.7522753905665474e-02 2.2353203578003650e-02 7.4379230912659106e-02 6.0056079166910838e-02 -9.6766391006484459e-02 2.9614651823450971e-01 -1.5947989404983856e-01 -1.1182928262947039e-01 9.0090888149929840e-02 -7.8429615817009232e-02 -1.3894984121361365e-01 -1.8069153730698312e-01 7.3391482500926836e-02 1.5575373552068134e-01 6.7945881282677313e-03 -1.5813220134945949e-01 -6.3033764505598874e-02 1.6786708949182552e-01 -7.7273393283694466e-02 3.3764323805543131e-02 -1.4689396104788630e-01 1.7598752385448641e-01 -1.0421605932565835e-01 -3.5729285890349308e-02 -1.6204294101802588e-01 -1.1721224699206936e-01 -9.4357267172715670e-02 3.5584153934851447e-02 1.7334131368710939e-01 -3.1446218314385280e-02 1.7277018888364074e-01 3.2693869304622940e-03 -1.8907538553295955e-01 1.4418975529307337e-01 -8.9247211647736371e-02 -1.0790228114219275e-01 -1.6574956466189891e-01 1.7478111586493480e-02 6.6591324472786775e-02 -2.7177657229340610e-02 8.4787855320374181e-02 -1.0304180507828366e-01 -8.0133099583671610e-02 -8.4982204527719374e-02 -5.7941016684141811e-02 -1.1185358376151153e-01 -1.5892081044064676e-01 3.0214973235306641e-02 -1.3392013514115095e-01 -4.9547946877771969e-02 1.7067890490179727e-01 1.2566892673967031e-02 -1.7476761053172968e-01 2.5246759259686790e-02 6.7489307871372056e-02 -9.3289861025713627e-02 2.0148573484765472e-01 -6.8303057348990046e-02 1.2256631726637149e-01 1.0833249940528263e-02 4.6874314437787427e-04 -1.8051102695987192e-01 -1.0943223615250974e-01 -7.6108196835840344e-02 -8.9745853083255389e-02 -6.2830070717122044e-02 8.3845489888775826e-02 -1.1218439871846562e-01 -1.3383053808690853e-01 -1.1883956839081283e-02 -3.2706162516802910e-02 -9.0977519234554643e-03 1.6933132851395225e-01 1.4810648234376700e-02 1.5079448150525909e-01 -1.6383617873316716e-01 -2.0091747733165857e-01 -5.9103135989577775e-02 2.2300603680424465e-02 -5.6368270786901484e-04 1.4470950536415084e-01 -1.6128848513169525e-01 -3.0707040389712035e-03 9.6440976983585724e-02 -1.0979754683838050e-02 6.2712887234938716e-02 -9.3151278283989614e-02 -2.0633459117361000e-01 6.5198219206915695e-02 1.1934757388165365e-01 1.5508460638385729e-01 1.4442704368464870e-01 -5.9273763233737418e-02 -2.0168276592252867e-02 5.5184437921954196e-02 1.7291758404594068e-01 1.2278506336148974e-01 1.4564045334293085e-01 9.5070642304993444e-02 1.3057853531724284e-01 7.8887940226639114e-02 1.3797269396597389e-01 6.7127354625553651e-02 1.6147610484840808e-01 8.9372181034205384e-02 -5.9286719043024703e-02 1.1951141303466165e-01 4.6108500022070446e-02 2.2898111444909730e-01 -1.0280234435832865e-01 7.0428204499707839e-02 -1.1633918957260153e-01 9.7521608825751727e-02 1.5398396718247651e-01 2.3076219016549011e-02 -1.5296708715065052e-01 -1.9259508891611457e-01 1.1818357945990991e-01 1.1104943625399522e-01 1.5835266044600979e-01 -3.2110608419292669e-02 1.7719021515803091e-01 1.5098133313662490e-01 2.8508318291940411e-02 -1.8221082266392130e-01 5.0397289677151028e-02 -2.3338045269989571e-01 1.8512778671565075e-02 4.1594145553617665e-02 3.9025038424411747e-02 -6.7347485524081555e-02 6.2022486670137301e-02 1.6139450364075195e-01 -1.7089349758362071e-01 6.4968049661905279e-03 4.3426885415858568e-02 -1.2500603708060439e-02 -1.9759147218863973e-01 9.1110112996736339e-02 -1.0063006050113972e-01 1.8357678494058102e-01 1.3519609222555451e-01 1.2115968169513229e-01 -1.1284661945750930e-02 7.1828676874205508e-02 -1.1367886843879954e-01 4.4750339440832919e-02 8.9699960310511612e-02 -1.3941432555334635e-01 8.3416188212331807e-02 -1.1168340398380139e-01 1.4964214513212867e-01 3.7716054995207619e-03 3.8854104198201740e-02 -1.2391752941206553e-01 4.0042782832205838e-02 1.9223894889168275e-01 1.6735797532179730e-01 2.0143110267998796e-01 1.3634345559855052e-01 -1.7512270340247357e-01 1.7869605582850442e-01 -8.5990667570625873e-02 -1.3385714970763132e-01 -1.2403638201229888e-01 2.2316275793866885e-01 4.1450951455404494e-01 2.5216220139528223e-01 7.6123481974963303e-01 -2.3398858730631455e-01 -4.2227515241088898e-01 -2.8106058253594329e-01 -1.3256928011281446e-01 2.7725336545614576e-01 4.6773588232704899e-01 2.6437387008101593e-01 3.4761963611111629e-01 -4.6193607924177565e-01 -4.9848146793614358e-02 -3.4503469573962955e-02 -2.8030308405246723e-01 -8.8777449525204985e-02 3.7517808312444623e-01 3.5089321140458501e-01 -5.2636336443448273e-01 -2.9216156530184711e-01 1.5153766752347123e-01 3.4739974871299234e-02 -1.6536924206290543e-01 1.1069109605473743e-02 -5.1467588909994499e-01 2.5057314040673967e-01 2.6140392866604256e-01 -2.6631617216734560e-01 -8.5058108820346179e-01 -2.6676351854060747e-02 3.9053149282129795e-01 -1.9886976120863048e-01 1.9757166554309585e-01 -1.5242869733107163e-02 -4.6802407124104223e-01 3.0200479881077841e-01 1.0243496624099015e-01 2.4764816140721199e-01 2.3002662415758587e-01 4.3132663902081136e-01 -5.5451074088128971e-01 4.5795255740853141e-01 -6.5692240532987856e-01 -2.8070997355323679e-01 2.3498546712151247e-01 -2.6815831693117509e-01 -3.5640062177815651e-01 -2.7067363660342764e-01 -2.7817031538447279e-01 1.7521192770031371e-01 6.3984704640350692e-02 7.3331002850288318e-02 2.3679273187058492e-01 7.9297711740851706e-02 -1.6570066470051692e-03 9.3414515240272167e-02 1.0366550481322717e-01 1.0005567420262916e-01 2.4118339963952104e-01 -7.4222664692826484e-02 1.4441754078788765e-01 -2.7918314004815115e-01 -1.0963457312349142e-01 -6.0077606988539783e-02 -1.3523377645855328e-01 1.2289040445820641e-01 1.7742089086157017e-01 2.4071907124094785e-01 -7.6519344670742839e-02 1.5732388273445377e-01 1.9830339084700546e-01 -4.3335840377857190e-02 1.2582824791993602e-01 1.4467641927390371e-01 -1.1635427316053028e-01 7.5495240778408593e-02 1.5558676629487058e-02 -2.0361475634703069e-01 9.5360938958137187e-02 -6.3415868420611185e-02 -6.5704956215674473e-02 -1.1330255194891511e-01 -1.4934196222796442e-01 1.7678432112116038e-01 -2.2404735498295864e-01 8.6319425955194665e-02 -1.0295775921776652e-01 -1.5460390864385762e-01 1.2332181281439587e-01 2.0417458758515677e-01 -6.4530030731998866e-02 -2.9497346122832504e-03 1.9282502343791922e-02 -8.0391421634040117e-02 -1.9147707051258133e-02 -1.4834292893785728e-01 -1.1282342435757450e-01 -2.1882633257894437e-02 -2.3627809803996164e-02 7.8136579011721191e-02 1.5652220193892577e-01 -1.4919901076169456e-01 -5.2089142810070869e-02 -1.3389962691770071e-01 -1.9234443264541579e-01 2.0601048187864460e-01 -1.3807638900220368e-02 -1.2525468474810517e-01 -7.7862008445049091e-02 1.9157792058580525e-01 -1.2818962888491767e-01 1.1495831496032367e-01 6.3801032759290666e-02 -2.0004331099652728e-01 -1.9270578377078829e-01 7.7029915673224800e-03 -7.9669941884881981e-02 -5.0199267759992804e-02 1.0187780449398877e-01 1.1600341010478539e-01 1.3442382540725795e-01 -7.7459484780652357e-02 1.6179345033770734e-01 1.7052536538422339e-01 9.7112581618255422e-02 -5.2406251050819613e-02 1.7627322224512368e-01 -1.3049981955320974e-01 5.2450488953617425e-02 9.3125463285727447e-02 -1.4846038124214689e-01 -1.2504963581184433e-01 -2.9990085929072947e-02 1.7138721958763986e-01 2.0764992745343108e-01 1.0429241941191401e-01 -1.1640790777976262e-01 5.2740768260220235e-02 8.3177964256225603e-02 -1.0467118702285778e-01 -9.7347249887311416e-02 2.9660951776883718e-02 2.2444635655865008e-01 -1.2579428540758950e-01 -2.5947996084864835e-02 -1.4817214588852157e-01 -1.4410828167603312e-01 -9.5305812218937511e-02 1.6083457722913536e-01 8.8099659900253161e-02 -1.2302551599811710e-01 4.2835679126657367e-03 1.0629504939013849e-01 -4.8018324987051907e-02 -5.6896269937097559e-02 1.3830910720198900e-01 -1.6989571705123149e-01 -1.2124979300807440e-01 -1.2080968556100727e-01 -1.1402135251191338e-01 1.8362623889227750e-01 -4.3380520767094602e-02 -6.3094242274475215e-02 7.6474567580272018e-02 7.4236310565162666e-02 8.1629601705118737e-02 1.4930365096126844e-01 -4.0823346651622815e-02 -7.7628389338779474e-03 -3.7162186205796137e-02 8.7890683269549921e-02 1.9833687676567036e-01 5.0361452614884020e-02 1.1918933834971371e-01 -9.1634300635208804e-02 -7.9622385160201564e-02 1.5167666586171991e-01 -6.6616090314104273e-02 5.4435036543139049e-03 -1.8200866637532481e-02 6.1910559996185853e-02 1.7628465515935088e-01 5.9672410827715454e-02 -1.5483174542601227e-01 -1.7522835766880104e-01 3.6336212685518801e-02 -3.4479215068172468e-02 9.5288730585726289e-02 1.0059745855485590e-01 1.3072654379077586e-01 -1.5050532182072607e-01 -6.1638169165711860e-03 -2.7992532528315146e-02 -1.9172328498847951e-01 -1.3135535625347783e-01 6.5982351949990387e-02 7.9778894050129195e-02 1.9063964665725316e-01 -8.0560245713636069e-02 -1.0972154150223572e-01 -1.4202531170421578e-01 2.5186859293014750e-02 5.3304173407926411e-02 1.8443136287522613e-01 -4.2479927235033205e-03 6.5486779929939926e-02 3.2145441426332556e-02 2.2031974079875033e-01 -9.2679691778543447e-02 -1.1908951697844657e-01 -6.0537051176747000e-02 -2.3121946053559675e-01 9.4193795635596711e-02 -1.6477507437064431e-01 6.3119571644175879e-02 -1.9547399291383169e-01 7.7416667191609709e-02 -6.6419662686539758e-03 -7.5180121027376590e-02 1.0574517823948923e-01 -1.6566744085730056e-01 -1.0793969672223266e-01 -3.0006208040261332e-02 1.8834919785383519e-01 -1.0180661555277110e-01 9.5420558329722665e-03 3.3881349621961453e-02 -1.7139874135141597e-01 1.8192695538102704e-01 -1.3595236491132973e-01 1.8401610795674228e-01 6.8659336955667505e-02 3.7731616590702482e-03 -6.0544092213757457e-02 5.4254412286815913e-02 4.2571811495044048e-02 5.2264310587417208e-03 7.3123075387879988e-02 1.1292634301395554e-01 1.5728358621439950e-01 -1.1429581385688545e-01 1.6026990559110284e-02 -2.1966606378696049e-01 -1.9035634921166519e-01 1.3503856212745971e-01 6.9902898839623473e-02 -1.5856582526081409e-01 -4.9604773782927656e-03 -1.6892244483645633e-01 -6.9580316727310368e-02 -5.9100826367677266e-02 -1.6456863596117713e-01 -8.7527289107306727e-02 -7.9159105114744513e-02 -7.1044008926712615e-02 -3.1770599467805974e-03 -1.1152897254886626e-01 -6.9479639857200209e-02 1.7411353224993378e-01 -1.8989619329793439e-01 -1.3741118003433128e-01 2.2631947851470486e-03 -1.1302983932005911e-01 1.3003632092381337e-01 1.9733596050356736e-01 -1.4758035546676793e-01 -7.9933038427427647e-02 -3.1160955632941949e-02 5.2806979155132230e-02 5.2886002018033371e-03 -1.9116689038208953e-01 -1.5278584773551965e-01 1.7050959361403248e-01 -1.0796278399395971e-01 -1.7405474131895426e-01 -7.9546991300642217e-02 8.9449791970799955e-02 -1.6046082684524918e-01 -1.7022045206098832e-01 1.9457174808008057e-01 1.5032027816945298e-01 8.7624097654315433e-02 1.6315372171954196e-01 -1.1124579423283990e-01 1.3911361673299605e-01 -7.7441540540813480e-02 -4.8541458414547552e-02 -4.2908159867298803e-02 2.8672256315677949e-02 -5.4260517962951837e-02 -7.2724730283750177e-02 1.2091716745874947e-01 6.8804446542630196e-02 1.9546508401088697e-01 -9.1332168362039307e-02 4.6430841532031002e-04 -1.1526830300845113e-01 1.2384045560954549e-01 -1.1807049989679096e-01 -1.3449164193692303e-01 2.0673366674285754e-01 8.8128448194536982e-02 2.9334260403195467e-02 1.5291705437860625e-01 -1.6007178516976081e-01 -5.2682459893250225e-02 1.0241548309478865e-01 -1.2237815481553541e-01 9.2940405509360960e-02 4.5938660851443928e-02 1.9759062316792139e-01 -5.2991830790645671e-02 8.0200239776341886e-02 -2.7754169993096680e-02 -4.5970163133679520e-02 -1.4446043941580206e-01 -9.5649649630243416e-02 6.5466913302203181e-02 -1.5415109800469101e-01 -1.4837397764666876e-01 -4.0950708759349204e-02 1.6006949114994912e-01 -3.3185404954238246e-02 1.4667339921840464e-01 1.2460328593747121e-01 -1.4962767553988873e-01 1.5702974560954847e-02 -3.1830663449794634e-02 9.0648086207310033e-02 9.9927880670361610e-02 1.4678791516951928e-01 -1.2775875254111543e-01 -8.6331321443304673e-02 -4.0963431112831872e-03 -1.2596674406886701e-01 -4.5200380112746602e-02 1.4630441009599300e-02 6.2340965012720025e-02 1.3929719399795326e-01 4.1958459526783565e-02 3.3244422984235245e-02 5.1453918471227933e-02 9.7802800920202992e-02 -4.2010046390874578e-03 8.2998780795150537e-02 -1.9351795468719893e-01 -1.4245513030297621e-01 -1.1210173270548561e-01 -1.2395470126548729e-01 -1.2312282712511562e-01 -1.2425731641745166e-01 -6.6067287598963437e-02 -2.4542000119636121e-03 -8.7764023957655424e-02 1.4731258995058688e-01 -5.9139084674792002e-02 -7.6492483553052618e-02 1.1793624426413962e-01 1.4826111068509235e-01 -4.9930689040585424e-02 3.7652215915389836e-02 8.0872774218844562e-02 -6.8557754394407477e-02 -9.1262923757064060e-02 1.2837269354340405e-01 -1.6360670299779370e-01 9.5698793864939791e-02 -1.3447006572824724e-01 -6.2003602602861883e-02 -6.9375217169052646e-03 2.0281251395774411e-01 -1.6219135278217442e-01 -1.2756829796459515e-01 -1.3525246160854490e-01 6.8167996703831002e-02 -1.4844817773739274e-01 7.3726273969531700e-02 3.7902989500171722e-02 -1.0575121032838529e-01 8.8718045413969590e-03 -6.7806546919855451e-02 -1.5268456110884510e-01 8.1871769270854988e-02 -1.3243722929434634e-01 -1.3365535629094907e-01 1.6979697866253023e-02 5.9740682367210939e-02 -5.6477386522927810e-02 -1.1359773266783288e-01 1.6245011769928222e-01 -4.0496669682199865e-02 5.8786630005377739e-02 1.5682731838336778e-01 8.2214323369305994e-02 8.5498168201500857e-02 -2.0005511276886065e-01 -9.9798552386634098e-02 1.6187735189893593e-01 4.3341740364843534e-02 2.9270060544125177e-03 -2.1629962523455021e-01 2.6496337916651352e-01 1.8306283731254014e-01 1.4962943465650519e-01 -2.0047923091785930e-01 -1.2495063371938477e-01 -2.6633901035353946e-01 2.3660881935700787e-01 2.4345012811386832e-01 -8.3121843035813062e-02 1.4593830310807693e-01 -5.7156187631003457e-04 -3.3829568625234796e-01 -1.8534049352422985e-01 -2.9093583562398101e-01 1.6639438799828158e-02 1.3920181238391732e-01 1.2454437586602982e-01 1.4990296061282110e-01 -4.8635199767591807e-02 -4.2032880028355771e-02 5.4028822393765352e-01 1.6060014713749488e-01 -2.0227843439053120e-01 2.7377446253625937e-01 8.1197106368885177e-02 6.5535455060933875e-02 -1.5013657693736579e-01 2.1656337734615305e-01 -2.1102958677709313e-01 2.3624753466943998e-01 -1.8011346036743472e-01 1.4431273680460888e-01 -2.4786348023949482e-03 -2.2112224317402540e-01 1.9578339609007421e-02 2.6357057001588580e-01 5.4186994009680335e-02 -5.9861656181933592e-02 5.2375356572001497e-01 -2.3060511378489904e-01 -2.0633528575117177e-01 -1.2461336770884504e-01 -1.6998560811462612e-01 1.8433134268727644e-01 7.2095125837380036e-02 4.2969335506635134e-02 -2.5756151675748162e-01 7.7704793079430234e-02 -1.9168185521503681e-01 3.3586715487959710e-03 -1.6144491149746482e-01 -1.9271729048607622e-01 8.1943956123530212e-02 7.0136144710112550e-02 1.6376607801478427e-01 1.1042385068853761e-01 2.1410174459786557e-02 -3.4566577301741709e-02 -1.5286465589363291e-01 -2.3116683284007192e-01 -1.6090204026212529e-02 6.6988763663115986e-02 1.2175200895211159e-01 -3.4143579901826461e-02 -8.6050877017854521e-02 6.3558784047715450e-02 8.2138875324702584e-02 -8.0058226401677091e-02 -1.2207595839861368e-01 2.9119027086685144e-02 1.1321854140035120e-01 -1.7140135957975869e-01 -8.6431453724151258e-02 1.9234062127121843e-01 -1.2092243225635459e-01 1.9414975459760128e-01 1.3416770536338302e-01 3.6183303274556967e-02 1.4267395477385575e-01 -1.3477361900723170e-01 -7.4458178943164949e-02 1.9767627881471861e-01 1.4984451355599565e-01 1.7153229968893088e-01 -2.5174028530903479e-02 8.1214962358993753e-02 -7.3002949490104940e-02 -1.4838372061403121e-01 -1.8881263399054690e-01 1.1757428330040895e-01 1.5426449096993480e-01 -1.4909347227808795e-01 2.0474660916814844e-01 1.6363489815155918e-01 1.6598642949324011e-01 -1.4485363980785981e-01 4.1838400996008711e-02 -1.0132333458598265e-01 1.0023090338784348e-01 7.0816298441408057e-03 5.8662425613524374e-02 2.6880265953796712e-02 -3.0259670451756675e-03 -1.4883282356318084e-01 2.1483667953430829e-01 2.1089328819260209e-03 -1.6678592788090252e-01 -1.4587858369818946e-01 -5.8079318741586176e-03 1.2729564573018931e-01 2.5601121110068705e-02 -1.4696862567829891e-01 -1.1950101251929815e-01 1.7384626312916343e-01 -2.9973439003564254e-02 -2.2664545664927610e-01 -7.5691453655839028e-02 -1.3585459018159896e-01 -1.0637993901493714e-01 1.8952250058721837e-01 -3.9191627046908921e-02 6.6877312032987218e-02 -5.0104886083452510e-02 -3.7069279948556633e-02 -1.8783682800996496e-01 -9.1025782138154321e-02 1.8918365662910483e-01 -8.1553035473047431e-02 1.9592737799984168e-02 -1.8266743950661629e-01 -1.1799754449044958e-01 -1.7223297173270566e-01 -5.3801188583512745e-02 2.9936952389259985e-02 8.7232379726337059e-02 -2.1622922452453083e-01 -6.0484707486575397e-02 -2.1760093747859904e-01 -2.3635297917506845e-01 8.7744503908658067e-02 -9.1706085037024723e-02 -3.1217297334889017e-02 -1.8049672826642446e-01 6.3509575974686414e-02 2.8347422382308862e-02 -1.1410618245251565e-01 1.7626645477507424e-01 -4.9327483270653078e-03 -1.5253235971958773e-01 -7.5810071002194584e-02 1.3538419994219530e-01 -9.2601023683055714e-02 -1.7870697851623854e-01 -4.2041598223852207e-02 2.5182709422803477e-02 7.5858206948927490e-02 -1.4247356159455832e-01 -7.2600181061867511e-02 1.2709725094883378e-01 -7.6200890267104325e-03 -6.3051271803434755e-02 -4.1030724404987409e-02 1.7896616199087212e-01 -3.0725877763458021e-02 -3.0862631727522666e-03 -1.7507260559331186e-01 -9.1840176946277566e-02 -2.2053214267554011e-01 1.3550132082587682e-01 -1.5679802005694662e-01 -5.0694612331264252e-02 1.4927298270539072e-01 -4.1770798681444704e-02 -6.5218284647650213e-02 1.7547227311595238e-02 1.7133218729638619e-01 -1.7519702745159085e-01 8.3790972815667067e-02 -1.4048244871592555e-01 1.2866031618452481e-01 -8.9053552802015046e-02 -7.5891852686271910e-02 -7.8445847063810734e-02 -3.4024374478481036e-02 -1.8790451389093557e-01 -1.6098168783689673e-01 4.5935015831757846e-02 -9.2492704824668995e-02 -6.1270177453913083e-02 5.4615427484877049e-02 1.6376462351170598e-01 1.5190664866621492e-01 9.3248576262675381e-02 -1.2566391807210844e-01 -8.5011064424738006e-02 7.0549873207028699e-02 -1.3819885702494955e-01 -1.4839637852354162e-01 1.6959435810895659e-01 -9.0140536693588055e-03 -1.4021732133593459e-01 -2.4733210382807561e-01 1.2698407878520551e-01 2.2707263244272340e-02 1.1405950888308888e-01 7.9173383166341954e-02 7.4765362078474576e-02 -4.8908145562293892e-02 1.6137392203082351e-01 1.2409238321422919e-01 1.8203115014085836e-01 -1.7453692633088502e-01 -7.9701042354677371e-02 9.5043568071750878e-02 -1.4299439594306126e-01 1.7649565373712919e-01 -1.0879455646646767e-01 -4.5853659021247939e-02 -7.7239449029835219e-02 -1.9105975694231647e-01 -1.6193948165273328e-01 1.3187981264776982e-01 -1.3480984538830296e-01 1.5911426370488299e-01 -1.2893556759858504e-01 -1.2899467152459629e-01 2.0798222663833191e-01 -4.0574897538417538e-02 -4.0369184659872590e-02 -1.1244345073003444e-01 1.5552834929601048e-01 5.6335270122373909e-02 4.5440148858417038e-02 -4.3220862077129420e-02 1.2217921422960519e-01 1.8987214279346770e-01 3.4840409342137980e-02 7.9432174139046352e-03 -2.3135799620872308e-01 -1.1564313375872497e-01 1.7124934145858119e-03 2.8766260692495588e-01 4.0278741424881706e-02 6.6173354413549532e-02 -1.0355029297958179e-01 9.1508376878511669e-02 1.1947718208761193e-01 -1.3327719193421006e-01 -3.7396888182313001e-02 -1.1102782978276160e-01 -2.5674011541551522e-02 -3.6755742906677630e-02 -6.6815365262222690e-02 -1.6463652296128992e-01 -9.4787025646355522e-02 1.0278135977705483e-01 5.2312204183413945e-02 1.4144985148949110e-01 1.5479243358261247e-01 -6.5621587505269877e-02 -1.1896833898342049e-01 -1.1253537304664191e-02 -7.2047930316718106e-02 -2.1612176908451385e-03 1.3400665005268775e-01 5.0326265547950791e-02 2.3301986736596225e-01 1.8549400872682451e-01 4.9177096873705790e-03 -7.3733079946578184e-02 1.1716264546200383e-01 6.4698909274714222e-02 -2.0216599726004411e-01 1.2425818006474429e-02 -5.5376922698672983e-02 4.6609913606659920e-02 6.4772751858300564e-03 -1.3986787436434995e-02 -1.0770394952677728e-01 8.1556368939376650e-02 6.4882514778957651e-02 8.6803477653899078e-02 -1.2503759345702861e-01 -1.7969459490864431e-01 -8.6901402302055966e-02 1.7347481448044520e-02 8.1215524756794569e-02 1.7662653983214505e-01 6.1932106473465268e-02 -1.0068056523495421e-01 9.4739978357270688e-02 8.7070576544364869e-02 1.4297909602245010e-01 1.1040055681154144e-01 3.5811556145103257e-02 -8.7689601395572164e-02 1.3742779888132056e-01 3.4110652206786551e-02 1.0991549260964049e-01 1.9383363130843065e-01 8.7870697526671843e-02 -8.0322412060663664e-02 1.1101577209203997e-01 -5.5808417555552069e-02 1.4295110032896852e-02 8.1465394067246899e-02 -9.5330905262958586e-03 1.1403097500531938e-01 1.6660753585081403e-01 1.8076928199428405e-01 1.4546973227423132e-01 4.9762530416153437e-02 -9.3724865254488615e-02 1.8233786770163557e-01 -2.9263918530859006e-02 -2.1086532086838616e-01 5.7769132048431593e-02 5.1940232796874299e-02 6.3771533690341470e-02 -1.0893709060618463e-01 -4.3070330659859518e-02 -1.3791080481471393e-01 -1.6878656609525206e-01 9.3646716270942620e-02 -1.1998282262223122e-02 -1.9542398751543660e-01 3.6235629809815262e-02 3.5086072805784629e-02 1.7832829309899767e-01 -9.4658695813266761e-02 -1.3322215061463669e-01 -1.4634615920443253e-01 4.5981176688803228e-02 1.7105762053257703e-01 -1.8928613812744038e-01 -7.3477180932869271e-02 1.6995592389790568e-02 -1.4475271025111225e-01 7.2027614207038335e-02 1.7472808771984386e-03 -1.8979032925310699e-01 1.4133451460987115e-01 1.3559980095840971e-01 -6.1366255903291160e-03 -4.2311137956646608e-02 7.6360534656266729e-02 7.1079657535907045e-02 6.8308841211200566e-02 5.2148150456302216e-02 -5.3709849687332951e-02 3.2902119031193833e-02 -5.9622081914471083e-02 4.8749027556819445e-02 1.5612029709854813e-01 2.2272781177484768e-01 4.8283563818947800e-02 -1.0061927281504372e-01 1.5451970742591442e-01 1.7640876025804103e-01 -3.7247979059284182e-02 -1.4518162320846881e-01 -1.0710897091779341e-01 1.0947443407831731e-01 -2.0928776361075854e-01 -5.9844275484817931e-02 -1.6284079840211463e-02 1.5147597739446905e-01 -9.5265513996513104e-02 -6.4799600530790022e-02 7.8149683078445192e-02 4.0301948684791686e-02 7.3289868192275884e-02 2.1570169458112212e-01 1.9031266858108761e-01 -1.5345339343689302e-01 5.2228620772727177e-02 -1.1594103406325422e-01 3.1665779110280338e-02 1.1879677442852749e-01 -1.3405364389062924e-01 -1.9391019927507086e-01 -8.8934704684604862e-02 -6.2458573088093904e-02 1.7804953114251558e-02 -1.4594591223329555e-02 1.5649198208180032e-01 -2.7984662054162763e-03 6.5998580481104283e-02 -8.8245406486127345e-02 3.4573756868961192e-02 -8.0435813640297421e-02 -1.2587002005750064e-01 -1.5141622237016494e-01 -1.4725642351942075e-01 -7.5547935098108698e-02 -1.4965413489488735e-01 -1.9238432359638785e-01 1.9626940200680434e-01 8.6315788691993748e-04 1.7485499858467557e-01 -1.0647953324166681e-01 2.0943241825124276e-01 -1.2948633689568884e-01 -7.9122107307210560e-02 -2.8469440119369344e-01 -6.5443389250340891e-02 -6.5209540858601464e-02 2.8609869558950549e-02 1.8658276132463011e-01 9.9554024582477446e-02 -2.5546944941746297e-01 -1.6212818135451720e-01 -2.6849557296218171e-02 -1.1938826125835884e-01 -1.2580129905035173e-01 1.8536595907800199e-02 -9.7560940213426289e-02 -3.3556878730092804e-02 1.3376163966833002e-01 -4.8003443368239737e-02 1.4434967585563963e-01 -1.9221182049203842e-01 1.4977032649044911e-01 -1.4927366394343816e-01 7.2029479089338974e-02 6.1968231780592090e-02 -9.1082722164223501e-02 6.9880624393931279e-02 1.1363223627427281e-01 -6.7495278486046098e-02 1.7821549038509432e-01 9.6722573193100934e-04 1.4300866452844210e-01 3.3875438004879993e-02 1.1641002287497694e-01 1.1763705886584834e-01 -1.4497534782399710e-01 -1.4027551606304145e-01 5.8560962762522525e-02 -1.0272753641805335e-01 8.9662638608548131e-02 -1.5758321604044950e-01 -1.5907418768010173e-01 1.2741589774711201e-01 -1.1529698705614660e-01 -1.0089425870023642e-01 2.0560603733556829e-01 9.5378479915445513e-02 -1.4484268380422216e-01 -4.0963825109985218e-02 -1.3737224263442976e-01 7.2707438477643618e-02 -2.5837957605639290e-03 1.9701647471985073e-01 -1.7387382635086029e-01 -8.9800118957480038e-02 -3.7740456613164629e-02 4.4116727641959098e-02 -4.7252130437737065e-02 -1.6804543412399789e-01 1.4505771997076133e-01 -4.0123751232703279e-02 -8.0930028994036549e-02 1.4556551555494612e-01 6.3017408975338404e-02 1.8369806946096970e-01 1.2270699631787495e-01 -7.0859878458792103e-02 -9.2134792015593339e-02 -8.9321023044541134e-02 5.5209286788630442e-02 1.7417469160265336e-01 5.2848038661909638e-02 1.3387854346620839e-01 -4.5475567094716084e-02 -3.4633442753723383e-02 7.9770673399880060e-02 1.4316874932400181e-01 3.2054279157973285e-02 -1.2614065631110524e-01 2.5364127370948786e-02 -1.7788212396427569e-01 -6.8868294723099868e-03 2.0080566212222747e-01 1.6326809123338026e-01 -5.7491151802505904e-03 6.0852530400592568e-02 -3.5752755225766375e-02 5.6445276204002866e-02 -1.0408348077422885e-01 3.0899725008194937e-02 7.2553054457825367e-02 -2.6398111597336519e-02 5.7034989180728746e-02 -9.9271893281016599e-02 5.8972010291708434e-02 4.2758750981451106e-02 -8.4703159224949240e-02 1.0663457831176670e-02 2.5381914094675568e-02 6.7047499019008222e-02 -1.2655182236947815e-01 -1.1907087198420838e-01 1.9962973222958313e-02 -7.3363266672929611e-03 -8.9170328943431548e-02 1.8117206405771574e-01 6.0166281673745818e-02 -1.6191270622311732e-01 -5.5082279167819957e-02 -1.8906828277410079e-01 9.0560892119754599e-02 -2.5213680911439058e-02 2.7619353279225871e-02 5.0867820741061831e-02 1.2307165819676862e-01 8.9651689478432217e-02 1.8184296495340216e-01 1.0027128818709453e-01 1.2400929945603056e-01 -6.0513833958003903e-03 1.5070226190113339e-01 -1.7098121564512558e-01 8.9870749183641241e-02 1.3572617262725784e-01 1.0837556184847445e-01 7.8178965598095840e-02 -1.2107999217805858e-01 5.8638289895823939e-02 -2.0773411657963020e-01 1.9152405319682084e-01 7.6581722773070723e-02 1.5818778737103750e-01 1.5662199042997355e-01 6.4771740489782709e-02 3.6894430524086017e-02 -1.6869924653708956e-02 4.5926950980662080e-02 1.0661669347565128e-01 1.8428838912390566e-01 1.1630060910091602e-01 -2.1042351118075375e-01 -5.7739135964739140e-02 1.2136265974429208e-02 -6.0169894882540521e-02 2.1156949773929379e-01 -1.6438033250726283e-01 1.6206342670839712e-02 5.3293864883939253e-03 3.6515459433442907e-02 1.4646097274153255e-01 -1.0682321778921247e-01 -2.6412444442070762e-02 -1.2915311215658495e-01 -7.6558982296777961e-02 1.1175173076769036e-01 -1.6412594422469479e-01 -3.4774950791975491e-02 -8.7644003073441182e-02 8.2163590941117717e-03 1.7915478779106767e-01 -1.4782825422733868e-02 3.1367074059569892e-03 -8.0475192045836558e-02 1.3035303836083230e-02 -1.8231442507568188e-01 -1.6048255738808420e-01 -1.7347083291817311e-01 1.5850242346386431e-01 -1.2855568192357289e-01 -2.1394509428049172e-01 8.5615475718426842e-02 -1.2423658404839437e-01 6.1095462544650168e-02 7.0282873167715074e-02 -2.6018886892041650e-02 -1.0670192217399099e-01 7.8626518239189591e-03 -3.2407788335845435e-02 1.6360652033377127e-02 -1.6689052533326987e-01 1.7480080880760079e-01 1.3726040308169254e-01 1.5865551880779868e-01 -2.0570861263961041e-01 8.3156079035743499e-02 -9.2464023268656950e-02 -1.7122504398145072e-01 -8.1075394487598193e-02 3.9317713294668065e-02 -1.9626771861297090e-01 -5.3803997485817226e-02 2.2506537861355938e-02 -1.8621745737889395e-01 4.5547167211282668e-03 1.1178233905492878e-01 8.8330629078433642e-02 -1.0874640375639896e-01 5.8529356049223796e-02 8.6397399515139556e-02 -7.0745300244507509e-02 -6.5414429071089492e-02 -1.4199371349315545e-01 2.0406350748606573e-02 1.0841623753998812e-01 -1.2650697410952087e-02 -1.6496053833317863e-02 9.8237000538349148e-02 1.5191709535618188e-02 1.6595530833128949e-01 1.2937425491577070e-01 3.3679029167161485e-02 -4.7616652010865908e-02 -1.8806572522570728e-01 -1.8463585287512095e-02 -1.2470116671172224e-01 -8.4729602518140695e-03 -1.1120354802959556e-01 1.9530538501329958e-01 -3.8397610240597714e-02 -8.2451953208159456e-02 1.0254988853810354e-02 -1.7043761675511102e-01 1.7438523836903579e-02 -5.9169640020450255e-02 -1.4869869030470542e-01 -3.5469863877835893e-03 -1.1722907990186691e-01 9.0524739582426531e-02 -1.6341540521476680e-01 -9.0281256433611040e-02 -3.0069348088704588e-02 -1.9073976750612850e-01 1.1511204790243214e-01 -1.3305768414507915e-01 -1.8707528909852342e-01 -8.4107242298989693e-03 -2.7779185149660587e-02 -1.9541719573717145e-01 1.5790679726929555e-01 3.8116015664846702e-02 1.4073687416315966e-01 1.9271681335765034e-01 4.4658972874713349e-02 2.9800970983177223e-02 -9.4793298060507764e-02 -1.4117759177452144e-01 1.3086262973317614e-01 6.6143487191962858e-03 -4.5107662579484176e-02 6.8804938949394226e-02 -5.3329210860802639e-02 2.1112235909949809e-01 -1.6222881358604413e-01 -1.6369089411307927e-01 -1.0530213466093978e-01 1.6036462756583669e-02 -1.1298525199631451e-01 1.7821720190160995e-01 1.0406596095435869e-01 1.3380030417554870e-01 -1.4745575486401383e-01 1.4915427073879492e-01 2.8242166486370183e-02 1.5736180443605430e-01 1.6380002828104800e-01 -5.0306158362055639e-02 -7.0276239271644322e-02 1.1696537035504834e-01 2.6950219330415134e-02 9.0438071136642179e-02 -1.5919032992791646e-01 -1.4056681149475170e-01 2.3341851172835930e-02 1.3124581589750384e-01 1.6760928264404285e-01 8.3981953153792754e-02 -3.3333417510522705e-02 6.8843131408610883e-02 -7.9160084604246506e-02 -1.0913096860523980e-01 1.5562216903043752e-01 -1.2822436104786694e-01 1.5632899273092610e-01 4.5958959348478171e-02 -9.3915441678971992e-02 -1.6236577667331081e-01 -1.4381143402457272e-01 1.5392451041829014e-01 -3.8071219989548612e-03 1.0644253769029527e-01 -9.0302239576557392e-02 9.2262081491908746e-02 1.7265162364460801e-01 1.0172570124521681e-01 1.7620438845495248e-01 -1.3333047587420746e-01 -4.4213285050950950e-02 6.3496345971882279e-02 -7.3162331104231496e-02 1.0809875033386232e-01 -1.6783760787610064e-01 -6.7454339517594344e-02 -1.1139074582914225e-01 4.7555919477245863e-02 -9.8445240637444253e-02 8.1333687245362302e-02 -1.8556417452065618e-01 1.4720756203996735e-01 6.5483227648196432e-02 2.1239929273180244e-01 4.1375511377291906e-03 2.2306989525463797e-02 -1.8351672830309104e-01 -1.0387617582075710e-01 6.3532484908036355e-02 -1.2598447504830093e-01 2.0693310854840771e-01 1.0455565203975314e-01 6.8864391363473068e-02 -1.4052894290744497e-01 -2.0565137486115045e-02 -1.0264882076289431e-02 -1.3890652284912330e-01 -2.4996613114584867e-02 1.9086508696452351e-01 6.4911818114565853e-02 -5.7371122350348989e-02 4.1115541079356777e-02 -7.9531307643033441e-02 -2.4997304118313129e-03 -1.5564865386631832e-01 1.4059109106193132e-01 -4.0194838875719265e-02 3.9148975026916687e-02 -1.4454464612056059e-01 -9.2724913174218798e-02 2.1219914336256043e-02 1.2515870103848348e-01 -1.6739650624003904e-01 -1.5153865555173757e-01 1.6828825350247606e-01 4.2635651255052663e-02 9.0419724710613505e-02 8.5578509945957004e-02 8.4282979112907525e-02 1.4453983644925969e-01 3.3031705011951906e-02 3.8444613148741195e-02 -1.7510552948113389e-01 -1.1394645796305919e-01 -1.4581368223749977e-01 -7.0066396051955332e-02 -8.8400050036830866e-03 -9.9645041063549142e-02 3.1772516456890991e-02 -1.0391964949422598e-01 -2.7613475686183182e-02 1.4472829634251361e-01 -1.6025716955727520e-01 -1.7726635436844020e-02 3.8283252248889704e-02 -4.1476699628518479e-02 -2.8867541158472461e-02 5.8158289507324303e-02 -9.2786470194069437e-02 -1.6671924586241449e-01 -1.7820826044922713e-01 1.4831258771806301e-02 7.8675062937710982e-02 -2.1859970696611572e-01 2.2748036789945379e-02 5.6820114456364590e-02 1.1957282741859740e-01 -2.8269032679087967e-03 1.9447506133720127e-01 -4.7968743764329184e-02 -1.7332325664078791e-02 1.2873148516926733e-01 2.5926080559368431e-02 -1.4904110402316709e-01 4.6168190919909667e-02 1.2499424877013887e-02 1.0551624212271597e-01 -4.3760854943740719e-02 -1.2862568719839518e-01 -1.9152772561374901e-01 -3.1663018236200130e-02 -2.0229312316449669e-01 9.0577725438926157e-02 1.4450673896099533e-01 -2.6452212949511461e-04 -6.3701709550088692e-02 1.0915170261413830e-01 7.3454749496804250e-02 -8.4550100646155327e-02 -1.1697483863458263e-02 -4.6803709521780527e-02 1.4665843304045989e-02 1.4545584481082877e-01 -7.4420898684835896e-02 -3.0874599737354354e-02 -9.2680904915062173e-02 -2.1984482027246441e-01 -1.9291076139115554e-01 -7.8583906273052020e-02 2.4451135441352759e-01 1.7017438965820166e-02 1.7196077905719934e-01 5.5426235309841337e-02 -2.0039943650751374e-01 -2.0852760591429259e-01 -2.0919097062546604e-01 -1.2142406359611489e-01 -1.4802101707824752e-01 8.0181246984994181e-02 2.0037533374526856e-01 3.6662083683107038e-04 1.5345469378074811e-01 1.8445644035068287e-01 5.2847233136480619e-02 -1.7569595411320754e-01 8.2100008756375003e-03 1.0887021647087862e-01 2.2294046918363811e-01 8.7236595777607211e-03 1.3278753288934012e-01 1.3640138329180501e-01 5.5642651353664911e-02 2.0829028536373398e-01 -1.9892901110581401e-01 1.0853146810459918e-01 1.2843691560536175e-01 -1.2817320309741628e-01 9.4365408285518732e-03 -4.4192318421821947e-02 6.1776887037815691e-02 8.5759777250357244e-02 1.1791096235664229e-01 1.4829666835519775e-02 2.4915385811580240e-01 -1.7530738848650509e-01 -2.0282732304030171e-03 2.2586536250537126e-01 -9.9334006291480037e-02 -3.0692818920382926e-02 -2.0928637298776458e-02 -8.5036643512109794e-02 1.1151642862969019e-02 -8.2277080083978327e-02 -1.5707880820972106e-01 1.0089733928900403e-01 4.4995895385057327e-02 -1.1151061830702397e-01 1.0627793437689412e-01 6.9675346455644660e-02 -1.4476148643217715e-01 -1.1912655554159943e-01 -1.5292620169359922e-01 -1.1941785097472631e-01 2.1429929065816339e-02 -6.4228176438255222e-02 -1.7153788769000852e-01 3.6941716158958839e-02 6.9880042771300249e-02 -1.3510808783882700e-01 6.0919008420104240e-02 1.1907625998495841e-01 -1.7931446930624831e-01 1.8121528420134498e-02 -1.5046874692268394e-01 -1.9327683935615830e-01 -6.8586341713183022e-02 2.0937899588368739e-01 1.4835946086859428e-01 1.7171349586110379e-01 -8.9220205580952727e-02 1.0730820800451839e-01 -1.1361960245157490e-01 7.1486967785518885e-02 -1.4848140693142220e-01 -1.1648706167930570e-01 -6.4039638182236527e-02 1.0873898266755830e-03 1.5367186697618604e-01 -9.3825008222799527e-03 -9.1986394495744223e-02 1.6035343278240555e-01 2.9002285061742728e-02 9.7350231038253535e-02 -2.9443444667056791e-02 1.5148581030190339e-02 1.0383000432505042e-01 3.0515405894222171e-02 -7.8581502244200241e-02 -1.3105305048265523e-01 3.2816735359266012e-02 -1.3136589788574080e-01 -1.5643419549489718e-01 8.1995414704082781e-02 1.2420914838401918e-01 2.7120170903031249e-01 -1.9443009548248572e-01 5.0856172026075779e-02 1.5122167949368637e-01 -1.9179311196603755e-02 -9.5126435383358326e-02 1.4384388197878761e-01 -1.1780776781891622e-01 -8.7352540351820235e-03 -2.2235130977774145e-01 -2.0384544133532606e-02 -1.3213260652469805e-01 -2.5919750027684988e-02 1.2944552829604073e-02 1.4573599034585263e-01 1.4988200430053958e-01 4.5789765407349838e-02 -1.0849188431165273e-01 -5.1471454150815721e-02 1.1662334513033230e-01 1.2671496126147147e-01 8.4853998176591464e-02 -2.0114054037983764e-01 1.0595977227004265e-01 -1.1466033463146819e-01 4.2584812134738588e-02 1.0847068870209925e-01 -3.9564463086369371e-02 1.3918616959757182e-01 -2.7206025272340735e-02 9.0811016271529793e-02 -1.6374094141314344e-02 -1.2894004630152171e-02 1.6532836084919825e-01 4.9990754445473184e-02 -4.3863545862187367e-02 -5.2981606550310936e-02 -2.1808772392612353e-02 -2.5631783517667543e-02 5.3698168918047406e-03 2.1559402199639151e-02 1.3419863041562999e-01 1.2590589524701690e-01 -1.7789728873520566e-01 -1.3555878041289801e-01 -2.1296014285141929e-01 -1.0876637265950562e-01 1.4093797738184284e-02 1.8958629366052107e-01 -9.0069621293148744e-02 2.7220179915651344e-01 -1.8582980129034449e-01 -1.2643576038717380e-01 5.3516356804915358e-02 1.0598402844737734e-01 1.6321998096989612e-01 1.7740816815507471e-01 5.8596477481632415e-02 -9.6639422685568577e-02 -1.5253161743511459e-01 -1.0338289541469495e-01 1.8413692204980372e-02 6.1475391690216791e-02 -1.4515430395342446e-01 -4.7661810662012860e-02 -9.3815885238858601e-02 9.8278785689486114e-02 1.7620773766060735e-01 -2.9974463800177622e-02 7.9132407381580245e-03 -1.8573445087636697e-01 -2.0928136042128706e-01 -2.1837850693596797e-01 -1.5405476826516695e-01 1.0446414268532302e-01 -1.2231830278670004e-01 4.4389079957133280e-02 -5.1190587079266161e-04 1.7262369483349133e-01 9.5941455814843035e-02 -5.1128042620244372e-03 -9.3799291418272077e-02 -2.1329211997858999e-01 9.8421951960967591e-02 1.7084995112981197e-01 -5.9023646442095727e-02 -7.2469014390970740e-02 1.9420628296873310e-01 -7.8864551508283837e-02 -5.2708992038250940e-02 -3.9314236742734113e-02 -1.0416554123583563e-01 -7.1429900354626055e-02 1.2071241965542079e-01 -2.5127375839819766e-02 1.8711845052140769e-01 7.0092325584039272e-02 -1.7024732916836297e-01 6.6964472941994178e-03 1.0428154046085214e-01 -9.1858879532276200e-02 -1.2513683245447809e-02 1.1664523752837865e-02 -7.7779861698634323e-02 -1.5148497023141891e-01 -7.6220984812565062e-02 -1.9237886641475169e-01 1.3499794251586084e-01 -5.7987361854592058e-02 1.7041647357514053e-01 -2.0580577675034134e-01 1.3621468864290567e-01 2.3349314469692167e-02 1.3641020114308391e-01 -1.3480962485574177e-01 -1.9553035729903223e-01 1.2231472930143879e-02 6.4803807262572455e-02 -3.8364979570486152e-02 1.8038239743083698e-01 1.3271128039700100e-01 1.6180331728026764e-01 1.8896435266911410e-01 -1.0793525083078412e-01 1.1001341504178809e-01 1.3400144951519377e-01 4.5472667299819976e-02 3.7179671449270223e-02 -2.5492951100536114e-02 -1.6233592134468972e-01 1.3430067047602562e-01 1.3466030438430057e-01 -6.9711640980272993e-02 -1.3031347601929816e-01 -9.1338085001972741e-02 1.9056775597738487e-01 8.4127357125925811e-02 -1.5076235310325892e-01 -8.9777029437685757e-02 9.1499218853561909e-02 1.8835470751323347e-02 3.3642599975478735e-02 1.3938268088789021e-01 -9.0549519038035084e-02 5.6513318156994376e-02 1.8179147862461331e-01 -9.3594213887515473e-02 -1.5424759319804912e-01 -8.2759269214422906e-02 -2.1763082878320669e-02 -1.0012125467678140e-01 -1.0039814168108281e-01 -5.3760697179984305e-03 1.2299834501581457e-01 -1.4123221333449315e-01 -1.4098570557847184e-01 8.5281292022070285e-02 4.8844763593992452e-02 -9.0232809620499122e-04 -1.3761573299326965e-02 3.3251887144878790e-02 1.5767774164162610e-01 8.8332864273534262e-02 7.3205968827335793e-02 5.7485862584566692e-02 -9.6024436004642763e-02 1.6728611753454345e-01 9.0026310156990398e-03 -1.2724642124261612e-01 5.6040329243683351e-02 -7.9747707347028310e-02 -3.2992462943745852e-02 1.1452363770562803e-01 2.0310151125171946e-01 1.2788239240404056e-01 -7.6171562192941841e-02 1.0620060972029744e-02 -2.6655159325393508e-02 -3.0266540411126433e-02 -1.9202265938369806e-01 -1.3479218079952632e-01 -7.2414396004131271e-02 -1.6997005355898747e-03 -8.3755073817709580e-02 4.3646431648957359e-02 1.9212630671662356e-02 1.6724122976075251e-01 -4.7747812905357602e-02 4.5269684654968452e-03 1.0928504340934982e-01 2.2865818417231801e-02 -1.4341008549829394e-02 1.3421959294870839e-01 -1.7184075916518263e-01 -1.7875719324856892e-01 9.1198213479324650e-02 -1.6204034383493052e-01 4.0794829439639017e-02 1.4896341798209209e-01 1.8179245829763496e-01 3.7889398190145189e-02 5.1764668002143244e-02 -7.2046369301200661e-02 -1.0746525423504999e-01 1.3522479960760789e-01 -1.2970903238419149e-01 2.1833601819975670e-01 1.5704505310267111e-02 3.5693007324386995e-02 -6.6391800368396592e-02 1.0320749387296362e-01 -1.2270036131960928e-01 1.4303031377718248e-01 4.2650161633035366e-02 -6.1966434683685456e-02 -1.5268481161555471e-03 7.3424709966589549e-02 -1.1081538814684964e-01 1.7287681233134691e-01 4.7290538716817380e-04 1.3091434888071324e-01 1.4125254993112568e-01 1.2400626221980411e-01 1.3496615527267619e-01 -7.5651908243003028e-03 1.5405002413139102e-01 -3.7333591644578237e-02 3.2619001225115220e-02 -1.1038858594554381e-01 -3.9303037925500148e-02 -1.5306522653143770e-01 2.1301596492229025e-01 -1.9253936756727166e-01 1.1852790199328032e-01 -1.2393228965804864e-01 1.5785007152006850e-01 1.3869895538690813e-01 1.2489449440972719e-01 -1.9334707719193867e-01 2.4465151446807661e-02 1.0264784703692668e-01 -1.0722758716954763e-01 -6.7986113033003420e-02 3.9154884255154343e-02 -1.2031601469134305e-01 -2.2159145598027052e-01 5.5312527036936399e-02 3.5129845859763559e-02 2.7247748118414915e-02 -1.0893274074786514e-01 -1.7118532248202672e-01 -2.0343406325105817e-01 -1.3558461137679828e-02 -7.4085659549647395e-02 -1.7992713894313098e-01 -2.0458178130317767e-01 1.4965433273790574e-02 -6.0607214162685351e-02 1.0280150041151523e-01 1.2660640111001914e-01 2.0237878683837210e-01 1.4670177200831716e-01 1.5785657655449820e-01 -1.5364297574099151e-01 1.4742729722072395e-01 8.5675036563578499e-02 -1.1820276381410343e-01 2.4773922229620221e-01 -2.5692045761059497e-03 -2.6146788003271687e-01 -1.3213588631870138e-01 8.2612522298464539e-02 9.1997134542984554e-02 -6.0529391559229109e-02 -7.2076033738598888e-02 -4.3038692511691859e-02 -6.1512631657206801e-02 2.0056995601763564e-01 -6.0165328521195723e-02 -4.7871509169790410e-02 1.6796245183727218e-01 1.3851997734638710e-01 6.1430802396251882e-03 -1.4891529226469122e-01 1.0180489722612940e-01 3.2435146182914938e-02 1.9946803539267563e-01 9.0347648054677501e-02 -3.3246231040621882e-02 1.0392435485118237e-01 2.1607169545929555e-01 1.5165879362906437e-01 -2.4010036702828707e-02 1.8900572035168739e-01 9.4127501634094307e-02 1.8264696609628700e-01 7.1282647069356969e-02 8.9239067471774833e-02 -1.8460497405374525e-02 1.2375002867990216e-01 1.9065083745439210e-02 -1.5602180207435809e-01 1.5649018792342598e-01 1.0747373900932503e-01 -9.0460612280568606e-02 5.5685297262525850e-02 -1.7231608858230185e-01 2.0280034109005023e-02 2.1014885597021374e-02 6.1422243289836448e-02 1.9945738235671590e-01 1.5119364892462511e-01 -5.0558026254424168e-02 -6.3673606247726736e-02 1.5670879199548460e-01 -1.1129009166507210e-02 8.0695192620594769e-02 2.1173726200975670e-01 -1.1243342415531839e-01 6.9803862532530750e-02 -1.1351788889977285e-01 1.1640059522151835e-01 1.8663399738291533e-01 2.5475474429337342e-03 1.7813863974289565e-01 1.6259267908771238e-01 -1.5393540276965842e-02 -8.2467078695820553e-02 -2.8714216095388047e-03 1.0061410465987539e-01 9.0491994531752135e-02 -1.4452348803842036e-01 -1.3859328651743602e-01 7.3850706747866354e-02 -6.4990864338800663e-02 7.2913437590385105e-03 -1.5835943604687766e-01 -2.9356079258982315e-02 1.9295709774682540e-01 -1.2334190388141633e-01 -1.1593665962791617e-02 2.4215563580164384e-02 -1.7068387144027367e-01 -1.2655334615531116e-01 5.0944590715789858e-03 1.7156917129747021e-01 -1.0234871063505269e-01 9.2543667631581256e-02 -9.6463826235280825e-02 7.8398372441995878e-02 1.1349651220580544e-01 1.1627039499205943e-01 2.1679605462803658e-02 2.3660663204067848e-02 -3.5013957597916201e-02 1.4391124377986272e-01 2.8200041051823871e-01 -7.8254132015281502e-02 1.1088967656187185e-01 -1.0523684232735606e-01 -5.7714398138600936e-03 -8.1557059756706393e-02 2.3184418990338018e-01 -2.6371143588498232e-04 2.0355820934082128e-01 3.4939459405456519e-01 2.0994072036585879e-01 3.1171171809390785e-01 1.1491034116292120e-01 -4.1058111498854416e-01 9.3992142624463645e-03 -2.8387027308950158e-01 1.4807074185918712e-01 -3.2281625701062516e-01 -1.0244349687687920e-01 1.2632144290520056e-02 9.8766772802517146e-03 -9.3706278326912848e-02 -1.4019096371350051e-01 -1.8507267166876517e-02 -9.4621451151554334e-02 6.0943410597987600e-02 -1.5005506668079696e-01 -5.4861855387920197e-02 1.5035720730954799e-01 -8.7373730537702570e-03 -9.8696949065385203e-02 -8.1592371028657362e-01 3.8496413905879268e-01 -9.9196087116225948e-02 -2.3712387300749088e-01 -1.3039597453596016e-01 -1.4473577929752354e-01 -3.6502213535646748e-02 8.2629805999817063e-02 2.2804353601965738e-01 3.5275732749689009e-02 3.1465176630283076e-01 2.7825426481520299e-01 3.2310898249039077e-01 3.2515869716354034e-01 -3.8296112050054015e-01 -1.6198506874529928e-01 1.0408462067286210e-01 3.2550550536772443e-01 2.7089739064679891e-01 5.3062046956707121e-01 -3.0788171961883933e-02 4.6566345364080580e-02 -2.9254647678812484e-01 -3.1443124974047013e-02 3.7768712072151413e-02 6.4944290170527094e-02 -9.8666783532306332e-02 4.7713240304085325e-01 1.2939155314706624e-01 7.6809622367779051e-01 8.4234813758937127e-02 4.5529892611570019e-02 1.6030035682198782e-01 -2.1890073708972052e-01 -1.7751164017010476e-01 -1.7652750341360943e-01 -2.4675965509721864e-01 2.8123851876822453e-01 -1.2156407039207358e-01 1.6609792456632282e+00 1.0658320010396416e-01 1.0225001214450841e-01 3.4179964666408513e-01 1.5629262670164518e-01 5.6908913368603806e-02 -7.4936303641513269e-02 -1.6835040123236233e-01 2.9028374064794336e-02 1.8615174321377687e-01 1.5322965238103767e-01 -1.2101073183840814e-01 4.0954939423205522e-01 3.9034088439080246e-02 -4.9509065047167689e-01 -2.6145446802604955e-01 1.2358428737999071e-01 -2.1219903363316903e-01 -4.1267348720566016e-01 1.1840645770719957e-01 -9.8126784996453477e-03 -7.6186135151303990e-03 1.0358806412919434e-01 1.7414283620840629e-01 -1.5825041036985407e-01 -1.5847760566195546e-01 1.2815033877549434e-01 9.6755717697077082e-02 1.1830913399340375e-01 1.9528688095289093e-01 -1.1012959468655197e-01 -1.3143692037102914e-01 3.6066934323992619e-02 1.0065550336952001e-01 -5.8950973332259543e-02 -1.1001410007427297e-01 1.9242157784620101e-01 -5.0194192284595714e-02 1.2366056407610153e-01 1.8804245244628814e-01 -1.4082593145635647e-01 9.9293987521190785e-02 -1.7152581754314891e-01 1.0748254142782878e-02 3.6260816436018549e-02 2.6298844944070289e-02 -8.4517926427381665e-02 -3.0016863504075055e-03 -1.1439340411669006e-01 -7.6379948822770966e-02 1.6047122824575027e-01 1.4425587628473258e-01 -1.1100152427501021e-01 -6.8072200642881039e-02 1.0189974553440988e-01 -5.1633982700131552e-02 -1.7745580630847829e-01 1.6936985719925388e-01 -4.7395766982774042e-02 -1.1009213419558971e-01 1.4820622017948173e-01 -2.0635997751336763e-01 -1.9144181626487750e-01 -1.9137127056979375e-01 3.1572927726999386e-04 1.4326605478360810e-01 4.1934720330141430e-02 4.3030060227254432e-02 1.5131018401492544e-01 -1.6075707742891429e-01 1.6826913296009238e-01 1.1986888453096795e-01 -4.9089382217287779e-02 8.6626459990667745e-02 4.5539893665254239e-02 1.5007348868444947e-01 -2.1342439299058291e-01 -3.5089859068918518e-02 -1.5571009927489310e-01 -1.6208887657200796e-01 1.7918861285132973e-01 1.0667732897176654e-01 3.2693465783328862e-03 4.6777154812461294e-02 3.2764615552366727e-03 -3.0351657707455410e-03 1.2314543766994906e-01 1.7426853086275362e-01 -2.4753720334378438e-02 -1.0888425684282815e-02 1.2659087410381473e-01 3.0191579938713114e-02 2.1117879073531066e-02 2.4155876875059595e-01 -1.4770087606904833e-01 1.6906048697262829e-01 -6.3197541972793744e-02 -5.1807122930618600e-02 5.6514517983337017e-04 -1.9427400889787352e-01 3.6591816380786651e-02 -7.6236782593783428e-02 9.0687366834746902e-02 -4.9527642230800577e-02 7.4542396401227021e-02 3.5112627854091923e-02 -2.0165937708242629e-01 2.1295197655707927e-02 6.7077343024165043e-02 -1.0293348828956500e-02 2.2604630385233432e-01 -7.0669755146845412e-02 -1.4225598355749910e-01 1.2312164806722606e-01 3.6981767474655182e-02 -1.5440066040592179e-01 -1.5494887516643677e-01 4.3646532230061895e-02 4.0702524833733003e-02 -1.3902205087020750e-01 -5.8938540140467746e-02 -5.6917337178848913e-02 -6.9502247535880871e-02 -5.3934418233274960e-02 1.8463843646303577e-02 -1.2998473095024216e-01 -1.6574975475607029e-01 -1.1892464265553243e-01 5.8237850222823588e-03 7.7607474134744961e-03 -1.1527323214042647e-01 2.0334952074982333e-02 -1.7854282389127074e-01 1.1001647692147461e-01 7.4818320689873818e-02 1.0510584697216682e-01 -1.3409761562456665e-01 1.1703445031093529e-01 -1.4973053698925548e-01 9.7954949418229229e-02 -3.9305676130274650e-02 -7.6610035448984731e-02 1.1096733786468679e-01 1.7238813121135410e-01 5.6345590948957823e-02 1.4499145729437013e-01 -1.3843381940069482e-01 4.4769553074608816e-02 -1.4448056382208641e-01 4.3033322459429785e-02 5.4178967723487126e-02 -3.0885450213413313e-02 1.5188817064277951e-01 -5.1386354451419314e-02 -8.3533710261740543e-02 -3.4527056255938909e-02 -6.9380899828237363e-02 -1.5872417337958206e-01 2.2602535577352006e-01 6.9711623948355270e-02 -4.2809455381973720e-02 5.1331732034340737e-02 6.4967536377171342e-02 -2.2656428324110429e-02 -2.2958431516842707e-03 -4.7566953594752838e-03 -1.3188593129791454e-01 1.1177029976546267e-02 -1.9699555369142691e-01 -4.0579215311604716e-02 -1.1584161621644672e-01 -8.7531920387375728e-02 9.3830169381569253e-02 -1.3351511386821072e-01 8.2809796378567307e-02 -9.1552145846008279e-02 1.8362337146142044e-01 -2.8054325636104712e-02 -9.1952786317938434e-02 -9.9302994427309402e-02 1.1998585211974595e-01 -1.8206691807533032e-01 6.1099931205587971e-04 1.3936973187538990e-01 1.3307944369939803e-01 7.5613479428168456e-02 1.3037919814092017e-01 1.2206190514161221e-01 -1.8887139533087242e-02 -1.8808033070674374e-01 9.6278380225499657e-02 -4.3510585470674101e-02 -8.8090147992098161e-02 2.0417491493514167e-01 -2.5034618418470326e-02 1.0726309819042280e-01 -5.9358032395721363e-02 -1.0592242475162086e-01 3.2256150020606202e-02 5.0998968350205565e-02 -1.2336881072922020e-02 1.1714784716256557e-01 -1.3327548447975354e-01 -2.1354383441832867e-01 1.8879607223841208e-01 7.3095748704226901e-02 1.2315776858012578e-02 -5.8711467233898036e-02 -1.8585346690867754e-01 -1.7433730013558821e-01 1.4693928458559516e-01 8.2395108949591886e-02 -1.5123855727193808e-01 1.8334477499609153e-01 2.0257173000202598e-02 -7.7646642825639586e-02 -1.8667982195223068e-01 -1.2092405302776968e-01 -1.2111819861393643e-01 -1.0705748881482706e-01 1.5262566092896077e-01 7.4298440327368154e-02 -6.7905045270232653e-02 1.4505905140192230e-01 1.2597438095734056e-01 -1.7451353268071973e-01 -1.5756803546724310e-01 -7.2836315578767324e-02 -3.8256817960830123e-04 1.4598040268117221e-01 4.2395828677020159e-02 1.0636386236107842e-01 1.7544027774165216e-01 7.8753855091448360e-02 1.5429459561844514e-01 -4.0149575993191591e-02 -1.0458606104460341e-01 5.2994637373994076e-02 2.5414846101299755e-02 -9.2026683425590838e-02 -1.3773280618093614e-01 -1.1828040162128049e-01 7.0587267805744730e-02 -1.2304824881845274e-01 -9.8226767731990298e-03 -1.3081774665611703e-01 3.2459252547938723e-02 6.3364529422517205e-02 1.1463617997767818e-01 -1.3382083277071258e-01 -9.4323881474500909e-02 -1.3543469920733073e-01 -1.0422058317543095e-01 -2.0153868774041763e-02 2.4908356232514764e-01 -1.4260630784182233e-02 1.6904306195133376e-01 -1.0493462716047543e-02 2.1570197200184318e-01 6.1303190473373799e-02 1.0245265439227338e-01 5.0679694657110579e-02 2.7009315223133840e-01 -1.8098405027981174e-01 -1.9487502751349722e-01 -1.5491264729515167e-01 -1.4967750641693608e-01 -1.8716932570039543e-01 -2.2434569188280692e-01 -1.7963380755159031e-01 -2.0490565691175586e-01 -1.2253161354935366e-01 -5.2557566563043653e-02 -2.1619927299489136e-01 -6.4185024111973327e-02 3.9327580968955604e-02 1.5094140126326755e-01 3.5871972883866517e-02 1.1677740817736312e-01 -1.5439730944738334e-01 -7.2181884490138071e-02 5.3315318873980383e-03 -2.3527421117044527e-02 -4.5016081822957738e-03 -1.0535436214879229e-01 -1.0445808424984321e-01 1.7315948197169606e-01 9.2044418452600918e-02 2.4624220918502731e-02 9.8384406981717021e-02 8.6086106248804972e-02 -1.2710713706058058e-01 7.4061836415303978e-02 1.2143982214586332e-02 1.2726949756110420e-01 -1.7868379627618844e-01 -1.1396314880985277e-01 -9.8970325245209989e-02 -1.8390392575096495e-01 -1.2240208914977922e-01 1.2120628505512755e-01 -1.1768215636710520e-02 -1.4122870223276865e-01 -8.4552243480996922e-03 3.8281106631910145e-02 1.8604288932239424e-01 1.8747196346933243e-01 6.7376571781959063e-02 -5.2810339140487612e-02 -1.9290415448947465e-01 -9.7926302966977755e-02 1.6488560768417745e-01 8.8551175008510147e-02 8.4296278642514127e-02 2.2608659049999671e-02 -4.9485178294196859e-02 1.1916845620510855e-01 -1.2360673360801319e-01 -4.4403303471606615e-03 -1.8413082877119660e-01 -2.0689136803652437e-02 3.1578722579171582e-02 -1.6430566423791859e-01 -1.5664137688993743e-01 1.2341546397221367e-01 1.4490275109663847e-01 -7.9376562407581439e-02 -8.9649013435453961e-03 6.5998683695361465e-02 7.1358690070059572e-02 -6.1353620540282899e-02 1.2836218816454886e-01 8.5114099277400462e-02 -3.0778118223187744e-03 -2.3060613018666104e-02 4.1458900711651231e-02 1.6156310995452489e-01 -1.0344996530597700e-01 -7.9267671916118262e-02 1.0797979891235129e-01 1.2488772616952479e-01 -1.4265549609553010e-01 -7.3704392443364941e-03 1.7640440958218034e-01 -1.6772953889855910e-01 7.1126535697359425e-02 -1.2121263811679847e-01 1.4810219138391695e-01 -1.0111410101964527e-01 -8.0956716843514256e-02 3.9048596148587886e-03 -1.1656956171773818e-01 -4.4553348011629829e-02 1.2899489837587888e-01 2.0514387874107715e-01 -1.4093442759931882e-01 4.3306637882365162e-02 -3.2717471478307669e-02 1.0652338765589063e-02 -9.0204638309215032e-02 1.1162618906100730e-01 2.6857610188636201e-02 -1.2726390498288255e-02 2.9654328228760622e-02 2.2261001172459192e-02 -1.5984584015608941e-01 -1.9447294754758745e-01 -3.0521235328263455e-02 3.4414812562307863e-02 -1.9713258157454558e-01 1.6596792511783789e-01 1.5195720599506340e-01 -3.2441209683618123e-03 4.1510140355982404e-02 -9.6013959257790646e-02 3.6424419782192748e-02 2.3083843787240071e-01 -1.4260602668991038e-01 -1.3951104043327944e-01 4.6002617089361972e-02 1.1431047158463717e-01 -2.0242538788391684e-01 -1.4684066563518847e-01 3.8665548951853958e-02 -1.4427627532480225e-01 -8.8454658944395140e-03 -1.3189478757383513e-01 1.9885596247361187e-01 -5.7581396416644101e-02 5.7025004850219177e-02 6.1705441471045425e-02 -1.9076814764549532e-02 -1.2648241031358515e-01 -2.2823653672485239e-01 2.4328072965907003e-02 1.5039898692827927e-01 2.1179612496598391e-01 -1.7240405567128775e-01 -7.7457854325751224e-02 1.4646104908727217e-01 2.4244114089176313e-02 1.6022993742209535e-01 2.4448542965708597e-03 1.9406991749517577e-01 5.9184101772871422e-02 -2.9032799460312553e-02 2.3356332561827828e-01 -1.3138517097436414e-01 -8.9609619617399397e-02 -1.2819232768494207e-01 -4.1211649326024821e-02 -6.4762737793858077e-02 1.4440035850733406e-02 -1.9046722578139455e-01 4.0574247307646832e-02 3.2046630115288556e-02 1.4565385662310906e-01 1.1575658300933959e-01 1.0480661348313595e-01 -6.9552650698281468e-02 -2.5743951691109698e-02 1.2726811489473391e-01 -3.0144529234958771e-02 -4.7360285093011982e-02 2.0528521172776201e-02 1.6229058581399411e-01 -6.4107995436240683e-02 -1.7827013206144632e-01 -5.2350130190158051e-02 -7.3911877644888518e-02 4.4472363515534922e-04 1.3883346253460377e-01 1.1833548291857846e-01 -1.9265513236166115e-01 -1.0907593074147610e-02 -1.0169599124538532e-02 7.8536743433466019e-02 -1.5989347007585533e-01 -7.9838993396452049e-02 -1.4891852615179684e-03 -1.2778659949349799e-01 -7.0998023860117235e-02 1.5640182957022208e-01 -9.7742595959158268e-02 -1.6838752332601123e-01 -1.7900661721885482e-03 2.7964005245024424e-02 -2.7678147239276548e-03 -1.4046812916959561e-01 -5.2966641309241825e-03 -5.5369995994979417e-02 -1.6596605583176119e-01 1.6438330062287027e-01 1.3605246782630406e-01 1.2728238634170030e-01 -3.3608937984300161e-02 2.0069993034215489e-02 -1.9749233932761934e-01 -5.1760422509616245e-02 1.3508475419023319e-01 -5.3794771335945145e-02 1.0996190935695674e-01 2.0374784937325658e-02 1.1231826244796894e-01 -1.5423055028716193e-01 1.9634345750621163e-02 4.8081768613697444e-02 4.1032189283342027e-02 4.6792802606840191e-02 5.9165000919618072e-02 5.0408011322286672e-02 -1.0168221254791329e-01 -8.5916737375824670e-02 -6.7766007599993350e-02 2.1565074865667305e-02 1.0404544881860123e-01 -1.6108594570380386e-01 1.2586675932339135e-02 -1.1858924599112505e-01 1.3061374615214871e-01 -1.5840004298150723e-01 7.8120002613402517e-02 -1.4034249116225544e-01 -2.0179588037563007e-02 9.0235308211255083e-02 -4.4758218076370024e-02 7.3977526525471913e-03 -2.5701400907199570e-03 -2.2438309995647589e-02 2.3356578677556845e-04 1.4171630592080433e-02 -3.7768521166739422e-04 8.3603187973976256e-02 -7.9757421534984274e-02 -1.7301150184246224e-02 1.0512863660792633e-01 -1.2638466885053232e-01 -4.8714767887860146e-02 -1.6239383252213344e-02 1.9859875888038250e-01 -1.5123915579005387e-01 1.9615089369705588e-01 -2.5826707968758963e-02 -1.1857650573885016e-01 -1.5224210611111447e-01 -3.6488508400502233e-03 -4.4286878973673262e-02 -2.8251149969105358e-02 1.4978123924524769e-01 -1.9057144312454108e-01 -1.0027443060681616e-02 1.5685384513242154e-01 -1.3755696621244234e-01 -1.8076430012559183e-01 -3.3608014249907489e-02 -6.6803575056921430e-02 -3.1413459393458805e-02 1.0957113091753298e-01 1.1594449261342755e-01 -1.4363247098737875e-01 6.9468939700716228e-02 1.9369974093280856e-01 2.5404387624451481e-03 2.1131259934964611e-01 1.7722748135599198e-01 1.8842891094378861e-01 -1.6953196159329914e-02 -1.3380950018868734e-01 1.0504190179449256e-01 -5.5651681530613194e-02 2.6766146688438175e-01 -3.0755652183794523e-02 -7.7422405377373341e-02 9.0360384000066282e-02 4.0403157904519836e-02 -1.1512325607637224e-01 6.4587909893307677e-02 1.6726020955630072e-01 1.3728008653793677e-01 5.4592314745026127e-02 -1.8865467280431683e-01 9.2494083601676644e-02 -3.1810386028775804e-02 5.9188247313909627e-02 1.7115654778132047e-01 -1.7478421247375711e-01 -8.9446848715921373e-02 1.5043875419490524e-01 1.2475176562436739e-02 1.1425417153802510e-01 7.4642721208418431e-02 -1.1749553019290706e-02 -9.1564957700967828e-02 -2.5410995508424550e-01 -7.1930003975959694e-02 -1.2623939937240899e-01 -2.9281727244554279e-01 -7.8101329690527174e-02 -1.0146381213917761e-01 -4.2956957550295697e-03 1.8778842939246674e-02 8.6526029868888368e-02 -2.7238165413122339e-01 -2.1113893080480214e-02 -2.1758546871137105e-01 -5.9844855851057047e-03 1.4197958445951545e-01 -1.9268709850868571e-01 -2.1401520588401104e-01 -1.6394397388909324e-01 -1.6327920696393236e-01 2.6862522888422811e-02 3.7861605640659650e-02 -6.1372058141619230e-02 -1.6308671687065140e-01 -2.6768153064977433e-02 -1.0098597719163221e-01 9.7630136690733199e-02 3.2424004468661942e-02 -2.1017774853939873e-02 -1.7715056107940802e-02 -8.9785184933950962e-02 1.3667475947307092e-01 1.1663419115823827e-01 -1.2447145201072475e-01 2.0799072932078322e-01 -8.5035679802841185e-02 1.9660920213153299e-02 1.1852861822770461e-01 -6.5870808642209164e-02 1.7054936393929179e-01 7.9095675315838596e-02 -6.4028878893241270e-02 7.9403027347709557e-02 -1.5186978731292788e-01 