<?xml version="1.0"?>
<MethodSetup Method="DNN::DNN">
  <GeneralInfo>
    <Info name="TMVA Release" value="4.2.1 [262657]"/>
    <Info name="ROOT Release" value="6.08/02 [395266]"/>
    <Info name="Creator" value="minerva1993"/>
    <Info name="Date" value="Tue May 23 02:11:00 2017"/>
    <Info name="Host" value="Linux htop.hanyang.ac.kr 2.6.32-696.el6.centos.plus.x86_64 #1 SMP Mon Apr 3 14:56:08 UTC 2017 x86_64 x86_64 x86_64 GNU/Linux"/>
    <Info name="Dir" value="/home/minerva1993/fcnc/tmva"/>
    <Info name="Training events" value="60000"/>
    <Info name="TrainingTime" value="1.35681249e+03"/>
    <Info name="AnalysisType" value="Classification"/>
  </GeneralInfo>
  <Options>
    <Option name="V" modified="Yes">True</Option>
    <Option name="VerbosityLevel" modified="No">Verbose</Option>
    <Option name="VarTransform" modified="Yes">N</Option>
    <Option name="H" modified="Yes">False</Option>
    <Option name="CreateMVAPdfs" modified="No">False</Option>
    <Option name="IgnoreNegWeightsInTraining" modified="No">False</Option>
    <Option name="Layout" modified="Yes">TANH|30,TANH|20,LINEAR</Option>
    <Option name="ErrorStrategy" modified="Yes">CROSSENTROPY</Option>
    <Option name="WeightInitialization" modified="Yes">XAVIERUNIFORM</Option>
    <Option name="Architecture" modified="No">STANDARD</Option>
    <Option name="TrainingStrategy" modified="Yes">LearningRate=0.01,Momentum=0.5,Repetitions=1,ConvergenceSteps=300,BatchSize=500,DropConfig=0.0+0.2+0.0,WeightDecay=0.001,Regularization=L2,TestRepetitions=5,Multithreading=True</Option>
  </Options>
  <Variables NVar="5">
    <Variable VarIndex="0" Expression="NJets" Label="NJets" Title="NJets" Unit="" Internal="NJets" Type="I" Min="4.00000000e+00" Max="1.60000000e+01"/>
    <Variable VarIndex="1" Expression="NBJets_M" Label="NBJets_M" Title="NBJets_M" Unit="" Internal="NBJets_M" Type="I" Min="1.00000000e+00" Max="7.00000000e+00"/>
    <Variable VarIndex="2" Expression="NCJets_M" Label="NCJets_M" Title="NCJets_M" Unit="" Internal="NCJets_M" Type="I" Min="1.00000000e+00" Max="9.00000000e+00"/>
    <Variable VarIndex="3" Expression="BJMDPhi" Label="BJMDPhi" Title="BJMDPhi" Unit="" Internal="BJMDPhi" Type="F" Min="-3.14155579e+00" Max="3.14156199e+00"/>
    <Variable VarIndex="4" Expression="BJMDEta" Label="BJMDEta" Title="BJMDEta" Unit="" Internal="BJMDEta" Type="F" Min="-4.67494106e+00" Max="4.74954796e+00"/>
  </Variables>
  <Spectators NSpec="0"/>
  <Classes NClass="2">
    <Class Name="Signal" Index="0"/>
    <Class Name="Background" Index="1"/>
  </Classes>
  <Transformations NTransformations="1">
    <Transform Name="Normalize">
      <Selection>
        <Input NInputs="5">
          <Input Type="Variable" Label="NJets" Expression="NJets"/>
          <Input Type="Variable" Label="NBJets_M" Expression="NBJets_M"/>
          <Input Type="Variable" Label="NCJets_M" Expression="NCJets_M"/>
          <Input Type="Variable" Label="BJMDPhi" Expression="BJMDPhi"/>
          <Input Type="Variable" Label="BJMDEta" Expression="BJMDEta"/>
        </Input>
        <Output NOutputs="5">
          <Output Type="Variable" Label="NJets" Expression="NJets"/>
          <Output Type="Variable" Label="NBJets_M" Expression="NBJets_M"/>
          <Output Type="Variable" Label="NCJets_M" Expression="NCJets_M"/>
          <Output Type="Variable" Label="BJMDPhi" Expression="BJMDPhi"/>
          <Output Type="Variable" Label="BJMDEta" Expression="BJMDEta"/>
        </Output>
      </Selection>
      <Class ClassIndex="0">
        <Ranges>
          <Range Index="0" Min="4.0000000000000000e+00" Max="1.4000000000000000e+01"/>
          <Range Index="1" Min="1.0000000000000000e+00" Max="7.0000000000000000e+00"/>
          <Range Index="2" Min="1.0000000000000000e+00" Max="8.0000000000000000e+00"/>
          <Range Index="3" Min="-3.1413979530334473e+00" Max="3.1412608623504639e+00"/>
          <Range Index="4" Min="-4.6692671775817871e+00" Max="4.7495479583740234e+00"/>
        </Ranges>
      </Class>
      <Class ClassIndex="1">
        <Ranges>
          <Range Index="0" Min="4.0000000000000000e+00" Max="1.6000000000000000e+01"/>
          <Range Index="1" Min="1.0000000000000000e+00" Max="6.0000000000000000e+00"/>
          <Range Index="2" Min="1.0000000000000000e+00" Max="9.0000000000000000e+00"/>
          <Range Index="3" Min="-3.1415557861328125e+00" Max="3.1415619850158691e+00"/>
          <Range Index="4" Min="-4.6749410629272461e+00" Max="4.5950241088867188e+00"/>
        </Ranges>
      </Class>
      <Class ClassIndex="2">
        <Ranges>
          <Range Index="0" Min="4.0000000000000000e+00" Max="1.6000000000000000e+01"/>
          <Range Index="1" Min="1.0000000000000000e+00" Max="7.0000000000000000e+00"/>
          <Range Index="2" Min="1.0000000000000000e+00" Max="9.0000000000000000e+00"/>
          <Range Index="3" Min="-3.1415557861328125e+00" Max="3.1415619850158691e+00"/>
          <Range Index="4" Min="-4.6749410629272461e+00" Max="4.7495479583740234e+00"/>
        </Ranges>
      </Class>
    </Transform>
  </Transformations>
  <MVAPdfs/>
  <Weights InputWidth="5" Depth="3" LossFunction="C" OutputFunction="S">
    <Layer ActivationFunction="3">
      <Weights rows="30" cols="5">
        -6.2831432087122063e-01 1.4317928348524847e-01 -2.9979586457213286e-01 -1.1548916537666826e-01 -1.1190327951107535e-02 -5.9166048005703020e-02 -1.8477906384346759e-01 -8.8867489989731457e-02 4.4233981328172234e-01 3.0748630404874322e-01 -1.5077301835311260e-01 1.5784581596838035e-01 2.9951793167578999e-01 -3.6864234070362351e-01 -2.2753464874175913e-01 -3.6715798238040047e-02 -5.8353930380791819e-01 -2.0621599385230860e-01 3.8558006645128018e-01 -2.2124776925990156e-01 1.0289890677966027e+00 -1.2104531618520016e+00 -1.5435250126066455e-01 2.0237084250441020e-01 4.7547239130757202e-02 1.5773983371449618e-01 5.4339708060564392e-03 2.2475060490239976e-01 2.0380309943696354e-03 -5.2161776664219417e-01 -9.6460131772641078e-01 9.0080882625646608e-01 1.1905301138825143e-01 3.5031077511103337e-01 4.3047752791381642e-02 1.9103840066511604e-01 8.9257568549842958e-02 -1.3626134841778964e-01 -2.4110103489538692e-02 -7.7205986212689121e-02 -1.3657347556982904e+00 -5.7980801837099050e-01 -5.5519566833310985e-01 -1.9057622043626885e-01 2.8313300533981459e-02 -3.5274887948188088e-01 2.6336378796345389e-01 4.9090928882625240e-01 2.5192462381206920e-01 5.3292968465595481e-01 1.1694633466907731e-01 -4.1119091294897431e-01 5.6284235120228365e-01 1.1898867112993949e-01 3.4879178996553778e-01 2.1260617695446765e-01 1.7473594882103875e-02 -6.6757618276285591e-01 4.0575723294805521e-01 -7.1589947285306099e-01 2.1498628337050379e-01 3.0088368963719309e-01 -1.6044314203369775e-01 -1.9040796990918984e-01 2.4628748879113158e-01 2.1894002228743945e-01 2.6190672426349504e-01 6.1441400706611429e-02 -2.1116055829087692e-02 -2.2417074317154212e-01 1.5840494310522549e-01 3.3980120008270748e-01 -9.8630068533985246e-02 -9.4610243743858347e-02 -8.0103770819079378e-02 3.8443082302871662e-01 2.8880544750420306e-01 2.8469251200588763e-01 -5.7013758845282425e-02 1.3678387048821203e+00 -3.9573779857048619e-01 -1.3708690070811813e-01 -1.9794898822981138e-01 1.5625707387803292e-01 -4.2076421392104152e-01 -1.9507878068286708e-01 3.8091172619873198e-01 1.1273474029973178e-01 2.4584146103416732e-01 -2.2843925394920248e-01 2.5576807728092726e-01 3.8746280767707830e-01 1.6465598524676697e-01 3.1579382697028763e-01 3.0982429228198721e-01 -5.2965386341971743e-01 -8.3220748816599299e-02 3.6077353264145096e-01 -4.5376110802624298e-01 -5.2812138672029996e-01 5.0547471268134048e-01 4.4369602734869347e-02 1.8892310472030219e-01 -1.2217271824014403e-01 -8.3719609208486034e-01 3.0777514165043757e-01 -3.8347890083331343e-01 -5.6819591574712447e-01 -4.9107043497096686e-01 6.4494735706022899e-01 -7.9507162949156440e-01 4.7492600334103152e-01 5.8020504985307186e-01 -5.3196837249535285e-02 2.8232905627149374e-01 8.1557579162898541e-01 -2.7557668606698100e+00 -4.0153095722123611e-02 -2.6392165890574294e-02 -1.6114481816475867e-01 -1.7179968634833988e-02 2.3418511062129038e-02 -1.2262452578681328e-01 4.9888065109764912e-01 -4.0384189781725810e-01 1.0480184479112448e-01 3.2682624316850151e-01 4.6263846329041131e-01 2.3954650620709361e-01 -2.8895154629767694e-01 -2.0324987307969361e-01 4.1762118780674334e-01 -3.9898782145138517e-01 -3.3997742311356227e-01 -2.7855195585129749e-01 -3.1813758141651755e-01 4.1188024353914665e-01 -2.7933390663133745e-02 5.6865293451134602e-01 -3.9588968609356556e-01 5.2118608184482995e-01 -7.3159162063697403e-01 -2.8584198927953902e-01 -1.0340153357752761e-01 2.5339050712180365e-02 -4.3695951342828065e-01 -3.3664462359770975e-01 3.5741567968496563e-02 1.6569422070669450e-02 3.3284865477361730e-01 
      </Weights>
      <Biases rows="30" cols="1">
        5.5211119074897570e-02 8.4143360730048966e-02 1.6506521547783759e-01 -1.7254920542060045e-01 -7.4230314553573917e-01 -1.4713421486722075e-01 8.4653331336999635e-02 8.6877201331800796e-02 -1.5928800759490007e+00 2.4122001797396814e-01 4.9109544657916296e-02 -3.1025662473451045e-02 -1.9902520478836913e-01 -7.9621968391528603e-02 -4.5773434714611420e-02 -3.4642867385276194e-01 5.2347835577991615e-02 -6.1350291221418114e-02 -2.7051848355482744e-01 -3.8335800592927632e-01 -1.7773553942021750e-01 -1.1046275526028491e-02 4.9328150683775634e-01 -6.3550000102057591e-01 -6.0631463237222308e-02 4.0824186501206200e-02 7.3184291674126128e-02 -3.2223892070580951e-01 -2.9971664342747761e-01 -8.8905244277654838e-02 
      </Biases>
    </Layer>
    <Layer ActivationFunction="3">
      <Weights rows="20" cols="30">
        -4.5224212081157006e-01 1.1451799299296263e-01 1.3359116031490781e-01 3.8925712321565153e-01 1.1278109489697183e+00 2.1401637401913501e-03 -5.6883385522678787e-01 -3.8576041154390511e-01 1.8287651684600559e+00 2.2289556444002293e-01 3.4956691111465560e-01 -4.3622173075813209e-01 -4.8263811441763954e-01 -3.1069547693923683e-01 -3.4091062832606200e-01 -2.8784033910070045e-01 1.8897266859080161e-01 8.5578838038476296e-02 2.0589424870823814e-01 8.7854277954913351e-01 -5.2844892192065984e-01 -7.3248874354053284e-01 -3.4773202853550811e-01 -1.0867864718304365e+00 -6.6452077715672839e-02 -2.6177114261380502e-01 -2.6925811119309662e-01 3.2855168290929848e-01 3.2789510409437655e-01 1.8426544772764009e-01 9.1569004447011423e-02 1.0716297688935417e-01 -2.1939349236900555e-02 -1.6690323754651232e-01 -3.2500968629675936e-01 -9.5676541518930375e-02 2.0626569395947097e-01 2.0760113864034249e-01 -5.5894864262811074e-02 -1.1034455234521810e-02 -2.4941467541436074e-01 -9.5809718784211784e-03 -5.2641608189698801e-03 -1.4268592434449973e-01 -1.4578478859374946e-01 2.0618143404236405e-01 -1.1652592528903799e-01 -1.1270146636266425e-01 -6.6588350039634411e-02 -1.5296495477112904e-01 2.1673129087030218e-01 -1.9541367064303727e-01 -2.0051634826477124e-01 -4.4027821124093376e-02 1.0759507999740964e-01 -3.2173062836945203e-02 -8.1912921900195293e-02 1.3272994270873437e-01 -1.0017651756242869e-01 2.4122553935158791e-01 2.9670280160569784e-01 -6.1988101384927330e-02 -2.1966253713766992e-01 2.5561844800240668e-01 4.6232877770679248e-01 -2.2461156743686977e-01 -3.7121343000427631e-02 1.3519940795444740e-01 7.0173930372360727e-01 4.5324655237930382e-02 -1.9171221591520254e-01 -1.6421394817427430e-02 -1.9303994802838029e-01 7.8977171298941856e-02 -2.2676371101138022e-02 -1.6993232874596936e-01 4.6995900752044475e-02 -1.3424448084659948e-01 1.2421143311047753e-01 3.1217000186153560e-02 -3.4462915500587776e-01 6.0041351846552904e-02 -3.0452098118745147e-01 -4.3387334461451088e-01 1.8330823120710793e-01 -2.7575714316756600e-01 2.4580660659965579e-02 -1.9604951161142081e-02 1.9041052503646144e-01 -3.4354214739394665e-02 2.3418996795952757e-01 -1.3719209962995665e-01 -7.7166520071944161e-02 -1.2176905108813942e-01 3.0886977786342185e-02 8.7734445875799441e-02 -1.9494611833812509e-01 5.3380223458896689e-02 1.5679544725920586e-01 -8.4993741325119956e-02 5.7730823570659263e-02 1.4367349109485378e-01 1.9847221152812505e-01 -4.0664459237887966e-02 1.5390087284752069e-01 -4.6171716449740285e-01 2.6010674558566155e-01 -8.8329164548667405e-02 3.8478612690242379e-02 3.1366627842124523e-01 -5.1539172437249182e-02 -3.1352271536615745e-01 -2.6463610292166873e-02 -2.9566738486029920e-01 -1.4991936189470106e-01 8.6465706531478018e-02 -1.0189996316180060e-01 -2.0196747097730428e-01 3.9078407962394042e-02 -2.6206911567282487e-01 1.5348711027520459e-01 -9.9094395246448017e-02 1.5944685853589935e-02 5.1362347310642223e-02 9.6047445121912281e-02 1.3883130771381999e-01 -1.9963835325494222e-01 2.1847059295417898e-01 -4.1379190937859391e-02 1.1125604153863670e-01 -4.4875327389635185e-02 2.2982830447721547e-01 1.6048621184597309e-01 1.7785824127001004e-01 -7.6015286305029725e-02 -4.7732520864986108e-03 -3.7528190053273326e-02 -4.3573707691325826e-02 -1.3609725717113566e-01 2.0540731153476616e-02 2.3870147458023441e-01 2.4826461448006953e-01 1.9775186348183088e-01 1.8904682384785784e-01 -5.5567093496672548e-02 -1.9933650146141409e-02 1.1283040892408701e-01 1.1867221883599895e-01 -1.4596092926687260e-01 2.2571137667911018e-01 -4.6267179783293243e-04 -1.9974478694559611e-01 -1.4292517420609874e-01 1.4921203985015602e-01 -1.2606177785706998e-01 1.2174554541534613e-01 8.0260645774971870e-02 -1.6317127759162670e-01 -1.0417658288133647e-01 -1.0507515173636364e-01 3.4781547456038953e-02 -3.7034170049029723e-02 -1.0546781514970462e-01 -1.0554261909916648e-01 -1.4017256041590534e-01 -9.5817977693325451e-02 1.4566037169114632e-01 2.1869460092220724e-01 -2.1288514824616878e-01 -2.5585196120627506e-02 7.1720731197226092e-02 -2.3635832745087193e-01 -4.5431236635952284e-02 2.1034732921457806e-02 3.5983665939663956e-02 -2.3619150301713243e-01 9.3355974306512976e-02 6.2479597852697173e-03 -2.8895368956748897e-02 -1.0885407141719083e-01 -1.8881319566685331e-01 1.6536707816713689e-01 2.2100529239422034e-01 6.2693975098396221e-02 1.0587186018299902e-01 -8.8880268715674990e-02 -4.1188703787786843e-02 -8.7482517169126681e-02 5.3873676072495456e-02 -3.3630196419677426e-02 -1.3269154788690959e-01 1.6725327821852706e-01 1.6962986847016859e-01 -1.5629627646069563e-02 9.7140258755258238e-02 2.0370142443743172e-01 1.8025772615769964e-01 -1.5519902527153337e-01 5.0111625069829732e-02 -1.6453157474809937e-01 1.2042366045286357e-01 2.5981175404137558e-01 -2.2753323995842564e-02 -1.8038010700266799e-01 7.4117650953932843e-02 -2.1592749937299049e-01 1.0514480385399974e-01 -3.1320782913644052e-03 -1.9322883486114792e-01 -5.7972516265817384e-02 1.1721680942799093e-01 -2.9041909000810812e-01 2.3630082449109935e-01 -3.2997634456303304e-01 -2.7644909884961189e-01 4.8290308536030287e-02 -1.6789204827809726e-02 -1.9819364295595907e-01 -2.2380470740366654e-01 1.3102976458561696e-02 2.6163686335613456e-01 -1.2059184634795551e-01 -1.9218102139952004e-01 1.4565656008359307e-01 -8.4546942564059369e-02 4.1077684725616759e-01 -2.7056482839548429e-01 1.7935828963962125e-01 1.8790723162247655e-01 1.6678306920491048e-01 2.1137094800782799e-01 2.1636209879677647e-02 2.8042647237565960e-01 -3.4238298828721897e-01 1.6488012310268052e-01 9.5242523789691724e-02 -1.5336094249044022e-01 2.3413080654631227e-01 -1.1292768632397911e-01 -1.9323248905096038e-01 3.0122525761740231e-02 -1.3171155210012880e-01 -1.7482080784441006e-01 -1.2814192194754251e-01 -3.3868118097244937e-01 1.1115914301692735e-01 -2.6980242017504385e-02 -2.5028559494318153e-01 4.5870637058209450e-02 -7.7392416386254798e-02 -1.1653368799264768e-02 1.5045612090586788e-01 1.4147320428358992e-02 1.5376300729785142e-01 -6.3759866279255936e-02 1.7156651587140911e-01 8.2782938045827106e-02 2.3664613088371872e-01 -1.1605173851908963e-01 -2.8200515760776651e-01 -1.0844556657508132e-01 -1.2688173791779622e-01 3.0136961985738020e-01 1.1990881905943282e-01 -6.7019502483450955e-02 -2.2366327687837276e-01 2.3252655536465230e-01 7.0569418812185133e-02 -1.7855807248388936e-01 9.2626333656171622e-02 1.7622093507022585e-01 6.1709954296106914e-02 -1.3682242494044336e-01 -5.8880858192923401e-02 -2.1111995824939919e-01 -5.1415206787076195e-01 3.2129226001996816e-02 2.4099905385323162e-01 -9.0267797731206301e-02 1.5108559678373878e-01 1.4922736671333059e-01 -2.5036914514960645e-01 7.8806293810123246e-02 -1.6865535429655309e-01 -2.4474983295885069e-01 1.1110291254764267e-01 -1.1672864672320640e-01 -5.0847500060847137e-02 7.7742257978978241e-02 -4.8706342822499377e-01 -4.1614309263979860e-01 2.7944456908337528e-01 1.7503789677269749e-01 -5.6228397989783636e-02 5.5659843398576783e-02 -3.5281259269641324e-01 -2.2815252104185410e-01 -2.3602837253738598e-02 2.3546866351685805e-01 2.3797674621879009e-01 1.0307020151720793e-01 -1.0906639732006103e-02 2.0362585839575734e-01 -6.1765063956904120e-02 -2.0455721171713581e-01 8.5883482805058309e-02 2.4413595818134068e-01 9.0598781683642007e-02 8.4264212983894998e-02 2.1346384525516399e-01 -1.7472315477733993e-01 1.9629485247751566e-01 2.2064762234410137e-01 -8.3905026075365305e-02 3.3414031999292867e-02 1.7700940667824544e-02 -2.3887365719024073e-01 -1.9140109385425066e-01 1.4550018448588301e-01 8.0507514060319224e-02 -1.8332049207148610e-01 -1.3912067913983181e-01 -2.6227021884236840e-02 -1.7431453059453550e-01 -4.7387234946682046e-02 2.1466124428184313e-01 -1.6499974061811079e-01 -1.6897719491453045e-01 -8.2725720758448903e-02 3.1850330882030466e-02 9.0100420075348228e-03 -3.1596737260353121e-02 1.1722148325248075e-01 -1.3829962912778651e-01 1.0554044105190140e-01 -1.3621109825735636e-01 -3.4931568393436707e-01 8.5339976700474621e-02 -3.3531523786773890e-02 7.0507354160959504e-02 -1.3587779194756647e-01 -1.6860757642722229e-01 -1.8864145063270396e-01 -1.4710252280057792e-01 1.4627475429074702e-02 -8.2810328692519655e-02 1.0830481392087114e-01 1.4502042087822594e-02 -1.2725054891075251e-02 -6.3588818205569400e-02 -1.2354424630190701e-01 -4.4535796139928939e-02 -1.2591277009766732e-02 -1.3008185782239964e-01 1.7479422645162793e-02 2.3013304436625776e-01 1.7825154005769495e-02 -1.0215926971800776e-01 -3.7871162889062324e-02 7.7848476112329631e-02 -2.3698171788120995e-01 -2.5986377778194047e-01 7.7031700833298022e-02 -1.7094708531058911e-01 -3.6737829367025562e-02 -1.0226870419071782e-01 -2.8561135877369070e-01 -1.2557752369654526e-01 4.5512591070197365e-04 -2.1289502647949210e-01 -1.4493097309500991e-01 -4.7430263005145468e-02 -2.5799409471698798e-01 1.1282473939096244e-01 -1.0250791801379031e-01 -2.4488031731474313e-01 1.6372612491516272e-01 3.8205259100482968e-02 -2.0857456047490069e-01 7.2869216183697278e-03 1.9109242881578400e-01 1.5668207738746739e-01 -3.6763145689918030e-02 -4.1822834880284288e-01 9.0224522340385221e-02 8.3708816819588971e-02 8.5921114223527273e-02 2.5599258785154194e-01 -1.4064128533798417e-01 7.3758131270122290e-02 -2.4387330175456856e-01 1.5476063852132380e-01 1.1995273525879961e-01 -1.7324033881254902e-01 1.2847194329863665e-01 2.5082981818300465e-01 8.3866004044572898e-03 -6.8581409762973292e-02 -6.1144934578160502e-03 1.7785910499527285e-01 -6.2523530975286276e-02 7.7028988877575783e-02 -6.9051212073388823e-02 -8.7449928623594034e-02 -6.6691215654770070e-02 -2.2407459579313885e-01 -2.0153422918306246e-01 -1.7081488114161700e-01 -2.0235485199303219e-01 2.0967062881007792e-01 -1.6927033405150345e-02 -2.8807368574268830e-02 -8.1379593551111531e-02 1.4814925076291010e-02 7.2339921602920548e-02 2.2202215954453339e-01 -1.0960694121581693e-02 -1.0337415885108102e-01 4.2763189622269472e-02 2.0103891950579350e-01 2.5402261506379642e-01 5.2684133916811392e-02 -1.0758367959118259e-01 1.4001189302916003e-01 1.8537343311378704e-01 4.2555617755219370e-02 -1.1661116627752137e-01 -1.7134955242119812e-01 -1.3411636779171102e-01 6.4730398003271059e-02 4.1153873280739765e-02 9.9728036402243703e-02 1.7785600391334197e-01 -1.5431026920023856e-02 -1.3458314076786191e-02 -3.6491643629042325e-01 -1.2517592877954052e-02 6.7519974297264168e-02 7.2978427679892446e-02 -1.4524550201964893e-02 -2.2770114521507082e-01 1.8929616344128880e-01 -1.6843148264608310e-02 1.8099890788843148e-01 -2.2286431829413050e-01 4.2187141931024692e-02 -1.7851881737224942e-01 1.9270585224684567e-01 -2.3947581236192927e-01 -1.8260528540802876e-02 1.1457832684053161e-01 -8.2808702121495353e-02 -2.1274506511743913e-02 2.1982250415430143e-01 3.4773483908829728e-02 -9.6595737122202985e-02 7.1598518846299530e-02 -1.6595544881108981e-01 -2.9934715522222256e-02 2.2811586905305609e-01 -2.1664887050990919e-01 1.8939896661708197e-01 -1.1561408741578086e-01 2.3404347695691241e-01 1.2008651042175928e-02 3.0689355354370074e-01 -2.1435064143888316e-01 -5.0237762618173240e-02 -1.3271933658929716e-01 1.4321264075451540e-01 1.1255822421998175e-01 6.2350568640854157e-02 6.4806266027535179e-03 3.3236485637044155e-01 -8.4039728804042216e-02 2.2642511126497686e-01 -3.9620663995028310e-02 -1.0283757091333511e-01 -2.0573043906349717e-01 1.3378714919386220e-01 -2.7665202011127848e-01 2.4704592561172828e-01 -1.6554876146084882e-01 6.2012704626932098e-02 2.9216618221130297e-01 2.2720705570816211e-02 -5.6824086439704456e-02 4.2547796356551502e-02 -2.0941107916553636e-01 1.7209635500309187e-01 1.9753105397228285e-01 2.0684247951220877e-01 -1.5802244580439764e-01 1.3401875768130286e-02 2.3356609037238177e-01 -9.1972308906888678e-02 2.0850596884479133e-01 1.9434114365701893e-01 1.7730415106555905e-01 -2.0659544256842152e-01 1.8458963221311375e-01 2.0211554911908132e-02 1.7809889360557304e-01 -1.6630135227566747e-01 -1.4940958691394318e-01 -1.3850958239999073e-01 6.3698914776653445e-02 2.1218943575254118e-01 -2.2208786768162483e-02 1.0592065882655269e-01 -5.5209677025970107e-02 -2.4859687681767217e-01 -3.7947350435428177e-02 -2.6986153679992281e-01 3.1521414202286109e-02 1.5982541886493826e-01 2.0278600928029022e-01 -2.6407813639413213e-01 -1.5491782961902992e-01 2.3896325048163192e-01 2.5848647414916365e-01 -5.4264449972303154e-02 3.7741892935708246e-02 -1.4395816158861688e-01 -2.2750073391755948e-01 4.1929237418709089e-02 1.1564651736517731e-02 -1.8334531402175430e-01 3.5380079920753690e-02 2.2348111019224376e-01 -2.5793035666027014e-01 4.9225608517296696e-02 -2.1325438070639596e-01 -2.9344138472482467e-01 -6.3049955391801429e-02 -9.5138522774359691e-02 1.3621672510113145e-01 1.0887250837049764e-01 -1.2393746882794600e-01 4.0636308548757966e-02 1.0982674151540812e-01 -2.2109767683295575e-01 7.7307709741965283e-02 1.9009143959400632e-01 -1.4230069655934222e-01 -6.3339408202021094e-02 2.3232996517914722e-01 1.4117838876871225e-01 1.1105193320164981e-01 -1.8110455430930864e-01 -1.8684763125583745e-01 -3.6482132870493025e-02 3.9973189187376933e-02 1.5956244571097639e-01 6.5269830622422505e-03 2.5743356402799095e-01 1.5345510627889702e-01 4.8826887331551862e-02 1.4925649859466733e-01 -3.3796151824769499e-02 2.4484884178591590e-01 -2.2690319561945074e-01 1.3973427785306500e-01 2.0949468305496893e-01 1.5317389859370628e-01 -1.9105726887933853e-03 -1.2584688781202302e-01 5.5149081237234963e-02 1.1651011570253451e-01 -1.0237471299569632e-01 -1.4793494952231201e-01 -9.8461413990653356e-03 1.6992283640888303e-01 -2.5671104963395963e-01 -1.6020597735076553e-01 7.0085203942092320e-02 -1.7252609754461515e-01 -2.1093366087790774e-01 -1.3418471025522603e-03 1.1585489086122047e-01 -2.2608140764232162e-01 1.0198853168819202e-01 -5.1465806675203188e-02 9.5630288087926132e-02 2.0292680417336495e-01 -9.9309807715577819e-02 -1.6161784502232118e-04 1.7862894648281186e-01 -1.2550206089846783e-01 2.1876901072007127e-02 -1.8530485517702203e-01 -1.3792072388202584e-01 -2.7969060070367199e-02 -1.2340272408719818e-01 -7.9293148935949215e-02 -2.0374247723134079e-01 -2.5288705878332429e-01 -2.3289538040010477e-01 -2.6516185339898352e-01 1.7217693528917266e-01 
      </Weights>
      <Biases rows="20" cols="1">
        0.0000000000000000e+00 0.0000000000000000e+00 0.0000000000000000e+00 0.0000000000000000e+00 0.0000000000000000e+00 0.0000000000000000e+00 0.0000000000000000e+00 0.0000000000000000e+00 0.0000000000000000e+00 0.0000000000000000e+00 0.0000000000000000e+00 0.0000000000000000e+00 0.0000000000000000e+00 0.0000000000000000e+00 0.0000000000000000e+00 0.0000000000000000e+00 0.0000000000000000e+00 0.0000000000000000e+00 0.0000000000000000e+00 0.0000000000000000e+00 
      </Biases>
    </Layer>
    <Layer ActivationFunction="0">
      <Weights rows="1" cols="20">
        1.4983597549198162e+00 -2.3647567969647437e-01 5.4181734790265101e-01 3.7037418181558457e-01 -5.6337299093796325e-02 1.0631712765338280e-01 -1.9402559530192642e-01 -4.7645132548368763e-01 -3.2559406641278144e-01 4.7202584417448790e-01 7.9875277800513511e-03 2.5588013029362411e-01 3.2571345276946406e-01 2.5277478139548309e-01 2.1372002193670858e-01 -1.3027489226690145e-01 1.3586898145066797e-01 1.5605985310798678e-01 -3.2331182301896683e-01 -5.1875300939945482e-02 
      </Weights>
      <Biases rows="1" cols="1">
        0.0000000000000000e+00 
      </Biases>
    </Layer>
  </Weights>
</MethodSetup>
