<?xml version="1.0"?>
<MethodSetup Method="DNN::DNN">
  <GeneralInfo>
    <Info name="TMVA Release" value="4.2.1 [262657]"/>
    <Info name="ROOT Release" value="6.08/02 [395266]"/>
    <Info name="Creator" value="minerva1993"/>
    <Info name="Date" value="Mon May 22 20:08:03 2017"/>
    <Info name="Host" value="Linux htop.hanyang.ac.kr 2.6.32-696.el6.centos.plus.x86_64 #1 SMP Mon Apr 3 14:56:08 UTC 2017 x86_64 x86_64 x86_64 GNU/Linux"/>
    <Info name="Dir" value="/home/minerva1993/fcnc/tmva"/>
    <Info name="Training events" value="40000"/>
    <Info name="TrainingTime" value="9.62743773e+02"/>
    <Info name="AnalysisType" value="Classification"/>
  </GeneralInfo>
  <Options>
    <Option name="V" modified="Yes">True</Option>
    <Option name="VerbosityLevel" modified="No">Verbose</Option>
    <Option name="VarTransform" modified="Yes">N</Option>
    <Option name="H" modified="Yes">False</Option>
    <Option name="CreateMVAPdfs" modified="No">False</Option>
    <Option name="IgnoreNegWeightsInTraining" modified="No">False</Option>
    <Option name="Layout" modified="Yes">TANH|50,TANH|30,TANH|10,LINEAR</Option>
    <Option name="ErrorStrategy" modified="Yes">CROSSENTROPY</Option>
    <Option name="WeightInitialization" modified="Yes">XAVIERUNIFORM</Option>
    <Option name="Architecture" modified="No">STANDARD</Option>
    <Option name="TrainingStrategy" modified="Yes">LearningRate=0.03,Momentum=0.5,Repetitions=1,ConvergenceSteps=300,BatchSize=1000,DropConfig=0.0+0.3+0.3+0.0,WeightDecay=0.001,Regularization=L2,TestRepetitions=5,Multithreading=True</Option>
  </Options>
  <Variables NVar="5">
    <Variable VarIndex="0" Expression="NJets" Label="NJets" Title="NJets" Unit="" Internal="NJets" Type="I" Min="4.00000000e+00" Max="1.40000000e+01"/>
    <Variable VarIndex="1" Expression="NBJets_M" Label="NBJets_M" Title="NBJets_M" Unit="" Internal="NBJets_M" Type="I" Min="1.00000000e+00" Max="6.00000000e+00"/>
    <Variable VarIndex="2" Expression="NCJets_M" Label="NCJets_M" Title="NCJets_M" Unit="" Internal="NCJets_M" Type="I" Min="1.00000000e+00" Max="8.00000000e+00"/>
    <Variable VarIndex="3" Expression="BJMDPhi" Label="BJMDPhi" Title="BJMDPhi" Unit="" Internal="BJMDPhi" Type="F" Min="-3.14143872e+00" Max="3.14156199e+00"/>
    <Variable VarIndex="4" Expression="BJMDEta" Label="BJMDEta" Title="BJMDEta" Unit="" Internal="BJMDEta" Type="F" Min="-4.67494106e+00" Max="4.74954796e+00"/>
  </Variables>
  <Spectators NSpec="0"/>
  <Classes NClass="2">
    <Class Name="Signal" Index="0"/>
    <Class Name="Background" Index="1"/>
  </Classes>
  <Transformations NTransformations="1">
    <Transform Name="Normalize">
      <Selection>
        <Input NInputs="5">
          <Input Type="Variable" Label="NJets" Expression="NJets"/>
          <Input Type="Variable" Label="NBJets_M" Expression="NBJets_M"/>
          <Input Type="Variable" Label="NCJets_M" Expression="NCJets_M"/>
          <Input Type="Variable" Label="BJMDPhi" Expression="BJMDPhi"/>
          <Input Type="Variable" Label="BJMDEta" Expression="BJMDEta"/>
        </Input>
        <Output NOutputs="5">
          <Output Type="Variable" Label="NJets" Expression="NJets"/>
          <Output Type="Variable" Label="NBJets_M" Expression="NBJets_M"/>
          <Output Type="Variable" Label="NCJets_M" Expression="NCJets_M"/>
          <Output Type="Variable" Label="BJMDPhi" Expression="BJMDPhi"/>
          <Output Type="Variable" Label="BJMDEta" Expression="BJMDEta"/>
        </Output>
      </Selection>
      <Class ClassIndex="0">
        <Ranges>
          <Range Index="0" Min="4.0000000000000000e+00" Max="1.4000000000000000e+01"/>
          <Range Index="1" Min="1.0000000000000000e+00" Max="5.0000000000000000e+00"/>
          <Range Index="2" Min="1.0000000000000000e+00" Max="8.0000000000000000e+00"/>
          <Range Index="3" Min="-3.1413979530334473e+00" Max="3.1412608623504639e+00"/>
          <Range Index="4" Min="-4.6692671775817871e+00" Max="4.7495479583740234e+00"/>
        </Ranges>
      </Class>
      <Class ClassIndex="1">
        <Ranges>
          <Range Index="0" Min="4.0000000000000000e+00" Max="1.3000000000000000e+01"/>
          <Range Index="1" Min="1.0000000000000000e+00" Max="6.0000000000000000e+00"/>
          <Range Index="2" Min="1.0000000000000000e+00" Max="8.0000000000000000e+00"/>
          <Range Index="3" Min="-3.1414387226104736e+00" Max="3.1415619850158691e+00"/>
          <Range Index="4" Min="-4.6749410629272461e+00" Max="4.5950241088867188e+00"/>
        </Ranges>
      </Class>
      <Class ClassIndex="2">
        <Ranges>
          <Range Index="0" Min="4.0000000000000000e+00" Max="1.4000000000000000e+01"/>
          <Range Index="1" Min="1.0000000000000000e+00" Max="6.0000000000000000e+00"/>
          <Range Index="2" Min="1.0000000000000000e+00" Max="8.0000000000000000e+00"/>
          <Range Index="3" Min="-3.1414387226104736e+00" Max="3.1415619850158691e+00"/>
          <Range Index="4" Min="-4.6749410629272461e+00" Max="4.7495479583740234e+00"/>
        </Ranges>
      </Class>
    </Transform>
  </Transformations>
  <MVAPdfs/>
  <Weights InputWidth="5" Depth="4" LossFunction="C" OutputFunction="S">
    <Layer ActivationFunction="3">
      <Weights rows="50" cols="5">
        -4.4353706076415872e-01 -2.0482005408314788e-01 2.1635913775913920e-01 2.3219686696104727e-01 1.2718270887802427e-01 -2.0803969819989335e-01 -5.0843249128166301e-01 4.7124706224248647e-01 1.4830323502868858e-01 2.8047657839516982e-01 -4.7619456762014056e-01 -1.5907198521936133e-01 -2.2353420624525364e-01 5.6100687691931592e-02 -3.3521536069176766e-01 1.8941435550708571e-01 -9.6968886047783931e-01 1.0653485230355020e-01 1.3601006111464991e-02 -6.4753250218416531e-03 4.5020949276887140e-01 -3.4602108267711928e-02 -1.3670322841487079e-01 -4.3380899948141433e-01 -2.2193646793013111e-01 2.6595951872370249e-01 4.1114704716021838e-01 4.9153089354106616e-01 -1.0705078205014279e-01 -2.9718253454775651e-01 -4.5645561152722186e-01 4.2642997677167277e-01 2.9988003468793917e-01 9.6365569409479698e-02 3.4016006586682368e-01 -1.0970242020081593e-01 3.1379086165695202e-01 1.7609223029963661e-01 2.6287288264877628e-01 -5.6052213002738682e-01 -3.2421034623404821e-01 -2.5448869369526483e-01 2.6079215575550235e-01 -2.1878439457080665e-01 -7.6860415247579239e-01 -5.4854716959201055e-01 -4.0463074700376556e-01 -4.6819176403477841e-01 2.5574400626086669e-01 -1.0064005255551335e-01 2.5913665090999272e-01 -2.0876589808957699e-01 2.8928971271954308e-02 5.5244680483376239e-02 -1.7393314479297244e-02 4.0547308882112182e-01 -3.9916246971176417e-01 -7.5702312482700695e-01 -9.4012566323289984e-02 1.2408397484140087e-02 2.6202876996991464e-01 4.1397406960035288e-01 4.7457891110500666e-02 -3.1610106642028596e-02 -3.9649696369390747e-01 -1.1441500347433560e-02 -4.4983642775932581e-01 1.4882089363502246e-01 1.0416683944307684e-01 3.2944724648105417e-01 3.0996294754979159e-01 -5.5614544427316372e-02 4.9783318072223087e-01 -1.0537378297599220e-01 8.5283062531655449e-02 1.3275953740113808e-01 6.2137284346952579e-02 4.6487685773450271e-01 -1.6317282449167758e-01 -2.2071604032596431e-01 -2.8650602256800450e-01 3.6469834365559461e-01 -3.6792615014486313e-01 -7.1654180468587805e-02 6.0110209526927538e-01 -1.9425490921267171e-03 6.8650308400508078e-02 4.6219726276256690e-01 3.9249594260218339e-02 -7.9253915471537206e-01 4.8542984432707437e-02 -6.0836817709416235e-01 -1.1162320237626014e-01 -5.7000928610350388e-01 -5.1006169751768693e-01 -7.3885451576291639e-01 5.2039940715844901e-01 -1.6874863896643302e-02 -4.1830662653381939e-01 -1.9259218399335679e-01 2.1142749191324156e-01 3.4092410793055389e-01 -1.6607727346870482e-01 1.9679219080939378e-01 4.3341165983036994e-01 2.0035709270921509e-01 -5.2736089059776381e-01 2.9661173798669133e-01 2.6600106368856624e-01 1.2576987808105755e-02 -4.0509587911604272e-01 -1.3854840503840707e-01 -2.3486329808462253e-01 4.3005836232379280e-01 -5.9260888697359948e-01 4.0520763242391133e-01 5.8036051787627441e-02 -4.2629302828067994e-01 4.8115675938065111e-01 -3.6484350219526235e-01 -2.0371728091834397e-03 1.2474992864321584e-02 1.6802662513381947e-01 -4.3463907805983609e-02 1.3371951374549443e-01 1.0467213706998009e-01 6.4043270195114088e-01 -5.7677537808425716e-01 1.2840425335283420e-01 -4.3773346564388987e-01 -1.1162370109135052e-01 -2.3874744810967499e-01 3.1058121325224475e-01 1.7319306642885779e-02 8.0920910844481053e-01 -4.7539877979761147e-01 1.7694997408356082e-02 -6.4934118722564160e-02 -2.8227526310102419e-01 3.8117208985703721e-01 3.1947016585206245e-01 1.3969727897899148e-01 1.2004327695993891e-01 -1.7072659191227452e-01 -3.1986505975764490e-01 -7.4871546342124207e-01 4.8245245096619410e-01 3.4503216312744689e-01 -1.4816342275384661e-01 -3.2996292712967662e-01 -2.6662380526669489e-02 -1.9728906587094957e-02 3.2267870218239497e-01 -5.0711134417949355e-01 5.4064284232328363e-01 -1.7061580574391791e-01 -3.2806646129434314e-01 -4.5993766746794468e-01 1.8119425135757936e-01 2.8224120011159803e-01 -2.2366839280537779e-01 4.1230598123072715e-01 1.8701160748774412e-02 6.0245831003921857e-01 -1.0740150754736055e-01 -4.3905939655523946e-01 -3.4749739412638270e-01 -2.8218968043772807e-01 1.0455230961720059e+00 4.1875344513624196e-01 -3.7147439049814346e-01 3.2116475996410411e-02 -5.6268414985126920e-02 4.2760429416748647e-01 -2.5062768784995476e-01 -1.2981336625949591e-01 4.1728079973001075e-01 4.9511760282990852e-01 -5.2626536922849916e-02 6.5160599622675758e-02 4.0375168759641428e-01 -5.1817251065453840e-01 -3.1321853805541527e-01 -6.2032563209605251e-01 -3.6028808501491816e-01 -2.2982351301675637e-02 -1.5306631873033852e-01 -2.4462310539265594e-01 2.4789677508987171e-01 -5.3338087390439784e-02 -8.2024621295303768e-01 -3.2242946661987298e-01 5.6596030470536618e-01 -1.4125833759961126e-01 2.1816835140953311e-01 1.9415681001686103e-01 -4.9658321887287554e-01 -6.9205415550142635e-01 5.6128593094428136e-01 2.4631427608651801e-01 -2.6271868310394531e-01 -5.4697439857473974e-02 -4.5536684263946386e-01 1.6910656841587032e-01 7.3742130283286056e-01 4.2578582100861191e-02 4.2485292255044477e-01 5.3339799161129842e-01 3.1071940157143024e-01 -5.1984531127033429e-01 -2.7311948388905292e-02 -4.9618863995361684e-01 3.2134170614575813e-01 -5.4763567295832050e-01 2.4218601380102411e-01 3.4531587852553514e-01 5.6821954644850603e-01 -6.1801924064332124e-02 -4.4458583443702049e-01 -2.3518239454716997e-01 5.1771947141759911e-01 4.0820285474243839e-01 -3.6572530039812240e-01 3.4931838695344247e-01 6.7752711558003953e-01 -2.5972685625388298e-01 -1.1530619297279426e-01 -3.8210283971765052e-01 2.4820061758011913e-01 2.8174883633290931e-01 -5.5081514435791831e-03 3.5827182424717702e-01 -2.8290164925250810e-01 -5.6123646675234062e-01 2.1585767737090156e-01 6.4246025004318508e-01 2.1183456767323630e-01 -4.4556965754448263e-01 5.3906565531770041e-02 -6.1211402233519652e-01 2.5134854401777074e-01 6.4070736078776294e-02 8.3905662877713436e-02 5.6011781484496294e-02 -3.1263183193408911e-01 -1.9833092149875119e-02 4.1754913090882168e-01 3.4560536993827373e-01 -3.4584909304820804e-01 1.7960302714196361e-01 
      </Weights>
      <Biases rows="50" cols="1">
        -9.9194361359448951e-02 -1.6191378994464581e-01 -3.2678116084511938e-01 -4.4975364682598040e-01 2.5227466910345658e-01 4.7663944041397099e-01 2.9876841188414577e-02 -4.2697809343570903e-01 6.9432559508639094e-02 -7.4243792852555957e-01 3.8063669014887767e-03 -2.7774354585904210e-01 3.7717093726177714e-01 -5.4645592955015192e-02 2.4989333044677142e-01 -1.4785085344974139e-01 2.1556604030987281e-01 -4.4776837027953681e-01 -1.6346656336037990e-01 -1.1024609977611999e-01 -2.2221317801403673e-01 -5.3533591945759185e-02 -1.5336647015824123e-01 1.1784489222405949e-01 1.9932320386673524e-01 1.3957568130946238e-01 5.3131175547623588e-01 -1.2934146825518239e-01 5.7522155352187007e-02 -2.0028435803980715e-01 -3.7177234984629395e-02 -3.0543285418058874e-01 5.3718072990260976e-02 -8.5589158634345533e-02 1.8681052152651756e-01 2.7795999856582138e-01 7.9385577987922916e-03 -5.5685503245017268e-02 1.5917239193356827e-01 -5.6659717513373553e-01 4.5646453659696690e-02 -1.7132374275079387e-01 -1.9297693359654605e-01 4.9499121655911965e-01 2.1400079076178236e-01 -2.6048539287873285e-01 1.5609303101402457e-02 2.7680175708491939e-01 -2.0313493075756358e-02 1.1079789051591341e-01 
      </Biases>
    </Layer>
    <Layer ActivationFunction="3">
      <Weights rows="30" cols="50">
        -1.8468570383897459e-01 7.3055327447743360e-02 1.1312649347392179e-01 -1.2114123226676296e-01 -1.6686296812450474e-01 -6.2027799725280990e-02 -1.8181931954492672e-01 -2.2377142961445468e-01 -1.3140588310524384e-01 6.9266965946331929e-02 -1.3157545594262857e-01 -7.7905296676492545e-03 1.7856192792186861e-02 1.6491682980885525e-01 -1.5260945766948228e-01 -7.5265114894372695e-02 1.7588856804970321e-01 9.9130518672647192e-03 4.0269816227917225e-03 1.7684584770659398e-01 -2.1440386633223588e-01 1.9783016574191151e-01 1.5506971589188542e-01 -1.2839413915193931e-01 -1.7961637300524680e-01 -1.1333628421213163e-01 7.4617945917769282e-02 -7.5813367333893086e-02 9.2419952881100442e-02 4.7472743725749687e-02 -1.8019331117113319e-01 -5.8168433988120681e-02 -2.0506505538072770e-01 -1.7752315197666613e-01 -2.6465453436324083e-03 1.3019352208196591e-01 -1.5564993955640308e-01 -1.3272718121364799e-01 1.4463517172056300e-01 -1.0723356829190893e-01 -1.8946122018247069e-01 8.2268934577362354e-02 5.9359056114351376e-02 -6.7471001595663688e-02 7.3585527383184047e-03 -9.5888442512755447e-03 3.0947838886287455e-02 4.2038876550947860e-02 -5.5654036442245002e-02 -4.1738987633009469e-02 1.3500680495705134e-01 9.7832678726819791e-02 2.9366953788025753e-02 -9.5191844346252108e-02 -3.9481675917262878e-02 -1.7262029461586362e-01 1.1036488263619579e-01 6.0900080610522524e-02 4.2540503859428190e-03 4.6812782712980696e-03 -9.3995157327373763e-02 8.0710068792814338e-02 5.0701362967803282e-02 1.4431741788509614e-01 1.2545908699324371e-02 -9.0203671998066060e-02 -5.0459530060878346e-02 5.5041168640610420e-02 -1.1612229108932419e-01 -8.5592061603342123e-02 -2.0907161582084777e-01 1.7630654278146071e-01 1.0337043033287922e-01 1.5057040550096618e-01 1.1869603863944178e-01 -2.0190352629428820e-02 3.8560089542704762e-02 8.1522110020747510e-02 1.9951543310238472e-02 -5.1596817207773711e-02 -2.1623547986686981e-01 -7.2877483993646880e-02 -4.4617752149827883e-02 3.9176885330181772e-02 -7.0943667000883517e-02 1.2875031203840026e-01 2.0229396015332665e-01 1.8933624730589479e-01 -1.5168345643664166e-01 1.1646863868622616e-01 -1.1069628793497337e-01 -9.0069687130703679e-02 -2.4073989741215787e-02 4.4033080333285686e-02 3.2291141642831811e-02 6.0689253157869952e-02 1.2050891887999375e-01 1.5608945473814401e-01 -1.0967410554912037e-01 -4.8076469928166492e-02 8.5733106890633889e-02 -1.2607004984976727e-01 1.8206367857188782e-01 -1.2836939628782648e-01 -2.0281799744436443e-01 3.7860436092312211e-02 2.4975131250813162e-01 2.2182524441292384e-01 6.7177629471376538e-02 7.0330733155748136e-03 -6.3313575180350343e-02 -1.0902872368025802e-01 7.6839891410469791e-02 -2.8747762979578664e-02 -1.8691610835663766e-01 -1.3850916145799310e-02 2.0871850667022390e-01 1.2863168950197501e-01 -1.2986673664188506e-01 4.5050677958790641e-02 -5.4466229186290155e-02 -7.8895551754346108e-03 -1.3456123514841014e-02 -8.2359432167131930e-02 -6.8884111256747843e-02 -1.9557838055555415e-02 -2.0911660938751972e-01 -3.9952746431067804e-02 -1.3210630237683731e-02 4.2594606613528113e-01 -8.9913013143607334e-02 -1.6873030230531164e-01 8.0154194729326014e-02 8.3208731579152706e-02 9.2598080579602435e-02 2.6896150747255620e-01 -1.3426523332770235e-01 -2.0719013150455497e-02 1.8524109200389605e-01 -2.0201165294828305e-01 2.1419321672989081e-01 -1.3581315472322478e-01 8.2481771453944183e-02 -1.6825666024871586e-01 9.0529242634573140e-02 -1.3220892258645212e-01 1.9062374943018254e-01 3.1950784195098232e-02 -1.1112246916263610e-01 8.2844201012436530e-02 -7.7427091387893096e-02 7.2781103586711179e-02 1.1704151612179842e-01 3.0441192652340243e-01 2.7051580791353952e-01 -1.5678389229407372e-01 -4.6069027878041274e-01 -6.1856679650370838e-02 2.0332710202927229e-01 3.8019690775395887e-01 -9.1273918588238134e-02 6.6256288348977288e-02 -1.9264245149771458e-01 2.3820688957989866e-01 -1.7197734780110943e-01 1.4070805061901889e-01 -1.1901676856766116e-01 1.3189664890729055e-01 4.9596476418971197e-01 -1.4712834204521438e-01 -2.4420881657852556e-01 1.7061034930920463e-01 2.4511539301228752e-01 1.9126757990617901e-01 -1.8965938922363809e-01 -7.3603896052150092e-02 -3.0813950464046708e-01 -2.0209010624171087e-01 -6.4918115823539735e-02 -3.1307428345061167e-01 3.2039415493707514e-02 2.1177488736066918e-01 -2.1663885759021304e-01 2.2869643917172319e-01 -9.4198869998167983e-02 -3.1617266000569832e-01 2.0774186635181599e-01 -1.4491558977239427e-01 1.3192446980422762e-01 -7.0171222580896628e-02 -3.0743454354603150e-01 4.1404924277145275e-02 2.4113747213395506e-01 -6.4460107439667597e-02 -1.3698815639023862e-01 -1.0907091014378927e-01 -1.7261642163232419e-01 2.1253450228263285e-01 2.2048340926642113e-01 -2.5939413080908774e-01 -1.6561560010445112e-01 -1.4798298609700994e-01 6.5999438825247558e-02 3.4419837924488599e-02 6.6922531692602899e-02 2.4967828356756160e-02 -8.1271699481496165e-02 -4.4813526755846621e-02 -1.9278447106044250e-01 -6.2899285077341605e-02 1.0757307898914878e-01 -2.2149041496333750e-02 -1.8019610880259929e-02 7.5661384072751039e-02 1.5122831415560453e-01 -1.7441767422454474e-01 -1.1782009492937946e-01 7.0028221348010539e-02 -4.6467462134909938e-02 -9.4625155532593458e-02 1.3005841418631853e-01 -6.6050403721645001e-02 -8.2651376485925993e-02 -1.3460308222295778e-01 -1.9513773565520093e-01 4.4724243253274100e-02 3.1504076522186820e-02 6.0666538184172634e-02 -8.8477859028128297e-02 8.1566865038203307e-03 -3.8284388436097133e-02 4.7045689874982692e-02 1.5251270273080078e-01 7.4958768572483708e-02 -1.9507134103567556e-01 -1.1514208114982766e-01 -1.2214528475112330e-01 -1.3099133473392108e-01 -1.0094548692448363e-02 7.8835143475977976e-02 -5.0709082760739987e-02 -1.2187312437327512e-02 1.0095047948267483e-01 -9.4056069923069308e-02 1.6109230221686442e-02 6.3008911072694143e-02 2.2740811659933444e-01 1.1740409673935727e-01 -1.4750767082366808e-02 1.9880806581631461e-01 9.1596540700571272e-02 -1.0408175997548805e-01 -8.8943807918253695e-02 -1.8214021273013076e-01 -6.2754885435357552e-02 1.5576723579198531e-01 3.5481602062948037e-02 -9.5246121676319143e-02 -1.5143306953928876e-01 1.3417305492417347e-01 -1.9997047310483843e-01 -7.6368103296987327e-03 7.5553668074991864e-03 1.9677340409752458e-01 1.6887217506278401e-02 -1.5769274903307320e-01 1.0165179245225264e-01 7.7103255325296077e-02 1.9343405502995570e-01 -1.1403966825433080e-01 6.1834687968590635e-04 -6.9835399566696738e-02 -1.7624325948940986e-01 6.1099665441158267e-03 -1.3602173833097131e-01 1.1987603595821403e-01 -2.0442242343962000e-01 -3.2408110641389216e-02 -1.8722613696075793e-02 -1.4322493113257828e-01 -7.7201100311270060e-02 1.6769085028985939e-01 -1.1504168640082811e-01 -1.1165749049133317e-01 -1.3597890365970855e-01 6.6243748939320335e-02 -3.2776609064565046e-02 -1.5044638981280539e-01 -1.7846937582750375e-01 -2.2169818885122487e-02 1.2063864901838982e-01 8.5410855495559809e-02 1.3590704645342497e-01 -1.2569446152250119e-01 1.2941006274146263e-01 -1.2100687586409761e-01 1.3556009002421823e-01 1.3553856933464312e-01 -8.1058089403585804e-02 -1.2868046279316989e-01 -1.0333203627925566e-01 1.5649876771143136e-02 -9.7445461239975106e-02 1.2560342764478594e-01 1.3536165305759598e-01 1.2872225203769150e-02 7.9151639094190179e-02 9.5866859337195728e-02 1.0986348138818933e-01 -1.6490048575920266e-01 1.9536985459004574e-01 1.4446363850173186e-01 9.8990082959542841e-02 -1.4195503600026227e-01 1.2071082334620573e-03 -4.8222919464616702e-02 -1.4820080492524948e-01 -1.3040636151878102e-01 2.8076387751906573e-02 -1.6677324809970726e-01 1.0852527212832605e-01 -1.2751434646931242e-01 -1.0816734009223328e-02 -1.2854596682763234e-01 2.0005651680137421e-01 -1.6908373319049258e-01 -7.7041441909151201e-02 -8.9996797156733754e-02 1.6404180482327063e-01 -2.0582897825359020e-01 -2.0377653356560839e-02 1.2215892104694363e-01 8.1559478636273067e-02 1.1684948014925935e-01 -9.6278265387272688e-02 1.3309792399733023e-01 1.6822883794282695e-02 -1.6244706820110144e-01 -9.7095717157789488e-02 8.3697579915313972e-02 -4.6492258584023741e-02 -3.4061990172171736e-02 1.1545222738111478e-01 1.4850069835751947e-01 8.2841988031904417e-04 -1.7298882414664871e-01 1.7899878890626847e-01 7.6359595665960484e-02 -8.2261371875288480e-02 -1.5554580934640391e-01 -5.1635883316759619e-02 -1.9259319326505067e-01 3.2644338059726989e-02 1.7801633788591373e-01 -1.6846934985774165e-01 -7.9038157562180245e-02 1.1314773618235606e-01 2.6918163051446242e-02 1.7048311381656525e-01 1.8719629355082396e-01 7.4223039641437352e-02 -1.2698611013135591e-01 1.5576267169680005e-01 -1.0314919161485424e-01 1.6370334699873104e-01 -8.6626193240318519e-02 -6.3942639861386638e-02 -7.6145749178077593e-02 -1.3648063089873619e-01 1.6028882481872375e-01 -9.0340322207298623e-02 1.4398269362724217e-01 -7.6564018420293908e-02 -5.6946407563198902e-02 1.2207217914261222e-01 -1.3077600785976090e-01 -8.4096276219452690e-02 -9.2931811640551865e-02 -1.2010969204872607e-01 -1.2913315899991504e-01 -1.1229972163512637e-01 -2.3559326173398214e-02 -2.7944060717011191e-03 3.5760745533120294e-02 7.8749140863073497e-02 3.8474579655580238e-02 1.8337015673591320e-01 7.3215002322031099e-03 -1.2823467271402563e-02 -1.7545915671560081e-01 -6.7662158650384913e-02 -3.3859760920835195e-02 1.0609586653085402e-01 -1.0778429389103311e-01 1.7238434520549857e-02 3.2386069741291788e-02 -5.3349681177094718e-04 1.5040695970455828e-01 1.2858859915608650e-02 1.6967708326942460e-01 -1.1451936181942474e-01 9.6861675533547936e-02 -1.0652592925779424e-01 -1.4074510500232190e-01 2.2284563533230797e-03 1.0956353677018141e-01 8.8784934196928705e-02 2.0859344256579926e-01 -1.3094414857398512e-01 -4.8842258237599447e-02 -1.2768016396895876e-01 7.5462436195265117e-02 -1.1829122233887461e-01 5.1606815960717901e-02 6.3592444041274988e-03 9.4398227944729393e-02 -1.6435642700757488e-01 2.4312492393621968e-01 3.0178443524494818e-02 -1.2533768836866449e-01 1.1930909488800995e-01 1.4824629957679553e-01 6.4531403779891292e-03 -6.3301460784852021e-02 -1.0295591916763117e-01 1.6040808234365728e-01 -2.8512260095633307e-01 9.5021205409561216e-02 3.2176242531203721e-02 -1.3669607965900304e-01 -8.8179158220987430e-02 -1.7650350678273863e-01 -4.2580828033784912e-03 1.3392704514614176e-01 1.4830525996391258e-02 2.4025417681492144e-02 -2.9725105169303778e-02 3.9296126820693673e-02 1.9733899092967255e-01 5.3019226358530978e-02 1.6407656235730614e-03 6.9215392939731363e-02 2.2614988503247731e-02 5.3689853216302937e-02 1.3110658259101723e-01 1.4514310074645009e-01 2.2624481507835692e-01 1.3190514839785337e-02 -1.9735051156437252e-02 -2.5992270857735224e-02 7.0584636124289585e-02 -3.4376533155080419e-01 1.7564553073095085e-01 -6.0928179267452309e-01 -7.8437057071973126e-02 7.8345459329026770e-02 3.3275879032130368e-01 -3.6987107199102996e-02 1.3880884361036894e-01 6.9969167453744860e-02 -1.1866683635154926e-01 -1.5565523398293762e-01 2.5420979816482997e-01 -3.2470368967085472e-01 -6.8182450928975791e-02 -3.2842326099439256e-01 3.1392139130764196e-01 -8.8229151565444516e-02 -3.6334294356581753e-01 2.4888070212691928e-02 -1.2728362492957457e-01 -2.4493146022121554e-01 9.8470758012768805e-02 -2.2709601998920370e-01 1.5826513771833367e-01 9.8119847633273582e-02 1.0464080085627614e-01 3.4426694788793932e-01 -5.7226597851922481e-02 2.2829327903772259e-01 -1.2620668778485958e-01 -1.0362581485402537e-01 4.9742986533316741e-02 2.6998354382970358e-01 -5.2506287537747220e-02 1.4115242577956169e-01 -2.7651731386368128e-01 -1.7664182499082209e-01 2.1177362876335523e-01 -2.7277183619196571e-01 1.8794818876092870e-01 -3.2766611719592065e-01 -1.0032851442791080e-01 4.4555234693986430e-02 -5.6825303098705245e-04 1.9015998848924687e-01 5.2819951879082741e-02 5.3395323338664626e-02 4.8850352938656916e-02 2.6877212993892918e-01 1.9306282570411534e-01 1.7523947948310967e-01 1.6759727422953083e-01 6.0081256681538322e-03 1.7432176429974997e-01 -2.0038228802503319e-02 7.4375829800657819e-03 -6.4717775960980023e-02 1.4166648260554338e-01 1.4038451026547960e-01 -1.0530722639496326e-01 -1.7975765541429556e-01 -3.7038763291048542e-02 1.8340297200103789e-01 -1.2504320237268676e-01 -1.7257840771871144e-01 3.7330114324994619e-02 1.7954007153004450e-01 -1.2442040881489418e-01 -1.5231269949443828e-02 -2.4069007271746854e-02 9.1741121164344810e-02 -1.6268485185705756e-01 -1.8493184618688122e-01 -1.1297835309029431e-02 -1.0631156883993846e-01 -3.4935931632626517e-02 1.2252065987174302e-01 8.4971459898160795e-02 -1.2659625408917510e-01 1.2597917822996174e-01 -3.9908273327751043e-02 1.3711590208664784e-01 -1.8854145947885170e-01 2.1940692975461804e-01 6.7065784530960133e-03 -1.2421982842458089e-01 1.6682756925240064e-01 1.0016636687217403e-01 1.1927431457967515e-01 -1.2953983987711601e-01 1.2122456993254246e-01 2.6590350904861617e-03 -2.8207598527944133e-02 7.4006006920332698e-02 1.1981981677553805e-01 -2.2585767100473060e-02 2.8559283041571714e-03 -7.1136185280105376e-03 8.8122800047797434e-02 -1.7719761805860756e-01 -2.8669810406084482e-02 1.3502584277663124e-01 -9.1287146868925875e-02 -1.4851199324724423e-01 -1.2854211219384545e-01 -7.7505504108025300e-02 -1.7680633284157846e-01 -4.1026715563096068e-02 1.3092504979648595e-01 -1.2583523281657440e-02 -1.4262709749504873e-01 4.8669286947198978e-02 -9.4505013883156075e-02 -4.2900929760665070e-02 1.4913559490428407e-01 1.4061475901261958e-01 -6.5251836983238665e-02 -6.1172813610046339e-02 1.1882276611473570e-01 8.9966261339902126e-02 -2.4158515637633795e-02 -1.4896551266738101e-01 1.1392828713184465e-01 -1.5690463866224150e-01 -1.6407369921943180e-01 2.5771925463779810e-01 -8.8351321490520607e-02 -8.3690483881305858e-02 1.4700601441094892e-02 4.0649540583195989e-02 1.0470462465247792e-01 -2.2621145944334977e-02 -4.4157036930744978e-02 -7.0941213121453295e-02 -9.0068013135203254e-02 1.4732999583648720e-01 -9.1097475464138516e-02 -6.8904210198608332e-02 -3.7225990535942118e-02 -1.4878493460749762e-01 -1.0835837979477675e-01 -2.1865851761615873e-01 -1.8723384142570917e-01 -5.5059991102750575e-02 -1.3623549084758263e-01 6.3276675646231295e-02 5.9396941228614823e-02 -7.4513815887918153e-02 5.9895979271251173e-03 -2.8793975054411775e-01 -4.4474610709599197e-02 -2.2928588728395086e-01 -1.4982823170529791e-01 4.2310190570126985e-02 7.6329567011062346e-02 -1.6546046461058059e-01 -3.1020229716912945e-01 -1.5601599748873130e-01 -2.0885973211101672e-01 2.3566998066317435e-01 -1.2452943775970923e-01 2.3010381850809711e-01 -2.5849022183196915e-02 2.0001591107108563e-01 -3.7907495899887572e-01 2.2431647488327924e-01 -1.7647421499654900e-01 -1.4397451294268923e-01 -2.2807617918976131e-01 -1.6867527248157668e-03 3.5015161270043081e-02 -2.2631823209471615e-04 1.8515811549723976e-01 1.2649964999776209e-01 3.1312381823471069e-01 1.5254637907178398e-01 -2.0863071730133395e-01 1.5813222434993868e-01 -4.9827798318316335e-01 -2.8291251660598821e-01 1.1663612408769196e-01 -2.7866819171150076e-01 1.0381459262073899e-01 4.8590121583961622e-02 -3.5670706019794433e-02 2.9482205462035327e-01 -3.5715497234757282e-02 1.1808944701734800e-01 -2.0153867958329216e-01 1.8093978038530778e-01 -1.1065783020785855e-01 -2.0473563776726580e-01 3.8530814164403016e-01 3.3403077327995045e-01 -9.3868112120922068e-02 1.1469069482027625e-01 1.3854650150916234e-01 -1.7195592235058810e-01 -3.3775619609943276e-02 3.7274062973621562e-02 3.3832245419472100e-02 1.8438872834783823e-01 1.3869101564206265e-01 -3.7477718635411945e-02 1.4998467457124345e-01 -9.3976686046229538e-02 -1.4822182012251484e-01 -1.1056141941255948e-01 -4.7477880043851020e-02 6.6187850105189549e-03 -4.3047080749978268e-02 8.3402178867446317e-02 -1.5512571452961491e-01 -8.1760230966983025e-02 -1.4950186350037339e-01 1.5890500300761320e-01 5.0654069853170725e-02 -1.0100330029860867e-01 1.9954134310896024e-01 -1.6099221171747682e-01 1.9905078264373030e-01 -2.6021991671747732e-02 1.7019079734605741e-01 -1.0488743663056320e-01 1.1963134453414086e-01 2.3410379708053269e-01 -1.8261031838435518e-01 -1.6087179663529244e-01 -1.0722408355409829e-01 -1.6320182381608234e-01 1.4405212864687741e-01 1.5418189210038027e-01 -1.3605153576373857e-01 -1.4603155788118544e-01 -1.2003069058041731e-01 1.7888455996820418e-01 -1.0591811227550685e-01 -1.2862561088724600e-01 2.2601229361164300e-02 3.7088737098235375e-02 -1.7663733296064368e-01 1.6796318537732000e-01 5.4701642766196532e-02 -2.1000713527963438e-01 -8.7313797216122160e-02 3.1295163760014552e-02 -3.0703764411250747e-02 -1.7021550997896878e-01 -1.1417696111537801e-01 -6.9823738165094865e-02 6.2867706657525656e-03 5.5247248888520721e-02 1.7452957754766413e-01 1.7835839983952789e-01 -6.5608556165745430e-02 -1.4981022939251484e-01 -3.4098372570806286e-02 1.1283627426116952e-01 1.5719347848109447e-01 1.4839079573952982e-01 8.4699638913563510e-02 -1.6493993915349597e-01 9.1312754567047183e-02 1.6237253277268512e-01 1.8513412361447515e-01 2.0130297043344550e-01 -1.6306512860804928e-01 9.1681947073108477e-02 1.2277340591995436e-01 -4.0343727191099660e-02 -1.9079088700645727e-01 1.4658515116036680e-01 8.4664979842247079e-02 8.2097862465446148e-02 -1.9075900863514700e-01 1.4813245773508349e-01 -1.3663282058477649e-01 -1.5837296002319542e-01 4.8007382448782103e-02 6.4340898373040287e-02 -3.0541852343178248e-02 -2.0931446050505378e-03 3.6935016587362904e-03 5.6635383075899340e-02 1.1514937293952517e-01 -1.9789860445245627e-01 6.7441654326859515e-02 -5.6309258596471221e-02 1.3459887168835477e-01 -2.1534512326987446e-02 -2.0334473107124779e-01 9.7530963999156381e-02 1.8753300854369875e-01 7.0984119836103171e-02 4.2009694342110923e-02 4.4395929715106480e-03 7.3815470588514204e-02 -9.7650000951222851e-02 1.5193510983157044e-01 3.0114293687395339e-02 -1.1305640621549695e-01 3.2447653627578266e-01 1.6582848459002036e-01 -1.5793818308428853e-01 -1.8397543724472790e-01 7.9483300936255677e-02 8.3936796682266432e-02 -2.6137934499655759e-02 2.7063183162415788e-01 4.1002677271581106e-02 1.9530648902849276e-01 -1.4941880900608789e-01 5.1345135132766465e-02 -1.9863684043546614e-01 -1.3361508811374581e-01 1.9779550567983296e-02 -2.5818428047172515e-01 4.3980633355591395e-02 1.4657114040830757e-01 1.4831955150152129e-01 -1.5607189821186876e-01 4.5863901947165137e-02 -2.1791798213848715e-01 -1.0218158901346121e-01 -1.3155284253346340e-02 1.3598791900151716e-01 1.1005109087120148e-01 4.4859907819570499e-02 -1.3455880975628237e-01 -1.8164386898897117e-01 2.0541435322127660e-01 -6.9067412021229527e-02 -1.0366057695463501e-02 -7.1829202862819186e-02 -9.5339077459471441e-02 1.3036832232563350e-02 -5.6738313643015480e-02 -3.1664135550502498e-01 1.0336338985587404e-01 2.2055964372606041e-01 -3.1709543341754326e-02 7.4166280285547503e-02 -1.5379018812774131e-01 -2.6412618503154212e-01 2.6154236512472112e-01 1.0179116326584221e-01 -1.0522633806859635e-01 -4.1533011203122402e-02 -1.4766324318121740e-01 -4.6132048306802502e-02 2.2434516545808462e-02 1.7927502681474738e-01 1.6739074491797945e-01 -1.0920153025355468e-01 1.1949639054696093e-01 -9.5585914986657264e-02 -1.5111816004980597e-01 1.5695292495473989e-01 1.1947391488621519e-01 5.4477840358454085e-02 -1.7716021939670537e-01 -9.3796847393057978e-02 4.0163962971933614e-02 1.2275430672880909e-01 -8.1695090757724520e-02 8.2959089609551451e-02 -3.3984580144015022e-02 4.0709853043758376e-02 6.7833820488012841e-02 -2.4179024982933530e-02 8.6208060941945511e-02 1.2929076220437230e-01 3.5623452501083390e-02 -1.4889533542182667e-01 -6.2534853951231234e-02 -7.3131709403452344e-02 -4.6656506586407308e-03 -3.3091784649485624e-02 -3.4017774847939289e-02 -1.9913100647425050e-01 4.3025045153726807e-02 -9.3537359254302274e-02 1.8120582715655646e-02 -2.9660249042358346e-02 -1.9368810113774620e-01 -5.3887365073135990e-02 -1.4969631546405407e-01 -6.7959696101574096e-02 -1.0613234064012976e-01 6.9297912253910007e-02 -1.6861843307978666e-01 -1.8016386917279861e-01 1.4268092370787014e-01 -1.5179877180160320e-01 1.3860498674545435e-01 7.4448201459652655e-02 1.9353443867770409e-02 1.6147269230331782e-01 1.5985756380718227e-01 6.7937656111480768e-02 -2.7750649500775376e-01 1.3724175639274452e-01 -5.6207782959384789e-01 8.5171280328134327e-02 1.6446455973935212e-01 1.6990208261612907e-01 1.0260171793466517e-01 1.8911907248654838e-02 -1.8214944017115339e-01 -4.0802869593297909e-02 -1.9620995012706555e-01 2.5868520306986820e-01 -4.1749509908346855e-01 4.6424656112820102e-02 -1.1033843570749670e-01 2.3108922434116586e-01 -5.9577798567833531e-02 -1.8399051555265611e-01 2.1690220296496926e-01 8.8110157673570985e-02 -3.5198671201634496e-01 1.9829811964094007e-01 1.7958296994387413e-01 1.3809964760535426e-01 2.9826248532830640e-01 -1.6467253563405232e-01 1.4840394190621556e-03 -5.2070711638720450e-02 4.4373289033978963e-01 -2.4800960536599342e-01 -2.0948996493473673e-01 3.3763314492943436e-01 -7.3225838578450414e-02 -7.2172787882950739e-03 3.2273257613662609e-01 -1.1192894498806479e-01 -2.3690262994149300e-01 -1.7642664932906299e-01 -2.2533403355031503e-01 -1.3147473181475156e-01 1.8083067001786740e-01 -1.2026310125975370e-01 5.1683767846065631e-01 1.2617684026918813e-01 8.2376654230463409e-03 1.2987652325502333e-01 2.3687779373606704e-01 1.9084139574758491e-01 1.6494707542394474e-01 1.5540210955107533e-01 6.2377827971128751e-02 -1.4543403298060845e-01 4.5640594379179909e-02 2.5947692231418351e-02 -4.7698234868001836e-02 1.8313541932580218e-01 1.2624462206278075e-01 2.0663218592118399e-01 -7.7576195596024397e-02 -1.9034719545243556e-01 -2.0681616743954571e-02 1.1048263281693300e-01 1.6278660279661725e-01 7.5942333152849064e-03 -1.8275338211116543e-02 -9.1522952302140650e-02 -1.2812859277048916e-02 -8.4350486000158834e-02 -5.5546554179080568e-02 5.1045491061268225e-02 6.5609992458248126e-02 -1.0356183775339502e-01 -1.4161821715912687e-02 3.5530907381882103e-02 1.3044443987131227e-01 -1.3385994176687649e-01 1.9465579644843253e-01 -1.8519883229664144e-01 1.5253664382051316e-01 1.1564344046840533e-01 1.2278796177510076e-01 -2.0224029171902619e-01 -1.8848777542988143e-01 6.0381691605488230e-02 -8.1345672282745959e-03 -2.1052062109417952e-01 1.5696295893071829e-01 8.4378522746772072e-02 7.3697025620532292e-02 1.6229444220883119e-01 5.7883396139655097e-02 5.1301023576663204e-02 1.4298311801721642e-01 -2.0315544656036102e-01 -9.9388510233087937e-02 1.1515491429193821e-01 1.7179964873090808e-01 -1.3631265825622821e-01 -9.6264400667923494e-02 -1.4448597051758055e-01 5.4552988327215878e-03 6.8178163102785849e-02 -1.8297827041921769e-01 -4.7945036089361216e-02 -1.7249968163590970e-01 -8.7163913090190920e-02 4.7761293668845510e-02 -1.0873184530930767e-01 -1.5993829222793376e-01 -1.2339402652895422e-01 -9.5606220829268104e-02 -5.1311584136424580e-02 -1.9948850129568388e-01 -1.5848114005473646e-01 1.3395654140181126e-01 -7.8550113812719743e-02 7.3989675604736543e-02 -4.5705557546347503e-02 -1.5430199241035447e-02 -9.6094095099737153e-02 -1.5947219786535877e-01 -6.4528373954431178e-03 -1.4018498894493717e-01 9.4905346564957985e-02 1.0590256938754122e-01 -2.9971874784567351e-02 6.6598046283738555e-02 -1.5303989727079809e-01 -1.1368584461194771e-01 -3.4373308702470476e-02 -1.0087653693166998e-01 1.5736671747687145e-01 -1.4044507602264306e-01 1.3246966701897525e-01 1.2377484436295327e-01 -1.9837868290841473e-01 6.4195159472927796e-02 1.2904399759586882e-01 -6.5036154446328348e-02 6.0520174796844621e-02 1.3948795967456509e-01 5.0819213480359999e-03 1.6527747758295505e-01 1.6079182285013732e-02 -3.3437111089861971e-02 -9.5065859369006286e-02 -2.2483962318343098e-02 1.2625628891587973e-01 1.2965657981176643e-01 5.0616330871819937e-02 5.4053446138622487e-02 -1.5324752303902259e-01 1.4846859559573022e-01 3.3327114651529190e-02 3.4467327730521108e-02 2.3678022780907883e-02 -1.9516172209569060e-01 1.2237217245683418e-01 -1.4327236924362169e-01 3.2930579855795242e-02 -1.2406520170556902e-01 -1.4279514955385442e-01 -1.4304898252446571e-01 1.0241663536993395e-01 6.0312844525605563e-03 1.8625542905248527e-01 -2.2822958441349403e-01 1.3830756140516473e-01 1.1591540796428579e-01 -1.2316473056881029e-01 4.6748263935769925e-02 1.1238890153419469e-01 -1.6546780481370296e-01 2.5338644318932790e-02 -1.2797895762814210e-01 2.3884794610272883e-01 -1.4320164842680672e-01 7.5244716903021480e-02 1.1693105598805079e-01 -1.6181706779335966e-01 -1.4449376945488737e-01 1.4417208685743999e-02 -2.1995420565064158e-01 2.0943240337497976e-01 -2.0079491064924798e-01 4.0058115656319844e-02 -7.1723729439997899e-02 -6.3511917957136871e-02 1.8899357673910488e-01 1.2423537015958359e-01 1.7064272133816547e-01 -2.0411238302984197e-01 -2.0895000386328605e-01 -1.3829479971698438e-01 -1.4372971276057475e-01 1.3544067357356057e-01 -1.5819499573199733e-01 1.1752944903567038e-01 -9.8463683135520161e-02 1.5762439662913375e-01 4.0248210934721598e-02 -2.1478804461830825e-01 -1.8631968850130584e-01 -1.2961606609552886e-01 -5.4501066549113859e-02 -8.0045672349175520e-02 1.0353379322125371e-01 -2.4415269495207889e-01 -2.0561806416059586e-01 -1.5770760765596264e-01 -2.2673609252483785e-02 -9.2558403847177270e-02 1.1303940653015250e-01 -6.5157084180984745e-02 1.9094379057401689e-01 -7.3193556206591348e-02 -5.0494245701012741e-02 5.1159895422203481e-03 -6.7657132347817353e-02 2.0445252743730741e-01 -1.7281465451069894e-01 -2.0482640295914670e-01 1.4209547959143445e-01 5.4075092625543913e-02 -7.0848174164481970e-02 4.5971562104014707e-02 -1.2585455455163480e-01 6.0021962182676601e-02 1.5908579269086960e-02 1.5397400174699818e-01 8.7918113598172624e-04 -6.7838290039536498e-03 2.3035863881658544e-01 5.7861352914714843e-02 1.6909627057756291e-01 -1.7873485220579896e-01 1.5037371577275233e-01 -2.9733232741190755e-03 -9.9397589993970872e-02 -8.8756704923637617e-02 1.0944390125185511e-02 -1.9006118307297322e-02 -3.5351828944692174e-02 7.6156986250381031e-02 -2.5288122465509773e-02 -3.2992795383139248e-02 7.0231139911395624e-02 2.6166179597551346e-02 -9.0793488274684156e-02 1.4288862476420777e-01 7.8586232224176680e-03 -2.3328756379092830e-01 -1.6718328741275226e-01 1.3686630150987919e-01 -1.7907019888408549e-01 -1.3856604638061432e-02 -2.2509350648887000e-01 -1.4669955039860230e-01 -5.2271757951418356e-02 -1.3058052529054376e-01 -1.6454429745131821e-01 -1.1172819044310038e-01 8.8263385787878679e-02 1.6128482483410006e-01 8.7229950564140309e-04 3.5082765656312737e-01 -2.9373057727433377e-01 -2.8423786216374514e-01 -8.0821267305844713e-02 -1.3231440373346770e-01 -1.1504290924181843e-01 -2.2986247902362114e-01 2.0148941517211780e-02 1.5449558105100819e-01 -2.0928963408127579e-01 4.0585897775731061e-01 2.0819150095477049e-01 -7.3112211931425794e-02 2.0919769106063798e-02 1.5681634976126774e-01 5.5889572152444146e-02 -4.4867205978637116e-02 1.3112832067967053e-01 2.0753682044508193e-01 1.1765282720868499e-01 -1.0981473193948441e-01 -6.9103585021797920e-02 -4.3590948953570421e-02 1.8403249442632472e-01 4.6934140135114505e-01 -2.6673613956993680e-01 -1.1511393806820552e-01 3.6926288515774362e-02 1.8203005197698610e-01 2.2925679866629495e-01 -6.0080274191581046e-02 -2.2832003821762029e-01 -3.1138854787224838e-03 2.0704389194264755e-01 6.4265826316019695e-02 -4.3469466703801446e-02 2.2245828167954049e-01 3.3980591825669954e-02 -2.8832860800384063e-02 2.0180380224402404e-03 9.9799995615519096e-02 -2.6892835012553828e-01 4.0765310342254818e-01 9.8405317978010484e-02 1.3504671362891657e-02 8.7261959585377691e-03 1.5010340718491075e-01 -9.5788308420903370e-02 1.8614707543057704e-02 9.3100293413335505e-02 8.7783861069497329e-02 -2.5785095553417823e-02 1.7270653534525940e-01 -7.2449257560496694e-02 -8.0669172528234981e-02 7.6322303829442689e-02 3.3868358559643974e-01 2.4449192422730748e-02 1.3867082111096049e-01 1.9705258015835062e-01 3.0850612541256397e-02 -6.4200290161227996e-02 1.3974022467540220e-01 6.4785749567838743e-03 -3.4591303055895478e-01 -1.3635303941074314e-01 8.2047399326174067e-02 -1.2716402077143051e-02 4.1638182561798631e-01 -1.1284085903319560e-01 2.1424519071609017e-02 -6.9757917033000855e-02 2.1382449866034056e-01 -6.2052603150901720e-02 3.0499075327682958e-02 -3.9716652970342770e-02 -2.2777414593795606e-01 1.1887782285973353e-01 -2.7312967155741269e-01 8.7421393819133664e-02 -8.8520018454980753e-02 1.6754382956659736e-01 -1.9471853831028757e-01 -2.6812229001073495e-01 1.7875276364479448e-01 -1.7701528949655820e-01 -7.2674169156973070e-02 1.0789614058492461e-01 1.2241328817880234e-01 3.0996384281445452e-02 5.0495655436609679e-02 7.3363605406363219e-02 4.0709274882498835e-02 -1.0622683633265581e-01 1.5547129887081143e-01 1.9200966061884772e-01 2.1384170225113605e-03 -1.5090483350435591e-01 -1.3452057317443400e-01 -4.7963401381614507e-02 -1.0158119422636558e-01 -1.2331570698702296e-01 -1.8620292083791537e-01 -2.9692114292398257e-02 1.7491774364990828e-01 1.8647150052243713e-01 1.4462916286454933e-01 9.5791155681753296e-02 -4.7148123732625967e-02 4.1170031412820496e-02 -1.1967378124123781e-01 -1.2658101355877313e-01 -1.7325251507438222e-01 3.8190033719016470e-02 -1.0633486243631646e-01 9.2461268979540559e-02 6.3950547537613894e-02 1.1457642361252252e-01 1.6373180409351556e-01 -1.1084793770307853e-01 -2.2138268208556241e-02 1.6218714756061328e-01 -3.1205429709134243e-03 1.5066888035786527e-02 -2.0608405434688873e-01 -1.5150716417284896e-01 -1.6925866885236862e-01 -1.0876813623997283e-01 -1.7627234618110393e-01 -1.7967180787236969e-01 -1.4758888405190454e-01 -2.5550049766354183e-02 3.5682233230769675e-02 9.4627779447008335e-03 -1.3022202433269500e-01 3.9674772742423437e-03 2.6426244838987766e-02 6.9836193017184772e-02 -5.6107899067651706e-02 -1.9627157599414385e-02 8.0467885473784528e-02 -8.2138223185397055e-02 -3.8220642017551022e-02 6.4086900407488906e-02 -5.5772221113382654e-02 1.7688177839221858e-01 -1.6431710579258674e-01 -1.8795977725850517e-02 -1.8018417746948019e-02 6.2561254156548965e-02 -7.0959079884506254e-02 8.6042325352863214e-02 -1.6999746976136218e-01 3.7852277094851977e-02 1.3967316545032590e-01 8.9365911852130858e-02 -1.7264541933295999e-01 9.3031463439589047e-03 -1.1032329047839044e-01 1.5547111967659408e-01 1.5986219809986882e-01 1.2415276421932137e-01 -7.0620552244065285e-02 -7.1621585679544075e-02 -1.4312643761342739e-01 1.1220165499452006e-01 1.5230510557060376e-02 -8.1122539363961341e-02 -1.5335661925001805e-02 1.2376441884965644e-01 7.8648974602729516e-02 5.1190096829758197e-02 -7.1613104845612466e-02 3.4419385261079166e-03 4.7033393586957351e-02 -1.5508140748325119e-01 1.5687564049877445e-01 -3.3141224999955429e-03 -3.5762847007244296e-02 1.3907447657800531e-01 1.2044553565608082e-01 -1.2011988259098851e-01 1.2280230389815554e-01 3.1301821681609755e-02 -4.4945071307040736e-02 -1.8210180366631085e-01 -1.0318602438726758e-01 1.5217581546608080e-01 -2.0961766026569222e-02 1.6549737990655722e-01 1.4208338628818576e-01 6.8446691512572475e-02 -7.3637367917703062e-02 1.6066768116571192e-01 -7.4936325706049134e-02 -7.6355404301689273e-02 -1.4112369939664890e-01 6.2022964976759444e-02 -1.3890048123168969e-01 6.3717018711047013e-02 -2.5829830064650301e-02 -1.6123520660724983e-01 1.8361196940528252e-01 -6.6937238230498864e-03 -1.0132672812974879e-01 -1.0783163070998536e-01 3.2835120744929308e-02 -1.1835623222126361e-02 -5.8088788818801973e-02 -5.9612244398436744e-02 8.6939607885675424e-02 1.3345723778172350e-01 -1.3877149692265761e-01 -1.4569867522338745e-01 1.1815268659584709e-01 -1.4472294361148005e-01 -2.4310022594707617e-02 -6.6881585110062064e-02 -1.3638182451819908e-01 -1.7895657836214734e-01 -1.3712655306358068e-01 1.4987540008615130e-01 5.2246975041378062e-02 2.7975869918781114e-02 -4.3187081523832216e-02 1.2007966188350341e-01 -6.7000442924795428e-02 -1.6158629211908873e-01 1.1757373165243891e-02 4.2633865484069944e-02 -1.1604097393720475e-01 -2.2633982173599045e-02 3.3920232726185294e-02 -3.9328424973052736e-02 -1.5988150952795258e-01 -1.6157275053802525e-01 1.8675220639877729e-01 -1.6967321402799114e-02 5.4480785048824462e-02 -1.8714112982247041e-01 -1.4143788962692974e-01 -1.0567938568781393e-01 7.7816933469078697e-02 -1.5236734161548671e-01 1.5787164333486628e-01 -1.2524029112585497e-01 6.4779775765882990e-03 1.5990892173373056e-01 -4.6136750631690190e-02 6.1096171550913903e-02 -3.0666537489495615e-02 6.5900867970196675e-02 -1.2563332254008039e-01 7.0920336677261192e-02 1.5109470048585416e-01 1.2628597822443213e-01 -6.8275816861741043e-02 4.9502226568295456e-02 6.8808285700325850e-02 1.3952360742328684e-01 -1.7342126558548107e-01 3.0999058833615839e-02 1.9952463109014701e-01 2.4435957307828247e-02 -1.7292670900378632e-01 6.7732087694282059e-02 -2.3109617560069830e-02 -8.4542810825107895e-02 -8.9031843345446282e-02 -1.1356913744063156e-01 -1.7630268525959727e-01 -1.9634965239327601e-01 1.9000284716575902e-01 -1.3243571751323299e-01 -1.3153184652581414e-02 2.4187801031090819e-02 4.0818021362927087e-02 1.8914907480423789e-03 1.0267267975278516e-02 -1.6357957229572223e-01 1.5856932795736767e-01 1.2142909203669108e-01 -2.7794739510950150e-03 2.1202063763563494e-02 -1.9690410236812522e-01 2.3305165687841536e-02 -1.1897137261461048e-02 -4.6600034774563953e-02 1.2416707521919090e-01 4.6072114978146748e-02 7.0029305309375761e-02 7.9286434063459060e-02 -2.0868694321407913e-01 1.6778429184593507e-01 1.8903173955596664e-01 2.1530574775650495e-02 -1.5289988945460148e-01 -1.1590214873063548e-01 -1.2690533487992089e-01 -1.4395549268646321e-01 5.1277665022785204e-02 -1.5484826208908337e-01 1.3238937262852263e-01 6.3609616542191397e-02 -9.2483801321673748e-02 -1.0893975306627735e-01 -1.4739136054313187e-01 9.4337501308700999e-02 -9.5782152800325364e-03 5.9192268485868289e-02 1.3545606879423247e-01 -1.7348100149301027e-01 -1.3285540993961104e-01 8.1910909173071672e-02 1.8270613775705663e-01 1.8635124025065014e-01 2.4505717630490111e-02 4.8130633639632936e-02 1.6374909286754322e-02 -1.0085220147444843e-01 1.8485455246518565e-01 1.5056109610928206e-01 -4.4415017596804419e-02 9.2482411899859548e-02 -9.7214504605359353e-02 -3.5673181940660340e-02 -1.1506674815398160e-01 -7.7715446408583674e-02 -1.7000309678274855e-02 -1.0132347651724340e-01 1.1795490558517659e-01 -1.3107385294800417e-01 -1.1377758420161194e-01 1.1517879901859907e-01 7.9238344001076905e-02 -1.4260203245553129e-02 -1.3486402327765340e-01 -5.2698260335108070e-02 1.4766157543480232e-01 3.0894850520338246e-01 -1.1252715449320141e-01 -7.2915687769247686e-02 -1.5931235805076768e-01 -5.4044794310870803e-01 2.0286434115432611e-01 -2.9697075773876919e-01 4.6233187640952127e-02 -1.2815305200260951e-01 3.9168294466121278e-01 -1.8143868401949495e-03 2.0303108333935815e-01 -2.3203267850835912e-01 -1.5745191132023720e-01 -4.0710891520892117e-01 -9.6202437653832643e-02 8.2653943594587845e-03 -1.5067602463939878e-01 1.4393746699695067e-01 1.0701325169148772e-02 -1.1260684520514007e-01 7.9463820998542031e-02 -3.7191311623631940e-01 8.6773629511286837e-02 -4.1941675431780884e-01 4.2897001243545375e-02 -1.1685209210206536e-01 -2.8306031029815237e-01 1.5698695175910141e-01 3.7162107086940033e-01 -4.5636453535439124e-02 -1.3672727721699399e-01 3.9610412453472320e-02 3.1115440918549148e-01 -1.6316248740713885e-01 -2.2077583188338110e-01 3.9477365122777121e-04 -1.4247862056227698e-01 4.0479186068885531e-01 1.6656548248762837e-02 -8.2723125730494257e-02 -2.1208972401369872e-01 4.5230477697318905e-01 5.1071542930371049e-02 -9.8342655006056504e-02 
      </Weights>
      <Biases rows="30" cols="1">
        0.0000000000000000e+00 0.0000000000000000e+00 0.0000000000000000e+00 0.0000000000000000e+00 0.0000000000000000e+00 0.0000000000000000e+00 0.0000000000000000e+00 0.0000000000000000e+00 0.0000000000000000e+00 0.0000000000000000e+00 0.0000000000000000e+00 0.0000000000000000e+00 0.0000000000000000e+00 0.0000000000000000e+00 0.0000000000000000e+00 0.0000000000000000e+00 0.0000000000000000e+00 0.0000000000000000e+00 0.0000000000000000e+00 0.0000000000000000e+00 0.0000000000000000e+00 0.0000000000000000e+00 0.0000000000000000e+00 0.0000000000000000e+00 0.0000000000000000e+00 0.0000000000000000e+00 0.0000000000000000e+00 0.0000000000000000e+00 0.0000000000000000e+00 0.0000000000000000e+00 
      </Biases>
    </Layer>
    <Layer ActivationFunction="3">
      <Weights rows="10" cols="30">
        4.2865467183724186e-02 1.8594464688406340e-01 -5.0978655356128090e-02 -2.4483230340040540e-01 7.9718937386927965e-02 -2.4277739552223354e-01 -8.9745920854099048e-02 -1.6785844727029686e-01 -2.1874160994838712e-01 -9.2806691662004795e-02 -5.1722436339345049e-02 2.0341352970014498e-01 -2.0722208244101625e-01 6.1902588948630115e-03 -1.5438208479197585e-01 -1.2194999230942941e-01 -4.0202374613243032e-02 2.3796938415940827e-01 -1.3148498329787381e-01 -2.1257358415202537e-01 5.5480717231185708e-02 -1.6854791240058653e-01 -1.4498742444856555e-02 -6.2538630316320717e-02 2.1376665243221993e-01 7.1184225271935797e-02 2.2084297496941502e-01 -6.3638321975911766e-02 1.6160483771713435e-01 -7.1614284435198072e-02 -8.3454121238859702e-02 -1.9241548305376478e-02 -1.3070703729570973e-01 5.0629615537033074e-02 -7.1450467426152769e-02 -2.6982960202357346e-02 2.0328601428684340e-01 7.5359915618903331e-02 5.8211286686990396e-02 -2.7731613112291784e-03 2.5470931044414710e-02 1.3162295361299295e-01 1.5620142633682124e-01 1.7916200065056750e-01 2.9485091881227787e-01 1.0149169985944420e-01 2.5417352085893008e-01 -1.9857920818732891e-01 1.4601256967637863e-01 -5.3471163092337681e-02 -6.7249327245073182e-02 -2.7583507353115871e-01 4.8230295400495636e-02 3.6808778988433277e-01 6.8471077607363817e-02 -1.2087268949170109e-01 -5.2773494763969572e-02 -1.3057969035921421e-01 -1.0016534635104417e-01 -1.8696142989123152e-01 -2.6702151987742967e-01 3.1925744109043766e-02 4.4704530594444014e-01 3.0042967919784691e-01 2.9785197569609906e-01 9.6684199889392475e-02 9.5324102440950978e-02 6.1304750995436745e-02 1.5286535338766333e-01 9.5335703501776259e-01 -1.5901616211580050e-01 -1.6535551881240909e-01 8.6279542789801422e-01 -7.4680447672225606e-02 8.7439175470775551e-02 -3.4836663836769644e-01 -3.6981115892145748e-02 -4.5592342300511707e-01 -2.9755128739497733e-01 1.6655102775469269e-01 -2.5841795089851738e-01 7.7675111966734489e-02 -3.1661301008342291e-01 6.4226450806419755e-02 -3.2828385828705370e-01 -5.7856211455739097e-02 -3.4141259393347223e-02 1.0499903598068631e-01 -2.4666300008295088e-03 6.9448757059776312e-01 2.0790116203441344e-02 1.9093324666208195e-01 -1.9319895330474365e-01 4.1470795428886281e-01 -2.3649586697346406e-01 5.8433401171989974e-02 2.0204850315281925e-01 1.5836003132260310e-01 1.7367164552509934e-01 6.7333432310558911e-02 -2.2049652562900598e-01 1.0976225090400911e-01 -1.7095919956921973e-01 -1.9239663240587532e-01 -1.6923463095858599e-01 1.1821132943677372e-01 -1.0693280388908790e-02 1.1490195919806369e-01 1.1445277567334919e-01 7.5045804295075513e-02 -7.9739488762429700e-02 -2.1751736490887738e-01 -3.9438689199072824e-01 -1.3756294944456954e-01 7.7971243192895088e-03 -1.7560643299629766e-01 2.1882363698947993e-01 1.0812499662970675e-01 -2.5120741998152625e-02 9.9339696801209007e-02 1.6198080161038012e-01 -1.3855592892754207e-01 1.5929310107631028e-01 -3.2903536647145043e-02 -1.6929826323860567e-01 1.8572178903120434e-02 1.1110110877809339e-01 -9.5710631225821421e-02 1.3799233546763809e-01 -8.2430694118469677e-02 -1.8044277380199311e-01 2.1543016523377018e-01 1.9091199116132780e-02 -1.5986320530300405e-01 -9.7770808272487061e-02 -1.3578289759037649e-02 2.7453987796505952e-01 -2.0253522884588721e-02 2.5014438822372070e-01 2.0033506594946859e-01 -1.9865280751785752e-01 1.5269975392908519e-01 -9.3602169224748094e-02 -2.6208374399840656e-01 -4.6300547072766172e-03 1.5355169458433118e-01 -5.0078693932465446e-02 1.7481718699659393e-01 2.4005461996629260e-01 -3.2847210415170427e-02 1.5005733040389470e-02 -5.1073943048657727e-02 2.0740470296306271e-01 2.1515596480695526e-01 1.7613508129362274e-01 1.0981892490139104e-01 -7.3983782866795453e-02 -1.0926451223881127e-02 -7.8597048281035614e-02 2.3790594864663675e-01 1.4083087951603127e-01 -6.8041655521200353e-02 9.2424478013365466e-02 -2.5810645347290834e-01 1.0256593793715485e-01 -2.6664265079030819e-01 2.2822478546954322e-02 -3.0469441179022538e-01 1.5534796478739962e-01 1.3087380521391098e-01 -6.2976101510597834e-02 1.6768956817702482e-01 -4.2736284276819236e-01 -5.0306798350011867e-02 1.5624445462825456e-01 -4.4299188280879420e-02 -2.0661654439861582e-01 1.1899330470048564e-01 -2.1965555465884884e-02 9.1704823260863030e-02 -1.1404818657769970e-01 5.2533433283823490e-02 7.1837138075787302e-02 -1.7757522829015054e-01 9.1185603318812408e-03 6.4926438634334612e-03 2.6939339147863089e-01 1.4781284767673164e-01 -9.8791055779015910e-02 -5.7694149115251969e-01 -1.5741446680171495e-01 -2.7000127384829892e-02 -3.4302353626380394e-01 -2.0276295604726735e-01 1.7008768467066585e-01 1.9300081924570880e-01 1.5102960705571397e-01 2.7026850402484820e-01 2.2942889343678471e-01 1.6034189492557211e-02 -6.9712868270055559e-02 -1.2836120671517512e-01 1.5897033118492190e-01 3.7204155290656382e-01 1.7749843047501918e-01 -1.7430072133817259e-01 -2.5135543128825891e-02 3.6050226636579162e-02 1.5138023589400956e-01 3.3084577029086341e-02 1.6072735465745594e-01 2.3712027449476628e-01 -3.2489744798143155e-01 -4.2406831682033977e-02 -1.0177163518605738e-01 9.6295590439493928e-02 -5.0554231947363880e-02 1.2588896906794272e-01 -2.6623199925186175e-01 -4.5489651108557216e-01 1.2064536246830707e-01 1.2827177469706073e-02 -2.2410882546080460e-01 -1.8429266596055027e-01 1.9869095081705868e-02 3.9043467211407368e-01 9.1071089276203429e-02 4.4615385382355355e-01 -1.0125834962511145e-01 1.7475443847879923e-01 -2.4134252352050786e-01 -1.6708138831562022e-01 3.1200146849824034e-01 1.9843725096378553e-01 -1.7713249906296713e-01 2.3088951720830236e-01 1.6033528531737307e-01 -9.1657640544980420e-02 6.2726658746296446e-02 -5.0775758821333561e-01 1.6816165949360282e-01 4.0639609275346190e-02 -2.8465436577597536e-01 2.6210231177589194e-01 -2.1752829211586489e-01 2.0823884971454468e-01 2.4540553779400157e-01 4.4893806813524624e-02 -1.7642559358857505e-02 1.1947067510494076e-01 -2.2312010075769365e-01 -2.2396927833742750e-01 2.1195683819623040e-01 -5.3372693992250683e-02 -3.6003350653889897e-02 4.5724185499005449e-02 1.3389273913199243e-01 -8.5927393079122082e-03 -1.3636738992392591e-01 -1.3488689940782020e-01 2.2659147203360042e-02 -2.2244866770614655e-01 2.5044389425387642e-01 -2.2069610167288439e-01 -1.0510239576094836e-01 -1.1705440378015702e-01 3.1036054833181254e-02 2.3240225843231138e-01 -1.1016544617306007e-01 1.9162669732849727e-01 4.2476384106504575e-02 -1.1766543222918491e-01 3.0334343394278419e-02 -4.9182382249513990e-02 -1.9478821504561306e-02 2.4351489285671007e-01 7.6421526574288759e-02 7.3093073664398739e-02 -5.7081038174480639e-02 3.2140586933772353e-01 -2.5116346430365316e-01 -4.6592609753172802e-02 3.0481080826353013e-01 -6.3063038144255040e-02 2.3172250080503218e-01 -1.7419853710169392e-01 -9.9351989700724785e-02 -1.7272121620545020e-01 1.5403612320071028e-01 -1.5771283967062724e-01 -2.5882368059112704e-01 -1.3701006679091676e-01 1.4337023156836248e-01 -2.6911932747753259e-01 2.5875359697603412e-01 1.9324205400514052e-01 -1.4913687328436512e-01 -8.4522034790754194e-02 1.7546739063296451e-01 3.2147326715650426e-01 
      </Weights>
      <Biases rows="10" cols="1">
        0.0000000000000000e+00 0.0000000000000000e+00 0.0000000000000000e+00 0.0000000000000000e+00 0.0000000000000000e+00 0.0000000000000000e+00 0.0000000000000000e+00 0.0000000000000000e+00 0.0000000000000000e+00 0.0000000000000000e+00 
      </Biases>
    </Layer>
    <Layer ActivationFunction="0">
      <Weights rows="1" cols="10">
        2.9679103591084190e-02 3.9902858154523579e-01 -1.0216122043652858e+00 -4.6330878110426632e-01 -2.9068994636103490e-01 -4.2723534691770892e-01 5.7950546227915645e-01 6.1203095879043523e-01 1.8576694636889196e-01 -3.5824510016027433e-01 
      </Weights>
      <Biases rows="1" cols="1">
        0.0000000000000000e+00 
      </Biases>
    </Layer>
  </Weights>
</MethodSetup>
