<?xml version="1.0"?>
<MethodSetup Method="MLP::MLP">
  <GeneralInfo>
    <Info name="TMVA Release" value="4.2.1 [262657]"/>
    <Info name="ROOT Release" value="6.08/02 [395266]"/>
    <Info name="Creator" value="minerva1993"/>
    <Info name="Date" value="Thu May 25 01:16:32 2017"/>
    <Info name="Host" value="Linux htop.hanyang.ac.kr 2.6.32-696.el6.centos.plus.x86_64 #1 SMP Mon Apr 3 14:56:08 UTC 2017 x86_64 x86_64 x86_64 GNU/Linux"/>
    <Info name="Dir" value="/home/minerva1993/fcnc/tmva/v2"/>
    <Info name="Training events" value="60000"/>
    <Info name="TrainingTime" value="6.22222858e+02"/>
    <Info name="AnalysisType" value="Classification"/>
  </GeneralInfo>
  <Options>
    <Option name="NCycles" modified="Yes">1000</Option>
    <Option name="HiddenLayers" modified="Yes">N+5</Option>
    <Option name="NeuronType" modified="Yes">tanh</Option>
    <Option name="RandomSeed" modified="No">1</Option>
    <Option name="EstimatorType" modified="No">CE</Option>
    <Option name="NeuronInputType" modified="No">sum</Option>
    <Option name="V" modified="Yes">False</Option>
    <Option name="VerbosityLevel" modified="No">Default</Option>
    <Option name="VarTransform" modified="Yes">N</Option>
    <Option name="H" modified="Yes">True</Option>
    <Option name="CreateMVAPdfs" modified="No">False</Option>
    <Option name="IgnoreNegWeightsInTraining" modified="No">False</Option>
    <Option name="TrainingMethod" modified="No">BP</Option>
    <Option name="LearningRate" modified="No">2.000000e-02</Option>
    <Option name="DecayRate" modified="No">1.000000e-02</Option>
    <Option name="TestRate" modified="Yes">5</Option>
    <Option name="EpochMonitoring" modified="No">False</Option>
    <Option name="Sampling" modified="No">1.000000e+00</Option>
    <Option name="SamplingEpoch" modified="No">1.000000e+00</Option>
    <Option name="SamplingImportance" modified="No">1.000000e+00</Option>
    <Option name="SamplingTraining" modified="No">True</Option>
    <Option name="SamplingTesting" modified="No">False</Option>
    <Option name="ResetStep" modified="No">50</Option>
    <Option name="Tau" modified="No">3.000000e+00</Option>
    <Option name="BPMode" modified="No">sequential</Option>
    <Option name="BatchSize" modified="No">-1</Option>
    <Option name="ConvergenceImprove" modified="No">1.000000e-30</Option>
    <Option name="ConvergenceTests" modified="No">-1</Option>
    <Option name="UseRegulator" modified="Yes">False</Option>
    <Option name="UpdateLimit" modified="No">10000</Option>
    <Option name="CalculateErrors" modified="No">False</Option>
    <Option name="WeightRange" modified="No">1.000000e+00</Option>
  </Options>
  <Variables NVar="12">
    <Variable VarIndex="0" Expression="BJet_M_delta_R" Label="BJet_M_delta_R" Title="BJet_M_delta_R" Unit="" Internal="BJet_M_delta_R" Type="F" Min="3.88728410e-01" Max="5.07587337e+00"/>
    <Variable VarIndex="1" Expression="H_Mass" Label="H_Mass" Title="H_Mass" Unit="" Internal="H_Mass" Type="F" Min="1.71672955e+01" Max="2.99998291e+02"/>
    <Variable VarIndex="2" Expression="BJet_Pt" Label="BJet_Pt" Title="BJet_Pt" Unit="" Internal="BJet_Pt" Type="F" Min="3.02424374e+01" Max="2.99903961e+02"/>
    <Variable VarIndex="3" Expression="CJet_Pt" Label="CJet_Pt" Title="CJet_Pt" Unit="" Internal="CJet_Pt" Type="F" Min="3.02424374e+01" Max="2.99974487e+02"/>
    <Variable VarIndex="4" Expression="Jet1_Pt" Label="Jet1_Pt" Title="Jet1_Pt" Unit="" Internal="Jet1_Pt" Type="F" Min="3.34113770e+01" Max="2.99983215e+02"/>
    <Variable VarIndex="5" Expression="Jet2_Pt" Label="Jet2_Pt" Title="Jet2_Pt" Unit="" Internal="Jet2_Pt" Type="F" Min="3.05687542e+01" Max="2.95347046e+02"/>
    <Variable VarIndex="6" Expression="Jet3_Pt" Label="Jet3_Pt" Title="Jet3_Pt" Unit="" Internal="Jet3_Pt" Type="F" Min="3.01238079e+01" Max="2.55206192e+02"/>
    <Variable VarIndex="7" Expression="Jet4_Pt" Label="Jet4_Pt" Title="Jet4_Pt" Unit="" Internal="Jet4_Pt" Type="F" Min="3.00002975e+01" Max="2.26160202e+02"/>
    <Variable VarIndex="8" Expression="Jet1_CSV" Label="Jet1_CSV" Title="Jet1_CSV" Unit="" Internal="Jet1_CSV" Type="F" Min="3.51784825e-02" Max="9.99569297e-01"/>
    <Variable VarIndex="9" Expression="Jet2_CSV" Label="Jet2_CSV" Title="Jet2_CSV" Unit="" Internal="Jet2_CSV" Type="F" Min="3.51793692e-02" Max="1.00000000e+00"/>
    <Variable VarIndex="10" Expression="Jet3_CSV" Label="Jet3_CSV" Title="Jet3_CSV" Unit="" Internal="Jet3_CSV" Type="F" Min="3.78077812e-02" Max="9.99603510e-01"/>
    <Variable VarIndex="11" Expression="Jet4_CSV" Label="Jet4_CSV" Title="Jet4_CSV" Unit="" Internal="Jet4_CSV" Type="F" Min="3.45279612e-02" Max="9.99591112e-01"/>
  </Variables>
  <Spectators NSpec="0"/>
  <Classes NClass="2">
    <Class Name="Signal" Index="0"/>
    <Class Name="Background" Index="1"/>
  </Classes>
  <Transformations NTransformations="1">
    <Transform Name="Normalize">
      <Selection>
        <Input NInputs="12">
          <Input Type="Variable" Label="BJet_M_delta_R" Expression="BJet_M_delta_R"/>
          <Input Type="Variable" Label="H_Mass" Expression="H_Mass"/>
          <Input Type="Variable" Label="BJet_Pt" Expression="BJet_Pt"/>
          <Input Type="Variable" Label="CJet_Pt" Expression="CJet_Pt"/>
          <Input Type="Variable" Label="Jet1_Pt" Expression="Jet1_Pt"/>
          <Input Type="Variable" Label="Jet2_Pt" Expression="Jet2_Pt"/>
          <Input Type="Variable" Label="Jet3_Pt" Expression="Jet3_Pt"/>
          <Input Type="Variable" Label="Jet4_Pt" Expression="Jet4_Pt"/>
          <Input Type="Variable" Label="Jet1_CSV" Expression="Jet1_CSV"/>
          <Input Type="Variable" Label="Jet2_CSV" Expression="Jet2_CSV"/>
          <Input Type="Variable" Label="Jet3_CSV" Expression="Jet3_CSV"/>
          <Input Type="Variable" Label="Jet4_CSV" Expression="Jet4_CSV"/>
        </Input>
        <Output NOutputs="12">
          <Output Type="Variable" Label="BJet_M_delta_R" Expression="BJet_M_delta_R"/>
          <Output Type="Variable" Label="H_Mass" Expression="H_Mass"/>
          <Output Type="Variable" Label="BJet_Pt" Expression="BJet_Pt"/>
          <Output Type="Variable" Label="CJet_Pt" Expression="CJet_Pt"/>
          <Output Type="Variable" Label="Jet1_Pt" Expression="Jet1_Pt"/>
          <Output Type="Variable" Label="Jet2_Pt" Expression="Jet2_Pt"/>
          <Output Type="Variable" Label="Jet3_Pt" Expression="Jet3_Pt"/>
          <Output Type="Variable" Label="Jet4_Pt" Expression="Jet4_Pt"/>
          <Output Type="Variable" Label="Jet1_CSV" Expression="Jet1_CSV"/>
          <Output Type="Variable" Label="Jet2_CSV" Expression="Jet2_CSV"/>
          <Output Type="Variable" Label="Jet3_CSV" Expression="Jet3_CSV"/>
          <Output Type="Variable" Label="Jet4_CSV" Expression="Jet4_CSV"/>
        </Output>
      </Selection>
      <Class ClassIndex="0">
        <Ranges>
          <Range Index="0" Min="3.8872841000556946e-01" Max="4.6463313102722168e+00"/>
          <Range Index="1" Min="1.7167295455932617e+01" Max="2.9988992309570312e+02"/>
          <Range Index="2" Min="3.0242437362670898e+01" Max="2.9918014526367188e+02"/>
          <Range Index="3" Min="3.0242437362670898e+01" Max="2.9970175170898438e+02"/>
          <Range Index="4" Min="3.3411376953125000e+01" Max="2.9998321533203125e+02"/>
          <Range Index="5" Min="3.0568754196166992e+01" Max="2.8940875244140625e+02"/>
          <Range Index="6" Min="3.0242437362670898e+01" Max="2.5474645996093750e+02"/>
          <Range Index="7" Min="3.0000297546386719e+01" Max="2.2616020202636719e+02"/>
          <Range Index="8" Min="3.5178482532501221e-02" Max="9.9956929683685303e-01"/>
          <Range Index="9" Min="4.0366880595684052e-02" Max="9.9959146976470947e-01"/>
          <Range Index="10" Min="4.7125816345214844e-02" Max="9.9960350990295410e-01"/>
          <Range Index="11" Min="3.4527961164712906e-02" Max="9.9959111213684082e-01"/>
        </Ranges>
      </Class>
      <Class ClassIndex="1">
        <Ranges>
          <Range Index="0" Min="3.9910742640495300e-01" Max="5.0758733749389648e+00"/>
          <Range Index="1" Min="1.7342214584350586e+01" Max="2.9999829101562500e+02"/>
          <Range Index="2" Min="3.0486639022827148e+01" Max="2.9990396118164062e+02"/>
          <Range Index="3" Min="3.0486639022827148e+01" Max="2.9997448730468750e+02"/>
          <Range Index="4" Min="3.8026779174804688e+01" Max="2.9997448730468750e+02"/>
          <Range Index="5" Min="3.2426616668701172e+01" Max="2.9534704589843750e+02"/>
          <Range Index="6" Min="3.0123807907104492e+01" Max="2.5520619201660156e+02"/>
          <Range Index="7" Min="3.0002609252929688e+01" Max="2.1701753234863281e+02"/>
          <Range Index="8" Min="4.0846176445484161e-02" Max="9.9945247173309326e-01"/>
          <Range Index="9" Min="3.5179369151592255e-02" Max="1.0000000000000000e+00"/>
          <Range Index="10" Min="3.7807781249284744e-02" Max="9.9956411123275757e-01"/>
          <Range Index="11" Min="4.8141352832317352e-02" Max="9.9958008527755737e-01"/>
        </Ranges>
      </Class>
      <Class ClassIndex="2">
        <Ranges>
          <Range Index="0" Min="3.8872841000556946e-01" Max="5.0758733749389648e+00"/>
          <Range Index="1" Min="1.7167295455932617e+01" Max="2.9999829101562500e+02"/>
          <Range Index="2" Min="3.0242437362670898e+01" Max="2.9990396118164062e+02"/>
          <Range Index="3" Min="3.0242437362670898e+01" Max="2.9997448730468750e+02"/>
          <Range Index="4" Min="3.3411376953125000e+01" Max="2.9998321533203125e+02"/>
          <Range Index="5" Min="3.0568754196166992e+01" Max="2.9534704589843750e+02"/>
          <Range Index="6" Min="3.0123807907104492e+01" Max="2.5520619201660156e+02"/>
          <Range Index="7" Min="3.0000297546386719e+01" Max="2.2616020202636719e+02"/>
          <Range Index="8" Min="3.5178482532501221e-02" Max="9.9956929683685303e-01"/>
          <Range Index="9" Min="3.5179369151592255e-02" Max="1.0000000000000000e+00"/>
          <Range Index="10" Min="3.7807781249284744e-02" Max="9.9960350990295410e-01"/>
          <Range Index="11" Min="3.4527961164712906e-02" Max="9.9959111213684082e-01"/>
        </Ranges>
      </Class>
    </Transform>
  </Transformations>
  <MVAPdfs/>
  <Weights>
    <Layout NLayers="3">
      <Layer Index="0" NNeurons="13">
        <Neuron NSynapses="17">
          1.0992007018984951e+00 2.3385038111293208e+00 -2.2015869773727461e+00 1.6422312624783653e+00 -6.3505222515311988e-01 -1.0050807761655500e+00 5.6368883840812627e+00 2.5835296503225136e+00 -1.7884607336275163e-01 -1.3693782840028021e+00 2.3518137316857271e-01 -1.9813215942152667e+00 2.0666265557679465e-02 4.3708726354030319e-01 -6.7210403264958574e-01 -7.6287285557676565e-01 -7.2537335823322724e-01 
        </Neuron>
        <Neuron NSynapses="17">
          7.5268990638069528e+00 6.9069669444520837e-02 7.1959947999433371e+00 -1.8740076745154866e+00 1.1359866402070879e+00 2.1482087011810527e+00 2.6408095863497855e-01 2.5709125114406621e+00 1.5105043227179571e+00 3.5431187068071499e+00 -3.1492357771679194e+00 -5.3795242003507742e+00 3.3753660269529329e-01 9.3340578641614935e-01 4.2250048499445214e-01 7.5296539992465439e-01 -1.0072347014338798e+00 
        </Neuron>
        <Neuron NSynapses="17">
          2.6774131332484848e-02 1.2616380283636006e+00 -2.3408921989514782e+00 6.3276680064836883e+00 -4.1243401331725910e-01 5.8080512447089827e-01 5.1720869359052368e-01 -2.2784218359668453e+00 -8.8662504238851647e-01 1.3223722683189234e+00 2.6708201789755520e-01 3.1882129354135263e-01 1.0701542146854757e+00 1.1027149684512674e+00 -3.0733473867884881e-01 1.0706504522910909e+00 6.0182197830177264e-01 
        </Neuron>
        <Neuron NSynapses="17">
          7.7101909303823130e-02 -7.7523137982976320e-01 2.8804058927109288e-01 -9.8596988443267297e-01 -3.1890376195337328e-01 -1.0063329926577612e-01 -5.6983725713063671e-01 -3.4059144167906857e-01 8.5645170912998045e-02 -5.8224311110126381e-01 8.2850475349230768e-01 -1.2125622560674490e-01 3.2743510819221050e-01 6.6527408464347382e-01 -1.0614976558140097e+00 3.4290623491892902e-01 2.3878153839628516e-01 
        </Neuron>
        <Neuron NSynapses="17">
          4.6633065958752253e-02 -1.1218792131643471e+00 6.6748989364387376e-02 4.5928894840640816e-01 4.2493878752106340e-01 -1.0648907320736620e+00 -1.9058356343854378e-02 5.5424839321081595e-02 -2.1263052908546393e-01 -9.3983111499751415e-01 -7.0224122080441664e-01 -1.6883603662130656e-01 1.4696167103985998e+00 6.6967952695077038e-01 3.4214303642139106e+00 -2.0536233444940537e+00 6.9533451359187581e-01 
        </Neuron>
        <Neuron NSynapses="17">
          -4.7488389170449757e-01 2.6668379836851741e-01 3.3970541073096266e-01 -2.2760932800400302e+00 -7.5197748601853387e-01 -7.7912833099417811e-01 4.0333553703493530e-01 -1.2619700713429927e+00 -2.4317110710919208e+00 -1.6786179303579758e+00 4.9866609505165904e-01 6.2003557238889739e-01 -1.2396213951592410e+00 9.9941613920720185e-01 1.7039422609007018e+00 4.5148208970920917e-01 -9.7029097601706471e-01 
        </Neuron>
        <Neuron NSynapses="17">
          1.2118166469544243e+00 3.3874365232299652e-01 -8.5104713890888184e-01 1.4417314278413307e-01 -1.8160886713733917e-01 -3.1447903336659797e+00 -1.0840291729548560e-01 3.2391671863072102e-01 1.7310114658962111e-01 -1.2355477688120276e-02 3.3140766352176110e+00 -1.7628514808175072e-01 -3.4487288011293638e-01 -7.0647238311205798e-02 2.0629351230453645e+00 8.4550635805709895e-01 -4.2054519748861990e-01 
        </Neuron>
        <Neuron NSynapses="17">
          -5.7073417442745555e-01 -9.4692621892687978e-01 -2.7165882017055325e+00 1.3012886488436445e-01 1.3929706547240488e+00 5.7284063855272960e-01 -2.5720513347308377e-01 -1.6288873455787609e+00 -1.0985040911084376e+00 -2.9338147073973810e+00 3.0528359367432412e+00 -4.5701534096921359e-01 -2.0081986160776384e+00 3.3645903195084641e-02 -1.2700588765167675e+00 -8.1088616412340269e+00 -2.1423748739008996e-02 
        </Neuron>
        <Neuron NSynapses="17">
          1.4943117214517944e-02 -5.9810678546225382e-01 -2.6682033369259844e-01 4.6456629887883866e-01 1.2373291948600522e+00 4.1232282117217417e-01 -1.0717182831565933e-02 -2.5991422430244981e-01 -3.7225304070115428e-01 4.7719251543672531e-01 1.1771882671600664e-01 1.3754246636945234e-02 -3.5882207869704202e-01 -5.2867033435643418e-01 -7.0595197380191255e-01 3.1445209089770976e-01 -5.3068087479959158e-01 
        </Neuron>
        <Neuron NSynapses="17">
          -5.5046467076044346e-02 -1.1970265108812045e-01 -1.3268168964839305e-01 4.8136252749619651e-01 3.6524046176177904e-01 1.2928367745130143e+00 -2.1105917675084876e-01 -2.1962297356470789e-01 2.7445783686942935e+00 1.6486523954758812e+00 -3.4898376148907972e-01 4.8240024955796400e-02 3.4331785167581556e-02 -7.9116779173022000e-01 3.8266934675584514e-02 3.4288036798578031e-01 -4.4745053571071669e-01 
        </Neuron>
        <Neuron NSynapses="17">
          -6.7564914705747527e-03 1.7163041281877682e+00 -1.6283895184204250e-01 5.7323259541447991e-01 7.5432932017753063e-01 -4.9823681175507941e+00 -6.6485611241877018e-02 -4.8282606214879342e-01 -5.4020111249311131e-01 -3.5016159972866889e+00 -8.4868241635305020e-01 -2.7898617407134532e-02 1.4196696289267205e-01 -7.3002929075896705e-01 -1.5852652132431415e-02 2.0178459805178475e-01 3.0251216814665560e-01 
        </Neuron>
        <Neuron NSynapses="17">
          3.8481599014573431e-02 -4.5280745819782094e-02 -1.0423616245905548e-01 4.6597533719269524e-01 1.4427534887576239e+00 1.7037015964421123e-01 -2.3205396725565097e-01 4.5609485587604887e-02 -8.8187575759735415e-01 -6.7715041078060612e-01 -5.4640409182144167e-01 -3.3115645524257852e-02 -3.2914653012744155e-01 -5.9771590238924455e-01 -1.0984377098363547e-01 -1.9244312428392185e-01 3.3120052852667775e-01 
        </Neuron>
        <Neuron NSynapses="17">
          3.3356650620893009e+00 5.8542517375848868e-01 6.7273447268053121e-02 2.6300236551965592e+00 -3.2053651076401102e+00 1.0872819602253481e+00 8.0098620525468711e-01 -4.0491557321942562e+00 -4.9091644011712363e+00 -6.7940179365549724e-01 4.4986346574232350e+00 -2.0247777872417161e+00 -1.2899766887047441e+00 2.4375816409705653e+00 3.5754778240099934e+00 -7.7346484329774299e+00 -2.6977042399366424e-01 
        </Neuron>
      </Layer>
      <Layer Index="1" NNeurons="18">
        <Neuron NSynapses="1">
          8.2491778555410422e-01 
        </Neuron>
        <Neuron NSynapses="1">
          -2.6801680698015823e-01 
        </Neuron>
        <Neuron NSynapses="1">
          6.9538067280437388e-01 
        </Neuron>
        <Neuron NSynapses="1">
          5.0760220041811421e-01 
        </Neuron>
        <Neuron NSynapses="1">
          -7.8347445552823414e-01 
        </Neuron>
        <Neuron NSynapses="1">
          -3.9963562392164353e-01 
        </Neuron>
        <Neuron NSynapses="1">
          5.4753851911648110e-01 
        </Neuron>
        <Neuron NSynapses="1">
          -3.6152223211068812e-01 
        </Neuron>
        <Neuron NSynapses="1">
          3.4661216824934066e-01 
        </Neuron>
        <Neuron NSynapses="1">
          3.0750671235156990e-01 
        </Neuron>
        <Neuron NSynapses="1">
          -4.7926490525938126e-01 
        </Neuron>
        <Neuron NSynapses="1">
          1.2784845266409253e+00 
        </Neuron>
        <Neuron NSynapses="1">
          -4.5146961940777858e-01 
        </Neuron>
        <Neuron NSynapses="1">
          2.6957120892531156e-01 
        </Neuron>
        <Neuron NSynapses="1">
          -5.2868694474923761e-01 
        </Neuron>
        <Neuron NSynapses="1">
          7.4080981227146636e-01 
        </Neuron>
        <Neuron NSynapses="1">
          4.6780415104924289e-01 
        </Neuron>
        <Neuron NSynapses="1">
          -9.0038247272566485e-01 
        </Neuron>
      </Layer>
      <Layer Index="2" NNeurons="1">
        <Neuron NSynapses="0"/>
      </Layer>
    </Layout>
  </Weights>
</MethodSetup>
