<?xml version="1.0"?>
<MethodSetup Method="DNN::DNN">
  <GeneralInfo>
    <Info name="TMVA Release" value="4.2.1 [262657]"/>
    <Info name="ROOT Release" value="6.08/02 [395266]"/>
    <Info name="Creator" value="minerva1993"/>
    <Info name="Date" value="Thu May 25 01:36:16 2017"/>
    <Info name="Host" value="Linux htop.hanyang.ac.kr 2.6.32-696.el6.centos.plus.x86_64 #1 SMP Mon Apr 3 14:56:08 UTC 2017 x86_64 x86_64 x86_64 GNU/Linux"/>
    <Info name="Dir" value="/home/minerva1993/fcnc/tmva/v2"/>
    <Info name="Training events" value="60000"/>
    <Info name="TrainingTime" value="1.13393935e+03"/>
    <Info name="AnalysisType" value="Classification"/>
  </GeneralInfo>
  <Options>
    <Option name="V" modified="Yes">True</Option>
    <Option name="VerbosityLevel" modified="No">Verbose</Option>
    <Option name="VarTransform" modified="Yes">N</Option>
    <Option name="H" modified="Yes">False</Option>
    <Option name="CreateMVAPdfs" modified="No">False</Option>
    <Option name="IgnoreNegWeightsInTraining" modified="No">False</Option>
    <Option name="Layout" modified="Yes">TANH|30,TANH|20,LINEAR</Option>
    <Option name="ErrorStrategy" modified="Yes">CROSSENTROPY</Option>
    <Option name="WeightInitialization" modified="Yes">XAVIERUNIFORM</Option>
    <Option name="Architecture" modified="No">STANDARD</Option>
    <Option name="TrainingStrategy" modified="Yes">LearningRate=0.01,Momentum=0.4,Repetitions=1,ConvergenceSteps=300,BatchSize=100,DropConfig=0.0+0.2+0.0,WeightDecay=0.001,Regularization=L2,TestRepetitions=5,Multithreading=True</Option>
  </Options>
  <Variables NVar="12">
    <Variable VarIndex="0" Expression="BJet_M_delta_R" Label="BJet_M_delta_R" Title="BJet_M_delta_R" Unit="" Internal="BJet_M_delta_R" Type="F" Min="3.88728410e-01" Max="5.07587337e+00"/>
    <Variable VarIndex="1" Expression="H_Mass" Label="H_Mass" Title="H_Mass" Unit="" Internal="H_Mass" Type="F" Min="1.71672955e+01" Max="2.99998291e+02"/>
    <Variable VarIndex="2" Expression="BJet_Pt" Label="BJet_Pt" Title="BJet_Pt" Unit="" Internal="BJet_Pt" Type="F" Min="3.02424374e+01" Max="2.99903961e+02"/>
    <Variable VarIndex="3" Expression="CJet_Pt" Label="CJet_Pt" Title="CJet_Pt" Unit="" Internal="CJet_Pt" Type="F" Min="3.02424374e+01" Max="2.99974487e+02"/>
    <Variable VarIndex="4" Expression="Jet1_Pt" Label="Jet1_Pt" Title="Jet1_Pt" Unit="" Internal="Jet1_Pt" Type="F" Min="3.34113770e+01" Max="2.99983215e+02"/>
    <Variable VarIndex="5" Expression="Jet2_Pt" Label="Jet2_Pt" Title="Jet2_Pt" Unit="" Internal="Jet2_Pt" Type="F" Min="3.05687542e+01" Max="2.95347046e+02"/>
    <Variable VarIndex="6" Expression="Jet3_Pt" Label="Jet3_Pt" Title="Jet3_Pt" Unit="" Internal="Jet3_Pt" Type="F" Min="3.01238079e+01" Max="2.55206192e+02"/>
    <Variable VarIndex="7" Expression="Jet4_Pt" Label="Jet4_Pt" Title="Jet4_Pt" Unit="" Internal="Jet4_Pt" Type="F" Min="3.00002975e+01" Max="2.26160202e+02"/>
    <Variable VarIndex="8" Expression="Jet1_CSV" Label="Jet1_CSV" Title="Jet1_CSV" Unit="" Internal="Jet1_CSV" Type="F" Min="3.51784825e-02" Max="9.99569297e-01"/>
    <Variable VarIndex="9" Expression="Jet2_CSV" Label="Jet2_CSV" Title="Jet2_CSV" Unit="" Internal="Jet2_CSV" Type="F" Min="3.51793692e-02" Max="1.00000000e+00"/>
    <Variable VarIndex="10" Expression="Jet3_CSV" Label="Jet3_CSV" Title="Jet3_CSV" Unit="" Internal="Jet3_CSV" Type="F" Min="3.78077812e-02" Max="9.99603510e-01"/>
    <Variable VarIndex="11" Expression="Jet4_CSV" Label="Jet4_CSV" Title="Jet4_CSV" Unit="" Internal="Jet4_CSV" Type="F" Min="3.45279612e-02" Max="9.99591112e-01"/>
  </Variables>
  <Spectators NSpec="0"/>
  <Classes NClass="2">
    <Class Name="Signal" Index="0"/>
    <Class Name="Background" Index="1"/>
  </Classes>
  <Transformations NTransformations="1">
    <Transform Name="Normalize">
      <Selection>
        <Input NInputs="12">
          <Input Type="Variable" Label="BJet_M_delta_R" Expression="BJet_M_delta_R"/>
          <Input Type="Variable" Label="H_Mass" Expression="H_Mass"/>
          <Input Type="Variable" Label="BJet_Pt" Expression="BJet_Pt"/>
          <Input Type="Variable" Label="CJet_Pt" Expression="CJet_Pt"/>
          <Input Type="Variable" Label="Jet1_Pt" Expression="Jet1_Pt"/>
          <Input Type="Variable" Label="Jet2_Pt" Expression="Jet2_Pt"/>
          <Input Type="Variable" Label="Jet3_Pt" Expression="Jet3_Pt"/>
          <Input Type="Variable" Label="Jet4_Pt" Expression="Jet4_Pt"/>
          <Input Type="Variable" Label="Jet1_CSV" Expression="Jet1_CSV"/>
          <Input Type="Variable" Label="Jet2_CSV" Expression="Jet2_CSV"/>
          <Input Type="Variable" Label="Jet3_CSV" Expression="Jet3_CSV"/>
          <Input Type="Variable" Label="Jet4_CSV" Expression="Jet4_CSV"/>
        </Input>
        <Output NOutputs="12">
          <Output Type="Variable" Label="BJet_M_delta_R" Expression="BJet_M_delta_R"/>
          <Output Type="Variable" Label="H_Mass" Expression="H_Mass"/>
          <Output Type="Variable" Label="BJet_Pt" Expression="BJet_Pt"/>
          <Output Type="Variable" Label="CJet_Pt" Expression="CJet_Pt"/>
          <Output Type="Variable" Label="Jet1_Pt" Expression="Jet1_Pt"/>
          <Output Type="Variable" Label="Jet2_Pt" Expression="Jet2_Pt"/>
          <Output Type="Variable" Label="Jet3_Pt" Expression="Jet3_Pt"/>
          <Output Type="Variable" Label="Jet4_Pt" Expression="Jet4_Pt"/>
          <Output Type="Variable" Label="Jet1_CSV" Expression="Jet1_CSV"/>
          <Output Type="Variable" Label="Jet2_CSV" Expression="Jet2_CSV"/>
          <Output Type="Variable" Label="Jet3_CSV" Expression="Jet3_CSV"/>
          <Output Type="Variable" Label="Jet4_CSV" Expression="Jet4_CSV"/>
        </Output>
      </Selection>
      <Class ClassIndex="0">
        <Ranges>
          <Range Index="0" Min="3.8872841000556946e-01" Max="4.6463313102722168e+00"/>
          <Range Index="1" Min="1.7167295455932617e+01" Max="2.9988992309570312e+02"/>
          <Range Index="2" Min="3.0242437362670898e+01" Max="2.9918014526367188e+02"/>
          <Range Index="3" Min="3.0242437362670898e+01" Max="2.9970175170898438e+02"/>
          <Range Index="4" Min="3.3411376953125000e+01" Max="2.9998321533203125e+02"/>
          <Range Index="5" Min="3.0568754196166992e+01" Max="2.8940875244140625e+02"/>
          <Range Index="6" Min="3.0242437362670898e+01" Max="2.5474645996093750e+02"/>
          <Range Index="7" Min="3.0000297546386719e+01" Max="2.2616020202636719e+02"/>
          <Range Index="8" Min="3.5178482532501221e-02" Max="9.9956929683685303e-01"/>
          <Range Index="9" Min="4.0366880595684052e-02" Max="9.9959146976470947e-01"/>
          <Range Index="10" Min="4.7125816345214844e-02" Max="9.9960350990295410e-01"/>
          <Range Index="11" Min="3.4527961164712906e-02" Max="9.9959111213684082e-01"/>
        </Ranges>
      </Class>
      <Class ClassIndex="1">
        <Ranges>
          <Range Index="0" Min="3.9910742640495300e-01" Max="5.0758733749389648e+00"/>
          <Range Index="1" Min="1.7342214584350586e+01" Max="2.9999829101562500e+02"/>
          <Range Index="2" Min="3.0486639022827148e+01" Max="2.9990396118164062e+02"/>
          <Range Index="3" Min="3.0486639022827148e+01" Max="2.9997448730468750e+02"/>
          <Range Index="4" Min="3.8026779174804688e+01" Max="2.9997448730468750e+02"/>
          <Range Index="5" Min="3.2426616668701172e+01" Max="2.9534704589843750e+02"/>
          <Range Index="6" Min="3.0123807907104492e+01" Max="2.5520619201660156e+02"/>
          <Range Index="7" Min="3.0002609252929688e+01" Max="2.1701753234863281e+02"/>
          <Range Index="8" Min="4.0846176445484161e-02" Max="9.9945247173309326e-01"/>
          <Range Index="9" Min="3.5179369151592255e-02" Max="1.0000000000000000e+00"/>
          <Range Index="10" Min="3.7807781249284744e-02" Max="9.9956411123275757e-01"/>
          <Range Index="11" Min="4.8141352832317352e-02" Max="9.9958008527755737e-01"/>
        </Ranges>
      </Class>
      <Class ClassIndex="2">
        <Ranges>
          <Range Index="0" Min="3.8872841000556946e-01" Max="5.0758733749389648e+00"/>
          <Range Index="1" Min="1.7167295455932617e+01" Max="2.9999829101562500e+02"/>
          <Range Index="2" Min="3.0242437362670898e+01" Max="2.9990396118164062e+02"/>
          <Range Index="3" Min="3.0242437362670898e+01" Max="2.9997448730468750e+02"/>
          <Range Index="4" Min="3.3411376953125000e+01" Max="2.9998321533203125e+02"/>
          <Range Index="5" Min="3.0568754196166992e+01" Max="2.9534704589843750e+02"/>
          <Range Index="6" Min="3.0123807907104492e+01" Max="2.5520619201660156e+02"/>
          <Range Index="7" Min="3.0000297546386719e+01" Max="2.2616020202636719e+02"/>
          <Range Index="8" Min="3.5178482532501221e-02" Max="9.9956929683685303e-01"/>
          <Range Index="9" Min="3.5179369151592255e-02" Max="1.0000000000000000e+00"/>
          <Range Index="10" Min="3.7807781249284744e-02" Max="9.9960350990295410e-01"/>
          <Range Index="11" Min="3.4527961164712906e-02" Max="9.9959111213684082e-01"/>
        </Ranges>
      </Class>
    </Transform>
  </Transformations>
  <MVAPdfs/>
  <Weights InputWidth="12" Depth="3" LossFunction="C" OutputFunction="S">
    <Layer ActivationFunction="3">
      <Weights rows="30" cols="12">
        -3.3549677418269608e-01 -5.7103721483093872e-01 3.5461045305396299e-01 5.3909648952868505e-01 -1.2639094946334366e+00 -2.9119456376927672e-01 -1.0448480817141610e+00 -2.0097049868825001e-01 4.5821012315101056e-01 -3.4166625864658129e-01 -4.5991369580638292e-01 -1.2757283157707150e-01 -2.9858414816696927e-01 -1.0591106341179115e+00 -3.4669149344496941e-01 6.5346036774795924e-01 1.3492010943140851e+00 1.9052564433655877e-01 -5.1668245421634185e-01 4.5511938754912891e-02 -1.1888475961739049e+00 7.6152493574299718e-01 1.0103975123258301e-01 -3.3515468748702754e-01 -6.8404754459658690e-01 -8.1432792414055200e-01 -4.3957439320883646e-01 -8.6977868999097818e-01 1.3105680572411376e+00 -5.3379555271436063e-01 7.7815807023202310e-01 -1.5586779032512883e+00 -9.7788425734102666e-02 1.1643660454279713e-01 3.1975872900889929e-01 -2.1342667072016736e-01 2.0471105994810843e-01 -3.7096070595386993e-01 -3.0275137451789708e-01 2.5755104931234751e-01 -3.3303585196090796e-01 -1.7289590419598200e-01 3.3149538211344498e-01 2.0032075590887177e-01 -5.3946348754496443e-02 3.1488868534448204e-02 -1.5251673856127954e-01 -1.4014193927960497e-01 5.7977356652390433e-01 1.9104072232288599e-01 7.2138742330334793e-01 -2.5284841688939247e-01 3.8688280000552489e-01 -7.2823319355993621e-02 -9.9435460262388524e-03 5.7579405611662593e-01 1.7640285603849867e-01 -1.7275398207973558e-01 -1.3637076051041543e+00 -1.5867828764414302e+00 7.1259406666210967e-01 9.1849871626724575e-03 1.1873373909552425e+00 7.1112354389575838e-01 -1.8904230573595679e+00 7.1369491314017464e-01 -7.7376446387930742e-01 -3.1143818330342086e+00 8.5181824153433436e-02 -1.9551645477222310e-01 1.7750684220976290e-01 -1.6012311671270037e-02 -9.1203625072064576e-01 3.9043694204893953e-02 5.6312007717312595e-01 4.1866560982581291e-01 1.3259069731821002e-01 6.2617761775117395e-02 -2.2692716011673170e-01 6.2867615984396941e-01 -9.2993027769386978e-04 3.7552481841569280e-01 2.0282258960590438e-01 8.1040037241398771e-02 3.3991259910851546e-01 -1.1628326611001183e-01 -4.0436783058576442e-01 1.3572859563303298e-02 -3.8629670452240666e-01 4.7022147960779759e-01 2.7968390376838514e-01 -5.0850973602218397e-01 -1.0459994650091526e+00 -2.5418679818785522e-01 -8.2053924943908299e-02 -9.4226796568811322e-01 6.9386696306661361e-02 -2.8182929998654807e+00 4.3370956893239970e-01 4.4613219308690355e-01 -4.4156050228773530e-01 7.3469853710894720e-02 -1.2592608179713397e-01 -8.0105911739105806e-02 -1.4118032156306126e+00 -7.9782502934862498e-01 -7.7934859035194967e-02 2.9707780212534302e-02 -9.5966208507906225e-01 1.4226125335976683e+00 -6.7228159452770400e-02 3.1966268354677474e-01 3.5006536255570025e-01 5.6294757763186831e-01 5.4063778457045097e-01 1.8301321538409171e-01 -5.8288841530087876e-01 3.5736445589339100e-01 -1.4024116994951383e-01 -5.9217091963965462e-02 1.5340846101149774e-01 -4.6643845401889661e-01 3.0831733048082821e-01 4.5362606413198692e-01 8.5757349315314521e-02 -2.7104200705357884e-01 1.3575093132246627e-01 2.3053141127244176e-01 -2.4531751022649897e-01 7.7693514412589717e-04 8.1790639750482774e-01 5.6742521663094969e-01 -1.2256338737711958e+00 1.3398547664723439e+00 -3.2080658819585950e+00 3.4619532765511668e-01 1.1012598522294789e-01 3.4848077431811525e-01 8.9271139023729063e-01 -2.3461712979181287e-01 -4.0006484487074206e-01 -4.6704523268601833e-01 -5.3369662682149455e-01 -1.7054405471875408e-01 1.3095006476065396e-01 -1.8630330509950260e-01 -1.3282440673463918e+00 -4.4259586744372453e-01 1.6330584571718618e-01 3.7548824211238657e-01 -5.8429960124992275e-01 -1.0992078803051411e-01 -6.5424279247725348e-01 3.4492746754662151e-01 -1.6180883030464008e-01 -4.5649867948405275e-02 -6.1745435004633986e-01 2.7815326667726756e+00 -8.9635481633752490e-01 2.2213782468370560e-01 -4.0735922466841717e-01 1.2255513824854366e-03 -7.6166540339985811e-01 -1.2176749965808946e+00 -1.1557482990072847e-01 -1.5272014182689855e-01 -1.6601888420041430e-01 -5.7290524400147494e-02 1.1666843222031922e+00 1.5991715536351325e+00 4.7557667928410863e-01 -5.3801201701292001e-01 1.0152714297252301e-01 2.7125345680732282e-01 4.0156304453674380e-01 3.1503480070962014e-01 8.0602842526621099e-01 8.0314667291504216e-01 5.9490887146772986e-01 -1.6562003111807452e-01 4.0203769090016460e-02 -8.6392084279978598e-01 3.1827034745817495e-01 9.2015950326063145e-01 7.0654721234439177e-01 4.7580785677879861e-01 1.5144049169304480e-01 4.6643904880937483e-02 6.3997696469722065e-01 7.5876089175563058e-02 -3.5437021651636091e-01 -4.2589259405212171e-01 -4.8024390653919297e-01 5.7161200646242938e-01 -1.6818493763591553e+00 1.3672951208388207e-01 4.8864782000648105e-01 2.7495774686140301e-01 -1.1923923801244380e+00 6.4759484465157979e-01 -6.6811493660200028e-01 -1.0745971428733041e+00 -4.7906341447646322e-01 6.1153435173508142e-01 -1.3535905210068602e-01 -1.4508027953402799e-01 -6.0201174734713525e-01 6.2699765379826622e-01 3.5900564838491700e-01 7.2138735736610093e-01 -1.1263295930798932e-01 2.6619329538597020e-01 -2.0651486863751092e-01 -3.2574268652587063e-01 1.3949419344568299e+00 -2.4781184182201110e-01 -8.9665639485561233e-01 2.2713524525289839e+00 1.4201084822841048e-01 -4.0341616458334772e-01 -2.2700406131554657e-01 -1.5498086485821143e+00 5.2084268455270721e-01 -6.2032380500232809e-01 -1.1073428098527828e-01 1.5480528286508284e+00 3.6999169470189286e-01 3.5133034376002831e-01 2.2143827785151339e-03 -2.8103423913692943e-01 -4.3398714654018905e-01 -6.8247151314419419e-01 -3.6286477410421941e-01 -3.3102910106392813e-01 -1.1218119034090732e-02 3.8193647661997077e-01 -6.1071135560094414e-01 -6.2104635208169667e-01 -4.3113297524814453e-01 -7.7029155567511087e-01 3.3657738061343639e-01 -7.2098099589054943e-02 -1.8506486479675260e-01 -5.0909169003104854e-02 -4.2082081608878208e-01 6.9361999134425617e-02 -9.2226738397169494e-03 2.1374052114978723e-01 7.7654756672819264e-02 1.4363940422502411e-01 1.1466444870553326e-01 4.1556717560532676e-02 -1.7793730696050244e-01 -1.3316384075884942e+00 -1.0834546142348560e+00 -1.0781558183007640e+00 3.5822134327989213e-01 -4.3057191901198449e-01 3.1884284533284479e-01 2.9365101366040819e-01 -2.8286827168997664e-01 -6.8027212350634492e-01 5.2635984455792784e-01 2.1205766760599773e-01 -1.1078701615663582e+00 -5.6482937795437005e-01 2.6622302534327302e-01 6.8395200190561456e-01 -2.0853468484705012e-02 4.2213278851129621e-01 -4.6089388185830837e-01 1.8158607476489445e-02 5.9220354662095320e-01 -1.7125445823165775e+00 2.0491029850238851e-01 -3.2457663184755320e-02 4.9752961635580845e-01 -5.2604059201524633e-01 -4.6719000556134682e-01 7.5750018072872183e-02 1.7201623587181214e-01 1.0815486815251369e+00 3.7738197469037865e-02 1.9620527128083384e-01 -2.7156449994757959e-01 4.8024517048393847e-02 3.2648263788129650e-01 4.2685735716814183e-01 -6.1233926594486698e-01 1.1105463429037835e-01 1.1995007570183114e-01 -6.9334648679939562e-02 -5.9353410782730487e-01 -9.5408492732245431e-01 -5.9778333066697176e-01 -7.8808581117140397e-01 2.9833531259685864e-01 -1.0912667616439313e-01 4.2476305659785502e-01 -1.1579184830053395e+00 -6.1333358481064582e-02 1.9475434094168434e-01 3.1237863257206028e-01 3.9419498434760342e-01 -3.6535477257039534e-01 1.1759913490052855e-01 -3.5391329567744723e-01 8.7702729810676616e-02 -8.8360318275342686e-02 1.6596706181521630e-02 -4.4827238916224638e-01 1.7054358373471118e-01 -1.3362537361491105e+00 -5.3773583535275626e-01 5.6939297646891696e-01 -3.4415808310678564e-01 -8.3668651886263556e-01 -2.9009089826122147e-01 3.2640879295034370e-01 -6.6791335052106582e-01 3.1457468232732755e-01 1.1647643201576569e-02 -2.1256294123147881e-01 -9.2603357512983453e-01 -4.1114920817591533e-01 2.0660730423875170e-01 4.3033172387317736e-01 5.9063577482769603e-01 4.6453904539597135e-02 -3.6097788818440163e-01 -5.0909338613450850e-01 -9.4891527556397037e-01 -1.3144107035382033e-01 1.3516007417299913e+00 -3.3832167509402111e-01 -5.4418003754466027e-01 3.7051608248103229e-01 2.5210024972198927e-02 -4.1098364086158001e-01 2.1198995318707600e-01 -9.1532245574432028e-02 -6.1544417840669463e-01 -1.1002154339137085e+00 -2.2001451543238115e-01 -5.6937582121596064e-01 -3.5568786168838384e-01 -1.6906541312712200e+00 4.1105123354990059e-02 -2.1705124448222293e-01 3.2511728987828942e-01 -5.8468205227222687e-02 1.5805667975361090e-01 1.3358119338132513e+00 5.4364493907178524e-01 -6.4088781390831551e-01 4.8739775028012709e-03 -2.2572440976607253e-01 3.8842738963596424e-01 4.1732811376808643e-01 3.9408059618989094e-01 
      </Weights>
      <Biases rows="30" cols="1">
        6.5965509194073846e-01 -5.4646708082727447e-01 4.3913321031700003e-01 -1.2044200796085314e-02 4.6798425263701793e-01 -2.9116430220872624e+00 -1.0799543800163522e-01 -1.7020487705135978e-01 2.7152993687639539e+00 1.0551477021552234e+00 2.2491270736810245e-02 -1.5909453723767435e+00 -6.7761520684298227e-01 1.6350510400150139e-01 6.9010066423468952e-01 4.2563091716279228e-01 2.5801617223052120e-01 1.1414679891567518e+00 -1.5041065964421545e+00 -5.3930140008063499e-01 -1.5166962976602782e-01 -6.7248938364855182e-01 -2.5379383301512265e-01 5.0094448365285216e-01 -1.4740542839226714e-01 8.5016153549118650e-02 -2.8888966209279082e-01 -1.2962040346918929e-01 -7.5230967657032632e-01 7.2719458502547729e-01 
      </Biases>
    </Layer>
    <Layer ActivationFunction="3">
      <Weights rows="20" cols="30">
        -1.9759694136495298e-01 2.6653025267946595e-01 1.4195466240596616e-01 -3.0139807467509973e-02 5.4107703386114488e-02 1.1937262373598531e-02 -2.2139663198112994e-01 -1.7707749850428611e-01 3.5388343562261580e-02 7.0022705162578081e-02 -1.6411121288614164e-01 -3.4463760407905268e-02 -3.3922538643753421e-02 -2.4178367754089111e-01 -1.0924973119057634e-01 1.9255071822119088e-01 -1.5338482094155323e-01 -1.1945300586828504e-01 -1.3970369948833436e-01 8.2756120107759720e-03 2.3982119252774152e-02 8.2861796118082573e-02 -2.2924045356699710e-01 -1.3949852145465408e-01 2.2837604988001117e-01 1.3959938726426885e-01 -1.9255036825838307e-02 1.9150341502566184e-01 1.4291963654689698e-02 -1.9867773580644923e-01 -3.3859627077802429e-01 3.3969279909369954e-01 -9.4671170446182362e-01 -6.3828456055494653e-01 -2.8146690639876770e-01 8.0620180293791751e-03 -9.9624012494398140e-01 8.3480979764328511e-01 -3.7511009271948142e-01 -7.8633325452512515e-01 -3.4621546726839514e-01 -7.5477092430512371e-01 3.9189606580707170e-01 8.2241011544439679e-01 6.0641039964148402e-01 4.0389662133452348e-01 -7.1334602291501167e-02 -1.0668499368450247e-02 -2.9228935800053393e-02 -1.9845532910093433e-01 1.1603409260772894e-01 -7.3114785791529788e-02 -2.6055316586492311e-01 -5.7294679871602794e-01 1.8566968402539732e-01 2.9183214738581531e-01 -7.9462511871729369e-01 -2.4004964483451280e-01 1.3856937081701656e-01 -1.6519116555799981e-01 1.1385695172277730e-02 -1.2248514890412143e-01 -1.3562422346998246e-01 -6.3631994907980882e-02 -3.4138159597541978e-01 -2.3057852322690814e-01 4.3233346145095153e-01 -2.3403427010198119e-01 -1.9756653865947868e-01 -3.4580019267363415e-01 1.4801360569094560e-01 4.9018869890610739e-01 -1.3436492327344690e-01 -5.9226131672907134e-01 -2.0240975372006788e-02 -1.4911508882491972e-01 3.0870087818969572e-01 3.6597213126508255e-01 5.2912988201569244e-01 1.1292808712650979e-01 1.1646810316779752e-01 2.7456287872466878e-01 1.7675335521659127e-01 -3.5988626235619597e-01 -5.2043202733769237e-02 -2.1483560027242052e-01 3.7323651848340389e-01 2.6387904190877925e-01 -1.2989234867195443e-01 1.7932695478726582e-01 -2.3641190982309757e-02 -1.1706309569679167e-01 -7.0611048922576469e-01 -1.3152789925172637e+00 -1.9584231506545455e-01 9.3030319057536159e-01 -9.2883541694818483e-01 -1.9618892164064186e-01 5.1380576790049770e-01 2.5419041614396637e-01 -9.8216764990232991e-02 5.1229808753672751e-02 6.0292490024673122e-02 1.3308026777687030e+00 -2.7543359934799061e-01 2.1773018754125273e-01 1.4172061909166792e-01 3.1915362209910411e-02 1.0269373930313093e+00 3.0011209171903835e-01 -3.9880716662676126e-02 6.6675023220252747e-02 -7.1607693745264114e-02 -6.4482064063293565e-01 7.8367012079843062e-02 -6.8797571178988368e-02 -3.4435713796996087e-01 -4.2430312161916450e-01 -4.2040493858359555e-02 -4.5748665647342490e-01 2.4488770497311868e-01 3.2088663456499233e-01 7.5215585330852697e-01 -1.3014552331901430e-01 3.8560812413803547e-01 -8.1984640015676691e-01 -6.0003464283818246e-02 9.2383172949609474e-02 -1.4688064425282044e-01 2.1586333059487312e-01 -2.2178825473336147e-02 3.4672264202037756e-01 6.8284046749359978e-02 -2.6710799490127562e-01 -3.1150477812251492e-01 5.8761994080382884e-01 3.5013086123259729e-01 7.6056459601490312e-01 -9.8561564925530443e-01 1.8639217216662379e-01 -1.9389344148556868e-02 -5.0621082272876566e-02 -4.0303512704385092e-01 4.0800864281294669e-01 -2.9629001082996714e-01 1.0810057026932002e-01 -1.5470663447207164e-01 5.0309818215307271e-02 4.2441341900658408e-01 6.7475941890252178e-01 -2.0128603883829216e-01 -4.3291643943237018e-01 -6.8775329291110965e-01 2.4023836254748279e-01 4.2015372020659614e-01 -3.9144297489201912e-01 4.4555720936695187e-02 -2.7795865635227590e-01 1.0200484615199915e-01 9.0049788488343718e-01 1.0077032320183121e-01 6.2161543950862408e-01 -5.7785237273826418e-01 5.6396896480044212e-01 1.0617686582380427e-01 6.5923501983897326e-01 -1.9914319465288871e-01 2.1863225245859125e-01 -8.7276426124167514e-02 6.3544624580356590e-01 2.7791348314183595e-01 2.9656845087329853e-01 6.4317109875241862e-02 -3.2247409049551951e-01 -6.7389414871649914e-02 -5.8589057494472296e-02 -3.5680900000602822e-01 1.0115931304951014e-02 -6.7089884676991535e-02 7.1463920654048674e-01 3.8680165789928894e-01 1.6403602319204214e-01 1.7643218498343691e-01 -3.4163558668792882e-01 4.3297195427392898e-01 -3.9194053782606364e-01 2.0217333833944920e-01 1.9958112614022061e-01 -2.0063482095900295e-01 -3.1480725055653547e-01 1.8073261883549177e-01 7.2713134368804955e-01 -2.3604513749990222e-01 -8.7408077492440520e-02 1.8561638353083160e-01 -2.5797708714112844e-01 3.9483526094901483e-01 3.1730954119487675e-01 1.4803782632328155e-01 -3.5531771368265069e-01 3.4547105082392927e-02 -4.9992956944544525e-01 -4.0113359150994288e-01 -1.2187943802923161e-01 -2.1586312194100801e-01 1.4197302453035202e-01 -4.8800560549204308e-01 -1.6473106387347805e-01 2.4585942949143613e-01 4.9764231837099215e-01 5.7387394518354051e-01 1.9254877180120682e-02 1.1164366607888895e-01 4.9761056914908214e-01 3.5470060663552977e-01 -7.8305968280500016e-01 8.1039382685061079e-01 5.2010338055278260e-01 -1.4399043625155231e-01 -3.6489132104255706e-01 -4.1334473041401626e-01 3.1621939279054290e-01 -8.8588044606806726e-01 -6.0030330037128665e-01 4.3555320617689308e-01 -3.3170336848307597e-01 1.2981590018890787e-01 2.9863947094672083e-01 -7.2639479994427292e-01 4.9931742028142495e-01 9.9843365675089751e-02 5.5958443867648290e-02 -9.8022457295639936e-02 6.5692860591642588e-02 8.9488352808777094e-01 1.2200329188181126e-01 -3.4545710314695562e-02 3.9147242286981737e-01 3.0859534085171575e-01 4.6888072451847085e-01 -4.2121439345342870e-01 -3.4365195779658682e-03 -1.6947014836769739e-01 1.9228167221206710e-01 -1.4913642923277637e-01 3.9414468301993105e-02 5.4214661884880938e-03 5.4135398953133594e-02 8.2953931618413379e-01 3.2694072981398775e-01 5.1584762849695341e-02 -4.9163894993591883e-01 1.5430910079719024e-01 4.8081100865299431e-01 2.7829306299145817e-01 -4.4993880241024253e-01 -1.5673448586518765e-01 -1.1974291395746692e-01 -2.0284487959213249e-01 6.9777821907239773e-02 7.0529867267135424e-03 2.7527652332688290e-01 -6.3542562199739527e-01 3.8639205976764092e-04 -3.3058726492640433e-01 3.7509327440894841e-01 1.9736796131084972e-01 2.0296275014682424e-01 -1.8234294045137853e-01 -2.0505485992516509e-01 -2.8323453426573990e-02 -1.1799383172754767e-02 2.4522578970216785e-01 3.5311013382323281e-01 6.4109790415135515e-01 -3.5582584165901909e-01 -4.2898114286549704e-01 9.3569723171552222e-01 6.6771360184905559e-01 -2.1745195704195172e-01 -3.9270062631800473e-01 -1.7784791680664477e-02 -2.4585985627556234e-01 -7.9670074345017006e-01 3.2860275616565332e-01 3.1156755205305153e-01 -6.7818700703849863e-02 6.1094237820677733e-01 -9.2246255752993966e-01 9.2759292155257279e-03 -1.6207735681108881e-01 2.7706774251222605e-01 -1.0177736780478204e+00 2.4922670947212341e-01 -2.0178252253270917e-01 2.6616773973984108e-02 -7.5706124105856115e-02 3.4210083690623533e-01 6.0002732535977954e-01 -1.2927512007887282e-01 5.9663597095003196e-01 7.2101239200021239e-01 2.6646025777753862e-01 4.1152455916301017e-01 -4.5524238845402398e-01 3.6785845900389574e-01 2.8794836957313780e-01 -4.1642475708049054e-01 1.4863378834546984e-01 -1.2367008038283820e+00 -4.0293016883347071e-01 1.2721205237271829e-01 4.5542353176275263e-01 -1.2146508806041392e+00 -9.1756218459978101e-01 2.8677108058905665e-01 -6.9504511790036339e-01 -2.3022226351908037e-01 9.1136260759391144e-02 2.0133449504930970e-02 4.0419949199641536e-01 5.5494332920019762e-01 2.1845383433369359e-01 7.3992266899651604e-01 1.3531734825329096e-04 -4.2419534367534900e-01 3.2171754680826392e-01 3.8046723973598989e-01 -8.3639316685665169e-02 -4.7521980288269583e-01 -8.3006777320625025e-01 -9.4611681710002576e-04 -6.0987516546621456e-01 3.7245975505087375e-02 3.6709789212492228e-01 7.7208749047160008e-01 1.4647426362473065e-01 -3.5604458032114844e-01 -1.0721744745248700e-01 5.0091680154868123e-01 -4.3108433099092269e-01 -3.2697526268831351e-02 -1.7639933788239220e-01 1.4810571355622679e-01 1.6791059706769598e-01 -3.5042682223676314e-01 -3.3887239986188822e-01 -7.6202909500026461e-01 8.4700803354443022e-01 1.6311179640833820e-01 1.0954840352645358e-01 1.4397430996088939e-01 4.3572586510125483e-01 -2.7649339048290866e-01 9.6314079545065734e-01 -6.4395223778227439e-01 1.9862888303247891e-01 -3.6577088940120117e-01 -7.2157178898655139e-01 -4.2053994347558571e-01 2.0797088489533844e-01 -2.1600659193922475e-01 4.6052791608337673e-01 3.8412428629724216e-02 -1.2353119090046759e-01 -1.4539922482241580e-01 -1.4428848489326326e-01 -3.8009879167239198e-02 -2.4077646092840285e-01 -1.6543741718340213e-01 3.5984250997609502e-01 -3.0699294157089724e-01 -2.5070838426192987e-01 7.0397227705186402e-02 4.8058371078967865e-01 -2.7976886898701647e-01 -9.6203838470114988e-03 3.8867687869323519e-01 2.1468428375359594e-01 -2.2026783816746257e-01 3.6544644236811319e-01 2.5990407467095058e-03 -9.6952696526775975e-02 -2.6794190635600696e-02 -1.8312138566407652e-02 -1.5771759814755076e-01 -5.6062339181609155e-01 -1.7266336339286498e-01 -8.1278298375994026e-02 -2.1499930197099074e-01 1.5845467753705675e-01 3.2498179354063017e-01 4.7692635465679656e-01 7.9557426934061737e-01 -1.0489005781109069e-01 1.2420306057082907e-01 1.7185723257418946e+00 -3.8292167170745650e-01 1.6130561926266647e+00 -1.4257197820166783e+00 -9.5411204539796041e-02 -2.3784895413541862e-01 2.5977107111960462e-01 -1.4731210860138046e+00 -1.1008213421191815e+00 9.0625398363385151e-02 -8.6397375214235161e-01 -4.5797607960896536e-01 -1.9921702885778261e-01 9.8771910113545039e-02 4.4907081208169219e-01 5.7708854783351071e-01 5.9375929720105594e-02 1.3955690320262180e+00 -4.2641524436923745e-01 -3.4046494473383693e-01 1.2263063629413915e+00 2.2617757628040852e-01 2.2924079640915371e-01 2.6639698638479200e-02 -3.2908102031876496e-02 -4.8023050015295429e-02 -9.0308492383426475e-02 -2.3042790668645077e-01 -1.4031253263540971e-01 -2.5570716697094609e-01 1.9021994991726968e-01 -3.5009208289496963e-01 -3.9132287820094119e-01 5.2458348484448192e-01 -8.8917515230092600e-02 2.5695845572018111e-01 3.4146832341550561e-02 3.4166265120899253e-01 -4.2146952323753395e-01 1.8610576655968269e-01 3.5648587328096004e-01 -1.9591933390810201e-01 6.5196716784620218e-02 -9.1720075449283900e-02 -3.1804906104932917e-01 -1.9442890342084479e-01 1.5806369260907521e-01 -4.1203036611401977e-01 1.0006374780047535e-01 1.8377777667165060e-01 4.6808291754318510e-01 -5.0691873825087019e-01 -5.9807353646212473e-02 4.2766222807017712e-01 9.0785941641757975e-02 -3.5462668757773580e-01 3.7487722059758083e-01 -4.0155702390810699e-01 -2.2367999825476281e-01 6.4359265782474628e-01 1.1963577310529590e-01 -4.7328408065075406e-02 -5.8164331266889080e-01 2.6799010738470386e-01 -6.9539907268957157e-01 1.6299587444616001e-01 2.5541614715676685e-02 -8.6479931604021440e-02 3.4118060513684034e-01 -2.3913361559159241e-01 7.5529406689558445e-02 -6.6159330298100938e-01 4.3854902018502978e-01 -1.6798518846487250e-04 2.9385226887770721e-01 -1.5999027857477163e-01 -2.5804386938419244e-01 -1.9765513929337253e-01 4.0430477692883227e-01 -2.2708301979331519e-01 5.1049964978731621e-01 -7.4872259095419003e-01 -5.6240985607538962e-01 -5.5111063209915123e-01 3.2607721792615790e-01 5.7392120684195753e-02 7.5317452951277300e-02 7.5728860766005476e-02 2.3554109853827268e-01 2.2881263415664657e-01 -1.0882964322800935e-01 5.7037490540803627e-02 -1.2448655909548480e-01 1.4057320981360605e-01 2.2090313623949714e-01 -6.2262971822195388e-02 -3.2355646503955832e-01 1.0649906939641493e-01 -1.0159211845365068e-01 4.7594131487148666e-02 -9.0784450220416771e-02 -2.6173272616339582e-01 4.6984427891402829e-02 -2.8595725798389093e-01 -1.1436011511209127e-01 -1.8901142974829366e-01 8.1282729355329097e-02 1.0029213202628555e-01 4.8332132357538124e-02 2.2565772692606345e-01 -6.2488605662837760e-02 1.5371162032043917e-01 1.8423662581661886e-02 -4.2329392180236493e-02 -2.1744507660855744e-01 -2.7029897708647288e-01 -1.1667033538743206e-01 -1.0885731833867070e-01 3.4591926278323643e-01 -2.5633834659783500e-01 1.4740515309128427e-01 1.6537313503274051e-01 4.0943541902143488e-01 9.5517950566460424e-02 -7.1027933919060954e-02 1.7221088516355076e-01 -4.7324113257363132e-02 3.2267067721991194e-01 2.0792189244478163e-02 -1.4941338584882505e-01 1.9640008837059841e-01 -2.1086931927745511e-01 -2.1968098073968617e-01 -2.9464070800862982e-02 4.6150329537547385e-02 -1.2707572925295088e-01 -1.8081264260379426e-01 -1.7687453702835443e-01 -4.5390290477824995e-02 -1.1410206844484720e-01 2.7819012485445715e-01 -1.8935241073650558e-01 -9.5982316209186985e-02 -1.8248349301068512e-01 7.8867457759813520e-01 -5.1302503846241176e-01 1.9983155992927826e-01 -5.0429071717030560e-01 -2.4522252314255502e-01 3.0148557493611444e-01 2.6905079344542959e-01 -1.5986546379787706e-01 -1.5642064498211203e-01 -2.6436898311307511e-01 -2.1650247924127625e-01 2.1660314615669723e-01 6.0665409395815773e-02 -2.1283370648267716e-01 3.2467236383768899e-01 -4.3904790494004986e-01 -1.4572552746785687e-03 -8.5038192039673249e-02 5.5604080946355428e-01 -1.3245299957968126e-01 1.3850395164083354e-01 -3.3534170538762381e-01 -1.4682879085794978e-01 -1.2652790171906894e-01 -4.1019495368863429e-01 6.8600219089217795e-01 -2.2603011870089751e-01 4.5134938931840493e-02 2.2615895453972132e-01 -4.4846598043828051e-01 -7.9904047026912040e-01 -4.3886075018305798e-01 4.6480465230476914e-01 -4.1409069923622649e-01 2.0434339229144255e-01 3.1620889482383607e-01 1.7455730290453791e-01 -2.1055996511791236e-01 -9.5463301312092708e-01 1.8290933450444788e-01 -3.0373110757246669e-01 5.3904383066479222e-01 -2.2137726040337630e-01 1.6828966178311017e-01 3.5259365371837414e-01 -4.1168243379703090e-01 2.0671643014161880e-02 3.6219645198539652e-01 3.0293148186150176e-01 1.8124250726532939e-01 -4.4379775836861486e-02 3.4018381768906680e-01 7.2054022708179982e-02 -8.1301645202622216e-02 -3.8248897822887384e-01 -5.2026595193951419e-01 -1.8777107634766310e-01 -7.2020110614307645e-02 8.6466105230196363e-02 5.1035330805288226e-01 
      </Weights>
      <Biases rows="20" cols="1">
        0.0000000000000000e+00 0.0000000000000000e+00 0.0000000000000000e+00 0.0000000000000000e+00 0.0000000000000000e+00 0.0000000000000000e+00 0.0000000000000000e+00 0.0000000000000000e+00 0.0000000000000000e+00 0.0000000000000000e+00 0.0000000000000000e+00 0.0000000000000000e+00 0.0000000000000000e+00 0.0000000000000000e+00 0.0000000000000000e+00 0.0000000000000000e+00 0.0000000000000000e+00 0.0000000000000000e+00 0.0000000000000000e+00 0.0000000000000000e+00 
      </Biases>
    </Layer>
    <Layer ActivationFunction="0">
      <Weights rows="1" cols="20">
        1.6844996425380357e-02 6.8641072967304451e-01 -2.5576320472646008e-01 5.6170293768672430e-01 -3.8136920990771955e-01 4.1690338624932860e-01 -5.4849931857610978e-01 -4.1493298214421126e-01 4.5264317247455055e-01 -4.4816021652710381e-01 -5.7118836291819430e-01 9.9758018707507601e-01 -3.4108195624010562e-01 7.9293238616343120e-01 2.9059166179548984e-01 -5.4392613216563601e-01 -1.9791405972385429e-01 -2.4817006161718672e-01 -4.2395298730712577e-01 -6.7009054964673043e-01 
      </Weights>
      <Biases rows="1" cols="1">
        0.0000000000000000e+00 
      </Biases>
    </Layer>
  </Weights>
</MethodSetup>
