<?xml version="1.0"?>
<MethodSetup Method="DNN::DNN">
  <GeneralInfo>
    <Info name="TMVA Release" value="4.2.1 [262657]"/>
    <Info name="ROOT Release" value="6.08/02 [395266]"/>
    <Info name="Creator" value="minerva1993"/>
    <Info name="Date" value="Mon May 22 03:44:28 2017"/>
    <Info name="Host" value="Linux htop.hanyang.ac.kr 2.6.32-696.el6.centos.plus.x86_64 #1 SMP Mon Apr 3 14:56:08 UTC 2017 x86_64 x86_64 x86_64 GNU/Linux"/>
    <Info name="Dir" value="/home/minerva1993/fcnc/tmva"/>
    <Info name="Training events" value="200000"/>
    <Info name="TrainingTime" value="6.97242813e+03"/>
    <Info name="AnalysisType" value="Classification"/>
  </GeneralInfo>
  <Options>
    <Option name="V" modified="Yes">True</Option>
    <Option name="VerbosityLevel" modified="No">Verbose</Option>
    <Option name="VarTransform" modified="Yes">N</Option>
    <Option name="H" modified="Yes">False</Option>
    <Option name="CreateMVAPdfs" modified="No">False</Option>
    <Option name="IgnoreNegWeightsInTraining" modified="No">False</Option>
    <Option name="Layout" modified="Yes">TANH|50,TANH|100,TANH|70,TANH|30,TANH|10,LINEAR</Option>
    <Option name="ErrorStrategy" modified="Yes">CROSSENTROPY</Option>
    <Option name="WeightInitialization" modified="Yes">XAVIERUNIFORM</Option>
    <Option name="Architecture" modified="No">STANDARD</Option>
    <Option name="TrainingStrategy" modified="Yes">LearningRate=0.03,Momentum=0.5,Repetitions=1,ConvergenceSteps=300,BatchSize=1500,DropConfig=0.0+0.3+0.3+0.0,WeightDecay=0.001,Regularization=L2,TestRepetitions=5,Multithreading=True</Option>
  </Options>
  <Variables NVar="5">
    <Variable VarIndex="0" Expression="NJets" Label="NJets" Title="NJets" Unit="" Internal="NJets" Type="I" Min="4.00000000e+00" Max="1.70000000e+01"/>
    <Variable VarIndex="1" Expression="NBJets_M" Label="NBJets_M" Title="NBJets_M" Unit="" Internal="NBJets_M" Type="I" Min="1.00000000e+00" Max="7.00000000e+00"/>
    <Variable VarIndex="2" Expression="NCJets_M" Label="NCJets_M" Title="NCJets_M" Unit="" Internal="NCJets_M" Type="I" Min="1.00000000e+00" Max="1.00000000e+01"/>
    <Variable VarIndex="3" Expression="BJMDPhi" Label="BJMDPhi" Title="BJMDPhi" Unit="" Internal="BJMDPhi" Type="F" Min="-3.14159012e+00" Max="3.14156199e+00"/>
    <Variable VarIndex="4" Expression="BJMDEta" Label="BJMDEta" Title="BJMDEta" Unit="" Internal="BJMDEta" Type="F" Min="-4.75499535e+00" Max="4.76451778e+00"/>
  </Variables>
  <Spectators NSpec="0"/>
  <Classes NClass="2">
    <Class Name="Signal" Index="0"/>
    <Class Name="Background" Index="1"/>
  </Classes>
  <Transformations NTransformations="1">
    <Transform Name="Normalize">
      <Selection>
        <Input NInputs="5">
          <Input Type="Variable" Label="NJets" Expression="NJets"/>
          <Input Type="Variable" Label="NBJets_M" Expression="NBJets_M"/>
          <Input Type="Variable" Label="NCJets_M" Expression="NCJets_M"/>
          <Input Type="Variable" Label="BJMDPhi" Expression="BJMDPhi"/>
          <Input Type="Variable" Label="BJMDEta" Expression="BJMDEta"/>
        </Input>
        <Output NOutputs="5">
          <Output Type="Variable" Label="NJets" Expression="NJets"/>
          <Output Type="Variable" Label="NBJets_M" Expression="NBJets_M"/>
          <Output Type="Variable" Label="NCJets_M" Expression="NCJets_M"/>
          <Output Type="Variable" Label="BJMDPhi" Expression="BJMDPhi"/>
          <Output Type="Variable" Label="BJMDEta" Expression="BJMDEta"/>
        </Output>
      </Selection>
      <Class ClassIndex="0">
        <Ranges>
          <Range Index="0" Min="4.0000000000000000e+00" Max="1.4000000000000000e+01"/>
          <Range Index="1" Min="1.0000000000000000e+00" Max="7.0000000000000000e+00"/>
          <Range Index="2" Min="1.0000000000000000e+00" Max="8.0000000000000000e+00"/>
          <Range Index="3" Min="-3.1415901184082031e+00" Max="3.1415309906005859e+00"/>
          <Range Index="4" Min="-4.7097020149230957e+00" Max="4.7495479583740234e+00"/>
        </Ranges>
      </Class>
      <Class ClassIndex="1">
        <Ranges>
          <Range Index="0" Min="4.0000000000000000e+00" Max="1.7000000000000000e+01"/>
          <Range Index="1" Min="1.0000000000000000e+00" Max="7.0000000000000000e+00"/>
          <Range Index="2" Min="1.0000000000000000e+00" Max="1.0000000000000000e+01"/>
          <Range Index="3" Min="-3.1415681838989258e+00" Max="3.1415619850158691e+00"/>
          <Range Index="4" Min="-4.7549953460693359e+00" Max="4.7645177841186523e+00"/>
        </Ranges>
      </Class>
      <Class ClassIndex="2">
        <Ranges>
          <Range Index="0" Min="4.0000000000000000e+00" Max="1.7000000000000000e+01"/>
          <Range Index="1" Min="1.0000000000000000e+00" Max="7.0000000000000000e+00"/>
          <Range Index="2" Min="1.0000000000000000e+00" Max="1.0000000000000000e+01"/>
          <Range Index="3" Min="-3.1415901184082031e+00" Max="3.1415619850158691e+00"/>
          <Range Index="4" Min="-4.7549953460693359e+00" Max="4.7645177841186523e+00"/>
        </Ranges>
      </Class>
    </Transform>
  </Transformations>
  <MVAPdfs/>
  <Weights InputWidth="5" Depth="6" LossFunction="C" OutputFunction="S">
    <Layer ActivationFunction="3">
      <Weights rows="50" cols="5">
        -6.3554414231826573e-01 -4.4085347540342545e-01 2.0717940316143310e-01 1.6904000610490261e-01 1.5436693206096235e-02 -2.7419986952016207e-01 -6.5447713725287260e-01 4.4268602713272787e-01 1.5353339197480026e-01 1.4142112747547997e-01 -5.8365642292145992e-01 -2.4997246752349264e-01 -2.6422666653011817e-01 3.8371350930165943e-02 -3.6817796510272294e-01 -6.2519903152381165e-02 -1.0445911039203304e+00 -6.4610957772495467e-02 -2.4301987807756133e-02 -1.6570629602496686e-01 4.1363357870327205e-01 7.6706094610123149e-02 -1.5229114832267135e-01 -3.4035345892983027e-01 -1.8343572176412831e-01 5.2534721333573087e-01 6.7312395974193617e-01 6.7029303359498904e-01 1.7536027175214658e-04 -5.8346963911031313e-01 -4.4315245727817487e-01 4.4219682746791450e-01 3.3683142463239774e-01 1.3205994793753664e-01 3.3382146615113317e-01 -2.9056401502972834e-01 4.2701678206704896e-02 5.9541864142329773e-02 1.9107618805722076e-01 -4.0660640574934909e-01 -5.8673515817277322e-01 -4.8290179310573444e-01 4.0382089671319749e-01 3.9687578594038590e-02 -1.0073887925920981e+00 -9.2139306028539625e-01 -6.7027845319103840e-01 -5.3862513552718450e-01 -8.9293620110537597e-02 -3.2305874328836781e-01 1.4041027890309365e-01 -2.1962245767439142e-01 2.5993950410209309e-02 5.7522996677906189e-02 -1.8807128437674108e-02 2.3356625772373696e-01 -6.2819492239506991e-01 -6.0251373889339521e-01 -9.3474027840715346e-02 -4.5452119177376814e-02 4.9159355393079157e-01 6.6729468118213131e-01 1.9422669597197673e-01 -6.1566396114799164e-03 -4.2435367282983538e-01 6.8189203215238234e-02 -7.2326760123008149e-02 1.7084307292934034e-01 -1.2039885504633010e-03 7.9397709308357922e-01 3.3164878025610139e-01 1.2043181707522460e-01 4.8428028176278570e-01 -8.9420512445986450e-02 2.1566042772284255e-01 2.4319244522533045e-02 -5.4294556518980443e-02 2.1771057095121352e-01 -1.4403527827380266e-01 -1.7692322505656338e-01 -5.3945970145967345e-02 4.6848263090970416e-01 -1.7080903060511923e-01 -7.8121699435347733e-02 7.5798600918991021e-01 -6.3142677671161196e-01 -5.0638342828094107e-01 5.0014488504859322e-01 1.1828160133567270e-01 -1.1487342164694299e+00 -6.1398004407637194e-02 -7.1080589597394028e-01 -2.3627190986974289e-01 -3.6553011098097393e-01 -4.3440600099892324e-01 -1.1771925551135645e+00 3.3720451429478562e+00 -5.8909295885303553e-02 -1.8948662916420211e-03 -5.2633775392676455e-02 5.7309124820654689e-01 5.1016129568721025e-01 -4.0782992775779692e-01 7.1381251910559848e-03 1.0679205509065615e-01 1.4577009695452187e-01 -2.6860986088077610e-01 2.7229782263023455e-01 1.8925489109024413e-01 1.1130868997444847e-01 -4.5479794886194197e-01 -2.6859068294619137e-01 -3.0576914910436886e-01 2.5101179871915888e-02 -1.7079528234964234e+00 5.0020664861635400e-01 3.7544860654768170e-01 -4.4752993033224059e-01 1.7242976295361986e-01 -3.1552992039490912e-01 2.5384537771450555e-01 2.9023461983646448e-01 2.5031987238747222e-01 -3.3444902027872120e-02 1.3278653295605333e-01 2.6835579056595821e-01 7.5816930826706863e-01 -5.0974779708405460e-01 3.5403835331487936e-02 -3.8177837298059875e-01 2.8925533615230297e-02 -1.2166569528112746e-01 5.2824916612926320e-01 1.2177278292817580e-01 5.6307711089758927e-01 -5.2269291398979623e-01 -3.3027731782988562e-01 -1.0949483476139962e-01 -6.8301045973118632e-02 3.6190514973305149e-01 4.1550139767640498e-01 3.6694876530407988e-01 8.7155644822645872e-02 -1.3010554745168018e-01 -3.3002902279661028e-01 -6.1307972694022606e-01 7.0125281224597311e-02 3.7854197740389456e-01 6.3390705443648596e-02 -1.7551700746967860e-01 5.7618916631665199e-02 6.9323602037691407e-03 3.2231742822222903e-01 -5.0797796736223877e-01 5.9805867634420429e-01 -5.1571999462601770e-01 -6.2047463998107544e-01 -5.5338254343605642e-01 4.3398919209585655e-02 3.8990828070476208e-01 -1.4171728943409645e-01 3.3624177552462647e-01 6.4801924914465459e-02 6.6159579880503616e-01 -1.3432420843768819e-02 -2.9179038531383145e-01 -3.3112083925043723e-01 -1.6086027018228782e-01 3.5311076120085633e-01 1.8301387086406851e-01 -3.0413128921756316e-01 3.2595093499698496e-01 -2.8560877116270249e-03 4.7004922282549183e-01 -1.5761936606376237e-01 6.9965486962297221e-02 4.9007857669730537e-01 5.0588389852476789e-01 -2.1990691535161269e-02 6.1458973579387829e-02 3.0834497989655396e-01 -7.4341582242059190e-01 -1.2951407669490775e-01 -6.2861117196549732e-01 -2.8364066978656105e-01 -5.7832945657036200e-02 -2.1116766251668079e-01 -2.2118114715277370e-01 2.2952496906154779e-01 -1.1545397438076847e-01 -3.8387538250473802e-01 -2.3677144000631981e-01 5.2673487561794752e-01 -9.7123644146788566e-03 1.9009831074267033e-01 1.6016660520389681e-01 -4.0370490365374434e-01 -3.8563688828030929e-01 3.2488262387005901e-01 2.4817148940748796e-01 2.5282827649191353e-01 1.5394510481117887e-01 -2.7070840531036011e-01 -3.0576832202110792e-02 1.6430781340336318e+00 -3.7871145454348817e-02 2.9959117907167387e-01 2.2220897236839601e-01 2.1654333514306853e-01 -3.6017152686498749e-01 -4.3482417973059406e-02 -8.1551106928234784e-01 2.9009701139128186e-01 -3.4513149546842947e-01 2.2960026439462508e-01 4.0510918064205181e-01 1.3047431004086367e+00 -3.4030794130397624e-01 -2.8582069226739176e-01 -1.9904922269299807e-02 5.7029210755925053e-01 6.1398053985191736e-01 -4.0954919789825567e-01 -1.3009923476162586e-02 6.1452286109121779e-01 -1.4507241434250623e-01 -5.6399814782506753e-02 -3.5640595518705787e-01 2.4841320704224870e-01 2.5999778659068068e-01 6.2709165544636986e-02 3.9056508329968259e-01 -2.3535794728764398e-01 -5.4722505251019160e-01 1.9985378910423121e-01 8.0256021999881932e-01 5.3342065165633401e-01 -2.0515540947240093e-01 -5.5295615333461286e-02 -9.7588311716621878e-01 1.7211489557792603e-01 1.5281187961348616e-01 -5.8191036119977724e-02 -7.2465578408965864e-02 -3.3021612233502201e-01 -1.0739817371206842e-01 1.8086743194878335e-01 3.2410242460190825e-01 -2.8780592318020881e-01 7.1745142834853268e-02 
      </Weights>
      <Biases rows="50" cols="1">
        -4.4743299029126815e-01 -2.9166727768653539e-01 -7.4805597014589642e-01 -5.0459236701152133e-01 3.5765172925185268e-01 8.2041283691112332e-01 -3.9390848188837424e-02 -3.7553791868687053e-01 -1.0491968727439741e-01 -1.2239306944110342e+00 2.0012492093359206e-03 -4.0596317387633535e-01 6.9983510136840443e-01 4.3185127496927961e-02 4.7014995261159892e-01 1.4759063184973470e-01 1.6012571377578386e-01 -1.0235365224376226e-01 -2.1396551949347700e-01 3.4212239953369150e-01 1.1344080000458057e-01 1.7999576942224815e-01 -2.1049454286484015e-01 4.3136601028583771e-01 3.6562495387319588e-01 2.6669580463491904e-01 3.4359269022228678e-01 -6.0966641322872372e-01 5.2050999995913749e-01 -4.0446786752940550e-01 2.8557431636379384e-02 -7.8375069366911954e-01 -1.4136198156658791e-01 -4.2530953456574677e-01 1.7366133326688268e-01 5.0533343430123678e-01 -5.0765821010462098e-01 -1.1102121984643500e-01 -1.3177628271019374e-02 -4.2358861034502482e-01 -4.1142526455440703e-01 1.0241449019255501e-01 -4.0427731919682636e-01 1.3486941348054629e+00 2.6714823637372181e-01 -3.9618971516109480e-01 -6.1406958775533600e-02 5.4983960866360637e-01 1.3143489094113095e-01 1.6578789626130652e-01 
      </Biases>
    </Layer>
    <Layer ActivationFunction="3">
      <Weights rows="100" cols="50">
        -1.5649836830774377e-01 -4.5907068546121059e-03 5.9833225667537265e-02 -1.4199635722547191e-01 1.4801257316732233e-01 1.3612246010463683e-01 -1.8523040704742244e-01 -1.1629092664370909e-01 1.4515700375416243e-01 -1.1954023996055003e-01 -1.8498885106149421e-01 4.7378282057483220e-02 -2.1912744996944161e-01 -7.9870661330747866e-03 1.3387161377792267e-01 4.6619072639331613e-02 -1.0593789043783319e-01 -4.0069130460343083e-03 1.2663136949444822e-02 -5.7104434822071365e-02 1.7245979703828457e-01 -1.4724384772930943e-01 1.8549956478797580e-01 -1.6425696643087817e-01 9.1982937411965005e-02 6.2102610373872174e-03 -1.0184546530428576e-01 2.1530968934941291e-01 1.4211380399839196e-01 -1.5631836366987845e-01 1.5801142094205572e-01 -1.1186558717094053e-01 3.0852260668362101e-02 1.3523497833911413e-01 8.7009664958312041e-02 1.1678389591352475e-01 -1.9985856878639405e-01 1.9861388186596218e-01 3.9045336497332293e-02 7.7406276910039845e-02 5.2754294187011198e-02 -6.4847711839286712e-02 3.4497124817246829e-03 6.3585094054215252e-02 3.9704841192243809e-02 -1.2371914494763468e-01 -8.4680626633007114e-03 1.5628954498781311e-01 2.4053945749804270e-01 3.8586289422151421e-03 8.7567075203736189e-02 -7.3341712704326434e-02 -1.0446503907789456e-01 -9.3443111210376170e-02 -6.5395222655313071e-02 -5.7980281421409353e-02 -1.7354389494425893e-01 3.8634882871879300e-02 1.6719993056226484e-01 -1.6819132908582737e-01 -3.4346364366343612e-02 -1.2323263207687370e-01 -1.9716318991782150e-01 -1.2082669997772015e-01 -3.6182548745810075e-02 -1.4328910892920055e-01 9.7636874342854285e-02 -8.6267176266973888e-02 1.1314190155729190e-01 -3.4153068484004408e-02 -1.2018268283806703e-01 1.0681136541639055e-01 -2.3454883819718272e-01 -3.9083192408812861e-02 1.7553888897223216e-02 -1.0572031832609802e-01 -1.3510166756958475e-01 -1.7806991086581139e-01 1.4373294986090332e-01 -1.0769402814117678e-01 5.7711012437737137e-02 -7.6339439056094652e-02 1.6157707330708512e-01 -1.1392542244163199e-01 6.1293789224773812e-02 1.5100470048947564e-02 2.1221117074034623e-01 -8.5028685025104564e-02 1.8101799173869335e-01 -7.2850738604749860e-02 2.4283097101029799e-03 1.1051923784440601e-01 -9.9664218154518022e-02 -5.4824091686725474e-02 -5.4695823408255913e-02 8.7919328401649441e-02 -1.1003956500034670e-01 -1.0759450430519668e-01 1.4635393142701816e-01 6.2390873751443775e-02 3.4691231681866989e-02 8.6139453713155040e-02 -1.3203328862960365e-01 9.6040993057786836e-02 -3.7695255764698503e-02 1.8419849545926642e-01 -1.7466828983639329e-01 -2.6246949442720265e-02 1.3558518758448215e-01 -2.0271848457683692e-01 -1.0569234808752130e-01 5.2041494909891510e-02 1.7812421607476961e-01 1.4475391908537480e-01 -5.4137043905029054e-02 -1.0872124748817577e-01 3.5372125606639465e-02 -9.5921807703589226e-02 -1.0597506546603951e-01 -3.1279395938244768e-02 9.6845853723921571e-02 1.5747172398207351e-01 1.5998982355568146e-02 -9.6935931438936390e-02 -2.2450269036777291e-02 1.0344417639444252e-01 6.1439517736510005e-02 1.3818316276264955e-01 6.6712757845831805e-02 -1.2239369248199235e-01 1.7717305373681078e-01 1.1755637605899943e-01 -5.0759775137062630e-03 4.2115200098610042e-03 1.7334655990805384e-01 1.7931207765384008e-01 -2.1445700933340878e-01 5.2001074806377875e-02 1.4307447976864554e-01 -1.7046934763390271e-02 2.4801082152923029e-01 2.3059174323749776e-01 1.2978691630429462e-01 2.1325317424069548e-01 1.2900699149628228e-01 1.6989471494767772e-01 -1.7710915740006572e-01 -8.3398264548594336e-02 -1.0065244002995205e-01 5.7631632393878203e-02 -1.1481896785264266e-01 1.3213027304729846e-01 1.4271911336767448e-01 -1.5396298332502059e-01 -1.0879822803882359e-01 -8.1657457050889504e-04 -1.1967039902057346e-01 1.6963153812687587e-01 -9.3684681166877101e-02 1.4413257409404426e-01 -8.2964025196877789e-02 -1.7361455894902834e-02 -1.1819743814652252e-01 6.9081317551806229e-02 -1.3148373192210785e-03 -5.0462692389500671e-03 -1.6712253959434045e-01 -2.3408286199391240e-02 -1.0133837605048286e-01 -3.7343975287229214e-02 -1.6966222222347574e-01 -7.5611243228494648e-02 -1.3292361923956680e-01 9.5756341737374101e-02 2.1814830504202257e-02 1.2542609664143986e-01 4.1789875915713599e-02 1.8726677418955828e-01 -1.6522066685655709e-01 1.8389138463222987e-01 -7.3193710267916420e-02 -2.1148326824745288e-03 4.5467875288246827e-02 -2.6063406311341207e-02 -9.8533826079597570e-02 1.6971101967156046e-01 2.0022952498862590e-01 1.1067522551750442e-01 1.3125768321475015e-01 1.1308709809015369e-01 -1.3187931348872906e-01 -1.2542646550504308e-01 5.4983985429247539e-02 1.5671310222881177e-01 7.2645653715791181e-02 9.0722951760301568e-02 -4.8051956072135492e-02 -1.0319976606457715e-01 1.3273214020990187e-01 -4.5241739686475456e-02 -1.1399901120008372e-01 1.7677567526949531e-01 5.9227719957208956e-02 9.7697562760608966e-02 6.6931238258870179e-02 -9.2410762304081712e-02 1.2949813412286307e-01 1.2366037952587280e-01 -1.0230056156403920e-01 -8.5138562878102259e-02 1.4177772792380278e-02 -7.0694145198716404e-02 -7.2541303029297066e-02 2.0337416860980112e-01 -1.3308395596059258e-01 1.4868783456023038e-01 -2.0303448456591000e-01 -1.1896895758468475e-01 -8.8772438018834776e-02 -2.2786030234208162e-02 3.7610778393012780e-02 -9.5815560115074444e-02 -7.9617816121928961e-02 1.4443158880489373e-01 6.3269018709582958e-02 5.4754398162675251e-02 9.6710466611461515e-02 4.2021202328969068e-02 1.6400002633479471e-01 1.2025851338833873e-01 2.0987024733937664e-02 1.1192547859162918e-01 -1.5525936515879166e-01 7.8672615931320040e-03 8.8678667341693298e-03 -1.3959801164600871e-01 -1.6975901001652347e-01 1.1045513999125850e-01 -1.0006748419093907e-01 1.6846726091709924e-01 1.0247563007294169e-01 8.9253150836452702e-02 3.6862096445898239e-02 1.3209250928864569e-01 -1.8494535340395202e-01 -9.8338310892223182e-02 1.8100733908867156e-02 -6.5949586317231759e-02 3.2007033359051695e-02 -3.0393324115511256e-02 4.3622925230566011e-02 3.2321375926207775e-03 3.4494539135069925e-02 -2.0698490846056258e-01 1.1019909594464057e-01 -6.1677608923769348e-02 -1.1836545317658747e-03 -1.8772279717371398e-01 1.1663912799114662e-01 -1.5998856888693355e-01 -1.2585892121268852e-02 1.0566239074245702e-01 1.7888825292853644e-01 -9.8605427845583779e-02 1.0575238255333017e-01 1.9233054563556007e-02 1.9752698528398979e-01 -6.4506552909282783e-02 -1.6111576001937591e-01 5.6493555526341589e-02 5.5432828010849783e-02 2.1638883560844535e-02 3.4659789630848689e-02 -9.1328232837963097e-02 -1.2373844280360977e-01 1.9459625606684201e-02 -8.9641454657016423e-02 4.3308724190883226e-02 -8.4347256541292479e-02 -2.2912712819537118e-01 -1.8469321702690589e-01 2.2367385006658403e-02 -1.6660117589702364e-01 -5.3427798525459431e-02 -1.5986782859349846e-01 -6.4016124924601181e-02 3.6223747581920464e-02 1.7012685795986032e-01 1.5517725566123322e-01 3.4950467592187714e-02 -3.5809266223967400e-02 -2.2227084372837904e-02 2.1311113500246198e-01 -1.9169212902347660e-01 7.0654485385400395e-02 -9.0415006284173691e-02 -1.4715382521852285e-01 -1.0232828213547625e-01 -6.7443246586915209e-02 -1.2400983715046290e-01 -1.0434761041454778e-01 1.3023785803524754e-01 1.4052036253530961e-01 2.1082970307624319e-01 8.1026478789304468e-02 -5.0043916991344188e-02 1.0893880079175330e-01 -5.7999870537958013e-02 1.0676862790566820e-01 2.7638185258006816e-02 9.2680343692248812e-02 -1.2480027669341794e-01 -2.2154716349041755e-02 -7.0529974509171891e-03 -1.7751442793275543e-01 -1.3606337430640181e-01 -5.1399148334614300e-02 -6.7094498057186161e-02 1.3484054154606098e-01 2.2928365655559657e-01 1.6809843437021389e-02 -1.6116089187385005e-01 3.2847142051703165e-01 1.6257854268050639e-01 -9.3667244110053643e-02 -8.1826938704158456e-02 -1.9700316645811854e-02 7.4561615367910464e-02 1.6188494326493122e-01 -3.8594315344066217e-02 1.9758116365616130e-02 1.4406274904482566e-01 -3.5295861443332910e-02 8.8211968953892647e-02 -5.8102637175492307e-02 -7.3971260674445871e-02 1.9545453700210647e-01 2.5273584631245288e-01 -1.0523439557222779e-03 -1.3408350321146290e-01 2.9116634911884509e-01 -2.7229711009627244e-02 -4.8096688566335762e-02 -2.9308734290202154e-01 1.3768002212749708e-01 -7.8336410791081789e-03 1.0087739384179994e-01 -1.1048133256872157e-01 -2.2308001138906902e-01 -1.5034021064740655e-01 5.8047167373168701e-02 -8.4798879472393729e-02 -1.1564838109202752e-01 5.2858917156028895e-03 -2.3768332368793155e-01 -1.2381698613243579e-02 -1.0687489667169668e-02 1.3395699491801036e-01 -9.4913963229360784e-02 -4.3753878725930506e-02 1.0833627615689276e-01 -2.8125748776816206e-01 -8.2257614382507754e-02 2.6190910945543699e-01 1.9275217187738450e-01 1.3288609161597448e-01 -1.6209137084690971e-02 -7.4090355124569254e-02 1.6531896479647201e-01 -2.5305173119260671e-01 1.4651278639597302e-03 7.3413426525651387e-02 -4.3775633624662212e-02 -1.9703921586019221e-01 1.7407083880651850e-01 -1.6439019902381835e-01 -6.7094966880042697e-02 -1.5977090732537319e-01 1.6495860890171360e-01 7.3409042085449100e-02 1.7054406065790637e-01 -7.7419312908146284e-02 2.1386753847158249e-01 -2.3477788622248433e-02 2.7381490451665162e-02 9.6358969343399062e-02 3.1683653899154153e-02 1.7896381608101328e-01 6.4297597813065155e-02 -1.1216336424581649e-01 -1.7845813889399104e-01 -5.6460931460392480e-02 5.5757190341666950e-02 2.2892547751994025e-02 -2.1398048518290178e-01 3.9868437389527459e-02 -2.0439959999690234e-02 7.0248074797223101e-02 9.1781668872332786e-02 4.8782053620858454e-02 -1.1598630542147156e-01 5.5569309494224034e-02 7.0971016160390851e-02 -1.0348327253150727e-01 1.7549605092967416e-01 6.7384900957629695e-02 7.3204581627356560e-02 1.7634940057973544e-02 1.1804908548964520e-01 -1.4358307540643578e-01 -2.0990499875686214e-01 2.1622043325272575e-01 7.2458770411439985e-02 1.1719715111067724e-01 6.9630496070332989e-02 1.5743091049527469e-01 -1.8433995408651313e-01 -3.9163381448495092e-02 7.0102951738735902e-02 2.7022420443439766e-02 -1.4228486855067221e-01 5.0705519716311702e-02 -6.0855727811372454e-02 1.5776240269238179e-01 -9.8099657223682982e-02 1.1131769679140910e-01 -1.4239917335000671e-01 2.4943140877947698e-03 3.4376476549038429e-02 -1.1716174409914334e-01 8.5493405628099400e-02 1.4820228639979616e-01 -1.4494030988299506e-02 1.3364966516761015e-01 1.6275085928023483e-01 1.7810248769733047e-01 -4.6481234702788005e-02 6.3955929174217371e-02 1.1593712900794416e-01 -5.9571415193741498e-02 7.0377221881498697e-02 6.2093851715929287e-02 -4.3824515742574802e-02 -1.0134792657111628e-01 2.3846165382005711e-02 1.9440749746702723e-01 1.9896627949402643e-01 -9.9823503813375278e-02 4.7027395569362827e-03 7.9695155842129800e-02 1.2493147682133113e-02 -1.6313091871830573e-01 3.8777876468319822e-03 4.8553703050055567e-02 -2.1840956714057921e-01 1.0924187882242420e-01 -6.8272479737392982e-03 -6.4276335859404329e-02 -1.0768640764127888e-01 -1.2946588750914639e-01 -1.7345586615593073e-01 -1.5287461217272916e-01 -8.2470590350578465e-02 1.3938441700928655e-01 -1.0556199655401796e-01 7.3460416746523247e-02 -2.4956800369661075e-01 -1.3261920558498530e-01 -1.5651553165139234e-01 -1.5199101433777723e-01 -1.1921448653248902e-01 1.4427556079124676e-01 2.3971253020344552e-01 9.2347957092892785e-02 -1.8453001421137746e-02 7.2630826267605822e-02 -1.9044405349942020e-02 2.0051642092428251e-01 1.7288325234105978e-01 -3.9256656518760140e-02 1.6930538187554378e-01 -1.7687215264606748e-01 1.5024764794250661e-01 1.9579852212374307e-01 1.6712847131353691e-02 4.3236679644937805e-02 -1.4340473786969546e-01 -1.4760366677061290e-01 8.1286714492670942e-02 -2.6343094499501705e-02 -1.1751554560938252e-01 -1.6219981364570864e-02 1.1244724943416987e-01 2.2675463619646747e-02 2.9811540082159835e-02 -4.9356178424961386e-02 -1.2895955450879612e-02 -1.0743526910149735e-02 7.2608841709021987e-02 1.0490425668505779e-01 1.5491558881024461e-01 1.4793658778857502e-01 -1.9518354008850480e-01 -9.9762086252082882e-02 -7.9149619668496290e-02 3.8442582239293567e-02 -1.9150184513179014e-02 -2.2817102388129190e-01 -4.5921675379285092e-02 1.1141126356698537e-01 -1.9711881678411533e-01 -1.1961444726033117e-01 -1.1986258792143106e-01 -1.8367891771901296e-01 4.9812753299728216e-02 1.4835211275902016e-01 1.9188901714753542e-01 -1.2122355571890626e-01 1.1745856290306930e-01 2.1571406006106739e-01 1.3677584647335088e-02 1.9765156007518747e-01 -2.1113340970512967e-01 5.2945717278624974e-02 -1.8495068840304740e-01 -1.0241386439754915e-01 -2.0273647189707797e-02 -1.7198603306180277e-01 -1.6600283461125485e-02 -9.8546352893264438e-02 -3.6858496459632357e-02 1.0295388684171028e-01 -1.1007524957993535e-01 8.5672839124089462e-02 -1.2798701211749317e-01 9.2309270957934716e-02 -9.0551261623757678e-02 -8.7249480910339905e-02 -1.3735611545651574e-01 4.3237102246900035e-02 4.1437290161197779e-02 1.0469410422120305e-01 -1.1198138227873636e-01 -2.1229316372225207e-02 -1.0509037193237750e-01 -2.0699060233079769e-01 -1.2600414680282809e-01 -9.5239618003125456e-02 -1.4927068574709818e-01 -1.4275256815088092e-01 -1.7144838501490403e-01 -1.5580224955812202e-01 1.6538456556558220e-01 1.0749947621965876e-02 3.5786866032245332e-02 9.8372948659674150e-02 9.2310980118370800e-02 1.4573611345015056e-01 1.1934265188757454e-01 1.1179509118719670e-01 1.9796617478729617e-01 1.5079504345204470e-01 -1.7162386270406962e-01 -1.2267484300770380e-01 1.4980185580995450e-01 9.2201009761418828e-03 5.0199587112814623e-02 -1.4908198279097540e-01 -2.5205571219887445e-02 -3.7483151598454958e-02 1.1941678510601793e-01 1.9403499271067640e-01 2.4364107789145512e-01 1.0103214573791355e-01 1.6880438646408114e-01 -1.0288000133097513e-01 8.5441928047390120e-02 1.2071298668224231e-01 1.4616722695714435e-01 -1.6243010374724140e-01 -1.3330362100130858e-01 3.3587465479128713e-02 1.6900638660359132e-01 -1.3388675724287333e-01 -1.3682919936796809e-02 -2.0016074785883065e-01 -4.8695238921053235e-02 1.8295537609721635e-01 -5.2087798108829061e-02 1.5369444730015358e-01 1.6026742352769155e-01 1.7079492535506460e-02 1.6214956683957443e-01 1.2711933046604240e-01 4.2562012804955467e-02 -1.0147716471724889e-01 4.3881270569513728e-02 -1.0002155656622715e-01 2.7119400634671019e-02 1.3084590331244444e-01 -1.2844373110339574e-01 -9.8859755828808512e-03 1.0988049001564860e-01 1.8730477350213112e-01 -2.8910312194521916e-02 5.3532690024298356e-02 2.1372094865431873e-01 3.5017136444160109e-02 -1.2979618087254680e-01 -4.8997838838638598e-02 3.6155266388653504e-02 3.3608376632233733e-02 -1.1691800756893633e-02 8.5404073289995705e-02 1.8185149234058806e-01 -9.1946180094659963e-02 -1.9605236455809177e-01 1.4745577510633540e-01 -1.1469684156247668e-01 -5.0931906632539652e-02 -1.9130585978988074e-01 -1.7696627554274444e-01 5.8810300093249154e-02 1.3448593162885869e-01 1.2707306586213585e-01 -4.5564471014175656e-02 -2.3228397060186209e-01 2.3602943511309923e-01 -4.3362834249242858e-02 -4.2965156287348850e-02 4.2203223400314342e-02 1.9720512679107427e-01 1.7543522509858497e-01 5.7433839452987481e-02 2.2060994457064654e-02 -1.4524325656713882e-01 1.2142564928404180e-01 -7.1579713350325341e-02 1.0916143311502827e-01 8.9930795046676004e-03 -1.4978966235561159e-02 1.1932731355837105e-01 -1.7794310781790348e-01 -8.7018788153238533e-02 9.2919479097879884e-02 1.7735573256570150e-01 -2.0571678686051885e-02 -1.4836553856201817e-01 1.4967533923414883e-01 7.2776178230584410e-02 4.6142212710209601e-02 9.3026734090417298e-02 -1.4926459617668950e-01 2.8119702295472008e-02 -9.0588362714760593e-03 -5.9866762109491316e-02 -1.5393421421921241e-01 5.0995181224656308e-02 -1.1240954755985852e-01 -9.1597811031198323e-02 -6.1179564468141656e-02 -1.4074298569004284e-01 -7.1950337575520671e-03 1.9180483078031427e-01 1.5467222131520675e-01 9.6771327566981050e-02 4.3402780326288318e-02 -1.1961365111909567e-01 2.0586218312563631e-01 5.6739785434005416e-02 3.8692739250841690e-04 -1.5297652137431933e-01 1.7358732509859191e-02 7.9863141946870803e-02 1.5604356446365750e-01 -2.0379629313060599e-01 -5.4751870333078115e-02 -1.9540582687272878e-01 -1.6968945014537673e-01 9.4582310109730949e-02 1.7666371912810480e-01 -1.8693671246920057e-01 -1.5250314446637830e-01 4.2825387759726399e-02 4.9432244214141080e-02 1.1826000051207532e-01 -3.2376578157192193e-04 -9.3545899290971846e-02 -1.9197453445327577e-02 1.9340606773838012e-01 -1.7501604284722844e-01 7.2211752085104136e-02 1.4677515714770073e-01 1.5254912223404618e-01 -1.6957922953792845e-01 1.1755552223177279e-01 9.8269268469944451e-02 -1.2958310809523854e-01 4.4679700391326439e-02 -1.3839500820936143e-01 -9.7859740988487903e-02 1.1797749580727104e-01 -1.3724463231472986e-01 1.4116694526650586e-01 -1.4709023270648350e-01 1.2829184277105751e-01 -6.5143866497162153e-02 5.2022818794631144e-02 -1.1302548496063577e-03 3.1760562841253427e-02 1.1756097418046535e-01 -8.1127559214447906e-02 3.0449754785029370e-02 -1.5830615845742280e-01 1.0964768462529360e-01 -1.0710357370914786e-01 2.5016972070699933e-01 4.2786924021863765e-02 7.0249294210612670e-02 1.3313727714362555e-01 -8.7538785909085870e-02 -1.5873799186119163e-02 9.5185515059658235e-02 -1.2898653472259786e-01 1.0997927923977546e-01 -1.2084971993176695e-01 1.6892476139086737e-01 1.1876698244861397e-01 -6.0921893779564952e-02 -1.7712403925656728e-01 -1.7042737391475515e-01 1.1495139928444428e-01 2.1110405256953438e-01 -3.9140174680158478e-02 -1.3764608932831218e-01 1.3959646753635674e-01 3.6035409912603095e-02 4.8806713979900308e-02 4.1838072273199141e-03 7.4080726444738674e-03 -2.3409416366165958e-02 -1.8828175095168836e-01 1.3920526962506366e-01 -9.0968961255160782e-02 -3.8448685081932082e-02 -2.0519223588756838e-01 -1.7745043497793187e-02 -1.4292733408532569e-02 -1.0436356218731760e-01 1.5652909442202956e-01 5.3030362973342245e-02 8.1112485425153022e-02 -1.2058750473698873e-01 -3.5632630293627402e-03 -4.6383709757662317e-02 6.6143450253294628e-02 1.7388351809606228e-01 1.7633012285314064e-02 -3.9886036429351804e-02 -1.6872723347847762e-01 -1.4189618329217474e-01 -1.9302135153263489e-01 5.8698524538206558e-02 -2.1081551115757706e-02 1.4402506964231432e-01 -5.9341416427058369e-02 -2.8063031126886094e-02 9.9896308817949753e-02 1.9889496158432179e-01 1.2253808677536424e-02 1.6585100721028917e-01 1.2213556751900113e-01 -1.1790191570859837e-01 2.9673778314092219e-02 -1.7203409855832483e-01 9.3359476498973609e-02 -1.4317265582012323e-01 3.7030042559317716e-02 -1.5978194806126420e-01 -4.9996594361586912e-02 -1.3968368630455275e-01 -4.6329204119442004e-02 -1.3796665102033728e-01 4.2519061904710505e-02 -1.3299641113703556e-01 3.4477928559626940e-02 -5.1443371575408903e-02 5.5022096275686105e-02 -1.3067258271231074e-02 -9.5828930222972827e-02 -8.2424932652243932e-02 1.3716125445329729e-02 -7.5414774318241840e-02 -7.5781744856015257e-02 -1.2533061034056694e-01 -3.9836037008077960e-02 -1.3274252536580693e-02 -1.1642567634916044e-01 -1.1798891176016321e-01 -8.1871427574860295e-02 -1.5119585676288584e-02 1.7622426538108163e-01 1.8106958848944232e-01 4.7380400421878938e-02 4.6104831523266804e-02 -1.1427612079894879e-01 1.3074458509416369e-02 1.0378648486529022e-03 -1.0344338987170330e-01 -1.2503806989590155e-01 -9.1777158855555804e-02 -1.7441676002764228e-01 3.4147766363939340e-02 -8.0840028719370738e-02 6.8952891132324889e-02 6.9329392151332811e-02 -3.8205435028424384e-02 -4.4196807291758483e-02 -2.6734977516771098e-02 -6.1514622947590122e-02 -1.8516387983188123e-01 -8.7149336881176168e-02 -2.0194038895686811e-01 1.6559030962841706e-01 -1.2392095112970043e-01 3.3733244918422327e-02 -1.8606964784840327e-01 7.7652057234996533e-02 1.0471556734196116e-01 4.4393937499405234e-02 1.3699830034737312e-01 -7.8516894071380180e-03 2.7752323713689658e-03 -4.7148912277931249e-02 5.0073364469978850e-02 7.1718744696815884e-02 9.8199557554524017e-02 1.3479660048316985e-01 -7.4841975127749386e-02 8.8963570984271337e-02 -9.0444683335530143e-02 -9.1376552901470898e-02 1.2078881426958034e-01 1.8555697668129209e-01 -1.7218696761994619e-02 1.7994287398062545e-01 -1.9638414776913853e-02 1.4506305425499499e-01 -4.3022641736214307e-03 -1.1801046893164426e-01 1.7061727913713134e-01 -2.7532602867485285e-02 1.5187941894335799e-03 4.9970080249903764e-02 1.6513353735275005e-01 -3.4712355097413689e-02 3.2592899779098121e-02 -5.2578223815767475e-02 -1.2271713658013158e-02 -1.3252911555274452e-01 -1.0578413976434463e-01 -5.9330648935428089e-02 -4.5589093489288086e-02 -9.6912896431598020e-02 1.1711953512817094e-01 1.4919464209872785e-01 4.0585325590803939e-02 -5.0267049585617958e-02 1.3690597046433400e-01 7.4497862841584675e-02 5.0556033446797080e-03 -1.1908087983588189e-01 9.0135629056241909e-02 -6.6197137326859404e-02 -7.7226244171781019e-02 -4.6166469310684147e-02 -3.5124748532195417e-02 -5.7539433331623084e-02 6.6766687836043281e-02 -7.2307646344487567e-02 9.8610316951574462e-02 -3.6255654541999497e-03 4.3155885146287369e-02 2.7225933487979997e-02 3.9613912865343659e-02 1.2468657895687280e-01 -5.4475401334376616e-02 1.1477703343656311e-01 -1.4259727416909221e-01 -8.9400669462726234e-02 2.6478066745895384e-01 -2.5016210221046120e-01 8.2930827373414492e-02 -1.5169426844686623e-01 -1.9596181527514317e-01 -1.6158150562741458e-01 -1.4707458863466688e-01 2.1503320674739032e-01 -4.7558400611930264e-02 -8.7715259844571292e-02 1.0975044892762194e-01 -6.5326269392009612e-02 5.0596382177803760e-02 -1.8579168077867955e-01 -8.7326825204670028e-02 2.1919963959297131e-01 5.7886332506253461e-02 4.8867079348987569e-02 7.9350425381600947e-02 1.2330744848618826e-01 6.2209615270353777e-02 6.2983546079951450e-02 1.7390586337473476e-01 -7.7068230149186456e-02 4.2239949863767411e-02 3.9662189930437582e-02 -1.6249103522780223e-01 -1.8789892459719584e-01 2.0341485205072765e-01 2.1176582502027949e-01 -2.1142367085871391e-01 -9.9658953729535024e-02 2.6489792507823661e-04 1.4533772834074740e-01 -1.6294156209923172e-01 -3.5488263340935966e-02 1.4146269385888835e-01 -1.4825008230264930e-01 -1.7147190432482468e-01 8.3432998049004781e-02 -1.7652614874982284e-01 -1.8465848849142102e-01 -1.5275927075687243e-01 1.4185272932330217e-01 -1.5998270925982652e-01 1.0672264269452084e-01 -1.0349007729904589e-01 -1.7471216219915972e-01 -1.5176595095490725e-01 -2.0228244643875443e-01 2.0753271040384969e-01 -7.4903771852888781e-02 1.9523087044629012e-01 -2.9844034566481287e-02 -2.1738574785932546e-01 -2.1653858410298685e-01 -1.7774983274073536e-01 1.2817195756743932e-01 -9.2868522718718757e-03 -1.7510836916088870e-01 -1.2216386385361354e-01 9.0524639734681431e-02 3.8240518327320977e-02 -1.0112795273573924e-01 -2.0669886308757740e-01 1.5655988559802245e-01 -1.1272354617442280e-01 6.1350917610871122e-03 1.5555147177921347e-01 -6.2450646618031173e-02 3.0544930996617599e-02 -1.3285531102416923e-01 4.6057682116043261e-02 1.6276191512672916e-01 9.6145864305499831e-02 -8.5643750632026783e-02 -8.8873505902079195e-02 -1.2146538053870108e-01 5.2437097845241858e-02 -2.3685882397180877e-02 -5.1386069795381156e-02 1.6746753550974916e-01 2.5110896812254635e-01 -4.3876211201311008e-02 -8.4326893621698887e-02 1.8361690053476207e-01 1.1045941373904838e-01 1.2237082262023193e-01 -3.0220398236124817e-02 -1.2905654190529878e-01 1.3229517817478798e-01 -1.3878719496250599e-01 -1.4316402217661008e-02 -1.7379388077192755e-02 -1.2872419633083285e-01 6.0332385446680098e-02 -1.2550072199645906e-01 2.2635896117457435e-02 1.4026220428598671e-02 1.0493808662767008e-01 1.0495730917225464e-01 -2.2913064360070168e-02 3.9109779294690734e-02 3.1610224504300025e-02 -1.2512347505582860e-01 -3.5683723452756173e-02 -7.8198692282179572e-02 1.2134769615253173e-02 -3.2254455882992354e-02 1.5751764297970075e-01 1.1348354322420955e-01 -1.4852147230870366e-01 2.4876741945296061e-02 -9.4338439126994220e-03 -1.9961191427327643e-01 1.5255586360022927e-01 -6.3120868136981687e-02 -9.9859006831725550e-02 1.0548502967086236e-01 -8.6847307693945955e-02 -6.1368137777971191e-02 1.4966491684808597e-01 4.7540582767647541e-02 1.2399824665691249e-01 2.0907665752729572e-02 -6.1631104733991934e-03 -2.1309146314022767e-01 -1.3189324350952271e-02 -8.9081688428858496e-02 -1.3398847855748397e-01 -5.2323914367477152e-02 3.0142643463945330e-02 -8.5762791149776724e-02 6.7312908609757069e-02 -5.1058080317466344e-02 3.0289367901965354e-02 6.4046050916048022e-02 2.2877703796402066e-01 -6.0972929936606017e-02 2.2854809325139350e-01 7.2464131853534147e-02 -1.4530550697003103e-02 3.7015720013098968e-02 1.8340886558051647e-01 -6.2277713894682722e-02 3.8356664929111828e-02 -5.9514631463198485e-02 -1.7537599000890289e-01 6.9094204110341395e-02 1.0320364935600836e-01 -2.2583755680665776e-01 -9.2459782646703584e-02 2.1963257346876724e-01 -7.2496597493817941e-02 7.7981840684062720e-02 -3.5541778507545634e-02 1.3120623609379403e-01 -7.7540032594233879e-02 1.7296912779296883e-01 -3.5562679368772589e-02 1.9648911972301675e-01 1.4000012416154844e-02 -8.8190495826033374e-02 -1.0578605709446366e-01 -1.2370423713768460e-03 -7.8850477262110669e-02 7.6369219846727246e-02 1.4874146842952640e-01 -6.3661460137312470e-02 1.1251802843525528e-01 -1.1035833944104080e-01 -8.0434732316776780e-02 -1.0620223410689705e-01 4.2604400788004156e-02 7.1396970126894185e-03 -6.7430289998407389e-02 4.4563961545311538e-02 -6.1634763101533645e-02 8.3705055968827952e-03 5.2662045501169742e-02 1.3427719782245653e-01 -1.7011109547780047e-02 -2.2977565368477362e-02 -1.5770502738027295e-01 1.1788288264212643e-01 4.0324392817381541e-03 1.2588654254847195e-01 -6.0335236929638714e-02 1.4524675365388204e-01 9.2858711357934623e-02 -6.8306409105852256e-02 -6.4399446661748350e-02 -1.5563726720273466e-01 1.8705890680748399e-01 -1.8955479498647163e-01 -1.1376480552348844e-01 -1.4135156504850047e-01 2.0991831457119303e-01 -1.6442285583992921e-02 -4.5010908726863523e-02 1.1628496162685432e-01 -2.7753100357424650e-03 -6.6800692483886112e-03 1.6176330505616729e-01 -1.5316486561528936e-01 9.3807345197749456e-02 -9.7912875818910089e-02 6.1210988187992588e-02 1.1444553639500704e-01 1.2215630555813622e-01 1.3093043022997913e-01 -9.5940015090099279e-02 -7.6513095262120065e-02 -1.1531097469457384e-01 -1.0505950735091102e-01 1.1445414644226978e-01 -1.9478890654448433e-01 -3.6057380320798103e-02 -2.8729529072630426e-02 1.1191714702043125e-01 1.8972595268104886e-01 -9.6212651275458388e-02 1.7601074953494561e-01 6.1452574032737899e-02 -1.8867572431444671e-01 2.0639605336977440e-01 1.0789076551376441e-01 -2.8231688131817680e-02 2.4074983617142273e-01 3.6165505934076268e-02 1.0603485418018857e-01 -1.5057841176671452e-01 -3.7029885140727498e-02 6.7664154259807860e-02 6.9239659600168507e-02 -1.8174986184609046e-01 6.5388935593247960e-02 1.6983730045408760e-01 1.2437072467379370e-01 2.1054345968817942e-01 1.2706638208324000e-01 1.7889493560556344e-01 -1.1796863042323377e-01 1.6616747111249544e-01 1.3658198253253198e-01 1.3633423976567829e-01 1.4041913142214435e-01 5.0758295817094852e-02 -1.1388602867265762e-01 1.4572777468056744e-01 -6.3364032455669864e-02 -3.3208901805786430e-02 6.7378087998166830e-02 -1.0001074851945337e-01 2.6588432532693964e-02 -1.7063633124058866e-01 -1.2610081858707078e-01 -1.3939993888549178e-02 -1.8820387498429877e-01 1.5967942000222954e-01 2.8855714469919611e-02 1.7593342645023941e-01 -6.7109851071266630e-02 1.2703295299687627e-02 -1.5719500466950725e-01 2.5532717413906938e-03 1.6350512725988006e-01 -1.1247034412178016e-01 -1.8256385655833207e-01 -1.6527046928274189e-01 -7.4312518404601111e-02 -8.9268229739914079e-02 -7.2771731577131920e-03 1.7297197137053669e-01 -8.7950769308686189e-03 -1.4106090037988034e-01 -1.9131828922437227e-02 -8.8390640806998336e-02 -1.1232552735453723e-01 -1.3786742404605404e-01 -5.8876574897226627e-02 4.8567439812510875e-02 1.5278357430123802e-02 -2.1613895721876911e-01 1.1001629980477767e-01 -1.0983467228973423e-01 -2.7212202974745781e-01 -8.0748855309712944e-02 1.8525763564611945e-02 -1.0657657142720342e-01 -1.1537012306916981e-01 -1.5480657443300308e-01 1.3062966440744611e-01 1.0205803043053337e-01 1.2054036325776941e-03 -9.9901062945040781e-02 -1.5316074934304150e-01 -2.1695079956564289e-01 1.4265669455625921e-01 -2.0753723347889960e-01 -2.3153286416916657e-01 4.9624759207389679e-02 3.0280392287209038e-02 2.4174767440971731e-02 -3.9828058877375304e-02 -5.7650934430447096e-02 -1.3177448750468761e-02 3.7503590154014568e-02 1.2823922236141638e-01 1.9617490060890638e-01 1.0270454662521374e-01 8.0312906746463353e-02 -5.6648632046075995e-02 2.2496511110856807e-01 2.3322649497205589e-01 -1.3009160959646018e-01 7.1233738994897405e-02 -2.7310528176828475e-01 -1.0868778282248220e-01 -1.4630936216579563e-01 -1.0144683795653860e-01 1.3598744642742663e-01 -1.6369262065548804e-01 -8.8913565964411342e-02 7.5720206715032851e-02 1.1244648375160977e-01 1.0153955109609374e-01 -3.3081925522025434e-03 -8.9601502926957552e-02 3.3924211967375634e-01 1.2605006511474279e-01 8.4156119052064701e-02 1.6104955647721841e-01 -8.9255140281158649e-02 1.4052512702430176e-02 3.9218329294513452e-02 -6.9728747521005429e-03 -4.6043566684363900e-02 7.9170618684264570e-03 3.9106548884604376e-03 -8.4461034722645364e-02 9.2494892120218303e-02 3.7211232345981338e-02 1.1807342409855204e-01 1.2467834308157034e-01 7.6846984180770975e-02 4.9992564548133375e-02 5.6093740505667504e-02 4.4384714022984252e-02 -1.3217892138128801e-01 2.4407911287983972e-01 -1.9709878916740359e-01 -1.3560023347444383e-01 6.0522085500933728e-02 -4.7979227306865824e-02 -1.9823049729914818e-01 -1.9932602731830165e-01 1.5436610489558339e-01 1.4563721024414963e-01 -1.0486927532041227e-02 -1.5194136081618012e-01 -2.4181428303738799e-02 2.0398830047164460e-01 -3.3823791522931482e-02 3.2563546366883085e-02 -1.8759401148741978e-01 1.6916600812082336e-01 -8.5864805835395158e-02 -4.1020468357855673e-02 -1.1256702824704612e-01 -9.7147176921330958e-02 -5.6368446101708630e-02 -2.1135730115697152e-02 2.3212456789414243e-01 1.3743222308539098e-04 1.5215845489524363e-01 -2.8890671141750979e-02 -1.7229922869206277e-01 1.6250425896841669e-01 -8.7569029649277680e-02 -8.5508201829742655e-02 -1.4268957210304001e-01 -2.8821287059545724e-02 4.0135087717494980e-02 -4.8990489101751925e-02 2.9993821364336822e-02 -1.2895158742164711e-01 -6.5307680692604231e-02 -9.2405620050348997e-02 -7.3177846527561610e-02 -7.5981827154452994e-02 -1.5283483459083408e-01 5.3688507909479960e-02 -1.2853610104348998e-01 -8.1490816093074736e-02 1.3195438484344990e-01 4.2384998640074729e-02 -1.9444044176222383e-01 4.0085054559790646e-02 9.7284757835341296e-02 -1.5995844409834409e-01 2.1073506580745366e-01 -2.5958691377882870e-02 5.2044001565446384e-02 2.4558455799675170e-02 2.2479770526755895e-02 -1.9730512984724441e-01 -1.1607029378761273e-01 -6.5375825806311544e-02 -1.1370886075331876e-01 -6.1172930506856855e-02 9.6374686002381221e-02 -1.0837770748740611e-01 -1.1446848298375631e-01 2.2364201129885931e-03 -7.0880505501216814e-02 1.7067547270125400e-02 1.2495855928551233e-01 2.3573525932900571e-02 1.7160456779720060e-01 -1.6064407341941517e-01 -1.7593082878384700e-01 -9.2981370361733165e-02 7.4075389399249250e-02 1.5044177668577607e-02 9.8417425457887078e-02 -1.2681703758722229e-01 -2.4314066900226125e-02 9.5628831904511005e-02 5.8481323375312713e-02 -1.4136975949875400e-02 -1.0940158635542026e-01 -3.0385197245628598e-01 2.9487961607154032e-02 1.2863798205703408e-01 1.0712329965206301e-01 1.9328929417830817e-01 -2.5394762945017010e-02 -4.3406103364343668e-02 4.2677359516899604e-02 2.0041448028274289e-01 1.5333903808922433e-01 1.3794946593990262e-01 9.7439850528600602e-02 1.1102602736143861e-01 5.9849980060805101e-02 1.6911319760587887e-01 5.4767509259154912e-02 2.1493194177144809e-01 8.7588502970144061e-02 -1.7460673921841272e-01 5.4975356332085015e-02 8.3480974443781733e-02 1.7938240226396032e-01 -1.0021118946188391e-01 7.9907994857887341e-02 -1.0297522780206553e-01 9.5758504198074842e-02 1.0278451223037161e-01 2.2017343465965476e-02 -1.0892083697087084e-01 -1.4949285309664051e-01 1.8468606363939613e-01 1.8285470723290739e-01 1.1304362019372419e-01 -1.1745282786861183e-01 1.4292898580757399e-01 2.3176503220223169e-01 5.4499171203754991e-02 -9.1424568038638424e-02 5.8358704355214071e-02 -1.6767270027815478e-01 -6.4891704506700412e-02 9.3088932740208866e-02 3.0590040580196366e-02 -3.4464344713265573e-02 -7.3236719948367737e-02 2.1842031212812277e-01 -1.2622513749218595e-01 -2.1147764833728780e-01 1.5861564451595309e-01 2.4053055261486357e-02 -1.0638197500872945e-01 5.6752696582268565e-02 -1.6745844537658602e-01 1.4996374571608045e-01 6.8291062057686319e-03 1.6720857010918366e-01 -3.8641359814230627e-02 1.6312909404735218e-01 -7.7196538897968070e-02 8.3485251283855005e-02 1.2817210532021439e-01 -1.0174312332096588e-01 6.1723016739482939e-02 -1.6503624302614153e-01 1.4502141907538393e-01 1.1213395036164957e-02 -2.3920440312545457e-03 -5.4908439442368347e-02 5.3706832680000876e-03 3.0257884114913947e-01 1.9608640228501109e-01 1.3742088730915317e-01 1.2004206086873825e-01 -1.2559639631376718e-01 1.3981694044805351e-01 -1.1800938918108210e-01 -7.0030392114984436e-02 -1.4874946652241050e-01 -1.8503930380883241e-01 -1.3311389068325363e-01 -3.0265082576634850e-01 3.8150295113119494e-02 1.2251443515909313e-01 1.1090026256220592e-01 1.8939565201235239e-01 -2.5002473560854788e-01 -9.0494798562909415e-02 -1.5335301541774815e-01 -6.0999248438477699e-03 1.1101965795788886e-02 1.9891720871481622e-01 -4.2045099549779180e-01 -1.0356412850606259e-01 -3.9335406090880254e-01 6.4527959780713362e-01 -3.8758460348817947e-01 -4.5555757534396069e-01 -5.5837131539980089e-01 -8.4885976410776220e-01 -2.4548819728310162e-01 9.4705919797964944e-02 6.2836592090828342e-02 3.6828108612478394e-01 5.8637524278476190e-02 8.3932999587272272e-01 2.0283980565446483e-01 -7.6511361234717579e-02 -4.5397267424527560e-01 -3.4666775912997239e-01 2.5816842739037377e-01 9.8479013408200283e-02 4.0420896176956139e-03 1.0919186847971314e-02 1.7003023578287001e-02 3.2707102456112525e-01 6.4083756780517934e-02 6.7178341694167615e-02 1.2483767430514765e-01 6.4544915340918108e-01 -7.1354890056750420e-01 -2.2013046873682222e-02 -4.5003987902125503e-01 1.5944705577466947e-01 -2.6923189133391163e-02 2.5794206163000383e-01 6.1728519484348958e-03 -6.2543846483258847e-01 1.2221616973596258e-01 8.1906264626567041e-02 -2.4171090192921334e-02 -2.2784285526692174e-02 1.0565535817267820e-01 1.5710558361938926e-01 1.2457903501720717e-01 1.2839005013831625e-01 3.0962922877244992e-02 6.6535589959772740e-02 9.9055938224469897e-02 -9.4788344134793950e-02 7.3248991082017323e-02 -1.3879980128986108e-01 -1.4752770719030420e-01 -3.1294621904255096e-02 -1.6738103268828100e-01 2.6576341710423601e-01 9.5724837569173687e-02 1.4171559172500187e-01 1.5783158691705892e-01 6.3005410461270381e-02 1.5769435966520029e-01 -1.7128238587464645e-01 1.8702676937320026e-01 2.1984029958677356e-01 -2.2673474379011221e-02 1.7101912610842204e-01 -4.9365785633695591e-02 -1.4767011043050524e-01 -1.0344146838296434e-02 -1.0894137436760878e-01 -1.4605064502730744e-01 -1.1686620348556802e-01 -2.0502026132606851e-01 1.9764387045760545e-01 -1.3817603704374085e-01 8.7654386425763883e-02 -1.3308100498966829e-01 -1.3567013521527280e-01 3.4896853017551049e-02 1.6821333803311231e-01 -1.3564874017561318e-01 -7.2330886947121711e-02 9.3556505705141416e-02 -2.6735711634638455e-02 -8.6590800734800077e-02 -9.9988706569604444e-02 -2.0371821051421282e-02 -6.7580626107408323e-02 1.0215304416603482e-02 9.3116875331323942e-02 1.6709305866425034e-01 -1.5608246242680135e-01 -1.7949692867599249e-02 -1.4314161137494136e-01 -2.1173663038681115e-01 1.7457310930624639e-01 1.5620195826087199e-02 -1.4213930939898267e-01 -6.5955488901199885e-02 1.9072451960131057e-01 -9.2215004259128611e-02 9.5598402771759211e-02 6.8351870581420462e-02 -2.1300936492740191e-01 -1.5484999401027910e-01 -6.0039173486929755e-02 -9.1342489789353720e-02 -3.2111643043552927e-02 -2.7249980500006182e-02 1.7458768853200191e-01 1.5267970871158326e-01 -3.7635536306978870e-02 1.6752539087736940e-01 1.4157144258567622e-01 9.2597710195775770e-02 -1.0275530675764030e-01 1.8330227570593155e-01 -1.3173399533244701e-01 1.2072569119347590e-01 9.7655936848361796e-02 -1.3043126815565634e-01 -1.2748219702940991e-01 -1.6525497189928819e-02 1.5176094892409128e-01 2.0144490534847154e-01 1.0309437541085519e-01 -1.0519641555728930e-01 3.2780703069808545e-03 1.2340237180101964e-01 -8.4067600201696596e-02 -4.7334568302676058e-02 3.6831217429245403e-02 2.1294448966294210e-01 -1.2292891990847599e-01 -2.4067322296070174e-02 -1.5398341335053267e-01 -1.5099815475438061e-01 -6.3299460458019471e-02 1.6624727388412014e-01 6.3983103850323783e-02 -1.4473465413790715e-01 -2.3068443518485575e-02 8.1025172311506202e-02 -3.4729604396405718e-02 -1.9499434129361462e-02 1.2440127617491073e-01 -1.8187958844862157e-01 -1.3154897215937261e-01 -1.6215014091734853e-01 -1.1511499495675211e-01 1.8077500887752390e-01 -9.6504931312885070e-04 -7.0654674001494680e-02 7.8640779402492422e-02 8.1253195013837570e-02 8.8602643967160985e-02 1.3196368909454526e-01 -6.3267783916216430e-02 1.6410412293384285e-02 -2.6693361467201117e-02 9.8008996376022298e-02 1.7917179939287675e-01 8.6626787521183343e-02 1.2696458908730598e-01 -5.3615888468017195e-02 -7.0561851260576819e-02 1.1874704803032803e-01 -4.7080202753408677e-02 -7.1997837813643660e-03 -4.8660672886817892e-02 3.6784346119855905e-02 1.9346628580304270e-01 4.9535723288800994e-02 -1.5148174185118279e-01 -1.5318680685370645e-01 3.4623654208135159e-02 -3.1780699733698875e-02 6.8242277018000425e-02 9.3342356801810841e-02 1.2264033908094010e-01 -1.4741185580790594e-01 -3.2073786916902103e-02 -1.9666539241332954e-02 -1.7620635534264181e-01 -1.4960723484608859e-01 6.3056331577728941e-02 1.0975138962157217e-01 1.9771030772827000e-01 -7.9013380914503134e-02 -1.3326697835474846e-01 -1.6638002930156429e-01 -9.9013906876948988e-03 1.4919947808964331e-02 2.0309950305361987e-01 2.5445951994152401e-02 6.8293022193068750e-02 -5.7528169583479123e-03 2.1918597670395623e-01 -1.2399716850165003e-01 -1.1691768463906647e-01 -7.5392746455608214e-02 -1.9357596841785454e-01 1.1097350308286076e-01 -1.4999622033499904e-01 4.9380536269172874e-02 -1.5800885980567206e-01 5.5101167244939082e-02 -2.6133674774308897e-02 -6.8362155176128307e-03 7.1622006920092587e-02 -1.6106564035071913e-01 -1.6691250288270665e-01 -1.2851708001678879e-03 2.0169365390521149e-01 -8.1348654729477637e-02 2.8343963616971977e-02 5.6767465937149599e-03 -1.5699213201146750e-01 1.2646723704884374e-01 -1.5795464503119494e-01 1.5975918337523140e-01 6.6006518780717754e-02 -4.9941860650110255e-04 -4.3058887760192781e-02 7.0692677931706679e-02 2.7913480784024700e-02 -2.5597182894343700e-03 8.6494934031520490e-02 7.9837819249758649e-02 8.1375133216381554e-02 -1.3442745151360272e-01 -1.2978389984191690e-02 -1.8970256848979469e-01 -1.8169565870744281e-01 1.0632613139821773e-01 5.9386864351021654e-02 -1.1725922149171292e-01 -1.1757407910510002e-02 -1.6852655329895758e-01 -5.6994320197584547e-02 -5.8757155716992401e-02 -1.4819062256900711e-01 -4.7422851410426264e-02 -8.2561308541509879e-02 -8.2491233599049862e-02 -2.0497174065379497e-02 -1.0038641405543974e-01 -3.0421406846261975e-02 1.9801301623909889e-01 -1.8759680935519688e-01 -1.1364418480086684e-01 1.4095943964140029e-03 -1.7473858482391377e-01 8.2509517025617277e-02 2.1293073922740374e-01 -1.7082836308418994e-01 -6.2564142012444007e-02 -1.5196707127856986e-02 5.2026673121103872e-02 -1.5076300904369235e-02 -2.0629857069148444e-01 -3.1038669480260059e-02 1.7209171750708377e-01 -9.6059954616540905e-02 -1.6599621654541902e-01 -5.2908748634481910e-02 8.2110851547547353e-02 -1.7099562006029712e-01 -1.7657408993208260e-01 1.5940746081817686e-01 1.7313104665330817e-01 8.4575997002632575e-02 1.6238737472942855e-01 -1.0731834770622410e-01 1.2022886102586249e-01 -4.9960974470127414e-02 -1.7280727045446316e-02 -5.3844674732639833e-02 4.0651443089361652e-02 -2.5461095160906447e-02 -7.1858407880820957e-02 1.3075050923733861e-01 4.8603057126819452e-03 1.5708840785584433e-01 -8.7931041138153171e-02 -9.5031368962524305e-03 -1.1032793580284356e-01 1.0415088449750191e-01 -1.2483171278136304e-01 -1.7466555324878505e-01 1.6080320408088972e-01 5.1858013640922782e-02 -5.3867486351124677e-02 1.9865836102105988e-01 -1.1292764948468406e-01 -9.0844652028802264e-03 7.5737764063260132e-02 -1.7219628186657682e-01 4.6028530888115794e-02 3.4892639960306643e-02 1.8335335138103870e-01 -2.2717363114941468e-03 1.7477526301814694e-01 1.6637689918109023e-02 -9.5791823613341570e-02 -9.6115814854238979e-02 -1.8342021246841383e-01 5.0476528329013648e-03 2.2088190179976663e-02 -1.8375785391082730e-01 -7.1255504409432735e-02 -5.4860347088496138e-02 -2.8949178064499773e-02 1.7370534565326104e-01 1.5324745652854316e-01 -1.2723148790535035e-01 1.2585840383358049e-02 -1.5526809317397276e-02 2.3705138531948281e-02 1.0838036841187242e-01 1.2064290214475328e-01 -9.5357305136058584e-02 -9.7370974265514137e-02 -3.4041109729816249e-02 -8.0032943050308558e-02 -3.0855947249405092e-02 -3.1249514637006370e-02 7.1649513033626447e-02 1.0492219224659574e-01 -1.5697710627569736e-01 6.9764780946613763e-03 3.2163699540127884e-02 1.1383210291241927e-01 5.8703022023863405e-02 6.4910294341892660e-02 -1.5061136629210511e-01 -6.9522424868430910e-02 -1.4056420633281330e-01 -8.6390507054052684e-02 -1.4139087499649680e-01 -1.2152689302057061e-01 -8.1299983893768774e-02 -1.0006645490789027e-02 -6.1208604533853544e-02 1.5689088079852018e-01 -4.4100957603224016e-02 -1.0314771223275777e-01 1.0542644949549471e-01 1.3102731173788473e-01 -4.3420043728402309e-02 3.5331804282271381e-02 8.3734824139002337e-02 -4.0019051089202971e-02 -6.7818007081210857e-02 9.9870162047909633e-02 -1.3674061846630570e-01 8.2746169924309498e-02 -1.5701002038638665e-01 2.8303452568126289e-02 -7.3703637378735393e-02 2.0077945722942553e-01 -2.3948670692980650e-01 -1.1183160067324745e-01 -1.1903055027045115e-01 4.9596727595668327e-02 -1.1227207831029742e-01 5.9980526373483847e-02 4.7493152350623097e-02 -1.6996696649980597e-01 1.2518367853702417e-02 -7.9420755601117568e-02 -1.6009386567364070e-01 7.0052818663041375e-02 -1.2417640210254778e-01 -1.2922257502789308e-01 2.6049182236405330e-02 4.7897428122889246e-02 -2.9137193569378848e-02 -1.2645525889135925e-01 7.7010388371515220e-02 -8.5333979812971916e-02 5.3128456137900459e-02 1.4413176208257561e-01 1.0433769582734867e-01 7.6721789999021198e-02 -2.0880815483638346e-01 -7.9388453330825656e-02 1.4496952017977907e-01 3.3208488365856770e-02 -6.2966996002722084e-02 -1.9470251992730922e-01 1.2644792802519911e-01 1.2239728912443361e-01 1.8806166735239585e-01 -7.6412113639733201e-02 -1.3539446294663085e-01 -2.1063811678694253e-01 1.4249489267190954e-01 5.6938389924846615e-02 -8.8001014013505963e-02 1.4074830475047739e-01 9.4320435715998158e-02 -1.8103617028412425e-01 -5.8724345093641474e-02 -1.6990315639867712e-01 -7.5376674748238448e-02 9.9537718641450265e-02 6.7680344473298668e-02 3.5941690244614871e-01 7.7607578019184859e-02 2.2384578628484392e-02 1.9290683486061538e-01 1.8591777705217644e-01 -1.5536668269982942e-01 2.7111906090299542e-01 6.4220084928049453e-02 -3.6501536793405717e-02 -4.9144146302441793e-02 1.1287359355247840e-01 -1.2683757853365565e-01 7.0716337020345271e-02 -5.2686011706267417e-02 -1.8484173731617266e-02 -1.4896736025018828e-01 -6.1236875183377310e-02 2.7356594875146332e-02 1.7109119849259233e-01 -4.0502509506310007e-02 -1.0496874291650572e-01 3.7235571224330355e-01 -5.3202707001913520e-02 -1.6222659157287703e-01 -1.7508439967406578e-01 -1.1191266847182642e-01 8.7387928698536413e-02 4.0989118767694996e-02 7.7024498042581047e-02 -1.8613495643224845e-01 1.5247000515272102e-01 -1.7981917011399706e-01 2.5609476378288896e-02 -1.2380680488479287e-01 -1.4356992414735922e-01 7.0334491061777887e-02 -1.8455708353214086e-04 1.6565020088296964e-01 1.1040731928040237e-01 3.2642529392782275e-02 3.4924318648793966e-02 -1.4318311546108409e-01 -1.6764245648437265e-01 -8.1110563289115950e-02 1.3487548829461313e-01 1.2416736217899788e-01 -6.6491168175153464e-02 -1.1740565614459206e-01 6.3676605507030026e-02 8.6446747075552860e-02 -1.1457419256850239e-01 -1.2217487594765077e-01 3.9864388084070806e-02 7.1428012863028675e-02 -1.9697401196982814e-01 -1.1914161838044487e-01 1.5099015814476296e-01 -1.4891459291486991e-01 2.3086613018168384e-01 1.0401414121451259e-01 5.5673544258848330e-02 1.6082034725489799e-01 -9.6723508561820520e-02 -4.0186345724685574e-02 2.2725969984634414e-01 1.3092288955122008e-01 1.2205876221905435e-01 3.0104872369363664e-03 7.5754974668370459e-02 -5.9322371531631647e-02 -1.1242969386493398e-01 -3.1112506432398684e-01 1.1784133073205456e-01 1.8212931395588183e-01 -2.5607308937927781e-01 2.1196401567440637e-01 1.9391074912141998e-01 1.4759038702238264e-01 -1.5082715788690831e-01 3.5401436467098785e-02 -1.2917526752784389e-01 1.1078239991275719e-01 1.9237845421486679e-02 8.3050562585552046e-02 5.6900607270028179e-02 -7.5631295829291590e-03 -1.8980017225314780e-01 2.3135767916341379e-01 5.2327477673905099e-03 -1.7247500642444602e-01 -1.0485086528653466e-01 -2.6430235455783264e-03 1.5242424992535145e-01 -6.9934550177391053e-03 -1.4738903275908277e-01 -1.3963412671119305e-01 1.4922916895378563e-01 -2.4885865728166711e-02 -2.3784177237896692e-01 -8.0718883573696193e-02 -8.7008403529644771e-02 -1.4610418470616870e-01 1.6292185041145166e-01 -1.9410775625656070e-02 4.5335376514103853e-02 -3.8262330805208793e-02 -5.9381846888233898e-02 -1.5781509358053142e-01 -6.8279401772783591e-02 1.6179009882181350e-01 -1.1861914159413826e-01 3.0612775087736452e-02 -1.4568197776204594e-01 -1.1660538576337814e-01 -1.5860116194451707e-01 -6.3588820238072274e-02 -1.9128913319729891e-03 1.2015522506558536e-01 -2.0602260582693371e-01 -4.6161091881097474e-02 -1.8957089874669716e-01 -2.4049323493001898e-01 5.8358580846464350e-02 -6.4152930854973839e-02 -1.1173604257160354e-01 -1.7374754327031686e-01 9.7654743394452265e-02 3.3902694904805158e-02 -1.2263525377380180e-01 1.4228232669843516e-01 -1.9381107812139788e-02 -1.6215124992263297e-01 -8.2139646782182843e-02 1.4981633736314262e-01 -7.1980159785995118e-02 -1.6118404651123266e-01 -5.2996777803557590e-02 2.4263068010501987e-02 2.8098457462047234e-02 -1.1963217104291390e-01 -3.0052369472404021e-02 1.3535781531643323e-01 9.3855748128777831e-03 -7.5352475427151955e-02 -2.8330547872807570e-02 1.8804977305309697e-01 -7.9941347503458215e-02 3.0834278346404120e-02 -1.8007568080204386e-01 -7.8129445573815098e-02 -1.3806553261366139e-01 5.4163474327787745e-02 -1.6567469326263340e-01 -1.1142250955608704e-01 1.5163065545273913e-01 -4.4504031285173676e-02 -7.9109832461486132e-02 4.0558838229640702e-02 1.7087658206507214e-01 -1.8257227866481410e-01 1.0868123360149583e-01 -1.5289975555264407e-01 1.3164645520268320e-01 -1.0340476438992435e-01 -7.2188084974926223e-02 -7.0070109505699210e-02 -6.1075214702851148e-02 -1.5557883625800753e-01 -1.6463230608861057e-01 8.1788337755330065e-02 -1.1017688044897440e-01 -1.3496854291047286e-01 -1.3312530372354477e-02 1.6470272935950914e-01 1.2584295553587604e-01 8.5121545855888867e-02 -1.3250562979268260e-01 -8.5961758695401944e-02 1.0090210050590744e-01 -1.6615893858232350e-01 -1.7551608223991275e-01 1.8905797027419505e-01 2.9236625803056276e-02 -1.4242916102566766e-01 -2.1052373837211832e-01 1.0722952417221865e-01 -1.1872758026079372e-02 1.4577506185534342e-01 8.0487447763614633e-02 4.0392488479771470e-02 -3.9240706421103867e-02 1.6389875828533679e-01 1.4273167376259152e-01 1.2691123773301688e-01 -8.2062968033031730e-02 -2.7301150741384134e-02 9.1326126922957787e-02 -1.6848810167517805e-01 1.2669889813238908e-01 -1.2369686749117891e-01 -8.4203286735513735e-02 -2.5046032342772910e-02 -1.6898805413707330e-01 -2.6268807284923684e-01 5.7502775127383839e-02 -1.3978342452207687e-01 8.4143829049723021e-02 -1.1555037574528568e-01 -7.5421623013573524e-02 1.8249320842075004e-01 1.1772161508334161e-01 5.0498067929381718e-02 -1.0434003628774603e-01 1.7170206298515162e-01 5.6686247513385316e-02 -6.9804539012812191e-03 -4.8296861894944566e-02 1.1278808788467633e-01 1.5527765411799144e-01 5.1630862849274595e-02 4.3734609806925062e-02 -2.0969925599553629e-01 -1.0378712859794206e-01 5.8959511122374478e-02 2.4535580497945458e-01 6.0782780690947169e-02 8.5025841524719564e-02 -8.2275315449078817e-02 5.3291760298337820e-02 1.1088846413342809e-01 -1.1144553695996999e-01 -8.6167737521806342e-02 -1.4485787264972777e-01 -8.1085660999111978e-02 -8.2794877272215114e-02 -2.3756848155259698e-02 -1.0397591196264094e-01 -1.0711485995955795e-01 9.4534188466107269e-02 1.3421357753432164e-02 6.5248978006742828e-02 1.5498168000345888e-01 -6.9419726823133188e-02 -4.6917880006463089e-02 -4.0589514684684497e-02 -7.5689129813183709e-02 5.2310119852682782e-03 1.5921834528421094e-01 -2.7537473956539813e-03 1.7091684450755587e-01 2.2429666967257653e-01 -1.2572885071369047e-02 -8.4809656287756802e-02 1.1653563279950838e-01 1.1610924337175772e-01 -1.5862981659086922e-01 6.5651889577119454e-02 -4.7167485696777761e-03 -8.5794416253712133e-03 3.3174924630005126e-02 -1.6451646012230256e-01 -1.4580783242950635e-01 5.0456084539107195e-02 8.3815219226076626e-02 6.6872276547461751e-02 -1.3939652847585768e-01 -1.4217973233110709e-01 -5.6552816088266268e-02 1.7502039323589857e-02 4.6027649809608960e-02 1.7344243100694173e-01 9.1721721846880211e-02 -1.0263339800098326e-01 7.0229956469850002e-02 4.6136603000877997e-02 1.8725287827249723e-01 8.6386519086666391e-02 4.4977111644697955e-02 -3.5409148441532264e-02 1.2321441838181048e-01 4.4229627837991004e-02 1.0208085262182363e-01 2.2826594224740293e-01 9.0691540626019529e-02 -3.9700555735301485e-02 1.2640285232783713e-01 -6.6010541357439612e-02 -1.2718956708160088e-02 5.3159168740874695e-02 2.7981576158702948e-03 1.2836154416493395e-01 1.9725231412005031e-01 1.8462192242320288e-01 1.2658675466689623e-01 2.8980495587907790e-02 -7.9405348556997046e-02 1.4806367187780398e-01 -2.3651886192710966e-02 -1.8292685982040754e-01 6.3126795461844618e-02 5.0897775074722665e-02 -1.4224147803305713e-02 -9.4786367068155061e-02 -1.3747196040358610e-02 -1.1158485615921032e-01 -1.5254096332585010e-01 5.3636063026574768e-02 3.0819547905653846e-02 -2.2739206062232811e-01 3.2140254636452592e-02 -1.0851740110974073e-01 1.6634641618986457e-01 -8.9723471559479157e-02 -1.6818236008156898e-01 -1.2610392789357522e-01 7.8669118710121166e-02 1.3133819384941645e-01 -1.5681262403784360e-01 -5.9149094883070387e-02 6.1668221074624316e-02 -1.3896732287957086e-01 9.8267528330321735e-02 -5.3241329726387461e-02 -1.8653820242015520e-01 8.6790407271332609e-02 1.3648212624908831e-01 5.4111552682318551e-03 -8.6429650008244110e-02 8.7270834739268749e-02 5.6002113077769609e-02 1.3495883409883974e-02 5.3003746109366527e-02 -4.5647510753440576e-02 3.0862232709334393e-02 -6.7819447309345360e-02 4.0626155426137678e-02 1.5147865487696369e-01 2.3762301640350600e-01 5.2314855930986948e-02 -1.1978196640026748e-01 1.5810916500372146e-01 1.7469833042061603e-01 -3.3128597117587977e-02 -1.5852921222883581e-01 -2.4661740811872224e-02 1.4785561878115117e-01 -2.2109550090282779e-01 -8.1826830346463750e-02 -3.4527576426981649e-02 1.4144491779803137e-01 -9.6720886283164012e-02 -3.6376797098680531e-02 9.3532526219987339e-02 -6.7131658726981278e-02 5.9693921617334347e-02 1.9818585691213436e-01 1.7275813070633753e-01 -1.8849699775956802e-01 6.9677613793683799e-02 -1.1508185378787743e-01 7.1732900393905424e-02 1.5474755856334424e-01 -1.4482243852584700e-01 -1.7121502536262564e-01 -8.1475093408239399e-02 -7.5890990558049834e-02 2.6296195451691644e-02 -3.1182510906351255e-02 1.3162177408337750e-01 4.3105560065695295e-04 7.1676484665109577e-02 -1.9661218939057143e-01 5.5995589540283754e-02 -7.8310860150003478e-02 -1.1881940313849416e-01 -1.2846780327388344e-01 -1.4084013192056516e-01 -7.9774780587016966e-02 -1.4185769797910752e-01 -1.7655740807918033e-01 1.9961004070828475e-01 -2.5643219781387293e-02 1.4575255573903542e-01 -1.5878306232288641e-01 1.1324194793903170e-01 -9.8391849000087545e-02 -2.3516596960478382e-02 -2.3237783737329298e-01 -1.3836080338538381e-01 -5.8195851139580347e-02 -5.5650347956453468e-02 1.7542337743624367e-01 2.9003971631616773e-02 -1.8692658401797435e-01 -1.6896388238562005e-01 -9.4648406225813012e-03 -1.6394785823332189e-01 6.8825720735105527e-03 5.2895777095417198e-03 -1.4820889267452433e-01 1.7364930361308806e-01 1.9525021050583746e-02 -8.0737258950307478e-02 3.4148666813488167e-02 -1.7603068568588295e-01 2.0536611217618103e-01 -1.2851598352899823e-01 1.7494999007312984e-01 4.2699085654690050e-02 -8.0206822888931190e-02 -8.4862228093727163e-02 8.9638733573278256e-02 -8.9426050046400404e-02 1.6007545274158000e-01 -1.0247273714454717e-02 1.7802178413274167e-01 8.6838472586409698e-02 9.1795116179624339e-02 1.0073396961201589e-01 -6.8787455811452014e-02 -2.1459155056992543e-01 -4.4377321654734410e-02 -1.8807280580941310e-01 5.9068617384335713e-02 -9.5387479486621948e-02 -1.5572601483973236e-01 9.4027499446683246e-02 -1.0140965475150888e-01 -8.3041658073327029e-02 1.3818121649583359e-01 1.1826387622113706e-01 -1.2722933836003941e-01 1.1595018245425956e-02 -1.2743991817734532e-01 8.5350644033112211e-02 -2.2192815901762357e-02 2.0283818686688895e-01 -1.7502467800455987e-01 -8.0954411095155068e-02 -5.6577604518084905e-02 4.7428490482571792e-02 -2.6637305174958003e-02 -1.8784488645897224e-01 1.1700428313612359e-01 2.2165008751131608e-02 -1.7571848386366738e-02 1.3339361593512533e-01 3.3951057034253322e-02 2.1800946271200719e-01 1.3567585552104044e-01 -9.1432220945917089e-02 -7.2951762055953648e-02 -4.1344558503162453e-02 -4.7774517462473805e-02 1.7149073031049858e-01 3.0952684006159061e-02 8.3094949534220988e-02 -7.6174866386969825e-02 -4.0557426988196248e-02 8.7849666130920004e-02 1.4770849250119292e-01 5.6966637821517119e-02 -1.4814600478145090e-01 4.0079532836677416e-02 -1.5325965140834705e-01 4.9527904259808611e-03 1.9494875989535840e-01 1.3276923713704272e-01 -2.5698843439864002e-02 9.6563810677081321e-02 -2.3657245982452408e-02 3.5450015411745773e-03 -8.4462171215403392e-02 3.3701855629897082e-02 9.3009476234122687e-02 -1.1386703951489449e-02 6.5110985045841410e-02 -1.3982912733879244e-01 3.7408761015728320e-02 7.7799366444066403e-02 -1.0943107868892360e-01 1.6441008979961317e-02 2.9122183619729531e-02 4.2573461112216104e-02 -1.4704874753126848e-01 -1.1916520860854191e-01 3.7744859810323363e-02 -9.4012212399909620e-04 -9.1380597418471904e-02 1.9484056680151574e-01 1.4952502497327418e-02 -1.6454140703247733e-01 -1.0492757088853956e-01 -1.6464175407744569e-01 7.8633989853481336e-03 -3.9678708028900271e-02 4.6127802544560698e-02 8.6903174731268198e-02 1.5523387157119117e-01 8.2499836832034407e-02 8.8291157291611785e-02 5.4575214623470217e-02 1.0701996598578092e-01 1.0558988133220742e-01 1.5761163157165703e-01 -1.4364749434105359e-01 9.7718443663968868e-02 1.7131593595958389e-01 1.0146554559564866e-01 7.7032296411748136e-02 -2.1635152940462352e-01 5.4667135793389006e-02 -2.0129395358004035e-01 1.4139904851516319e-01 7.7876239811684830e-02 1.9177669194950347e-01 1.7025256398783412e-01 4.8064875204572900e-02 5.6157919818872061e-02 6.1777493756203653e-03 2.3873266980555703e-02 2.3900670553196010e-01 1.7069680590870870e-01 1.0369316934759147e-01 -1.5368475680901295e-01 -7.1942538869500000e-02 5.6807092169269520e-03 -5.6866954647250507e-02 1.7311690320888190e-01 -1.7240161342808175e-01 3.0250200576154018e-02 2.8523594163177929e-02 8.0682475047499605e-02 1.9877604330523846e-01 -5.7544482515735233e-02 -2.3175807972457409e-02 -1.8578570030981029e-01 -6.9115886589957015e-02 9.3771079949532848e-02 -1.2184988780284597e-01 2.0586467687949826e-02 -7.7926680624150271e-02 3.8432829326703229e-02 9.9895698784465470e-02 6.3153083732925178e-02 4.3232748532333262e-02 -1.0806712175754379e-01 7.9692017085601780e-03 -1.2884453216691930e-01 -8.8435529057159207e-02 -9.0792985469367690e-02 1.3198585977712962e-01 -1.2326138703158548e-01 -3.2741030736675597e-01 1.3553492102652059e-03 -1.5729643911163005e-01 -3.1962115458714781e-02 4.2221244576315521e-02 3.7252968298872306e-02 -1.1991524006961497e-01 5.7128657525837664e-02 4.2497759497111494e-02 2.8452404137684111e-02 -1.8867416300890885e-01 1.5449197117557689e-01 9.5659459234331556e-02 1.2809758026949511e-01 -1.7620039903311993e-01 4.1019977625867010e-02 -2.4613566366990487e-02 -1.9154633721203462e-01 -2.0182582396958360e-01 1.1251377682304669e-02 -1.1466841006959672e-01 -4.4045887472145620e-02 -2.2656216895866992e-02 -1.8964022431357530e-01 2.0181199966817099e-02 7.0570468726623092e-02 7.8666359330686067e-02 -1.0779136684463672e-01 5.7364149133352416e-02 1.0857009677929196e-01 -4.3687392083581827e-02 -7.9040958498789969e-03 -1.3481518122412817e-01 -2.2383747356059618e-02 1.0229862276821228e-01 -5.4060283762641249e-02 3.1220717203780016e-02 1.4581833234508468e-01 3.2679148736279369e-02 1.8582983599795236e-01 9.6839251715057459e-02 -2.8472527952235194e-02 -7.2052590179416717e-02 -2.3426717842196457e-01 2.9541128585134004e-02 -9.5794275673396170e-02 3.7448953452497210e-03 -7.7668166163220434e-02 7.9645415104474204e-02 -5.3090887888051705e-02 1.2938991801864350e-02 3.9934889647468327e-03 -1.4795079810177936e-01 -1.7918878334699410e-02 2.6880874873924872e-02 -1.4984230927651782e-01 -3.1308048256505350e-02 -1.7293602279045139e-01 6.7703274848097489e-02 -1.2360135934180003e-01 -1.2193102451432364e-01 -1.8266388214016070e-02 -1.6619313715465703e-01 5.5939439606620581e-02 -7.5462800590087822e-02 -1.5771848472576638e-01 5.4319669337881453e-02 -2.4570959127525761e-02 -1.5636465385939996e-01 6.5011858099021713e-02 6.2242024724415104e-02 4.2204699455405989e-02 1.6772990432235213e-01 6.7336334075086782e-02 1.5123134823499652e-02 -1.0183407643315336e-01 -2.0469710211186223e-01 8.1350659748865892e-02 3.9601764110701106e-02 -7.3092787487982428e-03 1.0774749047654292e-01 -1.3530478576178848e-02 1.6339190311520024e-01 -2.0281100499247606e-01 -1.8613979970959038e-01 -1.0121588877260035e-01 5.4181004495070739e-02 -6.0562162744476560e-02 1.9804044275157232e-01 1.2745081915466666e-01 9.9601888390574711e-02 -1.4573957633159135e-01 1.2637704419514659e-01 2.8801164748232209e-02 1.4143656339952898e-01 2.0706553086372775e-01 -3.4543183604241898e-02 -5.6240161131164333e-02 1.3941106792983812e-01 6.7360776949751774e-02 1.5820706434075793e-01 -1.5047814512359742e-01 -1.5877768740826398e-01 1.0766135154396132e-03 1.3329726418576826e-01 1.5598180056339470e-01 6.1752571023736096e-02 -3.3732001723149642e-02 3.7253214177890778e-02 -5.8862078950494931e-02 -8.4636991517788612e-02 1.8614696189868241e-01 -1.0807646678209790e-01 1.1267586050251097e-01 2.4009677878058303e-02 -6.6700171785948045e-02 -1.4896405726814002e-01 -1.1549001435935111e-01 1.4322211885090874e-01 7.3383154326240952e-03 1.0883197731397630e-01 -1.6234361059889618e-01 5.5746954686171121e-02 1.9850955428140168e-01 3.5427025394419748e-02 1.5442491664926675e-01 -1.3445496452737310e-01 -9.6397019861909267e-02 9.4354152839842470e-02 -4.5339610706621236e-02 1.1243769052063936e-01 -1.0584914902923578e-01 -7.7307802981936707e-02 -1.4614770914614097e-01 -1.3961099738011270e-02 -5.4615108552056209e-02 9.7587956583420649e-02 -1.6449731366940443e-01 1.5501695881181710e-01 8.8176331866834615e-02 1.7763589414830350e-01 -6.0661265430686846e-02 -1.2430327843035801e-02 -1.2794727978541184e-01 -1.9546734444869779e-01 1.1450438613193099e-01 -7.4705722806590713e-02 -6.3689175654346328e-02 1.2572080500754348e-01 8.6348528574255692e-02 4.7250624149938587e-02 -1.2937180485377878e-03 -4.1940500231466844e-02 -1.5168256869239144e-01 -8.7325610279687868e-02 1.8811145557273606e-01 5.8742457914023848e-02 -5.5035665359668022e-02 3.1127194194516913e-02 -4.2110333255322492e-02 -5.6290011663282222e-02 -1.2795944938052473e-01 1.5985024095912043e-01 -6.9137476953691865e-02 3.9585251271488653e-02 -1.0284696579436077e-01 -1.3252875493435240e-01 5.5857865695023205e-02 2.7006757239783979e-01 -1.1702322400561177e-01 -1.5301470511644819e-01 1.9043164106833613e-01 1.5434093472949448e-02 9.9258222527445206e-02 5.9469918664010565e-02 4.6153920598636392e-02 1.9637449187240413e-01 2.0885509099059327e-02 4.8874978347791725e-02 -1.6290343747352906e-01 -8.0179365051407742e-02 -8.2009097528015787e-02 -7.2769146253664860e-02 -4.5353819902832632e-02 -1.1458895862828047e-01 1.8721095298325479e-02 -6.6051805957657223e-02 3.5142545752070709e-02 1.5423774652641195e-01 -1.1964548765696668e-01 -5.6616816602205113e-02 2.1079727965309634e-02 -6.1529823255881279e-02 -4.2275263175473830e-02 4.0719550992600551e-02 -7.3360713299787383e-02 -1.3183649409413606e-01 -1.7368016302722292e-01 -2.4911904516843716e-02 7.7901744246613960e-02 -1.6419080186674623e-01 8.8273352540285972e-03 4.4647866867493904e-02 8.9297216636717525e-02 2.8185098538888319e-03 2.0712458296893893e-01 -6.3038233001538865e-02 5.6752118850058576e-02 1.2214338027289393e-01 4.7199207050182275e-02 -1.6227779835293990e-01 5.3427306236031147e-02 1.7792699039155396e-02 5.7645648872241481e-02 -8.1288565118515042e-03 -1.1483726260052493e-01 -1.7257348973186892e-01 -1.7751022413990254e-02 -2.2760917313222920e-01 6.2596034282361476e-02 1.6778946507963083e-01 -6.2831243840800091e-02 -9.5434350233554080e-02 1.1432820842872933e-01 6.2753640390785487e-02 -7.9884878179111496e-02 -2.6231623105104861e-02 -7.6054662505740708e-02 -5.8850224419929813e-02 5.6599782763760535e-02 -1.6246403638766349e-01 -1.6520891437760166e-01 -3.7235475951715502e-02 -1.1833582922361842e-01 -1.5151052050748842e-01 -1.3336595115651173e-01 2.0108733346001936e-01 -1.0654723319195501e-01 1.4578842485935603e-01 -4.8887670166407058e-03 -7.2464673014665623e-02 -2.1643319064417577e-01 -1.8844258982706150e-01 -1.3918301916509968e-01 -2.1535973679852747e-02 -7.6018367097728428e-03 1.0989005299066242e-01 2.0698140241964696e-01 1.1890386773503835e-01 1.4826700086157377e-01 -7.2446269712816147e-02 -1.2746944465842977e-01 6.4911890384688642e-02 2.0603027829142406e-01 2.8264485229644082e-01 -3.4729851807367748e-02 1.7689953883499837e-01 6.4609927243665113e-02 2.0334120016415182e-02 1.4586696550625422e-01 -1.8984681106986184e-01 6.9046222692606130e-02 1.3593224502234805e-01 -4.5174764420374248e-02 -1.2512038718454464e-02 -7.5977404296583187e-02 5.8168071914604040e-02 1.2738731731971327e-02 4.5852379451683377e-02 -2.0052281944899726e-02 1.8630734018979600e-01 -9.1804724047353015e-02 5.1687696286025216e-02 1.7011242268538482e-01 -5.1551091649607785e-02 4.4887790960278347e-02 -5.2985692704670614e-02 -3.8318866907239221e-02 5.7428453153425915e-02 -5.8506015525560263e-02 -1.1210916488103730e-01 1.4826397940497604e-01 6.2107030334702211e-03 -1.3637055890438901e-01 6.5468276804892422e-02 1.4156872144443056e-01 -1.2565381746113932e-01 -5.5018483711521078e-02 -1.4713382411666301e-01 -8.5295936185966106e-02 -1.1089294267200386e-02 -3.3850541729198026e-02 -1.8160258943018676e-01 8.7094004046744097e-02 -6.4146425570541177e-02 -8.8497246094942236e-02 1.2171648252089406e-01 -8.2279001857744009e-03 -7.2132446715520118e-02 4.0144565155368371e-02 -8.0964058493430524e-02 -2.0328198213572071e-01 -1.2109645063732689e-01 2.0490959853848587e-01 2.1461453793568487e-02 1.8769388261483191e-01 -9.2537044074719840e-02 1.6039573882328620e-01 -1.0029521050273298e-01 7.9168124486789920e-02 -1.3798187530840397e-01 -8.4290085940154580e-02 -7.5771283344001433e-02 -1.9658110729480524e-02 1.3943555942559621e-01 -3.9262650372281944e-03 -1.4108613830637168e-01 1.9952588013899419e-01 -2.1891085681505315e-02 2.0519525820611956e-01 -2.1843504170788407e-02 1.6866506977368891e-02 7.0259428964080939e-02 4.6728078874645404e-02 -1.1310851408339903e-01 -1.3274539888988784e-01 1.0578693180811749e-01 -1.3641879831748310e-01 -1.8145305498944875e-01 1.1722460384474385e-02 7.7851031718192631e-02 1.5781588709909028e-01 -1.9032420317636700e-01 1.3477864554578106e-01 2.0508036834556215e-01 5.7822526051519007e-03 -1.4052453244138779e-01 6.9171685665120483e-02 -1.5614165512353276e-01 -7.1434393437094082e-02 -1.2918123067520521e-01 -1.0165739562633535e-02 -1.2363758003574218e-01 -2.4379088043060544e-03 5.2150033574949198e-02 8.1180929305300201e-02 7.9604860771211844e-02 9.4429767195436901e-02 -5.2511814818360363e-02 -8.1249448538173591e-02 2.9229304351604122e-02 1.4571043720509083e-01 1.0040286723393455e-01 -1.0377988855754518e-01 8.0761922759154531e-02 -1.2296191866378574e-01 7.3655195826582823e-02 1.8320228235485284e-01 -4.9938801715064186e-02 8.8487713942324381e-02 1.9122183003731762e-02 6.8498965479357160e-02 -1.4409078939888827e-02 7.4911198581476393e-02 1.1531366385853335e-01 2.3146536504617801e-02 -9.2757061724321355e-02 -9.2941672812397236e-02 -5.8214214817040359e-02 3.1716401591281147e-02 -6.0479563175216723e-02 1.1478556574243272e-01 1.6962187961405176e-01 9.0792928031646083e-02 -1.2916645391435863e-01 -1.0135125775174220e-01 -1.9349719706425414e-01 -4.1074334174691141e-02 -4.4672117869821032e-02 1.6143055968324252e-01 -1.6157739979287930e-01 2.1701013134676195e-01 -1.1815192779588106e-01 -9.0674257971628661e-02 5.8278530730217784e-02 8.7661989471847258e-03 1.6037770892099756e-01 9.8536252637947186e-02 6.5483146185363522e-02 -1.0659225022460179e-01 -8.6970664357384431e-02 -1.4550753361987795e-01 3.8625035033847980e-03 5.4046384395997019e-03 -2.1475680556335457e-02 -8.6355515667894261e-02 -1.6641369481187979e-01 2.9984749426129370e-01 -4.0648221974960586e-03 -5.4194324210266542e-02 -3.2201696188799138e-02 -1.1755313863506425e-01 -1.4370616628001900e-01 -1.9789761964649463e-01 -5.9499075088918644e-03 4.3839239985676896e-02 -1.1609456525056207e-01 -2.4470295691952734e-01 -6.6963424784379985e-02 1.7202206929553296e-01 7.6742002384571947e-02 -7.1143113184846283e-03 -6.1171990198605836e-02 -1.9783101029056727e-01 1.3824079546147550e-01 1.8317028528229889e-01 -2.4954394713987433e-03 -1.1056300508989167e-01 1.1251256055556709e-01 -2.0939722580103506e-01 -8.1716550137720764e-02 -1.0948473819641071e-01 -6.9927481682956844e-02 -1.0229287135345715e-01 1.0583033805601906e-01 3.1450860362071023e-02 9.6068272401218333e-02 4.4325515360063912e-02 -1.4637027926808446e-01 2.9641886532634058e-02 1.2439327366369501e-01 -5.7216466487708763e-02 -3.0600058305663091e-02 -7.5543681617597338e-03 -1.0190342087351510e-01 -1.3723226759804000e-01 -5.9571019285918535e-02 -1.6810871362695776e-01 1.3863816713224045e-01 -5.0539227182052185e-02 1.3398340333424802e-01 -1.7017153021529485e-01 1.6129767308289555e-01 4.0755335466021579e-02 8.9288035223264783e-02 -1.0062637570858216e-01 -1.3918241605172019e-01 -7.7425908472113100e-02 1.0859126915971036e-01 -1.0850024352072536e-02 1.5367468899137496e-01 1.0454941978584015e-01 1.1922621791376094e-01 1.5627823391682968e-01 -1.7856046750315710e-01 1.3661593927239415e-01 1.3571956539992530e-01 1.6232837426681218e-01 6.9734010231852786e-02 -2.5473856650731118e-02 -1.8523322981993842e-01 1.4107729649548034e-01 1.2913786861557114e-01 -8.0245237294662042e-02 -1.4335482052490134e-01 -1.0156204190361574e-01 1.9295809754295520e-01 8.2985787283871584e-02 -1.4766175163291892e-01 -5.4525584554562939e-02 1.1017291695698851e-01 8.0297087147854204e-02 6.4911348208663974e-03 1.3451453729902021e-01 -9.3346015020243020e-02 2.3797294244824060e-02 2.2323528536692600e-01 -9.2345379531392588e-02 -1.3598264827438969e-01 -8.3359870434179376e-02 -1.9231025149760456e-02 -8.7932590056329613e-02 -1.2356384947420690e-01 -7.0987758878099192e-03 9.7691751736471405e-02 -9.1470595995642487e-02 -1.4771440099441574e-01 9.0033652233836872e-02 4.5023296260363450e-02 8.8034402831383418e-03 -7.0438905912205618e-03 -7.4521000802186830e-03 1.2261352038371363e-01 1.3373651981058562e-01 1.2142152494655258e-02 6.6800124992317231e-02 -8.9182840085150636e-02 1.3696885258078322e-02 7.7291338555993919e-02 -1.2428376876027790e-01 1.6796315943738652e-01 -6.1273868729912431e-02 -4.9506036149796546e-02 1.4490905226966522e-01 1.5136626716111257e-01 1.2396210617338178e-01 -7.7888746073139101e-02 2.4243437445064027e-02 -4.6191978021264422e-02 -1.6191085995726016e-02 -1.8405380267585855e-01 -1.1216384908896501e-01 -6.9462132496704854e-02 -2.5173077915200659e-03 -9.0866899884755895e-02 6.8979226116656647e-02 -3.5378591564923977e-02 2.0121872639798766e-01 2.8084528790921822e-02 7.1673172444215116e-02 9.3839450092537954e-02 1.7331144978451878e-02 -2.1066680890897766e-02 1.4397688237730943e-01 -1.8128752984055463e-01 -1.8930603605555119e-01 1.2719039521242939e-01 -1.5695215485910596e-01 4.4062462138583426e-02 1.0365946306149167e-01 1.6777240571806501e-01 -8.5121881907193522e-04 3.4638206943883552e-02 -3.3431239533240592e-02 -1.1577769381949005e-01 1.9722070353385293e-01 -1.5593529094106273e-01 1.9036326490882854e-01 -8.7545514064594210e-03 2.6240234878687457e-02 -1.3757763498569803e-02 6.9559731442806388e-02 -1.6571151045510513e-01 2.0850091475968136e-01 -1.8007160004454698e-02 -9.0984590318092320e-02 -1.7714457414552808e-02 -1.6408964010334922e-02 -7.3166130840288304e-03 1.5670924960903101e-01 8.1653261864453167e-02 1.5427163991588844e-01 1.3696845077571293e-01 2.0770703777135768e-01 6.9120374155103220e-02 -1.3767592001008593e-02 1.6766195820012500e-01 3.0580448526893095e-02 4.7638020549115910e-03 -1.2354925295365841e-01 -1.0103003466924110e-02 -1.6028405760257317e-01 2.0397790220280951e-01 -1.4848138348300724e-01 8.6930146568684044e-02 -1.0899634072859060e-01 5.7834065944666280e-02 1.5520943520359404e-01 2.0592045966955014e-01 -9.7398627250626757e-02 -1.7791276520437292e-02 1.5166070471425810e-01 -1.0518687640265897e-01 -7.5683009364379980e-02 6.2084530938258262e-02 -1.0311821999654347e-01 -1.7475500939335883e-01 9.6477469237809435e-02 3.8991602845612157e-02 6.3792894925686891e-02 -8.3750412681337760e-02 -1.1126868090169123e-01 -1.7732118137063879e-01 -7.2896745284890332e-02 -7.2729328842289193e-02 -2.6111618703383715e-01 -1.3657196250057382e-01 6.7555984544182338e-02 -4.1291050605036378e-02 1.3391594353173403e-01 6.9691389980689272e-02 1.9133984179113361e-01 1.4548580295365329e-01 8.5946241973098497e-02 -7.8350927013752583e-02 1.8946469531693083e-01 1.1493571572801430e-01 -3.8452840542995935e-03 6.8600805624555325e-02 -6.2306456204225319e-03 -2.5797791981864532e-01 -1.5628730995679885e-01 9.3758888138696941e-02 1.1318664889622639e-02 3.7527879452857793e-02 -5.5341470715546910e-02 -7.2148705429773030e-02 -1.2884750189867838e-01 1.9900994739340500e-01 -1.2433774071382776e-02 -9.8897851933004724e-02 1.8002987086814023e-01 1.7108427620755778e-01 -5.7079345368806191e-02 -1.0411957692937110e-01 1.1279108927819800e-01 1.5056880694998601e-01 1.7831535839332813e-01 -4.1207799380806372e-03 -1.6643049059368820e-01 1.4463111253814151e-01 1.3689217924229349e-01 1.1880378498646567e-01 -1.5654362545105733e-02 1.6219860495996680e-01 8.0220579418574731e-02 1.0270169395497429e-01 2.1469159963994757e-02 8.0372849214283906e-02 8.4091307747607667e-03 1.0412211083014333e-01 3.0993264423215632e-02 -1.2757142986270775e-01 1.4078399156641808e-01 1.1223664593557657e-01 -1.5900794655578951e-01 8.6607650937155001e-02 -1.9335805867992467e-01 3.6837847277153835e-02 7.7882016324960486e-04 4.7764521674020136e-02 1.5300861015289435e-01 1.5590494214401687e-01 -1.0150804670314523e-01 1.6552825831472252e-02 1.8224726946914835e-01 -2.1875810052398369e-02 1.2005539433067725e-01 5.3308173557940194e-02 -1.2365278462853628e-01 9.1347613791430374e-02 -1.0719335404938779e-01 1.5438755176250321e-01 1.3550800499612120e-01 1.1067152071252004e-01 1.6603724493575087e-01 1.4871790786574957e-01 -1.7275535395449457e-01 -9.2160046657183761e-02 2.2108814923924709e-02 3.9923488718801227e-02 1.0211395943446579e-01 -1.0110698367016850e-01 -1.6064603380915202e-01 1.0030001894808721e-01 -4.9966445239875021e-02 1.0449843484112967e-01 -1.8684725401539370e-01 3.5933387658267624e-03 8.3118489824899097e-02 -1.1241626811711564e-01 -3.9177440232251996e-02 1.6896843534957712e-02 -1.7131545840395782e-01 -1.4566315469494204e-01 -1.5670035690020716e-02 1.0510315107674678e-01 -1.3528147652295094e-01 -7.2738038727121659e-02 -1.3925809553196003e-01 -4.0376365844686769e-02 1.6211259138091513e-01 3.1102372238081066e-01 2.2806368880964212e-01 6.7199414665180576e-02 -6.6887579828380186e-02 8.8220056091724341e-02 1.0078022047441097e-01 -3.5598694767397278e-02 9.6435108960558860e-02 8.2064874728056431e-02 -1.5301539830558269e-01 2.9543742402126174e-02 5.7551351767383928e-02 7.2923385802656768e-02 4.4906321335908751e-02 1.4742159032851557e-01 2.1919768749864871e-01 -3.1065500179278366e-02 2.3880962988141630e-02 -3.9458112424337688e-01 1.2810635731300685e-01 -7.9375137376599694e-02 1.5900218188784662e-01 -6.9646722500781464e-03 -2.3803866612200339e-01 7.5409787214691437e-02 -2.6391352183954592e-01 -2.0446058871274198e-01 -2.2723844711053282e-01 -1.5377156636375120e-02 -1.5071331707097096e-01 5.5035399215090181e-02 -1.1617758167915916e-01 1.8226336392706791e-01 1.1789283343538857e-01 4.2854311804802529e-02 -1.1999470895224511e-01 -6.8077674229755492e-01 1.4053991919174219e-01 -1.3776919108051019e-01 -4.7631727920813993e-01 3.1993921450031687e-02 -1.6370240040336401e-01 -4.3474494375549469e-03 3.4836662472854546e-01 6.1646231428223133e-02 4.2959001945397637e-03 9.8416084650108163e-02 1.9493398872128920e-01 1.1773056380976361e-01 4.1950303211002360e-01 8.1740310266799093e-02 -2.4333620500772821e-01 6.8784607321345975e-02 -1.1999072756438882e-01 2.7700758991642560e-01 5.3840204190709073e-01 4.1542374682192899e-02 2.7992394862777081e-01 -2.2076133846189336e-01 -2.3067220687759174e-01 -1.6395437916741548e-01 -2.3083520679318970e-01 3.5643702427635376e-01 7.7698187931117962e-02 -9.6853136836548878e-02 2.0955505508799330e+00 -8.1662818173448060e-01 -8.2424712849524781e-02 4.0250199664425184e-03 -1.6301811165881375e-01 -1.7691414671236610e-02 -2.1677618416904681e-01 5.5167486823144429e-01 1.7053153039189778e-01 -2.5610053532621713e-01 -2.6028305355283199e-01 -2.3464774240484873e-01 3.8820597348476743e-01 1.3926665591531748e-01 1.0214491892657153e-01 -2.3262018631347922e-01 -1.8327827726479698e-01 6.9744337668946721e-01 4.9530022627866870e-02 2.0472652720357878e-01 6.4938209164337332e-02 7.6329326807147001e-03 -5.2783640562407863e-01 2.6475225425116933e-01 -1.5147904349011472e+00 -2.3339398388420923e-01 -2.5801797111211937e-02 6.4231250119522187e-02 -2.7386647793050506e-01 -4.3245171589614978e-01 -1.0031943190957121e-02 -1.9011697528945142e-02 1.3122938560405911e-01 1.7389005635981500e-01 -1.3409365258820821e-01 -1.4500697187432940e-01 8.7263272173222661e-02 1.0584804847442275e-01 5.7326229683645265e-02 2.0078834116430899e-01 -9.1147773383540659e-02 -1.1399437589585311e-01 6.6275245885083600e-02 5.8573124385319184e-02 1.1309034619864418e-02 -7.2346282709308055e-02 1.3494877807188235e-01 7.9025306380294969e-03 1.1167686884912920e-01 1.8947164236567321e-01 -4.4649916899053552e-02 4.0651495133994936e-02 -1.5150896047933923e-01 -1.0372687777748679e-01 6.2239730961646525e-03 2.8986738723350499e-02 -1.4883741124815317e-01 5.3934104305331056e-02 -1.0021500606964176e-01 -9.4474668615145987e-02 1.1753926619214822e-01 1.7342422630571391e-01 -9.5837620961210790e-02 -6.6133390440929724e-02 1.0607693590175811e-01 -6.8618252683839670e-02 -2.1221186559280103e-01 1.9170872923267759e-01 -6.5999271837593979e-02 -3.8777068818772797e-02 1.4681636225533068e-01 -3.0443662662584103e-01 -2.6162974033737363e-01 -1.4652279931748691e-01 -6.1894967591163523e-02 1.5689246358465012e-01 5.1448010573661107e-02 2.9463209271375863e-02 1.4659114131194298e-01 -2.0888984506325170e-01 1.4110350270617905e-01 9.5356693963480260e-02 -9.9832466283694035e-02 4.1210028841876363e-02 -2.9552742318353876e-03 1.5618752918702714e-01 -1.6771026192556093e-01 -4.6849626453370520e-02 -9.8730572239702982e-02 -2.2380668694840650e-01 1.2170748748205119e-01 8.7919830436797020e-02 6.0909698864853989e-03 1.0926078267330298e-01 1.0136617319331581e-02 -1.4869220540533244e-02 1.8184722229517428e-01 1.1424186632626471e-01 -9.2165261972612100e-02 -4.6733944584518308e-02 2.7447323846584513e-02 1.5464184800429431e-01 1.3248860275941559e-02 2.6585369945846715e-01 -1.2448134363382211e-01 1.7361542505444300e-01 1.4971679270591285e-02 -1.1524385233892891e-01 -1.1571458621256001e-02 -1.7049578460637776e-01 5.7442073651642452e-02 -8.6991766810726193e-02 6.5569035665946823e-02 -8.9848844004451912e-03 6.5956291349272736e-02 -3.2612241325890531e-03 -1.5028158366603078e-01 1.2631171221021508e-02 6.3624326282357049e-02 -1.2126421511981959e-01 2.5343224967989669e-01 -3.8313217889546280e-02 -3.7528482455995646e-02 9.5838176012605580e-02 6.4826239490603538e-02 -1.1172666547165998e-01 -1.6727476696776933e-01 7.7837137702864614e-02 8.0032205905516032e-02 -9.3241783489279709e-02 -1.0071299971175294e-02 -7.6101161952504173e-02 -1.0966546814155660e-01 -5.0326085371657142e-02 1.1712283348426001e-03 -1.3060094807613465e-01 -1.4140913992193943e-01 -1.2197630627000140e-01 1.8176473707674595e-02 -1.7862470024461969e-02 -1.0198008554541942e-01 7.2920861699727127e-03 -1.6302694847316046e-01 1.3695746766087802e-01 1.2317616216210442e-01 1.1712877473258498e-01 -1.2644903923516987e-01 9.9323389110579585e-02 -1.9727824859119192e-01 9.6486960091249796e-02 4.1977285536337729e-03 1.5047555313822516e-02 1.1288470233725380e-01 6.9254515640967240e-02 6.1338927435939508e-02 1.1945713179777379e-01 -9.3139374035222905e-02 -1.7734486912689307e-02 -1.4142414853754626e-01 5.9154094440070672e-02 1.7519861605353471e-01 -2.7000658984052302e-02 1.2223229542028689e-01 -1.7425244442689274e-02 -1.0300705289694491e-01 -7.1752239083779173e-02 -5.1657051245005782e-02 -1.5287022939512412e-01 2.0278199650803047e-01 8.3883437537640246e-03 -4.7215000708558358e-02 -1.1521136757558106e-03 1.0047878692114787e-01 -3.3559113985646684e-02 2.0183157818457177e-02 9.2455801625409076e-03 -1.4532333305503917e-01 4.0244229259658593e-02 -1.5558870864179322e-01 -8.1038328022510105e-03 -9.7884369818181147e-02 -8.0838418179243379e-02 1.0705560978516858e-01 -1.2872382842842642e-01 1.0427094747904471e-01 -1.0466267093210763e-01 1.9545404528722365e-01 -7.5437333683934932e-02 -7.8671423114295466e-02 -7.7892482852036996e-02 1.1724302890852591e-01 -1.7326979280419322e-01 3.0417234947874983e-04 1.4436464769604393e-01 1.0559683116842075e-01 6.7217744517328148e-02 1.5531670794102259e-01 7.6131959640442143e-02 2.1890854697375343e-02 -1.6266307400011529e-01 3.4676779541104631e-02 -1.1860995464744445e-02 -5.5337687272339120e-02 2.7011885680264541e-01 8.7578198514147859e-03 8.5319715281214223e-02 -4.8980626862800289e-02 -1.4967501228202804e-01 3.9533685308211618e-03 6.4791456472352099e-02 -1.1664025346777834e-02 9.0294663341505974e-02 -1.4325551125729938e-01 -2.2860561935161938e-01 2.0375865359996828e-01 1.0613966341718747e-01 6.9202310889821287e-03 -7.5822822963689751e-02 -1.6685669382251991e-01 -1.9331206121847688e-01 1.4768150244982109e-01 1.3766621822150260e-01 -1.2170751644657064e-01 1.6194601001525263e-01 4.5508095403608291e-02 -1.0232334119958569e-01 -1.9155342293580888e-01 -1.6070594328035459e-01 -1.2279032207063141e-01 -6.8162789268247134e-02 1.2620868111423866e-01 -2.9921395031791427e-02 -1.3255141304008564e-01 6.5275670480994002e-02 7.2041389604235284e-02 -4.8955311736395432e-02 -4.7298931280372047e-02 -6.8691295065745075e-02 -6.6693530282973021e-02 1.2861873815597344e-01 -1.1915916689661439e-01 8.3380999633139857e-02 1.7944784207427636e-01 1.6845087131133912e-01 1.2295178393379633e-01 2.9015338396346118e-03 -7.7440250334509242e-02 1.0903897857374464e-01 -2.6390639710029848e-02 -1.0761392780607473e-01 6.1708391344840186e-02 -1.8743602961957168e-01 3.4654071633400979e-02 -1.9653052530792467e-01 -3.4974403516737487e-02 -7.6440335780464358e-02 4.5869358890849331e-02 1.2433980885105847e-01 9.7847894558146908e-02 -4.1482479581023628e-02 -9.6495590661861849e-02 -7.1254792019851687e-02 -2.1518559202799448e-01 -6.2030686065368899e-02 8.7074008612421400e-02 -1.0245017232137582e-01 2.4653741367417525e-01 2.2046645351369871e-02 1.4920348358013305e-01 7.3510609406013477e-02 1.8566452715128419e-02 5.2996621690458150e-02 1.9523040746818765e-01 -1.1721246573498680e-01 -6.3445310513415704e-02 -9.8458713598047753e-02 -2.4640722600482168e-01 -9.5987369475962564e-02 -1.4948806625370109e-01 -1.9681272083165471e-01 -1.3357753159207431e-01 -1.1111432880944583e-01 -1.3790185770962931e-02 -1.9233340554572823e-01 -1.3908988875368700e-02 3.9766622855593924e-02 1.3817642209822792e-01 -2.2281140762145562e-03 1.0075731591012201e-01 -1.2621264436037444e-01 -3.7948494183490673e-02 3.0880263531710812e-02 -7.8374794713116005e-03 -3.9625951966354989e-02 -7.7319074356631504e-02 -7.8065920787912038e-02 1.6749356129632373e-01 6.8536448639978084e-02 7.2740720969673781e-02 1.5339294722467511e-01 1.3530938738353007e-01 -1.3829064084758755e-01 1.1272938555064904e-01 -1.6760688005003112e-02 1.2649614853180777e-01 -2.0010851008648667e-01 -1.6429949333468288e-01 -1.1996769596881147e-01 -1.9964327003942575e-01 -1.1553529054840644e-01 9.2365406836686328e-02 8.6690022561998709e-04 -1.5215205924942948e-01 -4.1159582227199454e-02 3.9517854742853582e-02 1.9520548171067678e-01 1.5466647301751865e-01 7.3550082584606921e-02 -5.9210695883893584e-02 -1.6021484116985324e-01 -1.1006099954770715e-01 1.3865232232533090e-01 7.3372958931986657e-02 1.0848073035226855e-01 2.7602794917664396e-02 -8.1194283060948155e-02 1.1056412570686368e-01 -1.6691642114145536e-01 -9.4030342300405623e-03 -1.6144876763005897e-01 -5.5793377999700203e-02 1.6338521387217062e-02 -1.5191667235790007e-01 -1.5880321591674634e-01 1.1373864512835717e-01 1.3980467796119869e-01 -6.3067872575199510e-02 -1.3689984948118870e-02 9.8495811013397064e-02 4.6819147948017073e-02 -8.3211194601566757e-02 1.3112564199434817e-01 7.6310708013375209e-02 -2.0027635219708943e-03 1.8760586989713772e-02 8.0368781414251675e-02 1.8081145992523767e-01 -1.3379597211937105e-01 -7.8115798813237172e-02 1.0141297154461504e-01 1.2275817861172940e-01 -3.9343399685451808e-02 2.4518110402593152e-02 1.5985388463217523e-01 -1.7651496749632051e-01 6.6577340922503281e-02 -1.2500453747376242e-01 1.0812228055340707e-01 -1.1027856862429763e-01 -5.9552893960812779e-02 -3.8478959732110426e-03 -7.5416528025676277e-02 -8.2156850772449802e-02 1.5077761420690558e-01 1.8615481584514179e-01 -1.6212421050345846e-01 5.8775030787878990e-02 -5.3282534333770809e-02 -1.5558918503556228e-02 -1.1421585070524412e-01 1.1663602757891359e-01 4.2787245576667028e-02 3.8916906571251589e-02 4.3368726027379345e-02 3.9518957347271025e-02 -1.3739975581794045e-01 -1.8617136730098272e-01 -4.0155178625884559e-02 3.7233878228453192e-02 -1.6046769628591961e-01 1.6909720779365536e-01 1.9845884192590921e-01 6.6909400821829834e-02 9.0166399335894459e-02 1.4637098357306484e-04 3.7033217380619190e-04 1.6565486848411420e-01 -1.8655996304201924e-01 -1.2781128500743771e-01 7.6635281812247061e-02 1.9699675873879485e-01 -1.7171669888096089e-01 -1.1515635746027982e-01 -4.1533078563255540e-02 -1.5253006815546907e-01 -1.1369836800426296e-02 -1.2770853642059657e-01 1.4661163619647802e-01 1.3108393187968482e-02 1.2547583805720228e-01 -5.2898420097832508e-02 -2.0229931064624857e-02 -8.6724438084783570e-02 -1.5124918715627525e-01 1.1700540158065478e-02 1.1416378882999138e-01 1.3978419359475944e-01 -1.9288092387978056e-01 -7.1026165330819360e-02 1.1999492142734984e-01 3.6033704446101870e-02 1.7543867876379002e-01 3.6698659587226873e-02 1.6443908520826522e-01 9.3790340858475624e-02 -1.4042322771636773e-02 1.6406721937145541e-01 -1.2331675477784602e-01 -6.4782752987772307e-02 -9.9674658446116685e-02 1.0537378978600072e-03 9.2240976801566850e-03 1.6443252037750340e-02 -1.5824352681018075e-01 -5.5665887123608412e-03 -8.3797851671920595e-03 1.7278803634665454e-01 6.0083013439491441e-02 5.1995453353649405e-02 -5.0387171753984279e-02 -8.0886004475003756e-02 1.2976226509966718e-01 -4.8072979686629880e-02 -4.7204089018563579e-02 -3.0603423972419636e-02 1.7027036888801533e-01 -5.4418924235263080e-02 -1.1670899668597476e-01 -6.9100001694367211e-02 -7.7837519284876755e-02 -1.9678109923393926e-02 1.1920574837700323e-01 8.8184381892757957e-02 -1.8880027735328089e-01 3.8994566319936627e-02 6.4878174717280020e-03 5.7913318966300621e-02 -1.1807430027761476e-01 -9.7730894323535933e-02 -1.6107372115405288e-02 1.8741504573641626e-02 -9.7988958903627854e-02 1.2383806657308587e-01 -2.0376893725859963e-01 -2.1016988141396245e-01 1.5570732734816271e-02 2.1147789661511728e-02 1.5723872809044123e-02 -1.0571699472528820e-01 -5.7844290849152916e-03 -3.1952363261224498e-02 -1.3302140586679298e-01 1.5689819261792878e-01 1.3848802329547175e-01 1.0357664986318622e-01 -4.6531986758957838e-02 5.7867375118135972e-02 -2.2252450959448791e-01 -8.5999899983883757e-02 1.6624446603443049e-01 -9.5040451240797644e-02 8.2360850727477251e-03 -1.6896705502683347e-03 1.2386625634387224e-01 -9.6386183295254266e-02 1.9662868161486848e-02 3.8939680012775188e-02 8.2046996664037669e-02 3.6650933090933119e-02 3.1358269220394815e-02 9.4722950955399829e-02 -5.4236399224128470e-02 -7.3069498224767077e-02 -1.9894367324909731e-02 5.2308722922216666e-02 5.2181616295070600e-02 -1.8546406589330530e-01 -1.5764414890773133e-02 -2.9489980627552655e-02 1.3530763444817331e-01 -1.0771736431149197e-01 7.4970237041386542e-02 -1.2038561026742463e-01 -5.0672219985294982e-02 1.1415258203314718e-01 -6.5492845296896626e-02 6.6220210319798647e-02 -1.4044054264794742e-01 1.6330004613146366e-02 4.5617195954319435e-02 -1.5219437624498941e-01 1.3605704421963516e-01 1.0361693945435077e-01 2.3105384727665512e-03 -2.0166153570171839e-02 5.1088769278809454e-02 -1.1083704521069060e-01 -1.8992119269736152e-01 2.8055630748237345e-03 1.9579223663465917e-01 -2.0497579577386030e-02 1.9892608864158554e-01 -1.7218535109380675e-02 -9.5014163553747422e-02 -1.1954514642763751e-01 -3.2910404542131531e-03 -5.4090881079926267e-02 -6.1400970811206386e-02 1.6244570079685205e-01 -2.6373517346760234e-01 3.1531109784365831e-02 1.5793239109106519e-01 -7.5491743416293807e-03 -1.9353580782475541e-01 -5.2246544387278106e-03 -9.4596053064259389e-02 -8.8095973662878600e-03 8.5904027572533903e-02 9.6912256573241928e-02 -5.9576067673439183e-02 6.9559010092305376e-02 1.3971287682249986e-01 -6.2216049404998038e-02 1.4433985399010044e-01 5.7613948120439476e-02 2.1875883953102054e-01 8.2924973985627703e-02 -8.3792637230775513e-02 7.8240813885410224e-02 -8.6376284381588869e-02 1.6343523733477058e-01 -5.9971231490206167e-02 -1.4896220948177658e-01 2.0067595479774111e-01 3.1705540664405070e-02 -8.5971083622951361e-02 6.2445491800192245e-02 2.7678794039762494e-01 8.1997846003985825e-02 -2.6959552062083662e-02 -1.3222619101213378e-02 8.7022643367421409e-02 -5.3544114330249290e-02 -5.2846747672956447e-02 1.9133451974187815e-01 -1.3481296844773422e-01 -8.8235978677584561e-03 1.9351319454973359e-01 -1.5728631369965853e-02 1.5458770323845686e-01 9.7041338353133499e-02 -2.6125160616506493e-02 -1.6287973666542657e-01 -2.2318529257352290e-01 -1.1803424220518610e-01 -1.1981864926234956e-01 -2.0568917721789004e-01 -1.1605177388171443e-01 -1.3849270613778125e-01 -4.0622062906619412e-03 -5.2355942293391931e-02 5.0499274637915391e-02 -2.7917041444654656e-01 -7.6381695563495791e-02 -1.3636446787665316e-01 2.7514039990358619e-02 8.8132057217854221e-02 -1.4676191037617189e-01 -1.6880429020547957e-01 -1.8108872124018885e-01 -1.1074367145146588e-01 7.4293935912766715e-02 9.0359682798019939e-02 -8.8646723166677203e-03 -1.0088405957775655e-01 -6.0177599549112622e-02 -1.6655745672283656e-01 7.8622095698564334e-02 5.2851017132959296e-02 1.3073000254270868e-02 6.4809514598276677e-02 -6.7128284217276360e-02 1.5410566706970044e-01 4.8174911842204633e-02 -1.1715810301340478e-01 1.9788492385600664e-01 -9.8272028536635428e-02 -2.5485575000614755e-02 1.7919116781217254e-01 -1.6826830767937360e-02 5.5905219108785480e-02 6.9215321946484748e-02 -5.4315959399950903e-02 