<?xml version="1.0"?>
<MethodSetup Method="MLP::MLP">
  <GeneralInfo>
    <Info name="TMVA Release" value="4.2.1 [262657]"/>
    <Info name="ROOT Release" value="6.08/02 [395266]"/>
    <Info name="Creator" value="minerva1993"/>
    <Info name="Date" value="Mon May 22 15:48:21 2017"/>
    <Info name="Host" value="Linux htop.hanyang.ac.kr 2.6.32-696.el6.centos.plus.x86_64 #1 SMP Mon Apr 3 14:56:08 UTC 2017 x86_64 x86_64 x86_64 GNU/Linux"/>
    <Info name="Dir" value="/home/minerva1993/fcnc/tmva"/>
    <Info name="Training events" value="40000"/>
    <Info name="TrainingTime" value="1.49132741e+02"/>
    <Info name="AnalysisType" value="Classification"/>
  </GeneralInfo>
  <Options>
    <Option name="NCycles" modified="Yes">1000</Option>
    <Option name="HiddenLayers" modified="Yes">N+5</Option>
    <Option name="NeuronType" modified="Yes">tanh</Option>
    <Option name="RandomSeed" modified="No">1</Option>
    <Option name="EstimatorType" modified="No">CE</Option>
    <Option name="NeuronInputType" modified="No">sum</Option>
    <Option name="V" modified="Yes">False</Option>
    <Option name="VerbosityLevel" modified="No">Default</Option>
    <Option name="VarTransform" modified="Yes">N</Option>
    <Option name="H" modified="Yes">True</Option>
    <Option name="CreateMVAPdfs" modified="No">False</Option>
    <Option name="IgnoreNegWeightsInTraining" modified="No">False</Option>
    <Option name="TrainingMethod" modified="No">BP</Option>
    <Option name="LearningRate" modified="No">2.000000e-02</Option>
    <Option name="DecayRate" modified="No">1.000000e-02</Option>
    <Option name="TestRate" modified="Yes">5</Option>
    <Option name="EpochMonitoring" modified="No">False</Option>
    <Option name="Sampling" modified="No">1.000000e+00</Option>
    <Option name="SamplingEpoch" modified="No">1.000000e+00</Option>
    <Option name="SamplingImportance" modified="No">1.000000e+00</Option>
    <Option name="SamplingTraining" modified="No">True</Option>
    <Option name="SamplingTesting" modified="No">False</Option>
    <Option name="ResetStep" modified="No">50</Option>
    <Option name="Tau" modified="No">3.000000e+00</Option>
    <Option name="BPMode" modified="No">sequential</Option>
    <Option name="BatchSize" modified="No">-1</Option>
    <Option name="ConvergenceImprove" modified="No">1.000000e-30</Option>
    <Option name="ConvergenceTests" modified="No">-1</Option>
    <Option name="UseRegulator" modified="Yes">False</Option>
    <Option name="UpdateLimit" modified="No">10000</Option>
    <Option name="CalculateErrors" modified="No">False</Option>
    <Option name="WeightRange" modified="No">1.000000e+00</Option>
  </Options>
  <Variables NVar="5">
    <Variable VarIndex="0" Expression="NJets" Label="NJets" Title="NJets" Unit="" Internal="NJets" Type="I" Min="4.00000000e+00" Max="1.40000000e+01"/>
    <Variable VarIndex="1" Expression="NBJets_M" Label="NBJets_M" Title="NBJets_M" Unit="" Internal="NBJets_M" Type="I" Min="1.00000000e+00" Max="6.00000000e+00"/>
    <Variable VarIndex="2" Expression="NCJets_M" Label="NCJets_M" Title="NCJets_M" Unit="" Internal="NCJets_M" Type="I" Min="1.00000000e+00" Max="8.00000000e+00"/>
    <Variable VarIndex="3" Expression="BJMDPhi" Label="BJMDPhi" Title="BJMDPhi" Unit="" Internal="BJMDPhi" Type="F" Min="-3.14143872e+00" Max="3.14156199e+00"/>
    <Variable VarIndex="4" Expression="BJMDEta" Label="BJMDEta" Title="BJMDEta" Unit="" Internal="BJMDEta" Type="F" Min="-4.67494106e+00" Max="4.74954796e+00"/>
  </Variables>
  <Spectators NSpec="0"/>
  <Classes NClass="2">
    <Class Name="Signal" Index="0"/>
    <Class Name="Background" Index="1"/>
  </Classes>
  <Transformations NTransformations="1">
    <Transform Name="Normalize">
      <Selection>
        <Input NInputs="5">
          <Input Type="Variable" Label="NJets" Expression="NJets"/>
          <Input Type="Variable" Label="NBJets_M" Expression="NBJets_M"/>
          <Input Type="Variable" Label="NCJets_M" Expression="NCJets_M"/>
          <Input Type="Variable" Label="BJMDPhi" Expression="BJMDPhi"/>
          <Input Type="Variable" Label="BJMDEta" Expression="BJMDEta"/>
        </Input>
        <Output NOutputs="5">
          <Output Type="Variable" Label="NJets" Expression="NJets"/>
          <Output Type="Variable" Label="NBJets_M" Expression="NBJets_M"/>
          <Output Type="Variable" Label="NCJets_M" Expression="NCJets_M"/>
          <Output Type="Variable" Label="BJMDPhi" Expression="BJMDPhi"/>
          <Output Type="Variable" Label="BJMDEta" Expression="BJMDEta"/>
        </Output>
      </Selection>
      <Class ClassIndex="0">
        <Ranges>
          <Range Index="0" Min="4.0000000000000000e+00" Max="1.4000000000000000e+01"/>
          <Range Index="1" Min="1.0000000000000000e+00" Max="5.0000000000000000e+00"/>
          <Range Index="2" Min="1.0000000000000000e+00" Max="8.0000000000000000e+00"/>
          <Range Index="3" Min="-3.1413979530334473e+00" Max="3.1412608623504639e+00"/>
          <Range Index="4" Min="-4.6692671775817871e+00" Max="4.7495479583740234e+00"/>
        </Ranges>
      </Class>
      <Class ClassIndex="1">
        <Ranges>
          <Range Index="0" Min="4.0000000000000000e+00" Max="1.3000000000000000e+01"/>
          <Range Index="1" Min="1.0000000000000000e+00" Max="6.0000000000000000e+00"/>
          <Range Index="2" Min="1.0000000000000000e+00" Max="8.0000000000000000e+00"/>
          <Range Index="3" Min="-3.1414387226104736e+00" Max="3.1415619850158691e+00"/>
          <Range Index="4" Min="-4.6749410629272461e+00" Max="4.5950241088867188e+00"/>
        </Ranges>
      </Class>
      <Class ClassIndex="2">
        <Ranges>
          <Range Index="0" Min="4.0000000000000000e+00" Max="1.4000000000000000e+01"/>
          <Range Index="1" Min="1.0000000000000000e+00" Max="6.0000000000000000e+00"/>
          <Range Index="2" Min="1.0000000000000000e+00" Max="8.0000000000000000e+00"/>
          <Range Index="3" Min="-3.1414387226104736e+00" Max="3.1415619850158691e+00"/>
          <Range Index="4" Min="-4.6749410629272461e+00" Max="4.7495479583740234e+00"/>
        </Ranges>
      </Class>
    </Transform>
  </Transformations>
  <MVAPdfs/>
  <Weights>
    <Layout NLayers="3">
      <Layer Index="0" NNeurons="6">
        <Neuron NSynapses="10">
          -7.6801124269289689e-01 8.9086651385447202e-01 1.0654381852782375e+00 -7.2928150105927536e-01 -7.8288918889094452e+00 -5.7576853413032869e-01 -2.5251853568994909e+00 5.3039752809672058e-01 9.3465888235565647e-02 -9.7901536387833499e-01 
        </Neuron>
        <Neuron NSynapses="10">
          -1.5379926858912785e+00 5.1055977573985345e-01 1.1213765946518286e+00 -2.5643609852011897e+00 -1.0063467525619423e-01 1.2474681082473937e-01 7.5318421870166707e-01 2.4334383667125095e+00 6.8829978823374527e-01 7.4027745812108456e+00 
        </Neuron>
        <Neuron NSynapses="10">
          -2.7260407388299832e+00 -4.3858226419637741e-01 1.3799801370416573e+00 -1.0210250367964357e+00 -3.5267497917461649e-01 4.9799014603332981e-01 -2.9674874882945956e-01 -3.2440584398269978e-01 -4.0013902922646422e-01 2.4264881948861050e-01 
        </Neuron>
        <Neuron NSynapses="10">
          4.7884088571294298e-01 -5.5621491681618318e-01 -1.1731799338511534e-01 2.8936554690121097e-01 -9.1154890802691482e-03 -3.5975626734639374e-02 -8.9433964448424191e-02 2.7232065516701864e-01 2.3724042410354759e-01 -2.2956244343182597e-01 
        </Neuron>
        <Neuron NSynapses="10">
          9.9932422602404702e-01 3.1786332036120418e-01 2.2598751097306837e+00 2.0321769332756543e+00 -6.5009173128247100e-01 -2.5962465274295039e+00 2.3006949449987206e+00 -3.4880646810730870e-01 3.5326159184809364e-01 -1.3610271942025813e+00 
        </Neuron>
        <Neuron NSynapses="10">
          9.4019890244072246e-01 2.6724022795302932e-01 1.8415304327731064e-01 -1.2837716700606372e-02 -6.8175688938104049e+00 4.2110399719333791e-01 -1.3039449271240477e+00 -2.3995922294672778e+00 1.6158779177845084e-01 5.4732697148106988e+00 
        </Neuron>
      </Layer>
      <Layer Index="1" NNeurons="11">
        <Neuron NSynapses="1">
          -1.1620261191694028e+00 
        </Neuron>
        <Neuron NSynapses="1">
          4.3282122008712315e-01 
        </Neuron>
        <Neuron NSynapses="1">
          -8.8304850607172181e-01 
        </Neuron>
        <Neuron NSynapses="1">
          1.2466557049834481e+00 
        </Neuron>
        <Neuron NSynapses="1">
          6.6182185506556357e-01 
        </Neuron>
        <Neuron NSynapses="1">
          5.1630016825258729e-01 
        </Neuron>
        <Neuron NSynapses="1">
          4.5558875863504134e-01 
        </Neuron>
        <Neuron NSynapses="1">
          -7.2093028144086302e-01 
        </Neuron>
        <Neuron NSynapses="1">
          4.2041884260625562e-01 
        </Neuron>
        <Neuron NSynapses="1">
          -1.0611815902612605e+00 
        </Neuron>
        <Neuron NSynapses="1">
          -5.0696957052706060e-01 
        </Neuron>
      </Layer>
      <Layer Index="2" NNeurons="1">
        <Neuron NSynapses="0"/>
      </Layer>
    </Layout>
  </Weights>
</MethodSetup>
