<?xml version="1.0"?>
<MethodSetup Method="DNN::DNN">
  <GeneralInfo>
    <Info name="TMVA Release" value="4.2.1 [262657]"/>
    <Info name="ROOT Release" value="6.08/02 [395266]"/>
    <Info name="Creator" value="minerva1993"/>
    <Info name="Date" value="Tue May 23 02:03:15 2017"/>
    <Info name="Host" value="Linux htop.hanyang.ac.kr 2.6.32-696.el6.centos.plus.x86_64 #1 SMP Mon Apr 3 14:56:08 UTC 2017 x86_64 x86_64 x86_64 GNU/Linux"/>
    <Info name="Dir" value="/home/minerva1993/fcnc/tmva"/>
    <Info name="Training events" value="60000"/>
    <Info name="TrainingTime" value="6.87843882e+02"/>
    <Info name="AnalysisType" value="Classification"/>
  </GeneralInfo>
  <Options>
    <Option name="V" modified="Yes">True</Option>
    <Option name="VerbosityLevel" modified="No">Verbose</Option>
    <Option name="VarTransform" modified="Yes">N</Option>
    <Option name="H" modified="Yes">False</Option>
    <Option name="CreateMVAPdfs" modified="No">False</Option>
    <Option name="IgnoreNegWeightsInTraining" modified="No">False</Option>
    <Option name="Layout" modified="Yes">TANH|30,TANH|20,LINEAR</Option>
    <Option name="ErrorStrategy" modified="Yes">CROSSENTROPY</Option>
    <Option name="WeightInitialization" modified="Yes">XAVIERUNIFORM</Option>
    <Option name="Architecture" modified="No">STANDARD</Option>
    <Option name="TrainingStrategy" modified="Yes">LearningRate=0.01,Momentum=0.1,Repetitions=1,ConvergenceSteps=300,BatchSize=500,DropConfig=0.0+0.2+0.0,WeightDecay=0.001,Regularization=L2,TestRepetitions=5,Multithreading=True</Option>
  </Options>
  <Variables NVar="5">
    <Variable VarIndex="0" Expression="NJets" Label="NJets" Title="NJets" Unit="" Internal="NJets" Type="I" Min="4.00000000e+00" Max="1.60000000e+01"/>
    <Variable VarIndex="1" Expression="NBJets_M" Label="NBJets_M" Title="NBJets_M" Unit="" Internal="NBJets_M" Type="I" Min="1.00000000e+00" Max="7.00000000e+00"/>
    <Variable VarIndex="2" Expression="NCJets_M" Label="NCJets_M" Title="NCJets_M" Unit="" Internal="NCJets_M" Type="I" Min="1.00000000e+00" Max="9.00000000e+00"/>
    <Variable VarIndex="3" Expression="BJMDPhi" Label="BJMDPhi" Title="BJMDPhi" Unit="" Internal="BJMDPhi" Type="F" Min="-3.14155579e+00" Max="3.14156199e+00"/>
    <Variable VarIndex="4" Expression="BJMDEta" Label="BJMDEta" Title="BJMDEta" Unit="" Internal="BJMDEta" Type="F" Min="-4.67494106e+00" Max="4.74954796e+00"/>
  </Variables>
  <Spectators NSpec="0"/>
  <Classes NClass="2">
    <Class Name="Signal" Index="0"/>
    <Class Name="Background" Index="1"/>
  </Classes>
  <Transformations NTransformations="1">
    <Transform Name="Normalize">
      <Selection>
        <Input NInputs="5">
          <Input Type="Variable" Label="NJets" Expression="NJets"/>
          <Input Type="Variable" Label="NBJets_M" Expression="NBJets_M"/>
          <Input Type="Variable" Label="NCJets_M" Expression="NCJets_M"/>
          <Input Type="Variable" Label="BJMDPhi" Expression="BJMDPhi"/>
          <Input Type="Variable" Label="BJMDEta" Expression="BJMDEta"/>
        </Input>
        <Output NOutputs="5">
          <Output Type="Variable" Label="NJets" Expression="NJets"/>
          <Output Type="Variable" Label="NBJets_M" Expression="NBJets_M"/>
          <Output Type="Variable" Label="NCJets_M" Expression="NCJets_M"/>
          <Output Type="Variable" Label="BJMDPhi" Expression="BJMDPhi"/>
          <Output Type="Variable" Label="BJMDEta" Expression="BJMDEta"/>
        </Output>
      </Selection>
      <Class ClassIndex="0">
        <Ranges>
          <Range Index="0" Min="4.0000000000000000e+00" Max="1.4000000000000000e+01"/>
          <Range Index="1" Min="1.0000000000000000e+00" Max="7.0000000000000000e+00"/>
          <Range Index="2" Min="1.0000000000000000e+00" Max="8.0000000000000000e+00"/>
          <Range Index="3" Min="-3.1413979530334473e+00" Max="3.1412608623504639e+00"/>
          <Range Index="4" Min="-4.6692671775817871e+00" Max="4.7495479583740234e+00"/>
        </Ranges>
      </Class>
      <Class ClassIndex="1">
        <Ranges>
          <Range Index="0" Min="4.0000000000000000e+00" Max="1.6000000000000000e+01"/>
          <Range Index="1" Min="1.0000000000000000e+00" Max="6.0000000000000000e+00"/>
          <Range Index="2" Min="1.0000000000000000e+00" Max="9.0000000000000000e+00"/>
          <Range Index="3" Min="-3.1415557861328125e+00" Max="3.1415619850158691e+00"/>
          <Range Index="4" Min="-4.6749410629272461e+00" Max="4.5950241088867188e+00"/>
        </Ranges>
      </Class>
      <Class ClassIndex="2">
        <Ranges>
          <Range Index="0" Min="4.0000000000000000e+00" Max="1.6000000000000000e+01"/>
          <Range Index="1" Min="1.0000000000000000e+00" Max="7.0000000000000000e+00"/>
          <Range Index="2" Min="1.0000000000000000e+00" Max="9.0000000000000000e+00"/>
          <Range Index="3" Min="-3.1415557861328125e+00" Max="3.1415619850158691e+00"/>
          <Range Index="4" Min="-4.6749410629272461e+00" Max="4.7495479583740234e+00"/>
        </Ranges>
      </Class>
    </Transform>
  </Transformations>
  <MVAPdfs/>
  <Weights InputWidth="5" Depth="3" LossFunction="C" OutputFunction="S">
    <Layer ActivationFunction="3">
      <Weights rows="30" cols="5">
        -6.9542089373500782e-01 4.8340515144559539e-02 -2.9545816207712949e-01 -1.1950987399857421e-01 -1.9658289138906791e-02 -7.4331622742205561e-02 -2.0207097666812723e-01 -1.0822196791376106e-01 4.5101843353447080e-01 3.2011346054846146e-01 -1.5468975293526571e-01 1.4771517670015694e-01 2.9643559514524348e-01 -3.7156275519178206e-01 -2.2915421206733111e-01 4.1084291630848835e-03 -5.5633656867472836e-01 -2.2579965751899883e-01 3.5488178195028047e-01 -2.5103334191018872e-01 9.4216996603403036e-01 -9.6381887627699192e-01 -1.1684574897081806e-01 1.9463427940872016e-01 1.4251948869185637e-02 1.8268770874580839e-01 2.0104548305445457e-02 2.6197892515118615e-01 -7.5943212345273873e-03 -5.2847158312903808e-01 -9.8837444010318176e-01 7.5837053773366481e-01 9.4836152388713693e-02 3.0616949633583529e-01 4.8590250932147964e-02 1.3025353615346733e-01 3.6597777410818190e-02 -1.5742999394624291e-01 -4.5564145782937611e-02 -8.1047758410160167e-02 -1.0471430651991163e+00 -6.9881342876821706e-01 -3.3937061622355802e-01 -1.3009121764731660e-01 2.5649256526510986e-02 -3.9809993525818260e-01 2.2536636739862695e-01 4.2802221397279028e-01 2.8389207984396547e-01 4.7770403030456005e-01 1.6758926940601845e-01 -4.2027646692603948e-01 5.3366607871237937e-01 1.7922131953753009e-01 3.5311688603277158e-01 2.2863859490573227e-01 8.5037553819508990e-02 -5.3105391444983940e-01 4.2351216433917654e-01 -5.8982986512970859e-01 1.4511229089828312e-01 2.5461208064153618e-01 -1.7033283270546745e-01 -1.9436917548104063e-01 2.3344145647417247e-01 1.8981513671880262e-01 2.4474169790840797e-01 9.2424197059827823e-02 -2.0864671046115654e-02 -2.4874323864030565e-01 1.6074431116725166e-01 3.5553821606917346e-01 -5.7128131239009804e-02 -1.0867294303035482e-01 -9.6814156486231873e-02 2.7936775789695617e-01 2.8174924172094779e-01 3.2665967516101829e-01 -3.0718738144067202e-02 1.2504240946388454e+00 -3.9728128281407155e-01 -1.3326833485558309e-01 -2.4784384831287740e-01 1.5922839400747824e-01 -4.1249057983873944e-01 -1.6966399524124853e-01 3.9666222597473882e-01 1.4032733986566623e-01 2.4009984697818931e-01 -2.3345485789801712e-01 3.3027015102294494e-01 4.2721758150323574e-01 1.8979313678040635e-01 2.9462778473816498e-01 3.0755306442218844e-01 -3.9647467440620038e-01 -9.3549335721619581e-02 3.5534826243451118e-01 -3.6620459485915013e-01 -4.9398534760351287e-01 4.1719025755749950e-01 -5.9871431250429638e-02 6.4141843667859771e-02 -7.5059973725849882e-02 -7.8188432184639500e-01 2.8173220167417229e-01 -3.8974444948343834e-01 -5.0163972845535987e-01 -5.0481123169214170e-01 5.3990835291322736e-01 -8.4336963919588070e-01 3.1789699470287758e-01 5.1443165730600260e-01 -8.2992722769725830e-02 3.2548270949765690e-01 6.8480247011530748e-01 -2.3272762400265683e+00 -4.1104009807820398e-02 -1.7604582661868665e-02 -6.6843671936905519e-02 -4.1112221781536416e-02 1.7003445744478765e-03 -1.3040839583903677e-01 4.9877583716553869e-01 -4.1526706375342121e-01 1.1410362484265932e-01 3.5898347833021071e-01 5.1102488096454579e-01 2.7526269317785090e-01 -3.1828707579601634e-01 -2.5850010944435581e-01 4.0896308865708231e-01 -3.8975392932318609e-01 -3.8074465317921841e-01 -2.9073980373474761e-01 -2.5967137716070265e-01 4.6402066475637199e-01 -9.9203831707538465e-03 5.5650663450233961e-01 -3.9003504429352737e-01 5.4309097436637921e-01 -6.6263011180749898e-01 -2.6471986508847889e-01 -9.0932619066601564e-02 4.2889043366149897e-02 -5.3718321943764580e-01 -4.4264451837796459e-01 -1.1931665381340578e-02 2.0582663563319136e-03 3.5350017760837260e-01 
      </Weights>
      <Biases rows="30" cols="1">
        6.9134463063700177e-02 1.4566629198147601e-01 1.4127850051684293e-01 -8.4268785647037311e-02 -4.9714788225420498e-01 -2.3011054390946112e-01 -2.2492093794398031e-02 1.2585845630251211e-01 -1.3174120747975318e+00 3.4284534314135673e-01 4.4179659018807174e-02 -1.7168694679597624e-01 -2.3612737087873756e-01 -1.6839914048985913e-01 -1.0178821122523136e-01 -4.3430963735867284e-01 1.2924074192522636e-01 -1.1051564528945436e-01 -3.4522258693320634e-01 -2.0398028387707226e-01 -2.4061717781859832e-01 2.9595787767992557e-02 4.5155630600983049e-01 -5.0417193728352294e-01 -5.2561919473403440e-02 -8.3825327549424178e-02 8.5423519258943717e-02 -3.7579819060077002e-01 -1.7724790558781395e-01 -1.3718983360688249e-02 
      </Biases>
    </Layer>
    <Layer ActivationFunction="3">
      <Weights rows="20" cols="30">
        -4.6267566583430364e-01 7.2118794001829065e-02 9.9695413211588507e-02 3.0116460672736839e-01 8.9055586311325674e-01 -7.6069980808441448e-02 -4.7699198429429251e-01 -3.6461573580365636e-01 2.0827787796483030e+00 1.5670829815026313e-01 1.9076846959424015e-01 -2.7131103316196059e-01 -3.9458390289211476e-01 -3.0462562755904471e-01 -2.2634497688372654e-01 -1.4317502466757076e-01 1.4570851899011067e-01 9.5173578753683249e-02 2.6527970842569026e-01 8.6568097956608425e-01 -5.3204309986855525e-01 -6.2728192058886179e-01 -3.7887259710047466e-01 -1.1903041135787245e+00 -1.3124583627264172e-01 -4.1987624786622330e-01 -1.4329837588999225e-01 3.5872568104052921e-01 3.1458243725107238e-01 3.6271473596128499e-02 1.0516724319194118e-01 9.6065717786820423e-02 -1.6890877949746055e-02 -1.7985696583451452e-01 -3.2100263963748360e-01 -8.3791243507002941e-02 2.2588118404631635e-01 2.0964514594334718e-01 -8.3670761656121986e-02 -1.8470205340656611e-02 -2.5939196856533192e-01 -2.3825048297472704e-02 1.5090440715873645e-02 -1.2314855769749729e-01 -1.3897788412279569e-01 2.1656084943639767e-01 -1.2578684190265191e-01 -1.0886009654760261e-01 -6.2723603053802715e-02 -1.7184787831370951e-01 2.4179902038458834e-01 -1.8769150561322270e-01 -1.9515918565132762e-01 -4.1977267344005267e-02 1.0971510968847950e-01 -6.7395287909325493e-03 -7.0947894626076508e-02 1.2093379286024429e-01 -1.2253405551301357e-01 2.5260241472457118e-01 2.6468282593862291e-01 -8.7406900644682511e-02 -1.7877271707840675e-01 2.4412217689026755e-01 4.2267630741161927e-01 -2.0853559844788155e-01 -8.7425593233967577e-02 1.4152533239689777e-01 6.7445521872694603e-01 4.6248496256605272e-02 -1.7337892126481744e-01 -1.2321288623185546e-02 -2.2736281199577413e-01 7.4878271683819261e-02 -2.5681405633455352e-02 -1.8144220948553541e-01 4.4350921388318615e-02 -1.4671630411504175e-01 1.0550412960347827e-01 9.4216647499123271e-02 -3.0343360084812482e-01 3.8405628369041170e-02 -2.9297794811239142e-01 -4.2460153963648201e-01 1.5584565475081752e-01 -2.7417996403717249e-01 2.3302446730541201e-02 -4.4650888143825458e-02 2.1258519787201111e-01 -8.7049075490719899e-02 2.1392542131404280e-01 -9.0822398092544443e-02 -1.0792560270059151e-01 -1.0499723585794044e-01 2.7770660283784422e-02 3.6800294629474983e-02 -2.2525213664708357e-01 4.5654414425596250e-02 1.8577450600753115e-01 -4.6392488107498367e-02 1.0045008208807146e-01 1.3840225561723724e-01 1.7844972094980435e-01 -8.7313041140867131e-02 1.3207859947131015e-01 -4.2543762078510722e-01 2.5041966767167079e-01 -1.1460788840306466e-01 4.0959767339450254e-02 2.9293878315978655e-01 -1.2429345891500594e-01 -2.8591091415650149e-01 -2.8598242006480340e-02 -2.4739501970836286e-01 -1.6921996031110323e-01 3.2518644417252343e-02 -1.4324195702915526e-01 -2.1399105147767333e-01 7.8889853527236972e-02 -2.5420683205066541e-01 1.6040622766409329e-01 -1.0006477023459169e-01 1.5988849966516491e-02 5.5854966337272202e-02 9.6433160368097348e-02 1.4234909614942359e-01 -1.9615144102893534e-01 2.1969074267608216e-01 -4.9250289509743632e-02 1.0411289001763538e-01 -4.7305775879970639e-02 2.3083963763469625e-01 1.6436805300406959e-01 1.8141587737290230e-01 -7.7059639655505413e-02 -7.4111269142556101e-03 -3.6253256199606919e-02 -4.5116740085738100e-02 -1.4036271438759818e-01 1.5979395752769673e-02 2.4589125521992458e-01 2.5342328212983350e-01 2.0004800251272103e-01 1.9930179393677525e-01 -5.1003396859924242e-02 -1.8072056067727469e-02 1.1485636884215177e-01 1.1800741109443660e-01 -1.4794773437643169e-01 2.3524455751728626e-01 -4.2433409351205271e-04 -1.9239662423914025e-01 -1.4657087443916883e-01 1.5580071722687902e-01 -1.3620354529869544e-01 1.1039402051499209e-01 7.4827035870862049e-02 -1.6306615717003295e-01 -9.3185314005806957e-02 -1.0187781723724022e-01 3.5715179442382852e-02 -3.2193561360903809e-02 -1.1404321491052104e-01 -1.1823342064663396e-01 -1.4512833821857185e-01 -9.9820776826719304e-02 1.5145613947598999e-01 2.1364860308861972e-01 -2.1966128807365401e-01 -2.2185655149669407e-02 5.2907279874494090e-02 -2.3255171975674785e-01 -4.5252747871086220e-02 1.9901562826546450e-02 3.4860247057391276e-02 -2.5509706350046601e-01 9.2441132583164082e-02 6.8968423084681593e-03 -1.9638088246631335e-02 -1.0817607070569102e-01 -1.7933626404470981e-01 1.6147527871494768e-01 2.1969901926382468e-01 6.2311966759270240e-02 1.1721810872419322e-01 -7.9209890058231300e-02 -3.1397387327847998e-02 -8.4092038800512803e-02 3.6814059960579959e-02 -4.2657757718708660e-02 -1.4259391137616534e-01 1.6767539696888342e-01 1.8207822821265704e-01 -1.3507233217642254e-03 1.0227950195178365e-01 2.0490511901782507e-01 1.7942140364275577e-01 -1.5203227520033499e-01 5.2648583460215004e-02 -1.8341506227589571e-01 1.3810915211929786e-01 2.6442193288935173e-01 -2.6678504146913116e-02 -1.5994447540569309e-01 8.1444487817030523e-02 -1.9885800685326310e-01 1.1322410391695059e-01 -8.8778977264683812e-03 -2.0369732474620533e-01 -5.3210632364814152e-02 1.3483719853239437e-01 -2.6129021740823299e-01 1.9786980147050348e-01 -2.8862317626565515e-01 -2.3450085130184203e-01 2.3742916104712668e-02 -1.5359797910921713e-02 -2.0506325415175461e-01 -1.5421267707922093e-01 1.8338654166836020e-02 2.5648701330831808e-01 -1.2629489618220632e-01 -1.9336454914639026e-01 1.2925227989885951e-01 -1.0430476680005184e-01 3.0962421576220656e-01 -2.4361135080087240e-01 1.6988826040394159e-01 1.8598314966014814e-01 1.4332352546792881e-01 1.6258568599282616e-01 4.8974289006766647e-02 2.5822048273511472e-01 -1.6982363031301584e-01 1.8144682950835514e-01 7.2307295177200567e-02 -1.5871305796818050e-01 2.3181432739704860e-01 -9.3841076727690972e-02 -1.4103149273447962e-01 3.6321862258516191e-02 -1.4095843706797870e-01 -1.7553567512556337e-01 -1.2634657984549241e-01 -3.0996112043099860e-01 1.3373382106892262e-01 -2.1200767967627817e-02 -2.5027169705734048e-01 2.3455789661478207e-02 -9.4540690488925758e-02 -8.1018618956405861e-03 1.4304747338061674e-01 2.7085414450179882e-02 1.7500644639261234e-01 -6.2884691720141342e-02 1.7915335489926074e-01 7.8222195443460485e-02 2.3662945968489804e-01 -1.1089929063042185e-01 -3.0031708595989265e-01 -6.8981768885607767e-02 -1.2190598190227492e-01 2.9690862810754998e-01 1.5423732533998832e-01 -5.6516225784343635e-02 -1.9204868892297478e-01 2.2909556045383939e-01 5.4910925761700063e-02 -1.8906161639776489e-01 1.0577592696838335e-01 1.3991109271696500e-01 4.6563719943332825e-02 -1.2324030341830693e-01 -2.3225681855410144e-02 -1.7031216379087807e-01 -4.6460931365735619e-01 -1.8528929704511889e-02 2.4005628741537910e-01 -7.7825074437288838e-02 1.2184763926701571e-01 1.6684701744099134e-01 -2.2479880584914078e-01 4.5036909122676702e-02 -1.6342580264096360e-01 -2.5386128972054256e-01 8.4783591745375808e-02 -9.7133074787553036e-02 -4.8601520252037657e-02 6.6844074928435054e-02 -4.1455549157712601e-01 -3.4639155982713721e-01 2.2644101727788202e-01 1.6852666942610259e-01 -1.6668191422117454e-02 6.8479184188399655e-02 -3.3626421912258592e-01 -2.5335874315141116e-01 1.2584684296450142e-03 2.7666163231991858e-01 2.0463151784929504e-01 1.0345061750702968e-01 -1.1596034225909612e-02 2.0439459245459679e-01 -6.2427688281583918e-02 -2.0548093716991336e-01 8.6988330870597638e-02 2.4607250208500059e-01 9.0704451857091709e-02 8.2887198451287905e-02 2.1288890410286707e-01 -1.7568323508780576e-01 1.9750796086485978e-01 2.2215258155753587e-01 -8.2948705740617107e-02 3.4096657098992428e-02 1.7747284698173233e-02 -2.3966448517267341e-01 -1.9095427300482770e-01 1.4658583267523306e-01 7.9867085384802430e-02 -1.8241053913471345e-01 -1.3978131330377225e-01 -2.5567187143514938e-02 -1.7624439656709323e-01 -4.6645701033438527e-02 2.1620019456436315e-01 -1.6516609283823461e-01 -1.6835498462899212e-01 -8.4463141064256203e-02 3.1942133576778900e-02 -5.7261027149744662e-03 -2.3903394643153310e-02 1.1344201719540445e-01 -1.3423690838315780e-01 9.7369307371769853e-02 -1.4686584524567964e-01 -3.6120870464766647e-01 8.2548425902796527e-02 -9.4239712477042371e-03 7.7151049875334207e-02 -1.2834701929078343e-01 -1.5571302542413470e-01 -2.0156028927709702e-01 -1.6218243896313267e-01 1.1812751714026171e-02 -8.2793589226293873e-02 1.1040999178210729e-01 1.4052168524171866e-02 -9.7364394137094967e-03 -4.8182259103321648e-02 -1.4254205926468003e-01 -5.3156084706883225e-02 -1.6122896000673719e-02 -1.5181169231715652e-01 1.4472908495252452e-02 2.1016346657583707e-01 7.8371291254581525e-03 -8.7423441220759443e-02 -2.3573784239888415e-02 6.5956523275812223e-02 -2.6225517536096238e-01 -2.1810573540518566e-01 4.5334968783118337e-02 -1.5973739794648115e-01 -2.9102496857384360e-02 -1.4840274285397542e-01 -3.1383066220407485e-01 -1.3644412538424439e-01 3.5024960357736952e-02 -1.7797177114985835e-01 -1.0303809738205995e-01 -5.9767034735696951e-02 -2.6845923058003596e-01 7.2812800955965346e-02 -1.2052864909611935e-01 -1.9628480163695061e-01 1.4619306785634573e-01 1.4679713892494858e-02 -1.9763887414050343e-01 -1.5746314579495352e-02 1.2769510185173955e-01 1.8394491602960875e-01 -4.0920417463381910e-02 -3.7545124656343576e-01 6.9479787760403769e-02 3.7103291274452478e-02 4.2811056460735762e-02 2.4833467211255941e-01 -1.0273320613205533e-01 8.4571629452127345e-02 -2.6276031770561253e-01 1.6410521029636546e-01 1.1485110008452364e-01 -1.6666104974379370e-01 1.2282085338676761e-01 2.3824628735589087e-01 -1.2158552992107313e-02 -7.1824895392754801e-02 1.9537670992477333e-02 1.8443920977900347e-01 -5.2372763886131803e-02 8.9953834494825233e-02 -8.5247696865297318e-02 -1.0681855239548843e-01 -7.1756714022194343e-02 -2.2245983681788398e-01 -1.9997364324473785e-01 -1.7599603564201655e-01 -2.0175959605987256e-01 2.2757001787978076e-01 -3.8779980409503118e-02 -3.4175802132112472e-02 -8.8144363205611073e-02 1.7518208703037406e-03 6.6672763998929865e-02 1.9664240256881826e-01 -2.3212214235032620e-02 -9.1865703874114274e-02 6.4944961425488237e-02 1.8861100973378730e-01 2.2671958934924286e-01 5.8495266467647043e-02 -1.1355778385950636e-01 1.4325726199426442e-01 1.9614835458705157e-01 4.0715645106297063e-02 -1.3495633189881756e-01 -1.7339023195918707e-01 -1.2409143762037984e-01 6.7599820489719395e-02 5.2947051827538089e-02 1.1380980977531492e-01 1.7094993134271030e-01 -2.3105475316258860e-02 -1.3291111520931339e-02 -3.4571721057589100e-01 -1.9836804908932009e-02 6.8664814821302891e-02 8.7621209060544825e-02 -1.6569304854933424e-03 -2.3201857424309980e-01 1.7416290985305999e-01 -2.8263443734154441e-02 1.4118929625395008e-01 -2.2244699620142441e-01 3.3326388343702815e-02 -1.9569232664646999e-01 2.1250550773919963e-01 -2.2214721002017773e-01 -3.6289700636905627e-02 1.2595629958830407e-01 -9.1910285691261806e-02 -1.7351216900866540e-02 2.1863561655994512e-01 4.2406076766434590e-02 -8.4362101272818568e-02 8.0722441286143198e-02 -1.6385420330693318e-01 -4.9457846316272369e-02 2.1471572428088176e-01 -2.2439396123282948e-01 1.8302621958176751e-01 -1.0209500249857316e-01 2.4950258522869992e-01 1.5172226650415704e-02 3.0356387342909591e-01 -2.1720198590088199e-01 -5.0229263231948124e-02 -1.3462965346209507e-01 1.3404229140389945e-01 1.3554518819601025e-01 7.1911876379678746e-02 7.9987569476174403e-03 3.5129252612393169e-01 -7.9615088372501780e-02 2.4250242754768081e-01 -3.2188923356487202e-02 -1.1119742177158184e-01 -2.1605915330481706e-01 1.4565302486099094e-01 -2.8101671196880584e-01 2.4810632726638701e-01 -1.6427401242443976e-01 6.8461749956865547e-02 2.8213150636589795e-01 1.3616426619112203e-02 -7.1278126492151095e-02 4.0059758302933256e-02 -1.8554640329052743e-01 1.6863128219939111e-01 2.0068555943601332e-01 2.1309041810277529e-01 -1.6944006707401349e-01 -7.3027156955064352e-04 2.2931413422042765e-01 -9.9656598195422330e-02 2.1409791675136094e-01 1.8625313726149018e-01 1.6930702258501834e-01 -1.8960807789972128e-01 1.6552238192490998e-01 2.8456369399146416e-02 1.7554684785900118e-01 -1.6070140013785411e-01 -1.5885191454174191e-01 -1.6136536209708122e-01 6.2819580898148000e-02 2.0827570936364648e-01 -6.5396677073274161e-03 1.0379103407624908e-01 -6.1912057104791945e-02 -2.5122859065396785e-01 -3.5427274820642750e-02 -2.6394449118367524e-01 2.6074192893583238e-02 1.6035243848180564e-01 1.8993064138653051e-01 -2.6517863098792471e-01 -1.3892870757538753e-01 2.3198224126293118e-01 2.5719301936224270e-01 -3.5290547584110571e-02 2.4422993414422157e-02 -1.5089336614211779e-01 -2.2830214823058378e-01 2.4605453357743064e-02 2.1069456639918001e-02 -1.8311478360698966e-01 2.9319668376890123e-02 2.4140651538520438e-01 -2.6424362452565653e-01 4.1819787274471908e-02 -2.2114087723501416e-01 -2.9414332734413079e-01 -6.2619054752949585e-02 -1.0707861570310587e-01 1.3749052013756155e-01 1.1645622557355216e-01 -1.1301019578853287e-01 2.7364381710928410e-02 1.3524472358101219e-01 -2.3050872131067415e-01 8.2595172764167155e-02 1.7987497447390319e-01 -1.4583228402408352e-01 -5.1389076539788116e-02 2.6116783672972377e-01 1.4591716210272376e-01 6.4765606281044774e-02 -1.8511069821209303e-01 -1.9831384312130476e-01 -5.7989822906442806e-02 6.2620801511803464e-02 1.8287895295996184e-01 1.2497732874870661e-02 2.6274449622262325e-01 1.4810177195464719e-01 5.1905247161297886e-02 1.4604881278912218e-01 -6.4705803220647840e-02 2.6988151526605475e-01 -2.1371056138165198e-01 1.5407697543437202e-01 2.3262593323231295e-01 1.5909034607945796e-01 2.8971885670098254e-02 -1.1150382327892289e-01 3.5699247074661655e-02 8.7330498852705635e-02 -8.3899207644243329e-02 -1.4077044682120363e-01 -8.1693853204279892e-03 1.6999462754526001e-01 -2.5407755212039146e-01 -1.6169078618300825e-01 6.8895974046276939e-02 -1.7051593603102522e-01 -2.1024695520930151e-01 -3.3780617147891471e-03 1.1568475067780677e-01 -2.2876357677799700e-01 1.0038592484005211e-01 -5.2847175744899381e-02 9.4582185756609941e-02 2.0051387433928758e-01 -1.0283594424576435e-01 4.4040699512426663e-03 1.7664470801305726e-01 -1.3160054292546775e-01 1.8048443133058943e-02 -1.8576590207072535e-01 -1.3436885530539075e-01 -2.5965527776383356e-02 -1.1565974016521550e-01 -7.8162522508607585e-02 -2.0497206208725066e-01 -2.5027329597672121e-01 -2.3904252447264979e-01 -2.6734168833533589e-01 1.7843771876260342e-01 
      </Weights>
      <Biases rows="20" cols="1">
        0.0000000000000000e+00 0.0000000000000000e+00 0.0000000000000000e+00 0.0000000000000000e+00 0.0000000000000000e+00 0.0000000000000000e+00 0.0000000000000000e+00 0.0000000000000000e+00 0.0000000000000000e+00 0.0000000000000000e+00 0.0000000000000000e+00 0.0000000000000000e+00 0.0000000000000000e+00 0.0000000000000000e+00 0.0000000000000000e+00 0.0000000000000000e+00 0.0000000000000000e+00 0.0000000000000000e+00 0.0000000000000000e+00 0.0000000000000000e+00 
      </Biases>
    </Layer>
    <Layer ActivationFunction="0">
      <Weights rows="1" cols="20">
        1.9125136822798314e+00 -3.4228569600486675e-01 6.8602017561864037e-01 4.5497381169637724e-01 -1.5467229959257692e-01 1.3574088099276702e-01 -2.3496544934817595e-01 -4.0086704010125368e-01 -4.1429481361291282e-01 4.6713329963797651e-01 -9.6648998684430356e-03 3.1860980498735453e-01 3.5839950140435589e-01 3.3079542067605811e-01 2.4768872456534902e-01 -2.7860049529843178e-01 1.8049772722963611e-01 2.1214801588435850e-01 -4.6330939193147208e-01 -3.0042017373383665e-02 
      </Weights>
      <Biases rows="1" cols="1">
        0.0000000000000000e+00 
      </Biases>
    </Layer>
  </Weights>
</MethodSetup>
