<?xml version="1.0"?>
<MethodSetup Method="MLP::MLP">
  <GeneralInfo>
    <Info name="TMVA Release" value="4.2.1 [262657]"/>
    <Info name="ROOT Release" value="6.08/02 [395266]"/>
    <Info name="Creator" value="minerva1993"/>
    <Info name="Date" value="Tue May 23 01:50:15 2017"/>
    <Info name="Host" value="Linux htop.hanyang.ac.kr 2.6.32-696.el6.centos.plus.x86_64 #1 SMP Mon Apr 3 14:56:08 UTC 2017 x86_64 x86_64 x86_64 GNU/Linux"/>
    <Info name="Dir" value="/home/minerva1993/fcnc/tmva"/>
    <Info name="Training events" value="60000"/>
    <Info name="TrainingTime" value="3.97740220e+02"/>
    <Info name="AnalysisType" value="Classification"/>
  </GeneralInfo>
  <Options>
    <Option name="NCycles" modified="Yes">1000</Option>
    <Option name="HiddenLayers" modified="Yes">N+5</Option>
    <Option name="NeuronType" modified="Yes">tanh</Option>
    <Option name="RandomSeed" modified="No">1</Option>
    <Option name="EstimatorType" modified="No">CE</Option>
    <Option name="NeuronInputType" modified="No">sum</Option>
    <Option name="V" modified="Yes">False</Option>
    <Option name="VerbosityLevel" modified="No">Default</Option>
    <Option name="VarTransform" modified="Yes">N</Option>
    <Option name="H" modified="Yes">True</Option>
    <Option name="CreateMVAPdfs" modified="No">False</Option>
    <Option name="IgnoreNegWeightsInTraining" modified="No">False</Option>
    <Option name="TrainingMethod" modified="No">BP</Option>
    <Option name="LearningRate" modified="No">2.000000e-02</Option>
    <Option name="DecayRate" modified="No">1.000000e-02</Option>
    <Option name="TestRate" modified="Yes">5</Option>
    <Option name="EpochMonitoring" modified="No">False</Option>
    <Option name="Sampling" modified="No">1.000000e+00</Option>
    <Option name="SamplingEpoch" modified="No">1.000000e+00</Option>
    <Option name="SamplingImportance" modified="No">1.000000e+00</Option>
    <Option name="SamplingTraining" modified="No">True</Option>
    <Option name="SamplingTesting" modified="No">False</Option>
    <Option name="ResetStep" modified="No">50</Option>
    <Option name="Tau" modified="No">3.000000e+00</Option>
    <Option name="BPMode" modified="No">sequential</Option>
    <Option name="BatchSize" modified="No">-1</Option>
    <Option name="ConvergenceImprove" modified="No">1.000000e-30</Option>
    <Option name="ConvergenceTests" modified="No">-1</Option>
    <Option name="UseRegulator" modified="Yes">False</Option>
    <Option name="UpdateLimit" modified="No">10000</Option>
    <Option name="CalculateErrors" modified="No">False</Option>
    <Option name="WeightRange" modified="No">1.000000e+00</Option>
  </Options>
  <Variables NVar="5">
    <Variable VarIndex="0" Expression="NJets" Label="NJets" Title="NJets" Unit="" Internal="NJets" Type="I" Min="4.00000000e+00" Max="1.60000000e+01"/>
    <Variable VarIndex="1" Expression="NBJets_M" Label="NBJets_M" Title="NBJets_M" Unit="" Internal="NBJets_M" Type="I" Min="1.00000000e+00" Max="7.00000000e+00"/>
    <Variable VarIndex="2" Expression="NCJets_M" Label="NCJets_M" Title="NCJets_M" Unit="" Internal="NCJets_M" Type="I" Min="1.00000000e+00" Max="9.00000000e+00"/>
    <Variable VarIndex="3" Expression="BJMDPhi" Label="BJMDPhi" Title="BJMDPhi" Unit="" Internal="BJMDPhi" Type="F" Min="-3.14155579e+00" Max="3.14156199e+00"/>
    <Variable VarIndex="4" Expression="BJMDEta" Label="BJMDEta" Title="BJMDEta" Unit="" Internal="BJMDEta" Type="F" Min="-4.67494106e+00" Max="4.74954796e+00"/>
  </Variables>
  <Spectators NSpec="0"/>
  <Classes NClass="2">
    <Class Name="Signal" Index="0"/>
    <Class Name="Background" Index="1"/>
  </Classes>
  <Transformations NTransformations="1">
    <Transform Name="Normalize">
      <Selection>
        <Input NInputs="5">
          <Input Type="Variable" Label="NJets" Expression="NJets"/>
          <Input Type="Variable" Label="NBJets_M" Expression="NBJets_M"/>
          <Input Type="Variable" Label="NCJets_M" Expression="NCJets_M"/>
          <Input Type="Variable" Label="BJMDPhi" Expression="BJMDPhi"/>
          <Input Type="Variable" Label="BJMDEta" Expression="BJMDEta"/>
        </Input>
        <Output NOutputs="5">
          <Output Type="Variable" Label="NJets" Expression="NJets"/>
          <Output Type="Variable" Label="NBJets_M" Expression="NBJets_M"/>
          <Output Type="Variable" Label="NCJets_M" Expression="NCJets_M"/>
          <Output Type="Variable" Label="BJMDPhi" Expression="BJMDPhi"/>
          <Output Type="Variable" Label="BJMDEta" Expression="BJMDEta"/>
        </Output>
      </Selection>
      <Class ClassIndex="0">
        <Ranges>
          <Range Index="0" Min="4.0000000000000000e+00" Max="1.4000000000000000e+01"/>
          <Range Index="1" Min="1.0000000000000000e+00" Max="7.0000000000000000e+00"/>
          <Range Index="2" Min="1.0000000000000000e+00" Max="8.0000000000000000e+00"/>
          <Range Index="3" Min="-3.1413979530334473e+00" Max="3.1412608623504639e+00"/>
          <Range Index="4" Min="-4.6692671775817871e+00" Max="4.7495479583740234e+00"/>
        </Ranges>
      </Class>
      <Class ClassIndex="1">
        <Ranges>
          <Range Index="0" Min="4.0000000000000000e+00" Max="1.6000000000000000e+01"/>
          <Range Index="1" Min="1.0000000000000000e+00" Max="6.0000000000000000e+00"/>
          <Range Index="2" Min="1.0000000000000000e+00" Max="9.0000000000000000e+00"/>
          <Range Index="3" Min="-3.1415557861328125e+00" Max="3.1415619850158691e+00"/>
          <Range Index="4" Min="-4.6749410629272461e+00" Max="4.5950241088867188e+00"/>
        </Ranges>
      </Class>
      <Class ClassIndex="2">
        <Ranges>
          <Range Index="0" Min="4.0000000000000000e+00" Max="1.6000000000000000e+01"/>
          <Range Index="1" Min="1.0000000000000000e+00" Max="7.0000000000000000e+00"/>
          <Range Index="2" Min="1.0000000000000000e+00" Max="9.0000000000000000e+00"/>
          <Range Index="3" Min="-3.1415557861328125e+00" Max="3.1415619850158691e+00"/>
          <Range Index="4" Min="-4.6749410629272461e+00" Max="4.7495479583740234e+00"/>
        </Ranges>
      </Class>
    </Transform>
  </Transformations>
  <MVAPdfs/>
  <Weights>
    <Layout NLayers="3">
      <Layer Index="0" NNeurons="6">
        <Neuron NSynapses="10">
          5.8418487052735035e-01 1.0893284728979278e+00 4.2893665501219136e-01 3.7763805594853128e+00 -8.0607646844874310e+00 -5.9509349779967868e-01 -8.5086332842311807e-01 1.4466348764707777e+00 2.1207907191625014e-01 -5.2658120199974989e-01 
        </Neuron>
        <Neuron NSynapses="10">
          -1.1183089304574938e+00 -1.9150627074695030e+00 4.2681804926618554e+00 3.5999513435955610e-01 2.9104201958421377e-01 1.8309203366679522e-01 2.5902748959867333e-01 2.6219179169473281e+00 4.0787132887666144e-01 9.4904984781099646e+00 
        </Neuron>
        <Neuron NSynapses="10">
          -2.7425360446399210e+00 -1.8940079993281086e-01 1.3022991511609392e+00 1.2921236853870162e+00 1.2754892359605714e+00 5.4504035856218480e-01 -3.7204396214430641e-01 -4.4382680483836850e-01 -5.0675084643594503e-01 2.7253064727591114e-01 
        </Neuron>
        <Neuron NSynapses="10">
          4.9557756677600434e-01 7.4496416773288832e-01 -1.3779945070996971e-01 2.5698741853784718e-01 2.8667330798396985e-02 -1.4999696849330002e-01 -4.3149994441607220e-02 7.3681296053063006e-01 7.6896640608809719e-01 8.5734233984053013e-02 
        </Neuron>
        <Neuron NSynapses="10">
          1.5526990672907213e+00 1.2387356760200618e+00 1.4959238575005103e+00 5.9261760905580763e-01 -1.0783897963805860e+00 -2.4469783128390619e+00 1.4505116495582385e-01 4.8206436543415759e-01 -9.5758352045888159e-02 2.1353002762879671e+00 
        </Neuron>
        <Neuron NSynapses="10">
          2.0398751909932922e+00 7.0083787648899956e-02 1.3763951944922026e+00 3.5660261417126935e+00 -7.0240390531265797e+00 -1.4614831718011596e+00 -7.0577660599600822e-01 -2.5253907806586100e+00 -3.1790084275524094e-01 7.7410112895155834e+00 
        </Neuron>
      </Layer>
      <Layer Index="1" NNeurons="11">
        <Neuron NSynapses="1">
          -1.8603549887278614e+00 
        </Neuron>
        <Neuron NSynapses="1">
          -4.2625309108283388e-01 
        </Neuron>
        <Neuron NSynapses="1">
          -8.4672922448534393e-01 
        </Neuron>
        <Neuron NSynapses="1">
          -5.6044641469591849e-01 
        </Neuron>
        <Neuron NSynapses="1">
          6.8966049588788925e-01 
        </Neuron>
        <Neuron NSynapses="1">
          -1.7118003093252971e+00 
        </Neuron>
        <Neuron NSynapses="1">
          3.9462671880003974e-01 
        </Neuron>
        <Neuron NSynapses="1">
          -1.3906830738049905e+00 
        </Neuron>
        <Neuron NSynapses="1">
          3.8507163660933424e-01 
        </Neuron>
        <Neuron NSynapses="1">
          -1.0670726751106392e+00 
        </Neuron>
        <Neuron NSynapses="1">
          -1.5268831769918995e-01 
        </Neuron>
      </Layer>
      <Layer Index="2" NNeurons="1">
        <Neuron NSynapses="0"/>
      </Layer>
    </Layout>
  </Weights>
</MethodSetup>
