<?xml version="1.0"?>
<MethodSetup Method="DNN::DNN">
  <GeneralInfo>
    <Info name="TMVA Release" value="4.2.1 [262657]"/>
    <Info name="ROOT Release" value="6.08/02 [395266]"/>
    <Info name="Creator" value="minerva1993"/>
    <Info name="Date" value="Mon May 22 19:28:15 2017"/>
    <Info name="Host" value="Linux htop.hanyang.ac.kr 2.6.32-696.el6.centos.plus.x86_64 #1 SMP Mon Apr 3 14:56:08 UTC 2017 x86_64 x86_64 x86_64 GNU/Linux"/>
    <Info name="Dir" value="/home/minerva1993/fcnc/tmva"/>
    <Info name="Training events" value="40000"/>
    <Info name="TrainingTime" value="2.63290004e+03"/>
    <Info name="AnalysisType" value="Classification"/>
  </GeneralInfo>
  <Options>
    <Option name="V" modified="Yes">True</Option>
    <Option name="VerbosityLevel" modified="No">Verbose</Option>
    <Option name="VarTransform" modified="Yes">N</Option>
    <Option name="H" modified="Yes">False</Option>
    <Option name="CreateMVAPdfs" modified="No">False</Option>
    <Option name="IgnoreNegWeightsInTraining" modified="No">False</Option>
    <Option name="Layout" modified="Yes">TANH|50,TANH|30,TANH|10,LINEAR</Option>
    <Option name="ErrorStrategy" modified="Yes">CROSSENTROPY</Option>
    <Option name="WeightInitialization" modified="Yes">XAVIERUNIFORM</Option>
    <Option name="Architecture" modified="No">STANDARD</Option>
    <Option name="TrainingStrategy" modified="Yes">LearningRate=0.03,Momentum=0.5,Repetitions=1,ConvergenceSteps=300,BatchSize=1500,DropConfig=0.0+0.3+0.3+0.0,WeightDecay=0.001,Regularization=L2,TestRepetitions=5,Multithreading=True</Option>
  </Options>
  <Variables NVar="5">
    <Variable VarIndex="0" Expression="NJets" Label="NJets" Title="NJets" Unit="" Internal="NJets" Type="I" Min="4.00000000e+00" Max="1.40000000e+01"/>
    <Variable VarIndex="1" Expression="NBJets_M" Label="NBJets_M" Title="NBJets_M" Unit="" Internal="NBJets_M" Type="I" Min="1.00000000e+00" Max="6.00000000e+00"/>
    <Variable VarIndex="2" Expression="NCJets_M" Label="NCJets_M" Title="NCJets_M" Unit="" Internal="NCJets_M" Type="I" Min="1.00000000e+00" Max="8.00000000e+00"/>
    <Variable VarIndex="3" Expression="BJMDPhi" Label="BJMDPhi" Title="BJMDPhi" Unit="" Internal="BJMDPhi" Type="F" Min="-3.14143872e+00" Max="3.14156199e+00"/>
    <Variable VarIndex="4" Expression="BJMDEta" Label="BJMDEta" Title="BJMDEta" Unit="" Internal="BJMDEta" Type="F" Min="-4.67494106e+00" Max="4.74954796e+00"/>
  </Variables>
  <Spectators NSpec="0"/>
  <Classes NClass="2">
    <Class Name="Signal" Index="0"/>
    <Class Name="Background" Index="1"/>
  </Classes>
  <Transformations NTransformations="1">
    <Transform Name="Normalize">
      <Selection>
        <Input NInputs="5">
          <Input Type="Variable" Label="NJets" Expression="NJets"/>
          <Input Type="Variable" Label="NBJets_M" Expression="NBJets_M"/>
          <Input Type="Variable" Label="NCJets_M" Expression="NCJets_M"/>
          <Input Type="Variable" Label="BJMDPhi" Expression="BJMDPhi"/>
          <Input Type="Variable" Label="BJMDEta" Expression="BJMDEta"/>
        </Input>
        <Output NOutputs="5">
          <Output Type="Variable" Label="NJets" Expression="NJets"/>
          <Output Type="Variable" Label="NBJets_M" Expression="NBJets_M"/>
          <Output Type="Variable" Label="NCJets_M" Expression="NCJets_M"/>
          <Output Type="Variable" Label="BJMDPhi" Expression="BJMDPhi"/>
          <Output Type="Variable" Label="BJMDEta" Expression="BJMDEta"/>
        </Output>
      </Selection>
      <Class ClassIndex="0">
        <Ranges>
          <Range Index="0" Min="4.0000000000000000e+00" Max="1.4000000000000000e+01"/>
          <Range Index="1" Min="1.0000000000000000e+00" Max="5.0000000000000000e+00"/>
          <Range Index="2" Min="1.0000000000000000e+00" Max="8.0000000000000000e+00"/>
          <Range Index="3" Min="-3.1413979530334473e+00" Max="3.1412608623504639e+00"/>
          <Range Index="4" Min="-4.6692671775817871e+00" Max="4.7495479583740234e+00"/>
        </Ranges>
      </Class>
      <Class ClassIndex="1">
        <Ranges>
          <Range Index="0" Min="4.0000000000000000e+00" Max="1.3000000000000000e+01"/>
          <Range Index="1" Min="1.0000000000000000e+00" Max="6.0000000000000000e+00"/>
          <Range Index="2" Min="1.0000000000000000e+00" Max="8.0000000000000000e+00"/>
          <Range Index="3" Min="-3.1414387226104736e+00" Max="3.1415619850158691e+00"/>
          <Range Index="4" Min="-4.6749410629272461e+00" Max="4.5950241088867188e+00"/>
        </Ranges>
      </Class>
      <Class ClassIndex="2">
        <Ranges>
          <Range Index="0" Min="4.0000000000000000e+00" Max="1.4000000000000000e+01"/>
          <Range Index="1" Min="1.0000000000000000e+00" Max="6.0000000000000000e+00"/>
          <Range Index="2" Min="1.0000000000000000e+00" Max="8.0000000000000000e+00"/>
          <Range Index="3" Min="-3.1414387226104736e+00" Max="3.1415619850158691e+00"/>
          <Range Index="4" Min="-4.6749410629272461e+00" Max="4.7495479583740234e+00"/>
        </Ranges>
      </Class>
    </Transform>
  </Transformations>
  <MVAPdfs/>
  <Weights InputWidth="5" Depth="4" LossFunction="C" OutputFunction="S">
    <Layer ActivationFunction="3">
      <Weights rows="50" cols="5">
        -4.4384017251289176e-01 -1.4947125320610427e-01 2.4405724836227738e-01 2.6477493577270772e-01 1.1049765448898623e-01 -8.7009801874287390e-02 -4.0999196366731017e-01 5.1637135550832725e-01 1.5093796286733990e-01 2.4462426416655519e-01 -4.5669988570733389e-01 -1.0222804976665235e-01 -1.8342502417656914e-01 3.6234100921613804e-02 -3.5043857591469579e-01 5.5234024154583961e-01 -9.5954652733616774e-01 2.5715794072262682e-01 -2.7241672913066135e-02 -1.5572195385130286e-01 4.8073588164436587e-01 -8.2939601665440767e-03 -1.1261415050878258e-01 -4.4509102645393900e-01 -2.2466404114054889e-01 1.9310109013091539e-01 4.0383267417973417e-01 4.8837995446190069e-01 -9.5073349067425775e-02 -2.6129025403458506e-01 -5.0418117916798288e-01 4.0951974906117505e-01 2.7630320880995163e-01 1.0613374877213490e-01 3.4551419729617450e-01 2.8662926388392584e-02 3.3578767415840538e-01 1.8723783990699849e-01 2.8261684022972272e-01 -5.4254375596101789e-01 -3.8710304571783866e-01 -2.4569463256641391e-01 2.4437327889514238e-01 -2.4321859636782794e-01 -6.9517378128689566e-01 -4.5728213787350047e-01 -3.3576483960886189e-01 -4.3199171533380470e-01 1.9792404276417289e-01 -1.3782948943817452e-01 2.4519574081642145e-01 -2.2580851052564396e-01 2.9826432639567670e-02 5.8550314605531617e-02 -1.1084376873763128e-02 4.6130458846381950e-01 -3.0902397537177384e-01 -6.6624146931537609e-01 -6.6653367531116989e-02 -3.9854093337870411e-03 6.8399641793415206e-02 2.4985490857854525e-01 2.7671712363011094e-03 4.5562359924035865e-02 -3.9557543446517046e-01 8.9578915663061351e-02 -3.8501076937762485e-01 1.8683238515986672e-01 1.0010544223657386e-01 3.3844567135866344e-01 2.9237957533144232e-01 -1.0728951776858871e-01 4.7517031547421029e-01 -9.0914134790845522e-02 8.7490902983298757e-02 2.6467088297864605e-01 1.6897650598935005e-01 4.6714815332989124e-01 -1.4782334564729438e-01 -2.0902481320775237e-01 -4.8793094755710847e-01 2.4165615330233234e-01 -4.4334679598914639e-01 -6.8746942527451851e-02 5.9483098563437620e-01 6.6930785982581023e-02 2.7179821700332212e-02 4.1741729238290060e-01 2.8026885888407110e-02 -7.4848349088499677e-01 1.6610845705075131e-01 -5.0995091418742933e-01 -7.0659992899325869e-02 -4.8486122547750421e-01 -4.7873878738986186e-01 -6.2079378870048940e-01 6.6441704554590175e-01 4.3623940499789973e-02 -2.3342880302534608e-01 -1.1788106293656098e-01 3.6662338010224088e-01 4.4073129742502115e-01 -9.4064508255601392e-02 1.6399035961304531e-01 4.0925023079383460e-01 2.6927942402294769e-01 -4.8514029088715244e-01 3.3948980569318893e-01 2.5010296960764877e-01 1.1616636943054474e-02 -4.3781741761864357e-01 -1.2967701725534009e-01 -2.5144361090822420e-01 4.4213818653993137e-01 -5.7287477780696427e-01 4.1679740344793653e-01 6.3311220332115545e-02 -4.1217246925473622e-01 5.0056823824362473e-01 -3.6364745774443630e-01 -9.7515473956741261e-02 -5.4583798167442105e-02 1.3369068395553679e-01 -2.4854665246777281e-02 1.2745667677933206e-01 4.4351635207534532e-02 6.1045130012409521e-01 -6.1640292105504002e-01 1.3675611845888477e-01 -4.2496986397304909e-01 -1.9888202738211166e-01 -2.6130355309894698e-01 3.0080603914136367e-01 1.1052449469374542e-01 6.7825562595138333e-01 -4.8527984135516905e-01 6.1786678513413476e-02 -5.7265221091029155e-02 -2.9968611992979266e-01 3.2241074547964010e-01 3.8000047692420202e-01 1.5556906600733514e-01 1.3891021634756723e-01 -1.8791274791898560e-01 -3.1183223851190639e-01 -6.7595060137886387e-01 6.2077205955496029e-01 4.4307790810878722e-01 7.8151159870403965e-03 -3.5090306639215074e-01 7.5771687592872158e-02 3.0486744959431534e-02 3.1114273879246762e-01 -5.0847462727829340e-01 5.4039217406226470e-01 -1.8430558144102890e-01 -3.3369299588543522e-01 -4.6222193122108157e-01 1.7178068825474868e-01 2.9997339354105751e-01 -1.3994206618862837e-01 5.3571006095981499e-01 8.9399471933208741e-02 5.3463395936178248e-01 -1.3501117420758979e-01 -5.4748605168186493e-01 -4.2507102272729363e-01 -3.7011394643639162e-01 6.6698797809905686e-01 2.1106452065488029e-01 -5.0291654590111901e-01 -6.0360730041564586e-02 -1.3509601061973711e-01 3.9198882262498580e-01 -2.5607368201822367e-01 -1.2729631614712020e-01 4.3660455320791403e-01 4.9663986580761360e-01 -4.4383924323429962e-02 6.4546714049764628e-02 3.8565786054939899e-01 -4.6186535648890070e-01 -3.2029426730756466e-01 -5.9206278415010039e-01 -3.4461790524478358e-01 -3.9045243496823659e-03 -1.1702947237666200e-01 -2.3852947081140638e-01 2.4008439439388865e-01 -5.7322480887065735e-02 -8.4536017335790548e-01 -6.0414967382007267e-01 1.6731917532369606e-01 -1.5110756805678183e-01 2.7091370188066816e-01 2.7420394443484630e-01 -3.8257451895277389e-01 -5.7813930572219718e-01 4.9684555441391959e-01 2.6165445350337085e-01 -3.6290366732060414e-01 -6.4166566313094142e-02 -4.7306874259966342e-01 2.3794453147072586e-01 7.4413813048411759e-01 1.5652762386225702e-01 4.6603745716617606e-01 5.0677219277490548e-01 3.1592444849707113e-01 -5.2238915764805294e-01 9.4429109002124978e-02 -3.8813320365129034e-01 3.8541754875364276e-01 -5.5586799241385954e-01 2.6849249529187380e-01 2.8556024257433676e-01 5.0593814322793262e-01 -1.1112161638092978e-01 -4.6442684676675261e-01 -2.3725947433166059e-01 5.1819041833320523e-01 3.3119004629201043e-01 -3.8020621166873869e-01 3.4902600248798649e-01 6.8260509223876953e-01 -2.7638614816042173e-01 -8.5292130409648628e-02 -3.6743899768021837e-01 2.5963551932655937e-01 2.7372294817692244e-01 -1.6427173036935101e-02 3.5807353718677665e-01 -2.8452199577068132e-01 -5.6670629011233331e-01 2.0003852307055089e-01 6.2005791014661538e-01 9.6558329090691342e-02 -4.7986652392101442e-01 2.4069393209403021e-02 -5.4582117895000737e-01 3.5528635860772267e-01 1.2226117230708555e-01 1.4092763336192590e-01 5.4370123364588581e-02 -3.1246594427292923e-01 -5.9255851658316358e-02 3.8198240121662852e-01 3.2623413887800740e-01 -3.4703008437642119e-01 1.6280479078900900e-01 
      </Weights>
      <Biases rows="50" cols="1">
        -1.9665722036393916e-02 -2.4031828174290196e-01 -2.1573806058983364e-01 -6.0928284408388633e-01 2.2962496983843320e-01 4.1909902474988386e-01 8.4848934364518402e-02 -6.4995406365105302e-01 1.9679794559491631e-01 -6.5669758870212314e-01 3.8059699916673656e-03 -3.4652477662217224e-01 5.1464689093450589e-01 -1.2835616101794775e-01 2.0287444869336316e-01 -2.8816252353118982e-01 4.0421842773011635e-01 -6.4071247018122468e-01 -2.7517358864146313e-01 -1.8195545604144234e-01 -4.2006870167271187e-01 -9.2495286114586628e-02 -6.3335748047385593e-02 9.6968776429938175e-02 3.2934661303439966e-01 1.4431284276250522e-01 7.2245366367013275e-01 -5.4898455346429474e-02 -5.4587149932329243e-02 -3.1384913395197073e-01 -1.9791289882740387e-01 -2.6635370443527423e-01 -2.2786976698814566e-02 -1.3146754772956290e-01 3.2073466221909674e-01 2.7181696839819597e-01 1.9336315145398863e-02 -7.4356489611624096e-02 5.3232746604509121e-02 -5.1315998227584136e-01 2.0967505755048108e-01 -3.6204825675837476e-01 -3.1783851794274071e-01 4.7557566705080828e-01 1.3011402658296256e-01 -1.3469843477047191e-01 1.4646607221975926e-02 2.1333552849229595e-01 -1.3475973323705334e-01 1.0876261018572951e-01 
      </Biases>
    </Layer>
    <Layer ActivationFunction="3">
      <Weights rows="30" cols="50">
        -1.8170516240415213e-01 6.6340141906572822e-02 1.0968315965272162e-01 -1.1175239653954404e-01 -1.6428389924164802e-01 -5.7263990897637285e-02 -1.7599686478651988e-01 -2.2777131610731360e-01 -1.3471838951636053e-01 5.6993115785850083e-02 -1.3299458742023570e-01 -2.3393119431927987e-02 3.3553922734317530e-02 1.6071008459783778e-01 -1.4933786363501000e-01 -7.6492085523741524e-02 1.7901041652361230e-01 -2.4628802365551346e-03 -5.9553881722235321e-03 1.8208175216923739e-01 -2.1410440319189761e-01 1.9614254974794199e-01 1.4918542720354386e-01 -1.2458999840528186e-01 -1.7128250717089044e-01 -1.1008549270516191e-01 8.3233483836017960e-02 -7.7273117597667848e-02 9.2823525621310479e-02 6.3004055561595523e-02 -1.8233082460568836e-01 -6.7860875955681840e-02 -2.0049531229856213e-01 -1.6978426612797337e-01 4.1645742566539140e-05 1.3877691150652324e-01 -1.6363034698295711e-01 -1.3652668530165915e-01 1.3876656460567982e-01 -1.2200865778061006e-01 -1.8085553363863946e-01 8.1746088589657068e-02 5.4414897879164065e-02 -5.5576663721005205e-02 1.2502546503471532e-02 -1.0716058997124417e-02 3.1371857480280547e-02 4.3697857783809385e-02 -5.3503708598831953e-02 -3.8394767173263011e-02 1.4708939647009522e-01 9.6568423341450965e-02 2.5637671794360616e-02 -8.7624227258528489e-02 -3.6301206379435125e-02 -1.5687933022824846e-01 1.2750356650297637e-01 4.8608873671654035e-02 2.2807006331576854e-02 -1.8202896263044051e-02 -9.8308389218008552e-02 5.4360794576639532e-02 8.1691746675623483e-02 1.3725615105914271e-01 2.7273597140212685e-02 -8.3569036650524300e-02 -5.2601936621630319e-02 5.2882954021661543e-02 -1.3318402510557098e-01 -7.5964603345798951e-02 -2.2815719727137951e-01 1.7369366519755963e-01 1.0083341746206344e-01 1.4479129981698050e-01 1.4219575787438457e-01 -2.9759504427728716e-02 6.4099378558803169e-02 7.9253621932165702e-02 2.1916262516293680e-02 -2.1947093691203078e-02 -2.2452504852243579e-01 -9.2581191528038786e-02 -3.8928591006426427e-02 3.4024296603936716e-02 -4.8107934491793500e-02 1.4279053153282531e-01 1.9201800172848041e-01 1.8128017985801981e-01 -1.4662178709317242e-01 9.6418899232486602e-02 -1.1670244675801138e-01 -7.4991377653717911e-02 -3.5389251324706515e-02 6.0148801654046728e-02 1.1818444661679641e-02 4.9429502265362239e-02 1.1309505260231011e-01 1.4170323029164295e-01 -1.0995739837503761e-01 -3.9287867129246840e-02 1.6473028943134873e-02 -2.1012693746941691e-01 1.5972442649832361e-01 -2.8354169076595004e-01 -1.4249339297743291e-01 2.4612114706566951e-03 2.0760213762618546e-01 1.2809062717418920e-01 4.0016495673110053e-02 8.6343535129699243e-03 -5.9161698326119977e-02 1.0815684948642186e-03 6.0026938400936855e-02 -4.4341580690403205e-02 -2.2962739920060493e-01 -9.6845210954718056e-02 3.2606554045092834e-01 4.6450632112644816e-02 -1.0943555428181852e-01 -1.1835693513133563e-02 -7.0769957288576574e-02 -7.3750759453216186e-02 -3.8906818184742190e-02 -6.6587890944914810e-02 -7.5495466192424421e-02 5.1215099096372077e-02 -1.8682026823902473e-01 2.5810132126437382e-03 -3.5846216465568882e-02 2.6784997510082126e-01 -8.9293536388923761e-02 -1.1052828212782101e-01 -3.7091425383634982e-03 8.1159461412642644e-02 1.0159196134543881e-01 2.0700700025299409e-01 -3.9859596556053714e-02 3.3081088446714670e-03 1.7862855266867167e-01 -1.5404351577388434e-01 2.6744876441468085e-01 -2.4376539556772756e-01 6.1063520394059760e-02 -1.1263131566251207e-01 1.5875194817732408e-01 -1.0112499105851913e-01 2.6530267355372039e-01 1.0274363592677579e-01 -1.6343757673539028e-01 5.7427039348621568e-02 -7.5439030327301149e-02 4.0811822594257169e-02 8.2184137006283686e-02 1.4768845840669612e-01 2.6068404002538126e-01 -8.1265738925086067e-02 -4.4708007271225098e-01 -1.0432079947378800e-01 2.2331628517348290e-01 3.2096035284352592e-01 -7.3319221431426468e-02 -1.6849202561865291e-02 -1.0106978968775365e-01 2.0341443266724207e-01 -1.2224453645641718e-01 7.8860179433213426e-02 -2.5410562424306128e-03 1.2971903038355004e-01 4.6560088354228485e-01 -2.4121310144744232e-01 -3.0731065532436924e-01 1.7350900065745020e-01 2.4758052726697247e-01 2.1352645086088051e-01 -1.3396845938770183e-01 -5.1072668504109603e-02 -2.2772265797957966e-01 -2.4167868552555538e-01 -8.4664760837774994e-02 -3.8252586560243662e-01 -1.2821566623429393e-02 1.7500164153527573e-01 -2.4844843280152887e-01 2.1889857792280831e-01 -2.9654864367365513e-02 -3.0001065266743487e-01 1.8150428099185564e-01 -1.4530596796427800e-01 2.0169723858060720e-01 -1.3659099922954257e-01 -3.3548363684309157e-01 4.6283673850500112e-02 1.7071428516903406e-01 -4.8522101893006049e-02 -1.1555330451764527e-01 -1.4114544207553850e-01 -2.3095387713272097e-01 2.6557467822518532e-01 1.7467855666227658e-01 -2.6424182748105057e-01 -1.6873122791746484e-01 -1.4207951940390826e-01 7.6192574112989103e-02 1.5102451297850688e-02 6.3710227338485872e-02 1.8210325914434441e-02 -9.0419589104011960e-02 -4.6040368901075886e-02 -1.7749346919415337e-01 -4.1799583016598432e-02 1.0797466909730463e-01 -7.5695858364663712e-03 -3.4489647581698070e-02 7.7898221274816243e-02 1.4241780440944216e-01 -1.8111100734274743e-01 -1.1349117911810211e-01 8.0509191076701930e-02 -3.0415950795515848e-02 -1.0155416858735425e-01 1.2097982117107529e-01 -6.6105265969464130e-02 -6.6998943472044922e-02 -1.3910868183373709e-01 -2.0576496887373297e-01 4.6078036878050538e-02 2.4503095579341747e-02 6.4886540400442116e-02 -9.3017999368809084e-02 -1.5350748147491294e-02 -4.0648428265699588e-02 6.1267786755110430e-02 1.4189197238192466e-01 7.1575600028992534e-02 -1.8963492022381043e-01 -1.2572233934011873e-01 -1.0897685400671013e-01 -1.2454870404559676e-01 9.5913058720306886e-03 9.1478470472406384e-02 -5.6912767749401037e-02 -2.0574438992129344e-02 1.0308686843594515e-01 -1.0735542834845634e-01 4.6085722382207929e-03 6.6301337926839066e-02 2.2578937541478966e-01 1.1798730717957419e-01 -2.2693063952714310e-02 1.9217564487393879e-01 8.2181111009019536e-02 -1.0048609009675354e-01 -8.7968512884091576e-02 -1.9262731354462992e-01 -6.0173234765596585e-02 1.5202010372595390e-01 2.7914541929359320e-02 -8.9250869973113184e-02 -1.5372618926096981e-01 1.4432191364208330e-01 -1.9826617087350940e-01 9.8501403999045074e-03 -1.0886972870435328e-02 1.9954389060733052e-01 1.3300203330716590e-02 -1.5818484780953465e-01 1.0476891428337454e-01 8.3837162240508620e-02 2.0748519803206122e-01 -1.1557102169007134e-01 7.7051337096524630e-03 -6.8549469022550380e-02 -1.7664947215610813e-01 -1.7293384058746047e-03 -1.4960851183250903e-01 1.1979567370801995e-01 -2.1902340065640710e-01 -2.7619084497139158e-02 -1.6883426096660221e-02 -1.5887718525478103e-01 -6.7412960580092079e-02 1.7508757099274097e-01 -1.2372285765044781e-01 -1.2044002950265503e-01 -1.4970628872552269e-01 6.3148354589108988e-02 -2.1452832574064752e-02 -1.5100515445816465e-01 -1.7892056191681374e-01 -1.5899048932474447e-02 1.1782112777640685e-01 7.8993394948981388e-02 1.5043307208864329e-01 -1.3165234085962949e-01 1.3379244433074652e-01 -1.2067435242657976e-01 1.4386518822216487e-01 1.3783068335989149e-01 -8.1881557437668603e-02 -1.2529582304485676e-01 -9.6888429486021957e-02 2.7564456619711103e-02 -1.1686565673316562e-01 1.4520132364329769e-01 1.2665731487002554e-01 3.8612283440237843e-02 9.5903613148943592e-02 1.2927604457487113e-01 8.7010002447076254e-02 -1.9106739933648118e-01 1.9572735729704405e-01 1.2997803463937749e-01 1.0757662728481321e-01 -1.4051183752773616e-01 2.2389505014836168e-02 -1.6171449411701719e-02 -1.7594576067468018e-01 -1.0266116020315576e-01 -6.4621427307622924e-05 -1.5364633334021768e-01 1.3761125129808269e-01 -1.1438627271760976e-01 -2.5302472211145319e-02 -1.2390919596848703e-01 2.0270987202242122e-01 -1.7592337837171770e-01 -8.6888728732322215e-02 -1.1137054420928015e-01 1.8041865111806715e-01 -1.7472010798324539e-01 -1.7009962423425781e-02 9.7316813229955196e-02 1.2277593189895862e-01 9.9441432217104636e-02 -1.0890021017042359e-01 1.5513827184091308e-01 -1.4397678023544542e-02 -1.7311068038774960e-01 -1.2458017228910516e-01 8.9506916397278299e-02 -6.8780496726338319e-02 1.9602698487594685e-02 1.0834873404216640e-01 1.4811747898852273e-01 1.3281545042310024e-02 -1.8787519035060604e-01 1.6829745208825719e-01 6.6739553580469985e-02 -5.9455373759698643e-02 -1.3946132506039441e-01 -4.7820271696206403e-02 -1.9781568548345452e-01 2.4959517641127270e-02 1.7814150194158110e-01 -1.6745899606663708e-01 -7.6537044363615650e-02 1.2162035723682935e-01 1.7851140996086826e-02 1.6637140872139117e-01 1.7323311157355162e-01 7.2092092904296426e-02 -1.3711803305487993e-01 1.6804341707233159e-01 -1.0382374424233637e-01 1.6873553742710523e-01 -8.9336977969239839e-02 -5.7779164299221961e-02 -8.7270538958493293e-02 -1.5018242840250184e-01 1.6132924539741619e-01 -9.3139192870574539e-02 1.3998168995684890e-01 -8.4498239766134325e-02 -5.6026439589620933e-02 1.3292316968435344e-01 -1.3069584201157383e-01 -6.9961869586731118e-02 -9.1785019594818926e-02 -1.2265788508614005e-01 -1.2429157408601095e-01 -1.1360983153234699e-01 -2.9253927007821878e-02 -3.9995396051849052e-04 3.9479312240068495e-02 8.5843188363347936e-02 4.4924987244152399e-02 1.7569988781428222e-01 3.9438799730781059e-03 -1.0924823871859756e-02 -1.8168919375454209e-01 -6.1053176068275844e-02 -3.3555614596114433e-02 9.7463112321931500e-02 -9.9129886754070584e-02 2.2215083663488767e-02 3.3210154394973435e-02 8.6582972880745778e-04 1.4721839703015535e-01 1.1128652163597616e-02 1.7305608031101188e-01 -1.3263673850519681e-01 1.1055529568456071e-01 -1.0001378384203218e-01 -1.6635180540521927e-01 -2.7798630397539758e-03 1.0683242204612269e-01 6.8177184664012000e-02 2.2582685248494383e-01 -1.2132007697817518e-01 -1.5153171301986073e-02 -1.2096458974362163e-01 9.6654550423606253e-02 -1.5443156456059093e-01 5.4545417043750037e-02 -7.8581723196933194e-04 9.3960600136761427e-02 -1.6230163311444315e-01 2.6481549427721141e-01 6.1047429444943770e-02 -1.5282669029825410e-01 1.2461410078874992e-01 1.5789134348496009e-01 2.5167129487341389e-02 -6.7333793164656555e-02 -1.3704910244045523e-01 1.6621363752167542e-01 -3.0747900474835343e-01 9.0123515095240192e-02 3.3866593770979829e-02 -1.7387522533544614e-01 -7.7189555682123517e-02 -1.5853726813015467e-01 -2.1630055223320045e-02 1.4029131765206179e-01 -6.2934578850156898e-03 1.3187536438434956e-02 -1.5501824147176406e-02 4.7580945351396793e-02 2.1564514985907521e-01 5.8775567650932010e-02 -3.1847899570575525e-03 5.8079520563108049e-02 4.4108336601987874e-02 3.1724091759627544e-02 1.2744212791155177e-01 1.4221339318171158e-01 2.2138761857993980e-01 2.9748157102384702e-02 -2.0983206764293754e-02 -3.0645154170339469e-02 1.1489968622491656e-01 -1.1606591072585838e-01 1.7030496925540814e-01 -3.9001618745514660e-01 -1.6934708997190789e-01 9.0725687879356046e-02 3.1200619403072399e-01 1.8375549020256352e-01 1.0284923208255820e-01 1.5016321854835551e-01 -7.0200233077696253e-02 -1.2138705678053412e-01 6.0195852522611754e-02 -2.1966418310242936e-01 3.0460600959327042e-02 -1.4384271205392199e-01 1.0845644917360650e-01 2.0497158821666042e-01 -2.9081385662855236e-01 7.5787318842888862e-02 8.7456889034935783e-03 -9.0560136497579088e-02 9.1607258975835243e-02 -3.0880251192090719e-01 8.7618190170250521e-02 -1.3404925586882241e-01 -1.3013452976876594e-01 2.8396398439703707e-01 1.6725089469076963e-02 2.6224377135679150e-01 -7.0210880717400712e-02 -1.1352313418557303e-01 6.8192625297457676e-02 1.8068742349436376e-01 -1.7149277597693530e-01 1.2659913181452637e-01 -3.3284876518103745e-01 -2.0570116977293079e-01 1.0225027031970013e-01 -1.8132383882583417e-01 -4.1337656552033863e-02 -2.7900437173276119e-02 4.9266204200130469e-02 -1.9406405254136699e-01 -1.1692541190163845e-01 1.4336436472444714e-01 -2.9747175329238471e-02 -9.5390210909875317e-02 1.3858531411787103e-01 2.8837474594562257e-01 1.9567350625024033e-01 1.6778922829720347e-01 1.7062214681489976e-01 1.1365422112499359e-02 1.7111632330540455e-01 -1.1912396226769734e-02 1.5940407905068996e-02 -4.8704421328756943e-02 1.3510814813956362e-01 1.3532531771361700e-01 -1.0906233843257382e-01 -1.9609229024871960e-01 -2.4231107744569023e-02 1.7413402734800418e-01 -1.2785850466862234e-01 -1.6629395463599550e-01 3.1080870942720495e-02 1.7949033644911563e-01 -1.3630557937565754e-01 2.8296440507588165e-03 -1.3142074931319555e-02 8.8828830784639989e-02 -1.6050365106931710e-01 -1.7732892796486879e-01 -1.2326211782660121e-02 -9.3461505378127932e-02 -4.5992283475736209e-02 1.1828793236859782e-01 9.0456040756353912e-02 -9.3974157245866788e-02 1.2014227437623681e-01 -5.1965684004008590e-02 1.5533601019882973e-01 -1.7799182105113129e-01 2.1579694295304899e-01 1.9291205289382763e-02 -1.3939586686140257e-01 1.6459317114093747e-01 8.5424695140166762e-02 1.0444712874457063e-01 -1.2787073135714425e-01 1.3334750154348959e-01 -2.7113849359580071e-03 -2.0515165724985334e-02 8.1849480845509012e-02 1.1767305403826239e-01 -2.4122098683582432e-02 7.9060032457115206e-03 2.9882158330958954e-03 9.2236617942699939e-02 -1.7263383873373270e-01 -3.1555448898226340e-02 1.2910940937008578e-01 -7.8546263948515466e-02 -1.4459119110920490e-01 -1.1855279555941597e-01 -7.1660380016644196e-02 -1.8568038792981081e-01 -3.6171250992619225e-02 1.1281656510209746e-01 -1.3796632155571309e-02 -1.5428249748027115e-01 7.0150142053724870e-02 -9.8814679208687806e-02 -3.2552420963270844e-02 1.5529866423080713e-01 1.3650043401885237e-01 -6.9148127357888778e-02 -7.1421064690817632e-02 1.2547202340119701e-01 8.5498420870296535e-02 -2.5261177631520658e-02 -1.5427676079997324e-01 1.1523716378452531e-01 -1.4210151898802115e-01 -1.6951017380699715e-01 2.7007355224391605e-01 -9.3035919716676060e-02 -7.9932468351082489e-02 2.8754711118614381e-02 3.4020391262298499e-02 9.2270842571146761e-02 -1.8745253560728942e-02 -5.2224251251471898e-02 -6.2134698407814215e-02 -8.3603295668457492e-02 1.4352829856317204e-01 -9.6111033043942376e-02 -7.5629422700853557e-02 -4.4454172171039877e-02 -1.5259522161874556e-01 -1.0063216011576441e-01 -2.2801606199063484e-01 -1.7675229589426533e-01 -6.2447593966251658e-02 -1.4310527306303314e-01 5.9607659404329424e-02 5.5587896406470258e-02 -7.2113976779132144e-02 1.1290401193339667e-02 -2.9435118433566893e-01 -5.2888664074068219e-02 -2.3049462736962162e-01 -2.9136105351312613e-01 -5.6184715220778655e-02 1.2033422507528127e-01 -6.0086550290201338e-02 -1.1037258255122250e-01 -2.3340367476416038e-01 -1.6778094175289945e-01 2.0661227643117464e-01 -1.4469479807503799e-01 1.5861603903454516e-01 -7.8838926365050063e-02 1.9449454098803337e-01 -3.1398011611398036e-01 2.1837772391317700e-01 2.4067219698559791e-02 -2.1514398702914977e-01 -1.7919676156747280e-01 9.7921861663695625e-02 -2.0635620602110459e-02 -1.1602954359048260e-02 1.3161891360636305e-01 6.9787312860038239e-02 3.5937860283661011e-01 2.6028215067542930e-03 -1.9548829520114405e-01 1.7021340067216689e-01 -4.4698383895805505e-01 -2.3477898585026080e-01 1.0514489795032250e-01 -2.1073437672858267e-01 7.1062574609381202e-02 -2.0191317657591426e-02 7.2115779776518469e-04 2.0886809151898250e-01 -6.7616939601983783e-02 7.3068091495161303e-02 -1.8407179552343242e-01 8.7512089128310641e-02 6.2127616890760219e-02 -2.2735716896097058e-01 3.3796414031357963e-01 3.7643246436250510e-01 -9.4254866332611750e-02 1.3684779638142078e-01 1.0122991280940544e-01 -1.6291937061093009e-01 5.3754905254731075e-02 5.3435425877440670e-02 2.8774764733272180e-02 1.7416533382483979e-01 1.2856811662613038e-01 -3.7354024904891536e-02 1.6236842163272869e-01 -6.4926739258819310e-02 -1.6858093097359134e-01 -1.0734059520242689e-01 -7.9506561232170050e-02 -3.5303756450785458e-03 -7.1766109641852899e-02 1.0977413593988623e-01 -1.5717669544318461e-01 -7.0611379463191487e-02 -1.5300608897646156e-01 1.7490494645624685e-01 2.9708954137530726e-02 -1.3068296034278434e-01 2.2365185166344639e-01 -1.7648165226633575e-01 1.8835858876563230e-01 -3.7399663120656852e-02 1.5813618575322216e-01 -7.7825192893635972e-02 1.1504433021254309e-01 2.7080241512312792e-01 -1.7145508758960670e-01 -1.6570721919926951e-01 -7.0382713748227271e-02 -1.6517076368731820e-01 1.2438584312825733e-01 1.6941642016759545e-01 -1.3741377225734913e-01 -1.2133214224513568e-01 -9.5822664825046991e-02 1.5688882764042150e-01 -1.1652081898593138e-01 -1.1276175697115509e-01 9.8890184849445583e-04 4.2720622833824287e-02 -1.6793588280503033e-01 1.5225035265405731e-01 7.4616390121688331e-02 -2.1174506701589918e-01 -9.2057962035293789e-02 3.5469007362050851e-02 -5.3040164027892057e-02 -1.7664058758310838e-01 -1.0007408199048523e-01 -5.8721383071452082e-02 2.3580868835009479e-03 5.8485601454844723e-02 1.7613976611504695e-01 1.7847371140247525e-01 -6.7582202127032698e-02 -1.4207716871176757e-01 -5.4083750173747551e-02 1.2571726018914503e-01 1.5114399445719423e-01 1.4351179943154690e-01 7.0648763279240190e-02 -1.5015404921161490e-01 9.0574594084548460e-02 1.6223987001660856e-01 1.7466422864430406e-01 2.1543335496202515e-01 -1.8301177736233343e-01 8.5223756883461246e-02 1.2966417112503223e-01 -5.9280762830513853e-02 -1.9653580412274321e-01 1.5147185009512887e-01 8.2646276932977034e-02 9.6613297738735449e-02 -1.9198243058172418e-01 1.7147609110441914e-01 -1.2889019128631354e-01 -1.6743549081025352e-01 5.8892962661542793e-02 5.6306688221573427e-02 -3.3011239510903449e-02 -2.9522622929684535e-03 1.2879459718359685e-02 7.7082021378079610e-02 1.1904698967374996e-01 -2.0123214498086772e-01 6.6338197308230040e-02 -3.8380250747767464e-02 1.2296122005105480e-01 -8.7383114447113445e-03 -2.1341646861006822e-01 8.7043954102872828e-02 1.9495558079930464e-01 6.0819251334168954e-02 4.5634737055733114e-02 2.9490022556356347e-03 6.4476981884656476e-02 -1.0687011623642273e-01 1.4982456296419291e-01 1.8607527453669569e-02 -1.3940262102010240e-01 3.2234944830195666e-01 2.7366993734396555e-01 -9.7629071055177111e-02 -2.3136689622763465e-01 3.2089105503301726e-02 2.8390835063352625e-02 -2.4405734433117842e-02 2.6874868109744515e-01 5.0027830407826997e-02 2.3234375593318007e-01 -1.0412387388504067e-01 6.2508928712828676e-02 -2.0449409812695535e-01 -1.6776025351292187e-01 2.3034478134891963e-02 -3.1158291436921715e-01 4.7696303364077298e-02 1.2332155238077941e-01 1.2145287979630184e-01 -1.5133022696229892e-01 2.8654557857935702e-02 -1.8859183585401160e-01 -6.8720197904139191e-02 -2.8574410636995153e-02 1.7945646379126767e-01 1.0266466089590141e-01 3.4476009101195276e-02 -1.6502300897634611e-01 -2.0548956926216450e-01 2.2045224609410247e-01 -1.2713043819094560e-01 3.4287235587584626e-02 -5.0215369160061717e-02 -1.4144113172042630e-01 8.0835338187939809e-02 -5.3111607953130975e-02 -2.8943647267019268e-01 1.3177821310925072e-01 2.8387355014553756e-01 -6.5295343801574521e-02 7.7117508903313134e-02 -1.0083701697751614e-01 -2.7431094557928720e-01 2.8193518080562269e-01 1.2337619557081586e-01 -8.0776501296255007e-02 -4.6972941722167975e-02 -1.8403909962460521e-01 -3.8936845207766135e-02 1.3736312484221596e-02 1.6530842065040552e-01 1.7996069708936305e-01 -1.0526255659534323e-01 1.3098743373563188e-01 -7.6590363835754946e-02 -1.5075725976271950e-01 1.4368456312704750e-01 8.7539047458164959e-02 4.7504424753743335e-02 -1.9250159282640233e-01 -7.0346498944859615e-02 3.6615823339682670e-02 1.3408263413189508e-01 -6.9881995325064644e-02 7.9390108773271503e-02 -4.4645506608579230e-02 1.6576335354026469e-02 9.4096876563895940e-02 -1.5855615827813124e-02 7.8343403416220703e-02 1.0984485595828215e-01 3.4468758091452771e-02 -1.3145289507059499e-01 -6.2969470658309282e-02 -6.1780821076239015e-02 -3.1026909504577628e-03 -2.5978730604286748e-02 6.2228606964502657e-03 -1.9861940854381613e-01 2.0020949638400783e-02 -7.1036380500775834e-02 9.5850018506108987e-03 -2.7369489223980855e-02 -1.7477422756213218e-01 -7.2948412379453445e-02 -1.6121357028521660e-01 -8.1609540000228242e-02 -1.1717796733853281e-01 6.7356032710648717e-02 -1.4533463047781844e-01 -1.9106305989417138e-01 1.6363287162034046e-01 -1.4427298027563815e-01 1.3122470366136851e-01 8.0695878628435663e-02 1.0248135646833268e-02 1.7071828142339668e-01 1.7450777215489707e-01 8.8977892250831123e-02 -2.0817833227813709e-01 1.5142641684673652e-01 -3.9529451278543154e-01 9.6639159783883807e-02 1.5373602575515197e-01 1.5427524683776131e-01 1.2512930697085786e-01 -2.5273838704655702e-02 -1.6812759624926163e-01 -4.1749347371759483e-02 -1.3967919633641221e-01 1.6777033172903180e-01 -3.7074461626345828e-01 3.7623183676214228e-02 -6.5903980956392633e-02 1.4303059272897070e-01 -3.6090981348508910e-02 -1.6051240870212294e-01 2.7728119363805820e-01 1.1884230086786887e-01 -3.2351636483634671e-01 1.7727645728394423e-01 1.6814321190720655e-01 1.0951394031692652e-01 2.4263387855341287e-01 -1.8003707444995679e-01 1.3563337303213780e-02 -4.0654792452708220e-02 5.1510663734473272e-01 -2.1057769381011332e-01 -2.3061216481335337e-01 3.5794804679309683e-01 -7.6377949708260465e-02 -7.2968958296719330e-02 3.2793678525826719e-01 -1.0519753470617645e-01 -2.3970493005798366e-01 -2.0368581532915675e-01 -1.7003079390648501e-01 -1.2684568213687439e-01 1.8335699516376347e-01 -4.5295314789787627e-02 5.0876516509497616e-01 1.2015415175547030e-01 1.2758197288276008e-02 1.4056427278482375e-01 1.8403118105198613e-01 2.1880453342147660e-01 1.6779589203375825e-01 1.5464197079852626e-01 6.2266272865820635e-02 -1.5451169075537380e-01 7.0592419260898917e-02 2.9541034773502478e-02 -3.7064245976207673e-02 1.8640205965259163e-01 1.4721380306200682e-01 1.9233490586848956e-01 -9.3279770793564531e-02 -1.9080097135985952e-01 -2.1809841783621744e-02 1.2045110295607811e-01 1.6031425478107628e-01 1.7667403104395456e-02 5.9748047880467860e-03 -1.1391153068554671e-01 7.6141647174788100e-04 -8.8767780145680653e-02 -4.1379174543021063e-02 7.1449629826678365e-02 6.8486722501943334e-02 -1.1877394087363734e-01 -1.2038010863943155e-02 3.7767133868175540e-02 1.2662707482680324e-01 -1.4706654001662661e-01 1.8652653278496206e-01 -1.7031397972170048e-01 1.7599986924557690e-01 1.2261700678306049e-01 1.0529637684276527e-01 -1.8692368829133649e-01 -1.9996189878578285e-01 4.3393459858778557e-02 1.4353410095024356e-03 -2.1589594365210862e-01 1.4814355550037969e-01 6.2021409943819605e-02 7.3984405470839468e-02 1.4804016497702907e-01 8.6679274195813033e-02 5.6912779078117343e-02 1.5068136055409870e-01 -1.9825131674925686e-01 -1.1080285165903356e-01 1.1650745425157372e-01 1.7150069253617925e-01 -1.1897749676544515e-01 -8.5272067985053393e-02 -1.5021613941018622e-01 -6.4636549330592220e-03 7.3687033032633603e-02 -2.3216276615306161e-01 -4.7083586372589498e-02 -1.7290043879883041e-01 -8.3957959094507484e-02 3.5890779322385068e-02 -9.8540287246475844e-02 -1.5191725241785617e-01 -1.2527418057427092e-01 -9.3902231226327959e-02 -5.3391197462365814e-02 -2.0758831309787781e-01 -1.6864735315948637e-01 1.1286941462686391e-01 -4.4767318322996887e-02 5.9454851367889035e-02 -4.9031396243364590e-02 -2.4369224905343160e-02 -1.1038830194521458e-01 -1.6849788788093317e-01 4.5166774679096322e-03 -1.3967093031999764e-01 8.9883416689423956e-02 1.2661966432019239e-01 -2.1449991219332255e-02 7.4659164684507381e-02 -1.6334782443804394e-01 -1.2990700758340940e-01 -3.9427819692285961e-02 -9.2438393865398358e-02 1.4784026291012281e-01 -1.3553147249238395e-01 1.4084675434638605e-01 1.2588060715142210e-01 -1.9410299002153689e-01 6.7836150745783919e-02 1.3757700959559682e-01 -7.0459948030330219e-02 7.5739390506644050e-02 1.1638601996269628e-01 -1.5009745254059852e-03 1.6869410797248877e-01 2.3314439777955900e-02 -2.6014687067967848e-02 -9.1640889876857326e-02 -1.3577524265055924e-02 1.1263106265552697e-01 1.2788368457479907e-01 5.7479665894297531e-02 4.8617038353269075e-02 -1.5347744221487664e-01 1.6607732503106185e-01 3.7051848051018348e-02 2.6283999458179060e-02 2.6670398742371294e-02 -2.0905336161430466e-01 1.2076439548882832e-01 -1.5089198232653386e-01 3.1611803202941532e-02 -1.3222427305634227e-01 -1.3056682631141472e-01 -1.4102237131469098e-01 1.0163866820588788e-01 4.5903704405847942e-03 1.8345765691242605e-01 -2.4401538968624542e-01 1.3218356842591572e-01 1.1705369781875614e-01 -1.3061102666925101e-01 4.3047714378889788e-02 1.0529990872112319e-01 -1.5979730280404320e-01 3.9191113776340616e-02 -1.3220849261632933e-01 2.5172478405678589e-01 -1.3994449165533210e-01 7.2332783207724766e-02 1.2453791307841836e-01 -1.6644758031513157e-01 -1.4494581180815527e-01 1.2467836919244383e-02 -2.1384262467956969e-01 2.1813002658245523e-01 -2.0468621119857808e-01 3.9678351288242979e-02 -7.0793935795713442e-02 -6.5983059199879290e-02 1.8777984870576858e-01 1.3194710384839417e-01 1.6493943505877182e-01 -2.0946966414451587e-01 -2.0131530057397659e-01 -1.3900865374606505e-01 -1.3903644613111346e-01 1.3468756019338243e-01 -1.6248602392854639e-01 1.1631478410432049e-01 -1.0476607754201996e-01 1.4897196003059840e-01 4.9643778477946973e-02 -1.9537974363952318e-01 -1.9777162589606787e-01 -1.3213841916694841e-01 -5.8226713624806734e-02 -1.0357344616439922e-01 1.1506152282032370e-01 -2.1519108201039244e-01 -1.7010322988507628e-01 -1.4863394187089604e-01 -1.1193880789352004e-02 -1.1573047042029995e-01 1.1229981222897403e-01 -7.4196576858370902e-02 1.8618659204201982e-01 -8.3565292616710710e-02 -1.9123895823555725e-02 3.9964391229722833e-02 -9.7296871604565779e-02 1.8555663289443039e-01 -1.6244822414216561e-01 -1.7947605603519270e-01 1.4103440157773695e-01 3.0983924720304260e-02 -7.0768196207885589e-02 2.2187508366834151e-02 -1.3229305885327397e-01 5.8048541717834475e-02 -2.6087117667425334e-02 1.5483859873917397e-01 1.8868657286687990e-02 -3.5318438761313679e-02 2.2669925289420098e-01 5.0777798620402964e-02 1.5296786765432449e-01 -1.5232339368282891e-01 1.5911072421086059e-01 1.6635161172261777e-02 -9.7854935971962723e-02 -1.0089295469970823e-01 -9.1627092913600054e-03 1.2205321615124981e-03 -5.5705814641228792e-02 5.5754928858856870e-02 -2.4511378918044249e-02 -4.1282651548601078e-02 8.2861114056708401e-02 2.1133552236838781e-02 -1.0365608409410688e-01 1.5032245395633809e-01 5.1795175953728574e-02 -2.0328441986195647e-01 -2.7793074971532851e-03 1.4581478087335209e-01 -1.3306084775268054e-01 -6.7290890181897822e-02 -1.3951414083480379e-01 -1.3126670436740143e-01 -3.5703022732308333e-02 -1.1570918423114744e-01 -1.7710100429507925e-01 -1.0081968038821756e-01 9.7032406237570257e-02 1.8047586704166590e-01 9.5552031457773329e-02 2.1509216899398761e-01 -1.6313711008698609e-01 -2.1731835701902941e-01 -7.4998576344472323e-02 -1.1336859936019769e-01 -5.6905702880858784e-02 -2.3212119779657647e-01 2.6408193856791804e-02 1.3531983796083336e-01 -2.5918299707383108e-01 3.2478782481716073e-01 1.6921045610831906e-01 -1.1189058030075534e-02 6.6145916646387720e-02 1.6126407500483744e-01 -5.3854726653747220e-03 -3.5747308461406502e-02 4.0353449870104842e-02 1.4667869552958260e-01 1.1880328499606506e-01 -7.5387129920739246e-02 -8.1871818140181837e-02 -7.5861431797857828e-02 2.2241694180413363e-01 3.3460372042139375e-01 -1.8372022940283014e-01 -5.0112464403155921e-02 -2.8436775122342565e-03 1.2607176202555997e-01 1.7421131034466550e-01 -1.0300237346624873e-01 -2.3469887344247362e-01 5.7341881249501472e-02 2.0076330527842437e-01 4.4446095659534786e-02 -6.0978268871975119e-02 1.6566012297293550e-01 7.5072521925901498e-02 -2.3541960072057690e-02 2.5647867334354021e-03 1.1080027286343064e-01 -2.3083712778728882e-01 3.0677601179300523e-01 4.1312817217720905e-02 2.1368843673085593e-02 3.7721837413205894e-02 1.4933948697272562e-01 -9.1140786093167503e-02 4.5134901427308936e-02 1.3774593992383011e-01 5.8525992605000944e-02 -3.9620512802014944e-02 1.3468877084035358e-01 -6.6843050351697492e-02 4.2488418426288050e-03 7.7092825367123211e-02 2.6507822141378945e-01 3.4784870615387549e-02 1.3790933494529567e-01 1.9790889632739025e-01 -5.0072484558163323e-03 -7.4803017822103801e-02 1.6541516050663727e-01 2.7345345983734108e-02 -3.1941370102831695e-01 -1.5244777771709384e-01 1.1852631688304170e-01 -3.4052478184343205e-02 3.4510907798157819e-01 -1.0344657073978315e-01 -5.3170151388883900e-03 -8.8087823332101675e-02 1.1490441562133918e-01 -4.5852082863350817e-02 3.5354358729808806e-02 7.8723446104432670e-03 -2.2389532604586243e-01 1.3470632917516914e-01 -1.8688514162249906e-01 8.7737205880801014e-02 -6.3866940728106364e-02 1.7857189225005696e-01 -1.5883982503656308e-01 -2.3550952629238139e-01 1.7494904312673981e-01 -1.8409274039858170e-01 -7.3592426134830705e-02 1.1660654528558864e-01 1.2777763239156970e-01 4.1294949927780267e-02 5.2468669984532174e-02 8.3321560055569288e-02 3.8883792758622929e-02 -1.1495865833187795e-01 1.5281072545531757e-01 1.8534334964742744e-01 1.0035829192376066e-02 -1.5948754065323575e-01 -1.3356102654179458e-01 -3.8817965763078187e-02 -1.0732383483967771e-01 -1.2374659546535008e-01 -1.8309443108093018e-01 -1.4215291674069251e-02 1.8273539983549714e-01 1.8152215157582244e-01 1.4133025541832248e-01 9.6568118244717657e-02 -4.9661700804098208e-02 4.8228345137196385e-02 -1.2731686902791581e-01 -1.2852032020098347e-01 -1.6424567307473889e-01 6.1926154194852014e-02 -1.0310067298118916e-01 7.9780105196906800e-02 7.2923192546775900e-02 1.1357195029389613e-01 1.5543133085026650e-01 -1.0114494945639332e-01 -2.4755039196745352e-02 1.5770363299119930e-01 -1.4075054585311364e-02 2.0804873225107150e-03 -2.0818335935716054e-01 -1.4416882555124436e-01 -1.6441608878834785e-01 -9.6111866172880284e-02 -1.7523951540849750e-01 -1.8808590857218363e-01 -1.4299539812251943e-01 -2.0207094916953054e-02 4.4685636491906953e-02 1.7306943145811025e-02 -1.3221221627099017e-01 7.0393410896605934e-03 1.8087798160364300e-02 8.1137839849891633e-02 -5.4374446197780715e-02 -9.5838897251297114e-03 8.2688206355568367e-02 -6.2330013886298219e-02 -5.3840416553552012e-02 5.2837817136587903e-02 -5.5087949494374087e-02 1.8239185625761031e-01 -1.6315205320855436e-01 -1.8763540419882426e-02 -9.8618961305410435e-03 8.3642034966478568e-02 -9.1337615647180126e-02 1.0544634965637915e-01 -1.7344597307195297e-01 4.8191745070715622e-02 1.5928148416336510e-01 9.3391147128035104e-02 -1.8488488501680458e-01 1.0651702621376224e-02 -1.1117202259916650e-01 1.5187713012034862e-01 1.4633796423436149e-01 1.1605407531438246e-01 -5.7208979478284419e-02 -5.9169607964430937e-02 -1.3715421511599873e-01 9.9867208463420995e-02 3.0101325110953300e-02 -9.7342355525599569e-02 -3.0780967745268534e-02 1.2925403899720778e-01 7.5122118134953078e-02 4.5668118462902259e-02 -9.1160335165268627e-02 1.3469503406457407e-02 2.7361606283268634e-02 -1.2716333740028438e-01 1.6095701668421727e-01 -2.2776513877099283e-03 -3.0265623986152561e-02 1.2923991093560158e-01 1.2082986097874140e-01 -1.2051187793762858e-01 1.3755989771416302e-01 3.9030938150152503e-02 -4.5874204581138299e-02 -1.8233724273693266e-01 -1.1348517105580695e-01 1.7162832655429128e-01 -1.7086024847065371e-02 1.7525272856557356e-01 1.4252448785244165e-01 7.7886926492619177e-02 -8.5966272871092778e-02 1.4328000048441739e-01 -7.2924543218080923e-02 -7.6933277762494798e-02 -1.2871161739583922e-01 6.0915217518147026e-02 -1.2794737672458548e-01 8.2312335735897649e-02 -4.4884926177807899e-02 -1.5197773565278636e-01 1.7743334658879156e-01 -2.8073217579359822e-04 -8.7266658195724989e-02 -1.0359893270173709e-01 2.0437177459393534e-02 -6.4763079600719687e-03 -5.1719457145372551e-02 -6.5125390629613714e-02 7.9601422626401602e-02 1.2339033055107608e-01 -1.2598816487339509e-01 -1.3495401043161953e-01 1.1746251648903269e-01 -1.5785482623626251e-01 -1.3662908189960269e-02 -8.1116869971540093e-02 -1.4715541984961766e-01 -1.7538221293958559e-01 -1.4015455559272497e-01 1.4459394947160167e-01 2.9732639366848404e-02 3.4039844011155215e-02 -5.8548058574957380e-02 1.4133791299131204e-01 -6.8089235681813839e-02 -1.5726665054404373e-01 1.7063922090890696e-02 3.3265876616067391e-02 -1.1870906254240889e-01 -2.0142249576398416e-02 4.7208866893001335e-02 -3.3470775311394640e-02 -1.6747589814694039e-01 -1.5477647022275456e-01 1.8864729008975709e-01 -2.3526305264960135e-02 5.5142799384922919e-02 -1.9142920605722921e-01 -1.5110357305185401e-01 -9.6634003085534451e-02 7.9027408842970437e-02 -1.4060553137843443e-01 1.6077232746416184e-01 -1.0538191456941462e-01 -1.1929865006451086e-02 1.6376837902512081e-01 -4.7477077075174519e-02 6.8176722633815898e-02 -3.8503020878368543e-02 8.4794868050172695e-02 -1.0743098501562083e-01 6.8573592405598141e-02 1.5618798865232705e-01 1.2860433862172682e-01 -6.7514722728592852e-02 4.1866084318020212e-02 5.8037471393912167e-02 1.3341321192522274e-01 -1.9012889905816430e-01 3.2209771854289790e-02 2.0397770116696248e-01 8.2571535565718387e-03 -1.6445106569553994e-01 7.4952280815755459e-02 -3.3304055119583939e-02 -1.0416186681118945e-01 -1.0143043438419974e-01 -1.2246456558619005e-01 -1.6220320320456458e-01 -1.9553929902468725e-01 1.8808035783362845e-01 -1.1965164090753121e-01 -2.8442469028330530e-02 2.7227171057544054e-02 5.3002409863001927e-02 -9.3634288427916421e-03 3.5462331329121364e-03 -1.6593383345723062e-01 1.6163643166253380e-01 1.2203121631434503e-01 -1.7238226423192825e-03 2.1233393268335312e-02 -1.9437843293035253e-01 2.3873896681078054e-02 -9.4134674857153707e-03 -5.2810482734784066e-02 1.2209918597191349e-01 4.2098936135123582e-02 7.1380566789637723e-02 7.2828719527642957e-02 -2.0329921020682939e-01 1.7145668911757259e-01 1.8809676839862133e-01 1.9339200776266788e-02 -1.5522696451891027e-01 -1.1437733861623341e-01 -1.2922284312062937e-01 -1.5133234766289191e-01 5.8956958739668719e-02 -1.6060295014052084e-01 1.3355182119211542e-01 6.0834796904935894e-02 -1.0046421706971943e-01 -1.1078689302293741e-01 -1.4345296293309490e-01 9.1090865973470464e-02 -8.3885121827284824e-03 5.8589285551591805e-02 1.4223039144284721e-01 -1.6892975568996857e-01 -1.3877391147320581e-01 7.8220202834563518e-02 1.8237423736851233e-01 1.9113751979407304e-01 2.0393456128513468e-02 5.4063626868792548e-02 2.3011171857162262e-02 -1.0233288352232812e-01 1.8520825642049082e-01 1.5204169028131073e-01 -3.2600590083589724e-02 8.9977617452612804e-02 -9.1140833577077696e-02 -4.3797273383844669e-02 -1.1599316585059638e-01 -7.9715148532352023e-02 -2.0138780518601705e-02 -9.7934357233835506e-02 1.1816251666342821e-01 -1.3445785895250187e-01 -1.2006918411705046e-01 1.1314256841752293e-01 6.0921011844290322e-02 -3.6511486698561718e-02 -1.4557449284738769e-01 -2.1234492383109962e-01 7.6158532322232644e-02 3.6140195665412633e-01 -3.1845332045687486e-02 4.9630995567229552e-02 -2.1219831706310185e-01 -5.4864955627681800e-01 1.8644336486293633e-01 -3.2066460340537789e-01 3.0141017226305127e-02 -1.9069211263049493e-01 4.0081856570009922e-01 2.0265743482781682e-02 2.5214119379644490e-01 -1.2484849379266423e-01 -1.9041186995265333e-01 -3.7600537843175752e-01 -1.6422653627458914e-02 -3.5380913605404470e-02 -1.4772370159422663e-01 9.9399203782649284e-02 -2.9431873188433950e-02 -5.4473784179301307e-02 -2.5641295466533723e-02 -3.5441753516752333e-01 9.0857876097135040e-02 -4.1271718487379555e-01 6.1482179177215060e-02 -1.2793337680246672e-01 -2.2384519770345915e-01 1.2765981461716805e-01 3.1262152971809692e-01 2.8714467586323520e-03 -1.9108008149425154e-01 4.0564769424440671e-03 2.7081961986847936e-01 -1.9896710640170065e-01 -2.6111893806397390e-01 7.1843920305289605e-02 -1.9461435984333625e-01 3.8634135692991417e-01 6.5529466089363275e-02 -8.2565205840588712e-02 -1.7654027936836797e-01 4.3266113785229537e-01 4.5118324955742452e-02 -1.6120137811253817e-02 
      </Weights>
      <Biases rows="30" cols="1">
        0.0000000000000000e+00 0.0000000000000000e+00 0.0000000000000000e+00 0.0000000000000000e+00 0.0000000000000000e+00 0.0000000000000000e+00 0.0000000000000000e+00 0.0000000000000000e+00 0.0000000000000000e+00 0.0000000000000000e+00 0.0000000000000000e+00 0.0000000000000000e+00 0.0000000000000000e+00 0.0000000000000000e+00 0.0000000000000000e+00 0.0000000000000000e+00 0.0000000000000000e+00 0.0000000000000000e+00 0.0000000000000000e+00 0.0000000000000000e+00 0.0000000000000000e+00 0.0000000000000000e+00 0.0000000000000000e+00 0.0000000000000000e+00 0.0000000000000000e+00 0.0000000000000000e+00 0.0000000000000000e+00 0.0000000000000000e+00 0.0000000000000000e+00 0.0000000000000000e+00 
      </Biases>
    </Layer>
    <Layer ActivationFunction="3">
      <Weights rows="10" cols="30">
        4.7825670146444253e-02 1.8963969693736044e-01 -5.1306578257372178e-02 -2.7128832853087625e-01 6.7715802461327718e-02 -2.5713131161728109e-01 -9.3976113905197708e-02 -1.5772674780529350e-01 -2.3572481540022514e-01 -8.4943246311614956e-02 -5.0583547775436700e-02 2.0644321211748459e-01 -2.1459027804151037e-01 1.4570457056507228e-02 -1.4918243921371158e-01 -1.2008332517161190e-01 -3.4151851761767008e-02 2.5349672972973392e-01 -1.2875582309499420e-01 -2.0775254175230104e-01 7.2172267083486077e-02 -1.7493477739790533e-01 -3.5292833737503426e-03 -5.1180297671395966e-02 2.1788960487353845e-01 5.6277973373843285e-02 2.1140137051430061e-01 -6.8393976436486759e-02 1.5626256394047100e-01 -7.7096193735146826e-02 -8.4467899783523620e-02 -2.5503805151978969e-02 -1.3413863719982630e-01 -2.3397191276405473e-02 -7.7084257246168866e-02 -6.5708094219510391e-02 2.1121456729706603e-01 8.9970666649010156e-02 2.4469961733805039e-02 -2.0510098180002607e-02 4.0010117868081424e-02 1.3007002817952193e-01 1.1824779386702255e-01 1.6789295338190069e-01 2.8695064485240845e-01 1.1150228282638117e-01 2.5077193762330252e-01 -1.4767003716449764e-01 1.8878854769374595e-01 -5.0471568729922471e-02 -4.3448989181880227e-02 -2.6603424996590447e-01 -4.1167591876581358e-03 2.7857430368851871e-01 5.7828118586305120e-02 -1.1292110723165691e-01 -3.9631455843705150e-02 -1.2840175206162258e-01 -1.2855573124699252e-01 -2.3039063391819387e-01 -2.3499581929056276e-01 -3.4624768463044249e-02 5.6448309098578597e-01 2.9497943335505983e-01 2.6674864994325509e-01 6.3626944643882105e-03 -9.4528075191002009e-02 4.6478973736209316e-02 2.4551555221154997e-01 5.4095836908610939e-01 4.4960125727151468e-02 -2.1893896529657259e-01 7.3503444897388115e-01 -2.0536186300060663e-01 -6.0064906775098249e-03 -4.8894908470120740e-01 -1.2109192648202118e-01 -4.1783777629458890e-01 -2.8645958222581774e-01 2.7174699003741953e-01 -2.3133111596926761e-01 2.1404631649805578e-01 -1.3873898751337088e-01 2.7155616723699646e-02 -3.0288178565009621e-01 -1.0213872664941424e-01 1.6309251506282384e-02 9.8379008340898147e-03 -6.6518444963521856e-02 7.4742000036732581e-01 3.0443609025173481e-02 1.6913295035043169e-01 -1.2648952361226243e-01 4.0898933526739784e-01 -2.3245759877205935e-01 8.8421398470255000e-02 1.8836031582672430e-01 1.4884742875371226e-01 2.2033645994690657e-01 7.6912731767752041e-02 -2.3262996493369123e-01 1.0609920992772984e-01 -2.4237509603266906e-02 -2.1363924300678461e-01 -1.7313305413297542e-01 4.2847797909221032e-02 -3.1874258008131595e-02 1.7603208303235818e-01 9.4814310165372381e-02 1.2066604695388501e-01 -9.4089772474636332e-02 -1.9415691369004209e-01 -2.9022905951405509e-01 -9.1084294440997665e-02 -6.0578398032945322e-03 -1.9203086644503178e-01 1.9356883576626185e-01 1.2266715770245322e-01 -5.4977237101607396e-03 2.3622029449414672e-01 1.6682569101108899e-01 -1.4668288163772850e-01 1.8396162481618347e-01 1.1383373825118764e-02 -1.6379518963077738e-01 4.6634725761380058e-02 9.6122524680257601e-02 -1.0988794853589923e-01 1.7200689632346616e-01 -6.0494168148047617e-02 -1.8619758542216028e-01 2.1515580550999783e-01 7.8851184229104587e-02 -1.6590767032081308e-01 -9.9008056274014627e-02 -3.4488031439621689e-02 2.6622844939530010e-01 -3.1117346209068277e-02 2.3044017494590491e-01 2.1176007515874834e-01 -2.1840182265599137e-01 1.5685345806585868e-01 -6.3047338660247434e-02 -2.1658882356707593e-01 -7.0949568569033655e-03 1.4947671681607150e-01 -5.8451130818913018e-02 1.8061810056336056e-01 2.6145032532919632e-01 1.6668427044724887e-02 1.6781466525099719e-02 -3.8577322431544471e-02 2.4365540266659466e-01 3.2670757181391907e-01 1.8392613819395956e-01 1.5005349237285689e-01 -1.0726863947709384e-01 -3.0004691320982543e-02 -2.5179870807941509e-02 2.2061764935936737e-01 1.3116928151788060e-01 -6.9023795222485723e-02 1.8145211432907343e-01 -2.5985839247834097e-01 9.9037658165588099e-02 -2.7858002393139669e-01 2.5519804475927978e-02 -3.0417105606975881e-01 1.1305283220388325e-01 1.4560749876347492e-01 -1.0550734837510267e-01 1.6240246288206658e-01 -3.9396387301550251e-01 2.0968350265395067e-02 1.7945163304755435e-01 -4.4564360428742407e-02 -2.1117792173006222e-01 1.1881194524087207e-01 1.4313547521834726e-02 1.6288624053304548e-01 -1.3481134441591117e-01 6.7723359293903065e-02 3.8207640208154864e-03 -2.5628614160274743e-01 9.9890233222827626e-03 -4.1061290256502674e-02 3.0503959356754901e-01 1.5123985981260135e-01 -1.6204167266738784e-01 -5.4109033583192190e-01 -1.5937618794528247e-01 -1.8877974286709735e-02 -4.6880000328550420e-01 -1.9622547072375501e-01 1.7260026609035053e-01 2.9804117082396908e-01 1.6233183392813533e-01 2.4437343136450657e-01 2.7074622714503316e-01 -3.5162751568152906e-02 -4.6234726882687711e-02 -1.3623615461454303e-01 1.0427438777748094e-01 2.7887796454936647e-01 1.9495450501038344e-01 -1.4810227565130224e-01 4.3995837972239660e-03 3.4155664567478296e-02 1.2220819597185269e-01 -1.1380886067274912e-01 1.5860416648666620e-01 2.5111247899420813e-01 -3.9822423375179389e-01 -7.6730024559240870e-02 -1.0989203211167013e-01 5.9965919510325420e-02 6.1611328260688086e-03 1.4802171744491849e-01 -3.2740121642422426e-01 -3.7857898348932867e-01 1.0344257819005943e-01 1.2940520672199101e-02 -3.2367927122372631e-01 -1.6480777842868760e-01 4.4857285467747587e-02 4.5017795717124276e-01 1.0717069209034839e-01 3.3999178204878594e-01 -7.6228296284366004e-02 1.1310426688170575e-01 -1.8879306689863948e-01 -1.8635253220119880e-01 2.4175054954446681e-01 1.5016141457243554e-01 -1.8640792755823665e-01 2.2732621516064042e-01 1.6481585608707827e-01 -8.1565680378527253e-02 3.3475576109077219e-02 -5.8613558670695709e-01 1.7648427712676559e-01 3.9772315971890897e-02 -2.6280385398978462e-01 2.3418976237464031e-01 -2.3139374539543747e-01 1.8200084433266089e-01 2.2785802257293272e-01 5.4985137283285794e-02 -3.6813220195948904e-02 1.5055598791500091e-01 -2.1099787695866654e-01 -2.2489843258857628e-01 1.8170771334827363e-01 -5.0276888619550548e-02 -3.6730859403085098e-02 5.9471070679074388e-02 1.4525749311563163e-01 1.6890663559182141e-03 -1.2026077816034569e-01 -1.3064885790403075e-01 3.5790500598186573e-02 -2.2656037846068594e-01 2.4321852125819068e-01 -2.2435664201351965e-01 -1.0319331632037822e-01 -1.2004283026524361e-01 3.3478855439360897e-02 2.2535385457191456e-01 -1.2224855719854212e-01 1.6344823043370124e-01 6.1702056967253519e-02 -1.4332622582386276e-01 5.9350993468551883e-02 4.7670383954195324e-02 -2.0092248861061313e-02 2.6373771183805522e-01 4.1745486849809485e-02 7.8491086941888055e-02 -7.1448501697073874e-03 2.4953965251020721e-01 -2.4693942107174380e-01 -6.1016464591896941e-02 3.4827597408240429e-01 -8.4947284279115048e-02 2.2782755282970907e-01 -2.3130993053470941e-01 -1.1527278735955793e-01 -1.9858428780228204e-01 1.2972414834810117e-01 -1.3088806667709729e-01 -2.7520786392591934e-01 -1.2131740715726323e-01 1.6025000489242894e-01 -2.4667309601782114e-01 2.4301252911788182e-01 1.7173781742462571e-01 -1.6395754652100542e-01 -8.7595336997878276e-02 1.9350503199972216e-01 3.8819744401025658e-01 
      </Weights>
      <Biases rows="10" cols="1">
        0.0000000000000000e+00 0.0000000000000000e+00 0.0000000000000000e+00 0.0000000000000000e+00 0.0000000000000000e+00 0.0000000000000000e+00 0.0000000000000000e+00 0.0000000000000000e+00 0.0000000000000000e+00 0.0000000000000000e+00 
      </Biases>
    </Layer>
    <Layer ActivationFunction="0">
      <Weights rows="1" cols="10">
        1.7047922507943269e-01 4.2775590090824056e-01 -1.1590987844882077e+00 -4.9830921989305016e-01 -3.5805189208750832e-01 -6.1095460883046038e-01 7.8490323338188428e-01 8.1056028524604318e-01 7.3379781700279326e-02 -5.5969503217630301e-01 
      </Weights>
      <Biases rows="1" cols="1">
        0.0000000000000000e+00 
      </Biases>
    </Layer>
  </Weights>
</MethodSetup>
