<?xml version="1.0"?>
<MethodSetup Method="DNN::DNN">
  <GeneralInfo>
    <Info name="TMVA Release" value="4.2.1 [262657]"/>
    <Info name="ROOT Release" value="6.08/02 [395266]"/>
    <Info name="Creator" value="minerva1993"/>
    <Info name="Date" value="Tue Jul  4 23:38:34 2017"/>
    <Info name="Host" value="Linux htop.hanyang.ac.kr 2.6.32-696.el6.centos.plus.x86_64 #1 SMP Mon Apr 3 14:56:08 UTC 2017 x86_64 x86_64 x86_64 GNU/Linux"/>
    <Info name="Dir" value="/home/minerva1993/fcnc/analysis_jw/tmva/v1"/>
    <Info name="Training events" value="60000"/>
    <Info name="TrainingTime" value="6.14281275e+02"/>
    <Info name="AnalysisType" value="Classification"/>
  </GeneralInfo>
  <Options>
    <Option name="V" modified="Yes">True</Option>
    <Option name="VerbosityLevel" modified="No">Verbose</Option>
    <Option name="VarTransform" modified="Yes">N</Option>
    <Option name="H" modified="Yes">False</Option>
    <Option name="CreateMVAPdfs" modified="No">False</Option>
    <Option name="IgnoreNegWeightsInTraining" modified="No">False</Option>
    <Option name="Layout" modified="Yes">TANH|30,TANH|20,LINEAR</Option>
    <Option name="ErrorStrategy" modified="Yes">CROSSENTROPY</Option>
    <Option name="WeightInitialization" modified="Yes">XAVIERUNIFORM</Option>
    <Option name="Architecture" modified="No">STANDARD</Option>
    <Option name="TrainingStrategy" modified="Yes">LearningRate=0.01,Momentum=0.4,Repetitions=1,ConvergenceSteps=300,BatchSize=100,DropConfig=0.0+0.2+0.0,WeightDecay=0.001,Regularization=L2,TestRepetitions=5,Multithreading=True</Option>
  </Options>
  <Variables NVar="28">
    <Variable VarIndex="0" Expression="NJets" Label="NJets" Title="NJets" Unit="" Internal="NJets" Type="I" Min="4.00000000e+00" Max="1.30000000e+01"/>
    <Variable VarIndex="1" Expression="NBJets_M" Label="NBJets_M" Title="NBJets_M" Unit="" Internal="NBJets_M" Type="I" Min="3.00000000e+00" Max="6.00000000e+00"/>
    <Variable VarIndex="2" Expression="NCJets_M" Label="NCJets_M" Title="NCJets_M" Unit="" Internal="NCJets_M" Type="I" Min="1.00000000e+00" Max="8.00000000e+00"/>
    <Variable VarIndex="3" Expression="Transvers_Mass" Label="Transvers_Mass" Title="Transvers_Mass" Unit="" Internal="Transvers_Mass" Type="F" Min="3.48501951e-02" Max="3.69078705e+02"/>
    <Variable VarIndex="4" Expression="Lepton_DPhi" Label="Lepton_DPhi" Title="Lepton_DPhi" Unit="" Internal="Lepton_DPhi" Type="F" Min="-3.14140153e+00" Max="3.14153576e+00"/>
    <Variable VarIndex="5" Expression="Missing_ET" Label="Missing_ET" Title="Missing_ET" Unit="" Internal="Missing_ET" Type="F" Min="3.32486361e-01" Max="6.71120422e+02"/>
    <Variable VarIndex="6" Expression="BJet_M_delta_R" Label="BJet_M_delta_R" Title="BJet_M_delta_R" Unit="" Internal="BJet_M_delta_R" Type="F" Min="3.88728410e-01" Max="3.48090935e+00"/>
    <Variable VarIndex="7" Expression="BJet_M_delta_Eta" Label="BJet_M_delta_Eta" Title="BJet_M_delta_Eta" Unit="" Internal="BJet_M_delta_Eta" Type="F" Min="2.89678574e-05" Max="3.13447404e+00"/>
    <Variable VarIndex="8" Expression="BJet_M_delta_Phi" Label="BJet_M_delta_Phi" Title="BJet_M_delta_Phi" Unit="" Internal="BJet_M_delta_Phi" Type="F" Min="2.39163637e-05" Max="6.27293777e+00"/>
    <Variable VarIndex="9" Expression="H_Mass" Label="H_Mass" Title="H_Mass" Unit="" Internal="H_Mass" Type="F" Min="1.83813915e+01" Max="1.21823633e+03"/>
    <Variable VarIndex="10" Expression="BJet_Pt_H" Label="BJet_Pt_H" Title="BJet_Pt_H" Unit="" Internal="BJet_Pt_H" Type="F" Min="3.03176346e+01" Max="1.40089062e+03"/>
    <Variable VarIndex="11" Expression="CJet_Pt" Label="CJet_Pt" Title="CJet_Pt" Unit="" Internal="CJet_Pt" Type="F" Min="3.12792740e+01" Max="1.40221191e+03"/>
    <Variable VarIndex="12" Expression="Jet1_Pt" Label="Jet1_Pt" Title="Jet1_Pt" Unit="" Internal="Jet1_Pt" Type="F" Min="3.37081337e+01" Max="1.40221191e+03"/>
    <Variable VarIndex="13" Expression="Jet2_Pt" Label="Jet2_Pt" Title="Jet2_Pt" Unit="" Internal="Jet2_Pt" Type="F" Min="3.11904850e+01" Max="1.14972290e+03"/>
    <Variable VarIndex="14" Expression="Jet3_Pt" Label="Jet3_Pt" Title="Jet3_Pt" Unit="" Internal="Jet3_Pt" Type="F" Min="3.01826878e+01" Max="4.76129395e+02"/>
    <Variable VarIndex="15" Expression="Jet4_Pt" Label="Jet4_Pt" Title="Jet4_Pt" Unit="" Internal="Jet4_Pt" Type="F" Min="3.00017719e+01" Max="3.01518524e+02"/>
    <Variable VarIndex="16" Expression="Jet1_CSV" Label="Jet1_CSV" Title="Jet1_CSV" Unit="" Internal="Jet1_CSV" Type="F" Min="4.43393551e-02" Max="9.99611914e-01"/>
    <Variable VarIndex="17" Expression="Jet2_CSV" Label="Jet2_CSV" Title="Jet2_CSV" Unit="" Internal="Jet2_CSV" Type="F" Min="4.08265255e-02" Max="9.99625802e-01"/>
    <Variable VarIndex="18" Expression="Jet3_CSV" Label="Jet3_CSV" Title="Jet3_CSV" Unit="" Internal="Jet3_CSV" Type="F" Min="4.71053086e-02" Max="9.99616206e-01"/>
    <Variable VarIndex="19" Expression="Jet4_CSV" Label="Jet4_CSV" Title="Jet4_CSV" Unit="" Internal="Jet4_CSV" Type="F" Min="4.70969379e-02" Max="9.99606192e-01"/>
    <Variable VarIndex="20" Expression="Kin_Lep_WMass" Label="Kin_Lep_WMass" Title="Kin_Lep_WMass" Unit="" Internal="Kin_Lep_WMass" Type="F" Min="-2.45943794e+01" Max="5.59032532e+02"/>
    <Variable VarIndex="21" Expression="Kin_Lep_TopMass" Label="Kin_Lep_TopMass" Title="Kin_Lep_TopMass" Unit="" Internal="Kin_Lep_TopMass" Type="F" Min="5.32452011e+00" Max="5.59032532e+02"/>
    <Variable VarIndex="22" Expression="Kin_Had_WMass" Label="Kin_Had_WMass" Title="Kin_Had_WMass" Unit="" Internal="Kin_Had_WMass" Type="F" Min="0.00000000e+00" Max="9.57668457e+01"/>
    <Variable VarIndex="23" Expression="Kin_Had_TopMass" Label="Kin_Had_TopMass" Title="Kin_Had_TopMass" Unit="" Internal="Kin_Had_TopMass" Type="F" Min="0.00000000e+00" Max="1.77754181e+02"/>
    <Variable VarIndex="24" Expression="fcnhKin_Lep_WMass" Label="fcnhKin_Lep_WMass" Title="fcnhKin_Lep_WMass" Unit="" Internal="fcnhKin_Lep_WMass" Type="F" Min="-2.67692596e+02" Max="6.78751221e+02"/>
    <Variable VarIndex="25" Expression="fcnhKin_Lep_TopMass" Label="fcnhKin_Lep_TopMass" Title="fcnhKin_Lep_TopMass" Unit="" Internal="fcnhKin_Lep_TopMass" Type="F" Min="1.50358844e+00" Max="6.78751221e+02"/>
    <Variable VarIndex="26" Expression="fcnhKin_HMass" Label="fcnhKin_HMass" Title="fcnhKin_HMass" Unit="" Internal="fcnhKin_HMass" Type="F" Min="0.00000000e+00" Max="1.38089294e+02"/>
    <Variable VarIndex="27" Expression="fcnhKin_Huc_TopMass" Label="fcnhKin_Huc_TopMass" Title="fcnhKin_Huc_TopMass" Unit="" Internal="fcnhKin_Huc_TopMass" Type="F" Min="0.00000000e+00" Max="1.50163049e+03"/>
  </Variables>
  <Spectators NSpec="0"/>
  <Classes NClass="2">
    <Class Name="Signal" Index="0"/>
    <Class Name="Background" Index="1"/>
  </Classes>
  <Transformations NTransformations="1">
    <Transform Name="Normalize">
      <Selection>
        <Input NInputs="28">
          <Input Type="Variable" Label="NJets" Expression="NJets"/>
          <Input Type="Variable" Label="NBJets_M" Expression="NBJets_M"/>
          <Input Type="Variable" Label="NCJets_M" Expression="NCJets_M"/>
          <Input Type="Variable" Label="Transvers_Mass" Expression="Transvers_Mass"/>
          <Input Type="Variable" Label="Lepton_DPhi" Expression="Lepton_DPhi"/>
          <Input Type="Variable" Label="Missing_ET" Expression="Missing_ET"/>
          <Input Type="Variable" Label="BJet_M_delta_R" Expression="BJet_M_delta_R"/>
          <Input Type="Variable" Label="BJet_M_delta_Eta" Expression="BJet_M_delta_Eta"/>
          <Input Type="Variable" Label="BJet_M_delta_Phi" Expression="BJet_M_delta_Phi"/>
          <Input Type="Variable" Label="H_Mass" Expression="H_Mass"/>
          <Input Type="Variable" Label="BJet_Pt_H" Expression="BJet_Pt_H"/>
          <Input Type="Variable" Label="CJet_Pt" Expression="CJet_Pt"/>
          <Input Type="Variable" Label="Jet1_Pt" Expression="Jet1_Pt"/>
          <Input Type="Variable" Label="Jet2_Pt" Expression="Jet2_Pt"/>
          <Input Type="Variable" Label="Jet3_Pt" Expression="Jet3_Pt"/>
          <Input Type="Variable" Label="Jet4_Pt" Expression="Jet4_Pt"/>
          <Input Type="Variable" Label="Jet1_CSV" Expression="Jet1_CSV"/>
          <Input Type="Variable" Label="Jet2_CSV" Expression="Jet2_CSV"/>
          <Input Type="Variable" Label="Jet3_CSV" Expression="Jet3_CSV"/>
          <Input Type="Variable" Label="Jet4_CSV" Expression="Jet4_CSV"/>
          <Input Type="Variable" Label="Kin_Lep_WMass" Expression="Kin_Lep_WMass"/>
          <Input Type="Variable" Label="Kin_Lep_TopMass" Expression="Kin_Lep_TopMass"/>
          <Input Type="Variable" Label="Kin_Had_WMass" Expression="Kin_Had_WMass"/>
          <Input Type="Variable" Label="Kin_Had_TopMass" Expression="Kin_Had_TopMass"/>
          <Input Type="Variable" Label="fcnhKin_Lep_WMass" Expression="fcnhKin_Lep_WMass"/>
          <Input Type="Variable" Label="fcnhKin_Lep_TopMass" Expression="fcnhKin_Lep_TopMass"/>
          <Input Type="Variable" Label="fcnhKin_HMass" Expression="fcnhKin_HMass"/>
          <Input Type="Variable" Label="fcnhKin_Huc_TopMass" Expression="fcnhKin_Huc_TopMass"/>
        </Input>
        <Output NOutputs="28">
          <Output Type="Variable" Label="NJets" Expression="NJets"/>
          <Output Type="Variable" Label="NBJets_M" Expression="NBJets_M"/>
          <Output Type="Variable" Label="NCJets_M" Expression="NCJets_M"/>
          <Output Type="Variable" Label="Transvers_Mass" Expression="Transvers_Mass"/>
          <Output Type="Variable" Label="Lepton_DPhi" Expression="Lepton_DPhi"/>
          <Output Type="Variable" Label="Missing_ET" Expression="Missing_ET"/>
          <Output Type="Variable" Label="BJet_M_delta_R" Expression="BJet_M_delta_R"/>
          <Output Type="Variable" Label="BJet_M_delta_Eta" Expression="BJet_M_delta_Eta"/>
          <Output Type="Variable" Label="BJet_M_delta_Phi" Expression="BJet_M_delta_Phi"/>
          <Output Type="Variable" Label="H_Mass" Expression="H_Mass"/>
          <Output Type="Variable" Label="BJet_Pt_H" Expression="BJet_Pt_H"/>
          <Output Type="Variable" Label="CJet_Pt" Expression="CJet_Pt"/>
          <Output Type="Variable" Label="Jet1_Pt" Expression="Jet1_Pt"/>
          <Output Type="Variable" Label="Jet2_Pt" Expression="Jet2_Pt"/>
          <Output Type="Variable" Label="Jet3_Pt" Expression="Jet3_Pt"/>
          <Output Type="Variable" Label="Jet4_Pt" Expression="Jet4_Pt"/>
          <Output Type="Variable" Label="Jet1_CSV" Expression="Jet1_CSV"/>
          <Output Type="Variable" Label="Jet2_CSV" Expression="Jet2_CSV"/>
          <Output Type="Variable" Label="Jet3_CSV" Expression="Jet3_CSV"/>
          <Output Type="Variable" Label="Jet4_CSV" Expression="Jet4_CSV"/>
          <Output Type="Variable" Label="Kin_Lep_WMass" Expression="Kin_Lep_WMass"/>
          <Output Type="Variable" Label="Kin_Lep_TopMass" Expression="Kin_Lep_TopMass"/>
          <Output Type="Variable" Label="Kin_Had_WMass" Expression="Kin_Had_WMass"/>
          <Output Type="Variable" Label="Kin_Had_TopMass" Expression="Kin_Had_TopMass"/>
          <Output Type="Variable" Label="fcnhKin_Lep_WMass" Expression="fcnhKin_Lep_WMass"/>
          <Output Type="Variable" Label="fcnhKin_Lep_TopMass" Expression="fcnhKin_Lep_TopMass"/>
          <Output Type="Variable" Label="fcnhKin_HMass" Expression="fcnhKin_HMass"/>
          <Output Type="Variable" Label="fcnhKin_Huc_TopMass" Expression="fcnhKin_Huc_TopMass"/>
        </Output>
      </Selection>
      <Class ClassIndex="0">
        <Ranges>
          <Range Index="0" Min="4.0000000000000000e+00" Max="1.2000000000000000e+01"/>
          <Range Index="1" Min="3.0000000000000000e+00" Max="6.0000000000000000e+00"/>
          <Range Index="2" Min="1.0000000000000000e+00" Max="7.0000000000000000e+00"/>
          <Range Index="3" Min="3.4850195050239563e-02" Max="3.5725714111328125e+02"/>
          <Range Index="4" Min="-3.1410999298095703e+00" Max="3.1415357589721680e+00"/>
          <Range Index="5" Min="3.7144780158996582e-01" Max="6.7112042236328125e+02"/>
          <Range Index="6" Min="3.8872841000556946e-01" Max="3.4809093475341797e+00"/>
          <Range Index="7" Min="4.9591064453125000e-05" Max="3.1344740390777588e+00"/>
          <Range Index="8" Min="2.3916363716125488e-05" Max="6.2729377746582031e+00"/>
          <Range Index="9" Min="1.9422851562500000e+01" Max="8.0909741210937500e+02"/>
          <Range Index="10" Min="3.0317634582519531e+01" Max="1.4008906250000000e+03"/>
          <Range Index="11" Min="3.1279273986816406e+01" Max="1.2676723632812500e+03"/>
          <Range Index="12" Min="3.3708133697509766e+01" Max="1.4008906250000000e+03"/>
          <Range Index="13" Min="3.1190485000610352e+01" Max="1.1497229003906250e+03"/>
          <Range Index="14" Min="3.0182687759399414e+01" Max="4.3397866821289062e+02"/>
          <Range Index="15" Min="3.0001771926879883e+01" Max="2.5548236083984375e+02"/>
          <Range Index="16" Min="4.4339355081319809e-02" Max="9.9961191415786743e-01"/>
          <Range Index="17" Min="4.0826525539159775e-02" Max="9.9961769580841064e-01"/>
          <Range Index="18" Min="4.8249464482069016e-02" Max="9.9960720539093018e-01"/>
          <Range Index="19" Min="4.7096937894821167e-02" Max="9.9955874681472778e-01"/>
          <Range Index="20" Min="-2.4594379425048828e+01" Max="4.1339331054687500e+02"/>
          <Range Index="21" Min="8.8195934295654297e+00" Max="4.1339331054687500e+02"/>
          <Range Index="22" Min="0.0000000000000000e+00" Max="9.5766845703125000e+01"/>
          <Range Index="23" Min="0.0000000000000000e+00" Max="1.7534512329101562e+02"/>
          <Range Index="24" Min="-2.0256340026855469e+02" Max="5.2505432128906250e+02"/>
          <Range Index="25" Min="1.6611661911010742e+00" Max="5.2505432128906250e+02"/>
          <Range Index="26" Min="0.0000000000000000e+00" Max="1.3808929443359375e+02"/>
          <Range Index="27" Min="0.0000000000000000e+00" Max="1.5016304931640625e+03"/>
        </Ranges>
      </Class>
      <Class ClassIndex="1">
        <Ranges>
          <Range Index="0" Min="4.0000000000000000e+00" Max="1.3000000000000000e+01"/>
          <Range Index="1" Min="3.0000000000000000e+00" Max="6.0000000000000000e+00"/>
          <Range Index="2" Min="1.0000000000000000e+00" Max="8.0000000000000000e+00"/>
          <Range Index="3" Min="1.0699680447578430e-01" Max="3.6907870483398438e+02"/>
          <Range Index="4" Min="-3.1414015293121338e+00" Max="3.1406278610229492e+00"/>
          <Range Index="5" Min="3.3248636126518250e-01" Max="5.6658074951171875e+02"/>
          <Range Index="6" Min="3.9990741014480591e-01" Max="3.3263010978698730e+00"/>
          <Range Index="7" Min="2.8967857360839844e-05" Max="3.1318399906158447e+00"/>
          <Range Index="8" Min="3.5214424133300781e-04" Max="6.2467298507690430e+00"/>
          <Range Index="9" Min="1.8381391525268555e+01" Max="1.2182363281250000e+03"/>
          <Range Index="10" Min="3.0416845321655273e+01" Max="1.1660478515625000e+03"/>
          <Range Index="11" Min="3.2645820617675781e+01" Max="1.4022119140625000e+03"/>
          <Range Index="12" Min="3.7277297973632812e+01" Max="1.4022119140625000e+03"/>
          <Range Index="13" Min="3.2645820617675781e+01" Max="7.6324066162109375e+02"/>
          <Range Index="14" Min="3.0308933258056641e+01" Max="4.7612939453125000e+02"/>
          <Range Index="15" Min="3.0009664535522461e+01" Max="3.0151852416992188e+02"/>
          <Range Index="16" Min="4.9253560602664948e-02" Max="9.9940443038940430e-01"/>
          <Range Index="17" Min="4.1913960129022598e-02" Max="9.9962580204010010e-01"/>
          <Range Index="18" Min="4.7105308622121811e-02" Max="9.9961620569229126e-01"/>
          <Range Index="19" Min="4.7423224896192551e-02" Max="9.9960619211196899e-01"/>
          <Range Index="20" Min="3.2952597141265869e+00" Max="5.5903253173828125e+02"/>
          <Range Index="21" Min="5.3245201110839844e+00" Max="5.5903253173828125e+02"/>
          <Range Index="22" Min="0.0000000000000000e+00" Max="8.8553001403808594e+01"/>
          <Range Index="23" Min="0.0000000000000000e+00" Max="1.7775418090820312e+02"/>
          <Range Index="24" Min="-2.6769259643554688e+02" Max="6.7875122070312500e+02"/>
          <Range Index="25" Min="1.5035884380340576e+00" Max="6.7875122070312500e+02"/>
          <Range Index="26" Min="0.0000000000000000e+00" Max="1.3807185363769531e+02"/>
          <Range Index="27" Min="0.0000000000000000e+00" Max="8.8089263916015625e+02"/>
        </Ranges>
      </Class>
      <Class ClassIndex="2">
        <Ranges>
          <Range Index="0" Min="4.0000000000000000e+00" Max="1.3000000000000000e+01"/>
          <Range Index="1" Min="3.0000000000000000e+00" Max="6.0000000000000000e+00"/>
          <Range Index="2" Min="1.0000000000000000e+00" Max="8.0000000000000000e+00"/>
          <Range Index="3" Min="3.4850195050239563e-02" Max="3.6907870483398438e+02"/>
          <Range Index="4" Min="-3.1414015293121338e+00" Max="3.1415357589721680e+00"/>
          <Range Index="5" Min="3.3248636126518250e-01" Max="6.7112042236328125e+02"/>
          <Range Index="6" Min="3.8872841000556946e-01" Max="3.4809093475341797e+00"/>
          <Range Index="7" Min="2.8967857360839844e-05" Max="3.1344740390777588e+00"/>
          <Range Index="8" Min="2.3916363716125488e-05" Max="6.2729377746582031e+00"/>
          <Range Index="9" Min="1.8381391525268555e+01" Max="1.2182363281250000e+03"/>
          <Range Index="10" Min="3.0317634582519531e+01" Max="1.4008906250000000e+03"/>
          <Range Index="11" Min="3.1279273986816406e+01" Max="1.4022119140625000e+03"/>
          <Range Index="12" Min="3.3708133697509766e+01" Max="1.4022119140625000e+03"/>
          <Range Index="13" Min="3.1190485000610352e+01" Max="1.1497229003906250e+03"/>
          <Range Index="14" Min="3.0182687759399414e+01" Max="4.7612939453125000e+02"/>
          <Range Index="15" Min="3.0001771926879883e+01" Max="3.0151852416992188e+02"/>
          <Range Index="16" Min="4.4339355081319809e-02" Max="9.9961191415786743e-01"/>
          <Range Index="17" Min="4.0826525539159775e-02" Max="9.9962580204010010e-01"/>
          <Range Index="18" Min="4.7105308622121811e-02" Max="9.9961620569229126e-01"/>
          <Range Index="19" Min="4.7096937894821167e-02" Max="9.9960619211196899e-01"/>
          <Range Index="20" Min="-2.4594379425048828e+01" Max="5.5903253173828125e+02"/>
          <Range Index="21" Min="5.3245201110839844e+00" Max="5.5903253173828125e+02"/>
          <Range Index="22" Min="0.0000000000000000e+00" Max="9.5766845703125000e+01"/>
          <Range Index="23" Min="0.0000000000000000e+00" Max="1.7775418090820312e+02"/>
          <Range Index="24" Min="-2.6769259643554688e+02" Max="6.7875122070312500e+02"/>
          <Range Index="25" Min="1.5035884380340576e+00" Max="6.7875122070312500e+02"/>
          <Range Index="26" Min="0.0000000000000000e+00" Max="1.3808929443359375e+02"/>
          <Range Index="27" Min="0.0000000000000000e+00" Max="1.5016304931640625e+03"/>
        </Ranges>
      </Class>
    </Transform>
  </Transformations>
  <MVAPdfs/>
  <Weights InputWidth="28" Depth="3" LossFunction="C" OutputFunction="S">
    <Layer ActivationFunction="3">
      <Weights rows="30" cols="28">
        -8.6011102414535898e-02 5.5341271962175510e-02 -8.0534927353742847e-02 1.7308255853769220e-02 -5.5673345760003656e-02 1.3462639892812167e-01 -3.1622972087686030e-01 -3.9762843854953579e-02 2.3970958334115491e-01 -2.4217926747293392e-01 -2.1180038371303783e-01 1.0058597125198884e-01 1.4472434781781177e-01 -1.4303514332096381e-01 -1.7949398197442878e-01 -3.9584789315806383e-02 -2.2959841369279102e-01 -3.3361088496526659e-01 -2.3104546425610539e-01 9.1903566649881932e-02 -1.6338689222928335e-01 -2.2341507812471486e-02 -2.7266288936034513e-03 2.0864238678382724e-01 -2.0462042217692422e-01 -6.9002684799902667e-02 2.1341640961514038e-01 7.0051196395686896e-02 -1.5896085871164040e-01 -2.1425340593792400e-01 -7.9094321904567291e-02 -3.6807209932911444e-01 4.8502514818873793e-01 2.3280065571267231e-01 6.4785044998805330e-01 8.6621011871053044e-01 -5.5328756409633817e-01 2.8466013228238585e-01 4.2198926583995128e-01 -7.7224972349285423e-02 1.7726601063472510e-02 -1.9030136345696017e-01 -6.3337331341513342e-02 -3.4731877025193397e-01 2.3004166472760759e-01 1.7495079027120827e-02 -1.3746893363767849e+00 -1.4590061319056805e-01 -2.1507031798434242e-01 1.6382527141323561e-01 3.6853275463556606e-01 9.1350503410903422e-02 1.7002985082692468e-01 -3.7787003044180961e-01 -6.5243914150450699e-01 -3.2127416169193918e-01 -2.4211734168001545e-01 -9.2916465067962772e-01 -9.0005674442519268e-01 -1.1133644845831887e+00 -3.1956805096025204e-01 2.4488417895050371e-01 1.8964232908974801e+00 -1.1186220993142413e+00 -6.0538462527040177e-02 3.0929678014294548e-01 1.6557033375586592e+00 -7.6013450321060172e-01 -1.1979590859171831e-01 -2.3463335036542340e-01 -8.4254718824463948e-01 -9.0909358598492906e-01 -3.2999688310920167e-01 -1.4996067630113358e-01 -4.7181634934955907e-01 -4.2014080318735841e-01 9.6433918724406643e-03 1.9296674719315773e-01 9.8192412587542177e-01 -3.2370279439879718e-01 -1.5688223009079005e-01 -5.1324314272548410e-01 1.1210132745681352e+00 4.4161572887620704e-01 2.8117126300625156e-01 -2.4026768232804202e-01 -2.4283462991230684e-01 7.4202479214467443e-01 3.1510923026091880e-01 -1.6097069677151624e-01 2.1461406640469177e-01 2.2679961608477683e-02 -2.2190026022581577e-01 -2.2026118926443527e-03 -1.4943735401460631e-01 -3.2402583092477767e-02 -1.1608984397615081e-01 3.2532681042323423e-02 3.7512915528028218e-01 -1.1942720137463037e-01 -7.8889792440313189e-01 -6.7631241718645785e-01 3.4916434188596530e-02 1.0210758699787643e+00 -2.6631501969016466e-02 6.5370705195329545e-02 -2.1081188542297757e-01 3.0684500446653351e-01 -1.6018605148880199e-01 2.4434449807424985e-01 1.0440323154764232e-01 2.5626851661218569e-01 1.3243998788110494e+00 -6.8363048773470880e-02 1.6251581547503530e-01 5.9522652942277254e-01 -4.3040579412831192e-01 -4.4989570408998925e-02 -4.7063417448364320e-01 -9.5268813994768065e-01 -2.0417231640604404e-02 -3.3116554562176237e-01 -4.9872552785769103e-01 -6.2983967969539867e-02 -2.0716233648603866e-01 2.1185370944929524e-01 -2.0374487053545937e-01 5.9135584325138324e-01 -1.0052027009190236e+00 -1.2997353492553414e+00 -9.3154507203373793e-01 -7.8254671705397272e-01 3.9127049036183092e-01 2.3499030799052534e-01 4.6533940755487620e-02 1.1500125080365680e+00 -4.7275364646422802e-01 -1.1213298975236814e+00 -2.7209569074788531e-01 3.0310104478749578e-01 1.6690955849114933e-01 -2.5004778170827958e-02 4.4686829806753828e-03 5.5008487324348224e-02 -2.8171222501913279e-01 -4.2540111995887579e-02 -6.5961036749310933e-02 -1.9684253010897806e-01 1.6700171561902749e-01 7.0145825334177944e-02 6.8490097690659835e-02 -9.9794311196215013e-02 -6.9680044966941468e-02 -1.3933831223037446e-01 -1.3450849143000978e-04 2.9493900457760280e-01 -1.6116781929189174e-02 -2.4954389920730655e-01 -3.9595840109938218e-01 4.2188995075201247e-01 -1.8295284561022904e-01 2.4915403832419102e-02 2.2951179123670680e-02 3.5513122488984472e-01 -5.5110472868360613e-02 -2.3954191177637790e-01 8.5174399238308829e-02 2.1029435259331553e-01 -3.9622302592316982e-01 9.8272624140561843e-02 1.2505448927328219e-01 1.6530947186283884e-01 2.9820853634838657e-01 9.6505716172695169e-02 -1.7326378921559868e-01 3.5785310045308749e-01 2.2491729973211058e-01 3.0003727226500093e-01 -1.5815885487095993e-01 7.5130208143431220e-03 -1.5077552261286406e-01 1.2171222120174736e-01 7.2348015971821639e-02 -2.8460231721522278e-02 1.6194447249909508e-01 1.7830793582896462e-01 1.9838894750492556e-01 -4.6489410599014963e-01 1.6435248380980155e-01 2.0445852990628605e-01 2.6761990248314971e-01 -4.1018388013738978e-02 3.5848581154390900e-02 1.9499056333644592e-02 -1.5105985480443326e-01 -2.0323412012735256e-01 -5.1866454680972424e-02 6.5351501097479858e-01 1.9553032520504637e-01 -4.3658730877425417e-01 1.2458856162903569e-01 1.0936542407886194e+00 1.0860333130262043e+00 -3.5337342174519065e-01 -5.5262776177643569e-01 -7.5079674035682142e-01 5.6522364408423315e-02 -9.2932090822426305e-01 -1.4749160495235609e+00 6.6228251042463115e-01 -4.4740620985836183e-01 -5.8436645896200456e-01 9.2552466025313929e-01 3.0463745704767042e-01 -2.0989888034964801e-01 -5.6300970777894255e-01 7.9194982953320980e-01 5.4087674835020338e-01 -1.7776055432587790e-01 2.4196114794817089e-01 -1.4214298995832808e-01 -4.9920976825519431e-01 -5.9160826676432388e-01 1.6191239355574025e-01 -1.9528513987761315e-01 -1.4401718618999157e-01 -1.2543367923874851e-01 1.0424316891434950e-01 8.5005344417860534e-02 -1.3457726505112880e-01 -6.2792224262511363e-04 -2.2797705429279577e-01 -9.1436051959449274e-02 3.0238583695806894e-02 -1.2943194014406811e-01 1.8995166751063411e-01 -8.5950366696070257e-02 -1.3762669524982962e-01 2.7804954431639269e-02 2.1980055113911168e-01 7.7623115551695557e-02 4.7082543642518640e-02 -1.4614392644854277e-01 -7.9474500105051069e-02 -1.0808211543484346e-01 1.2435901627365133e-01 -9.7734152118334708e-02 3.3753900743344702e-02 4.0402720741353773e-02 1.2449514899057400e-01 -1.2840718278464580e-01 2.6944453822849473e-01 -3.3674562759370432e+00 8.2573510425917784e-01 -4.7912856930099786e-02 2.8100486784256873e-01 4.0579043264849352e-01 -5.7840513722749232e-01 -1.3212714383885113e-01 3.1522525650639605e-01 -1.3105017130366128e-01 -3.1318187189212426e-01 1.1232270740681618e+00 -1.4189447259661774e+00 -1.7197576061985091e+00 3.6062817213625242e-01 1.5527854969047208e-01 -5.9022573304101522e-01 7.4015601424447530e-01 -6.6071764684046283e-02 2.2455426696362668e-01 -8.8089007257578955e-02 5.1668124486882760e-01 8.4007155201489725e-01 1.7999960571194248e-01 -7.0539158660075052e-01 5.0963271181520053e-01 -7.1333103860599057e-03 -4.4158639284731782e-01 1.5284295181868086e+00 -2.5823162306384329e-01 -5.5989085402968874e-01 9.2531282042548652e-02 -1.8047098392833527e-02 6.7587349913565498e-01 8.1278730371839664e-02 6.4867397442914876e-01 8.2704182151647765e-02 -3.3696251761633034e-01 -5.7059084360867610e-02 1.7658357651803652e-01 4.7689080193158595e-01 5.7097947304957064e-01 2.4343493329377874e-01 3.3204101811565245e-01 -8.2852228496622410e-02 1.6262659752601294e-01 3.8391654843757242e-02 6.5868978394463751e-01 1.2277340033757165e+00 -2.1974252766499980e-01 -3.7382633659383918e-01 2.6993694027524200e-02 4.7792412804247025e-01 -3.8029947291799443e-01 -5.5448531453138650e-01 -2.5161699644948349e-01 4.6174633240822505e-01 8.5081593758184526e-01 -7.3799216933577827e-02 3.8134245178775728e-01 3.6398857175449872e-01 1.7988792890868968e-04 -2.3979910105631130e-01 -8.6406943109955905e-02 1.5043780581270094e-01 2.9396034581397590e-01 -7.6671539557905743e-01 -6.8319838634158681e-01 7.3168213825860209e-02 -2.8181097272511146e-01 -1.4276318364104576e-01 3.0708770474746072e-01 -2.1231000625861479e-01 -1.0119213468429853e+00 7.5395819508715445e-01 -7.9663390178728533e-01 1.3544590607570866e+00 2.2888526351430374e-01 4.1281469401615735e-02 -1.6669878105430530e-01 3.1375685187047020e-01 -2.7349624353561502e-01 9.6673098087478293e-01 2.3311201533917766e-01 7.6009737660774257e-01 5.3005100054288753e-02 -9.7579057319581962e-03 -1.3837976551755352e-01 1.8097879497884486e-01 2.8445824440374390e-01 -4.0538308488353925e-01 -1.9453041845714569e+00 -6.2606787953544407e-01 8.2726523009760314e-02 -4.4765248617452391e+00 -1.0398657981461816e+00 7.1044892107002588e-01 -4.7356899101055977e-01 9.3493619052448007e-01 -7.2892104312723904e-01 -5.5389390350469780e-01 -9.0712310725173440e-02 -1.0251148237531942e-01 -8.3287412299980476e-02 -3.0646897672197984e-02 6.8435668952808704e-01 6.6989750971970852e-01 6.8347554914925224e-01 -5.1725955560314607e-01 1.0622660701984760e-01 -1.0661094232505464e+00 -7.2402145389701397e-02 4.6627784971327896e-01 1.0237670268579344e+00 1.4965922285594517e+00 2.0583702147141614e-01 -3.6263650016914822e-01 4.6422288743921747e-01 -6.9508448932561384e-01 -1.7797175685609234e+00 -4.6164743907194095e-01 5.0666460945919214e-02 -1.3540935437264590e+00 -1.7424574420609487e+00 -1.6859857129587513e-01 1.6090596220287773e-01 -1.8381289002035579e-02 -7.6723505796534130e-01 -7.3317213776879575e-01 2.0733731696981830e-01 2.7283208666518538e-01 -4.1418150964309786e-01 -1.5008583504345252e-01 1.0526821375775484e+00 6.2783116920155013e-01 -2.6539948756525639e-01 2.3200195982716543e-01 -7.1230972074131282e-01 -6.4612069150835705e-01 3.1304509623779363e-02 2.1077274162347139e+00 2.1719873139767150e-02 1.3461565200894410e-01 -5.0697748426644720e-02 -6.8339903635551758e-02 2.0441066325349824e-02 -1.0096832925752182e-01 1.3931031317597725e-01 -2.4855122192327408e-02 9.4113704286143303e-03 1.0189207120650212e-01 -2.1428067244386270e-01 2.3357922098212447e-03 6.2872005129037442e-02 1.7993068069149667e-01 2.0752721485007003e-01 -1.7228103023587321e-01 -9.7093903450579749e-02 -3.9703557279313940e-02 1.9739252947317157e-01 2.1648752873931243e-01 1.5778977142351064e-01 8.1264405614804247e-02 -2.3468743237981290e-01 2.3462484149708049e-01 1.7210790199180767e-01 1.9377270983472222e-01 1.1862089718697398e-01 -2.5937421980619296e-01 6.8703869354348440e-02 -1.3709262996728463e-01 1.9310797761067927e-01 1.9437215018762205e-01 2.4806564938519080e-01 -6.9875321507577554e-02 1.2856909584955378e-01 -2.1892624715616313e-01 2.1427914998496833e-01 1.0415942252835350e-01 2.1184315347348385e-02 -1.9223024201043679e-01 2.1057446033035512e-01 3.3625183777828464e-02 -1.7551901732085559e-01 -1.1918689449556349e-01 1.5827061526074018e-01 2.9812112513307448e-01 -1.0575150658836063e-01 1.0873062427243621e-01 5.1976725968932165e-02 6.7278498619816052e-02 -6.3127545469917182e-02 1.1378208909855855e-01 -1.3332503196994255e-01 -1.4930842809751155e-01 -2.3601258137367553e-03 -2.2081586473137896e-01 -3.1492341836520366e-01 -7.8032599998801508e-02 -2.6414460705164572e-01 1.1689699157486365e-01 -1.5485597215836255e-01 -3.6200598752882583e-02 -1.2063625051541167e-01 3.9301594126152539e-01 1.0657456964446184e-01 7.3987185311986808e-03 1.5385585169088895e-01 -3.6860054240592674e-02 1.1150732736264056e-01 2.1652351698665287e-01 -1.7267941904545442e-01 7.9680627874296944e-02 -4.7459408201178506e-02 -1.1280731357057945e-01 7.5870220332418248e-02 1.1384624703324274e-01 3.1241514363871986e-02 -2.7535195235748311e-01 -6.0003359060597741e-02 6.9717092136723030e-02 2.0691936533384789e-01 -1.4329761886311210e-01 1.6718528885893927e-01 -5.3094569917169057e-02 -2.6535053086039134e-01 1.3233662198687168e-01 5.3073766329887570e-02 1.0592264473046323e-01 -2.0078559561269086e-02 -1.3389124825865734e-01 1.7174306701368702e-01 3.4417030972860779e-01 -5.8109859472069238e-02 4.5061044185430117e-02 3.5173913323327377e-01 -7.0383731134386493e-02 1.6432790511627759e-01 -2.1641857107908363e-01 3.0188708284079623e-02 -2.2385404371225218e-01 2.3371070493228330e-01 1.7079602290663368e-01 -2.3190893286726527e-01 1.2054268330420573e-01 -1.5312252944730599e-02 -1.2013202403997665e-01 9.1219735632649027e-02 -1.8929632059896986e-01 1.5786327959100441e-01 -1.7194253842592322e-01 2.0173590482644824e-01 -2.0228192504041162e-01 7.8052761735269260e-01 3.1586646673370333e-01 -3.5786555540676346e-01 -5.8142092412438201e-02 6.8522577487979286e-01 -2.6036717236086937e-01 -4.4120657148644465e-01 -6.7496731169765867e-01 5.8214073845075542e-01 -3.3805252564087875e-02 3.4225945372092648e-01 7.9444511408718455e-01 -8.8696448674222772e-02 6.6781640212542259e-01 -2.2078252242548299e-01 4.9928387733615010e-03 9.0339420981817786e-01 1.5268158910426488e+00 1.6203129454906984e+00 -5.3798112811626286e-01 3.1429968861885410e-01 3.3208797299120230e-01 -3.6258670966714535e-02 8.2659805354649862e-01 -3.2679488725838718e-01 2.6478822066001390e-01 -1.4588803088343991e-01 9.3063413055751432e-01 1.4719214007572385e-02 3.0122173352152119e-02 1.7873933522465460e-01 -2.1916428877259683e-01 -1.1436982638817300e-01 -7.9530844111675159e-02 -1.8758079207968265e-01 -3.9628398471924599e-02 -2.0047714563063679e-01 -2.2871591868915733e-01 -1.7840751552142672e-01 9.9154817843538662e-02 1.6789188472659827e-01 -1.6931180672365923e-01 -1.2012577015013497e-02 -1.5370854523057548e-01 -1.8783467481344512e-01 -1.0762617244860512e-02 -1.2273318866986663e-01 -1.5070515240528021e-01 -1.0885339079579512e-01 -7.2585111078373857e-02 -1.2238566167141433e-01 -2.7357756590786836e-01 -2.2426811321668513e-01 2.0615858402542481e-01 -7.9341733693559985e-02 1.8416383955994264e-01 3.1352036003440586e-01 3.6345984476414661e-01 5.8925285851001352e-01 -2.1862250397690372e-01 4.1701473008701813e-02 -3.1835693256697606e-01 -7.4337297270527258e-01 8.3801527312839796e-01 1.9688833225718488e-01 -1.2423824380796686e+00 -2.3385948439168014e-01 4.2972351590189595e-01 5.3315167725103962e-01 5.7401614744697627e-01 2.2053316089240058e-01 -2.2403071554224124e-01 3.3870987370042273e-02 -1.2420275628619770e+00 -3.9493228858184415e-01 -8.4216460002844093e-03 4.1389524530803787e-02 -5.2791493011686230e-01 -1.2324481265016944e+00 -9.9202158667087026e-01 -3.0321802164731310e-01 1.8013899864498092e-01 1.6028493288521160e+00 -2.3326069950598724e-01 1.2536382503140087e+00 -2.2210995987603563e-01 1.5830011510757441e-01 -1.9698005478007027e-01 -1.4740107765977309e-01 7.7063541618955200e-01 5.1944363676615413e-01 7.0556145751602373e-01 -6.3358121328343753e-01 -1.0729749253053081e-01 3.4585907442253944e-01 1.1809420328154259e-01 -3.1963641018500855e-01 -4.1009151578528458e-01 -3.9112573943334294e-01 -8.3138067618864150e-03 -3.6495692821447162e-01 -2.5475890137669460e-02 -7.2085088690064514e-01 -2.1198022351892970e-02 -1.0022365072375825e-01 1.4305967885514193e-02 -2.3912132754646506e-01 -3.9092545601700968e-01 -1.0851473487022816e-01 4.9116887783216559e-02 3.9812538576425560e-01 -3.4064408592969675e-01 1.1214293901238787e-01 -5.9367917315209018e-01 6.2095306275934425e-01 8.8939542063165566e-01 1.1584642243557502e-01 -5.4245944994765642e-02 4.6548992277552487e-01 3.0036589738037012e-01 2.6146293005331495e-01 -7.6124670381933934e-01 1.2585459237911760e+00 -1.5256915216394771e+00 -3.9701930265741819e-01 -4.8899393662035695e-01 -1.0059713991013854e+00 -7.7732499302260960e-01 -7.5668475666850454e-01 5.3109930518785742e-01 -8.5790212854615619e-02 8.9913989575076000e-02 -7.4910862877462780e-01 -4.5074056192839790e-01 6.8664639850452291e-01 -3.1527219349770230e-01 2.1427627138073183e-03 2.9326325492820005e-01 2.3396207127168291e+00 4.1203118399149335e-01 -3.9098218127132001e-01 -1.1746203060410445e+00 -1.0751616760674463e+00 -2.9579976539091979e-01 6.1235764072140091e-02 7.2278079534235762e-01 -3.4239707290091931e-01 -2.3830305377952925e-02 2.8129998630832492e-01 5.0648224180980572e-01 7.4267935385197270e-01 3.4694068599124905e-01 5.9021768271600694e-01 3.5477924885116285e-01 2.3821560991001187e-01 -5.7940096457611878e-01 9.8844941133732933e-01 -6.0743461182805136e-01 1.0244066643354357e+00 1.0695839674093293e+00 -5.5152872921937857e-01 -2.8189759334393932e-01 4.8896808370352840e-01 -2.0361716700906132e-01 3.2077011508837239e-01 6.3678667228767127e-01 -4.1718996576460360e-01 -6.6178492113155352e-01 -2.1157734078557580e-01 -2.9171445116681638e-01 -1.2652505135032377e-01 7.1799344077913399e-02 -2.3130311776183918e-01 -1.1679677048464568e-01 6.5669147936896100e-02 -1.1589451884596325e-01 1.6090409402407341e-01 1.4879012487827759e-01 5.4740292085630726e-01 -4.8509446106571341e-01 -3.4682624971055148e-01 1.0335345850880528e-01 6.7654184501407325e-02 -4.7757133080242320e-02 3.1670018833459579e-01 -1.0629139617161455e-01 -1.3012982812205762e-02 9.9609308088641265e-03 1.2282730607276604e-01 1.8903465719484469e-01 6.7094751249485466e-03 -4.9657120926774839e-01 -9.2065114230973938e-02 -7.3253097888364288e-02 -8.3991290132540780e-02 -2.7469520605293990e-01 2.6364876293908573e-01 2.9645029506476039e-01 2.8119396171308603e-01 5.3622981300154793e-01 -5.3923400883963302e-01 -6.5350557833429399e-02 -9.1833379138453086e-01 2.6685519014317310e-01 -7.3378286563826967e-01 -2.4213776407922366e-01 -6.3319149758595528e-01 1.8200430902287643e-01 1.5112415938166970e-01 1.9813267925410721e-01 -1.5795776070422690e-01 -1.7295750396894147e-01 3.2632589360345615e-01 1.3246085845449518e-01 1.6090816852230211e-01 -3.9365116332969818e-01 2.0869339458465471e-02 2.6849107088778257e-01 -2.4558012997034820e-01 3.6286711839321512e-01 -1.7403826554709717e-01 4.4670514475738478e-02 -3.6766616261429946e-01 2.6918099624637010e-01 -1.1977882022441198e-01 2.1710320961708796e-01 -1.4781474347262355e-01 -1.6316568669125131e-01 -1.9333378224244413e-01 9.3902322914173345e-02 4.9926989179661763e-02 -2.3608681648896049e-01 7.0385542699939144e-02 -3.3740834805126976e-02 -1.2481983179768087e-01 -2.0455469254849443e-01 -1.3960071867430282e-01 2.3680468608345331e-01 -5.5875854551843580e-03 2.6033278073607496e-01 1.8273569461509928e-01 2.3464374234226507e-01 -8.8680201115766286e-02 2.3073250336735585e-01 -7.3035965244202888e-02 -6.6311515999786685e-02 -2.2687584621025250e-01 1.5327829403064916e-01 -2.0483028093731162e-01 1.3602371413200517e-01 -1.0662703695854785e-01 -9.5646942073804225e-02 -1.7483727961596868e-01 9.4901556311235577e-02 -8.4809632020314407e-01 8.2961908525115913e-01 -7.3259426344165879e-01 -6.4798879682381916e-01 -1.5324971332125830e+00 -2.1803029563437848e-01 2.2907888674899632e-01 -3.9145520521568339e-01 1.1438752517543522e+00 -1.7217888275507742e+00 -1.0937128184893463e+00 -1.6845300545170658e-01 -2.2285194913898948e-01 -8.8747191986973584e-01 -1.3793382309578617e+00 -1.0015199410249180e+00 -1.3295752799314733e-01 -3.8708415321496131e-02 -5.3436930556844053e-01 -8.1525454259919350e-01 4.5254755319140932e-01 -6.2739993047186915e-01 -6.2847259727441307e-01 -9.8297801701360765e-01 1.1855240626927188e+00 4.9318122375371987e-01 -1.5419101394356403e-02 4.7456403193052377e-01 -1.0959136348221423e+00 -3.1412001855270316e-01 6.8744915776384669e-02 -3.8341662734744836e-01 -5.2836400633915848e-01 6.8230393808485756e-01 -1.0655575423362840e+00 3.7721123666947687e-01 3.0217817129220403e-01 -3.2997167902109287e-01 -7.0837896697052749e-01 -3.5184663789681531e-01 -2.3730489892782325e-01 2.4014034302130963e-01 5.6418752756344526e-01 8.4495596919874250e-01 1.8587904497739771e-01 3.5387399177587314e-01 2.6853038852044375e-01 6.9489723645312487e-02 1.5493146112103298e-02 -5.2987621492744030e-01 -2.8849635974156379e-01 -2.8302292758367464e-01 7.4040106738741718e-01 -1.6483406342346144e-01 1.7440737130515377e-01 -6.0211427122116035e-01 -2.2751156621783480e-01 -4.1334564138613183e-01 3.5385878725235748e-01 7.3688746054140797e-01 -3.6756580231092034e-01 -6.2337959899012585e-01 2.3816201603892659e-01 1.8823958493770416e+00 1.3909727656305508e+00 7.6109828387904799e-01 -4.2181444985608435e-01 3.2482625282079935e-01 1.3291466602828865e+00 9.9247193960100155e-01 6.3143637307223055e-01 2.3695119646818996e-01 2.7510540832176184e-01 1.6759111573048852e-01 -1.6899091176034686e-01 5.5605743339504445e-02 3.8426743679561975e-01 -4.1558086309571363e-01 7.4039364221642179e-01 -3.1685124897363304e-01 8.1720002276311710e-02 -2.1478150126680702e+00 
      </Weights>
      <Biases rows="30" cols="1">
        -3.4009734715833864e-02 -2.9416558703778195e-01 -1.2563262707698808e+00 1.8473245927293958e-01 2.8937561814575719e-01 2.6652368679035376e-01 5.4199242857401145e-02 -2.2265880607398167e-01 -3.6596701953926052e-02 -2.9181893236157332e+00 -1.3397650228919615e-03 3.0566833542454142e-02 -4.1510160871261990e+00 -7.4298952422420628e-01 2.9002537183436694e-01 -1.2810385764099522e-01 -1.4637645293060408e-01 -2.6469265623692406e-02 -3.2690326289169314e-01 -6.9062908115920363e-02 1.6668473485266218e+00 -1.7288084184167415e-01 -3.3834653909266382e-01 -1.7263835546858331e-02 -4.8399236598531287e-01 1.1204315916658368e-01 2.8327950280151998e-01 -1.1869087099939999e+00 -2.5267698567562341e-01 6.4122221983893546e-01 
      </Biases>
    </Layer>
    <Layer ActivationFunction="3">
      <Weights rows="20" cols="30">
        1.6724094083390852e-02 -3.4500914334505151e-01 4.2353957833232891e-01 8.1656007428211427e-02 1.0593712696224061e-01 -4.8994451994638472e-01 -2.5489665263219019e-01 -6.8886145107203067e-01 7.0721819524195970e-02 3.6282045215418043e-02 3.3034577395735248e-01 2.1135304937514032e-01 -4.9191589766803961e-01 -2.9044488286056619e-01 4.9805161164503570e-01 5.6133012395258441e-01 1.0902997797793090e-01 3.1469832219781058e-01 2.1330677793603919e-01 -2.3386938300254909e-01 1.7404313884954964e-01 -6.4824509247600737e-01 -3.5302266010649078e-02 6.1087061820968847e-01 3.1516289068408687e-01 -5.4439651701851344e-01 1.8139940236553154e-01 -6.1629574380877838e-01 -5.0823860236879270e-01 2.3386953256413959e-01 -1.6403610712571573e-01 -9.9112903401717689e-02 2.1530141466533692e-01 3.4715599925219104e-01 -1.7213681627280630e-01 -3.1247934183274301e-01 2.3889930285306121e-01 2.6490333257691311e-02 -2.6513383713827388e-01 1.4556364679847447e-01 -7.8205677178602981e-02 3.6117561871565118e-01 2.2134211366709577e-01 -3.8156842005079850e-01 -6.7458045666523581e-02 -1.2239491530752727e-01 -1.4418440647571699e-04 7.5362479454610569e-03 -2.1252335562617605e-01 4.4461283361300806e-02 -1.7149027724368715e-01 7.5403148853445831e-02 1.9711245210448566e-01 -1.6066906272973092e-01 2.7994455928536399e-01 1.6537308142064616e-01 1.7625074448286165e-01 9.6088284922493217e-02 4.5819200827199674e-02 4.5588465517234153e-02 -1.9344767858840711e-01 2.4728549761113530e-01 6.6597357158137127e-01 -1.3574650997078244e-01 -4.7660386044219960e-01 -4.6027909410868123e-02 1.4167530633562053e-01 4.4890020839207573e-01 2.5903210878466493e-01 2.1400559090319848e-01 -4.5989661228684392e-01 -8.7319548259124538e-02 -8.4353377149942399e-01 -4.6585308577783785e-02 -1.0418947755015472e-01 -1.6527066252330661e-01 4.0549502826683181e-01 -1.9026877277289422e-01 -4.0443020326065776e-01 -1.5526623598933859e-01 -4.1452251396871104e-01 3.4387824230567507e-02 5.5245429413764691e-01 3.4312979262874910e-01 4.2425717272973229e-01 1.4156355969643439e-01 -2.5376330667815650e-01 5.5807533237371576e-01 1.3841196253153312e-01 -3.3180489377259265e-01 -6.2646773835310796e-02 -5.2285905396974319e-01 -6.6745397743517432e-01 -8.2279362498540107e-02 7.5732179594634830e-01 2.2796050359098805e-01 -2.5304259433226572e-01 6.9670599961341828e-01 -5.1301402533868468e-01 -5.8871936489760224e-01 3.1810955027211996e-01 3.0283278262472962e-01 -1.3298667798692516e+00 2.7117126017333143e-01 -2.0764637804273270e-01 1.3675214048762008e-01 -6.0621524546142946e-01 -1.9272585356654281e-02 5.0665490103899391e-01 3.0664011801049013e-01 1.0377349090387777e+00 -6.1659982702180072e-01 -5.6433135985180849e-01 -6.8585078662022070e-01 -2.0610735884685305e-01 4.6145938540777576e-01 4.7195377842128428e-01 -7.7988647309492865e-01 -8.3215118945349353e-01 -1.0033671302924130e+00 -9.9170898347145806e-02 -1.2092613173698143e-01 1.0625526976104065e-01 -4.8394421072109589e-02 3.4083958362442335e-01 2.0927475891287400e-01 -2.8138399236510037e-01 1.2836984441362992e-01 -6.8576647003530805e-02 -6.2661349843013400e-02 1.0759280494925606e-01 1.0515464790783981e-01 1.2005185903836584e-01 -1.5872849651456508e-01 -2.6720888418401496e-02 2.9368166177885010e-02 7.0574549788116711e-02 1.4516322982916180e-01 1.4058433722164845e-01 2.3779535215631545e-02 4.6275779087570548e-03 -2.1925777888538484e-03 3.9359202780671443e-01 1.8444245532252124e-01 -2.5248620060980875e-01 -1.5229832743236671e-01 -2.0734379449584600e-01 6.7271737826938335e-02 2.7075514597107248e-01 -6.2415111976595987e-02 -1.8273542368502441e-01 1.7751030851488964e-01 -1.1372762147697625e-01 8.1336018907128660e-02 5.6319734505584314e-02 -9.5182052936701997e-02 1.7982086633129951e-01 1.7226190948203224e-01 1.9671450259924320e-01 1.7902506110148186e-01 1.8484128783797693e-01 4.0410171686197684e-02 1.2097605561271541e-02 2.2640489486000315e-01 -8.2618112589696924e-02 -3.1350789578312460e-01 -5.2854933803800096e-02 -2.7566701771963087e-01 1.9399242193398861e-01 2.1537798632865679e-01 4.5335278775000869e-02 -1.0738207916912061e-01 -3.4114799079900432e-01 -2.4556566809002378e-01 6.8095670233454156e-02 2.5331726231129204e-01 -2.2007985189615042e-01 -3.3908616362443361e-01 1.0868571691008383e-01 -1.1314426892284150e-01 -1.1717583741593220e-01 2.7445698427392268e-02 -1.4621568249666537e-02 -1.8022914117244457e-01 -2.0680948956326806e-01 1.1518874371851616e-01 -2.0366998762863406e-01 3.4444308616874197e-02 -1.9652921836101436e-01 -2.2203133873252950e-01 -1.0285735530956769e-01 -1.6427564643692733e-01 -5.6251795563788509e-02 1.4400431660540799e-01 -6.3775282317677803e-02 -1.6315816932986868e-01 -1.5538037703837165e-01 -1.5589074663377489e-01 1.7357593636355220e-01 -2.2179292009182400e-01 -1.1200373566599729e-01 1.1201526469724933e-01 -6.2413285532992156e-02 -4.4913288157595384e-02 1.8879764371868402e-01 -2.1867450064614047e-01 -6.3940917425409707e-02 -1.8773426329326309e-01 1.5744816193624966e-01 -4.1355132271534881e-02 -1.4938040740908176e-01 5.1886076334485810e-02 -8.3583491036247834e-03 3.1449890393248986e-01 7.4147639028408141e-01 6.5229140858769255e-02 -6.0933326972555268e-01 1.3441019829296950e+00 1.4255937068004365e-01 -7.1673064302673917e-01 -2.7303461868216766e-01 1.0877336215885826e-02 -7.6225382094660121e-01 1.7396171023226700e-01 -5.6123577828835883e-02 -1.2933259324367621e-01 -2.0742794612009047e-01 -3.2309660454790301e-01 5.0098892806903383e-01 -5.2636253602608829e-01 4.9897890940179823e-01 -5.8067532684221636e-02 -4.4328811463055018e-01 3.6040569466823141e-01 2.5526796170518712e-01 -3.1712767086345511e-01 -3.8842264102989016e-01 -6.2434125028580957e-02 3.0414250545954136e-03 -9.9346852517408268e-01 -4.5223154349083200e-01 4.1303791430990489e-01 1.8088289320456349e-01 1.2436457656278863e-01 1.1504467246449279e-01 -4.8284475624485407e-01 7.6668026890284638e-02 2.5272833072297232e-02 -2.2135997736197779e-01 1.2540900464954957e-01 -3.9120138442386654e-01 -6.2299552669171587e-01 9.0782498580221282e-01 -7.8977400933191988e-01 1.7161055156175403e-01 -5.3616565445370697e-02 2.8338619417401828e-01 1.3566467662298404e-01 -5.9980474440235176e-01 1.7015907973013419e-01 -1.0746083840872498e+00 3.1188833155539175e-01 9.2748029155334966e-01 7.0756760773454674e-01 3.4786497411588096e-01 -4.2002644879331952e-01 -3.8376529414417943e-01 1.4115370493818147e-01 1.4366721448017797e-01 3.2939608646104845e-02 -1.0752388434216537e-01 -2.4864342140398127e-01 -2.7663677359083222e-01 1.1084391031127180e-01 1.2835049192370762e-01 7.3871940882909423e-02 -3.5631607641391960e-01 -2.4158733463942286e-02 -5.2786464165923575e-03 -5.8529139609065528e-01 1.9401679989391952e-02 -1.3460603568107293e-01 1.0796725097878063e-01 -1.5427787743068067e-01 4.4405167260547690e-02 3.7383559948498561e-02 -1.6548761753140362e-01 -1.5650621588965002e-01 -9.6938165583995692e-02 -3.8203119283841118e-02 4.1400491384175953e-01 8.2190529914132032e-02 -1.0630814008810184e-01 3.0804080991712435e-01 -2.8841927361200853e-01 -1.1810368295974781e-01 -2.9620022345077895e-01 -2.3487430313320398e-01 2.8986331209675351e-02 8.8997592031172634e-02 -1.4133175971276532e-03 -2.2529830000864978e-01 -6.1150733844977621e-02 9.0000202769004042e-02 2.9943638003135026e-01 4.6969341445424910e-02 -2.3819807839376450e-01 -2.5269058036234010e-01 1.4757048611273966e-02 -2.7567669724599168e-02 -4.5785146800524250e-02 1.8268007254433333e-01 7.7471005280448618e-02 -4.0219745059625944e-02 6.7705590933464663e-02 -1.6802597920480569e-01 -2.2406099612313832e-01 -1.7047317351781988e-01 -1.1158525266867568e-01 -1.9375663627026851e-01 1.9431731975023001e-02 -1.9610584512502052e-01 -4.2089636985035088e-02 1.7694815766159513e-01 3.4592125036419973e-02 -2.2849801845285195e-01 5.7493632036065355e-02 1.8920054041322706e-01 1.7395510822830954e-01 2.6303153482822830e-02 1.8108364839593852e-01 -2.5354323239212478e-01 1.2716301403237218e-01 -4.0842238394047013e-02 -7.2052766471274064e-03 -1.2372585943739857e-01 1.7063938259752270e-01 1.5084714539353622e-01 1.7458481597073777e-01 -1.6421532572020647e-01 -8.2597466259121607e-02 2.3518403195440377e-01 -2.0895399282966803e-01 1.2555976876606770e-01 -9.2115156464370861e-03 2.5322858310273373e-02 -1.8284936794532497e-01 8.1150996161929473e-02 4.5089001411353233e-02 4.6645166219821482e-02 -9.4459998022993000e-02 -1.0141129181518274e-01 -2.4895177248216424e-01 1.4289222614335476e-01 -9.7224094118105647e-02 3.2753289273518332e-01 -1.8261899092826928e-01 -1.5003886565522867e-01 -1.9997884132261376e-01 -2.4480838909803106e-02 -5.0110380579840817e-02 -1.4396505140015470e-01 -1.4015999182504577e-01 6.4702705535630923e-03 -1.6464907462707543e-01 -1.1525566183020891e-01 -7.0756371864615170e-02 -7.0579496017846355e-02 8.3647797827365172e-02 1.4365910592482145e-01 -1.3788154060120422e-01 2.0909903788713452e-01 -4.9006340043188873e-01 1.4128408446793173e-01 1.0716555003472339e-01 -1.2368838601242696e-01 -1.9972762295131702e-01 2.1140534918947262e-01 3.0980137915951000e-02 -1.4619236157109252e-02 -6.3624267414667715e-02 -1.9177482710269625e-01 8.0274777219327423e-02 2.3191094342764565e-01 -2.7187852781853750e-02 7.5396485675341671e-02 2.4610565397733781e-02 -1.4133551819670276e-01 2.1450495521437410e-01 -8.5043797445564853e-02 4.4569739300977956e-01 -1.2751235292401056e-01 2.1026298254736245e-01 3.8140122461988590e-01 -1.7254490029213332e-01 1.5729195036550822e-01 2.3870141777203924e-01 2.2525542797762191e-01 3.4357561593711022e-01 2.1315779850659300e-01 -2.3659589677660967e-01 -7.5785014781135376e-02 2.8120844543806223e-01 -8.6369491415888844e-01 1.0537432773594488e-01 -2.9210953635972603e-01 3.4238704294329442e-01 -3.3721464106837740e-01 -3.1045854327182720e-01 -4.1139981184539320e-02 3.6562548243685256e-01 -2.5115219364024499e-01 -7.7785466193507338e-03 3.8249653005019141e-01 -6.4490530743126620e-02 -2.7175829817282821e-01 -7.5411820111695033e-02 1.4329107129769080e-02 1.0164033510083614e-02 -2.3507458651795773e-01 -8.8443383530625863e-02 2.5591977402061868e-02 8.8538773550484595e-01 -6.7255198911990874e-02 -5.3694318703146615e-02 6.6680054616849629e-02 9.4907012214309305e-02 -1.3605708379547854e-01 5.7652760008252264e-02 -5.3509127153613023e-01 -3.0840212153107044e-01 -3.3838922152592127e-01 -1.2314275247997224e-01 -8.9282227929622859e-01 -1.0272101912590409e-01 4.2834959200093742e-01 -2.5690058777667862e-01 -1.7965142705917161e-01 -4.5755275290725272e-01 -9.7541273897582118e-02 -9.0923622029406986e-02 1.4228020365199612e-01 3.8571334987214198e-02 3.4056170818966730e-01 7.6097407868047684e-01 -3.4949805081786095e-01 2.6440898920652667e-01 -2.8565227598932408e-01 2.9178433787209007e-01 2.5120335491630336e-01 2.7160679808243343e-01 3.3582526498755094e-02 5.4839901282444825e-01 -4.0323383199853402e-01 -7.6820986591039553e-01 -4.5278849527422582e-01 -1.9344641369746943e-01 1.6761938346190874e-01 -1.9419395045889865e-01 3.2393454724709880e-01 -2.9292344202525855e-01 -8.0671209152639867e-03 1.4814687795213519e-01 -2.0277490916454979e-01 2.3674425757521874e-02 -2.6843531114281977e-01 -1.6984826103130463e-01 -1.4407558668187920e-01 4.8320950028762388e-01 -2.2894512220771779e-01 1.4433335556472216e-03 4.8691310774871863e-02 2.1835405838360550e-01 1.9479658862475535e-01 -1.6395474138855098e-01 -1.4325693933356121e-01 2.6062068869038215e-03 2.1048491571414443e-01 -6.7912051537481907e-02 -1.4956500587091121e-03 -3.2826879464990091e-02 -1.4401988139766964e-01 -5.7247668265819851e-01 2.6263607277799456e-01 2.5366377902682224e-01 -3.4982903269981609e-02 -1.4717351224162786e-01 7.9974849161566230e-01 -4.4514600452551112e-01 -1.7353121624428147e+00 3.4305731121230976e-01 -6.6681516079689723e-02 -4.0803838291873606e-01 7.2588730025528658e-01 4.0259980741298315e-02 -1.2709159839639392e-01 -2.7551286114171694e-02 2.4835620856354959e-01 3.2587224378421537e-01 2.8960279838638131e-01 -8.7278511367362893e-02 -4.5302190821188770e-01 -3.7200604467568027e-01 -8.2297878901404498e-01 -3.9045482540800674e-01 1.1002660921208732e-01 -3.3655485002492064e-01 -1.0237396125620055e+00 1.1159855954825332e-01 -6.3167180584144922e-01 -1.6902335661264305e-02 -1.7342615044444101e-01 2.6297922333697321e-01 -1.7162991603427846e-01 -2.1397129784762001e-01 -4.9025813501686277e-02 2.9948162242823921e-02 1.7039638582754410e-01 6.6360316498749836e-02 -1.1351618534940748e-01 -1.5100809272508747e-01 -1.5424708995124928e-01 2.2252937194570159e-02 -1.0493305409073046e-01 2.9513483313946676e-01 2.6091869905456855e-01 -1.0299043051271314e-01 -1.4740320724039729e-01 3.5044363589645453e-02 -5.6720635060388781e-03 4.2843466019272233e-02 1.4687280767382419e-01 2.1333882753686012e-01 -1.6899222282253022e-02 9.6329087365204000e-02 1.9881901644529934e-01 -1.5095209195222239e-01 -1.4697181842575369e-01 6.9320740918246568e-02 2.5879491378568009e-01 -1.0139759694398970e-01 8.8808611157109932e-02 -2.0118131710884932e-01 1.4489393050950972e-01 2.0496207481725062e-01 -1.5731816124113879e-01 -9.6598116655966626e-02 -2.1641813600531951e-01 -1.1889088644593857e-01 1.9420557288953252e-01 -1.5509553094759451e-01 2.3263625691478038e-01 2.6182957951231300e-01 5.4583109145032822e-03 -1.5824575015368517e-01 1.8667417810657735e-01 -2.5474192219053970e-01 2.3911637865465724e-01 2.5926600985128695e-01 -6.9267995214985709e-02 8.7391290470735558e-02 -1.7923699314818914e-01 9.5982155822275719e-02 4.8076701452665439e-02 -1.8375581152190842e-02 5.5599197716981580e-04 2.6894491522527703e-01 7.0546425098780313e-02 1.1218887835993042e-01 1.5271678767590918e-01 3.0587436956785546e-02 -2.8512478654467162e-02 2.8131785227144362e-01 -1.2728380474844572e-01 1.1925922196628413e-01 -5.6145009836173168e-02 -2.1686180999344432e-01 2.9316690456985241e-02 -1.8609773107075958e-01 2.4958115223910640e-01 -5.0534524077032954e-02 -8.7658906081794288e-02 -5.4007054756391677e-02 9.0672786791268958e-02 5.5869170911205197e-02 -1.7795571203100591e-01 -1.8657081426715810e-01 1.2477796964042108e-01 -9.6298002500267862e-02 -7.8438933898927504e-02 -2.0081685525130233e-01 -1.8965381088581451e-01 -1.2073401435790387e-01 1.3511440836998451e-01 7.3443551896293827e-02 -1.0866151105670101e-01 -2.2867039536932615e-01 8.4508432970885256e-02 -2.0115306286697669e-02 2.0731912023944610e-01 
      </Weights>
      <Biases rows="20" cols="1">
        0.0000000000000000e+00 0.0000000000000000e+00 0.0000000000000000e+00 0.0000000000000000e+00 0.0000000000000000e+00 0.0000000000000000e+00 0.0000000000000000e+00 0.0000000000000000e+00 0.0000000000000000e+00 0.0000000000000000e+00 0.0000000000000000e+00 0.0000000000000000e+00 0.0000000000000000e+00 0.0000000000000000e+00 0.0000000000000000e+00 0.0000000000000000e+00 0.0000000000000000e+00 0.0000000000000000e+00 0.0000000000000000e+00 0.0000000000000000e+00 
      </Biases>
    </Layer>
    <Layer ActivationFunction="0">
      <Weights rows="1" cols="20">
        -5.0214034960788279e-01 -2.4690419728041710e-01 -4.4605139493780699e-01 -5.6917175889444027e-01 1.9562048499709780e-01 -2.4694811299284869e-01 -3.2202793828219251e-02 -4.6390721241252747e-01 5.4306839303480103e-01 1.5596529113296265e-01 1.0098213438954796e-01 -2.5040689855496959e-02 -2.9566171846065789e-02 -3.6284398403034662e-01 4.4941934548470736e-01 4.3135286848129606e-01 -5.7552962178865696e-01 1.4071888899960933e-03 1.8091831286877615e-02 1.5422438272740646e-01 
      </Weights>
      <Biases rows="1" cols="1">
        0.0000000000000000e+00 
      </Biases>
    </Layer>
  </Weights>
</MethodSetup>
