<?xml version="1.0"?>
<MethodSetup Method="MLP::MLP">
  <GeneralInfo>
    <Info name="TMVA Release" value="4.2.1 [262657]"/>
    <Info name="ROOT Release" value="6.08/02 [395266]"/>
    <Info name="Creator" value="minerva1993"/>
    <Info name="Date" value="Tue Jul  4 23:27:10 2017"/>
    <Info name="Host" value="Linux htop.hanyang.ac.kr 2.6.32-696.el6.centos.plus.x86_64 #1 SMP Mon Apr 3 14:56:08 UTC 2017 x86_64 x86_64 x86_64 GNU/Linux"/>
    <Info name="Dir" value="/home/minerva1993/fcnc/analysis_jw/tmva/v1"/>
    <Info name="Training events" value="60000"/>
    <Info name="TrainingTime" value="1.49061873e+03"/>
    <Info name="AnalysisType" value="Classification"/>
  </GeneralInfo>
  <Options>
    <Option name="NCycles" modified="Yes">1000</Option>
    <Option name="HiddenLayers" modified="Yes">N+5</Option>
    <Option name="NeuronType" modified="Yes">tanh</Option>
    <Option name="RandomSeed" modified="No">1</Option>
    <Option name="EstimatorType" modified="No">CE</Option>
    <Option name="NeuronInputType" modified="No">sum</Option>
    <Option name="V" modified="Yes">False</Option>
    <Option name="VerbosityLevel" modified="No">Default</Option>
    <Option name="VarTransform" modified="Yes">N</Option>
    <Option name="H" modified="Yes">True</Option>
    <Option name="CreateMVAPdfs" modified="No">False</Option>
    <Option name="IgnoreNegWeightsInTraining" modified="No">False</Option>
    <Option name="TrainingMethod" modified="No">BP</Option>
    <Option name="LearningRate" modified="No">2.000000e-02</Option>
    <Option name="DecayRate" modified="No">1.000000e-02</Option>
    <Option name="TestRate" modified="Yes">5</Option>
    <Option name="EpochMonitoring" modified="No">False</Option>
    <Option name="Sampling" modified="No">1.000000e+00</Option>
    <Option name="SamplingEpoch" modified="No">1.000000e+00</Option>
    <Option name="SamplingImportance" modified="No">1.000000e+00</Option>
    <Option name="SamplingTraining" modified="No">True</Option>
    <Option name="SamplingTesting" modified="No">False</Option>
    <Option name="ResetStep" modified="No">50</Option>
    <Option name="Tau" modified="No">3.000000e+00</Option>
    <Option name="BPMode" modified="No">sequential</Option>
    <Option name="BatchSize" modified="No">-1</Option>
    <Option name="ConvergenceImprove" modified="No">1.000000e-30</Option>
    <Option name="ConvergenceTests" modified="No">-1</Option>
    <Option name="UseRegulator" modified="Yes">False</Option>
    <Option name="UpdateLimit" modified="No">10000</Option>
    <Option name="CalculateErrors" modified="No">False</Option>
    <Option name="WeightRange" modified="No">1.000000e+00</Option>
  </Options>
  <Variables NVar="28">
    <Variable VarIndex="0" Expression="NJets" Label="NJets" Title="NJets" Unit="" Internal="NJets" Type="I" Min="4.00000000e+00" Max="1.30000000e+01"/>
    <Variable VarIndex="1" Expression="NBJets_M" Label="NBJets_M" Title="NBJets_M" Unit="" Internal="NBJets_M" Type="I" Min="3.00000000e+00" Max="6.00000000e+00"/>
    <Variable VarIndex="2" Expression="NCJets_M" Label="NCJets_M" Title="NCJets_M" Unit="" Internal="NCJets_M" Type="I" Min="1.00000000e+00" Max="8.00000000e+00"/>
    <Variable VarIndex="3" Expression="Transvers_Mass" Label="Transvers_Mass" Title="Transvers_Mass" Unit="" Internal="Transvers_Mass" Type="F" Min="3.48501951e-02" Max="3.69078705e+02"/>
    <Variable VarIndex="4" Expression="Lepton_DPhi" Label="Lepton_DPhi" Title="Lepton_DPhi" Unit="" Internal="Lepton_DPhi" Type="F" Min="-3.14140153e+00" Max="3.14153576e+00"/>
    <Variable VarIndex="5" Expression="Missing_ET" Label="Missing_ET" Title="Missing_ET" Unit="" Internal="Missing_ET" Type="F" Min="3.32486361e-01" Max="6.71120422e+02"/>
    <Variable VarIndex="6" Expression="BJet_M_delta_R" Label="BJet_M_delta_R" Title="BJet_M_delta_R" Unit="" Internal="BJet_M_delta_R" Type="F" Min="3.88728410e-01" Max="3.48090935e+00"/>
    <Variable VarIndex="7" Expression="BJet_M_delta_Eta" Label="BJet_M_delta_Eta" Title="BJet_M_delta_Eta" Unit="" Internal="BJet_M_delta_Eta" Type="F" Min="2.89678574e-05" Max="3.13447404e+00"/>
    <Variable VarIndex="8" Expression="BJet_M_delta_Phi" Label="BJet_M_delta_Phi" Title="BJet_M_delta_Phi" Unit="" Internal="BJet_M_delta_Phi" Type="F" Min="2.39163637e-05" Max="6.27293777e+00"/>
    <Variable VarIndex="9" Expression="H_Mass" Label="H_Mass" Title="H_Mass" Unit="" Internal="H_Mass" Type="F" Min="1.83813915e+01" Max="1.21823633e+03"/>
    <Variable VarIndex="10" Expression="BJet_Pt_H" Label="BJet_Pt_H" Title="BJet_Pt_H" Unit="" Internal="BJet_Pt_H" Type="F" Min="3.03176346e+01" Max="1.40089062e+03"/>
    <Variable VarIndex="11" Expression="CJet_Pt" Label="CJet_Pt" Title="CJet_Pt" Unit="" Internal="CJet_Pt" Type="F" Min="3.12792740e+01" Max="1.40221191e+03"/>
    <Variable VarIndex="12" Expression="Jet1_Pt" Label="Jet1_Pt" Title="Jet1_Pt" Unit="" Internal="Jet1_Pt" Type="F" Min="3.37081337e+01" Max="1.40221191e+03"/>
    <Variable VarIndex="13" Expression="Jet2_Pt" Label="Jet2_Pt" Title="Jet2_Pt" Unit="" Internal="Jet2_Pt" Type="F" Min="3.11904850e+01" Max="1.14972290e+03"/>
    <Variable VarIndex="14" Expression="Jet3_Pt" Label="Jet3_Pt" Title="Jet3_Pt" Unit="" Internal="Jet3_Pt" Type="F" Min="3.01826878e+01" Max="4.76129395e+02"/>
    <Variable VarIndex="15" Expression="Jet4_Pt" Label="Jet4_Pt" Title="Jet4_Pt" Unit="" Internal="Jet4_Pt" Type="F" Min="3.00017719e+01" Max="3.01518524e+02"/>
    <Variable VarIndex="16" Expression="Jet1_CSV" Label="Jet1_CSV" Title="Jet1_CSV" Unit="" Internal="Jet1_CSV" Type="F" Min="4.43393551e-02" Max="9.99611914e-01"/>
    <Variable VarIndex="17" Expression="Jet2_CSV" Label="Jet2_CSV" Title="Jet2_CSV" Unit="" Internal="Jet2_CSV" Type="F" Min="4.08265255e-02" Max="9.99625802e-01"/>
    <Variable VarIndex="18" Expression="Jet3_CSV" Label="Jet3_CSV" Title="Jet3_CSV" Unit="" Internal="Jet3_CSV" Type="F" Min="4.71053086e-02" Max="9.99616206e-01"/>
    <Variable VarIndex="19" Expression="Jet4_CSV" Label="Jet4_CSV" Title="Jet4_CSV" Unit="" Internal="Jet4_CSV" Type="F" Min="4.70969379e-02" Max="9.99606192e-01"/>
    <Variable VarIndex="20" Expression="Kin_Lep_WMass" Label="Kin_Lep_WMass" Title="Kin_Lep_WMass" Unit="" Internal="Kin_Lep_WMass" Type="F" Min="-2.45943794e+01" Max="5.59032532e+02"/>
    <Variable VarIndex="21" Expression="Kin_Lep_TopMass" Label="Kin_Lep_TopMass" Title="Kin_Lep_TopMass" Unit="" Internal="Kin_Lep_TopMass" Type="F" Min="5.32452011e+00" Max="5.59032532e+02"/>
    <Variable VarIndex="22" Expression="Kin_Had_WMass" Label="Kin_Had_WMass" Title="Kin_Had_WMass" Unit="" Internal="Kin_Had_WMass" Type="F" Min="0.00000000e+00" Max="9.57668457e+01"/>
    <Variable VarIndex="23" Expression="Kin_Had_TopMass" Label="Kin_Had_TopMass" Title="Kin_Had_TopMass" Unit="" Internal="Kin_Had_TopMass" Type="F" Min="0.00000000e+00" Max="1.77754181e+02"/>
    <Variable VarIndex="24" Expression="fcnhKin_Lep_WMass" Label="fcnhKin_Lep_WMass" Title="fcnhKin_Lep_WMass" Unit="" Internal="fcnhKin_Lep_WMass" Type="F" Min="-2.67692596e+02" Max="6.78751221e+02"/>
    <Variable VarIndex="25" Expression="fcnhKin_Lep_TopMass" Label="fcnhKin_Lep_TopMass" Title="fcnhKin_Lep_TopMass" Unit="" Internal="fcnhKin_Lep_TopMass" Type="F" Min="1.50358844e+00" Max="6.78751221e+02"/>
    <Variable VarIndex="26" Expression="fcnhKin_HMass" Label="fcnhKin_HMass" Title="fcnhKin_HMass" Unit="" Internal="fcnhKin_HMass" Type="F" Min="0.00000000e+00" Max="1.38089294e+02"/>
    <Variable VarIndex="27" Expression="fcnhKin_Huc_TopMass" Label="fcnhKin_Huc_TopMass" Title="fcnhKin_Huc_TopMass" Unit="" Internal="fcnhKin_Huc_TopMass" Type="F" Min="0.00000000e+00" Max="1.50163049e+03"/>
  </Variables>
  <Spectators NSpec="0"/>
  <Classes NClass="2">
    <Class Name="Signal" Index="0"/>
    <Class Name="Background" Index="1"/>
  </Classes>
  <Transformations NTransformations="1">
    <Transform Name="Normalize">
      <Selection>
        <Input NInputs="28">
          <Input Type="Variable" Label="NJets" Expression="NJets"/>
          <Input Type="Variable" Label="NBJets_M" Expression="NBJets_M"/>
          <Input Type="Variable" Label="NCJets_M" Expression="NCJets_M"/>
          <Input Type="Variable" Label="Transvers_Mass" Expression="Transvers_Mass"/>
          <Input Type="Variable" Label="Lepton_DPhi" Expression="Lepton_DPhi"/>
          <Input Type="Variable" Label="Missing_ET" Expression="Missing_ET"/>
          <Input Type="Variable" Label="BJet_M_delta_R" Expression="BJet_M_delta_R"/>
          <Input Type="Variable" Label="BJet_M_delta_Eta" Expression="BJet_M_delta_Eta"/>
          <Input Type="Variable" Label="BJet_M_delta_Phi" Expression="BJet_M_delta_Phi"/>
          <Input Type="Variable" Label="H_Mass" Expression="H_Mass"/>
          <Input Type="Variable" Label="BJet_Pt_H" Expression="BJet_Pt_H"/>
          <Input Type="Variable" Label="CJet_Pt" Expression="CJet_Pt"/>
          <Input Type="Variable" Label="Jet1_Pt" Expression="Jet1_Pt"/>
          <Input Type="Variable" Label="Jet2_Pt" Expression="Jet2_Pt"/>
          <Input Type="Variable" Label="Jet3_Pt" Expression="Jet3_Pt"/>
          <Input Type="Variable" Label="Jet4_Pt" Expression="Jet4_Pt"/>
          <Input Type="Variable" Label="Jet1_CSV" Expression="Jet1_CSV"/>
          <Input Type="Variable" Label="Jet2_CSV" Expression="Jet2_CSV"/>
          <Input Type="Variable" Label="Jet3_CSV" Expression="Jet3_CSV"/>
          <Input Type="Variable" Label="Jet4_CSV" Expression="Jet4_CSV"/>
          <Input Type="Variable" Label="Kin_Lep_WMass" Expression="Kin_Lep_WMass"/>
          <Input Type="Variable" Label="Kin_Lep_TopMass" Expression="Kin_Lep_TopMass"/>
          <Input Type="Variable" Label="Kin_Had_WMass" Expression="Kin_Had_WMass"/>
          <Input Type="Variable" Label="Kin_Had_TopMass" Expression="Kin_Had_TopMass"/>
          <Input Type="Variable" Label="fcnhKin_Lep_WMass" Expression="fcnhKin_Lep_WMass"/>
          <Input Type="Variable" Label="fcnhKin_Lep_TopMass" Expression="fcnhKin_Lep_TopMass"/>
          <Input Type="Variable" Label="fcnhKin_HMass" Expression="fcnhKin_HMass"/>
          <Input Type="Variable" Label="fcnhKin_Huc_TopMass" Expression="fcnhKin_Huc_TopMass"/>
        </Input>
        <Output NOutputs="28">
          <Output Type="Variable" Label="NJets" Expression="NJets"/>
          <Output Type="Variable" Label="NBJets_M" Expression="NBJets_M"/>
          <Output Type="Variable" Label="NCJets_M" Expression="NCJets_M"/>
          <Output Type="Variable" Label="Transvers_Mass" Expression="Transvers_Mass"/>
          <Output Type="Variable" Label="Lepton_DPhi" Expression="Lepton_DPhi"/>
          <Output Type="Variable" Label="Missing_ET" Expression="Missing_ET"/>
          <Output Type="Variable" Label="BJet_M_delta_R" Expression="BJet_M_delta_R"/>
          <Output Type="Variable" Label="BJet_M_delta_Eta" Expression="BJet_M_delta_Eta"/>
          <Output Type="Variable" Label="BJet_M_delta_Phi" Expression="BJet_M_delta_Phi"/>
          <Output Type="Variable" Label="H_Mass" Expression="H_Mass"/>
          <Output Type="Variable" Label="BJet_Pt_H" Expression="BJet_Pt_H"/>
          <Output Type="Variable" Label="CJet_Pt" Expression="CJet_Pt"/>
          <Output Type="Variable" Label="Jet1_Pt" Expression="Jet1_Pt"/>
          <Output Type="Variable" Label="Jet2_Pt" Expression="Jet2_Pt"/>
          <Output Type="Variable" Label="Jet3_Pt" Expression="Jet3_Pt"/>
          <Output Type="Variable" Label="Jet4_Pt" Expression="Jet4_Pt"/>
          <Output Type="Variable" Label="Jet1_CSV" Expression="Jet1_CSV"/>
          <Output Type="Variable" Label="Jet2_CSV" Expression="Jet2_CSV"/>
          <Output Type="Variable" Label="Jet3_CSV" Expression="Jet3_CSV"/>
          <Output Type="Variable" Label="Jet4_CSV" Expression="Jet4_CSV"/>
          <Output Type="Variable" Label="Kin_Lep_WMass" Expression="Kin_Lep_WMass"/>
          <Output Type="Variable" Label="Kin_Lep_TopMass" Expression="Kin_Lep_TopMass"/>
          <Output Type="Variable" Label="Kin_Had_WMass" Expression="Kin_Had_WMass"/>
          <Output Type="Variable" Label="Kin_Had_TopMass" Expression="Kin_Had_TopMass"/>
          <Output Type="Variable" Label="fcnhKin_Lep_WMass" Expression="fcnhKin_Lep_WMass"/>
          <Output Type="Variable" Label="fcnhKin_Lep_TopMass" Expression="fcnhKin_Lep_TopMass"/>
          <Output Type="Variable" Label="fcnhKin_HMass" Expression="fcnhKin_HMass"/>
          <Output Type="Variable" Label="fcnhKin_Huc_TopMass" Expression="fcnhKin_Huc_TopMass"/>
        </Output>
      </Selection>
      <Class ClassIndex="0">
        <Ranges>
          <Range Index="0" Min="4.0000000000000000e+00" Max="1.2000000000000000e+01"/>
          <Range Index="1" Min="3.0000000000000000e+00" Max="6.0000000000000000e+00"/>
          <Range Index="2" Min="1.0000000000000000e+00" Max="7.0000000000000000e+00"/>
          <Range Index="3" Min="3.4850195050239563e-02" Max="3.5725714111328125e+02"/>
          <Range Index="4" Min="-3.1410999298095703e+00" Max="3.1415357589721680e+00"/>
          <Range Index="5" Min="3.7144780158996582e-01" Max="6.7112042236328125e+02"/>
          <Range Index="6" Min="3.8872841000556946e-01" Max="3.4809093475341797e+00"/>
          <Range Index="7" Min="4.9591064453125000e-05" Max="3.1344740390777588e+00"/>
          <Range Index="8" Min="2.3916363716125488e-05" Max="6.2729377746582031e+00"/>
          <Range Index="9" Min="1.9422851562500000e+01" Max="8.0909741210937500e+02"/>
          <Range Index="10" Min="3.0317634582519531e+01" Max="1.4008906250000000e+03"/>
          <Range Index="11" Min="3.1279273986816406e+01" Max="1.2676723632812500e+03"/>
          <Range Index="12" Min="3.3708133697509766e+01" Max="1.4008906250000000e+03"/>
          <Range Index="13" Min="3.1190485000610352e+01" Max="1.1497229003906250e+03"/>
          <Range Index="14" Min="3.0182687759399414e+01" Max="4.3397866821289062e+02"/>
          <Range Index="15" Min="3.0001771926879883e+01" Max="2.5548236083984375e+02"/>
          <Range Index="16" Min="4.4339355081319809e-02" Max="9.9961191415786743e-01"/>
          <Range Index="17" Min="4.0826525539159775e-02" Max="9.9961769580841064e-01"/>
          <Range Index="18" Min="4.8249464482069016e-02" Max="9.9960720539093018e-01"/>
          <Range Index="19" Min="4.7096937894821167e-02" Max="9.9955874681472778e-01"/>
          <Range Index="20" Min="-2.4594379425048828e+01" Max="4.1339331054687500e+02"/>
          <Range Index="21" Min="8.8195934295654297e+00" Max="4.1339331054687500e+02"/>
          <Range Index="22" Min="0.0000000000000000e+00" Max="9.5766845703125000e+01"/>
          <Range Index="23" Min="0.0000000000000000e+00" Max="1.7534512329101562e+02"/>
          <Range Index="24" Min="-2.0256340026855469e+02" Max="5.2505432128906250e+02"/>
          <Range Index="25" Min="1.6611661911010742e+00" Max="5.2505432128906250e+02"/>
          <Range Index="26" Min="0.0000000000000000e+00" Max="1.3808929443359375e+02"/>
          <Range Index="27" Min="0.0000000000000000e+00" Max="1.5016304931640625e+03"/>
        </Ranges>
      </Class>
      <Class ClassIndex="1">
        <Ranges>
          <Range Index="0" Min="4.0000000000000000e+00" Max="1.3000000000000000e+01"/>
          <Range Index="1" Min="3.0000000000000000e+00" Max="6.0000000000000000e+00"/>
          <Range Index="2" Min="1.0000000000000000e+00" Max="8.0000000000000000e+00"/>
          <Range Index="3" Min="1.0699680447578430e-01" Max="3.6907870483398438e+02"/>
          <Range Index="4" Min="-3.1414015293121338e+00" Max="3.1406278610229492e+00"/>
          <Range Index="5" Min="3.3248636126518250e-01" Max="5.6658074951171875e+02"/>
          <Range Index="6" Min="3.9990741014480591e-01" Max="3.3263010978698730e+00"/>
          <Range Index="7" Min="2.8967857360839844e-05" Max="3.1318399906158447e+00"/>
          <Range Index="8" Min="3.5214424133300781e-04" Max="6.2467298507690430e+00"/>
          <Range Index="9" Min="1.8381391525268555e+01" Max="1.2182363281250000e+03"/>
          <Range Index="10" Min="3.0416845321655273e+01" Max="1.1660478515625000e+03"/>
          <Range Index="11" Min="3.2645820617675781e+01" Max="1.4022119140625000e+03"/>
          <Range Index="12" Min="3.7277297973632812e+01" Max="1.4022119140625000e+03"/>
          <Range Index="13" Min="3.2645820617675781e+01" Max="7.6324066162109375e+02"/>
          <Range Index="14" Min="3.0308933258056641e+01" Max="4.7612939453125000e+02"/>
          <Range Index="15" Min="3.0009664535522461e+01" Max="3.0151852416992188e+02"/>
          <Range Index="16" Min="4.9253560602664948e-02" Max="9.9940443038940430e-01"/>
          <Range Index="17" Min="4.1913960129022598e-02" Max="9.9962580204010010e-01"/>
          <Range Index="18" Min="4.7105308622121811e-02" Max="9.9961620569229126e-01"/>
          <Range Index="19" Min="4.7423224896192551e-02" Max="9.9960619211196899e-01"/>
          <Range Index="20" Min="3.2952597141265869e+00" Max="5.5903253173828125e+02"/>
          <Range Index="21" Min="5.3245201110839844e+00" Max="5.5903253173828125e+02"/>
          <Range Index="22" Min="0.0000000000000000e+00" Max="8.8553001403808594e+01"/>
          <Range Index="23" Min="0.0000000000000000e+00" Max="1.7775418090820312e+02"/>
          <Range Index="24" Min="-2.6769259643554688e+02" Max="6.7875122070312500e+02"/>
          <Range Index="25" Min="1.5035884380340576e+00" Max="6.7875122070312500e+02"/>
          <Range Index="26" Min="0.0000000000000000e+00" Max="1.3807185363769531e+02"/>
          <Range Index="27" Min="0.0000000000000000e+00" Max="8.8089263916015625e+02"/>
        </Ranges>
      </Class>
      <Class ClassIndex="2">
        <Ranges>
          <Range Index="0" Min="4.0000000000000000e+00" Max="1.3000000000000000e+01"/>
          <Range Index="1" Min="3.0000000000000000e+00" Max="6.0000000000000000e+00"/>
          <Range Index="2" Min="1.0000000000000000e+00" Max="8.0000000000000000e+00"/>
          <Range Index="3" Min="3.4850195050239563e-02" Max="3.6907870483398438e+02"/>
          <Range Index="4" Min="-3.1414015293121338e+00" Max="3.1415357589721680e+00"/>
          <Range Index="5" Min="3.3248636126518250e-01" Max="6.7112042236328125e+02"/>
          <Range Index="6" Min="3.8872841000556946e-01" Max="3.4809093475341797e+00"/>
          <Range Index="7" Min="2.8967857360839844e-05" Max="3.1344740390777588e+00"/>
          <Range Index="8" Min="2.3916363716125488e-05" Max="6.2729377746582031e+00"/>
          <Range Index="9" Min="1.8381391525268555e+01" Max="1.2182363281250000e+03"/>
          <Range Index="10" Min="3.0317634582519531e+01" Max="1.4008906250000000e+03"/>
          <Range Index="11" Min="3.1279273986816406e+01" Max="1.4022119140625000e+03"/>
          <Range Index="12" Min="3.3708133697509766e+01" Max="1.4022119140625000e+03"/>
          <Range Index="13" Min="3.1190485000610352e+01" Max="1.1497229003906250e+03"/>
          <Range Index="14" Min="3.0182687759399414e+01" Max="4.7612939453125000e+02"/>
          <Range Index="15" Min="3.0001771926879883e+01" Max="3.0151852416992188e+02"/>
          <Range Index="16" Min="4.4339355081319809e-02" Max="9.9961191415786743e-01"/>
          <Range Index="17" Min="4.0826525539159775e-02" Max="9.9962580204010010e-01"/>
          <Range Index="18" Min="4.7105308622121811e-02" Max="9.9961620569229126e-01"/>
          <Range Index="19" Min="4.7096937894821167e-02" Max="9.9960619211196899e-01"/>
          <Range Index="20" Min="-2.4594379425048828e+01" Max="5.5903253173828125e+02"/>
          <Range Index="21" Min="5.3245201110839844e+00" Max="5.5903253173828125e+02"/>
          <Range Index="22" Min="0.0000000000000000e+00" Max="9.5766845703125000e+01"/>
          <Range Index="23" Min="0.0000000000000000e+00" Max="1.7775418090820312e+02"/>
          <Range Index="24" Min="-2.6769259643554688e+02" Max="6.7875122070312500e+02"/>
          <Range Index="25" Min="1.5035884380340576e+00" Max="6.7875122070312500e+02"/>
          <Range Index="26" Min="0.0000000000000000e+00" Max="1.3808929443359375e+02"/>
          <Range Index="27" Min="0.0000000000000000e+00" Max="1.5016304931640625e+03"/>
        </Ranges>
      </Class>
    </Transform>
  </Transformations>
  <MVAPdfs/>
  <Weights>
    <Layout NLayers="3">
      <Layer Index="0" NNeurons="29">
        <Neuron NSynapses="33">
          5.1727141026854906e-01 4.0371287311687570e-01 3.4058561228353074e-01 4.4390055150354346e+00 -5.3439813704363015e+00 -3.3604392607605842e+00 -1.0250479281823104e+00 7.3090612218150164e-01 -9.7263729844288405e-01 -3.5189149200877385e+00 -1.3097459999950978e+00 -3.6741373922930115e-01 -9.9008843957019410e-01 -6.9481363226160331e-01 4.4034610929745824e-02 -4.0180367946707857e-01 -3.0685408976858702e-01 6.1798560257793622e-01 1.8682292508920868e+00 1.0642941412642626e+00 9.4065230451068493e-01 2.9833090394668154e+00 3.1923031289186721e+00 -1.0500933057157082e+01 -5.5119894815386028e-01 1.6899281829864632e+00 2.6199085457131837e+00 -7.0623955854214238e-01 -1.8988184712605019e+00 5.5993044256571989e-01 2.5715939559828813e+00 8.0319409266135267e-01 -1.0237772197341775e+00 
        </Neuron>
        <Neuron NSynapses="33">
          -2.1430391425713800e+00 5.9352136800289501e-01 1.0031710861984893e+00 -2.1678783035643696e+00 3.1396132256215639e+00 -5.1782913615363535e-01 -7.7986332736873154e-01 1.7035572777808447e-01 4.6375780444612069e-01 3.0549294716313549e+00 1.4354431440467876e+00 -3.2244842005842602e+00 -1.4674447960624373e+00 2.2230819446635159e+00 7.7904007670489088e+00 3.8969252029394837e-02 8.7840119657341609e-01 2.0772777896715588e+00 1.0883500558864932e-01 -3.2716031855892882e+00 -3.6152142403222687e-01 -1.7279195073907059e+00 -6.3339424566348512e-01 1.7486975911132230e-01 1.5110848389699063e+00 2.6382430290111993e+00 3.1129658135705793e+00 -1.5501497166049174e+00 -1.1572507012457103e+00 1.1277111028887066e+00 1.7076132934350663e+00 3.3020098651140692e+00 1.3557401992400124e+00 
        </Neuron>
        <Neuron NSynapses="33">
          1.1793605986156095e+00 -1.4542798105258907e+00 2.4222954447424914e+00 -1.9219619853513981e-01 -4.5796668663331763e+00 -2.9564719716081069e+00 7.8145797380687465e-01 4.2556471621798869e-01 2.8895907436594417e+00 -1.1880658299881948e+00 -1.6110596612417283e+00 -3.5459410100355888e+00 6.3086104961680045e-01 8.7704136024842538e-01 -6.0137098336996826e-02 -1.4794151083044060e-01 1.2568473150334045e+00 -2.1802376545708807e-01 1.4695332631249864e+00 -5.8432871670274200e-01 1.4219530901384350e+00 5.7798893274321006e-01 -3.6848012482468109e+00 6.3517930146785107e-01 -3.7014302607047017e-01 1.2255149534823673e+00 2.7464841033853431e+00 -1.1909605152599334e-01 -1.6553394996302275e+00 2.1072719870358320e-01 -2.8152887134306788e+00 -3.3085714846162255e+00 -1.5175090909375308e-01 
        </Neuron>
        <Neuron NSynapses="33">
          -4.5378682689880800e-01 -1.6452927315004411e+00 -1.5461442006503290e+00 5.6539372055776116e-01 7.0413998314989024e-01 6.9746986530563126e-01 1.8884903025716810e+00 -1.1036443673467067e+00 1.0742328501989672e-01 -1.9302166219003092e+00 2.7726982176914876e+00 -1.7045126216193578e+00 -8.2048553572965610e-01 3.2841404348245806e-01 2.7734845135507297e-01 -6.9718710694986841e-01 2.5744613830267169e+00 -3.5292706792500761e-01 1.3780898602087956e+00 9.7872912978255644e-01 -2.7732447859986085e+00 -2.5491423034233756e+00 -2.0001563310717669e+00 -5.2006676767886340e-01 -2.1133515281632673e-01 3.5098823987825138e+00 2.0577194145057391e+00 -7.3241720185539272e-01 3.8125422914448531e-01 8.8838509544813582e-01 -1.1143447437358711e+00 -9.6510395672294969e-01 -3.7431696592437267e+00 
        </Neuron>
        <Neuron NSynapses="33">
          1.4459238919864223e+00 -2.4539059009887565e-02 1.3739833145036398e+00 -7.1994756921089742e-01 1.6975315643585398e+00 -1.4570707555923557e+00 4.7091282196478557e-01 3.0928460195570766e+00 3.9800969441700040e-01 -4.7669295457920807e-01 -1.3614122618766205e+00 4.8027946031643465e-01 -5.5471728161902900e-01 1.1385550647729590e+00 1.9048251115419312e-01 -2.3014805507485940e+00 7.1090421803592219e-01 -3.5884411044218345e-01 -8.4570331843191945e-02 1.4408121896095610e-01 3.5672459572868092e+00 -2.7716553029015016e+00 -3.2257713155862683e-01 2.9278854653759390e-01 2.0559252796063690e-01 2.4220786491529012e-01 1.0053781316024479e+00 -1.8462276010236185e+00 2.3898416846970485e+00 2.9832073284259443e-02 -1.3745975344029795e-01 -9.1501865583244135e-01 -3.9072158059859441e-01 
        </Neuron>
        <Neuron NSynapses="33">
          -2.6628427581337966e-01 -2.3915391491913680e+00 7.2417191631221423e-01 -1.4562540697028656e+00 1.2804139662162004e+00 2.5902584714062780e+00 -2.6190659622102314e-01 9.3362235106285341e-01 1.9721133178074939e+00 1.0728820151727982e+00 -1.2803427949857435e+00 9.4411261597539975e-01 1.4928524408290678e-01 3.7504846421851177e+00 2.6023457390401964e-02 -3.2798486101332900e+00 -2.7821510919820758e-01 1.7316978246974224e+00 -3.0925706225961633e+00 -4.0387442960310267e+00 -1.0112298356645320e+00 3.1520075624650162e-01 5.6850219411338754e-01 -1.6728756125257818e-01 7.9751461794416578e-01 2.2323988708129430e+00 7.0031303745049767e-01 1.4394931100891613e+00 1.4106042600890141e+00 2.4968644680620175e-01 1.2664179192625273e+00 -2.8339548315718677e+00 5.8053050037904996e-01 
        </Neuron>
        <Neuron NSynapses="33">
          1.6693087789441370e+00 -1.2771717174888746e+00 2.5306730444924408e-01 -8.2966858108901487e-01 1.7720475136295855e+00 -3.0115565342111916e-01 9.2413890023644057e-02 4.4157123103903351e-02 -1.1932782227496217e+00 -1.2985189972526234e+00 1.4469581689684003e+00 1.0914946869722740e-01 1.0492470511400216e+00 -3.2309299798965356e+00 -1.1143375768974897e+00 -2.0578167337354811e+00 3.7181914822780997e+00 2.0950170737452716e+00 -2.3406714847017263e+00 -3.3961053078933841e+00 2.7011759467205438e+00 -1.6373211940895547e+00 -2.3574290331384042e+00 -1.5874162037772391e-01 -2.3223832657227330e+00 3.6627035329502222e+00 1.5424231671135178e+00 -2.2076925335506759e+00 1.5084308069377275e+00 -6.9552340866684859e-01 -3.6347029097863204e+00 -3.7659953361348557e+00 2.3366348029697646e+00 
        </Neuron>
        <Neuron NSynapses="33">
          1.1234487869302485e+00 3.4189994164304438e-01 -2.3114044059655887e+00 1.3737240833322208e+00 -7.2013809294421627e-01 1.2098531814523898e+00 3.4404082276671011e-01 -4.5886255637846834e-01 2.1969832723206135e+00 -8.0429073173242516e-01 1.4161808319887679e+00 -1.0195073934403627e+00 -5.3959871322569686e-01 -9.5262498431759346e-01 -4.4208331323781005e-02 -9.9173546319463979e-01 1.7471728987356234e+00 3.4889450907971744e+00 -1.4621015518243117e+00 1.8943136968517840e-01 -9.9043632377859403e-01 7.1516251408581055e-01 1.4363656456575549e+00 5.3524234558946682e-01 -3.6703472532417930e-01 -2.2019629002074050e+00 -6.2278062386347299e-01 1.6734972724331008e+00 -1.2932040924640871e+00 -6.9418161329606431e-01 8.1621708316959807e-01 2.5890457241897464e+00 1.0906239964206177e+00 
        </Neuron>
        <Neuron NSynapses="33">
          1.1937798706180458e+00 -9.6017410201213005e-01 -2.1713163929834622e+00 3.8331307251355327e+00 6.5411297366784016e-01 -1.0590249871317783e+00 -2.7567327894696709e+00 1.9580506729867841e-02 2.3452230640206047e+00 -1.0515364883378620e+00 -1.0584625266148688e+00 -1.5467390685837043e-01 -9.0692803574341530e-01 7.3937261490375306e-01 -1.4005516446241789e-02 4.0894916429185785e-01 4.8312903508446048e-01 -1.8613026278093264e-01 3.3096905344339872e-03 -1.1650941947980447e+00 -3.6703877577155919e+00 -1.5986393348857273e+00 -2.7383979648833390e+00 -2.1565725464359511e-01 -1.8863143385132723e-02 5.4938817750048374e-01 -2.6706898666259393e+00 1.6444589261342004e+00 -8.8556402543894774e-01 -3.1400773635100881e-01 3.2488235725514875e-01 -2.3045487188745897e+00 9.1151810576944958e-01 
        </Neuron>
        <Neuron NSynapses="33">
          3.2421774699615302e-01 -2.8414536699891304e+00 -2.5549591593092904e+00 -1.1112198160490354e+00 -1.2387210138759586e+00 2.0306082289698106e+00 2.4178798794104037e-01 -1.0832892557067761e+00 -3.3716421283019704e+00 -1.9244420599298662e+00 -5.3989970902912026e+00 1.5498169613590900e+00 -5.2358493885776576e-02 1.2072200684020038e+00 -1.4814563103233072e+01 -5.6253962560995074e-01 1.3072505779841035e+00 2.9558767437792297e+00 -4.7037043948962420e+00 -8.7544098475413024e-01 -5.2558613493846018e-01 4.4443872744959456e-01 1.8630723834221732e+00 -5.5814918317440587e-01 -1.1938496685725070e+01 -9.7376096858429198e-02 -4.3356762914566440e+00 1.3428545276613499e+00 1.6982415851740711e+00 3.5432765695014594e+00 2.5266879173216137e+00 -1.0253690972550458e+00 1.1174239448663570e+00 
        </Neuron>
        <Neuron NSynapses="33">
          -3.0306255701946512e+00 -1.6686944408599800e+00 -3.7443124312725979e+00 1.7756773750047923e+00 -5.7219397539155836e-02 2.1419747950541268e+00 8.8308594311366073e-01 4.0216923301384960e-01 -1.6554290404390470e+00 -8.3337630791851003e-01 -4.0834038949344942e+00 2.9953953859092430e+00 3.3136819840412750e+00 3.6829780966016668e-01 -2.2069894699747925e+00 1.9128365460001245e-01 -3.2730392233873035e-01 1.1492698071367056e+00 3.3605957229269436e+00 -1.9154820499458958e+00 3.2311218222299516e+00 2.9482471296648880e+00 3.2360582442366925e-01 2.9705128222113930e+00 -1.5900889394452635e+00 -1.2577007660362598e+00 -2.6516542299973183e+00 1.4315877825823673e+00 -1.2698661250867644e+00 -3.6284050558415242e+00 1.7523531978978768e+00 3.1296070190127923e+00 -8.6982744755737629e-01 
        </Neuron>
        <Neuron NSynapses="33">
          -1.6803312150290319e+00 1.2530256824665575e+00 -1.3997806730512823e+00 -1.5947959216933536e+00 -9.5013502233082692e-01 -2.0535772416630733e+00 2.3996868422439840e-01 1.2663226021517024e+00 -4.3015223954170700e-01 -1.0781816835956351e-01 1.7728164514748317e+00 1.0988190787149805e+00 6.8260127517960900e-01 -2.8237570320666792e+00 3.1411805870662785e-01 -3.9848408106179262e-01 1.8019979198839369e+00 -9.0538187874068099e-01 -2.4129571680628876e+00 -8.1423988220125076e-01 7.0044133108571083e-01 2.0471829556052348e+00 1.8439497606572393e+00 -1.0874813719982930e+00 2.7740130032741015e+00 2.3241406311555113e+00 -4.9318634531586725e-01 1.5971166556251113e+00 -1.0356322572523609e-01 3.3618645612496518e+00 3.0783936111337462e-01 -2.0880063876760047e+00 1.4162670526217038e+00 
        </Neuron>
        <Neuron NSynapses="33">
          2.7936177873183801e+00 2.8041087178774640e+00 9.5187088564336708e-01 -6.2307004947675819e-02 1.2879342464372308e+00 9.0517310675125862e-02 9.1173275793480912e-01 8.8905424303795888e-01 1.3018833958456968e+00 -1.8378859151092455e+00 2.2257425681607041e+00 9.3163920174640036e-01 -1.7426269832255112e+00 -2.0800085912967394e+00 2.2759926255809085e-01 -2.5006148221650171e+00 1.8933823433182901e+00 -2.0869994621948038e+00 -8.8103590151505584e-01 1.9252971887467241e+00 1.3617302548232537e+00 1.7995474654985821e+00 2.5528839343413803e+00 1.9217319089919387e+00 -8.1478974863168729e-01 4.1346835858771125e-01 4.4143988313491382e+00 -1.3386715791046742e+00 -2.3285270818937889e+00 7.0691701155192899e+00 -6.9796978086762318e-01 -2.7964249047675231e+00 -1.2137488276713537e+00 
        </Neuron>
        <Neuron NSynapses="33">
          4.7011070091039642e-01 -1.1664448596958548e+00 -1.0086134200247292e+00 -5.5448365218888074e-01 -6.8089831745215079e-01 1.2585127602825981e+00 3.8664061068787823e+00 2.4868434122588403e+00 -1.0242436015698175e+00 -2.2198218289505887e+00 -1.3029397290023541e+00 -3.6173836279095881e+00 -2.3253726381010149e+00 -1.4545039304684324e+00 -9.6610030254462381e-02 -1.1320923324818415e+00 1.5942533132832986e+00 2.2843604660333807e+00 -6.7586403154573454e-02 -7.6885904048766707e-01 -9.8801827924767172e-01 2.0746576341474539e+00 -1.6633579176871427e-01 5.5203400131822267e-01 1.8269696628936321e+00 9.2026558991365470e-01 -1.7827257594395962e+00 8.2905924921010776e-01 -3.0936687986214428e+00 2.6844991851775339e+00 9.4313001534100183e-01 -1.3389246613660375e+00 3.8514250264785360e-02 
        </Neuron>
        <Neuron NSynapses="33">
          1.3435702111607521e+00 -3.7340574420341057e+00 9.8606247900980726e-01 -2.9951477804460578e+00 -8.3854239898500382e-01 -4.1038789166373951e-01 7.0562948154248839e-01 3.8336468543934483e+00 -7.6915943263334896e-01 -2.7215598271489694e+00 -3.9200629627913615e+00 3.3031482289998433e+00 -4.8974762147169143e-01 -4.6029310622928588e+00 1.8665094865021764e-01 -7.7322684293819854e-01 1.4316006994769095e+00 8.1797547413918092e-02 -3.5616209681843236e-01 -1.3836178796908283e-01 2.0726453852403965e+00 1.5616798741906956e-01 3.1881770687080500e+00 7.7431126155817409e-01 -6.7216100191798869e-02 -1.2657915141599638e+00 1.1386265683172010e+00 1.5484348729536825e+00 -6.2570260677449918e-01 8.0033076043640727e-01 1.6200107699964764e-01 -1.4807175141535365e+00 3.8713206991121391e-01 
        </Neuron>
        <Neuron NSynapses="33">
          5.3158938547601486e-01 4.6232121552256888e-01 -5.3931256856560761e-01 -2.7354388376611638e+00 1.9603330313148331e+00 -1.2709388827214796e+00 1.7377710573750762e+00 1.3334383251993549e+00 -2.2803137792431680e-01 -4.9768046751053102e-01 -2.3335106945446964e+00 2.6692973850134933e+00 -2.1922602407929515e+00 -2.0039765707752530e+00 -1.0263433648716880e+00 3.2849072226832345e+00 -2.1711665372115627e+00 -1.8236171483991057e+00 -1.5437722710057189e+00 1.5523628120447552e+00 -7.0362765716808151e-01 2.4701587305293238e-01 -1.9940988384992045e-01 -2.8326869588006063e+00 -1.3870507037574886e-01 6.0623508853306385e-01 2.3925289457099170e+00 2.3965005526613745e+00 -5.2550941352166824e-01 1.6252050629672758e+00 2.3713309908657627e+00 1.6832990289561804e+00 3.0691783324155124e+00 
        </Neuron>
        <Neuron NSynapses="33">
          4.7275301929425568e+00 -1.8076053343060812e+00 1.2080192795539977e+00 1.7759497406087793e-01 -2.8713787795111436e+00 -4.6984249926343996e-01 -3.4654343853163794e-01 -2.7615787696737915e-01 -5.4285401824556567e-01 -5.8266538182176764e-01 -1.1873736856441703e+00 -2.8874081586542089e-01 -3.3548204221381211e-01 -1.7843454189086727e+00 3.5094431465419612e-01 -2.9339760783718023e+00 2.1534480569503162e-01 6.9543799620485303e-01 -2.5210071748325515e+00 -1.0413491695215176e+00 2.0187569707032957e+00 1.3495359094383248e-02 5.0778973190060839e-01 -4.3133990715592796e-01 -2.3805490294019652e-01 -2.5180222670408066e+00 -2.3438867193467314e+00 2.6055703499419734e-02 8.2859113954476515e-01 -3.0778780969169981e+00 2.5462322078105766e+00 -1.0167950716573833e+00 -4.4469963344234603e-01 
        </Neuron>
        <Neuron NSynapses="33">
          5.4856415432030063e+00 1.0087379807972650e+00 1.3735946066378084e+00 5.3446176940717982e-01 -1.7542755144930902e-01 -1.8711449202928940e-01 -1.6699637657803772e+00 -1.7127277244479393e+00 -1.1769040876640642e+00 -7.3277865594347824e-01 -6.1218002354595034e-02 6.6035462490280461e-01 1.1199301799074233e+00 -1.3263950404653446e+00 5.3172845731180751e-02 8.1132638237294707e-01 -8.5706994869833775e-01 1.4761318780479873e+00 -1.0290950288379102e+00 -6.9095435152731588e-01 -1.2046476709896830e+00 4.9092615272372947e-01 -1.2763171410296972e+00 -2.8130554210090147e-01 -4.2866892970293113e-02 -1.2365845921032597e+00 -4.4647285140155080e-01 9.3863655952727013e-02 8.9901066439694455e-01 -8.1377983272155174e-01 7.1561223685801822e-01 -8.9743450000832128e-02 1.0874382294792935e+00 
        </Neuron>
        <Neuron NSynapses="33">
          -1.1491510132937723e+00 7.5433932880214702e-02 3.4545723825601722e+00 -6.2298440788195475e-01 8.6273935405043356e-02 -3.4131697579532699e-01 1.9857052015005543e+00 1.7449193363348379e+00 3.8202519899500374e-02 -4.1062925966087455e-01 3.9378103217141164e-01 1.7141516835438613e+00 4.3477697458560192e+00 -4.1187795507469510e-02 -3.1737151603038791e-02 1.4962112178080729e+00 -2.1664855349770780e+00 9.5884659899315094e-01 -6.3209445458021196e-01 -2.5040769432216409e-01 -1.7500074814799020e+00 1.1709876418484451e-01 -1.0466517394542114e+00 6.1859025207188789e-01 -2.6493239101405990e-02 -9.6751001679947823e-01 4.7941023603484306e-01 4.5340673305725776e+00 9.7484949755696104e-01 -1.2242373882476050e-02 -5.2397922673054975e-01 -3.3634353705808978e-01 -3.3144785008889395e+00 
        </Neuron>
        <Neuron NSynapses="33">
          2.0634426457157909e-01 1.7695372528298745e-01 6.9371519955629946e-01 -2.4970222331788319e-01 -9.0876753155200676e-02 -2.3469808119033869e-01 -2.6672854919649081e+00 -2.1187022776315327e+00 1.3715239598447351e-01 -8.1666897237868588e-02 1.2887295588773476e-01 4.9366755325637623e-01 4.8124089105144502e-01 3.5746208910367372e-01 -1.0782577411354412e-01 7.9128263990797310e-01 9.8143209864363412e-01 -4.4938997731563743e+00 -1.3945021694768772e-01 -3.8346388545336652e+00 3.3661935246565106e-01 5.6473122037131218e-01 2.8618468018903944e+00 1.1024348812184463e-01 -1.8917158334199108e-01 -9.5800874314826667e-01 1.7385755675887857e-01 7.9991854139456364e-01 -1.7209123206365914e-01 -5.9807456745583430e-02 -7.3949572312433276e-01 6.4108761430863448e-01 -1.4404908807174588e+00 
        </Neuron>
        <Neuron NSynapses="33">
          -1.9299517835311450e+00 3.6849405242034430e+00 5.1238951064073446e-01 -1.5701812686085261e+00 -6.6205958999375136e-01 -2.1699207779856913e+00 4.9689611218726770e-01 1.0411286915603286e+00 1.5685118082462546e+00 1.4111828972164304e+00 -1.7571923447508853e+00 -6.6162954522960615e-01 -1.5031520328501535e+00 3.5557341033484774e-01 1.9413823727943893e+00 -2.4433540802221367e+00 8.2267608215953569e-01 9.8055049425795238e-02 -1.2914667523562906e+00 -7.5705428016092902e-01 1.8032204934731733e+00 2.3884071103511342e-01 1.8573932948414782e+00 1.5015411993476144e-01 1.1611818030710397e+00 4.2470323235618640e-01 1.6753818281474958e-01 -2.1829644561547923e+00 -8.4342268735487991e-01 -2.1151194904599460e+00 1.0623718710815206e+00 9.2313605017656086e-01 -8.9136742043750619e-03 
        </Neuron>
        <Neuron NSynapses="33">
          7.2133545125125476e-01 1.6219205888548034e+00 -7.6882416952727850e-01 1.3397905956176428e+00 1.7476675175847367e+00 -1.9610503929487626e+00 3.9369956124324551e-01 5.4220016393547987e-01 1.8913006815298723e+00 1.2570829390360054e+00 -2.8444487234410937e-01 -5.6734073866487533e-01 -1.4493069203451896e+00 -8.9446450124926663e-02 -8.8923529632587084e-01 -1.9893476838014618e-01 9.2148107953047079e-02 -1.5756473069295390e-01 -6.7535085569157299e-02 1.6415068498202581e+00 5.2213032163246265e-01 -6.2567608824550836e-01 4.8386536539951086e-01 2.1710319544451173e+00 -6.5841893089926928e-01 1.9787952679099419e+00 -9.0682864244622108e-01 -1.7828737053904753e+00 2.9957248710851170e+00 -2.7453958691847675e+00 -3.8325790916582064e-01 2.1006236856034604e+00 -6.9000312415862186e-01 
        </Neuron>
        <Neuron NSynapses="33">
          5.2271093408774705e-01 -3.3066148415586405e-01 1.8486506292930913e+00 2.1552567985669016e+00 1.2241866749892014e+00 1.0792243146226128e-01 1.3665230324267976e+00 1.8668360037296927e+00 -9.4475124363468267e-03 2.4980038763152271e-01 -1.8306509301284541e+00 3.9211883448620721e+00 -2.3256563467214286e-01 5.8918616057282303e-01 -3.1841550124411229e+00 1.8763233107701305e+00 -2.1008662007114198e+00 -9.1843503162509676e-01 -1.5001744838368216e-02 1.0915793046546638e+00 2.4103490029168610e+00 1.7643848497573636e-01 -1.6583982511156703e+00 5.6207353569162399e-01 -9.6750828458236438e-01 1.7417852903638906e+00 1.1330856758490606e+00 2.1489550972588804e-02 1.6192914581231588e+00 -4.8932860559883086e-02 -4.0826707361296766e-01 4.9274141312855269e-01 -1.2826139191152452e+00 
        </Neuron>
        <Neuron NSynapses="33">
          1.7058433362732550e-01 6.4058922606571522e-01 -4.1887735190562859e-02 -5.4582647406332596e-01 -1.4168375861402818e+00 3.3792763003714712e+00 -1.0905346691539013e+00 -1.0375810199219568e+00 1.1773625838891411e+00 -1.8189314647556951e+00 -5.0501320447920692e+00 -2.8769886802172873e+00 1.6943884125912458e+00 -5.5296343063468634e-01 3.1127333513718622e+00 8.6446467001862620e-03 -1.3347080413908528e+00 -2.9799824951045846e+00 7.9037825042971044e-01 8.8208837857952957e-02 2.2717970156494952e-01 -1.9256683427349603e+00 7.5346583806655532e-01 -7.0731853792098598e-01 -6.0002150333524327e+00 -1.6181824510844164e-01 4.4125326838027599e+00 -2.6039535142975812e+00 2.1099391059714301e-01 5.5132590773137891e-01 -3.0885123822277443e+00 1.8380490151334901e+00 -1.3759963807195548e+00 
        </Neuron>
        <Neuron NSynapses="33">
          -5.4572664081577082e-01 -1.9053607447713630e+00 1.7617753625730306e+00 -8.4064384113900459e-01 1.0242653810189906e+00 1.5024009117664179e+00 7.3821799156971818e-02 -7.3862401089206675e-01 1.4715891453633037e+00 1.9508778017383579e+00 4.9046053933624995e-01 4.9928652760126563e-01 -1.3241748806976976e+00 -1.2116497340966643e+00 -1.5281798072558512e+00 -8.4506610597532217e-01 -8.0324674260851950e-02 7.0044100874208037e-01 4.6331797982940498e-01 1.9072711519237684e+00 -8.7973600496474291e-01 -2.7852017926018580e-01 -6.3385056092397618e-01 7.3934275483379130e-01 1.0038726923136934e-01 -1.5346926368816743e-01 -1.9205392752186645e+00 5.0186548176415913e-01 -1.1708338245597205e+00 2.2571734126467242e-02 1.1146111354781787e+00 -1.5567984034595046e+00 1.1587371834060181e+00 
        </Neuron>
        <Neuron NSynapses="33">
          -9.9105683781164433e-01 1.0869863038300294e+00 4.7809899720056220e-01 -1.3121852790177322e+00 9.5421225413313659e-01 -1.6490524287709494e+00 1.8191346023973416e+00 2.2453989107175265e+00 1.8023058240135725e+00 -1.0527547188198818e+00 2.1101924527766251e+00 1.1657398244601911e+00 1.3925949162803621e+00 -2.0187649585027141e+00 -1.0014999101526814e+00 -7.7891904366160480e-01 7.2369706275695356e-01 6.6114718581310530e-02 -2.1878663114522383e+00 -8.9949987674900633e-01 -4.8633130047441864e-01 -1.2840891089130340e+00 -5.0679949378602396e-01 3.4616940631292897e-01 -8.0068923424826433e-01 -1.4662225044644241e+00 3.3987158332027417e-01 -3.7948045331429570e+00 1.6256473530483626e+00 4.8328892372055988e-02 6.7615046566170822e-01 -7.8959310301216967e-01 5.7754988353574788e-01 
        </Neuron>
        <Neuron NSynapses="33">
          5.7930702744306317e-01 -6.1524686375927051e-01 -1.7533418382869992e-01 3.2155968822167593e+00 -4.4882771543198907e-01 5.4180288071829652e-01 1.0965421658867200e+00 -9.4279530221109842e-01 1.9391698110189064e+00 -2.9855385129012744e+00 7.0162571688705988e-01 4.0629421931895253e+00 5.2265711630312484e-01 3.9832855287078961e+00 -6.7112057503143618e-01 1.2473690610525277e+00 -3.0879626793496024e+00 7.0638906097720544e-01 6.5811362706267074e-01 -5.2437426840523624e+00 -1.0797956627503911e+00 3.2305983543378827e+00 1.8670402301413953e+00 1.5113887790535671e-01 -2.2260159724013362e-01 -5.4634497998042808e-01 9.5443176898083321e-02 -2.2140757114653504e+00 -2.2931883150585608e+00 1.1898414545993035e+00 2.3874120933507497e+00 1.9025436898942494e+00 4.6031267415568516e-01 
        </Neuron>
        <Neuron NSynapses="33">
          1.1336167480625963e+00 4.6789577023823616e+00 -3.4222515775480078e-01 2.1169596309650980e+00 -1.1604634514571008e+00 -1.4860170515951374e+00 -8.8540326887375131e-01 -1.1205797740121008e+00 1.3936185026464603e+00 -1.1928739695740966e+00 1.2610104168255338e+00 -9.5000029391351237e-01 7.5484579427662724e-01 2.1021496775052344e+00 7.0049294025667610e+00 1.4235759845631888e+00 9.3946360718968136e-01 1.2539233010927515e+00 2.3559400720388704e-01 -3.6612304231891635e+00 -9.1508711017612521e-01 1.8566376313681456e+00 2.2864927675719260e+00 -6.4302092923293452e-01 -6.6768043557906651e-02 -5.0896159081378234e-01 3.9502596673247309e-01 -2.7941114447731126e+00 -5.1147010432263973e-01 -8.7982058140103430e+00 1.9700782044967573e+00 1.4779064879298873e+00 1.7149594091098932e+00 
        </Neuron>
        <Neuron NSynapses="33">
          -8.1559451877208011e-01 4.7732901046280790e-01 -6.7390255915956976e-01 2.7251150753906039e-01 2.3051359787735386e+00 5.9347164763258098e-01 -1.4218999510022829e+00 -1.3059682784920874e+00 2.4343226173950736e+00 1.0065693644991076e+00 -2.4781087528733363e+00 1.3245321661912350e+00 4.9788528156894264e-03 -5.5730865790818329e-01 -2.5746830444583741e+00 1.5971472253464873e+00 2.0693833420498526e+00 -2.0560815033385094e+00 -3.5589598667635527e+00 1.7291592193612801e+00 -7.9559039110759133e-01 -1.1759842919404102e+00 -5.7573549990633366e-01 -6.0349116406574748e+00 -7.4623919784179760e-01 7.2126722814434241e-01 4.4225038888326057e-01 2.3804626297839360e-01 1.4718158924584732e+00 9.2136890701043637e+00 1.0904923030961788e+00 -2.8855716599071612e-01 -2.3898807955248649e+00 
        </Neuron>
      </Layer>
      <Layer Index="1" NNeurons="34">
        <Neuron NSynapses="1">
          3.9829153086015073e-01 
        </Neuron>
        <Neuron NSynapses="1">
          -4.8111549933266928e-01 
        </Neuron>
        <Neuron NSynapses="1">
          -3.2571349995586640e+00 
        </Neuron>
        <Neuron NSynapses="1">
          4.2242903766500628e-01 
        </Neuron>
        <Neuron NSynapses="1">
          3.7022923452949069e-01 
        </Neuron>
        <Neuron NSynapses="1">
          6.8342530204189833e-01 
        </Neuron>
        <Neuron NSynapses="1">
          2.8309249508922623e+00 
        </Neuron>
        <Neuron NSynapses="1">
          -3.5941432861283351e+00 
        </Neuron>
        <Neuron NSynapses="1">
          -5.0577470615284270e-01 
        </Neuron>
        <Neuron NSynapses="1">
          3.7277795585567528e+00 
        </Neuron>
        <Neuron NSynapses="1">
          4.3839557056593842e-01 
        </Neuron>
        <Neuron NSynapses="1">
          6.2043393770392752e-01 
        </Neuron>
        <Neuron NSynapses="1">
          7.0299901666244990e-01 
        </Neuron>
        <Neuron NSynapses="1">
          3.8541323219068008e-01 
        </Neuron>
        <Neuron NSynapses="1">
          -9.9399178929381649e-01 
        </Neuron>
        <Neuron NSynapses="1">
          -1.7721071971710105e+00 
        </Neuron>
        <Neuron NSynapses="1">
          -1.5956335238477033e+00 
        </Neuron>
        <Neuron NSynapses="1">
          -1.4663948869719354e+00 
        </Neuron>
        <Neuron NSynapses="1">
          7.6388966177809259e-01 
        </Neuron>
        <Neuron NSynapses="1">
          1.4692495347717200e+00 
        </Neuron>
        <Neuron NSynapses="1">
          2.6645620290535965e-01 
        </Neuron>
        <Neuron NSynapses="1">
          -2.2561908890403548e+00 
        </Neuron>
        <Neuron NSynapses="1">
          2.1287763385626111e+00 
        </Neuron>
        <Neuron NSynapses="1">
          5.3681082557661730e-01 
        </Neuron>
        <Neuron NSynapses="1">
          1.1496454478291822e+00 
        </Neuron>
        <Neuron NSynapses="1">
          4.0105546561797887e+00 
        </Neuron>
        <Neuron NSynapses="1">
          -3.8097034387272871e-01 
        </Neuron>
        <Neuron NSynapses="1">
          3.3210773452833131e-01 
        </Neuron>
        <Neuron NSynapses="1">
          -3.4311038009424335e+00 
        </Neuron>
        <Neuron NSynapses="1">
          -1.1760665617314137e+00 
        </Neuron>
        <Neuron NSynapses="1">
          2.5249599624195875e+00 
        </Neuron>
        <Neuron NSynapses="1">
          4.2879851805910452e-01 
        </Neuron>
        <Neuron NSynapses="1">
          -2.9973645124781112e+00 
        </Neuron>
        <Neuron NSynapses="1">
          8.3693313540813086e-01 
        </Neuron>
      </Layer>
      <Layer Index="2" NNeurons="1">
        <Neuron NSynapses="0"/>
      </Layer>
    </Layout>
  </Weights>
</MethodSetup>
