<?xml version="1.0"?>
<MethodSetup Method="DNN::DNN">
  <GeneralInfo>
    <Info name="TMVA Release" value="4.2.1 [262657]"/>
    <Info name="ROOT Release" value="6.08/02 [395266]"/>
    <Info name="Creator" value="minerva1993"/>
    <Info name="Date" value="Thu May 25 01:23:10 2017"/>
    <Info name="Host" value="Linux htop.hanyang.ac.kr 2.6.32-696.el6.centos.plus.x86_64 #1 SMP Mon Apr 3 14:56:08 UTC 2017 x86_64 x86_64 x86_64 GNU/Linux"/>
    <Info name="Dir" value="/home/minerva1993/fcnc/tmva/v2/mkNtuple_v2"/>
    <Info name="Training events" value="60000"/>
    <Info name="TrainingTime" value="7.84148313e+02"/>
    <Info name="AnalysisType" value="Classification"/>
  </GeneralInfo>
  <Options>
    <Option name="V" modified="Yes">True</Option>
    <Option name="VerbosityLevel" modified="No">Verbose</Option>
    <Option name="VarTransform" modified="Yes">N</Option>
    <Option name="H" modified="Yes">False</Option>
    <Option name="CreateMVAPdfs" modified="No">False</Option>
    <Option name="IgnoreNegWeightsInTraining" modified="No">False</Option>
    <Option name="Layout" modified="Yes">TANH|30,TANH|20,LINEAR</Option>
    <Option name="ErrorStrategy" modified="Yes">CROSSENTROPY</Option>
    <Option name="WeightInitialization" modified="Yes">XAVIERUNIFORM</Option>
    <Option name="Architecture" modified="No">STANDARD</Option>
    <Option name="TrainingStrategy" modified="Yes">LearningRate=0.01,Momentum=0.4,Repetitions=1,ConvergenceSteps=300,BatchSize=100,DropConfig=0.0+0.2+0.0,WeightDecay=0.001,Regularization=L2,TestRepetitions=5,Multithreading=True</Option>
  </Options>
  <Variables NVar="15">
    <Variable VarIndex="0" Expression="NJets" Label="NJets" Title="NJets" Unit="" Internal="NJets" Type="I" Min="4.00000000e+00" Max="1.30000000e+01"/>
    <Variable VarIndex="1" Expression="NBJets_M" Label="NBJets_M" Title="NBJets_M" Unit="" Internal="NBJets_M" Type="I" Min="1.00000000e+00" Max="7.00000000e+00"/>
    <Variable VarIndex="2" Expression="NCJets_M" Label="NCJets_M" Title="NCJets_M" Unit="" Internal="NCJets_M" Type="I" Min="1.00000000e+00" Max="1.00000000e+01"/>
    <Variable VarIndex="3" Expression="BJet_M_delta_R" Label="BJet_M_delta_R" Title="BJet_M_delta_R" Unit="" Internal="BJet_M_delta_R" Type="F" Min="3.96064758e-01" Max="5.07587337e+00"/>
    <Variable VarIndex="4" Expression="H_Mass" Label="H_Mass" Title="H_Mass" Unit="" Internal="H_Mass" Type="F" Min="1.73422146e+01" Max="2.99998291e+02"/>
    <Variable VarIndex="5" Expression="BJet_Pt" Label="BJet_Pt" Title="BJet_Pt" Unit="" Internal="BJet_Pt" Type="F" Min="3.04308243e+01" Max="2.99903961e+02"/>
    <Variable VarIndex="6" Expression="CJet_Pt" Label="CJet_Pt" Title="CJet_Pt" Unit="" Internal="CJet_Pt" Type="F" Min="3.04533520e+01" Max="2.99903961e+02"/>
    <Variable VarIndex="7" Expression="Jet1_Pt" Label="Jet1_Pt" Title="Jet1_Pt" Unit="" Internal="Jet1_Pt" Type="F" Min="3.38219299e+01" Max="2.99983215e+02"/>
    <Variable VarIndex="8" Expression="Jet2_Pt" Label="Jet2_Pt" Title="Jet2_Pt" Unit="" Internal="Jet2_Pt" Type="F" Min="3.11904850e+01" Max="2.89616547e+02"/>
    <Variable VarIndex="9" Expression="Jet3_Pt" Label="Jet3_Pt" Title="Jet3_Pt" Unit="" Internal="Jet3_Pt" Type="F" Min="3.01238079e+01" Max="2.60883881e+02"/>
    <Variable VarIndex="10" Expression="Jet4_Pt" Label="Jet4_Pt" Title="Jet4_Pt" Unit="" Internal="Jet4_Pt" Type="F" Min="3.00009651e+01" Max="2.27541931e+02"/>
    <Variable VarIndex="11" Expression="Jet1_CSV" Label="Jet1_CSV" Title="Jet1_CSV" Unit="" Internal="Jet1_CSV" Type="F" Min="3.51784825e-02" Max="9.99602914e-01"/>
    <Variable VarIndex="12" Expression="Jet2_CSV" Label="Jet2_CSV" Title="Jet2_CSV" Unit="" Internal="Jet2_CSV" Type="F" Min="4.28134762e-02" Max="1.00000000e+00"/>
    <Variable VarIndex="13" Expression="Jet3_CSV" Label="Jet3_CSV" Title="Jet3_CSV" Unit="" Internal="Jet3_CSV" Type="F" Min="3.78077812e-02" Max="9.99781787e-01"/>
    <Variable VarIndex="14" Expression="Jet4_CSV" Label="Jet4_CSV" Title="Jet4_CSV" Unit="" Internal="Jet4_CSV" Type="F" Min="4.69597057e-02" Max="9.99630332e-01"/>
  </Variables>
  <Spectators NSpec="0"/>
  <Classes NClass="2">
    <Class Name="Signal" Index="0"/>
    <Class Name="Background" Index="1"/>
  </Classes>
  <Transformations NTransformations="1">
    <Transform Name="Normalize">
      <Selection>
        <Input NInputs="15">
          <Input Type="Variable" Label="NJets" Expression="NJets"/>
          <Input Type="Variable" Label="NBJets_M" Expression="NBJets_M"/>
          <Input Type="Variable" Label="NCJets_M" Expression="NCJets_M"/>
          <Input Type="Variable" Label="BJet_M_delta_R" Expression="BJet_M_delta_R"/>
          <Input Type="Variable" Label="H_Mass" Expression="H_Mass"/>
          <Input Type="Variable" Label="BJet_Pt" Expression="BJet_Pt"/>
          <Input Type="Variable" Label="CJet_Pt" Expression="CJet_Pt"/>
          <Input Type="Variable" Label="Jet1_Pt" Expression="Jet1_Pt"/>
          <Input Type="Variable" Label="Jet2_Pt" Expression="Jet2_Pt"/>
          <Input Type="Variable" Label="Jet3_Pt" Expression="Jet3_Pt"/>
          <Input Type="Variable" Label="Jet4_Pt" Expression="Jet4_Pt"/>
          <Input Type="Variable" Label="Jet1_CSV" Expression="Jet1_CSV"/>
          <Input Type="Variable" Label="Jet2_CSV" Expression="Jet2_CSV"/>
          <Input Type="Variable" Label="Jet3_CSV" Expression="Jet3_CSV"/>
          <Input Type="Variable" Label="Jet4_CSV" Expression="Jet4_CSV"/>
        </Input>
        <Output NOutputs="15">
          <Output Type="Variable" Label="NJets" Expression="NJets"/>
          <Output Type="Variable" Label="NBJets_M" Expression="NBJets_M"/>
          <Output Type="Variable" Label="NCJets_M" Expression="NCJets_M"/>
          <Output Type="Variable" Label="BJet_M_delta_R" Expression="BJet_M_delta_R"/>
          <Output Type="Variable" Label="H_Mass" Expression="H_Mass"/>
          <Output Type="Variable" Label="BJet_Pt" Expression="BJet_Pt"/>
          <Output Type="Variable" Label="CJet_Pt" Expression="CJet_Pt"/>
          <Output Type="Variable" Label="Jet1_Pt" Expression="Jet1_Pt"/>
          <Output Type="Variable" Label="Jet2_Pt" Expression="Jet2_Pt"/>
          <Output Type="Variable" Label="Jet3_Pt" Expression="Jet3_Pt"/>
          <Output Type="Variable" Label="Jet4_Pt" Expression="Jet4_Pt"/>
          <Output Type="Variable" Label="Jet1_CSV" Expression="Jet1_CSV"/>
          <Output Type="Variable" Label="Jet2_CSV" Expression="Jet2_CSV"/>
          <Output Type="Variable" Label="Jet3_CSV" Expression="Jet3_CSV"/>
          <Output Type="Variable" Label="Jet4_CSV" Expression="Jet4_CSV"/>
        </Output>
      </Selection>
      <Class ClassIndex="0">
        <Ranges>
          <Range Index="0" Min="4.0000000000000000e+00" Max="1.1000000000000000e+01"/>
          <Range Index="1" Min="1.0000000000000000e+00" Max="5.0000000000000000e+00"/>
          <Range Index="2" Min="1.0000000000000000e+00" Max="9.0000000000000000e+00"/>
          <Range Index="3" Min="3.9910838007926941e-01" Max="4.6865487098693848e+00"/>
          <Range Index="4" Min="1.9799924850463867e+01" Max="2.9997595214843750e+02"/>
          <Range Index="5" Min="3.0453351974487305e+01" Max="2.9970330810546875e+02"/>
          <Range Index="6" Min="3.0453351974487305e+01" Max="2.9970330810546875e+02"/>
          <Range Index="7" Min="3.3821929931640625e+01" Max="2.9998321533203125e+02"/>
          <Range Index="8" Min="3.1190485000610352e+01" Max="2.8806610107421875e+02"/>
          <Range Index="9" Min="3.0167037963867188e+01" Max="2.3709031677246094e+02"/>
          <Range Index="10" Min="3.0000965118408203e+01" Max="1.8758699035644531e+02"/>
          <Range Index="11" Min="3.5178482532501221e-02" Max="9.9960291385650635e-01"/>
          <Range Index="12" Min="4.2813476175069809e-02" Max="9.9952459335327148e-01"/>
          <Range Index="13" Min="4.1907086968421936e-02" Max="9.9952834844589233e-01"/>
          <Range Index="14" Min="4.6959705650806427e-02" Max="9.9963033199310303e-01"/>
        </Ranges>
      </Class>
      <Class ClassIndex="1">
        <Ranges>
          <Range Index="0" Min="4.0000000000000000e+00" Max="1.3000000000000000e+01"/>
          <Range Index="1" Min="1.0000000000000000e+00" Max="7.0000000000000000e+00"/>
          <Range Index="2" Min="1.0000000000000000e+00" Max="1.0000000000000000e+01"/>
          <Range Index="3" Min="3.9606475830078125e-01" Max="5.0758733749389648e+00"/>
          <Range Index="4" Min="1.7342214584350586e+01" Max="2.9999829101562500e+02"/>
          <Range Index="5" Min="3.0430824279785156e+01" Max="2.9990396118164062e+02"/>
          <Range Index="6" Min="3.1573255538940430e+01" Max="2.9990396118164062e+02"/>
          <Range Index="7" Min="3.6992221832275391e+01" Max="2.9994067382812500e+02"/>
          <Range Index="8" Min="3.1872360229492188e+01" Max="2.8961654663085938e+02"/>
          <Range Index="9" Min="3.0123807907104492e+01" Max="2.6088388061523438e+02"/>
          <Range Index="10" Min="3.0002609252929688e+01" Max="2.2754193115234375e+02"/>
          <Range Index="11" Min="3.6884333938360214e-02" Max="9.9945247173309326e-01"/>
          <Range Index="12" Min="4.3887086212635040e-02" Max="1.0000000000000000e+00"/>
          <Range Index="13" Min="3.7807781249284744e-02" Max="9.9978178739547729e-01"/>
          <Range Index="14" Min="4.8905182629823685e-02" Max="9.9958008527755737e-01"/>
        </Ranges>
      </Class>
      <Class ClassIndex="2">
        <Ranges>
          <Range Index="0" Min="4.0000000000000000e+00" Max="1.3000000000000000e+01"/>
          <Range Index="1" Min="1.0000000000000000e+00" Max="7.0000000000000000e+00"/>
          <Range Index="2" Min="1.0000000000000000e+00" Max="1.0000000000000000e+01"/>
          <Range Index="3" Min="3.9606475830078125e-01" Max="5.0758733749389648e+00"/>
          <Range Index="4" Min="1.7342214584350586e+01" Max="2.9999829101562500e+02"/>
          <Range Index="5" Min="3.0430824279785156e+01" Max="2.9990396118164062e+02"/>
          <Range Index="6" Min="3.0453351974487305e+01" Max="2.9990396118164062e+02"/>
          <Range Index="7" Min="3.3821929931640625e+01" Max="2.9998321533203125e+02"/>
          <Range Index="8" Min="3.1190485000610352e+01" Max="2.8961654663085938e+02"/>
          <Range Index="9" Min="3.0123807907104492e+01" Max="2.6088388061523438e+02"/>
          <Range Index="10" Min="3.0000965118408203e+01" Max="2.2754193115234375e+02"/>
          <Range Index="11" Min="3.5178482532501221e-02" Max="9.9960291385650635e-01"/>
          <Range Index="12" Min="4.2813476175069809e-02" Max="1.0000000000000000e+00"/>
          <Range Index="13" Min="3.7807781249284744e-02" Max="9.9978178739547729e-01"/>
          <Range Index="14" Min="4.6959705650806427e-02" Max="9.9963033199310303e-01"/>
        </Ranges>
      </Class>
    </Transform>
  </Transformations>
  <MVAPdfs/>
  <Weights InputWidth="15" Depth="3" LossFunction="C" OutputFunction="S">
    <Layer ActivationFunction="3">
      <Weights rows="30" cols="15">
        6.6357004154757690e-02 2.0954236048415470e-01 -1.5144485736056010e-01 -3.4096078478221586e-01 -4.0475412648710313e-01 1.7517097780917748e-01 -2.4227685698054627e-01 1.8468184277530697e-01 6.0414721488463774e-01 2.3859657086937616e-02 -4.1611476450245782e-01 1.9729200106047939e-01 -1.9015275074998580e-01 -4.9948782801051583e-02 -6.8374370962868203e-01 -2.9315799371821518e-02 -1.5568295226967158e-01 -7.8962389524124526e-03 2.9792217100286739e-01 2.3712066975897225e-01 1.3640055666686032e-01 1.4943695947259547e-01 -7.3915764766826791e-02 -2.9003916656221085e-01 -1.2302515074883033e-01 1.3432506578986761e-01 3.5359001452821992e-01 -6.7648470291912524e-02 -4.3575873826945560e-01 4.9552128459514691e-03 -2.3824872844500627e-01 1.0209125138637123e-01 4.8848934563642155e-01 -4.1901913164119481e-01 -2.2442286829791708e-01 -4.5673390469557151e-02 9.7634154915507088e-01 -4.5036293414915413e-01 1.2909940257990693e-01 -6.7008453836106330e-01 1.8360504803242128e-01 -8.5163294936829603e-01 1.2796222197472069e+00 -1.9095405798228424e-01 -4.5143452512284482e-01 1.4300134821647870e-01 -5.1824369155414496e-01 -3.4963913616047212e-02 7.1184776927014681e-01 -3.9567025091145880e-01 -3.8252234196016571e-01 -2.8858722878859632e-03 -9.2990756807684871e-03 -4.6619321131452501e-01 5.2731216858244515e-02 1.2185438109420524e-01 -2.1143364492042466e-01 -2.3711400544092873e-01 -6.1438205301217219e-01 7.4832404459173585e-01 1.4534998466389298e-01 -2.5511115379051602e-01 -1.0471035413801075e-01 3.5461679261746293e-01 2.0302988347629689e-01 -4.6947577843371813e-01 3.1660974749255666e-01 1.8622664973970252e-01 1.9979167166643758e-01 8.2285687375481698e-02 -1.0856150564456443e-01 -2.0792656342612756e-01 1.3620565456115679e-02 3.7560750174029689e-01 7.1011245081397417e-02 2.7911157701663797e-01 -8.3013225619748277e-01 -2.9934364177301731e-01 1.0440382972580124e+00 -3.0073174339481210e+00 8.3350458496096858e-01 -2.9209531784094811e-01 2.5459810560982597e-02 6.2942230508101138e-01 2.3314845061131786e-01 9.1883250334639877e-01 8.6038893723847834e-02 1.2162776911900929e-01 2.0391854775408492e-02 -2.1751293356287332e-01 -3.3294694446644462e+00 1.3614940626378252e-01 7.7670777981221606e-01 4.6121087825534834e-01 -3.4257568311843384e-01 -1.1982620142336887e-01 -3.2681083623048349e-02 -1.0048767598769047e-01 -4.7473378042375103e-01 2.4477552093409743e-01 8.9235796787582367e-01 -1.1602292158126375e-01 -2.7358651614983942e-01 9.6712292516961517e-03 -4.8412308336529451e-02 3.6373052247551113e-01 5.8377095506064514e-01 -3.0887374281597807e-01 -8.5781592683692953e-01 -8.3621631455815026e-01 4.1710872790677472e-01 -6.2939153796465114e-02 -5.1481809895853825e-01 -3.1046038391400976e-01 -2.5221373106710426e-01 -8.0811229320486688e-01 -4.6567053332506053e-01 -2.2592177595078228e-01 5.4477250230550334e-01 -3.8329325283072230e-01 -2.2147221376838025e-01 -9.1855998262720828e-01 -1.0607236248079328e+00 -2.6125351659205709e-01 1.7573605797124210e+00 -2.3144095243714272e-01 -2.5090453957466591e-01 -5.6617389132860030e-01 6.6733091975362230e-02 -2.3764314933606762e-01 5.5359584000287045e-02 2.1989725757680439e-01 -2.6677021133969914e-01 -6.2781878247048978e-02 -1.5906945551387638e-01 -6.5668675325607800e-02 2.9044111289882397e+00 6.4495242511451123e-01 1.3320264704377525e+00 1.2977376382877387e-01 4.0663711897054799e-01 -1.0076661103958706e-01 1.6374302074147995e-01 5.9497668049232466e-01 -6.8759435698115157e-02 -4.3704386284045332e-01 -6.0386955960851155e-02 1.4841405336169662e-02 3.8030165330635232e-02 -1.3218224370793497e-02 1.6050166311681330e-01 -2.3090558937917147e-01 4.4690274184179768e-01 -4.8779178493245573e-01 3.0805289623752086e-01 1.4359468332224998e+00 -5.2801382552362708e-01 -1.7932117023251933e-02 -2.5106859902000295e-01 -4.2296938765697151e-01 5.4573166065833700e-01 8.4070019085567627e-01 6.0885661575805194e-01 8.2887952959102917e-01 7.7135303287739243e-01 3.4956684526746451e-01 2.1850296782126144e-01 -1.4822771187484393e-01 -6.1291850719491739e-02 -5.6146825483285900e-01 2.5789199056870865e-01 1.3000310819339717e-02 -3.5642622827631831e-01 -2.9842788757391636e-01 -1.6841649577430873e-01 -6.7927450904342968e-01 -1.7440738519747526e-01 2.2038844053953860e-01 1.9045853545925412e-01 -1.5923217385804653e-01 -1.0339238627604842e-01 -6.7091902413371673e-01 -6.7143004596931025e-02 -7.3099230710697916e-01 2.5502558533494118e-01 1.1222226264493458e-01 3.8210489336409408e-02 -7.2418208905118109e-01 5.7595338351276774e-02 2.6648382516318225e-01 -1.1758815720558076e+00 4.1469846595646442e-01 1.2640828815747995e-01 2.9662479047533868e-01 -1.9411889465227219e-02 1.1185993789701276e-01 9.0312830615382381e-02 1.7668821477943647e-01 -1.2953938145261459e-01 -6.0791956549181991e-01 -1.1816816990854673e-01 2.8151777797667674e-02 1.6639223882421825e-01 -1.5527565899222984e+00 3.9322248805091492e-01 2.3173301075075398e-01 -5.3145437399337880e-01 -2.0266957021221967e-02 9.0257250824048785e-01 -1.0381276915792431e-01 1.6799770568554737e-01 7.9447729845503556e-01 -2.3959476820399828e-02 4.2582075786751705e-01 1.2157603232195562e-01 -2.5303669879731278e-01 -2.2942213489045027e-01 1.2851702390769675e+00 4.5064391262676595e-01 1.1432266077021209e+00 8.9693845797521793e-02 -3.5174353902899586e-01 4.0666708072200619e-01 5.2837216655336949e-01 1.0742012633070448e-01 -3.8346677908858984e-01 -2.3548593857173475e-01 -3.4234452349538959e-02 9.5451842516257901e-01 7.9058043208571971e-01 -2.3391166826027776e-01 2.8830506909251019e-01 -9.8643012775824060e-02 4.8738896930397985e-01 -7.8929557461866490e-03 -2.3743069943868156e-01 -5.7407190391197238e-01 -3.0031191707868082e-01 1.2287472484656274e+00 -5.2565563465281621e-02 -3.6640183240591906e-01 3.1557932030059466e-01 -4.7163058993577944e-01 1.7714225851348159e-01 7.6844252438657404e-02 -3.2657416934789119e-01 -2.4036893073904317e-01 4.8518312114785467e-01 3.3922248907182442e-02 1.5631565131455982e-01 3.1179686685081520e-01 -8.2516332557105176e-01 6.6643399071900089e-01 8.9808743921538436e-01 -7.9687497156608256e-01 -4.5234178161893668e-01 4.7655952151162867e-01 1.8075423703341190e-01 -3.2702722435301701e-02 -3.8511845629341922e-02 -1.6132020235099498e-01 8.7935175513767810e-02 -3.6550979780301841e-02 -4.6461735200925336e-01 -1.5198360758267374e-01 9.6518548044832883e-02 -3.3849076791318172e-01 6.7881034355420145e-01 -3.6282735921666770e-01 -1.3078090351396479e-01 -8.2039846237568359e-01 2.5392565694123062e+00 9.4467435742936201e-01 -8.5117313160304653e-01 1.0435609105952910e+00 -6.7152244065346245e-01 -4.7777218893635742e-01 1.3180809322802195e-01 -2.4980760659464502e-01 -3.8608243162256606e-01 -9.2223139021767231e-01 -6.6725862869808222e-02 -1.9926882891439893e-01 -1.1070805572753799e-01 -2.0981884782723775e-01 -4.6288738819486430e-01 -2.9237692143706428e-02 -1.8737201295839051e-01 -9.6469478241831530e-01 -3.4413275211487449e+00 -7.7878936617399849e-02 7.8345348515928337e-02 -2.0394853001066063e-01 -3.9207373989671684e-01 -6.2977899997717979e-01 -2.8919228459056801e-01 -1.5865406314986760e-01 -9.2499715957907935e-01 -1.2446218514135351e-02 -1.6349784778852608e-01 1.0248429173060540e+00 -8.2489684283314912e-01 3.2083512026797595e-01 -1.7981525409155679e+00 5.0257417493824598e-02 -3.9835149391583735e-01 2.5148181658725427e-02 1.4007812805407404e-02 1.1529073403454035e-01 4.7396871207549501e-01 1.1718611392255716e+00 1.0953679909477372e-01 1.0440234136116459e-01 4.1090930887868221e-02 -2.1854955671040549e-01 7.3067847788207074e-02 -3.7942075813078302e-01 -2.9281233768001835e-01 -3.1520144112901261e-01 3.2161612033894155e-01 1.8982666110517818e-01 1.1910490971760271e-01 1.2911223766130764e-01 -3.0604498775111760e-01 -2.5313809632321332e-01 2.5069424274275470e-01 8.5243861757259121e-02 -2.0538946364663971e-01 -1.9649043053281837e-01 -2.7590993101641126e-01 -3.1119011453530354e-01 7.4156587069995755e-02 4.1881666267123790e-01 6.7978866442548164e-02 4.6779297252102098e-01 2.2658888865848084e-01 -2.2531149575851991e-01 -4.8765913653817897e-02 2.6157165281374783e-01 -3.8449113141105057e-01 2.9074379786705795e-01 -1.7867210584626078e-01 2.6209194924591678e-01 -1.9949327379955136e-02 5.2721919479545842e-01 7.7274509816857490e-02 -5.7923886746379771e-01 -6.8461519047202779e-01 7.2136300137019771e-02 -3.4105762446487015e-01 8.3804643725495942e-01 -3.5470720948198842e-03 2.2971120679244197e-02 -1.8206851381459130e-01 3.5928400834092228e-01 4.4733706585471959e-03 2.4756667672764282e-01 3.7936575898290664e-01 1.4659165604715030e-01 2.6143285308580427e-01 -6.0632614841011671e-02 -1.9370724842949499e-01 -3.8589609837026612e-02 5.7650355580108148e-01 -5.1725465079748269e-02 -2.8038249500545141e-02 -4.8523603892891155e-02 -2.1661744465092281e-01 1.4034433224485235e-01 -8.9903094766084629e-02 3.5027295784813739e-01 -3.7007947819207998e-01 -1.5952888479879862e-01 3.0973489399843340e-01 2.8926653795279605e-01 -2.0862108943497065e-01 -3.7854156508862874e-01 -3.0813208440388445e-01 6.4027228869252151e-01 -2.7392955445553643e-02 7.0001985624384189e-01 -5.2868696453771757e-01 -1.3917957521989046e+00 -6.1768850799808117e-01 2.1231103491282008e-01 -8.0561858509802187e-01 -2.5720851699918107e-01 2.0184167252975552e-01 -6.9633432409820922e-02 -2.7289360275444474e-01 -1.8636838237466469e-01 4.9229111507757106e-01 2.0567933722999907e-02 -9.2519798961306643e-01 -5.6184198366748117e-01 4.8209090370519597e-01 4.9413670458798586e-01 -4.2369401825486103e-01 -8.7339387813717445e-02 2.1640640448337570e-01 -3.9509375201805746e-01 1.2479232757913282e-01 -1.2934247968475212e+00 6.8520551003446473e-01 5.8471480756200966e-01 -4.0517991040108331e-01 -2.8649518939597368e-01 -3.7619049240885538e-01 8.2729414507429611e-01 1.2349155319860625e-01 -6.4722590761110521e-01 -5.4821526330304282e-01 1.0636821071979251e-01 -5.9499868395395901e-02 -2.8047334334568086e-01 -1.0864609043043010e+00 -6.9875476745243936e-01 -6.8961394177976199e-02 3.1973271223709319e-02 2.3463092408672839e-01 1.3687407077776297e+00 -1.0031548559765975e+00 -2.9646756056849249e-01 1.7097710855407564e-01 -6.5435578812687689e-01 9.0670238359200239e-02 -3.2633058806611825e-01 -1.9933711009350408e-01 -7.0351449058196680e-01 -6.3058855964839378e-01 -9.6825047520797258e-01 -3.3000498314392623e-01 -1.2994512989964610e-01 -8.2435995656874414e-02 6.4532025255777670e-02 -3.3807241386622755e-01 -2.5039541547411054e-01 -1.1345919816721295e-01 -6.2644902719795115e-02 1.5884022539925577e-01 -1.4256117166974808e-01 6.4794211706449598e-02 7.6543059541737424e-01 -4.3085939092851626e-02 1.6582723648962736e-01 5.3518031118146281e-01 -3.0540328815727302e-01 1.6740434745911353e-01 6.4048604578869586e-02 -1.0519816973325052e-01 
      </Weights>
      <Biases rows="30" cols="1">
        -4.8635189923568140e-01 -2.9626333810100841e-01 -7.8381178685343000e-02 -5.3231874196136293e-02 2.5922021357387720e-01 -8.9365437511476298e-01 -2.6766997132420074e+00 -8.9030133845370452e-01 -1.9135279874859470e-01 1.1403665454921208e+00 1.6758502521483495e-01 -9.3750572382239672e-01 -4.3180916988024509e-01 2.9884176477128771e-01 2.7139720639009068e-01 1.8788733195524140e-01 1.2218465860029637e-01 -6.0676232168631017e-01 7.6931968264083189e-02 -4.9316418336803745e-02 1.1479831088814734e+00 -1.4158486057990821e-01 5.3294868525805221e-02 -2.3101373427422564e-01 1.8086103043998880e-01 -2.0654550620271284e+00 1.1786381640056985e-01 -8.6378766482787139e-01 -1.7151908105202840e-01 4.5453268396574703e-01 
      </Biases>
    </Layer>
    <Layer ActivationFunction="3">
      <Weights rows="20" cols="30">
        -2.6344860796204406e-01 -5.1625122253964324e-02 -6.4110985558248512e-02 8.3873916805018545e-02 -1.7743581685096663e-01 7.6886465414382765e-01 -6.6983523048685489e-02 1.5995918271590409e-01 -6.9767828021063794e-01 -7.8185444461193784e-02 -2.2774909876274824e-01 3.4265536892455234e-01 1.0114179717544525e-02 2.6903310959159588e-01 -2.1287496268710601e-01 -2.9521887021865728e-01 1.9026029778721981e-01 3.6242328509723082e-01 1.2370562868394025e-02 1.1351804391646216e+00 2.1088646112912846e-01 -3.9412432022341554e-01 -2.2735744553468970e-01 1.2385846519700928e-01 2.6783831095678373e-01 4.5927961524737559e-01 1.8962883234234371e-01 -2.6173619318473679e-01 2.5542420507153574e-01 -3.6494151121742813e-01 1.8284259353825164e-01 -3.0700189752508206e-01 -1.5602483802145192e-01 -1.2512839956721955e-01 -1.9311835859718926e-01 3.0500721129305236e-01 -3.3471698293186380e-01 -2.7095133182607378e-01 -2.2454866475303958e-01 2.8352434706060081e-01 2.8087946804375175e-01 -3.7779752438744832e-02 3.8778451977578970e-01 1.7169038473653392e-01 1.1319769969657723e-01 -2.1231125383737845e-01 -6.0222815363790254e-02 5.9567301497162307e-02 -5.0999378185631616e-04 -1.6316809950344163e-02 2.6322920484338835e-01 -2.9117203281688864e-01 1.3712075280543390e-01 1.0669804430393789e-01 -5.7712934849774591e-02 -1.9168922027865376e-01 4.8532118582725561e-02 7.8516714788032752e-02 2.2495455977469087e-01 -1.7975927855878310e-01 1.9644853390033423e-02 2.3948673563222677e-02 -3.3468227384187293e-01 4.8970008099259116e-01 9.4848127829817289e-02 5.4809035165758246e-01 -3.3438335410217856e-01 -6.1312233144005390e-01 -4.1415163501399138e-01 6.5195588457799458e-01 2.9618395669440162e-01 1.9820640610155357e-01 -1.3761957655049542e-01 -6.3500884551339742e-03 1.3542572173426667e-01 1.3614090998592968e-01 2.3550510564480545e-01 3.0169357026340976e-01 1.5537246181865252e-01 -3.1945159585509159e-01 1.8271037791188913e-01 -1.8392881265732915e-02 -1.6630111298399605e-01 4.9626221780813518e-01 -2.2033592722252435e-01 -3.4460350093806541e-01 -1.6894748907244106e-01 -3.2032421433117814e-01 3.2962380334419172e-01 3.2095342317253667e-01 -4.1912713071769592e-01 2.0680139761486463e-01 -6.5560134319585661e-01 2.4393239897352641e-02 3.4441886951071504e-01 4.6621853754354785e-02 -4.0336501321008972e-01 3.5449404329892326e-01 1.9895298557259947e-01 7.6483087656811374e-02 -2.4749772962802535e-01 -1.1625800639016173e-01 -2.1938456133532608e-01 2.7590165186485899e-01 -1.7082021297127070e-01 3.4243781585667510e-01 1.7107018642761057e-01 -3.1408133063416510e-01 3.6277292167359387e-01 7.0092183857857426e-02 3.6685324910229683e-01 1.4462874230389796e-02 -1.4538268708173735e-01 8.8214196878072124e-02 3.1654851639813408e-01 6.7948815836618881e-01 1.7876047931528669e-01 -3.9774020260335669e-01 3.8285502886640027e-01 4.3200122613793544e-02 -1.8228206070655989e-01 9.8712480141511183e-02 -2.9342194483930178e-01 -3.6419782209266843e-01 1.3099729102354701e-01 2.1289626516819499e-02 2.8538735852105152e-01 3.4508403474704030e-01 2.0408027965910780e-01 9.5975697099146412e-03 1.2736161301143387e-01 2.8122382430598752e-01 1.3091232729401459e-01 -2.3413220196907752e-01 2.8976064388264713e-03 -3.3946782141248784e-03 -2.0563012301364866e-01 -5.8384766764222185e-01 7.9130350209177511e-02 -5.6933535033397187e-01 -2.2899687869281479e-02 3.2650591122661526e-02 1.1425068335879080e-02 -3.2649474423123476e-01 -1.0825292336227709e-02 3.0432506898157896e-01 6.4117135175641649e-01 -6.5520465932952424e-02 2.2995858019095336e-01 -6.4362652204821569e-01 -4.5675536836493824e-01 5.5453201726349122e-01 -2.4793681543340076e-01 -4.5400071759107508e-01 2.6477744255304220e-01 -1.0990056193147948e+00 -4.7404485695005810e-01 -5.1254562083450461e-01 8.3234791851436385e-01 4.6227035482181900e-01 -2.1890297002762746e-01 -3.5799852953839356e-01 1.0466843832855964e-01 -3.8031553081334107e-01 9.1376884781519369e-02 7.3933400049414055e-01 1.9850150510853704e-01 -2.4122013914085061e-01 1.8929785706514299e-01 -2.6369080152544115e+00 -4.3857074231081025e-02 7.0374504933616189e-01 2.9928407867539425e-01 -1.7570025271807987e-01 -1.4374400305112325e-01 -1.4368688536439977e-01 -3.6505452025420854e-01 2.0312409707767076e-01 2.3299491638293898e-01 2.7113357427843537e-01 8.1836256725744946e-02 2.5210687105618013e-01 -1.7972847799658509e-01 2.5134188152798936e-01 -1.1146800780282888e-01 2.0077917980741963e-01 2.3112517331412796e-01 -1.5443367785920184e-01 -2.0505784853141287e-01 3.2167328214340436e-02 -3.9672851732544950e-01 8.3795795664002776e-02 1.0226948168398887e-01 -2.3872946897287470e-01 -1.6390092130233441e-01 -2.5279662216566084e-01 -5.2185453994176297e-02 -8.4539230219136591e-02 -1.3435897609515921e-02 2.2918289388228999e-01 -2.6678338499737975e-01 2.8333128541212493e-01 -1.2007572680662118e-01 5.1728764872829090e-02 4.3357096701870192e-02 1.2346552985301974e-01 6.0245122973159336e-02 3.2534092648891905e-01 -5.8027562211512625e-02 -8.1895102375253381e-02 -2.8623993691888512e-03 -5.2353729127942483e-01 1.2402550838888349e-01 1.9905636503732818e-01 5.4299000021708144e-01 2.2835636563956635e-01 -8.4340068113876759e-02 4.8353616110720518e-02 -3.8599908391184340e-01 7.1804842222257148e-01 -1.7068285462783936e-01 -3.1131703182525444e-01 2.7469265256050240e-01 -1.3196616775582876e-01 -1.8417296107497070e-02 2.6924077367053645e-01 2.6045760037041992e-02 -2.9603401182668221e-01 2.3745301145853392e-03 -9.5292071021412808e-02 1.1494847660971520e-01 -1.5536669410797432e-01 2.4736543664246646e-01 -2.7319893020027958e-01 -1.2631156671680252e-03 -3.8902881584629012e-01 3.4619162011438259e-01 6.1084543512252253e-02 -1.8803324906514540e-02 2.4254855732113423e-03 4.7132923079613753e-02 1.7487519196842960e-01 3.9564579193892963e-01 -2.8880246208923641e-02 -2.8563115727488303e-01 -3.7247527447160783e-02 -4.2898643769472118e-02 4.6212203616504927e-01 -2.4753710100704562e-01 -8.9080549558143582e-02 -8.0734740941273586e-02 4.3494454018724327e-01 -5.4698866798942848e-02 -1.7140255734317090e-02 1.1513558785096124e-01 -3.3401588060243353e-01 -1.1227741562057782e-01 2.0988866185032859e-01 5.7425722668678535e-02 2.7768538538606585e-01 4.9721168940775981e-02 1.1061808511529707e-01 -2.0976617412231560e-01 8.4886590908048162e-02 -2.6035465292399005e-02 4.1700394553745676e-02 7.2475076096222890e-02 -6.2463400293265157e-02 8.9030959783288441e-02 8.9563546588429882e-02 6.6424422497381161e-02 -6.1793916670784002e-02 2.6723865629364105e-02 8.0440686413620455e-02 -1.5978936262539473e-01 -1.7964239072274751e-01 7.8346957451523470e-03 1.4120123388384923e-01 -4.9888323802885458e-02 1.2902484629356231e-01 -2.0906657295248532e-01 -2.7945174911695447e-01 1.9311196319184187e-01 2.5278626507199303e-01 1.6933641441892455e-01 7.8812515474842762e-02 2.3525533346456975e-01 7.6460784215150263e-02 -1.8633918499533264e-01 -1.1500120776428781e-01 -9.5318837789555213e-03 -9.6308796481798815e-04 1.7896483740300695e-01 -1.6281066530323651e-01 3.3607101274473236e-02 -1.1205852342942851e-01 -1.9828567177826084e-01 1.8767024510553537e-01 -1.7219679066295746e-01 1.5774163102647351e-01 1.4701406890230828e-01 -3.3955601249373246e-01 -6.7631392927604839e-02 1.7599667112519479e-01 -5.9965417974731275e-02 -7.9400653561869122e-02 -7.5975771135346704e-02 -6.9212004960295101e-02 -1.5192757292702927e-01 4.3198761661905438e-01 5.6835758690756466e-01 -1.6024980229861810e-01 -3.8055721445690770e-02 -7.9141002568779859e-02 4.5798504589861198e-02 -9.6564072382593680e-02 -1.7083181818458762e-01 -1.1714611439925657e-01 -2.2439200098226547e-01 4.5068679624417224e-01 2.9151914991019223e-01 -5.7492040493825974e-02 3.9730537478711631e-01 1.7616109148383102e-01 -3.2980829045207344e-01 -2.6622627018640327e-01 -1.7788771870946909e-01 -2.7908898728440362e-01 -2.9625957151605742e-01 -2.1934463510748720e-01 1.6546915709053733e-01 2.6348311246936396e-01 -9.8824371855742669e-03 -1.5676941761179042e-01 -2.5294176996324885e-01 -8.5093251604357523e-01 6.8889123353878456e-01 4.9506788090035742e-01 5.0171629605511181e-01 -8.0864050378534502e-01 7.4336041714426238e-01 1.6669396994152483e-01 -4.3140735476819309e-01 4.9421398895866261e-02 5.3928112505980952e-01 -2.9561370364997969e-01 5.0483615250183390e-02 4.6971489326420873e-01 -8.2145256030048214e-02 4.3434406167655998e-01 -9.0339689605449225e-01 2.9337579286257565e-01 1.0958181218623191e-01 2.4809217347905141e-01 -3.2928824467468637e-01 4.7388366271632770e-01 4.3424674079519365e-01 8.8348701656690731e-01 -5.2620842882096874e-01 1.1304106875727590e-01 -8.9222874912233824e-03 9.5857849724282532e-02 1.2030435106737196e-02 -1.5304191995302555e-01 -1.1811337015849670e-01 -1.9302410587518221e-02 1.7621523593295021e-01 1.9533121111919252e-02 -1.2116991126307110e-01 -8.0495891189912572e-02 6.0060583459739136e-02 1.7823142106177147e-02 2.8455984944821239e-01 -2.7541673656965231e-02 3.1917966449562893e-02 5.4602935427257603e-02 1.3286717296069789e-01 9.0206782988125553e-03 -2.7111470934224302e-01 -1.0662229248581843e-01 -6.4688004350951595e-02 2.3852738459211917e-01 1.2245811265031291e-01 -1.1711401546211624e-01 -3.8121781104297091e-05 2.9172983256204946e-02 5.2906639816281915e-02 1.7128331914260903e-01 -1.0784337571208226e-02 -2.1089133845646471e-01 -1.3219690789170177e-01 -2.0514364007016667e-01 -1.5486591030252950e-01 -7.5396613339363358e-02 2.5434428142262611e-01 -1.8926235943237291e-01 4.3972974499001019e-02 -1.8197417192334231e-01 -7.1945979929786252e-03 7.7657838829600215e-02 4.2648904221132627e-01 -2.5218749297175238e-05 -4.7887771406247226e-01 1.2908935939201083e-01 4.6683571052969247e-01 2.2737505098811153e-01 -1.0908144030524286e-01 -5.1397213212266299e-02 -2.9135701524818114e-01 1.9404679634694028e-01 1.2963025934574790e-01 -3.8045611633203097e-01 5.1678477063038991e-02 1.0367617986524282e-01 -1.6486931302823676e-01 9.2633316261847010e-02 -1.9481086722507385e-01 -2.2661099213153277e-02 5.8688347259054627e-02 1.8297360230814361e-01 -1.1476262765408010e-01 9.3800167615373645e-02 1.9420748934538062e-01 -2.5588829231774950e-02 -3.4893632752870820e-04 -6.2094692013219233e-01 2.0016732935590642e-01 5.9251340032434222e-02 5.7971723505750139e-01 -1.3656748716886735e-01 -2.1541787465209863e-01 -2.4684796059844219e-01 -9.2978831419328736e-02 -5.9353036429288419e-01 8.0315027622458752e-03 4.8917812669873700e-01 -2.3715386699389229e-02 -9.7987815633925848e-02 2.0406072618614993e-01 -5.7521975390141300e-01 -1.7292166856252116e-02 1.7000799322889545e-01 8.8089373377332247e-02 2.1507637291580492e-01 1.3526283072678597e-01 -1.8031009782230661e-01 -2.6978357389344253e-02 -3.4527008628029557e-02 -2.3068169517279860e-01 1.6345751025221020e-01 2.3287189415943013e-01 -1.4608752346792403e-01 -1.7080498944071773e-01 -1.6894156385077949e-01 5.2756190033692318e-01 -1.9877058019983876e-01 2.9851413581929132e-01 7.1950973373680907e-02 5.3239148042277673e-01 -1.5723349947480955e-01 -2.1546685839919621e-01 -3.0249964507938315e-01 -2.8065500271352883e-01 -4.3698100770196013e-01 2.4760299082972648e-01 1.5737610683948364e-01 -1.3382638814929712e-01 -2.0664623327063850e-01 -9.5811260742712601e-01 -1.5661690281331977e-01 1.6248567551026064e-01 7.4157468330567661e-02 1.6676862087197153e-01 3.5999727136367621e-01 2.1964656073911842e-01 3.0866473926767329e-01 -1.7668374170055315e-01 -2.0022877137161402e-01 1.5847925890684983e-01 2.9137051934762992e-01 -5.7516835757142393e-02 1.4904788682197698e-01 2.3760093265866744e-01 -3.3425414520805566e-02 -2.7161912788822878e-01 4.9895309072676935e-01 -2.0640712793892135e-01 2.4258864692358423e-01 1.3539993378473603e-01 1.7062617799653911e-02 -3.7904580132051974e-01 -5.6453883876624859e-02 5.7983329884655843e-01 -5.6660222725009056e-02 -1.7863453694002920e-01 1.5779577889282689e-01 1.3098824291224934e-01 -1.5539530898611256e-01 -6.4890568907517918e-02 -2.3689588187182367e-01 9.5685516584551114e-02 2.6342749336407700e-01 -1.5936525575636584e-01 -1.1161233118143467e-01 1.4372394820403286e-01 -3.1259212734580066e-01 -1.6253030845754288e-01 -5.0308714813037769e-01 -2.8282250014875854e-01 1.8837210460738352e-01 5.7477423550951361e-02 2.0493317602910073e-02 -2.1029988903878172e-01 -9.5387591691600479e-02 2.3245909342420820e-01 -1.2901273354970200e-01 6.8533706132581973e-02 -1.9677384839043893e-01 -1.3256852286396098e-01 2.5371577827698093e-02 -6.6898167255007024e-02 1.8932300473320915e-01 1.9669000163985975e-01 -1.4753875400869063e-01 6.4408517820152875e-02 1.0097706724697147e-01 -3.5263778040456495e-02 7.2342603352562262e-02 5.1651467985166982e-02 1.5712766160926173e-01 7.4214963312998330e-02 8.9659242535949049e-02 1.5800434762667817e-01 1.6616579403974280e-01 1.6136707275325199e-01 -9.8248534621714026e-02 1.0181267541991577e-02 1.2326153285705861e-01 -1.9120724246972168e-01 1.7874380318661628e-01 4.0187306695091220e-02 1.3696861889011194e-01 -2.9478449900097037e-01 3.4694173455895999e-01 -5.0158435538724302e-02 9.0782549969508364e-01 -1.2562248665721665e+00 -1.5700801449596644e-01 -1.0594818869532174e-01 6.1035111934071895e-01 -7.0281987051733186e-01 -5.1678126740885499e-01 9.9240836501683458e-02 5.1365120432124467e-01 -8.1913658368078501e-01 1.1707052957386428e-01 2.8719675628082220e-01 -1.1788406057875632e-01 2.7588209054417828e-01 -2.1880232871040992e-01 4.1549571838545041e-01 -1.8576673234165936e-01 4.0474538928653675e-01 -5.4311309694075094e-01 2.0066274606558471e-01 -1.0734899715996997e+00 -4.6720020437312534e-02 -3.8379181536056745e-01 7.9427278139465618e-01 4.6141810999813820e-01 6.7798895537355464e-02 -1.4229158313658516e-01 4.1660393554630332e-01 -1.1475486197199850e-02 2.2120144818908022e-01 -5.6057834559830377e-01 -1.2132005459190917e-01 -4.0646104555385565e-01 -4.8661484583495167e-02 4.9194531376753677e-02 -5.6622324093014420e-01 -6.6546284753182783e-01 -4.1768993513606362e-01 -5.4856435781564539e-01 3.3272991918203243e-01 2.5931120292972004e-01 4.5091660650789100e-01 -2.1700133537842387e-01 -2.5194306019274915e-02 3.8620309891295869e-02 2.8603530035772790e-01 -1.2786122914057646e-01 -1.5340661653759785e-01 -1.1941305404618638e-01 5.6178235482519288e-02 -8.9494068061331322e-01 6.3179372265343689e-02 -3.3080956777419973e-01 -4.4009810500114643e-01 2.8575878279168260e-01 
      </Weights>
      <Biases rows="20" cols="1">
        0.0000000000000000e+00 0.0000000000000000e+00 0.0000000000000000e+00 0.0000000000000000e+00 0.0000000000000000e+00 0.0000000000000000e+00 0.0000000000000000e+00 0.0000000000000000e+00 0.0000000000000000e+00 0.0000000000000000e+00 0.0000000000000000e+00 0.0000000000000000e+00 0.0000000000000000e+00 0.0000000000000000e+00 0.0000000000000000e+00 0.0000000000000000e+00 0.0000000000000000e+00 0.0000000000000000e+00 0.0000000000000000e+00 0.0000000000000000e+00 
      </Biases>
    </Layer>
    <Layer ActivationFunction="0">
      <Weights rows="1" cols="20">
        -5.7504776872655117e-01 -1.9800969517223851e-01 -4.8131537773070510e-01 -3.9216099877359889e-01 4.0819723145728515e-01 -9.0609996257211445e-01 -2.1717193624075196e-01 -3.0569701432134183e-01 2.6812754365989283e-01 -5.4387212436053933e-02 -2.7611050813035309e-01 6.3170485208623339e-01 -4.8040319409681388e-03 2.6224878329117973e-01 2.7640767995081889e-01 3.3891031490121709e-01 -2.4895216956888297e-01 -8.9811432218822596e-02 -6.5800017944801359e-01 3.8697272466664145e-01 
      </Weights>
      <Biases rows="1" cols="1">
        0.0000000000000000e+00 
      </Biases>
    </Layer>
  </Weights>
</MethodSetup>
