<?xml version="1.0"?>
<MethodSetup Method="MLP::MLP">
  <GeneralInfo>
    <Info name="TMVA Release" value="4.2.1 [262657]"/>
    <Info name="ROOT Release" value="6.08/02 [395266]"/>
    <Info name="Creator" value="minerva1993"/>
    <Info name="Date" value="Thu May 25 01:09:18 2017"/>
    <Info name="Host" value="Linux htop.hanyang.ac.kr 2.6.32-696.el6.centos.plus.x86_64 #1 SMP Mon Apr 3 14:56:08 UTC 2017 x86_64 x86_64 x86_64 GNU/Linux"/>
    <Info name="Dir" value="/home/minerva1993/fcnc/tmva/v2/mkNtuple_v2"/>
    <Info name="Training events" value="60000"/>
    <Info name="TrainingTime" value="6.43894093e+02"/>
    <Info name="AnalysisType" value="Classification"/>
  </GeneralInfo>
  <Options>
    <Option name="NCycles" modified="Yes">1000</Option>
    <Option name="HiddenLayers" modified="Yes">N+5</Option>
    <Option name="NeuronType" modified="Yes">tanh</Option>
    <Option name="RandomSeed" modified="No">1</Option>
    <Option name="EstimatorType" modified="No">CE</Option>
    <Option name="NeuronInputType" modified="No">sum</Option>
    <Option name="V" modified="Yes">False</Option>
    <Option name="VerbosityLevel" modified="No">Default</Option>
    <Option name="VarTransform" modified="Yes">N</Option>
    <Option name="H" modified="Yes">True</Option>
    <Option name="CreateMVAPdfs" modified="No">False</Option>
    <Option name="IgnoreNegWeightsInTraining" modified="No">False</Option>
    <Option name="TrainingMethod" modified="No">BP</Option>
    <Option name="LearningRate" modified="No">2.000000e-02</Option>
    <Option name="DecayRate" modified="No">1.000000e-02</Option>
    <Option name="TestRate" modified="Yes">5</Option>
    <Option name="EpochMonitoring" modified="No">False</Option>
    <Option name="Sampling" modified="No">1.000000e+00</Option>
    <Option name="SamplingEpoch" modified="No">1.000000e+00</Option>
    <Option name="SamplingImportance" modified="No">1.000000e+00</Option>
    <Option name="SamplingTraining" modified="No">True</Option>
    <Option name="SamplingTesting" modified="No">False</Option>
    <Option name="ResetStep" modified="No">50</Option>
    <Option name="Tau" modified="No">3.000000e+00</Option>
    <Option name="BPMode" modified="No">sequential</Option>
    <Option name="BatchSize" modified="No">-1</Option>
    <Option name="ConvergenceImprove" modified="No">1.000000e-30</Option>
    <Option name="ConvergenceTests" modified="No">-1</Option>
    <Option name="UseRegulator" modified="Yes">False</Option>
    <Option name="UpdateLimit" modified="No">10000</Option>
    <Option name="CalculateErrors" modified="No">False</Option>
    <Option name="WeightRange" modified="No">1.000000e+00</Option>
  </Options>
  <Variables NVar="15">
    <Variable VarIndex="0" Expression="NJets" Label="NJets" Title="NJets" Unit="" Internal="NJets" Type="I" Min="4.00000000e+00" Max="1.30000000e+01"/>
    <Variable VarIndex="1" Expression="NBJets_M" Label="NBJets_M" Title="NBJets_M" Unit="" Internal="NBJets_M" Type="I" Min="1.00000000e+00" Max="7.00000000e+00"/>
    <Variable VarIndex="2" Expression="NCJets_M" Label="NCJets_M" Title="NCJets_M" Unit="" Internal="NCJets_M" Type="I" Min="1.00000000e+00" Max="1.00000000e+01"/>
    <Variable VarIndex="3" Expression="BJet_M_delta_R" Label="BJet_M_delta_R" Title="BJet_M_delta_R" Unit="" Internal="BJet_M_delta_R" Type="F" Min="3.96064758e-01" Max="5.07587337e+00"/>
    <Variable VarIndex="4" Expression="H_Mass" Label="H_Mass" Title="H_Mass" Unit="" Internal="H_Mass" Type="F" Min="1.73422146e+01" Max="2.99998291e+02"/>
    <Variable VarIndex="5" Expression="BJet_Pt" Label="BJet_Pt" Title="BJet_Pt" Unit="" Internal="BJet_Pt" Type="F" Min="3.04308243e+01" Max="2.99903961e+02"/>
    <Variable VarIndex="6" Expression="CJet_Pt" Label="CJet_Pt" Title="CJet_Pt" Unit="" Internal="CJet_Pt" Type="F" Min="3.04533520e+01" Max="2.99903961e+02"/>
    <Variable VarIndex="7" Expression="Jet1_Pt" Label="Jet1_Pt" Title="Jet1_Pt" Unit="" Internal="Jet1_Pt" Type="F" Min="3.38219299e+01" Max="2.99983215e+02"/>
    <Variable VarIndex="8" Expression="Jet2_Pt" Label="Jet2_Pt" Title="Jet2_Pt" Unit="" Internal="Jet2_Pt" Type="F" Min="3.11904850e+01" Max="2.89616547e+02"/>
    <Variable VarIndex="9" Expression="Jet3_Pt" Label="Jet3_Pt" Title="Jet3_Pt" Unit="" Internal="Jet3_Pt" Type="F" Min="3.01238079e+01" Max="2.60883881e+02"/>
    <Variable VarIndex="10" Expression="Jet4_Pt" Label="Jet4_Pt" Title="Jet4_Pt" Unit="" Internal="Jet4_Pt" Type="F" Min="3.00009651e+01" Max="2.27541931e+02"/>
    <Variable VarIndex="11" Expression="Jet1_CSV" Label="Jet1_CSV" Title="Jet1_CSV" Unit="" Internal="Jet1_CSV" Type="F" Min="3.51784825e-02" Max="9.99602914e-01"/>
    <Variable VarIndex="12" Expression="Jet2_CSV" Label="Jet2_CSV" Title="Jet2_CSV" Unit="" Internal="Jet2_CSV" Type="F" Min="4.28134762e-02" Max="1.00000000e+00"/>
    <Variable VarIndex="13" Expression="Jet3_CSV" Label="Jet3_CSV" Title="Jet3_CSV" Unit="" Internal="Jet3_CSV" Type="F" Min="3.78077812e-02" Max="9.99781787e-01"/>
    <Variable VarIndex="14" Expression="Jet4_CSV" Label="Jet4_CSV" Title="Jet4_CSV" Unit="" Internal="Jet4_CSV" Type="F" Min="4.69597057e-02" Max="9.99630332e-01"/>
  </Variables>
  <Spectators NSpec="0"/>
  <Classes NClass="2">
    <Class Name="Signal" Index="0"/>
    <Class Name="Background" Index="1"/>
  </Classes>
  <Transformations NTransformations="1">
    <Transform Name="Normalize">
      <Selection>
        <Input NInputs="15">
          <Input Type="Variable" Label="NJets" Expression="NJets"/>
          <Input Type="Variable" Label="NBJets_M" Expression="NBJets_M"/>
          <Input Type="Variable" Label="NCJets_M" Expression="NCJets_M"/>
          <Input Type="Variable" Label="BJet_M_delta_R" Expression="BJet_M_delta_R"/>
          <Input Type="Variable" Label="H_Mass" Expression="H_Mass"/>
          <Input Type="Variable" Label="BJet_Pt" Expression="BJet_Pt"/>
          <Input Type="Variable" Label="CJet_Pt" Expression="CJet_Pt"/>
          <Input Type="Variable" Label="Jet1_Pt" Expression="Jet1_Pt"/>
          <Input Type="Variable" Label="Jet2_Pt" Expression="Jet2_Pt"/>
          <Input Type="Variable" Label="Jet3_Pt" Expression="Jet3_Pt"/>
          <Input Type="Variable" Label="Jet4_Pt" Expression="Jet4_Pt"/>
          <Input Type="Variable" Label="Jet1_CSV" Expression="Jet1_CSV"/>
          <Input Type="Variable" Label="Jet2_CSV" Expression="Jet2_CSV"/>
          <Input Type="Variable" Label="Jet3_CSV" Expression="Jet3_CSV"/>
          <Input Type="Variable" Label="Jet4_CSV" Expression="Jet4_CSV"/>
        </Input>
        <Output NOutputs="15">
          <Output Type="Variable" Label="NJets" Expression="NJets"/>
          <Output Type="Variable" Label="NBJets_M" Expression="NBJets_M"/>
          <Output Type="Variable" Label="NCJets_M" Expression="NCJets_M"/>
          <Output Type="Variable" Label="BJet_M_delta_R" Expression="BJet_M_delta_R"/>
          <Output Type="Variable" Label="H_Mass" Expression="H_Mass"/>
          <Output Type="Variable" Label="BJet_Pt" Expression="BJet_Pt"/>
          <Output Type="Variable" Label="CJet_Pt" Expression="CJet_Pt"/>
          <Output Type="Variable" Label="Jet1_Pt" Expression="Jet1_Pt"/>
          <Output Type="Variable" Label="Jet2_Pt" Expression="Jet2_Pt"/>
          <Output Type="Variable" Label="Jet3_Pt" Expression="Jet3_Pt"/>
          <Output Type="Variable" Label="Jet4_Pt" Expression="Jet4_Pt"/>
          <Output Type="Variable" Label="Jet1_CSV" Expression="Jet1_CSV"/>
          <Output Type="Variable" Label="Jet2_CSV" Expression="Jet2_CSV"/>
          <Output Type="Variable" Label="Jet3_CSV" Expression="Jet3_CSV"/>
          <Output Type="Variable" Label="Jet4_CSV" Expression="Jet4_CSV"/>
        </Output>
      </Selection>
      <Class ClassIndex="0">
        <Ranges>
          <Range Index="0" Min="4.0000000000000000e+00" Max="1.1000000000000000e+01"/>
          <Range Index="1" Min="1.0000000000000000e+00" Max="5.0000000000000000e+00"/>
          <Range Index="2" Min="1.0000000000000000e+00" Max="9.0000000000000000e+00"/>
          <Range Index="3" Min="3.9910838007926941e-01" Max="4.6865487098693848e+00"/>
          <Range Index="4" Min="1.9799924850463867e+01" Max="2.9997595214843750e+02"/>
          <Range Index="5" Min="3.0453351974487305e+01" Max="2.9970330810546875e+02"/>
          <Range Index="6" Min="3.0453351974487305e+01" Max="2.9970330810546875e+02"/>
          <Range Index="7" Min="3.3821929931640625e+01" Max="2.9998321533203125e+02"/>
          <Range Index="8" Min="3.1190485000610352e+01" Max="2.8806610107421875e+02"/>
          <Range Index="9" Min="3.0167037963867188e+01" Max="2.3709031677246094e+02"/>
          <Range Index="10" Min="3.0000965118408203e+01" Max="1.8758699035644531e+02"/>
          <Range Index="11" Min="3.5178482532501221e-02" Max="9.9960291385650635e-01"/>
          <Range Index="12" Min="4.2813476175069809e-02" Max="9.9952459335327148e-01"/>
          <Range Index="13" Min="4.1907086968421936e-02" Max="9.9952834844589233e-01"/>
          <Range Index="14" Min="4.6959705650806427e-02" Max="9.9963033199310303e-01"/>
        </Ranges>
      </Class>
      <Class ClassIndex="1">
        <Ranges>
          <Range Index="0" Min="4.0000000000000000e+00" Max="1.3000000000000000e+01"/>
          <Range Index="1" Min="1.0000000000000000e+00" Max="7.0000000000000000e+00"/>
          <Range Index="2" Min="1.0000000000000000e+00" Max="1.0000000000000000e+01"/>
          <Range Index="3" Min="3.9606475830078125e-01" Max="5.0758733749389648e+00"/>
          <Range Index="4" Min="1.7342214584350586e+01" Max="2.9999829101562500e+02"/>
          <Range Index="5" Min="3.0430824279785156e+01" Max="2.9990396118164062e+02"/>
          <Range Index="6" Min="3.1573255538940430e+01" Max="2.9990396118164062e+02"/>
          <Range Index="7" Min="3.6992221832275391e+01" Max="2.9994067382812500e+02"/>
          <Range Index="8" Min="3.1872360229492188e+01" Max="2.8961654663085938e+02"/>
          <Range Index="9" Min="3.0123807907104492e+01" Max="2.6088388061523438e+02"/>
          <Range Index="10" Min="3.0002609252929688e+01" Max="2.2754193115234375e+02"/>
          <Range Index="11" Min="3.6884333938360214e-02" Max="9.9945247173309326e-01"/>
          <Range Index="12" Min="4.3887086212635040e-02" Max="1.0000000000000000e+00"/>
          <Range Index="13" Min="3.7807781249284744e-02" Max="9.9978178739547729e-01"/>
          <Range Index="14" Min="4.8905182629823685e-02" Max="9.9958008527755737e-01"/>
        </Ranges>
      </Class>
      <Class ClassIndex="2">
        <Ranges>
          <Range Index="0" Min="4.0000000000000000e+00" Max="1.3000000000000000e+01"/>
          <Range Index="1" Min="1.0000000000000000e+00" Max="7.0000000000000000e+00"/>
          <Range Index="2" Min="1.0000000000000000e+00" Max="1.0000000000000000e+01"/>
          <Range Index="3" Min="3.9606475830078125e-01" Max="5.0758733749389648e+00"/>
          <Range Index="4" Min="1.7342214584350586e+01" Max="2.9999829101562500e+02"/>
          <Range Index="5" Min="3.0430824279785156e+01" Max="2.9990396118164062e+02"/>
          <Range Index="6" Min="3.0453351974487305e+01" Max="2.9990396118164062e+02"/>
          <Range Index="7" Min="3.3821929931640625e+01" Max="2.9998321533203125e+02"/>
          <Range Index="8" Min="3.1190485000610352e+01" Max="2.8961654663085938e+02"/>
          <Range Index="9" Min="3.0123807907104492e+01" Max="2.6088388061523438e+02"/>
          <Range Index="10" Min="3.0000965118408203e+01" Max="2.2754193115234375e+02"/>
          <Range Index="11" Min="3.5178482532501221e-02" Max="9.9960291385650635e-01"/>
          <Range Index="12" Min="4.2813476175069809e-02" Max="1.0000000000000000e+00"/>
          <Range Index="13" Min="3.7807781249284744e-02" Max="9.9978178739547729e-01"/>
          <Range Index="14" Min="4.6959705650806427e-02" Max="9.9963033199310303e-01"/>
        </Ranges>
      </Class>
    </Transform>
  </Transformations>
  <MVAPdfs/>
  <Weights>
    <Layout NLayers="3">
      <Layer Index="0" NNeurons="16">
        <Neuron NSynapses="20">
          1.0520371083055118e-01 3.2859162938704669e+00 2.3664999200359342e+00 9.3487657631325505e-01 5.3407709213686050e-01 -7.6729921214968781e+00 -1.4748418167070754e-01 6.4755520712057257e-01 -1.0978271539099405e+00 -3.6052345308376826e-01 -2.8662272873512978e-01 4.1531310684056932e-01 4.2114570265048568e-01 -7.7630481980615618e-01 -6.9328115098804918e-02 -4.5889196059759080e-02 -3.4845721230788662e-01 1.5646747416003490e-01 -2.8537861512973284e-01 2.6638984381747183e-03 
        </Neuron>
        <Neuron NSynapses="20">
          1.4792612879789913e+00 -8.2840259210893330e-02 -6.3591763835004156e-01 -4.1010251786419566e-01 -6.6067690009155697e+00 6.2939933226275024e-01 -7.9548303706533124e-02 -1.1106773897206605e+00 -3.3411488071870017e+00 -1.6949931042496810e-01 -3.0919312140256788e-01 -9.4957769294455807e-01 -5.1945610590824998e-01 4.1316873707996521e-01 8.1764602800488495e-01 -9.4492200146239347e-01 7.5893172604580894e-01 -4.1083783573481786e-01 -1.7985098702818489e+00 8.1864404121168874e+00 
        </Neuron>
        <Neuron NSynapses="20">
          2.5902883356650891e-02 -8.9116689174718289e-01 3.5431445842931879e+00 -6.1744049842155824e-01 -7.1442873683311403e-01 1.3786242525661991e+00 1.4598655365937019e-01 -8.4874540572898849e-01 1.4228297281276989e+00 2.9657801945669232e-01 6.5065478335552263e-02 1.3547696178461064e+00 -2.6285546471829518e-01 5.7489320057138826e-01 -3.9148601608663659e-02 -7.1463750164249856e-02 -4.3315989972316588e-01 7.8709829665821837e-02 -7.2256605055682266e-01 8.2662911076214396e-01 
        </Neuron>
        <Neuron NSynapses="20">
          -1.8404944808245010e+00 -1.0901080923687498e+00 4.6170547126365352e-01 -1.2782027801254067e-01 1.0623613877962235e+00 1.0277489775060702e+00 -3.7347857472196966e-01 2.1515277746045616e+00 7.4476163467191681e-01 -9.3094517027234286e-02 1.6773801507118405e-01 -1.2117360247234954e+00 1.6191740333616118e+00 5.5153964792725944e-03 4.3934924683702481e-01 1.1535020752469141e+00 -9.9659762108369565e-01 2.0549824371073497e+00 2.9981296600693135e+00 3.6545016031427076e+00 
        </Neuron>
        <Neuron NSynapses="20">
          2.6445476618289399e+00 1.7193640825670089e+00 -1.0762826622242347e+00 -1.7733916018314816e-01 -1.3325948119161575e+00 -5.7887199572109671e-01 4.8608430872376895e-01 -4.3395446412360533e-01 -1.7407636472930201e+00 -8.9930654328431933e-03 5.1207916207238491e-01 5.3782170754914316e-01 7.7256439750829493e+00 5.8912938952167104e-01 -6.7970467035993476e-01 3.0683036000909851e+00 -2.4004772705751565e-01 -7.5325492850899876e+00 -4.8522611245205827e+00 1.4902070134759357e-01 
        </Neuron>
        <Neuron NSynapses="20">
          -2.0263426060533556e+00 -4.4486551337250777e+00 1.3383515935048247e+00 5.7780999335502981e-01 -1.1519444719679967e-01 8.9279477853689770e-01 -4.0127603285185887e-01 6.6090276214275179e-01 7.6591816279640779e-01 -1.5453996248254101e-02 -8.3152792770995609e-01 7.5217692555185645e-01 -8.4746246673422709e-01 -4.7233279340697915e-01 -3.0551738637369635e-01 1.5814045835839246e+00 1.4939883807568735e-01 1.8013403001457677e+00 3.7760552692339971e-01 3.8555650089652532e-01 
        </Neuron>
        <Neuron NSynapses="20">
          -1.5188732050690852e+00 9.7778916392485621e-02 -1.6127300650050334e+00 5.1167460174231127e-01 3.6521155437202923e-01 -3.6606886921122628e-01 -1.2037614050373262e-01 -1.6695509711245600e+00 1.0045589277711033e+00 3.0965700328348578e-01 8.5365988604858567e-01 -1.1172165828515344e+00 3.5553784909729180e-01 -2.9571790562483979e-01 3.1219074941840080e-01 -3.1113920309591808e-01 2.2418591066141156e+00 -1.8892557275847535e-01 1.1527366846182241e+00 3.7647311835484359e-01 
        </Neuron>
        <Neuron NSynapses="20">
          1.0397811255524472e+00 -5.7856099832814689e-01 1.3223268123202306e-01 -4.6127631458414475e-01 6.8434881563086053e-02 1.5339033001616983e-01 3.2288179958207242e-01 1.1685790791720629e+00 -7.7306703792535236e-01 -1.0886769875527141e-01 -1.8728286882960915e-01 6.5003537764618591e-01 1.3111428078626636e-01 3.2078774748167587e+00 1.1635017463956005e-02 -3.1237555558834790e-01 8.2658264317507346e-01 1.0966446638313589e-01 -4.9067250976603027e-01 1.0356890859774213e-01 
        </Neuron>
        <Neuron NSynapses="20">
          7.0603901773524436e-01 1.1536813411152400e+00 1.4112337949021267e-01 1.4926833394987107e-01 8.2273786336874044e-02 3.3568460632297609e-01 -1.0992393517682914e-01 -1.4034490225830903e-01 -1.4231143927457557e+00 -1.6349785204275544e-01 8.6155931552509002e-01 -6.6807934030130811e-01 4.6540322380588078e-01 1.5251962081639319e+00 3.0286485086691811e-01 1.0766643990898090e+00 1.9717059538661308e+00 2.5105375223276105e-01 7.7247183560123822e-01 6.5585560897928297e-01 
        </Neuron>
        <Neuron NSynapses="20">
          -1.4563383384156525e+00 1.4095682785961861e+00 1.9971418398457774e+00 -4.5702139696295573e-02 7.5318677452268801e-01 -2.2708108244852793e-01 3.9105764397432546e-01 1.7111983776242954e+00 -3.9133419638853967e-01 -3.3150849646587538e-01 -5.7210691848748407e-01 -4.5706346223573951e-01 2.1324747866724969e-01 1.0776123616852400e+00 -7.1009702482261194e-01 1.0007020489072596e+00 -5.7771133453969192e-01 6.3722123930552876e-01 1.8553588797704352e+00 7.1271929872183351e-02 
        </Neuron>
        <Neuron NSynapses="20">
          -6.0366413909191963e-01 3.0716425917426393e-01 -7.8630343309586695e-02 4.5405686850186893e+00 3.5884495269127346e+00 3.1119903137362592e-01 -5.3347222911625891e-01 -4.7583878342758401e-01 -4.6002999420869839e-01 2.8501335885893231e-01 6.0540140809721388e-01 8.1480709281746735e-02 2.1982442911017941e-01 4.0556962815329536e+00 1.5597262846019893e+00 -4.5532081648969203e-01 2.4919246262985197e+00 6.7084259743639374e-01 4.1864046147929151e-01 -4.6090293033737328e-01 
        </Neuron>
        <Neuron NSynapses="20">
          4.1186235293935541e-01 -1.2268657402202465e-01 7.5321228511793722e-03 5.7563370487727106e-01 1.5322133113699968e-01 2.5040730365329567e-01 6.1524419651173431e-02 1.3684679599188543e+00 -3.8138384992651486e-01 -7.4321640486482460e-02 -8.0555510396617314e-01 2.0436270730225182e-02 7.7896382826122018e-02 -5.9717082066988303e-01 -2.4138694422749238e-01 -1.5269009101340394e-01 -1.7492097745130955e-01 5.0183401164918284e-01 -4.4681282902164127e-01 -3.4890659747486334e-02 
        </Neuron>
        <Neuron NSynapses="20">
          -4.0457745934421557e-01 1.4584654434272185e-01 -3.2739936435879324e-01 6.8297135715748625e-01 -5.0360443347569020e-02 2.1764062777977516e-02 -3.8195299485858200e-03 -2.0180862576194256e+00 -3.2146689615631041e-01 -2.2019458474532294e-02 7.4154676106141668e-02 1.9535990195630193e-01 1.1314008784712391e-01 -9.5148950382092715e-02 -2.7972463439652395e-01 1.2455608892965571e-02 9.6962218399457478e-01 2.8644558920230101e-01 -2.4028425352113159e-01 5.8484640352692942e-02 
        </Neuron>
        <Neuron NSynapses="20">
          -3.7831046904172561e-01 -1.9190299360543958e-01 -3.9031219632131786e-01 2.5184853199468127e-01 -7.0055775122960615e-02 9.6677039839686479e-02 2.1115026220057331e-01 1.0697939438874386e+00 -3.2970118380797903e-01 -9.8254415164489878e-02 5.9771473673915920e-01 -2.3899600390966166e-01 -4.2150546634166404e-02 -3.0778663475597184e-02 -2.9665996877365292e-01 -6.2280610668035974e-02 7.3136499850029857e-01 9.7843317961499268e-02 -7.8698549732155521e-01 -1.0974435553582262e-01 
        </Neuron>
        <Neuron NSynapses="20">
          -2.9213675633997138e-01 -1.8855447683545748e-01 -6.2916268582768298e-01 -7.5075057291202563e-02 -8.2031840121191038e-02 5.9877613058437723e-02 -7.2849729889359532e-02 1.2355726870650012e+00 2.4472808796359580e-01 1.3336605272095344e-02 1.9475441460636123e-01 1.3756453222227658e+00 3.4046943976158275e-02 -1.2485729691974830e-01 8.5933769503814011e-02 -3.9885764341096620e-02 7.9537728945822772e-01 1.7145281941127317e-02 -5.8423579614809928e-01 -9.3169139491325076e-02 
        </Neuron>
        <Neuron NSynapses="20">
          -1.1553573748142236e+00 6.2328366734787810e-01 4.2469364980766633e+00 2.4972861768984105e+00 -7.6729073948749982e-01 -5.3198620526014846e+00 -6.1622705052322324e-01 2.6565831739889689e-01 -2.2460076504985333e+00 -2.7757696818035565e-01 1.5507525503782485e-01 -1.3413606759334527e+00 1.8883171770595251e+00 8.0692102982393497e+00 9.3001197721982476e-01 2.1380153731252447e+00 2.2302696060538652e+00 -1.6180059652322583e+00 -2.0245621364366412e-01 4.0842081321748704e+00 
        </Neuron>
      </Layer>
      <Layer Index="1" NNeurons="21">
        <Neuron NSynapses="1">
          -4.2177988927850824e-01 
        </Neuron>
        <Neuron NSynapses="1">
          -3.0241720517121057e-01 
        </Neuron>
        <Neuron NSynapses="1">
          -4.5197317461459857e-01 
        </Neuron>
        <Neuron NSynapses="1">
          -5.3298990050353401e-01 
        </Neuron>
        <Neuron NSynapses="1">
          5.1359035093936323e-01 
        </Neuron>
        <Neuron NSynapses="1">
          5.2896428703679743e-01 
        </Neuron>
        <Neuron NSynapses="1">
          2.9973455970551122e-01 
        </Neuron>
        <Neuron NSynapses="1">
          -2.8772643261732606e-01 
        </Neuron>
        <Neuron NSynapses="1">
          -5.1391540732632979e-01 
        </Neuron>
        <Neuron NSynapses="1">
          -1.4370072750354190e-01 
        </Neuron>
        <Neuron NSynapses="1">
          -4.0525321766361200e-01 
        </Neuron>
        <Neuron NSynapses="1">
          -2.5290384905769875e-01 
        </Neuron>
        <Neuron NSynapses="1">
          -8.1890446034134246e-01 
        </Neuron>
        <Neuron NSynapses="1">
          -6.9193391722275976e-01 
        </Neuron>
        <Neuron NSynapses="1">
          5.8575643539229494e-01 
        </Neuron>
        <Neuron NSynapses="1">
          6.2906665312966814e-01 
        </Neuron>
        <Neuron NSynapses="1">
          -2.3095468353369500e-01 
        </Neuron>
        <Neuron NSynapses="1">
          -5.5581167557352373e-01 
        </Neuron>
        <Neuron NSynapses="1">
          -4.6156485735613606e-01 
        </Neuron>
        <Neuron NSynapses="1">
          -8.5360719256121531e-01 
        </Neuron>
        <Neuron NSynapses="1">
          -1.1371533752351095e+00 
        </Neuron>
      </Layer>
      <Layer Index="2" NNeurons="1">
        <Neuron NSynapses="0"/>
      </Layer>
    </Layout>
  </Weights>
</MethodSetup>
