<?xml version="1.0"?>
<MethodSetup Method="MLP::MLP">
  <GeneralInfo>
    <Info name="TMVA Release" value="4.2.1 [262657]"/>
    <Info name="ROOT Release" value="6.08/02 [395266]"/>
    <Info name="Creator" value="minerva1993"/>
    <Info name="Date" value="Tue Jul  4 14:40:07 2017"/>
    <Info name="Host" value="Linux htop.hanyang.ac.kr 2.6.32-696.el6.centos.plus.x86_64 #1 SMP Mon Apr 3 14:56:08 UTC 2017 x86_64 x86_64 x86_64 GNU/Linux"/>
    <Info name="Dir" value="/home/minerva1993/fcnc/analysis_javier/tmva/v3"/>
    <Info name="Training events" value="60000"/>
    <Info name="TrainingTime" value="6.54966551e+02"/>
    <Info name="AnalysisType" value="Classification"/>
  </GeneralInfo>
  <Options>
    <Option name="NCycles" modified="Yes">1000</Option>
    <Option name="HiddenLayers" modified="Yes">N+5</Option>
    <Option name="NeuronType" modified="Yes">tanh</Option>
    <Option name="RandomSeed" modified="No">1</Option>
    <Option name="EstimatorType" modified="No">CE</Option>
    <Option name="NeuronInputType" modified="No">sum</Option>
    <Option name="V" modified="Yes">False</Option>
    <Option name="VerbosityLevel" modified="No">Default</Option>
    <Option name="VarTransform" modified="Yes">N</Option>
    <Option name="H" modified="Yes">True</Option>
    <Option name="CreateMVAPdfs" modified="No">False</Option>
    <Option name="IgnoreNegWeightsInTraining" modified="No">False</Option>
    <Option name="TrainingMethod" modified="No">BP</Option>
    <Option name="LearningRate" modified="No">2.000000e-02</Option>
    <Option name="DecayRate" modified="No">1.000000e-02</Option>
    <Option name="TestRate" modified="Yes">5</Option>
    <Option name="EpochMonitoring" modified="No">False</Option>
    <Option name="Sampling" modified="No">1.000000e+00</Option>
    <Option name="SamplingEpoch" modified="No">1.000000e+00</Option>
    <Option name="SamplingImportance" modified="No">1.000000e+00</Option>
    <Option name="SamplingTraining" modified="No">True</Option>
    <Option name="SamplingTesting" modified="No">False</Option>
    <Option name="ResetStep" modified="No">50</Option>
    <Option name="Tau" modified="No">3.000000e+00</Option>
    <Option name="BPMode" modified="No">sequential</Option>
    <Option name="BatchSize" modified="No">-1</Option>
    <Option name="ConvergenceImprove" modified="No">1.000000e-30</Option>
    <Option name="ConvergenceTests" modified="No">-1</Option>
    <Option name="UseRegulator" modified="Yes">False</Option>
    <Option name="UpdateLimit" modified="No">10000</Option>
    <Option name="CalculateErrors" modified="No">False</Option>
    <Option name="WeightRange" modified="No">1.000000e+00</Option>
  </Options>
  <Variables NVar="15">
    <Variable VarIndex="0" Expression="NJets" Label="NJets" Title="NJets" Unit="" Internal="NJets" Type="I" Min="4.00000000e+00" Max="1.30000000e+01"/>
    <Variable VarIndex="1" Expression="NBJets_M" Label="NBJets_M" Title="NBJets_M" Unit="" Internal="NBJets_M" Type="I" Min="3.00000000e+00" Max="6.00000000e+00"/>
    <Variable VarIndex="2" Expression="NCJets_M" Label="NCJets_M" Title="NCJets_M" Unit="" Internal="NCJets_M" Type="I" Min="1.00000000e+00" Max="1.00000000e+01"/>
    <Variable VarIndex="3" Expression="BJet_M_delta_R" Label="BJet_M_delta_R" Title="BJet_M_delta_R" Unit="" Internal="BJet_M_delta_R" Type="F" Min="3.91514301e-01" Max="3.62139201e+00"/>
    <Variable VarIndex="4" Expression="H_Mass" Label="H_Mass" Title="H_Mass" Unit="" Internal="H_Mass" Type="F" Min="1.81019707e+01" Max="2.99993683e+02"/>
    <Variable VarIndex="5" Expression="BJet_Pt" Label="BJet_Pt" Title="BJet_Pt" Unit="" Internal="BJet_Pt" Type="F" Min="3.02222366e+01" Max="2.99903961e+02"/>
    <Variable VarIndex="6" Expression="CJet_Pt" Label="CJet_Pt" Title="CJet_Pt" Unit="" Internal="CJet_Pt" Type="F" Min="3.07679386e+01" Max="2.99903961e+02"/>
    <Variable VarIndex="7" Expression="Jet1_Pt" Label="Jet1_Pt" Title="Jet1_Pt" Unit="" Internal="Jet1_Pt" Type="F" Min="3.49363480e+01" Max="2.99905121e+02"/>
    <Variable VarIndex="8" Expression="Jet2_Pt" Label="Jet2_Pt" Title="Jet2_Pt" Unit="" Internal="Jet2_Pt" Type="F" Min="3.16454201e+01" Max="2.95347046e+02"/>
    <Variable VarIndex="9" Expression="Jet3_Pt" Label="Jet3_Pt" Title="Jet3_Pt" Unit="" Internal="Jet3_Pt" Type="F" Min="3.01570492e+01" Max="2.54746460e+02"/>
    <Variable VarIndex="10" Expression="Jet4_Pt" Label="Jet4_Pt" Title="Jet4_Pt" Unit="" Internal="Jet4_Pt" Type="F" Min="3.00013218e+01" Max="2.21337021e+02"/>
    <Variable VarIndex="11" Expression="Jet1_CSV" Label="Jet1_CSV" Title="Jet1_CSV" Unit="" Internal="Jet1_CSV" Type="F" Min="3.51784825e-02" Max="9.99445081e-01"/>
    <Variable VarIndex="12" Expression="Jet2_CSV" Label="Jet2_CSV" Title="Jet2_CSV" Unit="" Internal="Jet2_CSV" Type="F" Min="4.74148989e-02" Max="1.00000000e+00"/>
    <Variable VarIndex="13" Expression="Jet3_CSV" Label="Jet3_CSV" Title="Jet3_CSV" Unit="" Internal="Jet3_CSV" Type="F" Min="4.26050276e-02" Max="9.99781787e-01"/>
    <Variable VarIndex="14" Expression="Jet4_CSV" Label="Jet4_CSV" Title="Jet4_CSV" Unit="" Internal="Jet4_CSV" Type="F" Min="4.20862697e-02" Max="9.99633193e-01"/>
  </Variables>
  <Spectators NSpec="0"/>
  <Classes NClass="2">
    <Class Name="Signal" Index="0"/>
    <Class Name="Background" Index="1"/>
  </Classes>
  <Transformations NTransformations="1">
    <Transform Name="Normalize">
      <Selection>
        <Input NInputs="15">
          <Input Type="Variable" Label="NJets" Expression="NJets"/>
          <Input Type="Variable" Label="NBJets_M" Expression="NBJets_M"/>
          <Input Type="Variable" Label="NCJets_M" Expression="NCJets_M"/>
          <Input Type="Variable" Label="BJet_M_delta_R" Expression="BJet_M_delta_R"/>
          <Input Type="Variable" Label="H_Mass" Expression="H_Mass"/>
          <Input Type="Variable" Label="BJet_Pt" Expression="BJet_Pt"/>
          <Input Type="Variable" Label="CJet_Pt" Expression="CJet_Pt"/>
          <Input Type="Variable" Label="Jet1_Pt" Expression="Jet1_Pt"/>
          <Input Type="Variable" Label="Jet2_Pt" Expression="Jet2_Pt"/>
          <Input Type="Variable" Label="Jet3_Pt" Expression="Jet3_Pt"/>
          <Input Type="Variable" Label="Jet4_Pt" Expression="Jet4_Pt"/>
          <Input Type="Variable" Label="Jet1_CSV" Expression="Jet1_CSV"/>
          <Input Type="Variable" Label="Jet2_CSV" Expression="Jet2_CSV"/>
          <Input Type="Variable" Label="Jet3_CSV" Expression="Jet3_CSV"/>
          <Input Type="Variable" Label="Jet4_CSV" Expression="Jet4_CSV"/>
        </Input>
        <Output NOutputs="15">
          <Output Type="Variable" Label="NJets" Expression="NJets"/>
          <Output Type="Variable" Label="NBJets_M" Expression="NBJets_M"/>
          <Output Type="Variable" Label="NCJets_M" Expression="NCJets_M"/>
          <Output Type="Variable" Label="BJet_M_delta_R" Expression="BJet_M_delta_R"/>
          <Output Type="Variable" Label="H_Mass" Expression="H_Mass"/>
          <Output Type="Variable" Label="BJet_Pt" Expression="BJet_Pt"/>
          <Output Type="Variable" Label="CJet_Pt" Expression="CJet_Pt"/>
          <Output Type="Variable" Label="Jet1_Pt" Expression="Jet1_Pt"/>
          <Output Type="Variable" Label="Jet2_Pt" Expression="Jet2_Pt"/>
          <Output Type="Variable" Label="Jet3_Pt" Expression="Jet3_Pt"/>
          <Output Type="Variable" Label="Jet4_Pt" Expression="Jet4_Pt"/>
          <Output Type="Variable" Label="Jet1_CSV" Expression="Jet1_CSV"/>
          <Output Type="Variable" Label="Jet2_CSV" Expression="Jet2_CSV"/>
          <Output Type="Variable" Label="Jet3_CSV" Expression="Jet3_CSV"/>
          <Output Type="Variable" Label="Jet4_CSV" Expression="Jet4_CSV"/>
        </Output>
      </Selection>
      <Class ClassIndex="0">
        <Ranges>
          <Range Index="0" Min="4.0000000000000000e+00" Max="1.3000000000000000e+01"/>
          <Range Index="1" Min="3.0000000000000000e+00" Max="6.0000000000000000e+00"/>
          <Range Index="2" Min="1.0000000000000000e+00" Max="7.0000000000000000e+00"/>
          <Range Index="3" Min="4.0086761116981506e-01" Max="3.4809093475341797e+00"/>
          <Range Index="4" Min="1.8101970672607422e+01" Max="2.9837725830078125e+02"/>
          <Range Index="5" Min="3.0222236633300781e+01" Max="2.9954895019531250e+02"/>
          <Range Index="6" Min="3.0767938613891602e+01" Max="2.9982080078125000e+02"/>
          <Range Index="7" Min="3.4936347961425781e+01" Max="2.9982080078125000e+02"/>
          <Range Index="8" Min="3.1645420074462891e+01" Max="2.9469168090820312e+02"/>
          <Range Index="9" Min="3.0157049179077148e+01" Max="2.5474645996093750e+02"/>
          <Range Index="10" Min="3.0001321792602539e+01" Max="2.0891802978515625e+02"/>
          <Range Index="11" Min="3.5178482532501221e-02" Max="9.9943882226943970e-01"/>
          <Range Index="12" Min="4.7414898872375488e-02" Max="9.9963587522506714e-01"/>
          <Range Index="13" Min="4.2605027556419373e-02" Max="9.9958550930023193e-01"/>
          <Range Index="14" Min="4.2086269706487656e-02" Max="9.9963319301605225e-01"/>
        </Ranges>
      </Class>
      <Class ClassIndex="1">
        <Ranges>
          <Range Index="0" Min="4.0000000000000000e+00" Max="1.3000000000000000e+01"/>
          <Range Index="1" Min="3.0000000000000000e+00" Max="6.0000000000000000e+00"/>
          <Range Index="2" Min="1.0000000000000000e+00" Max="1.0000000000000000e+01"/>
          <Range Index="3" Min="3.9151430130004883e-01" Max="3.6213920116424561e+00"/>
          <Range Index="4" Min="1.8276983261108398e+01" Max="2.9999368286132812e+02"/>
          <Range Index="5" Min="3.0868970870971680e+01" Max="2.9990396118164062e+02"/>
          <Range Index="6" Min="3.1956342697143555e+01" Max="2.9990396118164062e+02"/>
          <Range Index="7" Min="3.7598060607910156e+01" Max="2.9990512084960938e+02"/>
          <Range Index="8" Min="3.1956342697143555e+01" Max="2.9534704589843750e+02"/>
          <Range Index="9" Min="3.0313037872314453e+01" Max="2.5459547424316406e+02"/>
          <Range Index="10" Min="3.0002681732177734e+01" Max="2.2133702087402344e+02"/>
          <Range Index="11" Min="4.4901352375745773e-02" Max="9.9944508075714111e-01"/>
          <Range Index="12" Min="4.7779712826013565e-02" Max="1.0000000000000000e+00"/>
          <Range Index="13" Min="4.9080748111009598e-02" Max="9.9978178739547729e-01"/>
          <Range Index="14" Min="4.3435480445623398e-02" Max="9.9962288141250610e-01"/>
        </Ranges>
      </Class>
      <Class ClassIndex="2">
        <Ranges>
          <Range Index="0" Min="4.0000000000000000e+00" Max="1.3000000000000000e+01"/>
          <Range Index="1" Min="3.0000000000000000e+00" Max="6.0000000000000000e+00"/>
          <Range Index="2" Min="1.0000000000000000e+00" Max="1.0000000000000000e+01"/>
          <Range Index="3" Min="3.9151430130004883e-01" Max="3.6213920116424561e+00"/>
          <Range Index="4" Min="1.8101970672607422e+01" Max="2.9999368286132812e+02"/>
          <Range Index="5" Min="3.0222236633300781e+01" Max="2.9990396118164062e+02"/>
          <Range Index="6" Min="3.0767938613891602e+01" Max="2.9990396118164062e+02"/>
          <Range Index="7" Min="3.4936347961425781e+01" Max="2.9990512084960938e+02"/>
          <Range Index="8" Min="3.1645420074462891e+01" Max="2.9534704589843750e+02"/>
          <Range Index="9" Min="3.0157049179077148e+01" Max="2.5474645996093750e+02"/>
          <Range Index="10" Min="3.0001321792602539e+01" Max="2.2133702087402344e+02"/>
          <Range Index="11" Min="3.5178482532501221e-02" Max="9.9944508075714111e-01"/>
          <Range Index="12" Min="4.7414898872375488e-02" Max="1.0000000000000000e+00"/>
          <Range Index="13" Min="4.2605027556419373e-02" Max="9.9978178739547729e-01"/>
          <Range Index="14" Min="4.2086269706487656e-02" Max="9.9963319301605225e-01"/>
        </Ranges>
      </Class>
    </Transform>
  </Transformations>
  <MVAPdfs/>
  <Weights>
    <Layout NLayers="3">
      <Layer Index="0" NNeurons="16">
        <Neuron NSynapses="20">
          -1.0449474090669255e+00 -2.5937362137652070e-01 6.0256444120034636e-01 2.0438209339425821e+00 -2.2898285569477603e+00 -7.4550048476882020e+00 -8.6420254516127848e-01 1.9284611942278789e+00 -1.0513628045536283e+00 -4.6057158439624363e-01 -2.1695501549402008e+00 -8.7619597289397089e-01 1.0014265860959559e+00 5.1775670293407750e-01 -4.1245976343861240e-01 8.2269865206666098e-02 -1.0405159526211294e+00 -1.9371225716190810e+00 2.8728746110162984e-01 1.3504378199921134e+00 
        </Neuron>
        <Neuron NSynapses="20">
          -1.2362640357670478e+00 -7.2453612459950867e-01 -1.7268632990868302e+00 1.8557717550724149e+00 2.9242376926557498e+00 3.3459233630085232e-02 2.2632209024826526e+00 -2.7651345545403201e+00 1.8957223565809638e+00 -5.8743274597369355e-01 7.7259950251865583e-01 -6.1694445732190939e-01 -5.8973990628069428e+00 7.0413376805067951e-01 3.2273121684534384e-01 -1.6747447730577129e-02 -1.1770760442235462e+00 4.9491754482466028e+00 1.0283360559703243e+00 3.4417859950360530e+00 
        </Neuron>
        <Neuron NSynapses="20">
          -9.1311418800990696e-01 7.3913170116581806e-01 1.2258413139658364e+00 2.2487247432076582e+00 -1.2766868612881386e+00 -1.7439350509523601e+00 -2.1825436678534040e+00 1.9243201114584382e-01 1.9175042482758913e+00 7.1782605323795245e-01 2.9776184476083647e+00 1.4635786707237626e+00 -3.9340463114113816e-01 2.1605165956218797e-01 -1.4513058410093631e+00 -8.2758938142039939e-01 -8.5956197043567417e-01 2.2799643263155529e+00 2.9573800019364015e-02 2.6646903334359364e+00 
        </Neuron>
        <Neuron NSynapses="20">
          -1.4408151598582741e+00 1.1394984432891500e+00 1.0164326253634920e-01 -1.5691675722010651e-01 9.4440916874105618e-01 -1.0778190066117717e+00 2.0037396871849573e+00 -1.8169572647756646e-01 -1.9872209220384909e+00 8.9733290560609705e-02 6.8630891483431289e-01 -1.0023479531775445e+00 2.3561475504882918e+00 9.1800003373921746e-01 -2.1466144766432446e-01 -3.3911097856299860e-01 -1.8871029834096762e+00 -2.4356396661612383e+00 2.5616466453165607e+00 1.2828425430002026e+00 
        </Neuron>
        <Neuron NSynapses="20">
          3.5866323462357723e+00 7.1247921719560239e+00 1.2951934845001378e+00 -5.6651540776487010e+00 -1.2575388246064811e+00 8.8033211988931370e-01 1.9749250720866689e+00 -3.3422782673563707e+00 -2.6315583353628305e+00 -4.2347662979596501e-01 -7.9725268872427024e-01 -3.4789755494264114e-02 7.1119978272927309e+00 -2.2432051691837884e+00 -1.0815437796446468e+00 2.3852561917169990e-01 2.7631334283382586e-01 -6.2878361285255018e+00 -4.2613565898137864e+00 1.4678015504436925e+00 
        </Neuron>
        <Neuron NSynapses="20">
          -2.2859852581257005e+00 -3.8849133095458482e-01 2.9650900734097791e+00 1.6272521920467944e+00 -3.5365597357977963e-01 4.4952736135688204e-02 -9.7965721691160490e-01 4.7181444827896019e-01 -5.5258959527191875e-01 9.6896550727710390e-02 -6.2762948951576847e-01 -4.7645837096237115e-01 4.1587661364824008e-01 7.3776966668487365e-01 -1.1919661948696727e+00 2.8397371425418133e-01 -1.3579264652250767e-01 2.5600855675335317e+00 4.1236010354866420e-01 -1.7773012584925771e+00 
        </Neuron>
        <Neuron NSynapses="20">
          -1.2788923940607320e+00 -2.4092316309669259e-01 -2.4006114995275381e+00 1.1821264410482171e+00 2.6992169027411381e+00 4.0227564997125398e-01 4.3963609019325817e-01 -6.8142599429283890e-01 -2.9707173216792309e+00 3.0632484676013216e-01 1.5460360318968622e+00 -8.4176056287252765e-01 -8.8827844714902873e-03 -1.4156411149082446e+00 -3.1416208438814675e-01 5.8938361840228570e-01 3.9321443720543980e+00 -1.4552170536529621e+00 -1.2392107254297815e+00 9.7380020703048586e-01 
        </Neuron>
        <Neuron NSynapses="20">
          1.2844264592202730e+00 3.8608969164318124e-01 -2.6827067389828612e+00 6.6997703103387085e-01 -4.3878396467292138e+00 -1.0427313003477658e+00 1.2468475108515389e+00 -5.4929959053411338e-02 7.1149711215412337e-01 -1.0930448746790540e-01 -3.2557182405014644e+00 1.1132568841471944e+00 3.0314404464022937e-01 3.9076476286961643e+00 1.2904411149566801e+00 -1.0031144629564151e-01 2.5821669533282523e+00 -1.7580810087550533e-01 -1.0684852138072394e-01 8.4583117346672598e-01 
        </Neuron>
        <Neuron NSynapses="20">
          2.6770241907758052e+00 1.0879474033370811e-02 1.6602346572361977e+00 -1.8135027374944774e+00 3.4514003048606412e+00 6.7608742861980065e-01 -4.1994066317471523e-01 8.6224540668729976e-01 -4.1786981818380659e-01 -2.9030674177645582e-01 8.3714137339327976e-01 1.6710212987367816e+00 1.3686596058087033e+00 4.4622035664782134e+00 2.6163815971659128e+00 -1.4014702589753714e+00 -1.8621172184767695e-01 1.3489358610334630e+00 1.8689966141505407e+00 8.7542743587841768e-02 
        </Neuron>
        <Neuron NSynapses="20">
          -2.4496314837704412e+00 -5.1397157931318860e-01 6.0666957583424386e-01 1.4200158157960883e+00 -1.4350647792345161e+00 -2.6427998520921742e-01 8.2054965084526754e-01 1.0816750738551362e-01 -1.1771336553707319e+00 -4.1849644011771703e-01 -2.6498573056375023e+00 3.8747477592283908e-01 -1.0851209946185722e-01 -8.1823482656819380e-01 7.0086448547015523e-01 -6.3573270522810421e-01 -1.2182666310304440e+00 -1.0525064492024402e-01 9.3886885600530434e-01 4.9525975535089395e-01 
        </Neuron>
        <Neuron NSynapses="20">
          1.6099021128237578e-01 -2.1606042409808479e-01 3.5006526735123673e+00 -5.9093986778556418e-01 -2.2356949770538037e+00 -7.4846855180542128e-03 6.2869867727219572e-02 -6.7604582053674700e-01 1.6798312587729103e+00 5.2944184433350827e-01 -7.4748916705165336e-01 -4.5095258043776421e-01 5.0804866363708867e-01 6.4639033164508786e-01 2.6943116072605053e+00 8.2199467262095793e-01 3.1868318708495358e-01 2.8952252640350779e-01 7.8428529461093111e-01 -3.8614431435623714e-01 
        </Neuron>
        <Neuron NSynapses="20">
          -1.0518878180037587e+00 -2.0100132974048429e-01 1.5454873838102526e-01 -1.3580457623151543e-01 2.0236915941209350e+00 2.1751982552050481e-01 2.2343515405947447e+00 7.8419133596507196e-01 -3.6004894971003112e+00 -1.7039171031610867e-01 1.3035589018699119e+00 8.2997139050179436e-01 2.6619102153299995e-01 -5.6914191351715736e-02 1.0634418564724080e+00 -1.3459736176825163e-01 1.8441477798970649e+00 -2.2762219676581805e-01 -1.0674940357194989e+00 -1.9219999281561043e-02 
        </Neuron>
        <Neuron NSynapses="20">
          -1.4054188669564416e+00 -1.3751737914662257e-01 -1.7527237375848501e+00 3.2704083331757422e-02 -6.4934906830894945e-01 1.5773571754849329e-02 1.4189113777150017e-01 3.7868610468899538e-01 1.1328759158574811e-01 -8.0728081771809054e-02 7.9146583802862147e-01 4.7075505445910315e-01 9.9498785489226152e-02 1.5190661252987855e-01 1.1906947303280828e+00 1.8874753895610480e-01 -3.1101040006753511e-01 2.5458015639704934e-01 -3.6194989988371723e-01 3.0166839357518932e-02 
        </Neuron>
        <Neuron NSynapses="20">
          -7.8229722801033696e-01 -1.2359756390686388e-01 8.0614022380623618e-01 -7.8055783191201045e-01 4.9181202939125446e-01 -1.9185330317552662e-01 -2.1778899107792629e-01 -1.5608964791427194e-02 1.2175908177892476e+00 -8.2385003999644504e-02 -1.6037405965941307e-01 -1.8922230733183174e+00 1.5176771169293912e-01 -1.0019925342598707e-01 1.6271197846878174e-01 -2.0724583270195393e-01 2.3872214617310950e+00 -3.9630275787395856e-02 3.4827070767860091e-01 -4.1518319475257581e-02 
        </Neuron>
        <Neuron NSynapses="20">
          -1.6668509071391874e-01 -2.4027189101500068e-01 -2.9571660645915621e-01 -1.5975579144298738e-01 3.1230543248283971e-01 1.8508045110181909e-02 -1.5115601173674065e-01 3.6006444200494059e-01 -3.2196547983958790e-01 -1.7380162107733334e-02 7.7401398154124568e-01 -1.4286619569106368e-01 -7.6149364167093489e-02 3.0633146741566419e-01 1.0120310751931620e+00 1.6854385164088703e-01 1.9384262804143255e-02 -3.9908595683236509e-01 -1.4015615313734211e+00 -1.3658548474408819e-01 
        </Neuron>
        <Neuron NSynapses="20">
          -1.6848575140866071e+00 9.1663836961244427e-01 4.3404152292059548e+00 9.3125251207805737e-01 -3.1309702785385647e+00 -7.3898155115416744e+00 -2.0870007173662684e+00 -3.1920193343097538e+00 -1.5178764835318281e+00 -4.7475683908144722e-01 -2.1087923991479145e+00 1.1446074987803803e-01 -8.7362151798562693e-01 6.2896117665595437e+00 8.1361570054228882e-01 -8.6245756171334217e-02 1.4121944617335194e+00 4.7501532232550242e-01 1.9004855060029746e+00 5.5751781020737070e+00 
        </Neuron>
      </Layer>
      <Layer Index="1" NNeurons="21">
        <Neuron NSynapses="1">
          -3.3616406932852422e-01 
        </Neuron>
        <Neuron NSynapses="1">
          -1.0794147532956173e+00 
        </Neuron>
        <Neuron NSynapses="1">
          -2.9023120938276437e-01 
        </Neuron>
        <Neuron NSynapses="1">
          -3.7936047152461172e-01 
        </Neuron>
        <Neuron NSynapses="1">
          3.9068906028676448e-01 
        </Neuron>
        <Neuron NSynapses="1">
          5.7442009626226243e-01 
        </Neuron>
        <Neuron NSynapses="1">
          -7.2235856957547762e-01 
        </Neuron>
        <Neuron NSynapses="1">
          -5.2489316843517264e-01 
        </Neuron>
        <Neuron NSynapses="1">
          3.5021215839117376e-01 
        </Neuron>
        <Neuron NSynapses="1">
          -3.0272011323951145e-02 
        </Neuron>
        <Neuron NSynapses="1">
          -3.1737752217143977e-01 
        </Neuron>
        <Neuron NSynapses="1">
          3.7799068931706892e-01 
        </Neuron>
        <Neuron NSynapses="1">
          7.3238398466382315e-01 
        </Neuron>
        <Neuron NSynapses="1">
          -7.6947251007423889e-01 
        </Neuron>
        <Neuron NSynapses="1">
          -3.1849705233506376e-01 
        </Neuron>
        <Neuron NSynapses="1">
          -1.5145931199913842e-01 
        </Neuron>
        <Neuron NSynapses="1">
          3.2350237760234868e-01 
        </Neuron>
        <Neuron NSynapses="1">
          -3.3363854501448087e-01 
        </Neuron>
        <Neuron NSynapses="1">
          -3.4789148351641758e-01 
        </Neuron>
        <Neuron NSynapses="1">
          -5.4584175126182555e-01 
        </Neuron>
        <Neuron NSynapses="1">
          -8.5856846517580665e-01 
        </Neuron>
      </Layer>
      <Layer Index="2" NNeurons="1">
        <Neuron NSynapses="0"/>
      </Layer>
    </Layout>
  </Weights>
</MethodSetup>
