<?xml version="1.0"?>
<MethodSetup Method="DNN::DNN">
  <GeneralInfo>
    <Info name="TMVA Release" value="4.2.1 [262657]"/>
    <Info name="ROOT Release" value="6.08/02 [395266]"/>
    <Info name="Creator" value="minerva1993"/>
    <Info name="Date" value="Tue Jul  4 15:01:22 2017"/>
    <Info name="Host" value="Linux htop.hanyang.ac.kr 2.6.32-696.el6.centos.plus.x86_64 #1 SMP Mon Apr 3 14:56:08 UTC 2017 x86_64 x86_64 x86_64 GNU/Linux"/>
    <Info name="Dir" value="/home/minerva1993/fcnc/analysis_javier/tmva/v3"/>
    <Info name="Training events" value="60000"/>
    <Info name="TrainingTime" value="1.22752186e+03"/>
    <Info name="AnalysisType" value="Classification"/>
  </GeneralInfo>
  <Options>
    <Option name="V" modified="Yes">True</Option>
    <Option name="VerbosityLevel" modified="No">Verbose</Option>
    <Option name="VarTransform" modified="Yes">N</Option>
    <Option name="H" modified="Yes">False</Option>
    <Option name="CreateMVAPdfs" modified="No">False</Option>
    <Option name="IgnoreNegWeightsInTraining" modified="No">False</Option>
    <Option name="Layout" modified="Yes">TANH|30,TANH|20,LINEAR</Option>
    <Option name="ErrorStrategy" modified="Yes">CROSSENTROPY</Option>
    <Option name="WeightInitialization" modified="Yes">XAVIERUNIFORM</Option>
    <Option name="Architecture" modified="No">STANDARD</Option>
    <Option name="TrainingStrategy" modified="Yes">LearningRate=0.01,Momentum=0.4,Repetitions=1,ConvergenceSteps=300,BatchSize=100,DropConfig=0.0+0.2+0.0,WeightDecay=0.001,Regularization=L2,TestRepetitions=5,Multithreading=True</Option>
  </Options>
  <Variables NVar="15">
    <Variable VarIndex="0" Expression="NJets" Label="NJets" Title="NJets" Unit="" Internal="NJets" Type="I" Min="4.00000000e+00" Max="1.30000000e+01"/>
    <Variable VarIndex="1" Expression="NBJets_M" Label="NBJets_M" Title="NBJets_M" Unit="" Internal="NBJets_M" Type="I" Min="3.00000000e+00" Max="6.00000000e+00"/>
    <Variable VarIndex="2" Expression="NCJets_M" Label="NCJets_M" Title="NCJets_M" Unit="" Internal="NCJets_M" Type="I" Min="1.00000000e+00" Max="1.00000000e+01"/>
    <Variable VarIndex="3" Expression="BJet_M_delta_R" Label="BJet_M_delta_R" Title="BJet_M_delta_R" Unit="" Internal="BJet_M_delta_R" Type="F" Min="3.91514301e-01" Max="3.62139201e+00"/>
    <Variable VarIndex="4" Expression="H_Mass" Label="H_Mass" Title="H_Mass" Unit="" Internal="H_Mass" Type="F" Min="1.81019707e+01" Max="2.99993683e+02"/>
    <Variable VarIndex="5" Expression="BJet_Pt" Label="BJet_Pt" Title="BJet_Pt" Unit="" Internal="BJet_Pt" Type="F" Min="3.02222366e+01" Max="2.99903961e+02"/>
    <Variable VarIndex="6" Expression="CJet_Pt" Label="CJet_Pt" Title="CJet_Pt" Unit="" Internal="CJet_Pt" Type="F" Min="3.07679386e+01" Max="2.99903961e+02"/>
    <Variable VarIndex="7" Expression="Jet1_Pt" Label="Jet1_Pt" Title="Jet1_Pt" Unit="" Internal="Jet1_Pt" Type="F" Min="3.49363480e+01" Max="2.99905121e+02"/>
    <Variable VarIndex="8" Expression="Jet2_Pt" Label="Jet2_Pt" Title="Jet2_Pt" Unit="" Internal="Jet2_Pt" Type="F" Min="3.16454201e+01" Max="2.95347046e+02"/>
    <Variable VarIndex="9" Expression="Jet3_Pt" Label="Jet3_Pt" Title="Jet3_Pt" Unit="" Internal="Jet3_Pt" Type="F" Min="3.01570492e+01" Max="2.54746460e+02"/>
    <Variable VarIndex="10" Expression="Jet4_Pt" Label="Jet4_Pt" Title="Jet4_Pt" Unit="" Internal="Jet4_Pt" Type="F" Min="3.00013218e+01" Max="2.21337021e+02"/>
    <Variable VarIndex="11" Expression="Jet1_CSV" Label="Jet1_CSV" Title="Jet1_CSV" Unit="" Internal="Jet1_CSV" Type="F" Min="3.51784825e-02" Max="9.99445081e-01"/>
    <Variable VarIndex="12" Expression="Jet2_CSV" Label="Jet2_CSV" Title="Jet2_CSV" Unit="" Internal="Jet2_CSV" Type="F" Min="4.74148989e-02" Max="1.00000000e+00"/>
    <Variable VarIndex="13" Expression="Jet3_CSV" Label="Jet3_CSV" Title="Jet3_CSV" Unit="" Internal="Jet3_CSV" Type="F" Min="4.26050276e-02" Max="9.99781787e-01"/>
    <Variable VarIndex="14" Expression="Jet4_CSV" Label="Jet4_CSV" Title="Jet4_CSV" Unit="" Internal="Jet4_CSV" Type="F" Min="4.20862697e-02" Max="9.99633193e-01"/>
  </Variables>
  <Spectators NSpec="0"/>
  <Classes NClass="2">
    <Class Name="Signal" Index="0"/>
    <Class Name="Background" Index="1"/>
  </Classes>
  <Transformations NTransformations="1">
    <Transform Name="Normalize">
      <Selection>
        <Input NInputs="15">
          <Input Type="Variable" Label="NJets" Expression="NJets"/>
          <Input Type="Variable" Label="NBJets_M" Expression="NBJets_M"/>
          <Input Type="Variable" Label="NCJets_M" Expression="NCJets_M"/>
          <Input Type="Variable" Label="BJet_M_delta_R" Expression="BJet_M_delta_R"/>
          <Input Type="Variable" Label="H_Mass" Expression="H_Mass"/>
          <Input Type="Variable" Label="BJet_Pt" Expression="BJet_Pt"/>
          <Input Type="Variable" Label="CJet_Pt" Expression="CJet_Pt"/>
          <Input Type="Variable" Label="Jet1_Pt" Expression="Jet1_Pt"/>
          <Input Type="Variable" Label="Jet2_Pt" Expression="Jet2_Pt"/>
          <Input Type="Variable" Label="Jet3_Pt" Expression="Jet3_Pt"/>
          <Input Type="Variable" Label="Jet4_Pt" Expression="Jet4_Pt"/>
          <Input Type="Variable" Label="Jet1_CSV" Expression="Jet1_CSV"/>
          <Input Type="Variable" Label="Jet2_CSV" Expression="Jet2_CSV"/>
          <Input Type="Variable" Label="Jet3_CSV" Expression="Jet3_CSV"/>
          <Input Type="Variable" Label="Jet4_CSV" Expression="Jet4_CSV"/>
        </Input>
        <Output NOutputs="15">
          <Output Type="Variable" Label="NJets" Expression="NJets"/>
          <Output Type="Variable" Label="NBJets_M" Expression="NBJets_M"/>
          <Output Type="Variable" Label="NCJets_M" Expression="NCJets_M"/>
          <Output Type="Variable" Label="BJet_M_delta_R" Expression="BJet_M_delta_R"/>
          <Output Type="Variable" Label="H_Mass" Expression="H_Mass"/>
          <Output Type="Variable" Label="BJet_Pt" Expression="BJet_Pt"/>
          <Output Type="Variable" Label="CJet_Pt" Expression="CJet_Pt"/>
          <Output Type="Variable" Label="Jet1_Pt" Expression="Jet1_Pt"/>
          <Output Type="Variable" Label="Jet2_Pt" Expression="Jet2_Pt"/>
          <Output Type="Variable" Label="Jet3_Pt" Expression="Jet3_Pt"/>
          <Output Type="Variable" Label="Jet4_Pt" Expression="Jet4_Pt"/>
          <Output Type="Variable" Label="Jet1_CSV" Expression="Jet1_CSV"/>
          <Output Type="Variable" Label="Jet2_CSV" Expression="Jet2_CSV"/>
          <Output Type="Variable" Label="Jet3_CSV" Expression="Jet3_CSV"/>
          <Output Type="Variable" Label="Jet4_CSV" Expression="Jet4_CSV"/>
        </Output>
      </Selection>
      <Class ClassIndex="0">
        <Ranges>
          <Range Index="0" Min="4.0000000000000000e+00" Max="1.3000000000000000e+01"/>
          <Range Index="1" Min="3.0000000000000000e+00" Max="6.0000000000000000e+00"/>
          <Range Index="2" Min="1.0000000000000000e+00" Max="7.0000000000000000e+00"/>
          <Range Index="3" Min="4.0086761116981506e-01" Max="3.4809093475341797e+00"/>
          <Range Index="4" Min="1.8101970672607422e+01" Max="2.9837725830078125e+02"/>
          <Range Index="5" Min="3.0222236633300781e+01" Max="2.9954895019531250e+02"/>
          <Range Index="6" Min="3.0767938613891602e+01" Max="2.9982080078125000e+02"/>
          <Range Index="7" Min="3.4936347961425781e+01" Max="2.9982080078125000e+02"/>
          <Range Index="8" Min="3.1645420074462891e+01" Max="2.9469168090820312e+02"/>
          <Range Index="9" Min="3.0157049179077148e+01" Max="2.5474645996093750e+02"/>
          <Range Index="10" Min="3.0001321792602539e+01" Max="2.0891802978515625e+02"/>
          <Range Index="11" Min="3.5178482532501221e-02" Max="9.9943882226943970e-01"/>
          <Range Index="12" Min="4.7414898872375488e-02" Max="9.9963587522506714e-01"/>
          <Range Index="13" Min="4.2605027556419373e-02" Max="9.9958550930023193e-01"/>
          <Range Index="14" Min="4.2086269706487656e-02" Max="9.9963319301605225e-01"/>
        </Ranges>
      </Class>
      <Class ClassIndex="1">
        <Ranges>
          <Range Index="0" Min="4.0000000000000000e+00" Max="1.3000000000000000e+01"/>
          <Range Index="1" Min="3.0000000000000000e+00" Max="6.0000000000000000e+00"/>
          <Range Index="2" Min="1.0000000000000000e+00" Max="1.0000000000000000e+01"/>
          <Range Index="3" Min="3.9151430130004883e-01" Max="3.6213920116424561e+00"/>
          <Range Index="4" Min="1.8276983261108398e+01" Max="2.9999368286132812e+02"/>
          <Range Index="5" Min="3.0868970870971680e+01" Max="2.9990396118164062e+02"/>
          <Range Index="6" Min="3.1956342697143555e+01" Max="2.9990396118164062e+02"/>
          <Range Index="7" Min="3.7598060607910156e+01" Max="2.9990512084960938e+02"/>
          <Range Index="8" Min="3.1956342697143555e+01" Max="2.9534704589843750e+02"/>
          <Range Index="9" Min="3.0313037872314453e+01" Max="2.5459547424316406e+02"/>
          <Range Index="10" Min="3.0002681732177734e+01" Max="2.2133702087402344e+02"/>
          <Range Index="11" Min="4.4901352375745773e-02" Max="9.9944508075714111e-01"/>
          <Range Index="12" Min="4.7779712826013565e-02" Max="1.0000000000000000e+00"/>
          <Range Index="13" Min="4.9080748111009598e-02" Max="9.9978178739547729e-01"/>
          <Range Index="14" Min="4.3435480445623398e-02" Max="9.9962288141250610e-01"/>
        </Ranges>
      </Class>
      <Class ClassIndex="2">
        <Ranges>
          <Range Index="0" Min="4.0000000000000000e+00" Max="1.3000000000000000e+01"/>
          <Range Index="1" Min="3.0000000000000000e+00" Max="6.0000000000000000e+00"/>
          <Range Index="2" Min="1.0000000000000000e+00" Max="1.0000000000000000e+01"/>
          <Range Index="3" Min="3.9151430130004883e-01" Max="3.6213920116424561e+00"/>
          <Range Index="4" Min="1.8101970672607422e+01" Max="2.9999368286132812e+02"/>
          <Range Index="5" Min="3.0222236633300781e+01" Max="2.9990396118164062e+02"/>
          <Range Index="6" Min="3.0767938613891602e+01" Max="2.9990396118164062e+02"/>
          <Range Index="7" Min="3.4936347961425781e+01" Max="2.9990512084960938e+02"/>
          <Range Index="8" Min="3.1645420074462891e+01" Max="2.9534704589843750e+02"/>
          <Range Index="9" Min="3.0157049179077148e+01" Max="2.5474645996093750e+02"/>
          <Range Index="10" Min="3.0001321792602539e+01" Max="2.2133702087402344e+02"/>
          <Range Index="11" Min="3.5178482532501221e-02" Max="9.9944508075714111e-01"/>
          <Range Index="12" Min="4.7414898872375488e-02" Max="1.0000000000000000e+00"/>
          <Range Index="13" Min="4.2605027556419373e-02" Max="9.9978178739547729e-01"/>
          <Range Index="14" Min="4.2086269706487656e-02" Max="9.9963319301605225e-01"/>
        </Ranges>
      </Class>
    </Transform>
  </Transformations>
  <MVAPdfs/>
  <Weights InputWidth="15" Depth="3" LossFunction="C" OutputFunction="S">
    <Layer ActivationFunction="3">
      <Weights rows="30" cols="15">
        -2.2246335349218052e-01 8.3168285892316396e-02 -1.0868664912455621e-01 -1.3415007206728854e-01 -7.9441268337332366e-02 1.6789822783555833e-01 -3.2861872864561170e-01 1.7967753975615786e-02 3.3901991698653472e-01 -2.4636802557411919e-01 -2.8385593483407662e-01 1.4516454445433119e-02 1.6111739406579695e-01 -2.3739148915944389e-01 -2.1230158996983006e-01 -3.7632481953362990e-01 -1.4971240552088164e-01 -1.7785196944634682e-01 3.4099133911168278e-01 1.5489454936030783e-01 -3.0435495582169698e-02 1.1563964208424933e-01 -5.3461058128721650e-02 -4.7987052910022271e-01 -1.3577319440483893e-01 8.4166932294806266e-03 1.4398994829065548e-01 7.4647023020378123e-02 -2.3873568407223011e-01 3.1431396337459000e-01 1.4336537627401161e-01 -1.5274096285079936e-01 6.1178050222264369e-01 5.4815226937637941e-02 -3.6640297734887278e-01 -1.7615593394211931e-01 3.7851522670664589e-01 -2.3080982828914742e-01 3.1028833303133341e-01 -4.4059647797783874e-01 1.9640210136448691e-01 -3.8923226129456623e-01 4.2200366941100759e-01 -7.4208665664804163e-02 -1.3126069447970532e+00 1.0432401237170410e+00 2.8447221853018695e-01 4.5355757651300155e-01 -3.4578985755545005e-01 -8.1137439179040116e-01 2.3319354922853122e-03 8.8534021825547704e-01 1.2478228241449105e+00 -1.2282530504413789e+00 3.5950208707437831e-01 -3.6429824371515412e-01 -5.0176770493270340e-01 3.8935476261954705e-01 -6.2972285076701176e-02 3.3408210680477224e-01 5.5874779732565827e-01 -5.0068080310392404e-01 1.3653881428669534e-01 7.4098622416374416e-01 1.8062193024822437e-01 -4.5135482514467040e-01 3.7360665505732021e-01 2.1954515161275698e+00 4.2705146585312959e-01 1.8966355095869775e-01 -9.5873237336013950e-01 -3.8833237656096309e-01 6.9419300198040534e-01 8.9533514103118561e-01 4.6432586875798371e-01 6.9239714470064784e-01 8.5034243674278731e-01 9.1534027491735592e-01 3.3490314341594035e-01 -1.9050260404620027e+00 -3.1827153164901650e-01 -1.0526411861375440e+00 -1.0354529879707788e-01 5.0586220223402190e-01 1.9827312383855231e-01 -1.2660888131228248e-01 -4.1191206131385455e-01 2.9591336413441588e-01 -7.1250646221546046e-02 -1.1448856687085347e+00 -3.1253926207750178e+00 6.9305149284937237e-02 9.8802681744479870e-01 3.4926174767309648e-01 9.2803173082834567e-01 -5.0164242609898502e-01 1.0566826870938086e+00 5.6497939848788448e-01 1.3783120196171115e+00 8.3281917171740749e-01 -8.5486425107627093e-02 3.9937537257576788e-01 9.4460253901260571e-01 5.3743048017587947e-01 1.2362061778775513e-01 -4.9898334757028534e-01 -4.9373724237246475e-01 -4.8468663504399190e-01 -3.6987451526273703e-02 6.6829564477631276e-01 7.0226039933377093e-01 -9.7475666371111255e-02 -1.2706289237410564e+00 -1.1950700533790861e+00 -7.5408303386745930e-04 -8.3656998261688020e-01 -8.1290571663673117e-01 -4.8767256515498464e-01 -4.8447755984494029e-01 -8.2840252116699842e-01 -1.8762786116722854e+00 -2.6877759541066548e-01 -1.0061279812911448e+00 3.9517361100574599e-01 6.8692371448622891e-01 -7.2288455785195382e-01 1.5182512762953175e+00 -5.5880738286310305e-01 -2.5786182840641252e-02 -4.3188991197367195e-02 -3.7162072205946994e-01 7.6108753632261128e-01 -2.9850232243983305e-01 -5.6182681807972468e-01 -1.4367569849692019e+00 -3.2364059914098614e-01 1.2456348202866661e+00 6.2469409770264184e-01 -1.1285272271145511e-01 3.4561522906779102e-01 1.5532863561165278e+00 -2.9369357564108167e-01 -1.1962399201623772e+00 5.2795807137573214e-01 1.9436716407340393e-01 3.2981760898899209e-01 2.5132538337396731e-02 2.5180120649264626e-01 -2.1870505761298707e-02 -3.3018104459327313e-01 -6.7728078915565992e-01 -1.1945104940957816e+00 2.6352119504409806e-02 8.8243488378652879e-01 2.3081108635145515e+00 -9.6545947742011617e-01 3.8970238780185507e-01 -1.8883334562186779e-01 3.5443793994351447e-01 -4.4285201226228249e-01 -7.2006248331542166e-01 3.4595356970942553e-01 2.2005049800435128e-01 5.7598398211247415e-01 -3.4836637082329214e-01 -1.0538279518761776e-01 -3.6793567588429266e-01 -4.3119609572885270e-01 4.3513129245598869e-01 7.8938988105654195e-02 6.2067188216470981e-01 -5.8046941819107123e-01 -2.6551898737993279e-01 -1.0439893170559376e+00 -6.7913127942200247e-01 -3.5856680781474010e-01 -8.7658675563300958e-01 -1.2892070693936170e-01 -3.1052861022637618e-01 8.7314239839933305e-02 -1.9993909869569233e-02 1.8572251845988999e-01 3.3142291243954369e-01 -1.4159523292780510e-01 3.4074855658923653e-01 -2.2845014847126141e-01 1.3650962502268080e-01 -1.5648402068866778e+00 -1.7115935406498703e-01 -1.1082133275578998e+00 -5.2339027415068895e-01 7.4790080546443816e-01 -1.5449051032790950e-01 -1.6112202698756416e-02 4.7300738210644999e-01 -5.0044941624139483e-01 4.2816987382160770e-01 1.7020166443491089e+00 -1.9042721455120979e+00 -7.4089992363645840e-01 -1.1192949597719128e+00 -5.5974660841063961e-01 8.4374077117573110e-01 -5.4423367153982138e-01 5.3304583352264616e-02 -4.2307036047016723e-02 -1.5172865286281065e+00 3.4489499994706457e-01 2.0297867277514467e-01 1.6367802749985164e-01 -6.5096909807414483e-01 4.5326232350523321e-01 -2.2451526691257753e-01 4.7323298713502365e-01 -5.9705468702998865e-01 4.2542179521759826e-01 2.0056935229278203e-01 -8.8196392965007853e-01 -3.1409016167339232e-01 6.4128728755061104e-01 6.7640124810031321e-01 2.7545511211453187e-02 1.7046585072270766e+00 1.1281806067633000e+00 9.5413939482211985e-01 1.6483223439743955e-01 -3.0700274676406129e-02 -6.1318116521363752e-01 5.9491718038547514e-01 1.9529072088332800e+00 8.1908478559515163e-02 -1.4895914513337971e+00 -7.7689651596941656e-01 5.1616269384062474e-01 -1.1136077638440806e-01 -4.0161575027050650e-01 -1.0158108281212727e-01 -9.6403289266199321e-01 -3.5417463500556745e-01 -5.0709440185427446e-01 -4.4926692591261969e-01 1.1041683067152738e-01 -1.0390223530351191e-01 2.1701446513577352e-01 -1.2808866759419432e-01 6.7674846908078359e-02 -3.1711704856076478e-01 4.5247267260834884e-01 2.0641413765840075e-01 1.0919515005005451e-01 -2.2901672252011330e-02 -2.2921218644458138e-01 2.5392924286117202e-01 1.8648978408938205e-01 -6.4765551620793949e-02 -1.7516651190202368e+00 5.4461913121985239e-01 2.6055798221173854e-01 -1.0026396789825722e+00 -1.9721341739300821e-01 -2.9960558664299364e-01 1.6920224151566476e-01 6.7498351778680632e-02 -7.0978985064011313e-01 9.6656836357697240e-01 6.5095899719489911e-02 1.3780461289040136e-01 9.8603461495925138e-01 -1.3360015911534988e+00 5.5607486773987547e-01 1.5166711133592061e+00 5.8333538026117415e-01 -8.0401193931639869e-01 1.4707411066448066e+00 7.4018939364702963e-01 -1.3546390551935599e+00 -4.6816733095863550e-01 -9.7693591444624506e-01 -2.4834233687215906e-01 -4.7969387559171600e-01 -8.6557492553125182e-01 -7.9893840564077834e-01 3.4585413149033867e-01 8.8089542933784581e-01 3.2784923227285667e-01 -6.6779741398713366e-01 -8.5921753820468694e-01 1.2731282123017755e+00 -2.1511129798067934e+00 -1.4611911375599720e+00 5.3723791652702461e-02 -1.7684998996251716e-01 -4.5591654769540119e-01 3.9213503250253123e-01 -4.3719363717444754e-01 -1.2589282789097098e+00 -3.4548317919680377e-01 -5.9500930867076543e-02 9.4027203485522390e-03 2.2389201853536325e-01 1.1373403518900664e+00 1.2409204909015330e+00 1.5061476730444066e+00 1.7451678198811487e+00 1.0800617973847719e+00 -1.6885664239914611e+00 4.6386711615681497e-01 9.1427609614264282e-01 -9.7065310926718840e-01 3.0387538330011055e-01 -4.3299813969500339e-01 5.7601373507467457e-01 -3.1580753217595081e-01 1.7521068761049396e-01 2.3922933279017966e-01 -1.4712347603906899e-02 1.9658641362821039e-01 -1.9705347894622055e-01 -5.3709394746751171e-01 7.7572418455391456e-01 2.1083170901787007e-01 2.4163925192003907e-01 1.4258489773665156e-01 -9.6909699750173006e-01 -1.1315895101976261e+00 3.2140462650281831e-01 4.9182460354475649e-01 -1.0192820882206369e-01 7.4900594612200500e-01 -4.0125021789854237e-01 -8.8680735841119818e-01 -2.7274111262502981e-01 2.3755006632606768e-01 -2.0887783048515457e-01 3.8550123882100627e-02 -1.7699596389444777e-01 -4.8621616341715379e-01 8.6307629653017678e-02 -1.4888883433087549e-01 -5.7786645097160283e-01 6.9025991443788148e-01 2.8791382064085713e-01 -5.8888314401453767e-01 -7.3533205843103711e-01 8.7133509441648915e-01 1.6511046375662932e+00 -4.0743392977261894e-01 -5.9969864190496280e-01 8.3412847197027939e-01 -5.5909547084559641e-01 2.9395873718423776e-01 -7.6721468872840282e-01 1.5551645957142750e+00 -1.0014097326707918e+00 8.0952167994917112e-01 9.9268407149802762e-01 -5.7996054627962856e-01 1.3388933168392908e-01 -4.4404459745974922e-01 3.5407794136702270e-01 -1.6913579690226571e-01 1.4910051278437428e+00 -2.2852116001068437e-01 9.4582695158567853e-01 6.2320555117316834e-01 -8.5177017970934721e-01 4.5839062010352899e-01 -3.0846440392028990e-01 -4.0827328539157093e-01 -8.0136515886522808e-01 -3.1655478043217161e-01 -3.0064284194378005e-01 -5.9897154783006001e-01 8.0913469854751774e-01 9.1947804800856447e-01 4.7902888828471640e-01 -6.7716747066296420e-02 6.8323159577473325e-01 1.6986525939291510e+00 1.8132786031053327e-01 -3.1504294208261313e-01 -4.8673980014305712e-01 -9.2277543261185091e-01 -4.4415836724921848e-01 -2.3612089264642139e-01 -8.7838158141933254e-01 4.4782383567832784e-01 -4.5473461045086538e-01 9.4383750483711626e-01 -3.7004494972389257e-01 1.8398219114424608e-01 4.3782288947211406e-01 -4.2286824164427822e-01 -6.7801174370012451e-01 -2.2558477098361358e-02 2.4352064236499690e-01 1.2831301712448964e-02 4.8773228496733496e-02 -3.6884565644699818e-01 1.4629744372867937e-01 -2.3588465400100375e-01 -1.6321712771413979e+00 -5.9880691610664527e-01 -2.4689560963078105e-01 7.4665038547852025e-01 -5.2688482269764747e-01 1.4076108197913559e+00 -6.6966083276236554e-01 6.4035539753632587e-01 -1.2278510242830523e+00 -1.5122688008532021e+00 -1.2471998826866770e+00 1.5965938884615387e-02 3.5313372380110419e-01 -8.3165077497729223e-01 -1.4210715263392624e+00 -5.7435204132925466e-01 -1.1310303216907931e+00 -8.9636942444232440e-02 7.0658299226074006e-01 -7.0177550507026809e-01 -9.6411171851639454e-01 -1.1079808421758299e+00 1.3396681564572577e+00 -9.8069779057422979e-01 -2.9903386672086968e-01 3.6757862473987446e-01 2.3215156460279512e-01 -1.1899116835460612e-01 -2.5962691651276298e-01 -2.1672453020980140e-01 -1.6483034084506149e-02 -5.5660280489354591e-02 2.4709864165839035e-02 7.2567428958954891e-02 -1.5585939089150975e+00 -1.9507647921819285e-01 1.5006656954114006e-01 1.4154496470655242e-01 -1.3771829953673922e-01 6.1302656412731704e-01 1.2267143617175053e-01 1.0733507964625881e+00 -7.4653932090833874e-01 9.3818639983518348e-01 5.9008016348428649e-01 -7.3049564954457202e-01 -7.5217957790366774e-01 3.6215467869396878e-01 1.0159679740529277e+00 
      </Weights>
      <Biases rows="30" cols="1">
        -1.7011315503792701e-01 -2.4876517511693177e-01 2.8345677963884469e-01 -3.7881906378590363e-01 -4.3757142499872372e-02 -3.0042912693198948e-01 -1.3421706015268062e+00 -1.1576211272035140e+00 -1.0610789667343952e+00 8.4533994276285218e-01 1.4606820944931245e-01 -5.8958874235928227e-01 -9.1663925926787804e-01 1.0790274572770733e+00 -4.2331773280196210e-02 5.7077326205694701e-01 1.4298423822083579e-02 -8.4444584093860775e-01 -1.1956897396917021e-02 -9.5800694107458118e-01 2.2304697100823709e+00 -1.0737178738271495e-01 5.0112884904265254e-01 4.3327791219372663e-01 7.7295296266369451e-01 -1.4709895822710586e+00 7.4558027749180145e-01 -8.7673533489620981e-01 9.4395279498976484e-02 9.0789520660318523e-01 
      </Biases>
    </Layer>
    <Layer ActivationFunction="3">
      <Weights rows="20" cols="30">
        2.4178831078432172e-01 -2.8969769483419429e-02 6.7722550851695418e-01 6.6406095477662630e-02 -2.7305204049278559e-01 2.5567776300710637e-01 -7.3866706509142710e-01 -9.1340791974949029e-02 -1.1487554079080908e+00 -1.1176679703883348e-01 -1.2414484842522011e-01 4.3446235491650093e-01 4.8913787162839212e-01 2.9549192851059090e-02 5.3126555866111902e-01 4.2850197355058399e-02 -1.9492389951711378e-01 3.6293531663931022e-01 2.4439771584497730e-01 2.0436130901319746e-01 5.8780869091213905e-01 -3.4173881440612502e-01 2.1299260150035393e-01 7.8912654267650179e-02 -8.5862006296791527e-02 7.3102156800156790e-02 5.7456858292782062e-04 1.4055609498539332e-01 4.3629585652493912e-02 -6.1188108511189931e-01 -4.8759266193923961e-01 -1.0843469908228502e+00 2.3243682763289700e-01 1.0652061288417243e-01 -7.8881527879473923e-01 5.2696785368728716e-01 -3.3155809684616494e-01 -1.0024033150522629e-01 2.3638473009255565e-02 -8.3484579595968522e-01 -2.3122393624929529e+00 -1.0689605510666145e-01 -2.7220180699233648e-01 5.4492384704524333e-01 8.4223076633615016e-02 -1.4584717064645463e+00 -1.4610154239394305e-01 3.8489635477558204e-01 -4.0029369305010093e-01 3.3630901631535276e-01 3.4583926210512914e-02 5.2460826252368786e-01 -4.5798222579407785e-02 -1.0198431195087345e+00 -8.5143370334515939e-02 4.2418694371201188e-01 5.9442949286068053e-02 1.0882987954796681e+00 1.2672843278548845e-01 1.1147427339899249e-01 7.3359031572212097e-01 6.8636895191611247e-01 3.5133620278491412e-01 -6.9382614573469434e-02 2.9884903061753554e-01 -8.0535632941922697e-01 -1.8894445859112513e-01 9.1554488084134036e-02 -1.3334489735963850e-01 1.5322611720172545e+00 1.7814371481939053e+00 3.8498115755903062e-01 -3.1550597211668585e-01 -6.8509828979076326e-01 -8.5236450246588741e-02 9.1514128790413185e-01 2.2451715366818600e-01 6.6354928267515559e-02 2.6592612851935493e-01 -1.7536751441127423e+00 5.4367345134581879e-01 -1.7118385717285203e-01 3.8985479913279852e-01 4.2222396397976714e-01 2.6175202518146717e-01 -7.7255914437260453e-01 2.8186595854535496e-01 -5.2544929031693044e-01 4.0130380143491690e-01 5.2848525841703076e-02 -6.6175188706456861e-02 -9.2310734841793505e-03 -4.9770934189433458e-01 -5.4027844698814043e-01 8.1410898432378731e-01 2.1442863039906782e-01 -4.4620074695058715e-01 -8.0097709281851392e-01 3.1020824725999974e-01 -3.4469080666471275e-01 2.4193908767266539e-01 -4.5850892785056746e-01 -9.2419338547091917e-02 3.0690543932405107e-01 -4.7561582020011700e-01 4.8187608949592686e-01 4.9908275531972618e-01 -8.5084433356574696e-01 -5.6527520735997316e-02 -3.7688719878841745e-02 1.4868539124686828e-01 -7.2609986945636057e-03 -1.7954161190828915e-02 1.2868503598616546e-01 -3.2984464728305252e-01 -2.1309077815296237e-01 6.5444345227682705e-03 -8.0713683756683430e-01 1.3894767765274494e+00 4.1414652540099789e-01 -6.8601447190756906e-02 -1.4698191432158469e-01 6.8756618398102376e-02 -3.3001755847557346e-01 2.2590917660667920e-01 1.5189031453875772e-02 6.4152282960486295e-01 -1.3682266371900963e-02 -6.4893513516679465e-03 6.4892087108567809e-02 -3.8354765394169051e-02 -1.9039889299915732e-02 3.5679284106270193e-01 8.8788509157554610e-02 -5.2197029127935037e-02 -1.7718787762765842e-01 -4.8346012874858339e-02 -5.0962873722253652e-02 3.2135468678494977e-01 -1.1266766140145335e-01 5.5313123441392364e-01 1.5042671838374183e-01 1.2602248489047746e-01 -2.2851249071681314e-02 2.3887699297874924e-02 8.4411929424503784e-01 -2.4721196117143681e-02 1.5818240680158874e-01 -3.8057547964141486e-01 -3.5932550936855806e-01 -3.7151428802063308e-01 -5.6275550241428218e-02 5.2463411715065182e-02 -1.8204068634231282e-01 3.7963270009415340e-01 1.8514945834681132e-01 -1.6594070373226105e-02 -4.1384648100145921e-01 -2.6584389940702391e-01 1.3852014190707707e-01 -3.7247608636763119e-01 -6.7172864553169009e-01 -3.0734595325275175e-02 -5.9849841295013029e-02 -7.1180735525319921e-02 2.5848976820116512e-02 2.7249281355827459e-01 -6.6930999401740049e-02 8.3453092815655783e-01 -1.0701012755316346e+00 -2.5833993819281020e-01 -4.1583399317045167e-01 5.4933997383048816e-01 -3.2111675493853790e-02 -1.4462783045704339e-01 -1.9811751533087843e-01 -8.2720830288368685e-01 -3.6281151115209426e-01 3.7874903482018279e-01 7.6471413709047675e-01 7.5111461557408254e-03 2.0704393252622008e-01 -2.4921493445196696e-01 1.5107648480616709e-01 -2.1112242510993594e-02 2.3367574271983668e-01 6.9935326719259866e-02 -4.1019873625321335e-02 -1.9554217023910533e-01 1.1569150076391978e-01 -4.2089715537930339e-01 3.1996712389882687e-01 1.4073356415332913e-01 -4.2903968678297438e-01 -1.4406238945258032e-01 -4.1906276813196769e-01 -8.8390040686664076e-02 -1.7176113913421623e-01 1.8658687874822197e-01 4.3137868216605799e-02 -4.0824011570387789e-03 2.0906877367587584e-01 -1.1622536543809471e-01 4.1405385030025624e-02 -5.1469736169373649e-02 4.2151301483662640e-02 -4.5002721714404961e-02 2.9295923645288391e-01 -1.5142916773697760e-02 -1.2472884990763694e-01 1.8164492987530656e-01 -7.8796771106242680e-01 3.4321475332818518e-01 2.1715813196061119e-02 4.3261340244761604e-01 1.3984477666096132e-01 4.0235592161995004e-01 -3.5001210848146808e-01 -3.0747970527762974e-01 7.6988538534781908e-02 1.1777972210587299e-02 -2.4540500412149144e-01 8.4657011613986344e-01 -5.0636620796447492e-02 3.6025662145203730e-01 6.6325421163604481e-01 1.6563426050065874e-01 -3.3297785098557436e-01 -1.8717721136915008e-01 1.6755528000050934e-01 -2.6930609865758709e-01 -6.6679807971982230e-01 5.6035611871037383e-01 -5.0182711539972913e-01 8.2021928402324085e-02 -5.8676006871433584e-01 1.5665344733301501e-01 1.5118988363264606e-02 5.8438899940240641e-01 -8.5904740977412103e-02 1.0303635818404579e-01 -5.9933493924290870e-01 4.1801474332848071e-01 -3.3585097989068513e-01 -8.3916213161217812e-01 1.9101921209265887e-01 -5.4922245870991304e-01 -2.7520260573508926e-01 -2.6806057515954124e-01 -6.3685491696690999e-01 -7.1359872212679154e-01 2.6115139956409811e-01 -1.0953120435558836e-02 1.4366178992928960e-01 -3.0978944645703366e-01 -1.2118393116945307e+00 1.2895755326613126e-01 -3.8101940426810949e-02 -4.6362076235586513e-01 5.9021491876921062e-01 -9.4132233263109089e-03 2.5579296933689499e-01 -5.1236281083548174e-01 4.9953394752180254e-02 2.1093635320209181e-01 -5.8051233009371084e-01 2.2693105669226110e-02 2.5254600453289555e-01 -1.2917202223098934e-01 1.9965287389761421e-01 7.8325298988052600e-02 2.0398097241707525e-01 -3.8173160836343367e-01 2.5605313626587489e-01 -3.5065972895785702e-01 -3.3570195724526447e-01 3.9272572441057479e-01 1.2523846652876383e-02 2.3713289415951938e-02 1.0725132027840852e-01 -7.7994533220190876e-01 -9.0093523395559552e-02 6.0315534176064667e-01 -6.9285348949913089e-02 1.7812956399213151e-01 -7.2889664079284433e-02 8.1121456035237696e-02 2.8239744066482064e-01 -5.3592317553959978e-01 -3.2312531991413224e-01 -4.0111234288861447e-01 6.2579247929646975e-02 2.4161886018060447e-01 -2.1530774188651194e-01 -3.1191271670229812e-02 1.6221391540234403e-01 2.8034765157330088e-01 -2.1121176167592726e-01 -7.7442280967948682e-02 4.9856922914494589e-01 3.3168666920557099e-01 -4.8207776695693244e-01 -3.4399964397201076e-02 3.3918700962837800e-01 8.6509305668609382e-01 -2.5433023898233625e-01 -2.7723197392895965e-01 -3.1233235292600114e-01 -6.3192659390699335e-01 -4.5036225219529508e-01 1.3704157283788104e-01 -2.3929780534615278e-01 4.6134298767920162e-02 -5.4653413006809404e-01 -3.0363017237882106e-01 1.1562133507000881e-01 4.0970871970430323e-01 -2.1851100629633480e-01 -2.4222866858850678e-01 9.5265953539935541e-02 7.5020710908506483e-01 4.0250276037702032e-01 -4.2116039356350338e-01 -2.1890765687001568e-01 -6.9722512161145755e-01 -7.7754193694382667e-01 -3.8638755577975159e-01 -2.3136875583748198e-01 1.0175253343599289e-01 -3.6272819889901070e-01 -2.0387091566832935e-01 -4.8300946106406006e-02 -2.2919564648586049e-01 -6.0677725857663745e-01 -3.0227993199593579e-02 -6.1911136318469129e-01 1.8453292159785778e-02 5.2675922146118270e-01 5.6884864847797367e-01 -4.5319728864100223e-01 -2.7752025915224826e-01 2.1667231434555148e-01 -3.0785879773289654e-01 -3.6289975161667448e-01 3.1356772456192405e-01 -3.8207924730262810e-01 -3.5452435324843184e-01 1.4240782982208422e-01 -1.8180435680275164e-02 2.4578502176983466e-01 -1.0819013371621007e+00 3.7217615830671813e-01 2.6918816964018799e-01 1.9973458252518397e-01 2.4373681354595123e-01 1.2602764430550351e-01 2.7934070005117436e-02 2.8725311086553562e-01 -8.8280073935060377e-01 -2.5413042976865724e-02 2.7811304008278935e-02 1.4589195860653667e-01 -1.0547335428988380e-01 -1.7048288590616931e-01 -1.5971719493525169e-01 -5.5400812864502373e-02 5.2734076768819038e-01 -5.4341557436286839e-02 -3.8394906140637355e-02 -1.0073086228502724e-01 2.0839476368353760e-01 -1.1470685547123730e-01 1.9091722502256744e-01 -1.7390588215201869e-01 -1.5738141597408667e-01 1.1401629032258002e-01 1.2816301427135152e-01 -6.1846563229233396e-02 -3.4630692668607616e-01 -2.1925338989499982e-01 3.4479732227556703e-03 2.6296227569628827e-01 2.1303420011875546e-01 -1.4353820201652687e-01 -6.2976247605646102e-02 7.8177671618108652e-02 2.2239028964055946e-01 1.1009257233518042e-01 -5.2975786295163821e-02 3.8954583492157732e-02 8.6618353364381298e-02 -1.3795470786427422e-01 4.5040210404650560e-02 -4.6526555021543214e-01 9.6005888120234542e-02 -3.9380325972136462e-02 3.3551571050365253e-01 2.9956989823217772e-01 2.3895687222883710e-01 6.4585019282602837e-02 4.5552470358357733e-01 -9.2303222654669573e-02 -1.6156650824813973e-01 3.9142773777713685e-01 3.5046065699432910e-01 3.2482501126939634e-01 -6.9957891236963762e-02 -2.4205659940916532e-01 -7.3845600663073774e-01 1.3755329562497354e-01 -2.0238142723820993e-01 -2.4735531583833972e-01 1.1009064665368133e-01 2.8060585572107910e-01 -2.4005207967378295e-01 5.1814950270290328e-01 -9.5616203154260337e-02 -2.4932331803005711e-01 -1.6728534586041457e-01 1.1153631882575748e-02 -6.7272981709139548e-02 4.7890712093988444e-02 5.9844643047430778e-02 -1.3759157552704737e-01 4.1042777160971577e-01 -4.1654289097339631e-01 8.3774846090188829e-02 -7.6315244943735094e-01 6.1171432274077042e-01 -2.9816166386341791e-01 6.6106048005656615e-01 -1.6084175837129130e-01 9.7105103040003110e-02 -7.8237669907146756e-01 2.1068060373362912e-01 1.2760219591537866e-01 3.1948325252367232e-01 2.1657495787057482e-01 4.0570616980633012e-01 -3.6436583955059076e-01 -5.0254102771745035e-01 -2.0004534276892166e-02 9.0987402162227018e-02 9.9523945774358269e-01 4.4948576628576170e-01 -6.9146528084702397e-01 6.8122909864731152e-01 5.4269470547752711e-02 -2.1396315285588899e-01 4.0005839998059456e-01 4.3573030970430116e-01 1.1248845154535657e-01 -3.6256967759185238e-01 1.4842509315668320e-01 2.4599622236779356e-01 -1.8535325202491237e-02 3.4358379366484931e-01 2.6091191294594746e-01 1.6094589793685679e-01 -4.0038585975417729e-03 -1.7531641179075172e-01 -4.1529861786029638e-02 2.2304330197051365e-02 -1.0952735979787809e+00 7.8062480245180033e-01 3.3997853566151925e-01 1.1636557173845152e-01 4.6823915391324772e-01 -1.7830081044652817e-02 -2.3512927090692984e-01 -6.9082607262707194e-02 6.2785750256692030e-02 1.6113546218517488e-01 2.7141233365157713e-01 1.1298423450392277e-01 4.0029500169672133e-01 -3.3919403399179898e-01 -4.9643802212311017e-01 -2.1281525921434275e-02 1.6234391639213727e-01 -3.6739383789594439e-02 -1.8890774039406380e-01 7.5169747343233395e-02 1.1217017025509454e-01 -1.4510489370884813e-01 6.2112429367180944e-01 -2.7660488761774371e-01 -1.8556903150650322e-01 -4.2299661925996551e-01 1.8733502242874442e-01 -1.0082643756649516e+00 -2.5809476674439530e-01 7.8053036964187827e-01 1.0175085522815548e+00 -2.8515776726509984e-01 -5.4944526825486206e-01 2.6797209940871286e-03 -6.8260390617956812e-01 -4.7452664051885368e-01 2.1879245427777119e-01 -8.2990460223943435e-02 -2.7265657072001520e-01 -1.9290059659045039e-03 8.2906972989590919e-02 4.8189885522419046e-01 -4.5389731792506782e-01 1.1178850535587795e-01 -8.1080827901026353e-01 5.9771290821436229e-02 4.9345005537065018e-01 -1.9246163187902079e-01 -6.0738054809855328e-02 -5.6100751656905856e-01 -1.3075710471163576e-01 -5.5767862942038803e-02 -1.0904161197667744e-01 5.8060947235405724e-01 -4.5494390822450570e-01 -4.4153747953742932e-02 -9.1715741603777573e-02 -2.6422582305781922e-01 4.4022446429435487e-02 -1.5005725346980600e-01 -2.8943196213296541e-02 -4.2032189185713560e-02 -6.3890106449853948e-02 2.0643405941665655e-02 -1.6501038910633359e-01 1.0167336150108307e-01 3.9013651621404094e-01 -2.4433585318098816e-01 9.9387037942212819e-02 -1.9561002799870805e-01 8.9185890457032756e-03 4.6202654688402439e-01 1.1264551008961292e-01 5.4188383447515154e-01 -9.0304687321697663e-02 -4.5528499228758262e-01 5.0518134360587974e-01 2.7252036563231086e-01 -3.4607819050786642e-01 3.3935471594328004e-01 5.4181028421875554e-01 9.2360469708015036e-01 2.8596221996674187e-01 -9.9192051137423209e-01 -5.8809719404411454e-01 -1.1638871037161294e+00 1.0902656068050222e-01 5.9425257776497362e-02 -1.1787707493250821e-01 8.9208282471140721e-01 3.4896580303543673e-01 -3.6473434873749389e-01 8.4171390399962381e-02 -7.0647257265711483e-01 -7.6295155813200999e-01 3.8298979785147547e-01 -8.4927149246382971e-01 1.0375071221630543e+00 -4.7458331197886039e-01 1.0853607711615162e-01 -2.5348667283888127e-01 -9.3667705868295947e-01 -8.5590688826689543e-01 -1.9488411537781300e-01 -7.9016184116807620e-01 2.0585297636564621e+00 2.5096799459732481e-02 -5.2346849813708873e-01 -2.2337560569437326e-01 -1.0217873350275737e-01 4.4754508046098491e-02 -1.3589193362721433e-01 -3.1101589199973995e-01 -4.3941971852336148e-01 -2.2475754888595456e-01 -3.4291789621777441e-01 -4.1467886120849012e-01 -1.4208355700927947e-01 -6.2427119558950295e-01 -2.3023722284796536e-01 2.1038146190506360e-01 5.2360296331655211e-02 -6.5031457006053772e-01 1.0395014402240313e-01 -5.5425715536732919e-04 -2.2921571236953910e-02 3.8693688500913620e-01 2.3157717262110350e-01 -5.3177222480811981e-01 -3.0503545117687142e-01 -1.1307172241426082e-01 3.4569086595804144e-01 -2.4802302527412309e-01 6.3972292496582639e-01 1.6842672522826854e-01 -4.0716882406372895e-01 -4.2323070035352107e-02 
      </Weights>
      <Biases rows="20" cols="1">
        0.0000000000000000e+00 0.0000000000000000e+00 0.0000000000000000e+00 0.0000000000000000e+00 0.0000000000000000e+00 0.0000000000000000e+00 0.0000000000000000e+00 0.0000000000000000e+00 0.0000000000000000e+00 0.0000000000000000e+00 0.0000000000000000e+00 0.0000000000000000e+00 0.0000000000000000e+00 0.0000000000000000e+00 0.0000000000000000e+00 0.0000000000000000e+00 0.0000000000000000e+00 0.0000000000000000e+00 0.0000000000000000e+00 0.0000000000000000e+00 
      </Biases>
    </Layer>
    <Layer ActivationFunction="0">
      <Weights rows="1" cols="20">
        3.7390872785537033e-01 -8.3531105514365922e-01 -7.5092156330471715e-01 -4.9932532166577581e-01 2.8289318263871049e-01 -5.7621716280218560e-01 -2.9684408605546031e-01 -5.6655562196692899e-01 6.8920322058528871e-01 -3.4303514076341113e-01 5.0095302057032176e-01 5.7243255216630828e-01 2.5482042503292918e-01 4.5644404361595969e-01 3.2592265254119035e-01 5.2963789074037604e-01 -4.3307170903879161e-01 4.6335589120711707e-01 -6.3846752719952349e-01 5.2664742004790133e-01 
      </Weights>
      <Biases rows="1" cols="1">
        0.0000000000000000e+00 
      </Biases>
    </Layer>
  </Weights>
</MethodSetup>
