<?xml version="1.0"?>
<MethodSetup Method="DNN::DNN">
  <GeneralInfo>
    <Info name="TMVA Release" value="4.2.1 [262657]"/>
    <Info name="ROOT Release" value="6.08/02 [395266]"/>
    <Info name="Creator" value="minerva1993"/>
    <Info name="Date" value="Mon May 22 18:24:46 2017"/>
    <Info name="Host" value="Linux htop.hanyang.ac.kr 2.6.32-696.el6.centos.plus.x86_64 #1 SMP Mon Apr 3 14:56:08 UTC 2017 x86_64 x86_64 x86_64 GNU/Linux"/>
    <Info name="Dir" value="/home/minerva1993/fcnc/tmva"/>
    <Info name="Training events" value="40000"/>
    <Info name="TrainingTime" value="9.35474185e+03"/>
    <Info name="AnalysisType" value="Classification"/>
  </GeneralInfo>
  <Options>
    <Option name="V" modified="Yes">True</Option>
    <Option name="VerbosityLevel" modified="No">Verbose</Option>
    <Option name="VarTransform" modified="Yes">N</Option>
    <Option name="H" modified="Yes">False</Option>
    <Option name="CreateMVAPdfs" modified="No">False</Option>
    <Option name="IgnoreNegWeightsInTraining" modified="No">False</Option>
    <Option name="Layout" modified="Yes">TANH|50,TANH|100,TANH|70,TANH|30,TANH|10,LINEAR</Option>
    <Option name="ErrorStrategy" modified="Yes">CROSSENTROPY</Option>
    <Option name="WeightInitialization" modified="Yes">XAVIERUNIFORM</Option>
    <Option name="Architecture" modified="No">STANDARD</Option>
    <Option name="TrainingStrategy" modified="Yes">LearningRate=0.03,Momentum=0.5,Repetitions=1,ConvergenceSteps=300,BatchSize=1500,DropConfig=0.0+0.3+0.3+0.3+0.3+0.0,WeightDecay=0.001,Regularization=L2,TestRepetitions=5,Multithreading=True</Option>
  </Options>
  <Variables NVar="5">
    <Variable VarIndex="0" Expression="NJets" Label="NJets" Title="NJets" Unit="" Internal="NJets" Type="I" Min="4.00000000e+00" Max="1.40000000e+01"/>
    <Variable VarIndex="1" Expression="NBJets_M" Label="NBJets_M" Title="NBJets_M" Unit="" Internal="NBJets_M" Type="I" Min="1.00000000e+00" Max="6.00000000e+00"/>
    <Variable VarIndex="2" Expression="NCJets_M" Label="NCJets_M" Title="NCJets_M" Unit="" Internal="NCJets_M" Type="I" Min="1.00000000e+00" Max="8.00000000e+00"/>
    <Variable VarIndex="3" Expression="BJMDPhi" Label="BJMDPhi" Title="BJMDPhi" Unit="" Internal="BJMDPhi" Type="F" Min="-3.14143872e+00" Max="3.14156199e+00"/>
    <Variable VarIndex="4" Expression="BJMDEta" Label="BJMDEta" Title="BJMDEta" Unit="" Internal="BJMDEta" Type="F" Min="-4.67494106e+00" Max="4.74954796e+00"/>
  </Variables>
  <Spectators NSpec="0"/>
  <Classes NClass="2">
    <Class Name="Signal" Index="0"/>
    <Class Name="Background" Index="1"/>
  </Classes>
  <Transformations NTransformations="1">
    <Transform Name="Normalize">
      <Selection>
        <Input NInputs="5">
          <Input Type="Variable" Label="NJets" Expression="NJets"/>
          <Input Type="Variable" Label="NBJets_M" Expression="NBJets_M"/>
          <Input Type="Variable" Label="NCJets_M" Expression="NCJets_M"/>
          <Input Type="Variable" Label="BJMDPhi" Expression="BJMDPhi"/>
          <Input Type="Variable" Label="BJMDEta" Expression="BJMDEta"/>
        </Input>
        <Output NOutputs="5">
          <Output Type="Variable" Label="NJets" Expression="NJets"/>
          <Output Type="Variable" Label="NBJets_M" Expression="NBJets_M"/>
          <Output Type="Variable" Label="NCJets_M" Expression="NCJets_M"/>
          <Output Type="Variable" Label="BJMDPhi" Expression="BJMDPhi"/>
          <Output Type="Variable" Label="BJMDEta" Expression="BJMDEta"/>
        </Output>
      </Selection>
      <Class ClassIndex="0">
        <Ranges>
          <Range Index="0" Min="4.0000000000000000e+00" Max="1.4000000000000000e+01"/>
          <Range Index="1" Min="1.0000000000000000e+00" Max="5.0000000000000000e+00"/>
          <Range Index="2" Min="1.0000000000000000e+00" Max="8.0000000000000000e+00"/>
          <Range Index="3" Min="-3.1413979530334473e+00" Max="3.1412608623504639e+00"/>
          <Range Index="4" Min="-4.6692671775817871e+00" Max="4.7495479583740234e+00"/>
        </Ranges>
      </Class>
      <Class ClassIndex="1">
        <Ranges>
          <Range Index="0" Min="4.0000000000000000e+00" Max="1.3000000000000000e+01"/>
          <Range Index="1" Min="1.0000000000000000e+00" Max="6.0000000000000000e+00"/>
          <Range Index="2" Min="1.0000000000000000e+00" Max="8.0000000000000000e+00"/>
          <Range Index="3" Min="-3.1414387226104736e+00" Max="3.1415619850158691e+00"/>
          <Range Index="4" Min="-4.6749410629272461e+00" Max="4.5950241088867188e+00"/>
        </Ranges>
      </Class>
      <Class ClassIndex="2">
        <Ranges>
          <Range Index="0" Min="4.0000000000000000e+00" Max="1.4000000000000000e+01"/>
          <Range Index="1" Min="1.0000000000000000e+00" Max="6.0000000000000000e+00"/>
          <Range Index="2" Min="1.0000000000000000e+00" Max="8.0000000000000000e+00"/>
          <Range Index="3" Min="-3.1414387226104736e+00" Max="3.1415619850158691e+00"/>
          <Range Index="4" Min="-4.6749410629272461e+00" Max="4.7495479583740234e+00"/>
        </Ranges>
      </Class>
    </Transform>
  </Transformations>
  <MVAPdfs/>
  <Weights InputWidth="5" Depth="6" LossFunction="C" OutputFunction="S">
    <Layer ActivationFunction="3">
      <Weights rows="50" cols="5">
        -3.9621707946884627e-01 -1.0789682377608058e-01 2.4405794263328476e-01 2.4763640432580272e-01 1.3744928520278807e-01 -4.9483146058166477e-02 -3.3466388403050285e-01 4.9640244549203483e-01 1.5446702911843607e-01 2.4546978091623403e-01 -3.7119964240702696e-01 6.7746530912866212e-02 -2.3545030956417365e-01 8.6939317526888424e-02 -2.3362840649472957e-01 1.2797708373965769e-01 -7.5984462569496103e-01 -5.1483371857139075e-02 -1.0307463453577927e-01 -1.3632253837833244e-01 4.6472097532915985e-01 2.1235299884328779e-02 -1.0968681191473206e-01 -4.0048933014022348e-01 -2.1947522306229089e-01 1.3269140945861152e-01 3.5101006283570912e-01 4.8360132081288493e-01 -2.4055861823166363e-02 -3.7555081143439617e-01 -5.4792278301037833e-01 4.1146083619260210e-01 2.4200338511611147e-01 9.9952514565741973e-02 3.3227948641401395e-01 -1.4952328003476389e-01 3.6743295845356788e-01 2.0072063293612075e-01 2.4829917689903463e-01 -4.6576867144709067e-01 -3.6784380262820293e-01 -2.5680823054419449e-01 2.9534634961056178e-01 -3.8687900115979412e-01 -4.7839768194365828e-01 -4.1029254084896050e-01 -3.0670895146269828e-01 -4.6095898105356148e-01 2.1865131199061325e-01 -1.3282589338998221e-01 7.9263151984518262e-02 -3.4409237368841722e-01 -3.4733535701845578e-03 9.9118839442665418e-02 -4.2733912196330770e-02 4.9754460090828106e-01 -3.0862956081577514e-01 -6.4365650118145545e-01 -8.5384350104502127e-02 3.1792321112327236e-02 1.4889593457288741e-01 3.4056849227401936e-01 5.3140699980903199e-02 2.7831307394772332e-02 -3.5788900467829160e-01 2.2368866086319950e-01 -9.2300524155900524e-02 1.8637018897817162e-01 7.9858673402043431e-02 5.2806985221939928e-01 3.2546415288872316e-01 -1.4262352935866102e-01 5.0019452794921471e-01 -6.8226386753536428e-02 2.7737512433463056e-02 1.4524918103846354e-01 8.5367289722492676e-02 3.2089322578872448e-01 -1.2833569504970058e-01 -2.1516341125587543e-01 -7.7165299513041807e-01 3.9315876753861373e-01 -6.4684801959187876e-01 -1.1448574653815526e-01 4.8014065374446280e-01 -3.3456180335835045e-01 -1.6265566102093965e-01 5.4659934137582866e-01 -1.0121328137139979e-01 -5.9187741423212825e-01 2.0499146085123179e-01 -5.1813656418928111e-01 -9.0211494531248396e-02 -4.5832766435669392e-01 -4.6280600265432448e-01 -4.3859487700170846e-01 4.8333753938510288e-01 3.4227954329668513e-02 -2.7011699892068780e-01 -9.8085438880778669e-02 7.1566178190001684e-01 7.0925268202955150e-01 2.0841604327508676e-02 2.2770102656597127e-01 2.2929097286399516e-01 2.6517783083399804e-01 -3.8794523580397344e-01 3.4689378905692475e-01 2.7714940209449163e-01 5.9504228819710903e-02 -3.6753382404709306e-01 -1.1234797854633979e-01 -2.0517354590916884e-01 3.4564033396611332e-01 -4.7726486318216493e-01 3.7789790261313616e-01 6.9380393913128474e-02 -4.2142254489455150e-01 5.0041065838432797e-01 -3.5347214797868526e-01 -1.5696008314234072e-01 -6.8247000663103824e-02 1.0690333206556983e-01 2.8474623720237606e-03 1.2663621313473925e-01 8.1803439707192130e-02 6.1656765189856721e-01 -5.7301847860583977e-01 1.4074111467720701e-01 -4.0984067319852097e-01 -2.9685460447077178e-01 -2.2802968652417999e-01 2.9966613509902840e-01 1.2831716068711704e-01 6.8152249259940212e-01 -3.0481782149624614e-01 1.7831015230421735e-01 -7.5402311138253367e-02 -4.0589751728107321e-01 3.9751180210694631e-01 3.1905940960991069e-01 1.1782162840315001e-01 1.1355886555959226e-01 -1.5923128337397896e-01 -3.2721697303359776e-01 -8.0044040433565566e-01 6.1404062686508332e-01 7.0412338959180820e-01 -6.3191917184638638e-02 -4.2044499475364983e-01 1.5720937645211833e-01 4.3007066662238365e-02 2.1569850182273914e-01 -3.8680361645887756e-01 4.9275952971032116e-01 -2.3268930083575620e-01 -2.9620477329364581e-01 -4.6713825746714110e-01 1.6589496904561962e-01 2.7016979065839675e-01 6.4338772497920063e-05 4.1658332353871363e-01 1.2868061103477516e-01 4.5189315032729949e-01 -3.9505612915972613e-02 -5.0426885676942390e-01 -3.8939835781325782e-01 -3.2688230513149985e-01 7.8022344741825223e-01 2.1343944498464537e-01 -5.1481970584397119e-01 -4.9942190263794015e-03 -1.3257777687685807e-01 4.0359283070398183e-01 -2.5076413911509415e-01 -1.0070219511397775e-01 4.7569969564965048e-01 5.3996878093188949e-01 -6.6991564540067272e-02 3.5925560172923914e-02 4.0135544785626942e-01 -5.2560954059315557e-01 -3.0913282132490799e-01 -4.6017000337979225e-01 -3.2630216495198233e-01 -1.1982519363573400e-01 -1.8673657707647992e-01 -2.2634142699514911e-01 2.2835405954190680e-01 -6.3309911213561457e-02 -7.4938754306326538e-01 -5.2151499696715542e-01 3.3674701274881236e-01 -1.5420205214705887e-01 1.6863535220176626e-01 2.3755571907960366e-01 -1.2676470412927915e-01 -2.9900473381130482e-01 3.1292695844111124e-01 3.6952284132736629e-01 -4.2954115434435719e-01 -5.5173339866592785e-04 -4.3525223966651433e-01 2.2655641935461268e-01 1.0098035883373679e+00 1.6426667139951906e-01 3.5777243123406000e-01 4.3976986873287705e-01 3.4108226538248893e-01 -5.7745451474508069e-01 8.8339425645490119e-02 -4.4420062011817635e-01 3.4357534336087608e-01 -5.6914360479772430e-01 2.7214095771044250e-01 2.7318945588276905e-01 5.0034553091748013e-01 -1.0105468081518793e-01 -4.3906525347937431e-01 -2.4428405721328650e-01 5.1801205820460805e-01 4.1926751815469571e-01 -2.8145583640165217e-01 3.3336237346826086e-01 4.8427054057078400e-01 -1.8477688694203340e-01 6.1104661260604737e-02 -3.7198990410657412e-01 2.9890691384400120e-01 2.9878528838208418e-01 -3.1095161296606548e-02 3.4986255707073849e-01 -2.9957884921502348e-01 -5.4243653633572175e-01 2.0773592804226024e-01 6.2408757385532165e-01 6.3881821086155574e-02 -4.4243456281173410e-01 6.0289831305113867e-02 -5.3486534039279443e-01 2.9574504856736294e-01 8.7215585958837646e-02 8.9987833985916657e-02 4.4330194822139658e-02 -3.3300511933876703e-01 -1.4854905963939963e-01 3.5206659209892138e-01 3.4153459838114869e-01 -3.3930863213472567e-01 2.0889816087630952e-01 
      </Weights>
      <Biases rows="50" cols="1">
        -1.9201383461801594e-01 -2.7319197093546116e-01 -4.0298401681287566e-01 -3.5573103198893036e-01 1.9881924265838508e-01 4.6690282919591852e-01 1.3991186051719193e-01 -3.5548998731190423e-01 4.2270407542107598e-02 -7.5997064904268452e-01 5.6114495828093858e-02 -3.9404413170567903e-01 4.1632017832235541e-01 -2.5772686300043651e-01 3.1476243121634812e-01 -2.2681979334390542e-01 2.8521345993730030e-01 -2.5228417053249347e-01 -3.2027109889509903e-01 -3.1129711797908183e-01 -2.7272438169910335e-01 -7.9080483504846658e-02 -1.6656594722663640e-01 1.5897017657276408e-01 3.7568096776111670e-01 1.4082368308025137e-01 5.9740318644284540e-01 -2.2019769919397073e-01 5.5171848479363857e-02 -7.3122839816569085e-01 -2.9741974498583063e-01 -3.0971103341790146e-01 -2.9952807952543525e-01 -1.0323835067211375e-01 2.1405612671462734e-01 3.0182489418381520e-01 2.7739677212535218e-03 -1.4966106101311591e-02 1.3774529172129019e-01 -4.5317943234576247e-01 1.8148674720235186e-01 -4.6836046294566286e-01 -3.0044448486197989e-01 5.5423409955171854e-01 1.9716030533956450e-01 -1.9903042795262327e-01 6.6558741661129697e-02 2.3131872136626017e-01 -1.0266299811287734e-01 1.6468219826702801e-01 
      </Biases>
    </Layer>
    <Layer ActivationFunction="3">
      <Weights rows="100" cols="50">
        -1.7789500063328045e-01 8.5995632689955092e-03 3.3444897079662084e-02 -1.6306736246102119e-01 1.7121661540463826e-01 1.6661551569851218e-01 -1.7760190462640915e-01 -1.5006719066931920e-01 1.8167904935774523e-01 -1.5661531125945807e-01 -1.7636689700463928e-01 2.3952774328485530e-02 -1.9728328877311649e-01 -1.1851432459782579e-02 1.6135258210959535e-01 3.5704021891314372e-02 -3.2955150546854772e-02 1.6547034377379800e-02 9.0925024310657999e-03 8.6320892218490861e-02 9.0182437195369364e-02 -1.1854033187618436e-01 1.6662121419450729e-01 -1.5350349098113170e-01 9.9803472866221793e-02 -1.2241268540790559e-02 -4.5031942285575430e-02 1.7846209572233679e-01 1.6155493407355731e-01 -2.1402506333059726e-01 1.4056691424109619e-01 -1.4801441659126113e-01 4.5630534742039902e-02 1.1563568229865326e-01 7.5105027927422921e-02 1.4311969175871944e-01 -1.9731129640634285e-01 1.8522976808060945e-01 1.0574924244438194e-01 4.0050121991906287e-02 -3.1319261392071140e-02 -1.0957777137671844e-01 1.9249274989277816e-02 4.6903232753245393e-02 3.4692231376847293e-02 -1.6302152192459698e-01 -3.3986534231480847e-02 1.7427188164678828e-01 2.1344855117873199e-01 -4.7474510617878446e-03 1.0093560567197134e-01 -9.1843963868125433e-02 -1.1142086174742262e-01 -1.1724509530484210e-01 -8.1364675653143273e-02 -3.7343926248962656e-02 -1.6962546717832389e-01 1.1950518692925305e-01 1.4204239450684333e-01 -1.9604668711265522e-01 -5.4933709628583148e-02 -1.4376849703398881e-01 -1.7839014838141554e-01 -1.6766561456684279e-01 -7.2697258104218898e-02 -7.4006119006559623e-02 4.2032731191050235e-02 -9.3528573449899302e-02 1.2128280388244761e-01 -1.5575951567217300e-01 -4.9309415755430172e-02 8.6687809256615553e-02 -1.0792841303545188e-01 -3.6041147836949353e-02 4.3771534232053023e-03 -5.8375156960783700e-02 -2.1340756848800790e-01 -1.6937669776039388e-01 1.5770599503744431e-01 -8.0631909707909191e-02 5.7262553734635659e-02 -8.4651864519726186e-02 1.6913042636915579e-01 -1.1669648413437628e-01 4.0244574433628888e-02 5.9132651163075284e-02 2.0278389163232155e-01 -7.7069615370371283e-02 1.1209416627943505e-01 -5.2629923157580298e-02 9.6318160822318144e-02 1.9627699896868575e-01 -1.0608844348706165e-01 -6.5402137495181849e-03 -5.5093174218441988e-02 8.1786396343503792e-02 -7.8655227058310975e-02 -1.1883980486672573e-01 1.9680869009461380e-01 1.1128134089257335e-01 -1.5190166605886372e-02 -3.5075226754241826e-03 -1.0947736389244626e-01 -1.6839836043715535e-02 -2.1407079258736156e-03 2.3476429436543189e-01 -8.9233010421070041e-02 -2.8917461174347418e-03 1.3445900938942382e-01 -2.1135476245254167e-01 -1.6033360733522925e-01 2.3658936475472660e-02 2.4405599395156050e-01 1.3771902277174969e-01 -7.4629718837101386e-02 -1.3494142681516286e-01 1.4001502910656266e-01 -1.1739880271073715e-01 -1.5541723162121993e-01 1.4668381518807522e-01 7.8386385256938820e-02 8.6153509089425540e-02 -2.5242114143567057e-02 -1.0685533666816456e-01 -2.6186598278331571e-02 2.1163410564510918e-01 4.8125997151214406e-02 1.6536126170699467e-01 8.7148894083436401e-02 -6.7948567032521001e-02 1.5823476690388111e-01 7.3325430560879479e-02 7.4473850542607065e-02 -4.6349872888394025e-02 1.5444046763608801e-01 2.3233361646482806e-01 -1.9845188333462990e-01 1.3671600386513112e-02 1.3920886047533770e-01 -7.2160236060297547e-02 1.1741941686085390e-01 2.4004504926850798e-01 9.0133600662330768e-02 2.4991078201872163e-01 1.6384471630325487e-01 1.5303666185680800e-01 -1.0234355759798069e-01 -2.4217205895761117e-02 -1.2132259770408381e-01 1.0870199231772051e-01 -1.0772586487673010e-01 1.1367902382845027e-01 1.4000134412464058e-01 -1.8527008139757581e-01 -1.2449094844004141e-01 3.0408640571568120e-02 -9.1570507189446024e-02 1.6496855272504915e-01 -1.0245179729768697e-01 1.1900557942397968e-01 -9.5695659274485381e-02 -5.9200390984578362e-02 -8.8736592048941146e-02 2.8769070427454083e-02 -1.8870120411926188e-02 -2.7745557968439738e-03 -1.6473654928636997e-01 -2.5539160151927962e-02 -1.3651447603926245e-01 -2.3386137588837133e-02 -1.6781211990980249e-01 -1.0370009719782787e-01 -1.2273922718190737e-01 1.0468750980478059e-01 5.4757323990298236e-02 1.5364278658783628e-01 6.6184567078882983e-02 1.8345247824789424e-01 -1.6211923781090828e-01 2.0977334338127085e-01 -8.7681705471484350e-02 -1.2057871744381367e-02 2.7682424730771510e-02 -2.8531791834564082e-02 -5.8639135363445546e-02 1.9524066441790999e-01 1.6789763834405333e-01 1.1937631590089400e-01 1.2742657761121584e-01 9.6045966659772955e-02 -7.3387950907989871e-02 -1.2720437845726293e-01 1.7465599815786981e-02 1.9929574941890346e-01 6.7016849066585560e-02 9.6702498185467792e-02 -3.8690891080669206e-02 -1.1676985940107860e-01 1.2457631986992286e-01 -3.5739178960607909e-02 -1.5900940172875039e-01 1.7356425101765116e-01 2.9971431124590293e-02 8.6251036808976958e-02 9.4316619860905296e-02 -9.8941736735316269e-02 1.3978173639650199e-01 7.6444733488857913e-02 -1.2414883711708349e-01 -1.1557107033079420e-01 1.3904214010465954e-02 -4.2195759740271253e-02 -6.4135447978912172e-02 2.0899594227616480e-01 -1.3954893469601701e-01 1.2530841636643245e-01 -1.0493201251908869e-01 -1.7346628868408911e-01 -1.2064574858208250e-01 1.5050109053273425e-01 -2.7299561743529259e-02 -9.6319344883471145e-02 -1.2695906710669566e-01 1.5095502561244681e-01 8.9276704024801368e-02 5.5564504265461445e-02 1.7776639030193664e-01 2.7723850746597025e-02 1.6573723450614244e-01 3.9435564657568867e-02 1.2676014958313313e-02 1.0756855297881392e-01 -1.2145937676806408e-01 -1.0466342175669876e-02 -3.3758738725420893e-02 -1.3562441572627215e-01 -1.2827840282753925e-01 1.0477941342862962e-01 -7.6307828999737218e-02 1.8162011240420628e-01 9.6313249139260287e-02 1.0498066117382850e-02 7.0705616308091454e-02 2.7821682013314183e-02 -1.5019644550831124e-01 -1.0510489750814245e-01 3.3206189626569793e-02 -5.7185961422955268e-02 -2.4553570286424405e-02 -4.4843045541065614e-02 7.8407542322329798e-02 5.2358770309691820e-02 4.4278928694492764e-02 -1.7680064030672576e-01 7.4894352553001600e-02 -1.3256836605739597e-01 -1.2551076313859662e-02 -1.2397225028735756e-01 9.5044623924924632e-02 -1.2921985895779076e-01 -2.6623019705676121e-03 1.0736818426759770e-01 9.7342327749225049e-02 -1.3186973428550249e-02 1.4383432744044247e-01 4.2207246652509037e-02 1.1428012203133782e-01 -5.9121094754527252e-02 -1.1621070123515179e-01 -1.8782505240412276e-01 1.3988883436196756e-01 6.2803183668664206e-02 5.5166337863115797e-02 -1.3279794674624915e-01 -1.9124942152637683e-01 -3.7597639988357343e-02 -2.2382835009524707e-01 1.0154496599713521e-01 -1.0607203537426388e-01 -2.3518702886089313e-01 -1.1085979154372859e-01 5.5212033359929309e-02 -1.7745791787836404e-01 3.0716547516911161e-03 -1.8323679381423766e-01 -8.7637934214995467e-02 3.0889372402696492e-02 1.5828619082175413e-01 1.4109903397749141e-01 7.6758924613031271e-02 -1.9438869886083534e-02 6.6777431793450068e-02 2.4698032766339933e-01 -1.5975142252250590e-01 8.7928074780276352e-02 -5.7222692791869409e-02 -1.4546456799729396e-01 -1.5151952415135567e-01 5.8129899371093504e-03 -1.1381525177246857e-01 -4.8458162178745462e-02 1.4451942816118948e-01 2.4670140735105317e-01 2.3127766348941367e-01 2.3560571558347801e-02 -9.0195017663593530e-02 1.4848601067944453e-01 1.6200702446745194e-02 9.7752590142588441e-02 1.4173362352706478e-01 7.9356393317611684e-02 -1.3435203971685475e-01 -8.2257257098436329e-02 7.5427939511835101e-02 -1.5862378158488818e-01 -1.3521703282663194e-01 -1.2292749991521264e-01 -1.8712965102391371e-02 1.8888783370937259e-01 1.6864735470168946e-01 1.6470206676235505e-01 -1.9499528168506197e-01 2.0316084347929675e-01 6.1675568332622083e-02 -1.1378689545555365e-01 -1.1199221855551303e-01 -1.0471935270346124e-01 1.7417670384319858e-01 1.4386773723328752e-01 1.5929028797552258e-01 1.1214707698572672e-01 1.7229154014746595e-01 -1.3000275363763756e-02 8.2013216227553962e-02 -9.2459659329747590e-02 -9.4606247737054297e-02 1.7312238640010510e-01 2.2257539655078992e-01 -1.5805774709083967e-02 -1.2857233394045472e-01 2.4733777616683014e-01 5.6611002557940132e-02 -7.1283388259000963e-03 -2.3446563648736665e-01 8.7585415568612004e-02 4.3936078399170776e-02 1.4736310081274270e-01 -1.7329145437244081e-01 -2.0180438627238839e-01 -1.2851553774813959e-01 -1.4623897321997498e-01 -1.1400788251441524e-01 -2.5939543357180567e-01 1.2737034070684222e-01 -3.8377714559659971e-02 -3.0153350684678872e-02 -2.3933354711359270e-01 3.8534833995161229e-02 -2.2664550246959994e-01 -1.6931532669580837e-01 1.7230158042827284e-01 -4.2539998655069834e-02 -5.9448744218912435e-02 2.4318625902333627e-01 2.3036435607268685e-01 1.6216266466257315e-01 -7.8359921272863536e-02 -2.3091245090429843e-01 1.7514254741719451e-01 -1.5475554175968093e-01 1.0554343731370990e-01 1.5019734209229671e-01 -9.1258156150756803e-02 -7.4319395942835431e-02 1.9552587057429446e-01 -1.7257479371113571e-01 4.1693720605467083e-02 -2.8318854184365061e-01 2.4990466813230161e-01 -2.2106079862742273e-01 1.5536775105240569e-01 -1.1638928995085771e-01 1.8328469568505248e-01 -1.5362217628156155e-01 -1.0493064603322858e-01 -9.0670584646884746e-03 2.3375508453321409e-01 1.7597272127198466e-01 -1.0456486593446772e-01 -1.6152138625828680e-02 8.8872927055392223e-03 -1.0476751382596350e-01 9.8417215301195002e-02 -7.1328004021642299e-02 -6.2285808220757161e-02 -1.7260414630902565e-02 2.0731903696224997e-02 2.5631505429668061e-01 1.0159888403482967e-01 -4.4036197252852544e-02 -1.1470941743456059e-01 8.4267390640814080e-02 6.9488881365351071e-02 -1.1218010681574912e-01 1.7456784715346585e-01 6.5007317821394017e-02 7.7381593651524722e-02 1.2239495143824454e-02 1.3834030385100754e-01 -1.6076279467947760e-01 -2.0276737218173022e-01 1.9233666207158279e-01 5.2107831960941264e-02 1.5733623424310925e-01 1.1242945185310819e-01 1.4912272954245911e-01 -1.6349744493286594e-01 -2.5453290472326044e-03 1.0094852117803697e-01 2.7565860332775163e-02 -1.7215915264073342e-01 7.8246279048983347e-02 -8.0783583690567734e-02 1.4863783245645940e-01 -1.2499577770241703e-01 7.9126171889241037e-02 -1.7891514358569516e-01 6.6456483782245503e-03 4.1126139931442214e-02 -1.4226699484228911e-01 1.1824870468609834e-01 1.2951663973081087e-01 -2.5356615524317460e-02 1.4661119138175061e-01 1.6604954811596578e-01 1.8605696835835503e-01 -5.9686110280203555e-02 4.4698071858240936e-02 1.6878538349979955e-01 -8.0985552116390191e-02 1.5909772625725259e-02 5.3194865692586447e-02 -2.6494521729014040e-02 -4.6569991690615049e-02 1.9855983720893432e-02 1.8486929281798054e-01 1.8123998339580311e-01 -1.1046552614626942e-01 2.2880263163255251e-02 7.4312476146109002e-02 -4.7448142444618063e-02 -1.9099497878745980e-01 -4.4471430098897771e-02 1.2320750379259941e-02 -1.5770445824623328e-01 1.4870148895120200e-01 -8.5973656169912593e-03 -9.8156119192197078e-02 -1.0540875461638163e-01 -1.8189085158091853e-01 -1.7263008991510714e-01 -1.5431820907250213e-01 -4.1473659834770644e-02 1.5966214797872233e-01 -9.1252077050531191e-02 6.5445123917013598e-02 -1.6583915469289018e-01 -1.7323432719916104e-01 -1.4417133308042590e-01 3.5019611075917140e-02 -2.2090154525146705e-01 1.4222102342549328e-01 1.8792883032590260e-01 1.1621224016974353e-01 -6.9244545593078778e-03 9.0314685767415401e-02 -7.1396485188133440e-03 1.6455231927495856e-01 2.0762555322173340e-01 -1.5636370297874375e-01 1.5792377925911649e-01 -2.2730681276900752e-01 1.4897758424788948e-01 1.6704898103817425e-01 -9.3777648944277682e-03 7.4607297297809350e-02 -1.0038992673374238e-01 -1.7025718391280989e-01 1.2320923057209156e-01 -6.1912012581732387e-02 -2.4285722096321108e-01 -5.8245944181065552e-02 1.3072272917074040e-01 2.2678111337152026e-02 3.9931673120236280e-02 -1.0816284498647979e-01 -8.6456346784105544e-03 6.3253143565798878e-02 5.4350446083605501e-02 1.0693815095156453e-01 1.8387290398961240e-01 1.5132539781278526e-01 -1.8604537639463284e-01 -1.0077883541359928e-01 -1.1532941631847046e-01 2.7053555250675407e-02 -5.3327548661685417e-03 -2.0857007635890965e-01 -5.1710371154217782e-02 1.1784916631724823e-01 -2.0363549018217600e-01 -1.4138409777268793e-01 -1.3004141710073955e-01 -2.0342700571144287e-01 3.1269877875944672e-02 1.5699175975713589e-01 1.4286206272445870e-01 -1.1080887126255454e-01 9.2164751035321429e-02 2.6772901734975627e-02 4.0746783526395255e-02 1.9534105767308196e-01 -1.4979170106909651e-01 5.1969628621537020e-02 -1.9296669545713913e-01 -8.9741440547822765e-02 -4.4210210045593744e-02 -1.4868662508226971e-01 -4.1903505325405765e-02 -5.1973312736464980e-02 -3.2079735771284652e-02 1.2688068198598662e-01 -1.1193824795946052e-01 1.2501725243514322e-01 -8.1316708581613231e-02 8.9946784200481258e-02 -1.2409982151734554e-01 -6.5119031205563935e-02 -1.6954613839927926e-01 6.1991335511143594e-02 1.4057043411802350e-01 1.4610557182279499e-01 -1.4875020150888224e-01 -4.4149826299163964e-03 -1.0480155663387776e-01 -1.7911431336371822e-01 -1.3213740447283928e-01 -1.3211492950622375e-01 -1.2692246923165038e-01 -1.3715096149974568e-01 -1.9141236683225379e-01 -1.6464023603146158e-01 1.3401920713096221e-01 -6.1827357815173005e-03 7.5735266554230310e-02 1.0506874537514377e-01 1.1209413726786580e-01 9.4945309213832207e-02 8.5094632280751009e-02 7.0884632566141054e-02 2.0414949549186293e-01 1.5802435316966970e-01 -1.7078953953025769e-01 -6.7524140619479561e-02 1.7658355669667170e-01 -1.2628261837125870e-02 7.6073102757526684e-02 -1.8031797138920139e-01 -2.9511060550283238e-02 6.6418345673347798e-02 7.1306624330881405e-02 1.9233937080541474e-01 9.1600995069783572e-02 9.6050304164030681e-02 1.9147511517325158e-01 -1.3748851304054049e-01 1.3385753774873738e-01 1.2311366635602998e-01 1.6145249119165808e-01 -1.9882457291404529e-01 -1.1531122097268146e-01 2.5376074252457519e-02 1.5174939396463602e-01 -1.7295705736090439e-01 -3.7824743618357103e-02 -1.8347177084502794e-01 -3.0706241685818252e-02 1.5955064703069596e-01 -3.5233827170034961e-02 1.3493619017878114e-01 3.1965269931389893e-02 -3.0713746882958269e-02 1.8279407040296866e-01 1.5976031671004462e-01 6.3461708588396420e-02 -1.3250404529333820e-01 6.3437444056550218e-02 -8.9302642066165686e-02 4.2951851048846822e-04 1.4814350743860377e-01 -1.9180415977421117e-01 -3.3496458237595311e-02 4.7709544304838293e-02 1.5563690018623691e-01 1.2370493837568681e-02 1.0547971086083671e-01 2.0994125147711587e-01 4.1947412854857417e-02 -1.9329194485861020e-01 -1.3221343752851930e-01 3.3194240922632907e-02 2.7232696504847654e-02 3.5228393657670998e-02 6.7526342031360362e-02 2.0151275210510805e-01 -8.0960851051478988e-02 -1.4820716988678009e-01 6.8765436082204617e-02 -1.4778718460200463e-01 2.7108889681165860e-02 -1.7045872505467902e-01 -1.7651914681842693e-01 4.7848808864948397e-02 1.5982696793961865e-01 1.5153531092177025e-01 -9.0851620126181053e-03 -2.1110041166717466e-01 1.9910058850730672e-01 -8.1297569566764396e-03 -1.1210810230235430e-01 4.2105554207599448e-02 1.4910595833856696e-01 2.0177118338329389e-01 3.5956629477138444e-02 -2.0270614669506869e-02 -1.0224756967090802e-01 1.6021705954457779e-01 -8.9917121435124897e-02 7.2170291224576563e-02 2.4280550505167250e-02 6.8354027192610606e-02 1.0991438100075882e-01 -1.6305652672269125e-01 -1.1136695211828672e-01 1.5591276703570114e-01 1.5215048321723895e-01 1.6055845451909037e-02 -1.0559473734295526e-01 1.4805645802865605e-01 9.3707230920568999e-02 3.1860164452986957e-02 6.4667806134237102e-02 -1.7271827380574828e-01 4.5874736294838772e-03 -8.3611726849492640e-03 -3.5950863024874977e-02 -1.4360160659698798e-01 4.5747831593708099e-02 -1.0672719896257611e-01 -1.3083800731996578e-01 -7.3020373478614509e-02 -1.8399749692402814e-01 2.7386837712670833e-02 9.8585289588798031e-02 1.2186229946129598e-01 1.1583272631637258e-01 9.8845908291964865e-02 -1.3158785259066424e-01 1.9888505603289239e-01 -1.4196094759594959e-02 -2.9510124146164614e-02 -1.8210406590876677e-01 1.4239185741124508e-01 7.9154652434207856e-02 1.8503063763339125e-01 -1.6430434507221875e-01 -1.6472461494326709e-02 -1.9842142874930060e-01 -1.7344565701176393e-01 9.4051661891668248e-02 1.6421582216345665e-01 -1.8621262022459453e-01 -1.8169413372476137e-01 3.6518510322647517e-02 6.0762081220241647e-02 1.4032927172162515e-01 1.1108177061925189e-02 -7.3172631376165739e-02 -2.3546305026738486e-02 1.7278170316049871e-01 2.7837625898688108e-02 4.9706525985159906e-02 1.4291636667292579e-01 1.9302876320688320e-01 -1.8664308874784849e-01 1.0583492680293410e-01 1.3854477158984149e-01 -1.4809322924805338e-01 2.6300920242347533e-02 -1.1553767925283222e-01 -5.9497552862415579e-02 1.4163810171548161e-01 -6.0173898922268883e-02 1.6969878180522716e-01 -1.7346355673936908e-01 6.3478125992276382e-02 -5.8231764494697795e-02 1.0720598360628818e-01 8.2506995833539088e-03 9.6849108829718519e-02 1.1872161723491913e-01 -6.3648335051594354e-02 -4.6438896649902223e-02 -9.2502668986332734e-02 1.2566031744292819e-01 -9.8877276839739792e-02 1.3083333742369485e-01 1.1462815362046977e-01 1.0503280373213697e-01 -5.6439993367889602e-02 1.6271069556379771e-03 2.6923121209940109e-03 8.8984451058165728e-02 -1.5680696174274406e-01 4.4047736539453715e-02 -1.5048661124604329e-01 3.7119776396651177e-02 1.7439246873443170e-01 -7.1096224341139547e-02 -5.8993895752520599e-02 -1.2367410831696490e-01 1.4640711753749516e-01 2.1651944607025458e-01 -3.4413428451038730e-02 -1.2823829319356081e-01 1.0615390983590607e-01 1.4625306463533346e-02 3.8880958879579090e-02 -3.0969049457795342e-02 1.5314905584398705e-02 -8.4866260481892913e-02 -1.0696601479307491e-01 1.3600573880961511e-01 -1.4143499196489369e-02 -4.3925262197557845e-02 -1.6134514107419443e-01 -1.4058721596617189e-02 -6.0346340275134733e-02 -2.5511728920910911e-02 1.6407398381562829e-01 1.5068162404504025e-02 9.2951079192541058e-02 -1.3100362599659254e-01 2.1345629558210403e-02 -2.4233323717222213e-02 7.2245916109808156e-02 1.3031179081518734e-01 5.7894237797219599e-03 -5.3158591520060965e-02 -1.7112368717204376e-01 -1.1509736292057590e-01 -1.5323851885992668e-01 5.9062425996449050e-02 -1.2533985129726147e-02 1.5884116660845435e-01 -7.0336938779797159e-02 -1.6599036114447612e-02 9.1534777194424322e-02 1.9385269986792483e-01 8.2808994941890562e-02 1.4390991051852439e-01 1.6206670883329238e-01 -1.1262915034980960e-01 7.5802033115240725e-02 -1.7304348901987701e-01 9.1553236592482698e-02 -1.3169139349391679e-01 -1.7529998244445733e-02 -1.4368122168951791e-01 -1.3248101838262100e-01 -1.6789354357389899e-01 -7.5949837027626810e-02 -1.0584207008565831e-01 4.8080048315725384e-02 -1.4188443407823911e-01 1.0391294985239601e-02 -1.7901231777469346e-02 5.8970801645825632e-02 -1.2065889172996377e-02 -6.4892553833227798e-02 -9.4302570490310572e-02 1.4962002487859420e-03 -7.2237425441422268e-02 -1.7244277013618731e-01 -9.5406648305426764e-02 -4.7334815189080656e-02 -5.7537092407665170e-02 -7.1197465546095504e-02 -1.1185946838336543e-01 -1.3968107387051124e-01 -4.1204541771388929e-02 1.5463803482755131e-01 1.4771254790256241e-01 2.5744396630955294e-02 6.1298305019422461e-02 -8.1035788002661605e-02 -5.4011314052260012e-04 1.8746835833872561e-02 -9.8188688986877978e-02 -1.6124019101459319e-01 -9.4717953841600644e-02 -1.9116796727734689e-01 7.6317425126858560e-02 -1.2922206945544273e-01 5.6774292896864864e-02 8.6329120456578132e-02 -1.8841120179959762e-02 -6.0594722525876436e-02 -3.4058146730088758e-02 -1.0584597892763388e-01 -2.1083481346085040e-01 -9.3504228590150354e-02 -9.8192832324984630e-02 2.0201474822872920e-01 -1.1778271889165430e-01 8.1985456073221247e-02 -2.0243837399908637e-01 4.1741274292721030e-02 1.1904105279805474e-01 -1.7310507813215956e-02 1.0407368243118210e-01 -2.3680418907294925e-02 6.8235752517587867e-03 -2.5834953048283493e-02 5.1553815326590875e-02 9.1448596463864648e-02 1.2069593182999142e-01 1.5016010278829581e-01 -8.7004733671652665e-02 8.5324895840085666e-02 -5.5131797804553212e-02 -7.9186317230227052e-02 1.0461756915050512e-01 1.7342841843125886e-01 -5.6665204993484397e-03 1.6261836163532059e-01 -2.0510954552692497e-02 1.8574395647593181e-01 4.6667748947385596e-03 -1.1636877081973053e-01 1.9239606251924105e-01 -1.6277462337313035e-02 2.9762420004407555e-02 6.0265083373954607e-02 1.5072685340429481e-01 -6.2530233962388590e-02 5.3820545571967845e-02 -1.0236711425664546e-02 -3.2046696679508622e-02 -1.1094240456791581e-01 -1.0758739682653083e-01 -3.4814775288046391e-02 -7.8262241097304147e-02 -3.8399042334500762e-02 1.4161043817976091e-01 1.6518282267009379e-01 -5.0975120449128636e-03 -4.4277515592935010e-02 1.4629050341141792e-01 5.7513957176695302e-02 9.2774312163699427e-02 -1.1633587304362476e-01 1.2336662387703343e-02 -1.3348607240187460e-01 -8.7656210304494747e-02 -8.0922552573092846e-02 -6.3738788954879083e-02 -9.0710581462463968e-03 6.0721953656502126e-02 3.7122132754340603e-03 1.4326599582484190e-01 1.2013763843746511e-03 8.0960246988779447e-02 1.0512726963976013e-03 -1.9894145839521909e-02 1.2840103667582900e-01 -4.8208433090544886e-02 8.1114303746868691e-02 -1.5979085960196512e-01 -7.1241767189106270e-02 1.8723618904631636e-01 -1.9311820188214804e-01 1.3120684860264420e-01 -1.6474213978048849e-01 -1.9578068115954353e-01 -1.5424315311848169e-01 -1.1821798692712465e-01 1.8234251351219810e-01 -3.2928678974071271e-02 -5.3149557611655310e-02 8.8836974876107686e-02 -1.9112324123143343e-01 8.0445543003314746e-02 -1.8223646741990865e-01 -4.7089290225083534e-02 2.6798088851183538e-01 1.7454620857115893e-02 1.5783924801306266e-02 1.7882952238800678e-01 1.5680838997675811e-01 8.5078757473885547e-02 4.1341606499449547e-02 2.6924219361179796e-01 -2.6510655540391409e-01 9.4926338592983290e-03 -4.1613036967992650e-02 -1.6775475203315260e-01 -6.9611805871912097e-02 1.9596432100674879e-01 5.1914987857490803e-02 -2.7236703620550418e-01 -1.5073278377806615e-01 1.2557660964529477e-01 1.9044223771747776e-01 -1.1221452670406414e-01 7.4954218140262360e-02 2.5739582178581294e-01 -1.7954742589140169e-01 -1.7201813600949331e-01 1.5057608072193737e-01 -3.8170652573835551e-01 -1.9010026001268074e-01 -2.0778489181130844e-01 1.8933760019477380e-01 5.4021205321286819e-02 2.5463306665023906e-02 -4.2878587305792734e-02 -1.0297675600654878e-01 -1.2387610164184136e-01 -2.7070372210821486e-01 8.9338745508922873e-02 -3.7169591125643726e-02 3.2755683548426590e-02 4.8715012785634490e-02 -2.6238800267308704e-01 -2.3183349552301688e-01 -1.8429680011467084e-01 2.4491844646941208e-01 -3.2203165562834174e-02 -2.3721290886587049e-01 -1.5475586201558802e-01 8.0619779574459982e-02 3.0690275963810774e-02 -1.1697484579035707e-01 -1.7334873592924785e-01 1.7917640885103125e-01 -9.6860608821189645e-02 -8.9193364606033297e-03 1.5698690629109388e-01 -6.3752123672977501e-02 2.7343880121449685e-02 -1.3267966590222807e-01 5.9205769796880789e-02 2.0097821240408406e-01 1.1765414141624729e-01 -1.0262158728897679e-01 -5.8056504203078237e-02 -1.3459046358025886e-01 5.5241955852383978e-02 1.0479990184156059e-01 -1.0854339120005090e-01 1.6526188144650586e-01 1.8292073381362089e-01 -4.5761969165932087e-02 -9.1483091400061126e-02 1.8468770765601822e-01 1.0743651036609939e-01 1.1529518644191077e-01 -1.4153503167999322e-02 -1.6417309543917838e-01 1.4533241289994148e-01 -1.6930813861232225e-01 -1.3287407590253223e-03 -3.1458685572724701e-02 -1.5127653219653719e-01 7.1431518549724612e-02 -9.0267401638863598e-02 -3.3737902525812790e-03 3.2692375737226442e-02 8.1235341579217440e-02 -1.7846771515720186e-02 -4.2925898372702338e-02 5.5194896350184805e-02 1.1915564266323392e-02 -1.1845001113981525e-01 -6.4833074859373035e-02 -7.0732413622104875e-02 5.6985070812223322e-02 -3.9374127828532675e-02 1.5976972803780348e-01 6.4286286603482359e-02 -1.6091445230938578e-01 -1.3438730769539485e-02 3.1917821320548261e-02 -1.6388302404606478e-01 1.8267134333822052e-01 -1.2734693605221192e-01 -1.9380430209462493e-01 1.2694304739053022e-01 -1.0417552220178064e-01 -3.4687882396884702e-02 1.7064332657657982e-01 8.8585867487161435e-02 2.4023672750316347e-02 4.1660404166672825e-03 -4.2030713866062164e-02 -1.6765337773387784e-01 -3.4078140008226350e-02 -1.2259882910940650e-01 -1.5096970889093184e-01 -1.2270726330506465e-01 4.6457780438333839e-02 -3.9934907197500943e-03 1.3349532498503636e-01 -6.6325304102361196e-03 4.4674149741254762e-02 1.7943075733654831e-01 1.5431472933579107e-01 -6.0229799220538220e-02 1.5678786792878291e-01 6.9392236372357950e-03 -1.9815095267005107e-02 -1.7389694688402822e-02 1.8156391207757619e-01 -9.2415836516852104e-03 -5.2001789108517037e-03 -1.6997152965854148e-02 -1.3566444041022918e-01 7.8372521636027009e-02 9.2560790482455552e-02 -3.9831686124252100e-02 -1.9130325113600535e-01 1.8677569710352315e-01 -1.4727861777485221e-01 8.0656988609624947e-02 -4.6664687638540876e-02 9.5396690176148907e-02 -3.2757970182286621e-02 1.2858043197253888e-01 -1.0113016055572886e-01 1.6617176911363424e-01 -1.8218847679969553e-02 -1.1112850494394282e-01 -1.7067821820536999e-01 3.2050446076773924e-02 -1.6382617729355529e-02 1.2761266538378116e-01 1.4312702863047355e-01 -8.3008677478354331e-02 7.0276735617033945e-02 -1.2924722873509845e-01 -1.1316782738547509e-01 -5.6595241081864478e-02 8.5607812562907518e-02 4.8419248992563758e-02 -8.7677050403462797e-02 1.0163972609919356e-01 -1.0266107972847964e-01 -2.0765135687233111e-02 2.2223401807952742e-01 8.2298345018073621e-02 -4.9558772042584708e-02 -1.5586461032071738e-01 -1.6885336774262380e-01 1.3011457527254977e-01 3.2254137501217646e-02 1.3466916121974432e-01 -6.0141127670313821e-02 1.6985282891396805e-01 7.9641783071013592e-02 -4.7223350622380866e-02 -1.1696402965933085e-01 -1.2948136885590616e-01 1.6118422451095216e-01 -2.1223869094262704e-01 -6.2464252680540622e-02 -1.3301737062580540e-01 1.6575833975390319e-01 8.9979397781579113e-03 -8.5778157452621642e-02 -2.6860876374956936e-02 -1.5586282815865838e-02 -1.3338091845909632e-02 1.9625267971751373e-01 -1.1951164827244713e-01 6.2227413937478930e-02 -5.9772602906816207e-02 1.1210182969116962e-01 1.0520405155104250e-01 1.6451009008112746e-01 1.1739087837334580e-01 -1.0766222096576322e-01 -1.0217860938104796e-01 -1.5273904866186172e-01 -9.3012316863778935e-02 1.2693394897145258e-01 -1.6847577604703229e-01 -2.7641692229633842e-02 -8.4846365294429155e-02 8.5955632429997278e-02 1.8405144283958716e-01 -1.0188430364818504e-01 1.8899888239035353e-01 1.1771436278829794e-01 -1.6776876786377906e-01 2.0197114462116175e-01 1.1523836342101519e-01 -9.4706134824548052e-02 2.0362816093491903e-01 5.8493657343428887e-02 8.7493347215486600e-02 -1.6592223800282532e-01 -1.2578694814980709e-01 7.2881260152821342e-02 7.7631985938129477e-02 -1.7080803484079848e-01 5.4562432336381798e-02 1.7339391626646752e-01 1.2925899992703402e-01 1.7245478651829610e-01 1.5041524785519056e-01 1.6945451249661372e-01 -9.8623365960612358e-02 1.7090784263165329e-01 1.0795986754947756e-01 1.6162917884261160e-01 1.4511640853261965e-01 3.1637788422462655e-02 -1.2163133352323506e-01 1.5887087899285199e-01 -1.2744033063046770e-01 -2.4935609129612134e-02 6.0303253200433574e-02 -1.0553146806211343e-01 7.7577260625590602e-02 -1.6955903237375211e-01 -1.0274023558547121e-01 1.6693390725651444e-02 -1.8292291205324460e-01 1.7996755052249019e-01 1.9112570629034938e-02 1.9970534571797191e-01 -9.8998976673020420e-02 2.9331821973249711e-02 -1.7707042806096296e-01 3.1099214949032550e-02 1.1926469513338868e-01 -1.0859417230420483e-01 -1.9797013439326425e-01 -1.8902274279651926e-01 -5.9919979467456135e-02 -8.4177860446942948e-02 2.3078897801437771e-02 1.1494086284467085e-01 -3.6887746810196367e-02 -1.2086594031240369e-01 -2.3236085544250881e-02 -1.0355683173616162e-01 -1.5402277034939782e-01 -1.6406135708984967e-01 -4.0080748126834521e-02 1.0503789954969241e-01 1.4961275662907308e-01 -1.4112450808454383e-01 1.1865140473134725e-01 -8.0879467854142267e-02 -2.2534854345484512e-01 -1.5747854522379690e-01 2.0247754148467138e-02 -1.4319652218214959e-01 -1.7860063367647036e-01 -1.6807788287115569e-01 1.6718452404921322e-01 1.3619648757319611e-01 3.8796218288163035e-02 -1.0177279092643959e-01 -1.6715960709579269e-01 -1.7152249111331910e-01 9.9829068146131503e-02 -1.5764765792975372e-01 -7.4066881588952874e-02 6.0846235042380514e-02 -1.3786150142508835e-02 -8.3824850137770981e-02 -1.9047359166299953e-02 -5.3620476625797046e-02 -8.5622222841606394e-02 5.4614832419566148e-02 1.2620271151800164e-01 1.4533726271005543e-01 1.7729233123715649e-01 7.8479811538538571e-02 -1.2665777142730778e-02 1.6341657459250275e-01 1.5607756905415543e-01 -1.5697066522557884e-01 1.6885614901256504e-01 -1.9419604184349731e-01 -1.2563829991313175e-01 -1.0969337036279159e-01 -1.4177275258568975e-01 6.8925519743635075e-02 -1.8984724418579377e-01 -3.3833798426783281e-02 7.1635532851490949e-02 1.2745106400448675e-01 4.6623351594559721e-02 6.3999036920259419e-03 -1.1678193072992961e-01 1.7845739239277345e-01 2.0158709383918158e-01 4.0514004379267145e-02 1.3048633781342300e-01 -1.5474516620746995e-01 -1.2209182949591371e-03 5.3705390809530767e-02 -8.5498002325012090e-02 4.4596699357050650e-02 -2.8104097073790683e-02 1.3577326976970538e-01 -3.2979027810801261e-02 1.2800984369321391e-01 8.0073467645524934e-02 1.5638061323428290e-01 1.4231113108724930e-01 1.1599504406869561e-01 -4.0752914852547339e-02 4.3156815192386927e-02 2.6477323469241618e-02 -1.2644032861042168e-01 1.9485471289665396e-01 -1.0200962497793808e-01 -1.6746724807457883e-01 1.4875324222751882e-01 -5.0904002723517312e-02 -1.4528744193595342e-01 -1.5990354196339970e-01 8.3379846733631469e-02 1.7265647097976924e-01 5.5247311923691943e-02 -1.5322775905380642e-01 -5.4082552329047462e-02 1.6813226450142274e-01 -7.2881680926322454e-02 3.4670877730813100e-02 -1.6029108407117271e-01 1.8781112250485293e-01 -9.5096506402702438e-02 -2.9638090900842472e-02 -1.6113299674383544e-01 -1.1944249671353119e-01 -1.0323315687767577e-01 1.8523537287021306e-02 1.5147386151705489e-01 -4.5786257953544386e-02 1.7492419997621628e-01 1.8790849507549223e-02 -1.8940806390465004e-01 1.6167305615626104e-01 -1.2485668732400253e-01 -1.5409330533251392e-01 -1.7986918311965994e-01 8.6205147776336241e-02 6.1148745527735186e-02 -3.5879160292144718e-02 7.8605614754613140e-02 -1.1129709562773338e-01 -6.7661029260901437e-02 -9.3600505842312720e-02 -1.1365759700169811e-01 -1.0595858979655545e-01 -1.4603952648818633e-01 1.5078920014697359e-02 -1.1430762177618443e-01 -5.0672634406021946e-02 1.6936190311111338e-01 2.9246268595997230e-02 -1.6830390345875121e-01 4.1769661303219019e-02 7.2971687570416083e-02 -5.7086520195913038e-02 1.8707655907110765e-01 -5.2871695254121671e-02 1.2066370152016825e-01 7.5978922371211684e-03 1.8695506068680530e-03 -1.7095816605888900e-01 -1.2004590005146322e-01 -7.8994557235983046e-02 -8.2186978934545449e-02 -5.5476928862888693e-02 1.0246591115442491e-01 -1.0627203993560655e-01 -8.9055829362447381e-02 -1.5787011328622952e-02 -5.3427839753847281e-02 -3.4196606440636948e-02 1.6460241856336308e-01 3.4872895510061563e-02 1.6253322555934260e-01 -1.4705506768181256e-01 -1.7926137949952978e-01 -8.1568180985439401e-02 -7.9996743031360996e-03 -8.5203361599796995e-03 1.4233688064186079e-01 -1.6550894682167330e-01 1.2378317228194107e-02 1.1662234770277879e-01 -2.9601492889547963e-02 3.6518220491231788e-02 -8.2115123922298042e-02 -1.4489387962601780e-01 6.8382040466987259e-02 1.2355060658508248e-01 1.3131744233830736e-01 1.6923166368301495e-01 -7.0868287053490464e-02 -2.7345466209841459e-02 4.9103791695630838e-02 1.5671504714721157e-01 1.3387510309200940e-01 1.3060325390134570e-01 1.0427087568737400e-01 1.4005214043628708e-01 5.3784070415612756e-02 1.5300411446337961e-01 8.5407591044478676e-02 1.8414384773586093e-01 1.0686588160127779e-01 -8.3535108313129661e-03 9.8974000360960088e-02 5.9568439287444742e-02 1.8949122363468376e-01 -1.1671226108193428e-01 7.5645351147621678e-02 -1.3813948374966092e-01 8.8862863012336368e-02 1.4453971097837728e-01 -2.2299779530238024e-03 -1.5744839615466688e-01 -1.6732520004260246e-01 1.2312101468774306e-01 1.7349297973682609e-01 1.6939784715203646e-01 -5.4189806886543013e-02 1.2714945359986790e-01 1.3019790931416417e-01 4.3470878910615018e-02 -1.6245826473460484e-01 7.1256261086748457e-02 -1.8641752219979169e-01 -7.4031203576503894e-03 3.5634687327455776e-02 4.2624276176205012e-02 -6.7806719043147029e-02 3.8798545046966205e-02 1.7651449573451539e-01 -1.3855697192672389e-01 -9.6385792313929564e-03 3.9675014981638619e-02 1.7246759394809408e-02 -1.6737973372023668e-01 9.7518058097640137e-02 -1.0836092259134222e-01 1.4795134999794743e-01 1.5512144846873152e-01 1.0417302604291528e-01 -1.2325760549050989e-02 7.8181998088435387e-02 -1.1460707194257146e-01 5.1717591121067226e-02 7.3148980788669979e-02 -1.4934582811719535e-01 7.1359289157008371e-02 -1.4931210053120986e-01 1.7769510038063507e-01 1.5991126276145982e-02 4.1717511130568645e-02 -1.0155716499737606e-01 7.0108886616826571e-02 1.7048966021037587e-01 1.9786413345984979e-01 1.5772313031864929e-01 1.2890210741835906e-01 -1.7339670600314575e-01 1.5134494032240614e-01 -8.0707885335774665e-02 -1.3767001316030703e-01 -1.5886520529946505e-01 -1.1548212340429607e-01 1.3189703903903627e-01 2.1759261628584042e-01 5.4767440410017421e-01 -4.1999572695422633e-03 -1.6625895325293394e-01 -3.9838928925888178e-01 -5.6172889542748898e-02 3.1234401161503778e-01 4.8177745457358001e-01 2.8051957302023350e-01 2.1827003508498752e-01 -2.1135375631223860e-01 1.2463744602597325e-01 2.1373898075067480e-01 -1.8718584771411012e-01 1.1704974240024130e-01 2.6349239048420564e-01 3.9219788549172940e-01 -2.6036960470128456e-01 -2.7339444508192634e-01 3.6749724863909827e-01 1.5377981320641168e-01 1.7120756368391898e-02 -1.0075430404205274e-01 -3.5315685973000077e-01 -2.9358888183868603e-01 -2.3932351417098905e-02 9.0740016718942162e-02 -3.3218310952023228e-01 -1.9881212970712888e-03 -3.1437816186682586e-02 1.3119761215937640e-02 -6.4719631452419907e-02 8.8080502164829932e-02 -4.5789922500891522e-01 3.5136415100520169e-01 -8.6114561437951639e-02 3.6315727785908286e-01 -1.2602686229526547e-01 -2.4645848412400992e-01 -1.4914748499466329e-01 2.4922759646882572e-01 -4.3316214701202282e-01 -1.8115361466245500e-01 -6.3581210039728900e-02 -3.9568568389528586e-01 2.0024377182005768e-01 7.3027166044973529e-02 -4.3114981404142710e-01 1.6231233886890839e-01 8.6649499493476612e-03 5.1924357857466526e-02 1.4878812412616155e-01 8.3400126253267093e-02 6.4470655760968068e-02 1.3297087665928664e-01 8.9594322763926204e-02 9.6100571828355491e-02 1.8931726956110539e-01 -9.8826457429701697e-02 8.7548188802009874e-02 -1.9697508641916750e-01 -1.1654075478010649e-01 -3.7130759131508637e-02 -1.5007607178736443e-01 1.3411080832998712e-01 1.7019718812845289e-01 1.5243010083362196e-01 -4.7313942038473528e-02 2.0197039373349435e-01 1.6751775494668342e-01 -1.4550629101954762e-01 1.3846098440858146e-01 1.8583341441829240e-01 -4.9203166287577774e-02 1.0775036008950832e-01 1.0015408497621977e-02 -1.8646575473987545e-01 1.4711852170499251e-01 -8.5020375650011026e-02 -9.6174240348053427e-02 -9.4905061976283372e-02 -1.7605288397072932e-01 2.2631839967282863e-01 -1.7775137351582662e-01 2.2507823870075366e-02 -1.2192619932319462e-01 -1.7665866633936975e-01 6.8108003978527260e-02 1.5567225411419419e-01 -3.6986240001441607e-02 -8.9825438122441509e-02 1.0433231448900930e-01 -6.1725221498713866e-02 -2.4094754540265512e-02 -1.2551781902208300e-01 -9.4509744215114724e-02 -2.7066611810063600e-02 1.1976771768079396e-02 7.1185832045896735e-02 1.7587842667419423e-01 -1.4975028066438931e-01 -1.9403868953877249e-02 -1.3339559579093993e-01 -2.0243007071848992e-01 1.8177553637166655e-01 -2.9009746038665806e-02 -1.2421503190436818e-01 -6.6604941830071956e-02 2.0025865430968032e-01 -9.6099155353966348e-02 9.6365077986769798e-02 9.9522542328502356e-02 -1.8073425213352615e-01 -1.9096119053899802e-01 -8.7669432519733217e-03 -8.2554788239226795e-02 -4.2122168837434755e-02 1.3476693566809625e-01 1.4220304774941359e-01 1.7033081809808087e-01 -1.1621104653281433e-01 1.5692646872982854e-01 1.6047008577116403e-01 7.0854979044715161e-02 -5.2868590494955070e-02 1.6751317215699055e-01 -1.2650342186071209e-01 1.1102170675600066e-01 1.0829855788387678e-01 -1.6024254631910054e-01 -1.1443437517308873e-01 -4.0178443794466535e-02 1.5159251631155099e-01 1.9281865279882407e-01 1.0388618658108144e-01 -1.2435070674364587e-01 5.0299611206827570e-02 9.6734047404238271e-02 -1.2278669259777676e-01 -9.6863908747523972e-02 5.1559374129471806e-02 1.8447634670330937e-01 -1.2410702526006252e-01 -2.8396368092310227e-02 -1.6889631776925537e-01 -1.4040726480526713e-01 -9.0458381212988034e-02 1.3935814450807960e-01 7.3161126728257198e-02 -1.4098146511230694e-01 -5.6528379333814277e-03 7.3706547365853095e-02 -4.0741049912954776e-02 -4.1234875911300435e-02 1.4780890678257741e-01 -1.6622532188125783e-01 -1.4258160735419045e-01 -1.4211721079285361e-01 -1.2246859370631025e-01 1.8170414848564964e-01 -2.9160354669718114e-02 -2.0478557993253908e-02 8.9970547918175756e-02 7.7974353444186253e-02 8.7897921487269201e-02 1.2321827275116672e-01 -4.3120000016919582e-02 3.4016951773951712e-02 -6.4920196793684356e-03 8.9059499980428752e-02 1.2397311770109674e-01 4.7685314835116926e-02 1.0542199393653216e-01 -7.3654600907169243e-02 -1.1475985046375253e-01 1.6002152397186556e-01 -5.4629626734539555e-02 1.1377422064061107e-02 -7.2930840943537792e-03 4.2945859609852415e-02 1.9672172215200726e-01 5.0991272758514568e-02 -1.8069387441889403e-01 -1.5078245479515628e-01 3.8324647900172468e-02 -5.6534101510700811e-02 7.6580094346607827e-02 9.2361001728627740e-02 7.9216068330090025e-02 -1.3640798071398419e-01 -3.3511743936986164e-03 2.9250937424771537e-03 -1.7629090917634607e-01 -1.4559279777012044e-01 8.8814387729755195e-02 9.5325874966208757e-02 2.0660493125082158e-01 -5.8161503077898295e-02 -1.1650230815569135e-01 -1.7219627468938978e-01 2.4109373405323416e-03 -1.7799946710831058e-02 1.7942097680129898e-01 3.0606198860853754e-02 1.0870539352648320e-01 4.5615220291198508e-02 1.8802786219621423e-01 -1.3348559702303348e-01 -1.3863754953313248e-01 -9.9106186330680121e-02 -1.9076204792466891e-01 1.2269208012134313e-01 -1.4594945475905446e-01 6.7687616921441637e-02 -1.7971309697987786e-01 4.9537560959983871e-02 -5.7002865668078107e-02 -5.3397697076521554e-02 1.4028904864603092e-01 -1.8541885050492088e-01 -1.9635063415447640e-01 -3.0060708916828036e-02 2.0584135560448347e-01 -6.2756952251264431e-02 2.8127511736154138e-03 3.9215156956775063e-02 -1.5822594471327689e-01 1.9155634176838862e-01 -1.3231029880989315e-01 1.5949306809797142e-01 1.0152591371648095e-01 -7.3429289797615170e-03 -5.4018728558661758e-02 1.0007197572793612e-01 -1.1474559808834690e-03 -1.7617304816455393e-02 6.1536268107673410e-02 9.1699662727630415e-02 1.0310201847696655e-01 -7.8491307402665300e-02 -2.1930068579562360e-02 -1.6595910193684452e-01 -1.6339925359265761e-01 1.2967028395847699e-01 9.4370766508274084e-02 -1.5284731462549600e-01 2.4579279115098654e-03 -1.3286073438856730e-01 -6.4601741017469086e-02 -3.2046743218158556e-02 -1.7225081475423124e-01 -6.4898999571087176e-02 -8.1418015797631207e-02 -1.1324136249331923e-01 -4.3742714776152311e-03 -1.1018896352423718e-01 -8.3907813144173476e-02 1.6933709819881101e-01 -1.8319154649744265e-01 -1.1662801701469427e-01 -3.9680964467924705e-02 -1.1530670419971531e-01 1.1580478242546872e-01 2.0510232992884708e-01 -1.3822382720463339e-01 -1.0400668079099264e-01 -1.4594537748735781e-02 2.6043859707891630e-02 -2.6733917509537099e-02 -1.8816894332464704e-01 -9.4036940237724895e-02 1.5737681077785465e-01 -1.2003484885667104e-01 -2.0462523056477930e-01 -8.3193126412075380e-02 1.1000841911849399e-01 -1.7301473069865980e-01 -2.4252705551461645e-01 2.1726497823969509e-01 1.7543805318617386e-01 6.9933446276219197e-02 1.8568208149834184e-01 -1.3740658891455992e-01 1.2795170471157077e-01 -5.5908128603426942e-02 -4.2719474795550202e-02 -3.3497066932911726e-02 6.0846784006062665e-02 1.2691102858662370e-02 -9.8045257637269165e-02 1.6099612766769839e-01 4.4115501123399591e-02 2.1436674305012035e-01 -8.0280712717573560e-02 1.4167224348099267e-02 -1.4839094463003724e-01 1.1967877415247946e-01 -1.1394325001994150e-01 -1.3815023343677613e-01 1.9108118868022897e-01 8.6292795127056773e-02 2.5763236129923046e-03 1.5030134654670085e-01 -1.4484391866046364e-01 -4.8607187378378297e-02 7.5114846985508216e-02 -1.2526954400679796e-01 7.7842868969861923e-02 4.4134265305468823e-02 1.8325048307610328e-01 -3.1325606722096139e-02 6.9207199821342422e-02 -3.2283394064861269e-02 -7.4514608673599991e-02 -1.2563487866254047e-01 -9.9642083983341595e-02 3.8575825837015812e-02 -1.6752430495712711e-01 -1.5459939192423838e-01 -5.2001539867581804e-02 1.3871102794925874e-01 -1.5767974808239951e-02 1.5955928581047002e-01 1.4866672882592319e-01 -1.2559722301004531e-01 1.1943624322228218e-02 -3.8628081148076983e-02 7.8975047062578144e-02 7.8504328830764081e-02 1.5548533952188850e-01 -1.2953191029793426e-01 -6.8854939581064284e-02 3.0957530472460554e-02 -1.2629866440993126e-01 -6.1023549915895405e-02 2.1651618220453871e-02 6.5265770383094918e-02 1.2677606712954329e-01 7.4457448013562397e-02 3.7862073256679871e-03 1.5625863575760183e-02 1.2793380194934409e-01 5.0534612334965810e-03 9.3163190893197051e-02 -1.8943025121033183e-01 -1.3809152023750501e-01 -1.3002366865285694e-01 -1.2914650849760553e-01 -1.1650994520290525e-01 -1.3012907826756304e-01 -5.4914278528791848e-02 -1.2663598382501383e-02 -9.6315079628752298e-02 1.3358931743426986e-01 -4.0205096048514501e-02 -4.2209656811269231e-02 1.1808678349445569e-01 1.6030269436299913e-01 -6.2271805090290296e-02 3.0031729139786342e-02 7.3805421991424688e-02 -8.7027055565671821e-02 -1.1172961591284319e-01 1.4379448311080084e-01 -1.4712065097978652e-01 9.6381270292862087e-02 -1.2704881431757928e-01 -5.6178699799042629e-02 -1.0903380201841473e-02 1.7504089779691551e-01 -1.1250831984449255e-01 -1.4275083804417102e-01 -1.3288922684808194e-01 7.9744896819850350e-02 -1.6159479443055941e-01 9.3430064890178313e-02 3.3764304551765038e-02 -1.2348704959028396e-01 1.4702760721604429e-02 -5.6372127909615447e-02 -1.5201578448904768e-01 8.3504957033709040e-02 -1.4013391016071902e-01 -1.2967022985574275e-01 1.6253586549155992e-02 6.0758931491845296e-02 -5.4991171529214580e-02 -1.0886920444084741e-01 1.8548698010807821e-01 -3.1756177167168040e-02 6.4741362272064562e-02 1.6209135967595811e-01 7.3678014531818964e-02 9.3617619479154146e-02 -1.7770454813305470e-01 -1.1839896496951656e-01 1.5923768693473281e-01 5.5985082281531456e-02 3.2412442128298510e-02 -1.2098524806849333e-01 1.6358626076485799e-01 2.6178354125794367e-01 1.3325393106823658e-01 -2.4293503947172213e-01 -1.7450715351888724e-01 -3.1897219445350861e-01 1.2067232098492005e-01 1.5684549408000234e-01 -4.7413798535315195e-02 2.5940824809935692e-01 -5.4784940167729744e-02 -1.1653504739247160e-01 -7.1948560027394040e-02 -2.5432718197983895e-01 -2.0144803587963314e-01 7.2455299713517898e-02 1.1549893277405626e-01 1.4107151303746296e-01 1.9450316326231482e-01 3.5245339039414340e-02 6.7069663769315252e-02 1.1225133293794803e-01 -1.7838136315191686e-01 1.2534171206774347e-01 1.7686255518973884e-01 9.3972106659078514e-02 -1.6429570501021368e-01 1.1581448180996541e-01 -9.8084092327600750e-02 2.6524639724186161e-01 -1.4199061610832442e-01 1.4833604333756978e-01 -1.4238282863867888e-01 -2.0377777776982897e-01 5.8692684467150646e-02 2.2716077302206877e-01 -1.0068180984983537e-01 1.6298075032164652e-02 4.7331262732083140e-01 -1.8207705087807977e-01 -1.0416032264579379e-01 -1.6085190834959506e-01 -1.3791630922767101e-01 1.9107864062013452e-01 6.4617096515354328e-02 -2.0723878538023460e-02 -2.4696870118354225e-01 1.1595791233448924e-01 -1.9454529250785330e-01 1.6228254903320635e-02 -1.6307143888436709e-01 -1.5421739033214843e-01 8.3301723799466390e-02 5.6279936261357473e-02 1.2856704908292893e-01 1.2178322376447948e-01 2.6092361731851824e-02 -2.8093520457683541e-02 -1.2920357166085902e-01 -2.0748487769023521e-01 -3.3380169470656591e-02 6.6667698748453616e-02 1.2358042384337831e-01 -3.1744717351684458e-02 -8.9663396963573783e-02 5.6175090509822452e-02 1.1817186295992928e-01 -9.7382149571664661e-02 -1.4247519076983692e-01 5.1485073363972851e-02 1.5183458876202199e-01 -1.4614384541437447e-01 -1.0021830859842293e-01 1.8012543525977520e-01 -1.3954934646327088e-01 1.6716584080515165e-01 1.3793324752289945e-01 -7.8524339733702566e-03 1.2433244256445287e-01 -1.3654415536289360e-01 -7.3667888051460170e-02 2.1068282597951093e-01 1.3796281383050210e-01 1.5090528606331038e-01 6.6968990213450708e-03 9.5130759761088132e-02 -5.9497468199675919e-02 -1.2784350995326330e-01 -1.8307129500637379e-01 1.1575074450157423e-01 1.6886152422859310e-01 -1.8692678445476177e-01 2.0402221387514102e-01 1.5750778403266125e-01 1.3922319460817115e-01 -1.1972835592274900e-01 5.4346210207834304e-02 -1.3027932155307637e-01 5.8428011485245950e-02 4.5099470800268007e-02 -1.6828001583221953e-03 1.3515926336590650e-01 5.7012844814509057e-02 -2.0348615812706949e-01 9.8925895243636541e-02 -4.6178382101030056e-02 -2.0160433062357272e-01 -1.8616057968059152e-01 5.2629345838264695e-02 2.2107229234106340e-01 -9.1476413088030298e-03 -1.6622981463061284e-01 -9.2402312219403857e-02 1.7827502708377388e-01 -1.0597129606751970e-01 -2.5640897882225316e-01 -4.1512090284924898e-02 -2.5988598796918844e-01 -1.0351008656357566e-01 2.4088567762751073e-01 -1.4533089456626949e-02 1.2060770810350446e-01 -2.6849143469057986e-02 -1.0282911228851674e-01 -1.1807223627516722e-01 -1.4736923859802301e-01 2.0334586665397825e-01 -2.5014250185683018e-01 2.1773758441591608e-02 -1.5069678661326949e-01 -1.8693338165096235e-01 -1.9328247659410117e-01 -6.7771108918847009e-02 -5.8571532254303525e-02 1.6322378149133571e-01 -1.8262993278978545e-01 -8.5753109402294247e-02 -1.5399955877748825e-01 -1.3836327142803628e-01 5.0727176571160319e-02 -6.9327686664852839e-02 -4.9517076107066814e-02 -1.3438469879981382e-01 7.4694327153729215e-02 3.2475897890999238e-03 -6.9843447885499191e-02 1.7816168762861473e-01 -7.2287929137649531e-02 -1.6957783867838783e-01 -6.3421252006608683e-02 1.3559552564408442e-01 -3.3420464725037506e-02 -1.6297917357676703e-01 -4.8910572207657599e-02 -3.7688429229659370e-02 6.3748248208881086e-02 -1.3678316428245171e-01 -6.0893397260826793e-02 1.5407824611723286e-01 4.7067344929372146e-02 -7.3565822977552764e-02 -2.5613546130453815e-02 1.9642215260026169e-01 -2.5666248748362316e-02 -4.5266889016823630e-02 -1.6857209992159325e-01 -6.0167361540709952e-02 -2.0081492008939278e-01 1.6691098780786220e-01 -1.1379639423763283e-01 -7.8594138445906306e-02 1.7087419685077060e-01 -5.1761958116545791e-02 -8.5066160055854240e-02 1.2592970712274035e-02 1.3602598472893021e-01 -1.5732667229269262e-01 1.1141488308291461e-01 -1.5620228260903632e-01 1.1213008570810010e-01 -8.6141885122805628e-02 -9.5093496139366809e-02 -9.6053017368643662e-02 -6.7808367455732474e-02 -1.5823544205291207e-01 -1.5582012752779709e-01 3.2967928590056969e-02 -7.1842466712784783e-02 -9.0693358602872864e-02 6.2179860067636573e-02 1.7788746620208937e-01 1.1112974515989552e-01 9.1286709004012603e-02 -1.3688317270113662e-01 -1.2019641508114934e-01 1.0212624883398788e-01 -1.2104596945541270e-01 -1.8978417813927903e-01 1.5466985376442022e-01 3.3080955496020262e-02 -1.6281692115404425e-01 -1.7993889597496479e-01 1.2937586415516145e-01 -2.2703575733956729e-02 7.9733586261334588e-02 3.9828453029080120e-02 8.2149276914804170e-02 -4.7628844805929639e-02 1.8443984800280944e-01 1.6160371180926075e-01 1.2537584219557485e-01 -1.3706704422045057e-01 -4.9150349278515068e-02 8.2140149341112620e-02 -1.2758152141708523e-01 1.5218125857465725e-01 -9.3402417365924487e-02 -4.4077300119550071e-02 -1.1761661618825435e-01 -1.3545141664815538e-01 -1.5448673046784650e-01 1.2014721949489544e-01 -1.4177496562479325e-01 8.8112318128300005e-02 -9.6456123046503847e-02 -1.4297113790552768e-01 1.9615274083911716e-01 1.2896985105735575e-02 -9.0576982412848041e-03 -1.0906290142479508e-01 1.4149485760096700e-01 8.3895066938241336e-02 4.0994520697608325e-02 -8.2871779758697514e-02 1.3021875328087654e-01 1.9039719429212754e-01 9.0010310971034235e-02 3.4222632546114538e-02 -1.9013583846302609e-01 -1.5968307276824889e-01 4.9490162884087523e-02 2.0758940345560531e-01 4.7577770677970706e-02 6.8803888072235711e-02 -1.4198743101643080e-01 8.8936425090859084e-02 1.0213626655348239e-01 -1.8096831978281142e-01 -3.1249193559396576e-02 -1.2558035610653479e-01 -4.6158391119042491e-02 -9.7253734727955926e-02 -7.0755049746714677e-02 -1.2922167838307339e-01 -5.3377637739440466e-02 9.8397972398461347e-02 4.7487468574119659e-02 9.7285799332573697e-02 1.4238559182358351e-01 -1.2801477979358447e-01 -8.2790662819288693e-02 -2.5257982778264774e-02 -6.6395366574069956e-02 -1.2406581626588009e-02 1.5503186376173572e-01 4.9941803665094618e-02 1.9171326747756795e-01 1.3888536692982403e-01 -2.2073518492762807e-02 -9.8622193472159614e-02 1.0032604783070803e-01 7.1781954155553468e-02 -1.7862919918120054e-01 3.6171620727781580e-02 -3.0729011629934019e-02 4.8766511343272229e-02 5.0337541221046013e-03 -8.0799138577737004e-02 -1.1605907676964043e-01 7.9301836929638728e-02 5.9231601752618462e-02 9.7831825389335381e-02 -9.0791665692035589e-02 -1.4171348288220945e-01 -1.1294290580441699e-01 1.4800673739257550e-02 9.0596565873165585e-02 1.4321872044613318e-01 6.7606003640233170e-02 -1.0225716775568136e-01 5.6729698375976766e-02 1.4921470819479227e-01 1.4929792527408908e-01 1.0807000428586704e-01 5.2804567587900371e-02 -9.7239516092069628e-02 1.2677679037937442e-01 6.8251823912401352e-02 1.3606573163547545e-01 2.0287732828988872e-01 9.5067014551700357e-02 -7.6416289408097082e-02 9.9314387786932273e-02 -6.6540157665301636e-02 3.2123738222017903e-02 8.3805010101463476e-02 3.6746774430969449e-03 1.2011181550409358e-01 1.6630911861675426e-01 1.5377380090201576e-01 1.4235808768927530e-01 -8.0717750905545931e-03 -1.2106713956697657e-01 1.7831797488953849e-01 -2.3083759224374445e-02 -1.8948603277062284e-01 5.0445853481805671e-02 -1.7692093550426276e-02 1.6628365732487198e-02 -1.3487312003982585e-01 4.3160215969769558e-02 -1.4241895017167788e-01 -1.4640682116881368e-01 8.8121954608332081e-02 3.1020551724609071e-02 -1.8593692372302129e-01 1.4904651528705549e-02 -3.2542180063867873e-02 1.6832742400014730e-01 -5.9993515547454662e-02 -1.6438222114967188e-01 -1.3461372647578104e-01 7.4347243064335114e-02 1.6778677033399614e-01 -1.9201766308258947e-01 -4.8755751533048029e-02 3.0825609245206186e-02 -1.4753663314917853e-01 1.4487795008961041e-01 -2.2246951348382570e-02 -1.9667093743202083e-01 1.4587467541665791e-01 1.1915037176264012e-01 1.1835338746912586e-02 -4.0380038457203143e-02 4.5027821619438697e-02 4.6980885175879866e-02 7.7107219073509162e-02 5.1324596283362667e-02 -5.1389678547219868e-02 3.6297207964974293e-02 -4.4175570109032010e-02 4.4665196034028645e-02 1.5376263722614367e-01 2.0896971852976096e-01 5.4786319816411813e-02 -1.0457716155550756e-01 1.5691935143316649e-01 1.8126978211469147e-01 -1.3326383421185027e-02 -1.4906520457047134e-01 -8.8861328659849137e-02 1.1686754771457600e-01 -1.9854687309182495e-01 -7.4365378983740862e-02 -1.9236478001278971e-02 1.5553516433368375e-01 -5.2388927792676558e-02 -2.9434193652422294e-02 9.3568798219595309e-02 3.2503183219424817e-03 6.9739241271440974e-02 2.1249548474734686e-01 1.8503023480037312e-01 -1.5776755306503887e-01 4.6983398807324959e-02 -1.0815544094410040e-01 7.6307796562553709e-02 1.1859039725871795e-01 -1.4650880479212103e-01 -1.7503322610537750e-01 -1.0664343092516113e-01 -8.1213165805464241e-02 1.8838754294896259e-02 -1.6690676787843368e-02 1.4942220908321563e-01 -1.2863650538586954e-02 7.6720739945483299e-02 -1.0892657494092399e-01 4.9209442456456670e-02 -7.1305864032286156e-02 -1.4529614922296788e-01 -1.5154505677994931e-01 -1.5161887585381287e-01 -8.2413745354091003e-02 -1.4930510907171690e-01 -1.8350414346747490e-01 1.9259703513422122e-01 7.6212696763579141e-03 1.3185800125019592e-01 -1.3814118205431689e-01 9.3762506449118238e-02 -1.3685538212870649e-01 -2.1491022662880669e-02 -2.0324243507706469e-01 -9.1591066767497398e-02 -8.5740128832910420e-02 -4.5658363117901765e-02 1.5453391316315507e-01 5.5928907303543869e-03 -1.8088131044278768e-01 -1.8864507376942463e-01 -2.2165535662039278e-02 -1.4799799541798342e-01 -8.0699557533186278e-02 -5.7428969515199643e-03 -2.0977625858285123e-01 -6.9236956967353727e-02 1.3311688066271732e-01 -1.0229018770984465e-01 7.0821103175348385e-02 -1.8348531089786424e-01 2.0526724553242084e-01 -8.7449323880345431e-02 1.4440769630624370e-01 7.5955173912718471e-02 -1.0281796842806200e-01 3.3113564136807543e-02 1.0490515587314174e-01 -6.5318269434779114e-02 1.7973243217956072e-01 -3.3714221714894912e-03 2.0662803655270795e-01 9.7771035229025777e-02 3.6742814852081467e-02 1.0961102885873576e-01 -1.4638112328956659e-01 -1.9361063398935369e-01 9.4519012469121630e-02 -1.1687193899065032e-01 1.9607265812860322e-03 -5.0935048904407199e-02 -1.2617539082050983e-01 1.4335975103034237e-01 -7.6624833771322301e-02 -1.2389164502033642e-01 1.7293722394308009e-01 1.5584168511592081e-01 -1.3342753067552068e-01 -4.2654254942921896e-02 -1.0723961203306247e-01 9.1522221462148598e-02 -1.0964026055592692e-02 2.3116538903554462e-01 -1.9415244633302198e-01 -9.6480292658944908e-02 2.0032742845712815e-02 8.8122340300642588e-02 -3.9223582756729311e-02 -1.9223524545325274e-01 1.7223819607264859e-01 -7.8335744968284840e-02 -7.5974593755626596e-02 1.2370350508499796e-01 5.9898989362274078e-02 2.5923264746590557e-01 1.3545074656899356e-01 -9.0035011002803519e-02 -1.1285198187626493e-01 -7.8783589339045071e-02 8.9222723923174679e-02 2.0012709631430070e-01 6.3942030391373403e-02 1.4608097110863605e-01 -2.3871926063821717e-02 -7.6803153788581727e-02 7.9467627311196651e-02 2.1115874533901977e-01 -2.2652590654461038e-02 -1.3460350059883511e-01 2.5442372661983969e-02 -1.7490379799538563e-01 6.0035227846998857e-02 1.7508407876915294e-01 1.5596638431017046e-01 1.6346584401752681e-02 8.6623920471078461e-02 -7.0130362356857462e-02 2.8688432820684277e-02 -9.9832817961150400e-02 -1.3742158465697055e-02 5.3980456525213376e-02 -9.0949776524778508e-02 4.9032638579584634e-02 -1.5914305420412123e-01 9.4045428852969140e-02 3.2623399896632425e-02 -1.3401333347646929e-01 2.8089521855138223e-02 -5.5669875109908180e-03 6.6951788096837384e-02 -2.1122526463921493e-01 -1.3249093626571282e-01 4.1065766686245946e-02 8.1529903235255941e-02 -5.7199698502863036e-02 1.7190808555265727e-01 3.4624320716061835e-02 -2.0183964695086440e-01 -1.3588932404462964e-01 -1.6143263462264007e-01 5.4272766976299791e-02 -5.0991716784915563e-02 3.3663723004560483e-02 1.0067203286555038e-01 1.1599352236569827e-01 4.9972023548377729e-02 1.5936773180587901e-01 5.9167973960068468e-02 5.2350170000847830e-02 4.1998486771093725e-02 1.2292753123020461e-01 -1.5053321170213804e-01 1.2964970064174539e-01 1.3193654824404275e-01 1.5391811849182382e-01 6.6905484198515164e-02 -1.6601043304542787e-01 7.5257844556083878e-02 -1.9910231247551136e-01 1.8443661612453852e-01 8.3169397685130916e-02 1.7572488513194182e-01 2.1225001694971629e-01 3.1013334918222838e-02 2.6614887742501626e-02 -2.8541016325721582e-03 7.9127141857257312e-03 1.2640219762610452e-01 1.9207116511659711e-01 9.3254836646605402e-02 -1.3822789845668043e-01 -5.6643174354040537e-02 1.7642708053599528e-02 -4.5865026950574189e-03 1.7495035595740832e-01 -1.7752396133980555e-01 8.3487281122000448e-02 6.3730994081573518e-03 6.5481573057454709e-02 1.5243097034692102e-01 -5.3376766822274636e-02 -3.0546013280948404e-02 -1.4894299281918896e-01 -1.1562659378269764e-01 9.4066683771606707e-02 -1.4888477734936736e-01 -1.1626559321526743e-02 -6.5881268254318337e-02 3.4802465335160057e-02 1.5410794379331186e-01 -1.2613948228515375e-02 7.2347060840322157e-03 -9.2684861842472432e-02 -2.2150054208550807e-03 -1.7703839861175585e-01 -1.3588140070647675e-01 -1.8711878423062023e-01 1.4579382988249534e-01 -9.7277241626153033e-02 -1.8917122880672474e-01 9.7925906698190721e-02 -1.3677921814771676e-01 3.1946514322415055e-02 7.6757701055251107e-02 -4.4606938431170542e-02 -1.1468419676289381e-01 -4.8451864837633666e-03 -3.7835982690243290e-02 2.4574848773297017e-02 -1.7493381099121461e-01 1.9706132167640431e-01 1.4386095149130215e-01 1.2263161970446042e-01 -1.8672228077319472e-01 9.7514987766411654e-02 -7.9249927790539354e-02 -1.4964092317831892e-01 -4.7607797164661680e-02 1.9862952616032589e-02 -1.8446494229778898e-01 -1.0875894399333988e-01 1.4685696936193336e-02 -1.8076559308449761e-01 -3.4146382977002676e-02 1.2056095499535431e-01 8.4257074348428579e-02 -1.5041034880522525e-01 7.1883595833384578e-02 1.1507266606358429e-01 -5.8738289994327834e-02 -9.5548643108903080e-03 -1.3976952591117195e-01 -7.1174897598475229e-03 8.3703495339040646e-02 -4.9255430362171813e-03 6.2276050451886035e-03 1.1371357672131645e-01 3.2665578330260250e-02 1.8246166015721627e-01 9.8435223356710705e-02 -2.8172263546642005e-02 -7.3313335696838983e-02 -1.8094909320247923e-01 -2.2661981964165294e-02 -9.5802786119886907e-02 3.0213765748810247e-02 -1.6383784117490624e-01 1.3348962670844106e-01 -3.7470879751940592e-02 5.7081679645906595e-02 1.1225826040126747e-02 -1.7034677817832716e-01 -1.2435767731577854e-02 -4.2361478650072351e-02 -1.5317983681602532e-01 -1.3247123391935480e-02 -1.7263023223568069e-01 8.4332722304751861e-02 -1.3860565188074603e-01 -1.2792809070808528e-01 -1.7321063505371249e-02 -1.8597209646696578e-01 8.6397754165689622e-02 -9.8136331863918139e-02 -1.5920574612709026e-01 1.3035056134715716e-02 -7.2178145382081182e-03 -1.0711590325268819e-01 1.2876321074106836e-01 6.9025288820643779e-02 1.0513245128379234e-01 1.7399266364823884e-01 4.9398926669093825e-02 1.4157231385687259e-02 -1.1479553856201768e-01 -1.5010245540492845e-01 1.1092973754722821e-01 1.3437159805663557e-02 -4.7530861190806052e-02 7.8943521624090754e-02 -6.9482500871576161e-02 2.0189503892896696e-01 -1.6381880641874677e-01 -1.4713160932566502e-01 -1.0124042675436404e-01 2.0775413976590530e-02 -9.8999746846115802e-02 1.6894456835191696e-01 8.9219165372526998e-02 1.3330722763027897e-01 -1.4437887425873736e-01 1.3962375214845785e-01 2.1941706449307409e-02 1.7358094633042520e-01 1.6505736988794267e-01 -5.3277750216191098e-02 -7.0269838010733721e-02 1.0960792877247971e-01 1.5720116208766028e-02 9.7374708753755645e-02 -1.6600414558026924e-01 -1.4679004710512983e-01 3.3517770740015544e-02 1.2197643211194502e-01 1.8128266558593711e-01 7.3657089319191404e-02 -3.9596644830417492e-02 7.0668175896434426e-02 -6.9039798414665329e-02 -1.0437563571607798e-01 1.7017142965009704e-01 -1.2069803874629677e-01 1.5920833053228667e-01 3.8342112070432019e-02 -9.4055591116401951e-02 -1.5951125335719082e-01 -1.5127058927705747e-01 1.5855357474331172e-01 -6.8805759831078580e-03 1.0056758849397046e-01 -8.3567900681072241e-02 8.5788939328820160e-02 1.7930367667032959e-01 1.0990183364182932e-01 1.6907190905877037e-01 -1.3973702857218728e-01 -3.8750428883791696e-02 6.4486917783815156e-02 -6.1693715624939027e-02 1.1395051416122785e-01 -1.4524087545037165e-01 -6.3496978895790798e-02 -1.2722573172887902e-01 3.6616271708928769e-02 -9.6953598361433732e-02 8.8410385942839453e-02 -1.6925422045785624e-01 1.4857241521448605e-01 7.9919894422934235e-02 1.9735511362226474e-01 -3.0346029046081596e-03 1.8581751477762372e-02 -1.7478360137244006e-01 -1.1293655415207809e-01 7.3554499539329646e-02 -1.1090565752774716e-01 1.9603172489502463e-01 1.0221394483461466e-01 7.2239018342144037e-02 -1.0720735909174071e-01 -2.8198540077273182e-02 -1.1433551038052636e-02 -1.5576556492375859e-01 -2.0350066086317457e-02 1.9315023206405263e-01 6.2831454248906946e-02 -5.6568817505903181e-02 5.3750234724263671e-02 -7.1036441347286039e-02 -1.5427384565529374e-02 -1.6533774890051892e-01 1.2784957654299012e-01 -5.4764719346170533e-02 4.9207890558399463e-02 -1.4135966049732521e-01 -9.4051095541986596e-02 2.9212097508388234e-02 1.3830685651482200e-01 -1.7069871983071258e-01 -1.3107160368715906e-01 1.5288296952200600e-01 3.4921529274862396e-02 9.4719669926908112e-02 8.3348824978833683e-02 7.8307750482590949e-02 1.4235232528107319e-01 2.5327328582655018e-02 2.6857915748695130e-02 -1.4859747074521495e-01 -9.8362211872289357e-02 -8.2252182852856126e-02 -6.4558980803902974e-02 -5.4979412682489688e-02 -1.3734715283177684e-01 3.1942103531497935e-02 -9.3643805577221351e-02 7.6981030490627629e-03 1.5804265392815173e-01 -1.0167592643386755e-01 -7.0699437310665941e-02 4.8337272139915760e-02 -5.1098698601713101e-02 -1.9092986640464944e-02 5.8169864082880898e-02 -9.9042012041364424e-02 -1.1145673465309683e-01 -1.5365930369409511e-01 -3.7530880235216483e-04 1.0173562374056588e-01 -1.6003932062621379e-01 1.4429587378535086e-02 2.8596098700358882e-02 8.4985314463496386e-02 -3.3717845428261971e-02 1.9699545634931448e-01 -4.7755260869129859e-02 2.7844485164009404e-03 1.4758790174048930e-01 3.3523685288801910e-02 -1.5562069467138742e-01 5.5590026345419201e-02 -2.2723445030209320e-02 6.3118720038487827e-02 -5.8611026152430509e-03 -1.2514533100568864e-01 -1.7229067137734677e-01 1.4510456658699607e-03 -1.7203116977583410e-01 7.0600489536601377e-02 1.9793283584717308e-01 -6.1299395678304058e-02 -6.9309256384231244e-02 1.1128352329039007e-01 6.3039061659128731e-02 -8.6777369427291084e-02 -4.7770011941652788e-03 -8.2223902029495158e-02 -1.4996837645977220e-02 6.6933861552502597e-02 -1.1442138504876410e-01 -1.6036009704960225e-01 -7.8355262832882119e-02 -1.3216145693217879e-01 -1.3131500099382831e-01 -1.0145482377148494e-01 2.1375833939573913e-01 -6.2950992412489207e-02 1.3944537742652352e-01 -2.2258651243387079e-02 -9.2318823889343968e-02 -1.9714793598168739e-01 -1.7414384020196230e-01 -1.4137826896738889e-01 -1.1503367907691223e-01 3.9887015960494765e-02 8.7710106963103496e-02 4.1370134681327060e-02 2.0598848696541761e-01 1.4728037877049541e-01 -9.1489317327995937e-02 -1.5220017544541911e-01 5.3009153542890569e-02 2.0060852817462202e-01 2.4772876576615890e-01 -8.0148838487181231e-04 1.5661924199731683e-01 1.8761589865809453e-01 3.8926822692072642e-02 1.6558737934971773e-01 -1.7401466908247731e-01 8.3139159243752841e-02 1.7614446148776458e-01 -5.7970574299038791e-02 -6.5682364122601505e-02 -7.7485362161464483e-02 3.3868955405679892e-02 1.1830513150522687e-02 5.4774147551495546e-02 4.3010197422785265e-02 1.4380385738051105e-01 -4.8394957328880786e-02 4.3108602056712866e-02 2.1205709548891191e-01 -6.0130706349841835e-02 4.7211019555668801e-03 -1.9387437800621687e-02 -3.0766256995499570e-02 7.4573654155581986e-03 -8.0472178063418401e-02 -1.6104626652852827e-01 1.1043636785174060e-01 5.0521977156200860e-02 -9.8687387288289533e-02 9.0926620190948090e-02 5.1667783616539502e-02 -1.4199276435214878e-01 -1.3100481667449393e-01 -1.4341332379002925e-01 -1.1278612994296497e-01 2.8887483209909477e-02 -6.5264400512461379e-02 -1.6249716694156535e-01 3.0349856971829882e-02 5.7312647485429691e-02 -1.2786589244847374e-01 5.7958890779952414e-02 1.1938412757845122e-01 -1.7970850765247334e-01 3.5840139315762277e-02 -1.6905117921500490e-01 -1.8223273068750265e-01 -6.5246346223160112e-02 2.0448671885632566e-01 1.6368252569808872e-01 1.5547787838596275e-01 -8.3474213701798555e-02 1.1897381547301061e-01 -1.2369546933652292e-01 6.0840265820546559e-02 -1.5102246906141212e-01 -1.2339644077198174e-01 -5.8816664312674682e-02 1.0350472949605101e-03 1.5540568547598518e-01 -7.3313429181751611e-03 -9.2607730774475247e-02 1.5614041828773070e-01 2.6739913530427827e-02 9.0615760102111198e-02 -3.2724503431729966e-02 1.4476659523840894e-02 1.0571534175660936e-01 2.3763394332450515e-02 -9.3703053257196994e-02 -1.2228102842442429e-01 3.4437669283451253e-02 -1.3999172636574303e-01 -1.7686431423002399e-01 3.0582307252063293e-02 1.0153846991147718e-01 1.7752183009530609e-01 -1.9737803999293124e-01 1.1835156523748276e-01 1.9476332362942242e-01 1.7955673191529708e-03 -1.3038563316744572e-01 9.2399173002284091e-02 -1.4222129131886083e-01 -5.1795608229114415e-02 -1.5230014949332288e-01 3.1370365584227955e-02 -9.6134392223376428e-02 -1.8824882203831640e-02 2.1179193681794776e-02 1.0778319020781627e-01 7.7556738271557860e-02 1.3280539818567727e-01 -2.9352096810464929e-02 -5.7265045789480912e-02 -3.1278753903913901e-02 1.4294537671279856e-01 9.4138365864719145e-02 -1.3317062412035466e-01 7.2006818765712619e-02 -1.2778416365853101e-01 7.7267215383403212e-02 1.9439348294755715e-01 -4.5864913924774382e-02 7.7325987719119804e-02 3.8478201594895511e-02 6.4996848198917850e-02 -8.1092208393213124e-03 5.4198346170757208e-02 1.0251674969810741e-01 1.0919450900378127e-02 -7.6979520857695327e-02 -8.6858540244463031e-02 -1.4725810592015173e-01 4.1579330228439577e-02 -6.0962456053278297e-02 8.2386895091676404e-02 1.7174524972634950e-01 1.0453760081148745e-01 -1.6313740688953848e-01 -9.7922506174282178e-02 -1.8214580631007316e-01 -7.0746507433161451e-02 3.2548410939752616e-02 1.5355023963615838e-01 -6.7071397040182543e-02 2.2758823687281785e-01 -1.9125132469361866e-01 -1.0755498579679587e-01 8.6164857482463164e-02 1.1227455753447811e-01 1.8555463530272909e-01 1.7781363278775686e-01 4.0984828083472674e-02 -1.4899505073156830e-01 -1.1274698961762888e-01 -1.8172462471998471e-01 -2.4387111514207551e-02 4.6889352756643639e-02 -1.3516476149830275e-01 -8.3223899328920253e-03 -1.1855503890048530e-01 4.3589162164875538e-02 1.4642302247200109e-01 -1.0025179919376560e-01 3.9070054245409991e-02 -1.8151551664032434e-01 -1.6938859127730296e-01 -1.7104601256660004e-01 -1.1109476785759295e-01 1.2636970745711357e-01 -1.3583589673048360e-01 -2.4644727545057560e-02 -3.2885071466642379e-02 2.0718651253256368e-01 6.7291116209452606e-02 -8.7580303818490985e-04 -3.6718154776566328e-02 -2.0465798699847518e-01 8.5439712649424862e-02 1.9454186329284431e-01 -5.6605472824785071e-02 -1.1316209111971710e-01 2.4134666118080478e-01 -9.2140908953562278e-02 -1.0563000203573730e-01 3.6362358432114064e-02 -1.3718754145526424e-01 -5.3917182027502723e-02 1.5466737846076067e-01 -5.1167793164656042e-02 1.5546671067640214e-01 9.4425383079294170e-02 -1.9712874083895734e-01 1.0961003543879090e-02 1.0259166319379437e-01 -5.7473988706194058e-02 7.4757652634825904e-03 1.4222372325436340e-02 -1.2206350640033971e-01 -1.6202365398372334e-01 -7.4151610337184065e-02 -1.8387272125354304e-01 1.4623914201092530e-01 -1.0554452470900788e-02 1.6296983204733551e-01 -1.5536183008641138e-01 1.6357597694606574e-01 3.2203907380873947e-02 1.1176216963285235e-01 -1.4854505670410723e-01 -1.6353081311784151e-01 7.5572247958553801e-02 1.0585372910074270e-01 4.5650343811094850e-03 1.2629682308069073e-01 1.3910819517645537e-01 1.2935863259013095e-01 1.7759471663664178e-01 -1.4857215669427681e-01 9.2211447394318510e-02 1.5498852182277320e-01 1.0421240237215776e-01 5.0923010786585579e-02 -5.6338966373832754e-02 -1.4569756857272975e-01 1.1257169920018968e-01 9.0935446295683717e-02 -8.0953954028635935e-02 -1.0250538783008117e-01 -1.1029703607285915e-01 1.6959532070819439e-01 9.2675385629403084e-02 -2.0932977451502116e-01 -7.6747130014891349e-02 1.2074433386298286e-01 -7.3888642405714891e-03 3.9165350853231987e-02 1.1660181489218140e-01 -1.0460800745806455e-01 9.7593638608868424e-02 2.0958238880975055e-01 -1.1100491635348088e-01 -1.5640584494197646e-01 -8.9450884264480515e-02 -2.6069064548175452e-02 -1.1473241232974589e-01 -9.9311077875158763e-02 3.9541829894028085e-03 1.3091215054784094e-01 -1.4394714447704779e-01 -1.4554537255682320e-01 7.7820252901126125e-02 4.4863688809663890e-02 -9.8268384580761387e-03 -4.1445040848537805e-03 3.9535995117476554e-02 1.6224745623546249e-01 8.6056487505149035e-02 7.3985804719139153e-02 5.4078274367960019e-02 -1.0560959259442287e-01 1.6591835521612602e-01 1.3667727576314487e-02 -1.3199426899646166e-01 3.3288622751290950e-02 -7.8138024998801694e-02 -3.0510063438271558e-02 1.2184078724364786e-01 2.0072118275248477e-01 1.2849309154775657e-01 -7.3748181566469131e-02 1.0782370847764277e-02 -2.5603440346428235e-02 -3.5245289803410546e-02 -1.8771732729483784e-01 -1.3589243134413689e-01 -6.8513805675095185e-02 5.8857957706892790e-03 -9.1072431332020240e-02 3.8795922897513005e-02 1.7235455934455950e-02 1.5958744590352486e-01 -6.2714777045641504e-02 1.0248756637949647e-02 9.9646728132893450e-02 3.7229493441433933e-02 -1.0208517515690725e-02 1.3239406237887455e-01 -1.6774646101630489e-01 -1.7500481505695795e-01 9.2582716610695184e-02 -1.5553031524860952e-01 2.7953197429016731e-02 1.3117718128061467e-01 1.7456203200917200e-01 1.8098731071565736e-02 5.5695078050472836e-02 -5.6035703998418777e-02 -1.1278492666017742e-01 1.2624461031713249e-01 -1.4577071445146897e-01 2.0515514954397424e-01 1.4400951601978892e-02 4.2803972998400205e-02 -4.7388038891124105e-02 1.4055698778542833e-01 -1.0471330383984340e-01 1.3850827497972859e-01 3.8877722452299195e-02 -8.2112941294600117e-02 -1.4839917070201136e-02 1.1904460055613351e-01 -6.6490460864475839e-02 1.8331460322445661e-01 -8.4027834184831673e-02 1.3513755378895206e-01 1.4027266938082178e-01 1.3744759883557442e-01 1.2542736183518505e-01 -1.2729602979821369e-02 1.6392789893874585e-01 7.2077696995830282e-06 3.2765261634539342e-02 -1.2875230258691039e-01 -2.2441017554525173e-02 -1.6875131349875855e-01 1.9942538270513349e-01 -1.8073750275631678e-01 1.1035669648913402e-01 -1.3969013015021089e-01 1.3931460291597622e-01 1.3110066704479237e-01 8.0136694384393664e-02 -1.8208711524650018e-01 1.5094683904923960e-02 1.1935421392466920e-01 -9.2580862125575661e-02 -7.5894926697633716e-02 4.4855027224005792e-02 -1.0207915812617217e-01 -2.1363446818806336e-01 6.0122485916572613e-02 4.6907820187308977e-02 5.1760724038609970e-02 -9.8628542750920103e-02 -1.4089314818131204e-01 -2.1061826134148662e-01 -5.5918233200736460e-02 -7.2902554312734985e-02 -1.8044194424716239e-01 -1.8745197617962248e-01 3.4685830850801756e-02 -5.5450397885390162e-02 1.0475198931675615e-01 8.6804177662934842e-02 1.4980988040857496e-01 1.1453240396210397e-01 1.5811031698155525e-01 -1.2329135536716805e-01 1.5462926901683474e-01 1.0574819754814396e-01 -1.7076037901544075e-01 1.7380368469232402e-01 -9.6387807154984032e-03 -1.0838362047739077e-01 -1.4270302027539916e-01 8.7827354576399008e-02 6.6765801001082856e-02 -3.6003583414273281e-02 -6.0065468933464046e-02 -6.4310551226457957e-02 -1.1198395457084072e-01 2.0609447652211835e-01 -2.1846204604587693e-02 -8.4766257006363380e-02 1.9767312260462119e-01 1.5156137765103650e-01 -2.1842837632301652e-02 -1.3273419328644187e-01 1.2688620289688829e-01 7.1153807163157459e-02 2.1471657587392531e-01 2.0398572788309391e-01 -7.7667593982163385e-02 1.2925254456324300e-01 1.8219959101330549e-01 1.4477304328886087e-01 -3.1262470150537022e-03 1.8678783674808344e-01 5.8341409833343363e-02 1.6043700577359454e-01 5.4047037329338056e-02 1.0794430974245196e-01 -1.0442616373703641e-02 1.2895325861496504e-01 2.3570168617402736e-02 -1.5833197102971955e-01 1.5825027956242985e-01 1.1834747934534660e-01 -7.6345625834793360e-02 8.2029565489209824e-02 -1.7352845256879973e-01 1.9591820339919606e-02 -1.2159533301219839e-02 6.5868405827710474e-02 1.2168294888265382e-01 1.2728690008694379e-01 -4.7450243511472902e-02 -6.2093920208351680e-02 1.9412386773455143e-01 -1.3594312370225006e-02 4.1898283024784707e-03 1.5028383010966595e-01 -1.4318568417155025e-01 1.9046145091627431e-01 -1.0919020067464183e-01 1.3727630036621824e-01 1.8735776964604758e-01 3.6517107144443187e-02 1.7724227421895195e-01 1.5279750704140108e-01 -8.7807931270247302e-02 -9.6470033363544330e-02 1.8630715378444535e-02 6.8489631685861599e-02 1.0052044391559381e-01 -1.0519040468459800e-01 -1.4258522802303977e-01 7.4733075546739650e-02 -4.0675958590728777e-02 2.8262500387699958e-02 -1.6761842749203068e-01 4.7796751640437424e-02 1.8211903773441773e-01 -1.3711335542997546e-01 3.5034355142122338e-04 3.8086243987304979e-03 -1.6165740883079019e-01 -1.3067125222932705e-01 -1.4658159592686907e-02 1.5495366840814398e-01 -9.9478113579068952e-02 -2.5683712680085711e-02 -1.8394190887529011e-01 -9.5977503057868618e-02 2.4660209022283379e-02 1.8904692202941462e-01 1.5722791011113315e-02 3.2883506281475308e-02 -1.3246142740885236e-01 5.6941560922758603e-03 2.4557210618877508e-02 -6.7981988085443174e-02 2.3473072353501254e-02 -1.3812955426092221e-02 -1.4987687918651879e-01 -6.8835528748141278e-02 1.5115445098028021e-01 2.1496299595087409e-01 -4.1975785042475698e-02 2.1326086772604186e-01 -1.5359895624299863e-01 1.0763196165849795e-01 6.5458228065844920e-02 -1.0379797200551825e-01 1.7530955873080753e-01 -1.5531518180918910e-01 2.1857363792884285e-01 -1.6794373099548338e-01 -1.8479659517401811e-01 -6.1721208669443632e-03 -3.2024089129631750e-01 -8.4834862095661906e-02 -6.8201640574242606e-02 -1.7559822525349586e-01 -6.8733634867077734e-03 2.0847539532597734e-01 -1.5396291890115391e-01 -7.4712200090683259e-02 2.0440483050486449e-01 5.9021563086128707e-02 -1.3051754438329949e-01 -2.1021664151270170e-01 1.8238934588651914e-01 -2.3898394613853718e-01 -1.8484367384980827e-02 9.5193357166917278e-02 -6.6116878793207504e-02 1.7714869497756049e-02 1.8503256919701624e-01 1.3420830127821470e-01 -4.7930890603782765e-03 1.6493107272404403e-01 1.1059318407056171e-01 7.0308317354012204e-02 1.4885234550027679e-01 -2.2308558825235381e-01 -8.9733045794783917e-02 1.8592128223741518e-02 1.7347097084063587e-01 7.1118171903982411e-02 1.2430349473516952e-01 -2.8353017557968302e-03 9.9003106715677223e-03 -2.7886260101041130e-02 -1.4339509958554181e-01 1.9642384845352370e-02 4.7959045311391481e-02 -1.1055484160388726e-01 2.2486983494423737e-01 1.2655520915869600e-01 2.0697354943931398e-01 8.8504958794098490e-02 -1.0113265259391764e-01 1.6571234329873630e-01 -1.2309453366436185e-01 2.3166118179558350e-02 4.2397573105646937e-02 -5.0298852719363164e-02 2.5251775436268270e-01 -6.4602449356643957e-02 3.0848602047816626e-01 5.8374543403151687e-02 2.3003920886158472e-01 -3.2598060194986726e-02 3.9147342160335719e-02 -6.7141922361787731e-02 -1.6935378867086740e-02 -2.3649897432367834e-03 8.6623024872446441e-02 -3.6861868109688528e-02 1.4552271533682209e-01 1.8519921748853888e-01 1.8218516727597836e-01 1.6750353688370252e-02 8.2566087592310780e-02 -1.2369614002039747e-01 1.8529887087934829e-01 1.0477369939118283e-01 -3.1444186160787635e-01 1.7679829357666349e-02 1.5364780036023137e-01 2.6305425375653469e-03 1.1286001115810854e-01 1.7424043836818554e-01 -1.4544168122739598e-01 -1.6320688197409872e-01 1.2013224326711096e-01 1.0009198112109438e-01 1.0437700537735861e-01 2.1109208751556954e-01 -1.0898943426847681e-01 -1.2559207552865942e-01 2.9442011870482964e-02 9.1298734270887805e-02 -8.6470057959052354e-02 -1.1717232738493288e-01 1.8373776755156981e-01 -3.9553529902765915e-02 1.3843953678491125e-01 1.8861574992026270e-01 -1.7034587083996497e-01 5.9132665769926221e-02 -1.7744991465123708e-01 4.7063684822902067e-02 3.1700017624086085e-02 4.0037445794820117e-02 -1.0014821557136619e-01 2.5863076962318748e-02 -1.1438242229308501e-01 -8.6695824243022621e-02 1.4770152384776697e-01 1.3487582049042598e-01 -9.9215683727559206e-02 -8.6416244999536859e-02 1.1211143877639690e-01 -2.9501742563763231e-02 -1.8795672143411193e-01 1.6948234899667344e-01 -3.5348076104675420e-02 -7.9073832934293251e-02 1.4520061920527122e-01 -1.7021970533892150e-01 -2.1337160792578949e-01 -1.9084157568428070e-01 -9.8044959664425248e-03 1.3158736911688820e-01 4.7225086981105405e-02 3.5525416609648391e-02 1.3573677607932338e-01 -1.7652834689431945e-01 1.6179422864533907e-01 8.5303772191864469e-02 -8.1954136759288379e-02 6.1203750103737360e-02 1.6315868001502754e-02 1.8358242615409753e-01 -1.7903798715278937e-01 -4.2171565090334984e-02 -1.8452602642956240e-01 -1.7878604547798813e-01 1.4081033838262852e-01 1.0354409427795210e-01 5.9549239647894991e-03 8.3381667711157584e-02 3.8188011202857509e-02 2.6914201997774612e-02 1.1862514263304105e-01 1.7085909230722543e-01 -4.9551252077643958e-02 -2.0380558410885277e-02 1.5563932527141974e-01 5.6594767308866201e-02 2.3154336801585521e-02 1.4015242371725603e-01 -1.4181157591292920e-01 1.6984242096598801e-01 -4.4565346391054195e-02 -6.3093596615101027e-02 -4.5598672837393562e-03 -1.7202935233522212e-01 4.5722755213055764e-02 -6.4506776152573456e-02 6.0957988194123860e-02 -5.6918961748731990e-02 4.2464035130459356e-02 1.2252043129328836e-02 -1.8182076225780416e-01 3.1824752085320700e-02 4.1074516720195221e-02 -3.3685928038147073e-02 1.9758401243831961e-01 -1.3011393435064675e-01 -1.4098950509088098e-01 1.1845746949560741e-01 9.5887222963260035e-02 -1.3368225505966236e-01 -1.8088791601958618e-01 7.0568020441408114e-02 7.7519845930971373e-02 -1.2658138524044685e-01 -3.5925313416709424e-02 -1.0382225502688770e-01 -6.9986385078581334e-02 -8.8478896607933025e-02 5.1447007824977173e-02 -9.2870631329954517e-02 -1.4652104037134459e-01 -1.9012136851138151e-01 3.0367031717920606e-03 -3.1729646868447058e-02 -1.4642327317918852e-01 4.2515508794351564e-02 -1.0842442418546500e-01 1.2384635741248431e-01 1.7803408399158313e-01 1.7417951651329272e-01 -1.0108480810289849e-01 3.3142646999295811e-02 -1.7995512337761288e-01 1.1567105484733217e-01 4.9924416049867859e-02 6.1307740005416070e-02 1.8314617635258437e-01 -2.4878605744285666e-02 7.5602249597013380e-02 1.2470007393032216e-01 -1.5233532340633629e-01 3.1397226341294392e-03 -1.8723329587617993e-01 9.5197683379970963e-02 1.2002155259311884e-01 -1.8821080463008788e-02 9.1209699260254851e-02 -7.1985834493716924e-03 -1.5327885809554848e-01 -1.0707306125814732e-01 -6.9690514538627901e-02 -1.3359943737292643e-01 1.8927076976781337e-01 -5.3662685588490968e-03 -2.2810771001403562e-02 -9.1229939690911185e-02 1.2763471462397102e-01 -3.8369012208741482e-03 -9.6289687419704312e-03 2.3828846385474778e-02 -1.6922312561585059e-01 -5.3271860523533623e-03 -1.3417981002807797e-01 1.4893672894877774e-02 -1.2831268832240461e-01 -9.0754436945499464e-02 8.2854521375483603e-02 -1.2353204822713562e-01 6.8837898542394152e-02 -9.4732979053977429e-02 1.9314680757449729e-01 -2.7012721957373122e-02 -8.1053450956410728e-02 -1.0267801726627353e-01 1.2257617064127509e-01 -1.8594348704343411e-01 1.0130567204623185e-03 1.4928073678516771e-01 1.5092442716726276e-01 7.3508877037300843e-02 1.3488633163432404e-01 1.1886851911276067e-01 -2.4530140410698870e-02 -1.8653759116914678e-01 1.3736276771297753e-01 -1.9039528108866218e-02 -8.3698607688473495e-02 1.7226710193545652e-01 -2.3041399752136784e-02 9.5814823052138703e-02 -4.1175673224276683e-02 -1.3421766512814770e-01 3.4317306168646443e-02 5.8787724101595627e-02 8.4409042729499868e-04 1.1398074079453319e-01 -1.4270546999605555e-01 -1.9607691401084257e-01 1.8201824029486044e-01 6.1378430128986215e-02 2.2957266699607955e-02 -5.7713122608626259e-02 -1.9355301349157525e-01 -1.9200782020565418e-01 1.4078369238303967e-01 5.0928697560227568e-02 -1.3494457355272280e-01 1.7930148784677893e-01 2.9780156905838722e-02 -7.9386326100527524e-02 -1.9201793675003112e-01 -1.1531705128763488e-01 -1.1194725594947615e-01 -9.3615967496078908e-02 1.5780257794192559e-01 6.4496856000289801e-02 -4.1920932987686954e-02 1.4073020481057619e-01 1.6301643851122302e-01 -1.6169033095392082e-01 -1.7512290250414700e-01 -7.9590439279423789e-02 7.0123473434157216e-03 1.6861066258288793e-01 4.3050837741654253e-02 1.0896484325087903e-01 1.8990197808231196e-01 4.3492400541755918e-02 1.6873290900834043e-01 -3.0508859725688280e-02 -7.4646011938779150e-02 3.6948006545634952e-02 2.3331544566573503e-02 -7.7251633857196619e-02 -1.4851071977396108e-01 -1.7556136291435351e-01 9.0677649136382155e-02 -3.4171686949560853e-02 -5.0005851396816098e-02 -1.4604466321337070e-01 -2.8654676958644938e-02 1.4598907077041381e-02 1.2745690259410444e-01 -1.1477890833168795e-01 -6.3761546238002759e-02 -6.5364270375413855e-02 -1.2921083696391591e-01 -5.0118396428072816e-02 2.0418347697690156e-01 -7.9129093269653922e-02 1.6533662236589694e-01 -7.8362406594950293e-04 1.9841904521581488e-01 9.2072124496500651e-02 8.9403873933663766e-02 7.8663121043674580e-02 2.7803578441676469e-01 -1.0045095101809605e-01 -2.3053826908881805e-01 -1.5014569042061843e-01 -1.6933920135561795e-01 -1.8553118040454175e-01 -2.2944818218665680e-01 -1.6386581136584008e-01 -2.0096949017494686e-01 -1.1664069827364236e-01 -5.0661254066243395e-02 -2.1259590365364556e-01 -7.5962798806837262e-02 3.0107349996211698e-02 1.3183700430878575e-01 5.4504979884674565e-02 1.3356843642711869e-01 -1.6720700541424122e-01 -6.4371858931536935e-02 -2.4912171114577376e-03 -2.9597790292680479e-02 -2.0868830561978819e-02 -9.3201235065585197e-02 -1.1703978642080327e-01 1.8004999135958319e-01 1.0684412149486051e-01 1.2639128665320990e-02 1.0842723404084705e-01 8.5925118331203115e-02 -1.3281123123060604e-01 6.2444695369512949e-02 2.0971431478012285e-02 1.1278053065022337e-01 -1.8601307444868129e-01 -1.1393080418439260e-01 -1.2084184529342848e-01 -1.6175355296886415e-01 -1.2975819946673264e-01 8.9319938310600991e-02 -1.0514675865411392e-03 -1.2676250568202041e-01 -3.3016738812280178e-03 5.0756378458491583e-02 1.7388305812009880e-01 1.9091712584149889e-01 7.1925040320301462e-02 -5.4850591646716920e-02 -1.9018812369974417e-01 -8.9626722692032854e-02 1.6367140868612512e-01 9.2034414517463192e-02 9.7720422013727909e-02 2.4166670598516300e-02 -4.9960337357363091e-02 1.2645877772199640e-01 -1.0402887259825704e-01 -1.9827248647714273e-02 -1.8362443011568672e-01 -9.1883321043795783e-03 3.9375234407328714e-02 -1.7025361806117006e-01 -1.5635746447511006e-01 9.7782003659034458e-02 1.4108608701717137e-01 -7.3603143085119227e-02 1.5625209088371842e-02 8.8273769917076333e-02 5.7573857362133843e-02 -7.3112514853582222e-02 1.1644200568754703e-01 6.5219870940230337e-02 5.6689688880910962e-03 -3.4585424049727802e-02 3.0410986281095849e-02 1.7609137432756947e-01 -1.0332668709294199e-01 -7.6950521226366045e-02 9.4185846519378863e-02 1.1953972553453580e-01 -1.3814443542265289e-01 -2.3599145448848183e-02 1.8928279916706975e-01 -1.7338512364785968e-01 7.8212963071119246e-02 -1.0796654138804179e-01 1.4689686268001520e-01 -9.0064958559285924e-02 -7.8880842055220127e-02 -1.0410212011181292e-02 -1.1135234581612963e-01 -4.0107013066434299e-02 1.3430763629271011e-01 1.9486937561775894e-01 -1.4481165171974589e-01 6.5384201786653662e-02 -4.5088803548714501e-02 9.7110558589074136e-03 -1.0573243269892707e-01 1.0910647146650278e-01 3.0187819576260721e-02 -6.5710743029822444e-04 2.5064702902867494e-02 4.5759264722716381e-02 -1.5594011718610898e-01 -1.9077424164783538e-01 -1.2697744282037815e-02 1.9332819565112076e-02 -1.9447908059294083e-01 1.9090451286541896e-01 1.9472163575669779e-01 -9.9876576563070432e-02 1.0848722881043930e-01 -2.4998738045687455e-01 -2.1174642607439127e-02 2.9470011946255970e-01 1.6040224528966644e-02 -1.4217159749431513e-01 9.2605623186303429e-02 1.3587435161268493e-01 -2.7377911394349563e-01 -2.6403962114025042e-01 1.1354045499924559e-01 -2.5318023636701031e-01 -9.2692399275214957e-02 -1.9476339346177202e-01 4.1518972262922477e-01 -7.8889481783388490e-02 -1.6327544959421326e-02 1.0420754525668491e-01 -1.1702520543630530e-01 -2.5751136196494157e-01 -1.0924009276958543e-01 4.9520005077745375e-04 1.6757792235795010e-01 3.4991087274132493e-01 -1.3732759953329368e-01 -2.5321478266473723e-02 9.1319074071318437e-02 9.5682202869111957e-02 1.1991152719945597e-01 3.0069357336177695e-03 2.0586078537280550e-01 1.2518333915523139e-01 3.9653191041475723e-02 3.2002496959245991e-01 -2.1275009354248378e-01 -8.8573747697562766e-02 -6.0680079771864917e-02 -1.3802543624937486e-01 3.9154615270689752e-02 -8.8218088378859735e-02 -2.6196971321225210e-01 9.8318089996614205e-02 3.0574575786817236e-02 1.6087942456566437e-01 1.4487251594068759e-01 5.6304661354708199e-02 -1.2863053380196732e-01 3.9211888721011098e-02 1.2875154827297661e-01 -8.2064240410535463e-03 -7.8337910119540416e-02 3.0930188601784349e-02 1.6000728617850188e-01 -8.9445793496234757e-02 -1.8239445506123131e-01 -7.6859616996702865e-02 -8.7760767479958687e-02 -1.6341468407731319e-02 1.5367061110943381e-01 1.1924966907857312e-01 -2.1789781680480808e-01 1.7847222640620788e-02 9.6880072702121168e-03 6.6153732697030315e-02 -1.6057342271784877e-01 -1.1443433192549601e-01 -6.5637989844467273e-03 -1.6417007005757042e-01 -8.8538572091010584e-02 1.8392273078819762e-01 -1.0237487801526785e-01 -1.7230791717569124e-01 -3.2084899673923166e-03 -1.1449976528188606e-02 1.4487595738445203e-02 -1.3796943734395714e-01 -1.9308354140476016e-02 -1.2189352113402151e-01 -1.5231850021887353e-01 1.7921026170725693e-01 1.1463262204909107e-01 1.5917671450095508e-01 -4.3985078899230166e-02 1.0850929420458717e-02 -1.8455196496108728e-01 -5.0091723820646118e-02 1.4618812807531772e-01 -3.9698941651602142e-02 1.3060153346211137e-01 1.2820214046790051e-03 1.3104096490900638e-01 -1.7553253034588753e-01 3.9669876867091995e-02 5.1186230461545842e-02 3.7575983348872757e-02 4.0037083003938462e-02 5.3677561548285443e-02 4.4945813600087529e-02 -1.0964225649640912e-01 -7.2749994987803546e-02 -6.4961091028569132e-02 5.1947159998434994e-02 1.0655780883089445e-01 -1.6901865681895739e-01 -1.8343585537086267e-02 -1.4079910873222315e-01 1.3902958969235593e-01 -1.3690772070214230e-01 9.1411616652962033e-02 -1.0996589540775344e-01 -3.3467611236276618e-02 1.2478408776776513e-01 -2.8583715613367054e-02 -4.6670072721469802e-03 -1.3657343072768651e-02 -2.7700075126200315e-02 1.3146778904434905e-02 3.9938714855905624e-02 1.6917438267640316e-02 1.1789358412578881e-01 -1.1695221893596905e-01 -1.1875029645063795e-02 8.5390729412970878e-02 -1.4352214011223866e-01 -5.6304143600123729e-02 -2.8955971245277087e-02 1.9672681999570210e-01 -1.0930175822479210e-01 1.9763326264756031e-01 -3.1090750429420329e-02 -1.1107709865455036e-01 -1.4438885694063511e-01 -1.2104722225423597e-02 -6.7260821028355108e-02 -1.8802566531728210e-02 1.4745590483652177e-01 -1.9220811698979950e-01 -2.4271958117187906e-04 1.3563271725991718e-01 -1.4311700169040326e-01 -1.7002621581095154e-01 -7.0244107647992118e-02 -6.7469012700182476e-02 -3.4708921302632346e-02 8.4447980008961102e-02 1.3468186359392625e-01 -1.3980178146136865e-01 4.1533587838744210e-02 1.7873306340107831e-01 -5.6537944474644088e-02 1.8000328021976239e-01 5.1797958306768345e-02 1.7696733914541687e-01 6.4892583607314175e-02 -6.1170055082649437e-02 1.1363684982770031e-01 -1.0224284010462306e-01 2.0120765599394164e-01 -6.7671834059139471e-02 -1.4983682873375354e-01 1.8112830417259015e-01 8.5847020277146788e-02 -7.5202126122548840e-02 6.2139261264847520e-02 1.9481973589279356e-01 9.4396100442125430e-02 -6.2357164043169440e-02 -1.0736914662512295e-01 1.7201033129014723e-01 -5.3640965873347386e-02 -1.0432323617820068e-01 1.8183276033307508e-01 -1.4205092917969475e-01 -8.0233256340166183e-03 1.4836726120017293e-01 7.5875319808333076e-03 1.4161048123454409e-01 1.7892307988755424e-01 -1.0420762870197537e-02 -1.5136102822345623e-01 -1.9194431196071401e-01 -1.0347637583488589e-01 -9.3281093530981504e-02 -2.1018757298146218e-01 -1.7771391937690606e-01 -1.4485841194822532e-01 -3.3279097642284573e-02 -3.0374957244823753e-02 -1.5833724702341564e-02 -2.1087540395979579e-01 -1.1834302914697491e-01 -1.3683138601275779e-01 4.2696343139017184e-02 1.3067742449059108e-01 -1.6737301118632172e-01 -1.9144653209832915e-01 -1.5092626607251208e-01 -1.0912149248882316e-01 5.6874183685165489e-02 3.7706644706634991e-02 -4.7806813076089444e-02 -1.8589267113027572e-01 -4.5380869141151484e-02 -1.1271052121758933e-01 1.4004400789115831e-01 5.2830055131451954e-02 -1.4276690536858268e-02 -8.9652799365015252e-03 -1.0415363265227347e-01 9.3765016201964299e-02 1.1372256996982789e-01 -1.7592375068724991e-01 1.7170346460915381e-01 -8.5201405140624409e-02 3.7177391968446397e-02 1.3616472460417189e-01 -7.5173764375468174e-02 1.0634293604143359e-01 3.8395519933350906e-02 -1.0875904238633614e-01 