<?xml version="1.0"?>
<MethodSetup Method="MLP::MLP">
  <GeneralInfo>
    <Info name="TMVA Release" value="4.2.1 [262657]"/>
    <Info name="ROOT Release" value="6.08/02 [395266]"/>
    <Info name="Creator" value="minerva1993"/>
    <Info name="Date" value="Mon May 22 01:44:36 2017"/>
    <Info name="Host" value="Linux htop.hanyang.ac.kr 2.6.32-696.el6.centos.plus.x86_64 #1 SMP Mon Apr 3 14:56:08 UTC 2017 x86_64 x86_64 x86_64 GNU/Linux"/>
    <Info name="Dir" value="/home/minerva1993/fcnc/tmva"/>
    <Info name="Training events" value="200000"/>
    <Info name="TrainingTime" value="7.61248358e+02"/>
    <Info name="AnalysisType" value="Classification"/>
  </GeneralInfo>
  <Options>
    <Option name="NCycles" modified="Yes">1000</Option>
    <Option name="HiddenLayers" modified="Yes">N+5</Option>
    <Option name="NeuronType" modified="Yes">tanh</Option>
    <Option name="RandomSeed" modified="No">1</Option>
    <Option name="EstimatorType" modified="No">CE</Option>
    <Option name="NeuronInputType" modified="No">sum</Option>
    <Option name="V" modified="Yes">False</Option>
    <Option name="VerbosityLevel" modified="No">Default</Option>
    <Option name="VarTransform" modified="Yes">N</Option>
    <Option name="H" modified="Yes">True</Option>
    <Option name="CreateMVAPdfs" modified="No">False</Option>
    <Option name="IgnoreNegWeightsInTraining" modified="No">False</Option>
    <Option name="TrainingMethod" modified="No">BP</Option>
    <Option name="LearningRate" modified="No">2.000000e-02</Option>
    <Option name="DecayRate" modified="No">1.000000e-02</Option>
    <Option name="TestRate" modified="Yes">5</Option>
    <Option name="EpochMonitoring" modified="No">False</Option>
    <Option name="Sampling" modified="No">1.000000e+00</Option>
    <Option name="SamplingEpoch" modified="No">1.000000e+00</Option>
    <Option name="SamplingImportance" modified="No">1.000000e+00</Option>
    <Option name="SamplingTraining" modified="No">True</Option>
    <Option name="SamplingTesting" modified="No">False</Option>
    <Option name="ResetStep" modified="No">50</Option>
    <Option name="Tau" modified="No">3.000000e+00</Option>
    <Option name="BPMode" modified="No">sequential</Option>
    <Option name="BatchSize" modified="No">-1</Option>
    <Option name="ConvergenceImprove" modified="No">1.000000e-30</Option>
    <Option name="ConvergenceTests" modified="No">-1</Option>
    <Option name="UseRegulator" modified="Yes">False</Option>
    <Option name="UpdateLimit" modified="No">10000</Option>
    <Option name="CalculateErrors" modified="No">False</Option>
    <Option name="WeightRange" modified="No">1.000000e+00</Option>
  </Options>
  <Variables NVar="5">
    <Variable VarIndex="0" Expression="NJets" Label="NJets" Title="NJets" Unit="" Internal="NJets" Type="I" Min="4.00000000e+00" Max="1.70000000e+01"/>
    <Variable VarIndex="1" Expression="NBJets_M" Label="NBJets_M" Title="NBJets_M" Unit="" Internal="NBJets_M" Type="I" Min="1.00000000e+00" Max="7.00000000e+00"/>
    <Variable VarIndex="2" Expression="NCJets_M" Label="NCJets_M" Title="NCJets_M" Unit="" Internal="NCJets_M" Type="I" Min="1.00000000e+00" Max="1.00000000e+01"/>
    <Variable VarIndex="3" Expression="BJMDPhi" Label="BJMDPhi" Title="BJMDPhi" Unit="" Internal="BJMDPhi" Type="F" Min="-3.14159012e+00" Max="3.14156199e+00"/>
    <Variable VarIndex="4" Expression="BJMDEta" Label="BJMDEta" Title="BJMDEta" Unit="" Internal="BJMDEta" Type="F" Min="-4.75499535e+00" Max="4.76451778e+00"/>
  </Variables>
  <Spectators NSpec="0"/>
  <Classes NClass="2">
    <Class Name="Signal" Index="0"/>
    <Class Name="Background" Index="1"/>
  </Classes>
  <Transformations NTransformations="1">
    <Transform Name="Normalize">
      <Selection>
        <Input NInputs="5">
          <Input Type="Variable" Label="NJets" Expression="NJets"/>
          <Input Type="Variable" Label="NBJets_M" Expression="NBJets_M"/>
          <Input Type="Variable" Label="NCJets_M" Expression="NCJets_M"/>
          <Input Type="Variable" Label="BJMDPhi" Expression="BJMDPhi"/>
          <Input Type="Variable" Label="BJMDEta" Expression="BJMDEta"/>
        </Input>
        <Output NOutputs="5">
          <Output Type="Variable" Label="NJets" Expression="NJets"/>
          <Output Type="Variable" Label="NBJets_M" Expression="NBJets_M"/>
          <Output Type="Variable" Label="NCJets_M" Expression="NCJets_M"/>
          <Output Type="Variable" Label="BJMDPhi" Expression="BJMDPhi"/>
          <Output Type="Variable" Label="BJMDEta" Expression="BJMDEta"/>
        </Output>
      </Selection>
      <Class ClassIndex="0">
        <Ranges>
          <Range Index="0" Min="4.0000000000000000e+00" Max="1.4000000000000000e+01"/>
          <Range Index="1" Min="1.0000000000000000e+00" Max="7.0000000000000000e+00"/>
          <Range Index="2" Min="1.0000000000000000e+00" Max="8.0000000000000000e+00"/>
          <Range Index="3" Min="-3.1415901184082031e+00" Max="3.1415309906005859e+00"/>
          <Range Index="4" Min="-4.7097020149230957e+00" Max="4.7495479583740234e+00"/>
        </Ranges>
      </Class>
      <Class ClassIndex="1">
        <Ranges>
          <Range Index="0" Min="4.0000000000000000e+00" Max="1.7000000000000000e+01"/>
          <Range Index="1" Min="1.0000000000000000e+00" Max="7.0000000000000000e+00"/>
          <Range Index="2" Min="1.0000000000000000e+00" Max="1.0000000000000000e+01"/>
          <Range Index="3" Min="-3.1415681838989258e+00" Max="3.1415619850158691e+00"/>
          <Range Index="4" Min="-4.7549953460693359e+00" Max="4.7645177841186523e+00"/>
        </Ranges>
      </Class>
      <Class ClassIndex="2">
        <Ranges>
          <Range Index="0" Min="4.0000000000000000e+00" Max="1.7000000000000000e+01"/>
          <Range Index="1" Min="1.0000000000000000e+00" Max="7.0000000000000000e+00"/>
          <Range Index="2" Min="1.0000000000000000e+00" Max="1.0000000000000000e+01"/>
          <Range Index="3" Min="-3.1415901184082031e+00" Max="3.1415619850158691e+00"/>
          <Range Index="4" Min="-4.7549953460693359e+00" Max="4.7645177841186523e+00"/>
        </Ranges>
      </Class>
    </Transform>
  </Transformations>
  <MVAPdfs/>
  <Weights>
    <Layout NLayers="3">
      <Layer Index="0" NNeurons="6">
        <Neuron NSynapses="10">
          1.0117763330359921e+00 4.8319173103500021e-02 4.8955602124188130e-01 5.1363420371164139e+00 -1.0587303215468479e+01 3.8824311333940165e-01 -1.0882508231243455e-01 -8.2753596320351408e-01 -1.2598155520736909e+00 -6.7810120129626272e-01 
        </Neuron>
        <Neuron NSynapses="10">
          -1.9101860512975060e+00 -1.0550637016822466e-01 3.7705212915034276e+00 1.8592854400053424e-01 6.7759241017073835e-01 2.1329268030164938e-01 1.4560492693799512e-01 6.9731819834820186e-01 2.3831915738167484e+00 1.1917932662363208e+01 
        </Neuron>
        <Neuron NSynapses="10">
          -3.4868457036066349e+00 2.8563918202858085e-01 8.6701688022610413e-01 1.1250498703513130e+00 1.1459087897292772e+00 1.1427810528515481e+00 -3.7420306661001262e-01 1.6646200867713055e+00 8.2665460733837359e-01 6.8234382594067861e-02 
        </Neuron>
        <Neuron NSynapses="10">
          2.1121696348201544e-01 -1.3252785025172246e-02 4.1201060508186836e-03 6.2989005303274712e-02 3.6760224626368215e-02 -3.0722949364799242e-02 2.3947993765080347e-02 -5.3383010373514436e-02 -8.9016169327328226e-02 2.5153316155199477e-02 
        </Neuron>
        <Neuron NSynapses="10">
          5.4980345418915899e-01 -3.3542251135044271e-01 7.8657272310135906e-01 -3.3673016751030677e-01 3.8621831863922784e-01 -2.1468035242334160e+00 4.6535986469467555e-01 2.7771129752681376e+00 -2.4301805219938184e+00 2.2278742193168171e+00 
        </Neuron>
        <Neuron NSynapses="10">
          9.2568497118040360e-01 1.7086096131687997e-01 1.2854791526064928e+00 4.6092619365313841e+00 -9.4550151086908709e+00 -7.5573101528329786e-02 -2.5046500963108986e-01 -9.8350144848437815e-01 9.2176510636807996e-01 9.6138422960990155e+00 
        </Neuron>
      </Layer>
      <Layer Index="1" NNeurons="11">
        <Neuron NSynapses="1">
          -8.7440206547578991e-01 
        </Neuron>
        <Neuron NSynapses="1">
          -1.7258428248023519e-01 
        </Neuron>
        <Neuron NSynapses="1">
          -8.1356610805258467e-01 
        </Neuron>
        <Neuron NSynapses="1">
          -5.2082990889584213e-01 
        </Neuron>
        <Neuron NSynapses="1">
          6.4913166394979738e-01 
        </Neuron>
        <Neuron NSynapses="1">
          -1.0385566504529486e+00 
        </Neuron>
        <Neuron NSynapses="1">
          2.3845926573513004e-01 
        </Neuron>
        <Neuron NSynapses="1">
          -5.7675548134379606e-01 
        </Neuron>
        <Neuron NSynapses="1">
          3.3542038241861449e-01 
        </Neuron>
        <Neuron NSynapses="1">
          -9.9648598456612447e-01 
        </Neuron>
        <Neuron NSynapses="1">
          1.5712710665020788e-01 
        </Neuron>
      </Layer>
      <Layer Index="2" NNeurons="1">
        <Neuron NSynapses="0"/>
      </Layer>
    </Layout>
  </Weights>
</MethodSetup>
