<?xml version="1.0"?>
<MethodSetup Method="DNN::DNN">
  <GeneralInfo>
    <Info name="TMVA Release" value="4.2.1 [262657]"/>
    <Info name="ROOT Release" value="6.08/02 [395266]"/>
    <Info name="Creator" value="minerva1993"/>
    <Info name="Date" value="Wed May 24 16:56:31 2017"/>
    <Info name="Host" value="Linux htop.hanyang.ac.kr 2.6.32-696.el6.centos.plus.x86_64 #1 SMP Mon Apr 3 14:56:08 UTC 2017 x86_64 x86_64 x86_64 GNU/Linux"/>
    <Info name="Dir" value="/home/minerva1993/fcnc/tmva/v2/mkNtuple_v2"/>
    <Info name="Training events" value="60000"/>
    <Info name="TrainingTime" value="1.04913184e+03"/>
    <Info name="AnalysisType" value="Classification"/>
  </GeneralInfo>
  <Options>
    <Option name="V" modified="Yes">True</Option>
    <Option name="VerbosityLevel" modified="No">Verbose</Option>
    <Option name="VarTransform" modified="Yes">N</Option>
    <Option name="H" modified="Yes">False</Option>
    <Option name="CreateMVAPdfs" modified="No">False</Option>
    <Option name="IgnoreNegWeightsInTraining" modified="No">False</Option>
    <Option name="Layout" modified="Yes">TANH|30,TANH|20,LINEAR</Option>
    <Option name="ErrorStrategy" modified="Yes">CROSSENTROPY</Option>
    <Option name="WeightInitialization" modified="Yes">XAVIERUNIFORM</Option>
    <Option name="Architecture" modified="No">STANDARD</Option>
    <Option name="TrainingStrategy" modified="Yes">LearningRate=0.01,Momentum=0.4,Repetitions=1,ConvergenceSteps=300,BatchSize=100,DropConfig=0.0+0.2+0.0,WeightDecay=0.001,Regularization=L2,TestRepetitions=5,Multithreading=True</Option>
  </Options>
  <Variables NVar="9">
    <Variable VarIndex="0" Expression="NJets" Label="NJets" Title="NJets" Unit="" Internal="NJets" Type="I" Min="4.00000000e+00" Max="1.70000000e+01"/>
    <Variable VarIndex="1" Expression="NBJets_M" Label="NBJets_M" Title="NBJets_M" Unit="" Internal="NBJets_M" Type="I" Min="1.00000000e+00" Max="6.00000000e+00"/>
    <Variable VarIndex="2" Expression="NCJets_M" Label="NCJets_M" Title="NCJets_M" Unit="" Internal="NCJets_M" Type="I" Min="1.00000000e+00" Max="9.00000000e+00"/>
    <Variable VarIndex="3" Expression="BJet_M_delta_R" Label="BJet_M_delta_R" Title="BJet_M_delta_R" Unit="" Internal="BJet_M_delta_R" Type="F" Min="3.88728410e-01" Max="5.07587337e+00"/>
    <Variable VarIndex="4" Expression="H_Mass" Label="H_Mass" Title="H_Mass" Unit="" Internal="H_Mass" Type="F" Min="1.73422146e+01" Max="2.99929565e+02"/>
    <Variable VarIndex="5" Expression="CSVv2_M" Label="CSVv2_M" Title="CSVv2_M" Unit="" Internal="CSVv2_M" Type="F" Min="8.50588262e-01" Max="1.00000000e+00"/>
    <Variable VarIndex="6" Expression="CvsL_M" Label="CvsL_M" Title="CvsL_M" Unit="" Internal="CvsL_M" Type="F" Min="8.00013185e-01" Max="9.97556329e-01"/>
    <Variable VarIndex="7" Expression="BJet_Pt" Label="BJet_Pt" Title="BJet_Pt" Unit="" Internal="BJet_Pt" Type="F" Min="3.04866390e+01" Max="1.10210168e+03"/>
    <Variable VarIndex="8" Expression="CJet_Pt" Label="CJet_Pt" Title="CJet_Pt" Unit="" Internal="CJet_Pt" Type="F" Min="3.40188293e+01" Max="1.32411792e+03"/>
  </Variables>
  <Spectators NSpec="0"/>
  <Classes NClass="2">
    <Class Name="Signal" Index="0"/>
    <Class Name="Background" Index="1"/>
  </Classes>
  <Transformations NTransformations="1">
    <Transform Name="Normalize">
      <Selection>
        <Input NInputs="9">
          <Input Type="Variable" Label="NJets" Expression="NJets"/>
          <Input Type="Variable" Label="NBJets_M" Expression="NBJets_M"/>
          <Input Type="Variable" Label="NCJets_M" Expression="NCJets_M"/>
          <Input Type="Variable" Label="BJet_M_delta_R" Expression="BJet_M_delta_R"/>
          <Input Type="Variable" Label="H_Mass" Expression="H_Mass"/>
          <Input Type="Variable" Label="CSVv2_M" Expression="CSVv2_M"/>
          <Input Type="Variable" Label="CvsL_M" Expression="CvsL_M"/>
          <Input Type="Variable" Label="BJet_Pt" Expression="BJet_Pt"/>
          <Input Type="Variable" Label="CJet_Pt" Expression="CJet_Pt"/>
        </Input>
        <Output NOutputs="9">
          <Output Type="Variable" Label="NJets" Expression="NJets"/>
          <Output Type="Variable" Label="NBJets_M" Expression="NBJets_M"/>
          <Output Type="Variable" Label="NCJets_M" Expression="NCJets_M"/>
          <Output Type="Variable" Label="BJet_M_delta_R" Expression="BJet_M_delta_R"/>
          <Output Type="Variable" Label="H_Mass" Expression="H_Mass"/>
          <Output Type="Variable" Label="CSVv2_M" Expression="CSVv2_M"/>
          <Output Type="Variable" Label="CvsL_M" Expression="CvsL_M"/>
          <Output Type="Variable" Label="BJet_Pt" Expression="BJet_Pt"/>
          <Output Type="Variable" Label="CJet_Pt" Expression="CJet_Pt"/>
        </Output>
      </Selection>
      <Class ClassIndex="0">
        <Ranges>
          <Range Index="0" Min="4.0000000000000000e+00" Max="1.2000000000000000e+01"/>
          <Range Index="1" Min="1.0000000000000000e+00" Max="6.0000000000000000e+00"/>
          <Range Index="2" Min="1.0000000000000000e+00" Max="9.0000000000000000e+00"/>
          <Range Index="3" Min="3.8872841000556946e-01" Max="4.6386017799377441e+00"/>
          <Range Index="4" Min="2.1281232833862305e+01" Max="2.9990798950195312e+02"/>
          <Range Index="5" Min="8.5140484571456909e-01" Max="1.0000000000000000e+00"/>
          <Range Index="6" Min="8.0001318454742432e-01" Max="9.9755632877349854e-01"/>
          <Range Index="7" Min="3.0807962417602539e+01" Max="8.7314099121093750e+02"/>
          <Range Index="8" Min="3.4018829345703125e+01" Max="1.0599862060546875e+03"/>
        </Ranges>
      </Class>
      <Class ClassIndex="1">
        <Ranges>
          <Range Index="0" Min="4.0000000000000000e+00" Max="1.7000000000000000e+01"/>
          <Range Index="1" Min="1.0000000000000000e+00" Max="6.0000000000000000e+00"/>
          <Range Index="2" Min="1.0000000000000000e+00" Max="8.0000000000000000e+00"/>
          <Range Index="3" Min="4.0423950552940369e-01" Max="5.0758733749389648e+00"/>
          <Range Index="4" Min="1.7342214584350586e+01" Max="2.9992956542968750e+02"/>
          <Range Index="5" Min="8.5058826208114624e-01" Max="1.0000000000000000e+00"/>
          <Range Index="6" Min="8.0031275749206543e-01" Max="9.9695402383804321e-01"/>
          <Range Index="7" Min="3.0486639022827148e+01" Max="1.1021016845703125e+03"/>
          <Range Index="8" Min="3.6992221832275391e+01" Max="1.3241179199218750e+03"/>
        </Ranges>
      </Class>
      <Class ClassIndex="2">
        <Ranges>
          <Range Index="0" Min="4.0000000000000000e+00" Max="1.7000000000000000e+01"/>
          <Range Index="1" Min="1.0000000000000000e+00" Max="6.0000000000000000e+00"/>
          <Range Index="2" Min="1.0000000000000000e+00" Max="9.0000000000000000e+00"/>
          <Range Index="3" Min="3.8872841000556946e-01" Max="5.0758733749389648e+00"/>
          <Range Index="4" Min="1.7342214584350586e+01" Max="2.9992956542968750e+02"/>
          <Range Index="5" Min="8.5058826208114624e-01" Max="1.0000000000000000e+00"/>
          <Range Index="6" Min="8.0001318454742432e-01" Max="9.9755632877349854e-01"/>
          <Range Index="7" Min="3.0486639022827148e+01" Max="1.1021016845703125e+03"/>
          <Range Index="8" Min="3.4018829345703125e+01" Max="1.3241179199218750e+03"/>
        </Ranges>
      </Class>
    </Transform>
  </Transformations>
  <MVAPdfs/>
  <Weights InputWidth="9" Depth="3" LossFunction="C" OutputFunction="S">
    <Layer ActivationFunction="3">
      <Weights rows="30" cols="9">
        -6.6425811205016871e-01 5.9700132121392546e-01 3.3410640551264276e-02 -1.1387830421690668e+00 2.9466409018356204e-01 -3.6453003009978269e-01 -2.4098661438396222e-03 -1.2524675467802726e+00 1.5209068758741413e+00 -8.6678524631182297e-03 -1.3593787502385943e-01 1.3371684214948037e-02 3.2127768642219867e-01 2.7932842949150594e-01 1.9167857772296369e-02 -2.8878629402970181e-02 -1.1504618855784192e-01 -6.2459585738331236e-01 -7.2540552056341689e-02 9.5665246609098739e-02 2.8362318670532216e-01 -1.3216126483218105e-01 -1.0758223776934789e-01 6.4536011142712388e-02 2.9928643148009876e-01 -2.5087985523031514e-01 3.0108316564105586e-01 1.5830981155395663e-01 -4.3751073407787799e-01 -1.7674346625775164e-01 2.0162700658093449e-01 -3.0835380252687522e-01 -5.1446218897894047e-01 2.3077907031907907e-01 3.7921045691871752e-01 -5.6401791156523851e-01 -5.6301571284402083e-03 -2.2613889932999720e-01 -1.1554192380721384e+00 4.3360485089816619e-01 7.3818638715168705e-01 -2.2383653958995318e+00 -3.8430023358631896e-02 -5.2805241574187212e-01 8.0895609593662665e-01 2.5748805324727338e-02 -5.6887210159999466e-02 1.3673388998148134e-01 1.4900586530615159e-01 -3.4867464892464478e-01 -1.3128340714591015e-02 -4.6584096332763336e-02 -6.6879330717263000e-02 3.1890575606162608e-01 -4.8009087702400355e-01 3.0962307569874375e-01 4.9744597451720524e-02 2.7920894718167710e-01 1.1627176561307870e-01 2.5912726971582539e-01 -2.3113052604621337e-01 3.3754725761143067e-01 2.9625885603078306e-01 1.9425089434482176e-01 3.2393350719136307e-02 -4.4344330767986461e-05 -8.5919938347688254e-02 -1.9022808121654097e-03 -1.0041331456947426e-01 -8.9068723399577290e-02 -2.5792004771398014e-01 -4.9150539548664846e-01 -3.4252124938862288e-01 -3.1741779722944931e-02 -3.1900008071198194e-01 1.2318143950249992e-01 4.6252314907629349e-01 -4.7377028588080000e-01 -2.1907924868883069e-01 -5.8152051650969594e-01 -3.0711639296113474e-01 -3.7384731200545851e-01 4.6049944978256052e-01 3.6408608005340343e-01 1.2890581175993684e-01 7.6113692240852937e-01 5.3581499420869971e-01 4.7871550364332849e-01 -3.3544347978336952e-01 -1.6452651996884904e-01 -2.5130719091522386e-02 -4.6087295142732670e-01 3.2973710961548730e-01 2.9422412124477885e-02 1.5989327400247794e-01 -9.9963957901665526e-02 8.8249234076383951e-02 1.0505177129883923e-01 -5.8779405240589055e-01 1.7627068193294995e+00 9.3954764966433374e-02 -5.1548867559764544e-01 1.1890501934602826e+00 -1.0412088946170013e+00 -2.1469382765471376e-01 1.4833082099433710e+00 6.3182246052311986e-01 -2.3667040759706017e+00 -8.8718480426912230e-02 9.1510034557730671e-02 -1.6201940407263030e-01 -6.6263471732632429e-01 1.6965850151322995e-01 -1.5208247396084001e-01 -6.5261449914724357e-01 -3.2298335282777163e-01 -7.6201105203056729e-01 2.9096171882717792e-01 6.9666419316971129e-01 3.5535185657993773e-01 5.4349266367883620e-01 2.8936241161259785e-01 8.8213993985523886e-01 -1.0841205275560406e+00 -3.1486537956080685e-01 5.0838377206258745e-01 3.6791423685012969e-01 5.9802340936284104e-01 4.3648613809518033e-01 -9.0087613667568067e-01 -1.3236393831883970e+00 2.2015876053521294e-01 1.6512770948432922e-02 1.3146391046544399e+00 1.0961408835938724e+00 4.4434099346765343e-01 -1.0549438828209190e+00 6.2970690844491906e-01 4.6204669289295075e-01 1.7783697602557313e+00 -4.3661282121023276e-01 1.6102653024619028e-03 -1.7670391344739687e+00 8.5512193095648825e-01 -4.4314628112638346e+00 8.3676215934298437e-01 3.2050953400370380e-01 1.4905620046647808e-01 9.4521554516565645e-02 1.3183346650462718e-01 2.6491867285898135e-01 9.4430695387306685e-01 1.3734769060168758e-01 -7.6471396641897327e-01 -1.0196462542919256e+00 -4.3646986101659437e-02 2.8646171123480277e+00 6.0782457029847921e-02 -3.9925486965992846e-01 4.0486542889172222e-03 9.1517091850892496e-01 -1.8565413345757176e+00 1.5686654571385281e-01 3.4704262827775691e+00 7.5622986414046145e-01 9.2226226994034310e-01 1.0825882445670043e+00 4.6323886972721484e-01 1.7423910122941380e-01 -1.4628934949831318e-01 8.3433892860548187e-01 -5.9159515525178930e-01 1.6239193845663225e-01 7.3618983894349976e-01 -1.0278181677026688e+00 -3.5503321232439400e-01 -7.2763287260556975e-01 -9.8294575802479578e-01 -3.1196451232853439e-01 -1.6963985976860161e+00 3.0737992110522305e-01 -1.1951651107812267e-01 -3.7249548087021217e-01 -4.0729034722830093e-01 -9.6346403829631277e-01 2.2119185647261419e-01 -3.1780422083085358e-01 4.7293913352061179e-01 -1.0412057272694650e-01 -3.6026217740369004e-01 1.3184094053779508e-01 -3.7168425508771079e-02 -2.2419986468058859e+00 1.1147924744064033e+00 3.6934409584527428e-01 1.9017925657503307e-02 1.2119964770481759e+00 -1.8608345663823807e+00 -3.3222506811427277e-01 8.2458028673504852e-02 3.5249237375613646e-01 -6.8474997732633894e-02 2.6867742462154143e-01 5.2214976704372229e-01 -1.5339876234871294e-01 -1.5452601893104070e-01 4.3566316258774401e-01 6.7942562310435106e-01 -6.3987002188299202e-01 -7.4404229867675767e-02 5.0297513453212173e-01 3.6461320139053580e-02 5.9968993842738155e-02 -3.5242079384680558e-01 3.6647095339263086e-01 -2.7483000266517926e-01 9.2704135251565831e-02 1.0057408821783066e-01 -3.4931716361035564e-02 7.5419206199984523e-01 -6.1743998532922328e-01 3.1405882836948890e-01 8.1077814864468301e-02 -2.1113149248823709e-01 8.9881254522335996e-01 -3.3036688560280358e-02 2.4638949365400936e-01 4.6701799973047176e-01 -2.4170221370576725e-01 -4.9207021556130282e-01 2.5111572878594191e-01 -6.7423053598496296e-01 -1.1128835404594335e-01 -7.9814227465947973e-01 -2.3497296288326301e-02 4.1517607650450922e-01 -2.8809665891812053e-01 -2.1756739507610598e-01 -5.8975924653768642e-02 3.5454685636646066e-01 1.6222539971646577e-01 -1.1962233114509109e-01 9.1097126650901006e-01 -3.6770393377553307e-01 2.7370632564837094e-01 -1.6432604111297877e-01 5.4076650383977976e-01 -2.3477477683259340e-01 -2.8068694518849857e-01 -3.0798630894627371e-01 -7.6360041158847328e-02 -2.9324274089553531e-01 7.4662228755826107e-02 -6.8398063811602217e-01 -9.7529296953805056e-01 -8.1585169930792534e-01 -1.9631687463434558e-01 -2.5063885764305521e-01 -1.4219715460459450e+00 3.8116015180152873e-01 -5.4338858173950344e-01 -5.2996029661639199e-01 -7.0844535774235562e-01 -2.6193461718536420e-01 -2.5785603947894609e-01 4.6903063757083802e-01 -2.6901475586054729e-01 -5.3635716174320869e-01 4.5321575301462352e-01 -7.9383029259614635e-01 
      </Weights>
      <Biases rows="30" cols="1">
        -1.7151946362559851e+00 -3.3546988495980268e-01 -3.2309177775261577e-01 -1.4817715599795930e-01 8.8117540918688531e-01 6.1832312058899767e-02 4.6227491042762076e-01 -3.8009808619455232e-01 -6.8904957718519666e-01 -4.0044390916781231e-01 -2.5728219463494001e-01 -1.3994411722104154e+00 -5.8737406896290956e-01 5.6159386263111910e-01 7.5667780508470062e-01 -1.1818175892595970e+00 -3.0680976834468372e+00 -1.8581270603146713e+00 9.4297056641667387e-01 -8.1759395323413597e-01 3.7957723335634608e-01 -1.1112629943729246e+00 -9.1124872957552283e-02 5.8675815288668731e-01 4.9558110357053187e-01 -1.8333067109770673e-02 1.4391735730141161e-01 6.7475531143793510e-02 -3.1699383606439929e-01 -9.2583116140242872e-01 
      </Biases>
    </Layer>
    <Layer ActivationFunction="3">
      <Weights rows="20" cols="30">
        -1.3997054051209858e+00 -1.9752738138049097e-01 -1.1041611682410046e-01 8.9207975159943900e-02 3.6238831570133945e-01 -1.6054726886230763e-01 -1.1249804559194458e-01 2.4798681971342260e-01 -7.4550966438085864e-01 2.2609122298073742e-01 1.9320802750055932e-01 2.8298099982692625e-02 5.5634134796258713e-02 4.3066586212090469e-01 8.5510716591774727e-01 7.6252291790321802e-01 -8.6028988539660989e-01 -8.1167114132912099e-01 1.1023823353054869e+00 -4.0304157767068710e-01 9.7187645704824216e-02 -6.3648700331696451e-01 -9.4444561761000689e-03 5.7233302251817240e-02 -3.8177060134410440e-01 4.4698118561622041e-01 -1.3031490169385734e-01 -2.4143960923877641e-01 -1.5809330755203069e-01 -8.0759821212519997e-02 -8.6076425148557192e-02 -1.8222841858150449e-01 -1.0627164815749897e-01 -2.0594218782083581e-01 1.6932040609863006e-01 -2.2159283111010294e-01 6.0033533915750857e-02 -3.8565501834586335e-01 -6.5730101681866127e-01 4.4028991212727298e-02 -7.7366164910365520e-02 -3.8568052972295247e-01 -2.0237826656485425e-01 -3.1804763721384305e-01 6.7040032101942082e-01 -4.4693129962263362e-01 -2.0143051944461937e-01 -7.0105724185028595e-01 9.2793989653417930e-01 4.4793431526962929e-01 -1.8292212644028821e-01 -2.4740167564106938e-01 -1.2520975685925223e-01 4.7818498634223505e-01 -7.0347719994634195e-01 -5.3374463851445209e-01 -5.7303720548708172e-02 -8.3429157133320220e-01 7.6903784670776895e-02 2.1189226427461527e-01 -2.0579134386903442e-01 5.2673194076959154e-02 1.9840050640685447e-01 1.4632622216778685e-01 -1.6829417818014020e-01 1.6050749455652252e-01 -4.7469666894440765e-02 2.7208369620135670e-01 -5.8859938277773194e-02 1.1126687354360773e-01 -1.3813948508290103e-01 -2.8290644238055157e-01 7.1797170954824421e-02 -1.2893668203439682e-01 -1.0156265578705173e-01 1.4796432084746336e-01 -2.0410955841598794e-01 -2.0767446020577124e-01 2.2408959219219102e-01 -7.2952747499733836e-02 9.7723058339256375e-02 -3.7709878263382968e-01 1.5306531022547062e-01 -1.8624365643408450e-01 2.8412886503856272e-01 2.6370346079072637e-01 1.4953504047519722e-01 -6.7035914542104480e-03 -3.5384688030949452e-01 1.9747887708746664e-02 -7.0290736716532284e-02 3.5803912627470329e-03 5.7141701779760495e-02 -5.4276585389841446e-02 1.6492826186986587e-01 1.6312448158392184e-01 2.4582760654657496e-01 -5.5769048870049381e-02 9.9659870501769582e-02 -2.5322359641592546e-01 1.4236555360267583e-01 -1.0592771549575181e-01 1.8542065662517666e-02 2.9432340422842346e-01 -1.6540503692648395e-02 -1.6656133303882351e-01 5.1044569290452577e-02 -6.9798890539079977e-02 -8.3235418161115168e-02 2.5709002670550492e-02 -1.4836420738215145e-01 -2.7325864307205955e-01 6.6778669279906611e-02 -2.2935275749739922e-01 1.8840518648402046e-01 1.5323397032887277e-02 7.8419184949368351e-02 1.9310179840048147e-01 1.1931969321125593e-01 1.6003421682277735e-01 -4.2475086222968872e-01 6.3075092722480441e-01 -1.4531837611443321e-01 5.3526514312447748e-01 -3.0040991980536025e-01 1.2011599813269391e-01 9.9247254400574483e-02 3.5081966390780234e-01 -6.3656443532262522e-03 2.9581499630814224e-02 2.9734401310404596e-01 2.8037303851487810e-01 -1.3217117594861766e-02 -2.4747227432645680e-01 -2.0137732687322604e-01 -1.0206228810810686e-01 1.7108213522988142e-01 5.7183557293746534e-01 5.4426135672237481e-02 2.5681457646510275e-01 3.0155851901455000e-01 4.5851087001094232e-01 -2.4159449761599563e-01 2.8991273222907787e-01 -3.1349564979151107e-01 2.6075740735949710e-01 -5.6448430357537049e-01 2.2021868715968032e-01 -2.8813940933798571e-01 6.7907850804347814e-01 6.7905460618916724e-02 -1.5435806515383588e-01 -1.7312892046689476e-01 -9.7040715126246332e-02 5.3241179949411500e-02 2.2836322793413279e-02 -9.2234311745611891e-02 -6.2060277115470609e-02 -5.4495278730037157e-02 1.3565031350272147e-03 1.0799197940024816e-01 2.0202282849504130e-01 -1.7523136871116923e-01 -1.1798833926567621e-01 1.0767725826699481e-01 -2.8021188587701390e-01 -8.8451904570583204e-02 8.6680208054973173e-02 -2.8766454621042731e-02 -1.9441416698064110e-01 8.6192822922946666e-02 8.2705304926125212e-02 -2.5088062658388414e-02 -1.1708750796380210e-01 1.1756037415100334e-01 -1.5823414997913543e-01 -2.2347835738805868e-01 2.0966190255724115e-01 -1.3446132815127065e-01 1.3471024359620234e-01 -4.7229237135519707e-02 6.4891123445594834e-02 3.3870779669021460e-02 -2.0767919747523048e-01 -2.2722851588309675e-01 1.0038451249406127e-01 1.0885015238842868e-01 4.6505089547022559e-02 2.3405069525453417e-01 2.1875884135020049e-01 1.5180419029532963e-01 -1.4703864124815050e-01 1.6340665051751732e-01 1.1087546404369686e-03 1.1066257671808540e-01 2.1425398383825109e-01 -1.4194591564494019e-01 -3.7808979720175573e-01 1.7419239245086321e-01 -2.0494848095433879e-01 -7.5454069880933519e-02 7.6267998756787511e-02 -1.5677965917750158e-01 -1.8695410092824299e-01 -2.5672936615653885e-01 -9.2573848212612581e-02 -4.4796254147797698e-02 4.5124157628474972e-02 2.1903640576424568e-01 2.5218391141358199e-02 -3.4616648157642504e-01 -2.9250754520653055e-01 4.2375066806784573e-02 3.6645809259463966e-02 2.6659275599949639e-01 -8.9652433747536758e-02 -2.0366903337617245e-01 1.3591937305097679e-01 -1.7385087694206833e-01 1.2586175660404217e-01 -1.5070671989128334e-01 -3.5904512610173576e-03 1.8188883955512852e-01 7.2704742886620211e-02 6.6610865744310924e-02 4.8507614970036722e-02 5.7659093137595908e-03 -5.4365574097360592e-02 2.6459785990458445e-01 7.4981892750946591e-02 -8.1364636153013439e-02 2.8860742039685278e-01 -1.1005279604067437e-01 2.0633220901179122e-02 -1.4872840024061512e-01 -4.4957208385327976e-02 -5.5811391778095722e-02 -2.2755068488635660e-01 -1.7828392597281015e-01 -7.2510105526344092e-03 1.1738898038291737e-01 -2.0901217408537764e-01 1.4110141136555948e-01 -1.4175207512962967e-01 -1.5006755629500446e-01 1.1108412556589953e-01 2.2320620261106357e-03 1.8096043241942097e-01 -1.2846724980297466e-01 1.0303442233529224e-01 4.7566612218581376e-02 3.5372013390122259e-01 2.0215292898721884e-02 -1.8093081443742834e-01 -7.3319223466622493e-02 -1.5513950150943984e-01 5.1908699758678556e-01 -1.4593565012550577e-01 -1.5361238923958612e-01 -1.5991979882126831e-01 2.3851410842655607e-01 1.0838074385254906e-01 -3.8140689227877472e-02 -1.6475163115352418e-01 -1.8577133195101694e-01 1.9989717342543706e-01 4.3604758748154900e-02 1.9738022275377624e-02 2.2335817746005263e-01 4.6165037251520748e-02 -8.6762746178383005e-02 3.0329768065823348e-01 -2.6494210615001658e-02 -6.2978704705593649e-02 1.1526493807710482e-01 -3.1328846471614263e-01 -5.7251959692221861e-02 -4.3882126613183234e-02 -1.5524717709893229e-01 1.0438730029852374e-01 4.0375630982483160e-02 -1.3048280921761014e-02 8.8178383367144161e-02 -6.6272577195431420e-02 -1.6346113857532743e-01 8.1576889005245609e-03 -7.0734028626301196e-02 -2.2445314679474421e-01 1.5627240607660550e-01 -2.6279736277892701e-01 -3.7354422969352363e-01 2.6040980539856590e-01 2.5318513616664434e-01 3.3271346411920960e-01 -5.4010148183083004e-03 1.1547489851865420e-01 3.8750157162907077e-02 -3.6360585291862729e-01 -3.9869772925613535e-02 -5.0645565851985999e-02 1.8485666546015014e-01 2.9766052271238885e-01 2.2395249114382687e-01 -2.0562459879547107e-01 3.3362207299982231e-02 2.4630096062136623e-02 1.7020089797392834e-01 -1.1951461109612771e-01 5.1096570199013391e-01 5.0538844336547684e-01 -1.6060038533427290e-01 -6.6863429755621262e-02 1.8334725679768121e-01 2.9434361329990788e-01 -4.7672521755850528e-01 -8.7894137049860710e-01 -2.2298557070473080e-01 1.7707739542933482e-01 -8.9270973463316972e-02 8.5710093726960779e-01 -7.4497792126887541e-01 1.2448172504054848e-01 -3.9020923336597665e-02 -2.5636415918169597e-01 -1.0939865135827204e-01 1.2119866229213952e-02 -3.5415308720399408e-01 -1.7407831917554609e-01 -1.3011724596226965e-01 -2.6911915884670479e-01 7.7841425740405937e-02 2.3644790215772749e-01 1.6108384147378214e-02 1.8038836711854070e-01 -1.3808958334198460e-01 -3.0175042724338264e-01 -2.1898569979365251e-01 -2.3396637490792505e-01 2.2675258950523022e-02 -1.6295556118188527e-03 1.8453881310292988e-01 1.6961870160385326e-01 -1.0727998857237510e-01 -8.0565137958630122e-03 -2.1056315339519849e-01 9.3331977964230720e-02 3.2278574818437128e-01 -1.9993560317050390e-02 3.2620188507063198e-02 7.1408839226328416e-02 -4.1699158514678460e-02 -6.0886311291891343e-02 7.8758097562731523e-04 8.4529210287541789e-02 1.7648337976274409e-01 1.1377191037129182e-01 -9.0095841009773581e-02 -5.9681546312571429e-02 -3.3684678639501989e-02 -8.7370231854090610e-02 -1.3349919781323633e-01 -1.2685839331402168e-01 -2.4953626860421570e-02 -1.1501554523602282e-01 -4.3109282977108955e-02 -3.8269495517545590e-02 -2.0373405651082677e-01 8.1260938226606919e-02 -5.5317702448436715e-02 -1.7233431631526089e-02 4.3230523526163835e-02 4.1190443628284057e-02 -1.4781607034120928e-01 -5.7246980844628786e-02 1.1661619652537054e-01 2.2627060830270648e-01 8.0631839492328355e-02 -2.1037142583380836e-01 6.3387146240399261e-02 -1.2316093401487935e-02 -3.1919356708355183e-02 1.7678023975865079e-01 -8.6431510165939363e-02 1.0376088434579554e-01 1.3312981898783166e-01 1.4479520371182097e-01 4.4580056992877044e-02 -1.0700806339836373e-01 -2.1892369035357834e-01 4.5761312580209048e-03 1.7479302564175470e-01 -8.0812558240432797e-01 8.1407823942516799e-01 8.0028826232596095e-01 -4.4443444800651094e-01 1.1690148133605089e+00 -5.3813102115787881e-01 1.4660039193786195e-01 -6.1493909303181493e-01 -1.1775535686695910e+00 -2.5428703021257598e-01 3.1693359771312130e-01 -1.9699878514358707e-01 -1.4187270703039362e-01 -3.4420614879983064e-01 -6.0634803716778163e-01 5.2095371726893491e-01 8.5819386397201292e-01 3.0837108515847922e-01 5.2594871748080885e-01 1.3162164949474482e+00 -2.1501364834380261e-02 -1.2802985390128210e-01 -2.7252776648281951e-01 7.3172673076779926e-01 7.7329247690915404e-01 -1.2538436903014208e-01 8.3797959182136936e-02 1.4552654868256235e-01 -4.5443195445602508e-01 7.1844010477565529e-02 -2.9943774464986567e-01 -2.5953721197705448e-01 1.9583177863555370e-01 2.0668482102099928e-01 2.0908798011794047e-01 1.4181797583140518e-01 7.9213472550515251e-02 8.4256762667742680e-02 -3.6149268893892816e-01 -1.9585463046031934e-01 1.4996166920695445e-01 2.2318629643684945e-01 -2.0489922732075014e-01 -1.7734956546078545e-01 2.8274501685341030e-01 6.4365492766165100e-02 2.0469262585324016e-01 -2.9597682182898771e-01 3.3797699479890353e-01 -8.8813945060090119e-02 2.1995127862513401e-02 -3.2121855418478346e-01 -1.6033101908293096e-01 2.7848430716199185e-01 1.0059450369984317e-01 -1.3160777777279895e-01 2.2095994348305778e-01 6.5340697536210732e-02 1.2256355814008364e-01 6.5274506666306731e-01 -1.4128264068095735e+00 5.9431963880420435e-01 5.0457745320710290e-01 -7.2147136151772528e-01 8.1445300740233673e-01 -3.5611466442192147e-01 3.1715252693545393e-01 -1.1313926194786470e+00 -7.7998280250589946e-01 -4.9530080457928766e-01 4.8711122121091144e-01 4.3892846817945301e-02 -7.4279604406474731e-01 -4.1661525011401017e-02 -1.1545335430132102e+00 4.8738184530346046e-01 5.9309114368945881e-01 -2.2838707645702261e-01 8.0633098595357877e-01 1.4938675523444624e+00 -7.5688773999375714e-01 -1.2719949121931726e-01 -3.5701722028559792e-02 -2.4933616981190496e-01 6.7374743016505911e-01 5.7231092876916279e-01 -1.2122714047883222e-01 1.9630321517441285e-01 1.1692639145063996e-01 -7.5640952448331231e-02 -3.1375844128280199e-02 -1.3310980139857589e-01 1.9369809642462651e-01 2.6584630199575787e-01 3.8740559749740516e-01 -3.3233251916844164e-01 -3.5673560647875002e-01 -1.0656000089874436e-01 -6.1552621508207106e-01 4.2328374054010071e-01 -6.5568952860586310e-02 -4.3747440790531872e-01 -2.2817773101705918e-01 2.4774801301849528e-01 6.4483884285748180e-02 5.8452408784783261e-01 -2.0066652755181497e-01 -4.6800454204282721e-01 -7.5095484974677262e-01 3.7740051468995850e-01 6.1347111432035295e-01 2.4726917851837277e-01 6.8107060735025104e-01 3.4138572435564496e-01 -4.0747465271617750e-01 -1.6528814862630170e-01 -7.7503649594881152e-01 4.3643548624074729e-01 2.2296218999073342e-01 2.3653243049755354e-01 -2.3160015495098091e-01 -1.9413327810649161e-01 2.6289294907499428e-01 1.7650182345883567e-01 1.1131207495172235e-02 2.6211378746600542e-02 -1.0244289884536777e-01 -2.1458337263405736e-01 3.4144024940536741e-02 2.5387674218468850e-02 -1.5856811048416686e-01 -4.3704748729797620e-02 1.9059002705907219e-01 -1.5504681657622049e-01 8.9721522567052403e-02 -1.7703162793571403e-01 -1.9352286997113982e-01 -1.2115120439599905e-01 -1.6583184405821963e-01 1.8117750483118295e-01 1.0077080434701249e-01 -1.4073135936591746e-01 1.6451157501409339e-01 1.0464243818254068e-01 -1.0845727631072996e-01 8.5466252360028500e-02 2.1092046788301205e-02 2.0595453611531508e-01 9.4874715540366097e-02 1.5494160352638247e+00 9.4078064600172795e-01 -1.1010762258642028e-01 6.4615302021821841e-01 -7.8494408233621382e-01 -6.5089232119114770e-02 3.2246194124851621e-02 4.4771735153975695e-01 -3.9054061836908321e-01 3.7280257822051480e-02 5.5057700652572927e-01 1.1190057409887051e+00 1.4015926533150755e-01 -2.0089034042842691e-01 -6.9525733251567146e-01 -1.8315755612110668e-01 1.2330460761769000e+00 1.1255878769657659e+00 8.2593128282984396e-01 3.2018868481117724e-01 7.6350463379599987e-01 1.1341004737237628e+00 -3.8315855101140006e-01 -1.5495851240429148e-01 -1.5541991901327290e-01 1.0674870810542652e+00 -1.1697321447700122e+00 4.6731961477375383e-01 1.2157557032352580e-01 4.5390699760033870e-01 -2.0130721873340898e-01 -2.4876435599581109e-01 5.2907189990917633e-02 1.4008416812655672e-01 -2.2744154324581542e-01 1.2277189407372607e-01 -2.9120185687980936e-02 7.0425133583292998e-02 8.8373082750181894e-02 -1.3952165451440565e-01 9.6881273751213234e-02 1.8506137828781519e-01 -1.3615567345220639e-01 -3.3422283829280093e-02 -2.5970199220128698e-01 8.4940557430341710e-03 -2.1409889820139624e-02 -5.5871490403125758e-02 1.6745070328792377e-01 -1.5452173727891239e-01 -1.7417098124699232e-01 -2.4745836162140231e-01 -2.7028492239827484e-01 1.4588909763879909e-01 -1.4725163067022171e-01 1.9395110568941965e-01 -9.0191665217166206e-02 -6.7299133976764763e-02 -2.2217411227287912e-01 -7.5170348396162281e-02 
      </Weights>
      <Biases rows="20" cols="1">
        0.0000000000000000e+00 0.0000000000000000e+00 0.0000000000000000e+00 0.0000000000000000e+00 0.0000000000000000e+00 0.0000000000000000e+00 0.0000000000000000e+00 0.0000000000000000e+00 0.0000000000000000e+00 0.0000000000000000e+00 0.0000000000000000e+00 0.0000000000000000e+00 0.0000000000000000e+00 0.0000000000000000e+00 0.0000000000000000e+00 0.0000000000000000e+00 0.0000000000000000e+00 0.0000000000000000e+00 0.0000000000000000e+00 0.0000000000000000e+00 
      </Biases>
    </Layer>
    <Layer ActivationFunction="0">
      <Weights rows="1" cols="20">
        -6.4173912508390940e-01 -6.9566302773556110e-01 -3.5353945787553964e-01 -1.7449166879313938e-01 -5.0459975462265749e-01 6.2216270718845841e-02 -9.7556052174962368e-02 7.5835324517892141e-02 -1.9987842705776490e-01 1.5868307348017519e-01 6.8412252017936992e-01 -4.3604741568902379e-02 -3.1699260336813792e-02 -9.6688717061953622e-01 -6.3995065166241524e-02 1.1339671970639487e+00 4.6002066364356520e-01 9.7319184866047331e-03 7.7922146478139709e-01 -5.4480479161989892e-02 
      </Weights>
      <Biases rows="1" cols="1">
        0.0000000000000000e+00 
      </Biases>
    </Layer>
  </Weights>
</MethodSetup>
