<?xml version="1.0"?>
<MethodSetup Method="MLP::MLP">
  <GeneralInfo>
    <Info name="TMVA Release" value="4.2.1 [262657]"/>
    <Info name="ROOT Release" value="6.06/01 [394753]"/>
    <Info name="Creator" value="minerva1993"/>
    <Info name="Date" value="Sat May 20 19:51:46 2017"/>
    <Info name="Host" value="Linux vocms0301.cern.ch 2.6.32-642.11.1.el6.x86_64 #1 SMP Wed Nov 16 09:40:09 CET 2016 x86_64 x86_64 x86_64 GNU/Linux"/>
    <Info name="Dir" value="/home/minerva1993/fcnc/tmva"/>
    <Info name="Training events" value="293579"/>
    <Info name="TrainingTime" value="1.05865814e+03"/>
    <Info name="AnalysisType" value="Classification"/>
  </GeneralInfo>
  <Options>
    <Option name="NCycles" modified="Yes">1000</Option>
    <Option name="HiddenLayers" modified="Yes">N+5</Option>
    <Option name="NeuronType" modified="Yes">tanh</Option>
    <Option name="RandomSeed" modified="No">1</Option>
    <Option name="EstimatorType" modified="No">CE</Option>
    <Option name="NeuronInputType" modified="No">sum</Option>
    <Option name="V" modified="Yes">False</Option>
    <Option name="VerbosityLevel" modified="No">Default</Option>
    <Option name="VarTransform" modified="Yes">N</Option>
    <Option name="H" modified="Yes">True</Option>
    <Option name="CreateMVAPdfs" modified="No">False</Option>
    <Option name="IgnoreNegWeightsInTraining" modified="No">False</Option>
    <Option name="TrainingMethod" modified="No">BP</Option>
    <Option name="LearningRate" modified="No">2.000000e-02</Option>
    <Option name="DecayRate" modified="No">1.000000e-02</Option>
    <Option name="TestRate" modified="Yes">5</Option>
    <Option name="EpochMonitoring" modified="No">False</Option>
    <Option name="Sampling" modified="No">1.000000e+00</Option>
    <Option name="SamplingEpoch" modified="No">1.000000e+00</Option>
    <Option name="SamplingImportance" modified="No">1.000000e+00</Option>
    <Option name="SamplingTraining" modified="No">True</Option>
    <Option name="SamplingTesting" modified="No">False</Option>
    <Option name="ResetStep" modified="No">50</Option>
    <Option name="Tau" modified="No">3.000000e+00</Option>
    <Option name="BPMode" modified="No">sequential</Option>
    <Option name="BatchSize" modified="No">-1</Option>
    <Option name="ConvergenceImprove" modified="No">1.000000e-30</Option>
    <Option name="ConvergenceTests" modified="No">-1</Option>
    <Option name="UseRegulator" modified="Yes">False</Option>
    <Option name="UpdateLimit" modified="No">10000</Option>
    <Option name="CalculateErrors" modified="No">False</Option>
    <Option name="WeightRange" modified="No">1.000000e+00</Option>
  </Options>
  <Variables NVar="5">
    <Variable VarIndex="0" Expression="NJets" Label="NJets" Title="NJets" Unit="" Internal="NJets" Type="I" Min="4.00000000e+00" Max="1.70000000e+01"/>
    <Variable VarIndex="1" Expression="NBJets_M" Label="NBJets_M" Title="NBJets_M" Unit="" Internal="NBJets_M" Type="I" Min="1.00000000e+00" Max="7.00000000e+00"/>
    <Variable VarIndex="2" Expression="NCJets_M" Label="NCJets_M" Title="NCJets_M" Unit="" Internal="NCJets_M" Type="I" Min="1.00000000e+00" Max="1.00000000e+01"/>
    <Variable VarIndex="3" Expression="BJMDPhi" Label="BJMDPhi" Title="BJMDPhi" Unit="" Internal="BJMDPhi" Type="F" Min="-3.14159012e+00" Max="3.14157367e+00"/>
    <Variable VarIndex="4" Expression="BJMDEta" Label="BJMDEta" Title="BJMDEta" Unit="" Internal="BJMDEta" Type="F" Min="-4.75499535e+00" Max="4.76451778e+00"/>
  </Variables>
  <Spectators NSpec="0"/>
  <Classes NClass="2">
    <Class Name="Signal" Index="0"/>
    <Class Name="Background" Index="1"/>
  </Classes>
  <Transformations NTransformations="1">
    <Transform Name="Normalize">
      <Selection>
        <Input NInputs="5">
          <Input Type="Variable" Label="NJets" Expression="NJets"/>
          <Input Type="Variable" Label="NBJets_M" Expression="NBJets_M"/>
          <Input Type="Variable" Label="NCJets_M" Expression="NCJets_M"/>
          <Input Type="Variable" Label="BJMDPhi" Expression="BJMDPhi"/>
          <Input Type="Variable" Label="BJMDEta" Expression="BJMDEta"/>
        </Input>
        <Output NOutputs="5">
          <Output Type="Variable" Label="NJets" Expression="NJets"/>
          <Output Type="Variable" Label="NBJets_M" Expression="NBJets_M"/>
          <Output Type="Variable" Label="NCJets_M" Expression="NCJets_M"/>
          <Output Type="Variable" Label="BJMDPhi" Expression="BJMDPhi"/>
          <Output Type="Variable" Label="BJMDEta" Expression="BJMDEta"/>
        </Output>
      </Selection>
      <Class ClassIndex="0">
        <Ranges>
          <Range Index="0" Min="4.0000000000000000e+00" Max="1.4000000000000000e+01"/>
          <Range Index="1" Min="1.0000000000000000e+00" Max="7.0000000000000000e+00"/>
          <Range Index="2" Min="1.0000000000000000e+00" Max="9.0000000000000000e+00"/>
          <Range Index="3" Min="-3.1415901184082031e+00" Max="3.1415736675262451e+00"/>
          <Range Index="4" Min="-4.7470002174377441e+00" Max="4.7495479583740234e+00"/>
        </Ranges>
      </Class>
      <Class ClassIndex="1">
        <Ranges>
          <Range Index="0" Min="4.0000000000000000e+00" Max="1.7000000000000000e+01"/>
          <Range Index="1" Min="1.0000000000000000e+00" Max="7.0000000000000000e+00"/>
          <Range Index="2" Min="1.0000000000000000e+00" Max="1.0000000000000000e+01"/>
          <Range Index="3" Min="-3.1415557861328125e+00" Max="3.1415619850158691e+00"/>
          <Range Index="4" Min="-4.7549953460693359e+00" Max="4.7645177841186523e+00"/>
        </Ranges>
      </Class>
      <Class ClassIndex="2">
        <Ranges>
          <Range Index="0" Min="4.0000000000000000e+00" Max="1.7000000000000000e+01"/>
          <Range Index="1" Min="1.0000000000000000e+00" Max="7.0000000000000000e+00"/>
          <Range Index="2" Min="1.0000000000000000e+00" Max="1.0000000000000000e+01"/>
          <Range Index="3" Min="-3.1415901184082031e+00" Max="3.1415736675262451e+00"/>
          <Range Index="4" Min="-4.7549953460693359e+00" Max="4.7645177841186523e+00"/>
        </Ranges>
      </Class>
    </Transform>
  </Transformations>
  <MVAPdfs/>
  <Weights>
    <Layout NLayers="3">
      <Layer Index="0" NNeurons="6">
        <Neuron NSynapses="10">
          -1.0438347924586223e-01 8.1819220631878478e-02 1.2051523538104654e+00 4.4507892760312229e-01 -1.3163616290243855e+01 -4.2539250122773431e-02 -3.8378216544412391e-01 2.7170334787969780e-01 -6.7010403532938367e-01 -8.5758995938167704e-01 
        </Neuron>
        <Neuron NSynapses="10">
          1.3447935337055139e-01 -1.0477627563386400e-01 2.0992553924022701e+00 -4.5393002361694929e-01 -2.5894336292181058e-01 5.4082524662258241e-02 2.8629305081873899e+00 -3.6131181591568934e-01 2.1136111234726562e-01 1.0880726509578928e+01 
        </Neuron>
        <Neuron NSynapses="10">
          -5.0510840042454569e-02 3.9480276779524467e-02 1.1584770016497070e+00 1.8688953225814783e-01 -7.1474891658911233e-01 -2.0446693559152809e-02 1.9272375463199420e-01 1.2952515438059084e-01 -4.2199675597819447e-01 7.7023229397670290e-01 
        </Neuron>
        <Neuron NSynapses="10">
          -1.6563653666401446e-02 1.2722288594534706e-02 4.6680702662381723e-02 2.9531145631179173e-01 -6.5964389012424879e-02 -6.4751581002718828e-03 -8.5243064755043202e-02 6.9114502669629083e-02 -2.2034717170992958e-02 3.5670796301405759e-02 
        </Neuron>
        <Neuron NSynapses="10">
          1.6599144622453998e-02 -1.3337699480623622e-02 1.0347838970130629e+00 6.0233523856377145e-04 -5.2661506663741732e-02 7.1204474668671780e-03 -2.1231190445167241e+00 -2.2475317011122455e-02 2.1300809902484819e+00 2.2920750474715228e+00 
        </Neuron>
        <Neuron NSynapses="10">
          -7.1099566710207621e-03 7.0482776866520715e-03 1.6118049454994798e+00 -1.7016498021980528e-01 -1.2000521643274427e+01 -4.5648645748621233e-03 1.7075662905305020e+00 -4.5012432152584388e-02 2.5461718393174848e-01 9.3232766381847796e+00 
        </Neuron>
      </Layer>
      <Layer Index="1" NNeurons="11">
        <Neuron NSynapses="1">
          -6.1311650597082185e-02 
        </Neuron>
        <Neuron NSynapses="1">
          4.8125797637365089e-02 
        </Neuron>
        <Neuron NSynapses="1">
          -1.2317304118305903e+00 
        </Neuron>
        <Neuron NSynapses="1">
          3.0487248735837869e-01 
        </Neuron>
        <Neuron NSynapses="1">
          6.2604359398297993e-01 
        </Neuron>
        <Neuron NSynapses="1">
          -2.5067416485347840e-02 
        </Neuron>
        <Neuron NSynapses="1">
          5.3251561940365588e-01 
        </Neuron>
        <Neuron NSynapses="1">
          1.5939565147157420e-01 
        </Neuron>
        <Neuron NSynapses="1">
          1.2871693818040086e+00 
        </Neuron>
        <Neuron NSynapses="1">
          -1.0584628577061594e+00 
        </Neuron>
        <Neuron NSynapses="1">
          -6.0172879239185173e-01 
        </Neuron>
      </Layer>
      <Layer Index="2" NNeurons="1">
        <Neuron NSynapses="0"/>
      </Layer>
    </Layout>
  </Weights>
</MethodSetup>
